,E0,E1,E2,E3,E4,E5,E6,E7,E8,E9,E10,E11,E12,E13,E14,E15,E16,E17,E18,E19,E20,E21,E22,E23,E24,E25,E26,E27,E28,E29,E30,E31,E32,E33,E34,E35,E36,E37,E38,E39,E40,E41,E42,E43,E44,E45,E46,E47,E48,E49,E50,E51,E52,E53,E54,E55,E56,E57,E58,E59,E60,E61,E62,E63,E64,E65,E66,E67,E68,E69
MDA-MB-134-VI,0.5984632,0.23207067,-0.06466598,-2.031071,0.087676734,0.8174925,0.26150686,0.7146958,-0.4766799,-0.5879486,0.6675937,0.5877275,-1.6097105,0.2721245,0.167609,2.0963106,1.232941,-0.71491,-0.51683486,1.8422654,-0.6443101,-0.3927176,-1.5216316,0.34040895,-0.6100506,-0.17080878,-0.37913662,-0.97989833,0.18207452,-0.60410416,-0.07889658,2.1321976,1.3468,0.0024380838,1.4299515,-0.18455279,0.6420448,-0.0103387255,-0.29769808,-0.6526217,-0.08640996,-0.32810378,-0.44808564,-0.32450172,-0.17011984,0.12314355,0.05595341,0.5526089,-0.24471903,-0.47248328,0.42952615,0.019867474,0.006193348,-0.3469519,-0.17418677,-0.45115113,0.11135583,-0.19579272,0.03861006,-0.387697,-0.07099926,0.4018296,-0.3404823,-0.12089835,-0.037302107,0.59623575,-0.49628413,0.4516572,-0.07140374,-0.12319005
CMK,-0.3812083,0.20817874,0.04060371,-0.21401253,1.2324674,-0.36778098,2.2864084,-0.06761385,0.27780032,-0.19828305,0.47667417,0.09548697,0.55905503,-0.5413892,-0.99299645,-0.1733609,-1.0801916,-0.3269898,-0.5941732,-1.3893328,0.47752386,-0.113686346,0.3550904,0.77240634,1.0447904,0.7147023,-0.40953732,-0.0108072255,0.8380997,-0.2892169,-0.17457095,-0.9513028,0.20092623,0.3364051,-0.36732525,-0.14982113,0.42065275,-0.4424132,-0.233745,-0.7522223,-0.3434206,-0.47669652,-0.16150358,-0.43939963,0.44611335,0.39367518,0.26658118,0.105748415,-0.2383004,-0.54061085,0.016217144,-0.32279843,0.2961515,-0.22492343,0.014604695,-0.47020552,-0.059013672,-0.64962316,0.23550013,-0.5366968,-0.19675165,0.28913888,-0.3231658,-0.3961215,-0.16836728,0.1324135,-0.30528083,0.4735677,0.017359143,0.32551745
HSC-2,0.12295424,-0.02975968,-0.05859332,-0.35548615,-0.21020812,-0.01677365,0.3802653,0.24017788,-0.027945008,0.18478744,0.15735658,0.21115048,-0.61871135,-0.29061586,0.32737294,0.8595534,0.7312833,0.14468887,0.00542216,0.8314161,0.104686186,-0.29857036,-0.8480874,-0.21347874,0.020685337,-0.35078093,-0.28161085,0.5693562,-1.0625111,-0.43236196,0.117356464,0.7469281,0.6503985,0.055804472,0.6609061,-0.14982113,0.42065275,-0.4424132,-0.233745,-0.7522223,-0.3434206,-0.47669652,-0.16150358,-0.43939963,0.44611335,0.39367518,0.26658118,0.105748415,-0.2383004,-0.54061085,0.016217144,-0.32279843,0.2961515,-0.22492343,0.014604695,-0.47020552,-0.059013672,-0.64962316,0.23550013,-0.5366968,-0.19675165,0.28913888,-0.3231658,-0.3961215,-0.16836728,0.1324135,-0.30528083,0.4735677,0.017359143,0.32551745
HCC1143,0.8135129,-0.13591608,0.5165863,-1.3490067,-0.25292188,0.9138511,-0.44677666,0.9164618,0.028257053,1.0300132,0.55664706,0.93567497,-2.7018547,-0.12670265,0.31758264,2.5783055,0.4598653,0.58811057,-0.33245856,2.787211,-1.0313858,-0.9711979,-2.0238109,0.06472398,-0.8902238,-0.9347661,-0.3791582,0.23746476,-1.1467885,-0.6335045,-0.3509308,2.2144253,2.2004304,-0.0049954955,2.220003,-0.14982113,0.42065275,-0.4424132,-0.233745,-0.7522223,-0.3434206,-0.47669652,-0.16150358,-0.43939963,0.44611335,0.39367518,0.26658118,0.105748415,-0.2383004,-0.54061085,0.016217144,-0.32279843,0.2961515,-0.22492343,0.014604695,-0.47020552,-0.059013672,-0.64962316,0.23550013,-0.5366968,-0.19675165,0.28913888,-0.3231658,-0.3961215,-0.16836728,0.1324135,-0.30528083,0.4735677,0.017359143,0.32551745
DU145,0.35175896,-0.061874818,-0.04416299,-0.4452582,-0.11192214,0.5001616,-0.03502899,0.50815624,0.060976386,-0.1508338,0.08727193,0.23491986,-0.8217167,-0.35146168,0.27517828,0.9216647,0.1971681,0.15220165,-0.26184022,1.079541,-0.031034516,-0.19786702,-0.813333,0.07818725,-0.14933343,0.0691579,-0.02304068,-0.17471737,-0.27195543,-0.5206128,-0.290729,0.6065937,0.77631116,0.25929728,0.5823107,-0.14982113,0.42065275,-0.4424132,-0.233745,-0.7522223,-0.3434206,-0.47669652,-0.16150358,-0.43939963,0.44611335,0.39367518,0.26658118,0.105748415,-0.2383004,-0.54061085,0.016217144,-0.32279843,0.2961515,-0.22492343,0.014604695,-0.47020552,-0.059013672,-0.64962316,0.23550013,-0.5366968,-0.19675165,0.28913888,-0.3231658,-0.3961215,-0.16836728,0.1324135,-0.30528083,0.4735677,0.017359143,0.32551745
KM-H2,-1.6572058,0.2798863,-0.077329114,0.39880022,1.6317222,-0.6231248,2.807793,-0.23199663,0.33159557,-1.2535521,-0.1263267,-0.039299563,2.0367374,-0.7561298,-1.285374,-0.99948686,-1.220136,-0.84654903,-0.623788,-2.5077105,1.2607545,0.2156628,0.82538724,1.1718935,1.6689678,0.73947674,0.2982324,0.4494217,1.8550956,-0.5035751,0.4308116,-1.5899501,-1.0224382,1.1526432,-1.4413252,0.24075948,0.43199435,-0.130505,-0.026655814,-0.36673784,-0.1690955,-0.5441706,-0.25002602,-0.7673791,0.45317942,0.28964058,0.18054892,0.075668216,-0.106346846,-0.53572196,0.29213858,-0.37565958,0.48535982,-0.4975128,-0.18056007,-0.49602246,0.07401043,-0.6111889,0.08413529,-0.6139468,0.084663376,0.39176667,-0.018445108,-0.31179515,-0.086362995,0.23141661,-0.43827102,0.42114913,0.02935155,0.13688955
MHH-ES-1,-0.025522262,0.3733651,0.3168508,0.1524852,-0.04603581,-0.053338386,0.80379254,-0.18986613,-0.088904746,-0.06731927,0.3885261,0.09551345,0.14215758,0.22952393,-0.2975698,0.24302296,-0.08231169,-0.20466597,-0.61809564,-0.08593231,0.13220873,-0.1580637,-0.13533811,0.7226367,0.43297452,0.2859747,0.15051086,-0.10024558,-0.11455251,0.015616388,0.09782728,0.45082995,0.34970835,0.16345417,0.3689595,-0.14982113,0.42065275,-0.4424132,-0.233745,-0.7522223,-0.3434206,-0.47669652,-0.16150358,-0.43939963,0.44611335,0.39367518,0.26658118,0.105748415,-0.2383004,-0.54061085,0.016217144,-0.32279843,0.2961515,-0.22492343,0.014604695,-0.47020552,-0.059013672,-0.64962316,0.23550013,-0.5366968,-0.19675165,0.28913888,-0.3231658,-0.3961215,-0.16836728,0.1324135,-0.30528083,0.4735677,0.017359143,0.32551745
IST-SL1,0.33618173,0.4070485,-0.5239754,-2.605661,0.6780881,0.4497237,0.7048602,0.32881582,-0.0028310753,-1.9841641,0.84134114,0.65996325,0.50213116,-0.90147954,-0.69263977,1.2982137,1.2130461,-0.47461617,-1.2822654,1.1529704,1.3436939,0.35167676,-0.4996923,-0.5822021,0.09323343,0.7371261,0.76015383,-1.3570527,1.1307012,-0.76152736,0.91871595,1.0879712,0.76225317,0.038123757,0.050551977,0.24075948,0.43199435,-0.130505,-0.026655814,-0.36673784,-0.1690955,-0.5441706,-0.25002602,-0.7673791,0.45317942,0.28964058,0.18054892,0.075668216,-0.106346846,-0.53572196,0.29213858,-0.37565958,0.48535982,-0.4975128,-0.18056007,-0.49602246,0.07401043,-0.6111889,0.08413529,-0.6139468,0.084663376,0.39176667,-0.018445108,-0.31179515,-0.086362995,0.23141661,-0.43827102,0.42114913,0.02935155,0.13688955
UMC-11,0.54238397,0.4217998,-0.59318244,-1.5746682,0.51264685,0.6252298,0.21342869,-0.2342775,0.13376528,-1.1363101,0.8712701,0.68711764,0.4471172,-0.43118137,-0.016959399,1.0561346,0.9165096,-0.5338108,-1.0433774,0.5550377,0.964903,0.148448,0.10937459,-0.792438,-0.2185709,1.0566174,0.76273185,-1.018802,0.6011123,-0.5893706,0.14835595,1.0494556,0.21221665,0.32683867,-0.102381915,-0.14982113,0.42065275,-0.4424132,-0.233745,-0.7522223,-0.3434206,-0.47669652,-0.16150358,-0.43939963,0.44611335,0.39367518,0.26658118,0.105748415,-0.2383004,-0.54061085,0.016217144,-0.32279843,0.2961515,-0.22492343,0.014604695,-0.47020552,-0.059013672,-0.64962316,0.23550013,-0.5366968,-0.19675165,0.28913888,-0.3231658,-0.3961215,-0.16836728,0.1324135,-0.30528083,0.4735677,0.017359143,0.32551745
697,-2.7625442,0.007850038,-0.81246215,0.6291293,0.698497,-1.2712625,4.443111,-1.3802071,-0.67017144,-1.5491279,-0.37557292,-0.55767506,3.6033921,-1.7324963,-1.599505,-2.5031955,-1.8775578,-1.1311314,-0.18900949,-3.9742157,2.145892,0.7397332,0.8583107,1.6212052,3.0641112,1.318909,0.005062114,1.1649289,1.6960106,-0.22579445,1.3666722,-2.2131267,-2.3821056,0.99228233,-3.1670558,0.24075948,0.43199435,-0.130505,-0.026655814,-0.36673784,-0.1690955,-0.5441706,-0.25002602,-0.7673791,0.45317942,0.28964058,0.18054892,0.075668216,-0.106346846,-0.53572196,0.29213858,-0.37565958,0.48535982,-0.4975128,-0.18056007,-0.49602246,0.07401043,-0.6111889,0.08413529,-0.6139468,0.084663376,0.39176667,-0.018445108,-0.31179515,-0.086362995,0.23141661,-0.43827102,0.42114913,0.02935155,0.13688955
BT-549,0.22163099,0.42069557,0.095464036,0.53767586,-0.32941282,0.2838892,0.37740177,-0.48791194,-0.014951764,0.23640536,0.6031109,0.048836,-0.35214946,0.28082046,0.035564195,0.38443515,0.30026856,-0.035027783,-0.39367738,-0.15387152,0.08001649,-0.17099616,0.117423706,0.5000627,0.07610656,0.24459006,0.4528003,0.21147259,-0.41326532,0.13026035,-0.014373564,0.59426546,0.12122333,0.3713375,0.18737578,0.08985348,0.18767507,-0.6868662,-0.37715748,-0.70382255,-0.42326498,-1.0866755,-0.10369912,-0.75533164,1.0246649,0.55056024,0.30418932,0.021236405,-0.12454994,-1.0276293,-0.089164555,-0.28787875,0.7774534,-0.6609191,-0.121242255,-0.8359879,-0.05049801,-1.3464477,0.4401142,-1.0386859,-0.13347559,0.09050046,-0.3594367,-0.32580128,-0.2240801,-0.1635204,-0.38459736,1.0233039,0.45675907,0.69710445
NCI-H1618,0.3912525,0.2144615,-0.3208465,-2.73545,0.52436155,0.7701723,0.74992394,0.74284726,-0.44254896,-1.9464822,0.79286814,0.5621139,-0.1444237,-0.67691475,-0.41019258,1.3199933,1.3357426,-0.20664135,-1.3235708,1.2529196,0.95264,0.013293487,-0.7848389,-0.6556801,-0.31872073,0.34319097,0.20044573,-1.6105524,1.1884133,-1.1583811,0.6982961,1.4846507,1.2008876,0.17864405,0.2502802,-0.14982113,0.42065275,-0.4424132,-0.233745,-0.7522223,-0.3434206,-0.47669652,-0.16150358,-0.43939963,0.44611335,0.39367518,0.26658118,0.105748415,-0.2383004,-0.54061085,0.016217144,-0.32279843,0.2961515,-0.22492343,0.014604695,-0.47020552,-0.059013672,-0.64962316,0.23550013,-0.5366968,-0.19675165,0.28913888,-0.3231658,-0.3961215,-0.16836728,0.1324135,-0.30528083,0.4735677,0.017359143,0.32551745
TE-11,0.10780213,0.020932488,-0.26164806,0.015520571,-0.18689013,-0.082314275,0.73266387,-0.022725997,0.040520713,-0.15714161,0.24461234,0.20007204,0.07802324,0.33873713,0.038563088,0.29759148,-0.12924136,-0.651071,-0.33242306,0.46394607,0.43757668,-0.20792411,-0.19668095,-0.3462546,0.4638073,-0.05152506,-0.2614399,0.2243397,-0.20713043,-0.3382989,-0.07123325,0.2906811,0.20003396,0.33899364,0.31852356,0.2944707,0.773702,-0.69465417,0.0020623233,-0.63906825,-0.25903746,-0.79739565,-0.049933918,-1.0793308,0.76933455,0.29974005,-0.15674795,-0.30230767,-0.22229232,-0.5614039,-0.07834492,-0.6696948,0.8009123,-0.72012407,0.050348833,-0.71441805,0.07175998,-0.9150722,-0.26228797,-0.7005399,-0.011581959,0.46346796,0.0894757,-0.4601701,0.13646913,0.14788869,0.003679653,0.33486268,-0.004071983,0.4420874
KMOE-2,-1.1543138,0.14128312,-0.37126404,0.6126705,1.669228,-1.0137205,2.3489585,-0.72000426,-0.08868067,-0.86673546,0.22869448,-0.17751476,2.377505,-0.90278155,-1.2119204,-1.5566281,-1.1737248,-0.6401235,-0.14316595,-3.1418798,1.1170436,0.6007478,1.497632,0.9152135,1.7792428,1.1195031,0.13472514,-0.38509214,1.4174424,-0.29644367,-0.12759732,-1.903731,-1.6386638,0.5685,-1.9483656,-0.14982113,0.42065275,-0.4424132,-0.233745,-0.7522223,-0.3434206,-0.47669652,-0.16150358,-0.43939963,0.44611335,0.39367518,0.26658118,0.105748415,-0.2383004,-0.54061085,0.016217144,-0.32279843,0.2961515,-0.22492343,0.014604695,-0.47020552,-0.059013672,-0.64962316,0.23550013,-0.5366968,-0.19675165,0.28913888,-0.3231658,-0.3961215,-0.16836728,0.1324135,-0.30528083,0.4735677,0.017359143,0.32551745
HGC-27,0.17015395,0.5882376,-0.034911573,0.64389133,0.0054202704,0.16072117,0.96793205,-0.70641094,0.28877258,-0.14339738,0.6549481,-0.26335675,0.21504402,-0.009889354,-0.23347087,-0.065748766,0.029040918,-0.32465076,-0.4652103,-0.5950092,0.47561812,0.20258294,0.6211475,0.7622485,0.5315335,0.26320142,0.6104482,0.21384831,-0.23754992,0.2491746,0.2553383,0.21174511,-0.25000328,0.7762887,-0.052520573,-0.10320558,-0.2377057,-0.6024832,-0.63955474,-0.7396559,-0.5267287,-1.1899416,-0.1671621,-0.4428928,1.1029042,0.712469,0.66612464,0.302596,-0.060815517,-1.2980722,-0.054083295,0.012415572,0.66311026,-0.53368205,-0.24492748,-0.8544311,-0.14266506,-1.5384825,0.9568374,-1.2070416,-0.22694424,-0.1618867,-0.6959385,-0.22576848,-0.50016755,-0.34384063,-0.6936433,1.4577022,0.73479915,0.807695
CCF-STTG1,0.9175876,0.95532817,0.25858086,1.6095906,-0.96051687,0.7258582,0.2208066,-0.7426183,0.0997058,1.0556037,0.2974624,-0.58597916,-0.32362607,0.49982217,0.096052796,0.92280376,0.33621857,0.5482762,-0.5263374,0.14733398,0.10563786,-0.030905232,-0.016657023,1.1779956,0.04501767,0.067794845,1.3114657,0.5401942,-0.95570815,0.14953761,-0.33095026,0.7538752,-0.14344877,0.7259325,0.103718944,0.5520627,0.25318447,-0.29032883,-0.094390355,-0.2392758,-0.1971902,-1.1006867,-0.21243452,-1.1421198,0.9703114,0.39803243,0.17193167,-0.02566315,0.019680327,-0.95501643,0.25322774,-0.37554863,0.96636033,-0.95621246,-0.3358189,-0.82956797,0.11598115,-1.2175509,0.20168062,-1.0709337,0.20739001,0.2515581,0.035894044,-0.23737314,-0.100659296,-0.0019934652,-0.5170505,0.8758596,0.40883175,0.4241485
EPLC-272H,0.7098353,-0.25308728,0.39447454,-0.8751616,-0.4212156,0.39121652,-0.109900385,0.7870891,0.15788986,0.22402307,0.25442854,0.57738084,-1.8843518,-0.16739292,0.23140915,1.7657465,0.43412283,0.3983862,-0.30777583,1.7683451,-0.794152,-0.7860467,-1.8745753,0.09336153,-0.65514755,-0.990081,-0.29298404,0.10919838,-0.97637177,-0.5598295,-0.29126045,1.4608396,1.6586238,0.010534374,1.7821581,-0.14982113,0.42065275,-0.4424132,-0.233745,-0.7522223,-0.3434206,-0.47669652,-0.16150358,-0.43939963,0.44611335,0.39367518,0.26658118,0.105748415,-0.2383004,-0.54061085,0.016217144,-0.32279843,0.2961515,-0.22492343,0.014604695,-0.47020552,-0.059013672,-0.64962316,0.23550013,-0.5366968,-0.19675165,0.28913888,-0.3231658,-0.3961215,-0.16836728,0.1324135,-0.30528083,0.4735677,0.017359143,0.32551745
MHH-NB-11,-0.19424462,0.39210245,-0.8372785,-0.36470044,0.8581611,0.6686399,1.3057172,-0.69327956,-0.23997298,-2.1359024,0.8248043,-0.39645323,1.7125151,-1.1030995,-0.7112842,-1.2578901,0.32691234,-0.6401141,-1.2722762,-1.2690213,1.2521721,0.083600566,1.0596715,0.43711627,1.2991996,0.85788673,1.9199554,-0.95899504,1.2713499,-0.16961847,0.6205951,-0.50826937,-0.85348845,-0.16332433,-1.0749302,0.1504296,0.290884,0.13715672,-0.04566242,-0.27864948,-0.1343858,-0.3498305,-0.34405184,-0.55040395,0.23781368,0.2782513,0.3478788,0.270187,-0.07564289,-0.47158793,0.45495772,-0.23221375,0.26266485,-0.3162834,-0.25813273,-0.34880835,0.06100308,-0.3935744,0.24443766,-0.51066256,0.09645927,0.36828104,-0.09685059,-0.25605923,-0.19609202,0.29366302,-0.6299509,0.40905508,-0.0028148156,-0.031604443
SF295,0.48782992,0.87907034,0.021845058,1.3523811,-0.57580596,0.5255464,0.4043243,-0.67513794,0.13280506,0.3961824,0.6055553,-0.2745546,-0.14857942,0.23803097,-0.023448281,0.44145906,0.4007991,0.39415443,-0.30621475,-0.111698076,0.24114744,-0.039491646,0.17679171,0.98667693,0.2082193,0.28931752,1.0720508,0.42295507,-0.5546261,0.05491116,-0.09316796,0.5023016,-0.22272079,0.58549047,-0.3155222,0.08985348,0.18767507,-0.6868662,-0.37715748,-0.70382255,-0.42326498,-1.0866755,-0.10369912,-0.75533164,1.0246649,0.55056024,0.30418932,0.021236405,-0.12454994,-1.0276293,-0.089164555,-0.28787875,0.7774534,-0.6609191,-0.121242255,-0.8359879,-0.05049801,-1.3464477,0.4401142,-1.0386859,-0.13347559,0.09050046,-0.3594367,-0.32580128,-0.2240801,-0.1635204,-0.38459736,1.0233039,0.45675907,0.69710445
IST-MEL1,0.507553,0.48269078,0.19601777,0.63379914,-0.5157725,0.7319922,0.7885853,-0.61004233,-0.024989748,0.5590472,0.4206447,-0.090419486,-0.34260377,0.048366062,-0.068073764,0.58075505,0.05943692,-0.087974295,-0.42061186,0.0047962787,0.007848546,-0.19010249,-0.51067734,0.83252513,-0.10056745,-0.42028794,0.42633042,0.08499328,-0.4800743,-0.017680775,-0.03793212,0.81812483,0.12826315,0.42354572,0.30408806,-0.06584686,0.4455258,0.06344729,-0.039399717,-0.45935506,-0.16539423,-0.09684064,-0.31164983,-0.3596521,0.026994687,0.24105655,0.3037485,0.257368,-0.18452215,-0.25943872,0.36049163,-0.27830505,0.04036178,-0.07445088,-0.10219708,-0.21201198,0.01677948,-0.14165927,0.14389911,-0.27669752,-0.031763997,0.43747088,-0.15537898,-0.3363014,-0.16072117,0.3829332,-0.48470062,0.1655178,-0.20809264,-0.092712805
LOX-IMVI,-0.090029955,0.59331715,-0.10922553,0.9072791,0.027939936,0.057003334,0.5003714,-0.35347047,0.04267951,-0.07578743,0.27122322,-0.26148796,0.4681987,-0.018534992,-0.22049172,-0.1461405,0.21405251,0.14716674,-0.05964803,-0.51540196,0.4153848,-0.019686345,0.6389197,0.6269014,0.52887785,0.31151417,0.42974126,0.2250801,-0.023038328,0.07720378,0.003038602,0.069854036,-0.63889694,0.4173019,-0.546153,-0.06584686,0.4455258,0.06344729,-0.039399717,-0.45935506,-0.16539423,-0.09684064,-0.31164983,-0.3596521,0.026994687,0.24105655,0.3037485,0.257368,-0.18452215,-0.25943872,0.36049163,-0.27830505,0.04036178,-0.07445088,-0.10219708,-0.21201198,0.01677948,-0.14165927,0.14389911,-0.27669752,-0.031763997,0.43747088,-0.15537898,-0.3363014,-0.16072117,0.3829332,-0.48470062,0.1655178,-0.20809264,-0.092712805
HCC70,0.30041078,-0.37078205,0.009685852,-0.5214799,0.060723163,0.53514916,0.117219836,0.74180526,0.24400236,0.17287672,0.26230335,0.44515613,-1.0489607,0.033636,0.4110021,1.3857491,0.1800215,-0.20470965,-0.20452267,1.7746476,-0.451021,-0.6574103,-1.056584,-0.2124462,0.053921398,-0.35991856,-0.43140826,0.18250725,-0.70547515,-0.7825819,-0.36491615,1.2085717,1.0562928,-0.10816527,1.260361,0.08985348,0.18767507,-0.6868662,-0.37715748,-0.70382255,-0.42326498,-1.0866755,-0.10369912,-0.75533164,1.0246649,0.55056024,0.30418932,0.021236405,-0.12454994,-1.0276293,-0.089164555,-0.28787875,0.7774534,-0.6609191,-0.121242255,-0.8359879,-0.05049801,-1.3464477,0.4401142,-1.0386859,-0.13347559,0.09050046,-0.3594367,-0.32580128,-0.2240801,-0.1635204,-0.38459736,1.0233039,0.45675907,0.69710445
MOLT-4,-2.7356088,0.052113116,-0.25063193,0.5287767,2.055735,-0.88875717,3.77162,-0.88498145,-0.92674625,-1.6801641,-0.047178805,0.30593488,2.8663032,-1.4974384,-1.2086453,-2.1814551,-1.9536744,-0.7083547,-0.33850366,-4.00126,0.82215416,-0.15339413,1.2062593,1.2329464,2.4077647,1.1352706,0.42767963,1.056188,1.7858084,0.16316472,0.89065146,-1.9767437,-1.9856488,0.9659787,-2.423996,0.08985348,0.18767507,-0.6868662,-0.37715748,-0.70382255,-0.42326498,-1.0866755,-0.10369912,-0.75533164,1.0246649,0.55056024,0.30418932,0.021236405,-0.12454994,-1.0276293,-0.089164555,-0.28787875,0.7774534,-0.6609191,-0.121242255,-0.8359879,-0.05049801,-1.3464477,0.4401142,-1.0386859,-0.13347559,0.09050046,-0.3594367,-0.32580128,-0.2240801,-0.1635204,-0.38459736,1.0233039,0.45675907,0.69710445
LS1034,1.0672654,0.35380554,-0.14028174,-2.6030035,0.680441,0.95279,-0.74346876,0.6935916,0.47170797,-1.2561097,1.0805235,1.2583379,-1.0063919,-0.27432013,-0.57779104,2.4839907,1.3124231,-0.47990915,-0.31680608,2.456251,0.5524772,0.3239738,-0.19165607,-0.85913044,-0.5020601,-0.15740065,0.7390863,-1.5391356,0.55175614,-1.9503452,-0.100127846,0.9182003,1.4356561,-0.8133222,0.63804656,-0.014665692,0.28669918,-0.112255305,-0.5679184,-0.58416355,-0.1400751,-0.97037584,-0.4913559,-0.5040215,0.30227065,0.27840212,0.18275107,0.6969164,-0.09973957,-1.0735635,0.4481822,0.26868454,0.38966167,-0.78988564,-0.41988423,-0.83752865,0.1310162,-0.88110375,0.40557122,-0.9428203,-0.0044271844,0.12388527,-0.5141482,0.06835438,-0.17013538,0.3397346,-0.7568294,1.1961617,0.4774332,0.18755491
SBC-1,0.5338975,0.24640432,-0.3424514,-3.1535428,0.57962114,0.59636384,0.31137988,0.6055466,-0.1468316,-1.7578614,0.9765568,0.8675533,-0.38744575,-0.581037,-0.71595514,1.8638813,1.8578783,-0.12739685,-1.0740817,1.7959893,0.99231607,0.36360607,-0.8473949,-0.6565124,-0.2352294,0.2521517,0.35063878,-1.6202773,0.80730504,-1.0998524,0.80691886,1.820762,1.0934182,-0.2357384,0.68160623,0.08985348,0.18767507,-0.6868662,-0.37715748,-0.70382255,-0.42326498,-1.0866755,-0.10369912,-0.75533164,1.0246649,0.55056024,0.30418932,0.021236405,-0.12454994,-1.0276293,-0.089164555,-0.28787875,0.7774534,-0.6609191,-0.121242255,-0.8359879,-0.05049801,-1.3464477,0.4401142,-1.0386859,-0.13347559,0.09050046,-0.3594367,-0.32580128,-0.2240801,-0.1635204,-0.38459736,1.0233039,0.45675907,0.69710445
ES7,-0.36212578,0.49624288,-0.008075374,0.89069015,0.22052835,-0.26341015,1.1272348,-0.3478165,0.0066335658,-0.5702827,0.43081033,-0.2822317,0.8819796,-0.112164564,-0.41746065,-0.44733772,-0.07407376,-0.34599367,-0.5546992,-0.73337686,0.8376854,0.25760782,0.7134763,0.47886157,0.7565979,0.6684902,0.54085034,-0.062121637,0.10788869,-0.08393329,-0.006170984,-0.2726867,-0.3578234,0.3850776,-0.5332127,-0.14982113,0.42065275,-0.4424132,-0.233745,-0.7522223,-0.3434206,-0.47669652,-0.16150358,-0.43939963,0.44611335,0.39367518,0.26658118,0.105748415,-0.2383004,-0.54061085,0.016217144,-0.32279843,0.2961515,-0.22492343,0.014604695,-0.47020552,-0.059013672,-0.64962316,0.23550013,-0.5366968,-0.19675165,0.28913888,-0.3231658,-0.3961215,-0.16836728,0.1324135,-0.30528083,0.4735677,0.017359143,0.32551745
S-117,0.5690026,0.43086419,0.0977346,0.37176773,-0.56142414,0.4189113,0.12392448,-0.3716312,0.042902976,0.59395117,0.484745,-0.10494703,-0.90044403,0.20191227,0.03439413,1.0764458,0.13912718,0.67210996,-0.14000233,0.3698225,-0.48148385,-0.36083952,-0.29442868,1.0317005,-0.4158832,-0.28576517,0.37903216,0.31948316,-0.67007416,0.074525155,-0.108952574,1.2000399,0.59583765,0.25856802,0.289599,-0.14982113,0.42065275,-0.4424132,-0.233745,-0.7522223,-0.3434206,-0.47669652,-0.16150358,-0.43939963,0.44611335,0.39367518,0.26658118,0.105748415,-0.2383004,-0.54061085,0.016217144,-0.32279843,0.2961515,-0.22492343,0.014604695,-0.47020552,-0.059013672,-0.64962316,0.23550013,-0.5366968,-0.19675165,0.28913888,-0.3231658,-0.3961215,-0.16836728,0.1324135,-0.30528083,0.4735677,0.017359143,0.32551745
HCC2218,0.5503117,0.2843646,-0.2815323,-0.5360363,0.019688277,0.5120256,0.20448674,0.5651325,0.12151727,-0.55167836,0.36990505,0.24564664,-0.66527146,0.17744716,0.41611758,1.1588752,0.59431994,-0.9059978,-0.44956005,0.9775909,0.18528903,-0.08508617,-0.34083354,-0.2584393,-0.09624444,0.16140674,0.158731,-0.3278611,-0.15602176,-0.36777997,-0.21739642,1.0337061,0.27106014,0.41650906,0.7092175,-0.18395837,0.6410607,-0.009969244,-0.29640466,-0.6516539,-0.08680548,-0.32694572,-0.44740245,-0.32467774,-0.1691328,0.12373399,0.057194237,0.5511305,-0.24441761,-0.47141647,0.42918047,0.018374383,0.0063644457,-0.34558734,-0.17382628,-0.44995365,0.110882245,-0.19552164,0.039137293,-0.38714117,-0.070802785,0.40200806,-0.3395554,-0.12197697,-0.037920125,0.59516764,-0.49622613,0.45022437,-0.07208821,-0.12303744
NCI-H520,0.5681389,0.11868974,-0.09508284,-1.4159278,0.08344832,0.8482879,0.2655899,0.63877165,0.10826108,-0.32294762,0.6932255,0.4686484,-0.7157349,-0.030278629,-0.15888934,1.5102539,0.6659003,-0.3930194,-0.71934897,1.306425,0.17224976,0.045354903,-0.9514381,-0.09006166,-0.71664655,-0.0807876,0.047931563,-1.0981306,0.33257422,-0.5863671,-0.014508799,1.4437231,1.0121155,0.04615341,0.79591465,-0.14982113,0.42065275,-0.4424132,-0.233745,-0.7522223,-0.3434206,-0.47669652,-0.16150358,-0.43939963,0.44611335,0.39367518,0.26658118,0.105748415,-0.2383004,-0.54061085,0.016217144,-0.32279843,0.2961515,-0.22492343,0.014604695,-0.47020552,-0.059013672,-0.64962316,0.23550013,-0.5366968,-0.19675165,0.28913888,-0.3231658,-0.3961215,-0.16836728,0.1324135,-0.30528083,0.4735677,0.017359143,0.32551745
ECC12,0.40749854,0.12634845,-0.59835577,-0.88232845,0.43441308,0.0806551,0.8396556,-0.015817348,-0.028267799,-1.2230347,0.39941394,-0.31944495,0.642171,-0.21688645,-0.17827123,0.65371543,0.6033327,-0.7554749,-0.73845816,-0.07278084,0.7621723,0.23469737,0.107166745,-0.11782078,0.2565445,0.77380776,0.1708457,-1.10868,0.95430195,0.16431963,0.76158804,0.88988817,-0.073435776,0.31514263,-0.17190231,-0.14982113,0.42065275,-0.4424132,-0.233745,-0.7522223,-0.3434206,-0.47669652,-0.16150358,-0.43939963,0.44611335,0.39367518,0.26658118,0.105748415,-0.2383004,-0.54061085,0.016217144,-0.32279843,0.2961515,-0.22492343,0.014604695,-0.47020552,-0.059013672,-0.64962316,0.23550013,-0.5366968,-0.19675165,0.28913888,-0.3231658,-0.3961215,-0.16836728,0.1324135,-0.30528083,0.4735677,0.017359143,0.32551745
HCC1806,0.0507229,-0.1669261,-0.065227166,-0.31441966,0.1911394,0.21355896,0.534567,0.42020622,0.29381126,0.30955935,0.11754782,0.7265181,-0.57313854,-0.37401104,0.07625456,0.78372127,0.0005542176,-0.14864086,-0.1458108,0.82301843,-0.1568592,-0.30282223,-0.5299674,-0.29068676,0.2891977,-0.09450164,-0.2460352,0.7593235,-1.1373286,-0.73022383,-0.2622731,0.52836645,0.767891,0.028889691,0.8149208,0.2944707,0.773702,-0.69465417,0.0020623233,-0.63906825,-0.25903746,-0.79739565,-0.049933918,-1.0793308,0.76933455,0.29974005,-0.15674795,-0.30230767,-0.22229232,-0.5614039,-0.07834492,-0.6696948,0.8009123,-0.72012407,0.050348833,-0.71441805,0.07175998,-0.9150722,-0.26228797,-0.7005399,-0.011581959,0.46346796,0.0894757,-0.4601701,0.13646913,0.14788869,0.003679653,0.33486268,-0.004071983,0.4420874
Lu-99A,0.2164499,0.2449811,0.08483565,0.13114448,-0.32592613,0.19971006,0.09742449,-0.048068058,-0.17195532,0.26555774,0.5561633,0.03577941,-0.32377982,0.36870265,0.30332163,0.5536287,0.5389692,0.14768115,-0.08217329,0.041410103,-0.15635376,-0.3246795,-0.16663295,0.40449095,-0.11517494,-0.003344972,0.17426445,0.15340143,-0.21016525,0.0894201,-0.28343096,0.92017245,0.4304306,0.33256856,0.16733791,0.29181445,0.26275942,0.17405693,-0.18362816,-0.20964022,-0.056995224,-0.7013967,-0.45044586,-0.7125398,0.3161962,0.24241763,0.24780224,0.44104525,-0.007428045,-0.7742056,0.5866828,-0.03136564,0.44744292,-0.6888559,-0.44233763,-0.6007616,0.1568985,-0.6432966,0.26904488,-0.78018296,0.19921432,0.2922077,-0.13388218,-0.064650744,-0.15639599,0.33547863,-0.7691409,0.7771455,0.2527563,-0.0019603462
SW962,0.8424709,0.17405395,0.5902395,-0.7404773,-0.409179,1.026964,0.33958495,0.44307545,0.3761294,0.865182,0.7455198,0.43008083,-2.3789847,0.20343535,0.15706939,2.1122773,-0.02898459,0.5111988,-0.11026683,1.7577825,-1.3370603,-0.82963496,-2.0775106,0.6528052,-0.6135412,-1.1217479,-0.39447802,0.5878225,-1.3489791,-0.38607565,0.034255464,2.0913596,1.7629821,0.153849,1.6413025,-0.14982113,0.42065275,-0.4424132,-0.233745,-0.7522223,-0.3434206,-0.47669652,-0.16150358,-0.43939963,0.44611335,0.39367518,0.26658118,0.105748415,-0.2383004,-0.54061085,0.016217144,-0.32279843,0.2961515,-0.22492343,0.014604695,-0.47020552,-0.059013672,-0.64962316,0.23550013,-0.5366968,-0.19675165,0.28913888,-0.3231658,-0.3961215,-0.16836728,0.1324135,-0.30528083,0.4735677,0.017359143,0.32551745
SK-MM-2,-0.9485115,0.1980996,-0.3832653,-0.30636275,1.0878968,-0.6597868,2.67769,-0.5858464,-0.54009426,-0.9560514,-0.06070211,-0.10486433,1.8806185,-0.5495923,-1.2694457,-1.4327824,-0.774391,-0.93775266,-0.22397654,-2.2622616,1.0635805,0.33880207,0.5446238,0.7468792,1.4078356,0.61907417,-0.094036244,0.30324188,1.7590561,0.052804682,0.2890584,-1.0071688,-1.0684621,1.0435195,-1.6000061,0.2944707,0.773702,-0.69465417,0.0020623233,-0.63906825,-0.25903746,-0.79739565,-0.049933918,-1.0793308,0.76933455,0.29974005,-0.15674795,-0.30230767,-0.22229232,-0.5614039,-0.07834492,-0.6696948,0.8009123,-0.72012407,0.050348833,-0.71441805,0.07175998,-0.9150722,-0.26228797,-0.7005399,-0.011581959,0.46346796,0.0894757,-0.4601701,0.13646913,0.14788869,0.003679653,0.33486268,-0.004071983,0.4420874
UM-UC-3,0.2653,0.16068569,0.21189854,0.10535624,-0.3500614,0.31355768,0.32211417,-0.2706748,0.12138138,0.15435348,0.44667912,-0.21008566,-0.6014485,0.11737946,0.0014923478,0.5367639,0.29810256,0.27469915,-0.11164936,0.3101106,-0.31441468,-0.1780013,-0.28039017,0.59350383,0.07108232,-0.25311345,0.104055434,-0.07745526,-0.21361189,-0.13130794,-0.21294561,0.7203533,0.6655713,0.34442747,0.27414206,0.4426722,0.08840477,-0.041493613,-0.13755347,-0.16957223,-0.17711684,-0.92492765,-0.30297095,-0.90673006,0.77453524,0.40241453,0.35835233,0.17860922,0.049848624,-0.9157351,0.40111917,-0.21703985,0.74431854,-0.76983047,-0.41277948,-0.6925291,0.09333014,-1.0295248,0.39501822,-0.9850995,0.20400116,0.20767744,-0.0710416,-0.17977506,-0.22652455,0.039947767,-0.7165439,0.899012,0.39960924,0.27978367
BALL-1,-3.3822298,0.10103349,-0.41853192,-0.029125663,1.3878188,-1.1848837,5.296445,-1.3894616,-0.43795365,-1.9113932,-1.2388607,-0.3866317,3.7037282,-1.8258691,-1.6080832,-2.3048985,-1.9290863,-1.3278041,-0.52950656,-4.294069,2.4437191,0.5191075,0.91675293,1.5892947,3.3998868,1.5556619,-0.31188306,1.6380606,2.6814418,-0.62440246,2.396963,-1.8668454,-2.038046,2.294701,-3.1438222,-0.14982113,0.42065275,-0.4424132,-0.233745,-0.7522223,-0.3434206,-0.47669652,-0.16150358,-0.43939963,0.44611335,0.39367518,0.26658118,0.105748415,-0.2383004,-0.54061085,0.016217144,-0.32279843,0.2961515,-0.22492343,0.014604695,-0.47020552,-0.059013672,-0.64962316,0.23550013,-0.5366968,-0.19675165,0.28913888,-0.3231658,-0.3961215,-0.16836728,0.1324135,-0.30528083,0.4735677,0.017359143,0.32551745
NCI-H23,0.2931774,0.11044344,-0.017350411,-0.11766242,-0.036002174,0.4193851,0.4957533,-0.10426354,-0.094614685,-0.56298125,0.25449234,-0.10730732,-0.3696302,0.07744103,0.023809299,0.486635,0.40765163,-0.13071217,-0.24304849,-0.12738386,0.2710796,-0.17253996,-0.3955371,0.37318593,0.05566942,0.19321436,0.3278683,-0.2209622,0.011507868,0.099520504,-0.04120966,0.5040901,0.32860377,0.35739586,0.43450493,0.09637526,0.39634258,0.10441575,-0.18079028,-0.37348562,-0.08770132,-0.47822204,-0.41988948,-0.54004985,0.13307102,0.21252649,0.2122766,0.42906713,-0.10455117,-0.58817935,0.49884292,-0.0719749,0.25004658,-0.4713435,-0.3023496,-0.47969243,0.11534092,-0.42393047,0.18484047,-0.5740702,0.082286224,0.35077703,-0.18979083,-0.1372668,-0.1277774,0.4104312,-0.6400127,0.56430626,0.07280488,-0.051639386
P30/OHK,-2.5918489,-0.1436636,-0.5082504,0.30098116,1.1175358,-1.0808187,4.159838,-1.0445553,-0.7368,-1.6983868,-0.6421994,-0.5024991,3.1388333,-1.6428158,-1.596955,-2.018431,-1.9283744,-0.7972614,-0.19097468,-3.9308014,1.8421,0.4059434,0.72789484,1.3906162,3.3159173,1.5283514,-0.14167094,0.90814966,2.2992802,-0.59092027,1.0019879,-2.195712,-1.9844972,1.1471087,-2.6172159,0.24075948,0.43199435,-0.130505,-0.026655814,-0.36673784,-0.1690955,-0.5441706,-0.25002602,-0.7673791,0.45317942,0.28964058,0.18054892,0.075668216,-0.106346846,-0.53572196,0.29213858,-0.37565958,0.48535982,-0.4975128,-0.18056007,-0.49602246,0.07401043,-0.6111889,0.08413529,-0.6139468,0.084663376,0.39176667,-0.018445108,-0.31179515,-0.086362995,0.23141661,-0.43827102,0.42114913,0.02935155,0.13688955
SW1573,0.45454955,0.083214715,0.052496716,-0.39986956,-0.2530633,0.5760463,-0.05663521,-0.14851925,-0.030781226,0.28252298,0.4248348,0.12818795,-0.55399185,-0.05073581,0.1987146,0.9142107,0.092775345,0.23384593,0.06707742,0.481674,-0.4455454,-0.16891026,-0.7447035,0.34934786,-0.41816604,0.009252273,0.04558415,0.03156735,-0.08680333,-0.08435099,-0.09054857,0.9214697,0.7806004,0.079068795,0.8120762,0.29181445,0.26275942,0.17405693,-0.18362816,-0.20964022,-0.056995224,-0.7013967,-0.45044586,-0.7125398,0.3161962,0.24241763,0.24780224,0.44104525,-0.007428045,-0.7742056,0.5866828,-0.03136564,0.44744292,-0.6888559,-0.44233763,-0.6007616,0.1568985,-0.6432966,0.26904488,-0.78018296,0.19921432,0.2922077,-0.13388218,-0.064650744,-0.15639599,0.33547863,-0.7691409,0.7771455,0.2527563,-0.0019603462
MMAc-SF,0.14263502,0.5530241,0.20832409,0.6752858,0.21992497,0.1667566,1.0084587,-0.54768956,-0.0972556,-0.097087756,0.26744956,-0.24712813,0.10232819,-0.44934636,-0.02662785,-0.35288146,0.31902656,-0.20645495,-0.22188121,-0.4433154,0.30680814,0.14990757,0.50095457,0.5674468,0.3768837,0.32043448,0.4077927,0.26184943,0.47939128,-0.29421943,-0.33367547,0.3010049,-0.5924498,0.6016581,-0.2663728,-0.06584686,0.4455258,0.06344729,-0.039399717,-0.45935506,-0.16539423,-0.09684064,-0.31164983,-0.3596521,0.026994687,0.24105655,0.3037485,0.257368,-0.18452215,-0.25943872,0.36049163,-0.27830505,0.04036178,-0.07445088,-0.10219708,-0.21201198,0.01677948,-0.14165927,0.14389911,-0.27669752,-0.031763997,0.43747088,-0.15537898,-0.3363014,-0.16072117,0.3829332,-0.48470062,0.1655178,-0.20809264,-0.092712805
Onda 11,1.2024597,0.62966883,0.51229745,-0.2180771,-0.5944237,0.72858775,0.092811815,-0.07597512,0.32309997,0.8422292,0.4970179,0.06917718,-1.4107171,0.67134774,0.06447838,1.6190028,0.37412852,0.5252597,-0.6492017,0.839597,-0.7996617,-0.44367528,-1.2366449,0.76457834,-0.5885872,-0.4537864,0.20750044,0.2108463,-0.7524499,-0.004805677,-0.32628816,1.7536485,1.3980848,0.24136366,1.0625257,-0.118391775,-0.059436984,-0.39153785,-0.47791314,-0.6635958,-0.42576438,-0.85088694,-0.21645564,-0.38033321,0.7685658,0.5800809,0.5857789,0.31420526,-0.097625,-0.99306744,0.07363904,-0.0515566,0.45067707,-0.36986575,-0.20587885,-0.65172863,-0.10367803,-1.1137098,0.7491122,-0.92518306,-0.18044272,0.003003817,-0.56226677,-0.25396165,-0.41930315,-0.13200127,-0.65175176,1.0881671,0.46041343,0.53678596
DV-90,0.4270981,0.13329731,-0.20252948,-1.8532377,0.07753875,0.9140054,0.011712968,0.22557032,0.28492585,-0.35069302,0.2522752,0.94387513,-1.1610441,-0.249796,0.08521974,2.0227418,0.22335728,-0.6829865,-0.47764784,1.8220309,0.09755499,0.4268892,-0.6946426,-0.7132048,-0.46489167,-0.036868107,0.22825773,-0.944373,-0.20790716,-1.3654895,-0.27133197,1.3767742,1.1863601,0.0723019,0.9580078,0.29181445,0.26275942,0.17405693,-0.18362816,-0.20964022,-0.056995224,-0.7013967,-0.45044586,-0.7125398,0.3161962,0.24241763,0.24780224,0.44104525,-0.007428045,-0.7742056,0.5866828,-0.03136564,0.44744292,-0.6888559,-0.44233763,-0.6007616,0.1568985,-0.6432966,0.26904488,-0.78018296,0.19921432,0.2922077,-0.13388218,-0.064650744,-0.15639599,0.33547863,-0.7691409,0.7771455,0.2527563,-0.0019603462
NCI-H522,0.4409504,0.4383445,-0.03816033,-0.3421046,0.08953252,0.42773652,0.58532107,0.14236836,0.16082108,-0.44753563,0.5735479,0.04016878,-0.51200974,-0.045200497,0.100623794,0.68469465,0.2085925,0.099442676,-0.6914435,0.17353341,-0.16336201,-0.052875966,-0.60254496,0.42269203,0.08929219,-0.14559506,-0.10503839,-0.5876938,0.14982104,-0.12412075,0.22124843,0.84004754,0.7850766,0.23482572,0.86145645,-0.14982113,0.42065275,-0.4424132,-0.233745,-0.7522223,-0.3434206,-0.47669652,-0.16150358,-0.43939963,0.44611335,0.39367518,0.26658118,0.105748415,-0.2383004,-0.54061085,0.016217144,-0.32279843,0.2961515,-0.22492343,0.014604695,-0.47020552,-0.059013672,-0.64962316,0.23550013,-0.5366968,-0.19675165,0.28913888,-0.3231658,-0.3961215,-0.16836728,0.1324135,-0.30528083,0.4735677,0.017359143,0.32551745
Caov-4,0.014332276,0.19458638,-0.31628206,-0.17904659,0.2633829,-0.069789305,0.2535471,-0.051718377,0.009682999,-0.3167571,0.08702179,0.22803351,0.30766392,-0.6048066,-0.18235545,0.44927818,-0.018273061,-0.29769266,-0.325871,0.30373755,0.6447023,0.23281398,0.0902582,-0.045027122,0.2911653,0.26995185,0.5175847,0.2431136,-0.13237897,-0.1200898,-0.11515334,0.0047667096,-0.06044691,0.17537077,0.16787285,-0.14982113,0.42065275,-0.4424132,-0.233745,-0.7522223,-0.3434206,-0.47669652,-0.16150358,-0.43939963,0.44611335,0.39367518,0.26658118,0.105748415,-0.2383004,-0.54061085,0.016217144,-0.32279843,0.2961515,-0.22492343,0.014604695,-0.47020552,-0.059013672,-0.64962316,0.23550013,-0.5366968,-0.19675165,0.28913888,-0.3231658,-0.3961215,-0.16836728,0.1324135,-0.30528083,0.4735677,0.017359143,0.32551745
DK-MG,1.6557952,1.5909615,0.6952952,1.4296787,-1.7041688,1.339665,0.44797856,-1.086787,0.8001568,1.5194411,1.0877292,-0.14307648,-1.781395,1.0337389,-0.0019616808,1.9425734,0.42830577,0.68277365,-0.62663716,1.4265125,-0.4646925,-0.043773018,-0.4560741,1.5015622,-0.9064194,-0.18158083,1.4776824,0.75602627,-1.2802391,0.49405417,-0.004578436,2.0033789,0.8407855,0.87994,0.94369644,0.24075948,0.43199435,-0.130505,-0.026655814,-0.36673784,-0.1690955,-0.5441706,-0.25002602,-0.7673791,0.45317942,0.28964058,0.18054892,0.075668216,-0.106346846,-0.53572196,0.29213858,-0.37565958,0.48535982,-0.4975128,-0.18056007,-0.49602246,0.07401043,-0.6111889,0.08413529,-0.6139468,0.084663376,0.39176667,-0.018445108,-0.31179515,-0.086362995,0.23141661,-0.43827102,0.42114913,0.02935155,0.13688955
D-336MG,1.3114233,1.2531565,0.053404734,1.6894023,-0.9627564,0.7757398,0.33908692,-0.92173517,0.48849463,1.0207863,0.8663922,-0.22184381,-0.47084406,0.5704068,0.2802959,1.0476651,0.37143442,0.4221618,-0.57517505,0.21997897,0.09226937,0.17126209,0.1372193,1.0665051,-0.3996791,0.09630412,1.3487343,0.66095746,-0.7467688,0.46830046,-0.19538584,0.66766256,-0.1208762,0.6550417,0.117727056,0.08985348,0.18767507,-0.6868662,-0.37715748,-0.70382255,-0.42326498,-1.0866755,-0.10369912,-0.75533164,1.0246649,0.55056024,0.30418932,0.021236405,-0.12454994,-1.0276293,-0.089164555,-0.28787875,0.7774534,-0.6609191,-0.121242255,-0.8359879,-0.05049801,-1.3464477,0.4401142,-1.0386859,-0.13347559,0.09050046,-0.3594367,-0.32580128,-0.2240801,-0.1635204,-0.38459736,1.0233039,0.45675907,0.69710445
MFH-ino,0.70750964,0.98594266,0.09678247,1.1488806,-0.96963114,0.55867594,0.27267337,-0.3941387,0.3535135,0.4673087,0.72616196,-0.23182046,-0.48564368,0.4896965,-0.21827808,0.480796,0.48857832,0.273283,-0.21837093,0.18328518,0.08630386,0.18057884,0.07229097,0.7660337,-0.035379153,-0.074108474,0.9571119,0.56356734,-0.5204894,0.2741658,-0.014623653,0.64843184,-0.022599278,0.5281957,-0.22967722,0.24075948,0.43199435,-0.130505,-0.026655814,-0.36673784,-0.1690955,-0.5441706,-0.25002602,-0.7673791,0.45317942,0.28964058,0.18054892,0.075668216,-0.106346846,-0.53572196,0.29213858,-0.37565958,0.48535982,-0.4975128,-0.18056007,-0.49602246,0.07401043,-0.6111889,0.08413529,-0.6139468,0.084663376,0.39176667,-0.018445108,-0.31179515,-0.086362995,0.23141661,-0.43827102,0.42114913,0.02935155,0.13688955
HT,-3.4161246,0.17313322,-0.33154783,0.59010386,1.1590316,-1.438849,5.1157413,-1.5807872,-0.7244402,-2.0623255,-1.2370379,-0.5608179,4.373611,-1.2968525,-1.1488448,-2.6174471,-1.7131101,-1.4649557,-0.35936734,-4.7822824,2.5867817,0.659667,1.2818292,1.420519,3.827406,2.4020054,0.21478565,1.4154556,3.1062894,-0.15224047,2.3565753,-2.3810818,-2.4708998,2.5981266,-4.1509385,0.08985348,0.18767507,-0.6868662,-0.37715748,-0.70382255,-0.42326498,-1.0866755,-0.10369912,-0.75533164,1.0246649,0.55056024,0.30418932,0.021236405,-0.12454994,-1.0276293,-0.089164555,-0.28787875,0.7774534,-0.6609191,-0.121242255,-0.8359879,-0.05049801,-1.3464477,0.4401142,-1.0386859,-0.13347559,0.09050046,-0.3594367,-0.32580128,-0.2240801,-0.1635204,-0.38459736,1.0233039,0.45675907,0.69710445
T24,0.60290295,0.2278319,0.4789519,-0.28288707,-0.3171982,0.7635221,0.050653405,0.26997963,0.10600718,0.75316256,0.48253992,0.21569091,-1.4367319,0.3446803,0.12752563,1.4674579,0.10167806,0.56202465,-0.41828096,1.0521625,-0.79346085,-0.39527994,-1.159413,0.62387776,-0.2718688,-0.45120633,-0.15653083,0.27217916,-0.85396457,-0.11955499,-0.23679389,1.4143345,1.2398627,0.10266544,0.72006774,-0.14982113,0.42065275,-0.4424132,-0.233745,-0.7522223,-0.3434206,-0.47669652,-0.16150358,-0.43939963,0.44611335,0.39367518,0.26658118,0.105748415,-0.2383004,-0.54061085,0.016217144,-0.32279843,0.2961515,-0.22492343,0.014604695,-0.47020552,-0.059013672,-0.64962316,0.23550013,-0.5366968,-0.19675165,0.28913888,-0.3231658,-0.3961215,-0.16836728,0.1324135,-0.30528083,0.4735677,0.017359143,0.32551745
MZ-MEL-7,0.47401103,0.68875355,0.100370005,0.047137283,0.20846221,-0.35504174,0.7741719,-0.34993216,-0.02072785,-0.25172725,0.4354477,-0.16615386,-0.26008463,-0.51657516,0.071960956,0.0056534163,0.2318106,-0.13294944,-0.52364653,-0.26791972,0.3425597,0.17899771,0.27747187,0.4733181,0.014257372,0.15264143,0.31371728,0.13875496,0.54890084,-0.35147944,-0.36665106,0.41156405,-0.30242646,0.48827726,-0.16864751,-0.2813534,0.8022993,-0.07050869,-0.50833154,-0.810224,-0.022001002,-0.5166909,-0.55934435,-0.2958378,-0.33086,0.026989538,-0.14611498,0.7933677,-0.29380754,-0.6462138,0.48582146,0.26301694,-0.021669837,-0.56916714,-0.23289187,-0.6461609,0.1884796,-0.23993668,-0.04724955,-0.47821328,-0.10299426,0.37276536,-0.49142772,0.054755438,0.0633419,0.7701766,-0.5057301,0.68499404,0.040061362,-0.1480432
SW1463,1.5293034,0.2634219,0.28513202,-3.8688588,0.4667753,1.2889577,-0.93225545,0.9003688,0.45617896,-1.1822762,1.4657512,1.9378717,-2.2767406,0.07244029,-0.44350082,4.607395,1.2989768,-0.8542278,-0.50579286,3.6872275,-0.419781,0.34759253,-0.8990482,-0.98681957,-1.6742146,-0.23542483,0.5771767,-2.2375917,0.30361038,-2.434338,0.034800135,2.2836487,2.4878848,-0.7278529,1.8305523,-0.4140027,1.0219017,-0.1529617,-0.79696995,-1.026192,0.06626086,-0.7751185,-0.7118061,-0.2565586,-0.5511278,-0.10477367,-0.42301637,1.1232879,-0.36107522,-0.8842829,0.56296486,0.59621316,-0.059851732,-0.8736764,-0.31333756,-0.9133896,0.29416502,-0.3004287,-0.16490598,-0.6022509,-0.14683814,0.3329376,-0.6982735,0.29546,0.20125791,1.008534,-0.51867425,1.0047437,0.1928059,-0.18210034
Panc 10.05,0.08848446,0.08421397,-0.25243977,0.3685002,-0.1538344,-0.3245959,0.2726133,0.38477132,0.25645253,-0.23694019,-0.13869898,0.13058151,0.37006193,-0.11922622,0.1789807,0.42916784,0.24746704,-0.3462441,-0.38060394,0.44292247,0.48003936,-0.017848017,0.14156562,-0.20070286,0.32987788,0.15671405,0.115835056,0.04799456,-0.0825348,-0.34147054,-0.4408077,-0.031193055,-0.10120306,0.19586733,0.2713617,0.09637526,0.39634258,0.10441575,-0.18079028,-0.37348562,-0.08770132,-0.47822204,-0.41988948,-0.54004985,0.13307102,0.21252649,0.2122766,0.42906713,-0.10455117,-0.58817935,0.49884292,-0.0719749,0.25004658,-0.4713435,-0.3023496,-0.47969243,0.11534092,-0.42393047,0.18484047,-0.5740702,0.082286224,0.35077703,-0.18979083,-0.1372668,-0.1277774,0.4104312,-0.6400127,0.56430626,0.07280488,-0.051639386
CP67-MEL,0.4013586,0.5015777,-0.017135613,0.6469823,0.07942499,0.5407759,0.49279338,-0.13402563,-0.19619085,-0.15863737,0.38308975,-0.055744663,-0.20691755,-0.2183706,0.10509359,0.106927186,0.49392396,0.40958893,-0.18708779,-0.039974898,0.15748595,-0.12711821,0.28199,0.63223696,0.2253636,0.13871612,0.5127147,0.07125066,0.19602707,-0.1524396,-0.01404228,0.43007144,-0.19311555,0.48357183,-0.15426962,0.24704164,0.285322,0.0910939,-0.037663568,-0.24206854,-0.13117957,-0.4789375,-0.32930362,-0.6733964,0.35916215,0.28996012,0.31235197,0.21922012,-0.049587004,-0.55104834,0.44327325,-0.25980723,0.39338666,-0.4429989,-0.28625128,-0.43008915,0.08040619,-0.52651167,0.22584921,-0.6091505,0.13667622,0.3569169,-0.05135034,-0.24633735,-0.17410573,0.2525577,-0.621896,0.48215234,0.06613496,0.028854404
TE-1,0.1589925,0.039641045,0.022464564,-0.13619217,-0.2525331,0.26990676,0.204358,0.21130517,0.042466078,0.12769686,0.1812824,-0.02622978,-0.74449706,-0.042624466,0.2949571,0.9215672,0.15047717,-0.102338344,-0.17902867,0.9337831,-0.07585305,-0.18115607,-0.6320353,-0.28493574,-0.26815435,-0.310711,-0.005108397,0.2608026,-0.39508787,-0.33344704,-0.3789754,0.58547705,0.8257652,0.2722373,0.7292958,-0.14982113,0.42065275,-0.4424132,-0.233745,-0.7522223,-0.3434206,-0.47669652,-0.16150358,-0.43939963,0.44611335,0.39367518,0.26658118,0.105748415,-0.2383004,-0.54061085,0.016217144,-0.32279843,0.2961515,-0.22492343,0.014604695,-0.47020552,-0.059013672,-0.64962316,0.23550013,-0.5366968,-0.19675165,0.28913888,-0.3231658,-0.3961215,-0.16836728,0.1324135,-0.30528083,0.4735677,0.017359143,0.32551745
CAS-1,0.7961015,0.86005765,0.4935442,0.6722548,-0.7350151,0.9155246,0.46328107,-0.71242636,0.23590398,0.51862484,0.81791955,0.036994208,-0.9500696,0.18099226,-0.10112845,1.164931,0.3819673,0.5226332,-0.44540584,0.56049633,-0.3588156,-0.23592371,-0.39201277,1.0217239,-0.2919942,-0.2133524,0.9709888,0.2404126,-0.71725416,-0.107155345,-0.16234691,1.18915,0.612683,0.35144573,0.38846886,0.08985348,0.18767507,-0.6868662,-0.37715748,-0.70382255,-0.42326498,-1.0866755,-0.10369912,-0.75533164,1.0246649,0.55056024,0.30418932,0.021236405,-0.12454994,-1.0276293,-0.089164555,-0.28787875,0.7774534,-0.6609191,-0.121242255,-0.8359879,-0.05049801,-1.3464477,0.4401142,-1.0386859,-0.13347559,0.09050046,-0.3594367,-0.32580128,-0.2240801,-0.1635204,-0.38459736,1.0233039,0.45675907,0.69710445
COLO 800,0.28682983,0.4773704,0.1842811,0.13357829,-0.08984273,0.35174152,0.8308789,-0.18559588,0.23045228,0.23605782,0.61173546,-0.20988066,-0.6574315,-0.2647149,0.07502635,0.5822827,0.16890171,0.17026122,-0.4728375,0.23901795,0.13224599,-0.113051966,-0.20834933,0.8374891,-0.060087547,-0.22144891,0.7390899,-0.0070514455,0.08038297,-0.23544824,0.12519993,0.9103253,0.20868617,0.49770692,0.13344741,-0.06584686,0.4455258,0.06344729,-0.039399717,-0.45935506,-0.16539423,-0.09684064,-0.31164983,-0.3596521,0.026994687,0.24105655,0.3037485,0.257368,-0.18452215,-0.25943872,0.36049163,-0.27830505,0.04036178,-0.07445088,-0.10219708,-0.21201198,0.01677948,-0.14165927,0.14389911,-0.27669752,-0.031763997,0.43747088,-0.15537898,-0.3363014,-0.16072117,0.3829332,-0.48470062,0.1655178,-0.20809264,-0.092712805
RERF-LC-MS,0.45062757,0.025271231,0.20920819,-0.13170984,-0.23221171,0.4676738,0.00479311,0.29037827,-0.0959911,0.017564135,0.39964288,0.096307516,-0.80351853,0.027982306,0.22260582,0.99209756,0.22849914,0.19793469,-0.35052004,0.4732717,-0.2500183,-0.20162643,-0.7788497,0.27590227,-0.25587967,-0.14773443,0.002272443,-0.07208252,-0.36657757,-0.14899579,-0.26597705,0.99662334,0.7941258,0.2696212,0.5642614,-0.14982113,0.42065275,-0.4424132,-0.233745,-0.7522223,-0.3434206,-0.47669652,-0.16150358,-0.43939963,0.44611335,0.39367518,0.26658118,0.105748415,-0.2383004,-0.54061085,0.016217144,-0.32279843,0.2961515,-0.22492343,0.014604695,-0.47020552,-0.059013672,-0.64962316,0.23550013,-0.5366968,-0.19675165,0.28913888,-0.3231658,-0.3961215,-0.16836728,0.1324135,-0.30528083,0.4735677,0.017359143,0.32551745
T84,0.9020287,0.41117746,-0.124943025,-2.0642064,0.7968863,0.62271345,-0.6119944,0.4777148,0.6542983,-1.223137,0.89590883,1.2571778,-0.5140522,-0.31682146,-0.39105764,2.3621254,0.69780874,-0.60664845,-0.07771652,1.8200808,0.48977786,0.43045166,0.23273997,-0.630992,-0.24964426,0.093438104,0.74469113,-1.6134459,-0.012506957,-1.8410696,-0.24797218,0.3101098,0.85969,-0.7215819,0.16504666,-0.014665692,0.28669918,-0.112255305,-0.5679184,-0.58416355,-0.1400751,-0.97037584,-0.4913559,-0.5040215,0.30227065,0.27840212,0.18275107,0.6969164,-0.09973957,-1.0735635,0.4481822,0.26868454,0.38966167,-0.78988564,-0.41988423,-0.83752865,0.1310162,-0.88110375,0.40557122,-0.9428203,-0.0044271844,0.12388527,-0.5141482,0.06835438,-0.17013538,0.3397346,-0.7568294,1.1961617,0.4774332,0.18755491
BL-41,-3.6280148,0.047490753,-0.62753445,0.22481382,1.1041763,-1.2861941,5.849722,-1.729826,-0.5837914,-2.2092752,-1.5560938,-0.53936577,4.255758,-1.6765467,-1.4556532,-2.2307842,-2.094233,-1.6430572,-0.7346198,-4.7192435,2.8073177,0.5305652,0.8128115,1.4641066,3.8663504,2.0099678,-0.26704928,1.4464716,2.9066722,-0.2561747,2.8568602,-1.9051658,-2.162357,2.6102824,-3.6327171,-0.14982113,0.42065275,-0.4424132,-0.233745,-0.7522223,-0.3434206,-0.47669652,-0.16150358,-0.43939963,0.44611335,0.39367518,0.26658118,0.105748415,-0.2383004,-0.54061085,0.016217144,-0.32279843,0.2961515,-0.22492343,0.014604695,-0.47020552,-0.059013672,-0.64962316,0.23550013,-0.5366968,-0.19675165,0.28913888,-0.3231658,-0.3961215,-0.16836728,0.1324135,-0.30528083,0.4735677,0.017359143,0.32551745
PLC/PRF/5,0.33120555,0.12501433,0.083234675,-0.09160674,0.39949608,-0.23335157,0.11743097,-0.22937237,-0.07426338,-0.2445081,0.42578828,-0.40571412,0.23451932,0.16502108,0.22221516,0.58504033,0.09028523,-0.6178144,-0.0044224653,-0.49680865,0.6730981,0.29206356,0.28402188,0.18771872,-0.03912506,0.8658481,0.17042348,-0.26472127,0.1695088,-0.2075529,0.25588068,0.41587958,0.06454443,0.25750378,-0.15079208,-0.14982113,0.42065275,-0.4424132,-0.233745,-0.7522223,-0.3434206,-0.47669652,-0.16150358,-0.43939963,0.44611335,0.39367518,0.26658118,0.105748415,-0.2383004,-0.54061085,0.016217144,-0.32279843,0.2961515,-0.22492343,0.014604695,-0.47020552,-0.059013672,-0.64962316,0.23550013,-0.5366968,-0.19675165,0.28913888,-0.3231658,-0.3961215,-0.16836728,0.1324135,-0.30528083,0.4735677,0.017359143,0.32551745
NCI-H2342,0.1148513,-0.049188096,-0.36165878,0.11149103,0.12027202,0.16347075,0.015151739,0.49294287,0.22484612,-0.40522072,-0.21070303,0.011328394,-0.36783835,-0.30177587,0.17449081,0.6388405,0.14024599,-0.5504938,-0.48716852,0.8477969,0.47212306,0.24730219,-0.06664212,-0.4676894,0.19097616,0.24430865,0.313265,-0.052668888,-0.6144645,-0.63749707,-0.40029773,0.16514413,0.17079143,0.30586636,0.3313363,-0.14982113,0.42065275,-0.4424132,-0.233745,-0.7522223,-0.3434206,-0.47669652,-0.16150358,-0.43939963,0.44611335,0.39367518,0.26658118,0.105748415,-0.2383004,-0.54061085,0.016217144,-0.32279843,0.2961515,-0.22492343,0.014604695,-0.47020552,-0.059013672,-0.64962316,0.23550013,-0.5366968,-0.19675165,0.28913888,-0.3231658,-0.3961215,-0.16836728,0.1324135,-0.30528083,0.4735677,0.017359143,0.32551745
HOS,0.7026709,0.55338895,0.70701855,0.34185028,-0.68432575,0.98224527,0.4740268,-0.30689612,-0.12633887,0.75177807,0.71045417,0.010891307,-1.0155454,0.4626005,-0.119119786,1.2727052,0.081890546,0.21667175,-0.5598155,0.5685317,-0.4296162,-0.324097,-0.64029926,0.8122892,-0.15698144,-0.42572677,0.27095369,0.18344146,-0.69907266,0.104075424,-0.0402634,1.3162404,1.0669926,0.43730095,0.57179964,-0.14982113,0.42065275,-0.4424132,-0.233745,-0.7522223,-0.3434206,-0.47669652,-0.16150358,-0.43939963,0.44611335,0.39367518,0.26658118,0.105748415,-0.2383004,-0.54061085,0.016217144,-0.32279843,0.2961515,-0.22492343,0.014604695,-0.47020552,-0.059013672,-0.64962316,0.23550013,-0.5366968,-0.19675165,0.28913888,-0.3231658,-0.3961215,-0.16836728,0.1324135,-0.30528083,0.4735677,0.017359143,0.32551745
Mel JuSo,0.4643942,0.16806087,0.10257469,0.23878841,-0.036701825,0.38015833,0.45368564,-0.49123603,0.025938982,0.061198086,0.4863744,0.040052004,-0.47695613,-0.16576593,-0.010426481,0.41150638,0.4666393,0.29649508,-0.1849841,0.17926896,-0.090625755,-0.2044245,-0.19648439,0.68495977,-0.009865914,-0.19418003,0.25035504,-0.10381677,0.17183547,-0.17335156,0.059954237,0.8955383,0.4632838,0.3277242,0.46815398,0.24075948,0.43199435,-0.130505,-0.026655814,-0.36673784,-0.1690955,-0.5441706,-0.25002602,-0.7673791,0.45317942,0.28964058,0.18054892,0.075668216,-0.106346846,-0.53572196,0.29213858,-0.37565958,0.48535982,-0.4975128,-0.18056007,-0.49602246,0.07401043,-0.6111889,0.08413529,-0.6139468,0.084663376,0.39176667,-0.018445108,-0.31179515,-0.086362995,0.23141661,-0.43827102,0.42114913,0.02935155,0.13688955
NCI-H250,0.40595287,0.32640904,-0.37656608,-0.96312255,0.12217766,0.4736674,0.5444458,0.36771238,0.13705133,-0.647401,0.45480174,0.37100106,0.012536715,-0.050895073,-0.26354688,0.77873564,0.43452352,-0.6131254,-0.6286445,0.5923287,0.7211149,0.29882088,-0.279926,-0.16971833,-0.20206937,0.19993211,0.42040056,-0.9707698,0.51481,-0.3357072,0.103168294,0.8021403,0.24643636,0.2641877,0.14838651,0.08985348,0.18767507,-0.6868662,-0.37715748,-0.70382255,-0.42326498,-1.0866755,-0.10369912,-0.75533164,1.0246649,0.55056024,0.30418932,0.021236405,-0.12454994,-1.0276293,-0.089164555,-0.28787875,0.7774534,-0.6609191,-0.121242255,-0.8359879,-0.05049801,-1.3464477,0.4401142,-1.0386859,-0.13347559,0.09050046,-0.3594367,-0.32580128,-0.2240801,-0.1635204,-0.38459736,1.0233039,0.45675907,0.69710445
TE-10,0.24371438,0.04335086,-0.110599935,-0.7479113,-0.1033327,0.22056758,0.04705486,0.57310206,0.18380442,-0.18182115,0.22591017,0.45153376,-1.1027867,-0.32652703,0.0029265461,1.0354685,0.484038,0.1611264,-0.23060976,1.293181,-0.1661249,-0.3624513,-0.833944,-0.12751344,-0.034339577,-0.62843513,-0.20339428,0.16558549,-0.72260016,-0.28913885,-0.12851353,0.89654547,0.903738,0.17859204,0.965185,-0.14982113,0.42065275,-0.4424132,-0.233745,-0.7522223,-0.3434206,-0.47669652,-0.16150358,-0.43939963,0.44611335,0.39367518,0.26658118,0.105748415,-0.2383004,-0.54061085,0.016217144,-0.32279843,0.2961515,-0.22492343,0.014604695,-0.47020552,-0.059013672,-0.64962316,0.23550013,-0.5366968,-0.19675165,0.28913888,-0.3231658,-0.3961215,-0.16836728,0.1324135,-0.30528083,0.4735677,0.017359143,0.32551745
SNU-C2B,0.7035867,0.12002589,-0.36110473,-1.8056842,0.33383662,0.95606524,-0.73227787,0.6834765,0.19657652,-0.83917916,0.61647266,1.1452465,-0.6409231,-0.23422629,0.14174454,2.3058412,0.878004,-0.3786125,-0.3277342,2.0292916,0.2332005,0.47195715,-0.14232776,-0.72998554,-0.80217904,0.21443246,0.19907098,-1.0519586,0.15103917,-1.4224709,0.008033797,1.4583615,0.9668078,-0.08653538,0.72533023,0.40458748,0.4908932,-0.3360338,-0.014756074,-0.37270793,-0.1882347,-0.8167981,-0.18071745,-1.0314658,0.72731495,0.3159056,0.054042257,-0.08794527,-0.08949148,-0.6789814,0.1867131,-0.48091218,0.7687986,-0.7521065,-0.17541437,-0.68018866,0.10223108,-0.9046669,-0.012365737,-0.7994361,0.12445618,0.38266483,0.07085354,-0.32804236,-0.0063083987,0.13950512,-0.33008626,0.5325496,0.14180632,0.31049854
NCI-H2196,0.81477207,0.4019051,-0.23506631,-2.2553782,0.2746688,0.60515636,-0.15721785,0.65408146,-0.19994938,-1.275759,0.58007866,0.60977024,-0.6115492,-0.60741204,-0.12171514,1.6995289,1.2405778,-0.030207938,-1.0670763,1.5415778,0.33518556,-0.10503116,-1.0930707,-0.51979405,-0.78501314,0.42373532,0.15327533,-1.2570096,0.39208847,-0.8083223,0.077301346,1.709168,1.5053567,-0.014663912,0.7266212,0.08985348,0.18767507,-0.6868662,-0.37715748,-0.70382255,-0.42326498,-1.0866755,-0.10369912,-0.75533164,1.0246649,0.55056024,0.30418932,0.021236405,-0.12454994,-1.0276293,-0.089164555,-0.28787875,0.7774534,-0.6609191,-0.121242255,-0.8359879,-0.05049801,-1.3464477,0.4401142,-1.0386859,-0.13347559,0.09050046,-0.3594367,-0.32580128,-0.2240801,-0.1635204,-0.38459736,1.0233039,0.45675907,0.69710445
SiMa,0.097482786,0.44784924,-0.93773645,-0.65203637,1.0819926,0.5860925,1.3653274,-0.55303,-0.2772457,-2.0928166,0.8268147,-0.08569642,1.2365694,-0.3183721,-0.19537248,-0.5963137,0.777683,-0.72494996,-1.4145454,-1.0489191,1.5251312,0.1516389,0.7459908,0.28974354,0.9225396,1.0614889,1.6233925,-1.0349097,1.2379228,-0.2428838,0.8484385,-0.102610804,-0.7775935,0.47318256,-0.78692,0.1504296,0.290884,0.13715672,-0.04566242,-0.27864948,-0.1343858,-0.3498305,-0.34405184,-0.55040395,0.23781368,0.2782513,0.3478788,0.270187,-0.07564289,-0.47158793,0.45495772,-0.23221375,0.26266485,-0.3162834,-0.25813273,-0.34880835,0.06100308,-0.3935744,0.24443766,-0.51066256,0.09645927,0.36828104,-0.09685059,-0.25605923,-0.19609202,0.29366302,-0.6299509,0.40905508,-0.0028148156,-0.031604443
Huh-7,1.0679183,0.21319774,0.43473306,-0.5579465,-0.36216572,0.17253041,0.28367215,0.23713104,-0.20509954,-0.22966856,0.56978124,-0.2869522,-0.60950553,0.64456296,-0.22606298,1.7035707,0.12821333,-1.2197157,-0.35059986,0.67771167,-0.28695714,-0.032049205,-0.6993835,0.3380638,-0.1013281,0.52507734,-0.45739537,-0.42077744,-0.29372987,-0.24396497,0.6566529,1.949711,1.0244117,-0.023175633,0.5461125,-0.14982113,0.42065275,-0.4424132,-0.233745,-0.7522223,-0.3434206,-0.47669652,-0.16150358,-0.43939963,0.44611335,0.39367518,0.26658118,0.105748415,-0.2383004,-0.54061085,0.016217144,-0.32279843,0.2961515,-0.22492343,0.014604695,-0.47020552,-0.059013672,-0.64962316,0.23550013,-0.5366968,-0.19675165,0.28913888,-0.3231658,-0.3961215,-0.16836728,0.1324135,-0.30528083,0.4735677,0.017359143,0.32551745
NCI-H460,0.597741,0.387681,-0.076009825,0.10386346,-0.20993033,0.15620798,0.18576173,-0.17821832,-0.14809194,0.060606003,0.49739513,-0.09988656,-0.3663882,-0.008378044,0.4885537,0.40708122,0.25448132,-0.10913647,-0.2221769,0.07042794,0.17393619,-0.064010195,-0.06352786,0.15203984,-0.07707074,0.13060905,0.35712516,0.26058084,-0.3044466,0.09228021,-0.14096548,0.33776546,0.44265288,0.38563612,0.45320177,0.29181445,0.26275942,0.17405693,-0.18362816,-0.20964022,-0.056995224,-0.7013967,-0.45044586,-0.7125398,0.3161962,0.24241763,0.24780224,0.44104525,-0.007428045,-0.7742056,0.5866828,-0.03136564,0.44744292,-0.6888559,-0.44233763,-0.6007616,0.1568985,-0.6432966,0.26904488,-0.78018296,0.19921432,0.2922077,-0.13388218,-0.064650744,-0.15639599,0.33547863,-0.7691409,0.7771455,0.2527563,-0.0019603462
HT-1197,0.5236615,-0.010745732,0.06649703,-0.39115614,0.035923272,0.15827201,0.17636216,0.40066066,0.16946195,0.16951525,0.26329905,0.3591124,-1.1151432,0.17306261,0.001174613,0.9471374,0.14157033,-0.064931184,0.043443613,1.1925596,-0.12948707,0.026202679,-0.7622574,0.17284773,-0.04932404,-0.2993181,0.05281327,0.22500779,-0.44226772,-0.59342825,-0.19548379,0.4336086,0.6386271,-0.09143795,0.6934091,0.24075948,0.43199435,-0.130505,-0.026655814,-0.36673784,-0.1690955,-0.5441706,-0.25002602,-0.7673791,0.45317942,0.28964058,0.18054892,0.075668216,-0.106346846,-0.53572196,0.29213858,-0.37565958,0.48535982,-0.4975128,-0.18056007,-0.49602246,0.07401043,-0.6111889,0.08413529,-0.6139468,0.084663376,0.39176667,-0.018445108,-0.31179515,-0.086362995,0.23141661,-0.43827102,0.42114913,0.02935155,0.13688955
KYSE-140,0.4156327,-0.075339265,-0.07501592,-1.0455675,-0.17068812,0.4285105,-0.09871825,0.5386057,0.044608023,0.066051245,0.5328188,0.6024046,-1.4283408,-0.30413163,0.10254838,1.44159,0.30911854,0.024725456,-0.089126304,1.6823813,-0.21546252,-0.04906816,-1.4832792,-0.16867304,-0.3971731,-0.26418132,-0.30744857,0.12196215,-0.84255284,-0.40237734,0.12614866,1.2864444,1.2351038,-0.28433266,1.678715,-0.14982113,0.42065275,-0.4424132,-0.233745,-0.7522223,-0.3434206,-0.47669652,-0.16150358,-0.43939963,0.44611335,0.39367518,0.26658118,0.105748415,-0.2383004,-0.54061085,0.016217144,-0.32279843,0.2961515,-0.22492343,0.014604695,-0.47020552,-0.059013672,-0.64962316,0.23550013,-0.5366968,-0.19675165,0.28913888,-0.3231658,-0.3961215,-0.16836728,0.1324135,-0.30528083,0.4735677,0.017359143,0.32551745
HLE,0.6736669,0.28510308,0.5242383,-0.21808486,-0.45461807,0.69721115,0.008427696,0.07614093,-0.26797655,0.74399215,0.28580046,-0.1711309,-1.4189606,0.53115433,0.19870639,1.0865365,0.22227937,0.44571567,-0.28039297,0.7101517,-0.9530104,-0.5079264,-1.0436969,0.44461077,-0.14309856,-0.47795507,0.064770974,0.20559946,-0.5200515,-0.103581,-0.17377199,1.308561,1.2468458,0.18472461,0.8112362,-0.14982113,0.42065275,-0.4424132,-0.233745,-0.7522223,-0.3434206,-0.47669652,-0.16150358,-0.43939963,0.44611335,0.39367518,0.26658118,0.105748415,-0.2383004,-0.54061085,0.016217144,-0.32279843,0.2961515,-0.22492343,0.014604695,-0.47020552,-0.059013672,-0.64962316,0.23550013,-0.5366968,-0.19675165,0.28913888,-0.3231658,-0.3961215,-0.16836728,0.1324135,-0.30528083,0.4735677,0.017359143,0.32551745
A2780,0.20372976,0.4217992,-0.2609512,0.46260306,-0.0029258274,0.20968693,0.7223221,-0.4314895,0.026670445,-0.45176303,0.50404495,-0.30080482,0.39204872,-0.11197688,-0.283885,0.023568852,-0.16142899,-0.7598803,-0.48076737,-0.6489914,0.2913677,0.123101644,0.51879644,0.6239227,0.47991872,0.44221303,0.26220435,-0.24388602,0.37314913,0.10663679,0.10752863,0.046577293,-0.24015717,0.29734588,-0.37978354,0.5520627,0.25318447,-0.29032883,-0.094390355,-0.2392758,-0.1971902,-1.1006867,-0.21243452,-1.1421198,0.9703114,0.39803243,0.17193167,-0.02566315,0.019680327,-0.95501643,0.25322774,-0.37554863,0.96636033,-0.95621246,-0.3358189,-0.82956797,0.11598115,-1.2175509,0.20168062,-1.0709337,0.20739001,0.2515581,0.035894044,-0.23737314,-0.100659296,-0.0019934652,-0.5170505,0.8758596,0.40883175,0.4241485
KYSE-410,0.05722674,-0.062903725,-0.10635507,0.04961857,0.024512772,0.14124136,0.31176353,0.25451744,0.0447269,-0.23308425,-0.14320377,0.085486695,0.33503887,-0.16786428,0.15588409,0.25913534,0.37744582,-0.20135772,-0.4752274,0.35978836,0.4768361,-0.08230024,-0.102743715,-0.17489979,0.5902404,-0.058283042,0.055749632,0.17187339,-0.111367896,-0.5390271,-0.2911416,0.2100995,0.21437441,0.04674972,0.02740276,0.09637526,0.39634258,0.10441575,-0.18079028,-0.37348562,-0.08770132,-0.47822204,-0.41988948,-0.54004985,0.13307102,0.21252649,0.2122766,0.42906713,-0.10455117,-0.58817935,0.49884292,-0.0719749,0.25004658,-0.4713435,-0.3023496,-0.47969243,0.11534092,-0.42393047,0.18484047,-0.5740702,0.082286224,0.35077703,-0.18979083,-0.1372668,-0.1277774,0.4104312,-0.6400127,0.56430626,0.07280488,-0.051639386
NMC-G1,0.5798611,0.15852089,0.51477057,-0.4977255,-0.6521944,0.7811667,0.13601086,0.34233192,-0.42009878,0.5268037,0.7341807,0.28938848,-1.8449637,0.33207166,0.27569354,1.963854,0.35268924,0.684313,-0.42208079,1.4510816,-1.1287667,-0.75809777,-1.318306,0.783675,-0.3847038,-0.56376964,0.0472248,0.38365147,-0.84815997,-0.4357692,-0.30097842,1.6939406,1.58163,0.21320133,1.2183622,-0.06584686,0.4455258,0.06344729,-0.039399717,-0.45935506,-0.16539423,-0.09684064,-0.31164983,-0.3596521,0.026994687,0.24105655,0.3037485,0.257368,-0.18452215,-0.25943872,0.36049163,-0.27830505,0.04036178,-0.07445088,-0.10219708,-0.21201198,0.01677948,-0.14165927,0.14389911,-0.27669752,-0.031763997,0.43747088,-0.15537898,-0.3363014,-0.16072117,0.3829332,-0.48470062,0.1655178,-0.20809264,-0.092712805
EKVX,0.5980536,0.15849572,0.36650568,-0.6315994,-0.16831893,0.6199173,-0.13021803,0.18667553,0.14967164,0.29975012,0.20553453,0.24358116,-1.095177,-0.26818004,0.68282884,1.2000836,0.432068,0.17468607,-0.31782627,0.8724114,-0.07118068,0.0030437156,-0.5244701,-0.36074397,-0.6505029,0.11781564,0.27749696,-0.12868212,-0.31039134,-0.24785356,-0.3276853,1.0522404,1.0790741,0.5243489,0.9564422,-0.14982113,0.42065275,-0.4424132,-0.233745,-0.7522223,-0.3434206,-0.47669652,-0.16150358,-0.43939963,0.44611335,0.39367518,0.26658118,0.105748415,-0.2383004,-0.54061085,0.016217144,-0.32279843,0.2961515,-0.22492343,0.014604695,-0.47020552,-0.059013672,-0.64962316,0.23550013,-0.5366968,-0.19675165,0.28913888,-0.3231658,-0.3961215,-0.16836728,0.1324135,-0.30528083,0.4735677,0.017359143,0.32551745
HCC2998,0.73373586,0.2680827,-0.37361386,-2.1407623,0.48888484,0.86255413,-0.58188784,0.47265086,0.5566101,-1.0885773,0.90943015,1.109469,-0.7794607,-0.23241855,-0.37523156,2.4801092,1.1516441,-0.42668357,-0.314909,2.101798,0.59603816,0.52263,-0.02091165,-0.87499774,-0.5948602,0.11562497,0.60283667,-1.5899447,0.46071702,-1.8220035,-0.050019227,0.84312665,0.87470794,-0.5249283,0.488944,-0.4140027,1.0219017,-0.1529617,-0.79696995,-1.026192,0.06626086,-0.7751185,-0.7118061,-0.2565586,-0.5511278,-0.10477367,-0.42301637,1.1232879,-0.36107522,-0.8842829,0.56296486,0.59621316,-0.059851732,-0.8736764,-0.31333756,-0.9133896,0.29416502,-0.3004287,-0.16490598,-0.6022509,-0.14683814,0.3329376,-0.6982735,0.29546,0.20125791,1.008534,-0.51867425,1.0047437,0.1928059,-0.18210034
PA-1,0.37681806,0.19886735,0.3156874,-0.5422043,-0.050481975,0.59473735,0.66508466,-0.17893092,0.044261355,-0.3553878,0.38690928,-0.016416326,-0.43262172,0.24220537,-0.18803209,0.853408,0.18433994,0.026019698,-0.7813919,0.42268154,0.10867535,-0.09370864,-0.6027569,0.31633636,0.16574326,-0.21468882,-0.021750905,-0.57631415,-0.06861569,0.17230687,0.32125005,0.8127387,0.88354164,-0.12477818,0.25735208,0.24075948,0.43199435,-0.130505,-0.026655814,-0.36673784,-0.1690955,-0.5441706,-0.25002602,-0.7673791,0.45317942,0.28964058,0.18054892,0.075668216,-0.106346846,-0.53572196,0.29213858,-0.37565958,0.48535982,-0.4975128,-0.18056007,-0.49602246,0.07401043,-0.6111889,0.08413529,-0.6139468,0.084663376,0.39176667,-0.018445108,-0.31179515,-0.086362995,0.23141661,-0.43827102,0.42114913,0.02935155,0.13688955
TE-12,0.3072037,-0.11238416,-0.14665051,-0.82266194,-0.044036746,0.44738042,0.42359772,0.52668273,0.11323593,0.44354504,0.26017454,0.5299936,-1.5181631,0.06338134,0.28563842,1.5394744,0.57704,0.20230709,-0.23660275,1.5004054,-0.14032157,-0.27428713,-1.1258699,-0.06740512,-0.12199836,-0.3077321,-0.12503996,0.407402,-0.9380002,-0.66307557,-0.19200665,1.1509639,0.91652626,0.2536963,1.3861257,0.24075948,0.43199435,-0.130505,-0.026655814,-0.36673784,-0.1690955,-0.5441706,-0.25002602,-0.7673791,0.45317942,0.28964058,0.18054892,0.075668216,-0.106346846,-0.53572196,0.29213858,-0.37565958,0.48535982,-0.4975128,-0.18056007,-0.49602246,0.07401043,-0.6111889,0.08413529,-0.6139468,0.084663376,0.39176667,-0.018445108,-0.31179515,-0.086362995,0.23141661,-0.43827102,0.42114913,0.02935155,0.13688955
HDLM-2,-0.76812714,-0.2447789,-0.05780276,0.08747423,1.253572,-0.48472023,2.141595,-0.04313443,0.026858293,-0.35781562,0.18504977,-0.24797194,0.77320707,0.44210497,-0.80317444,-1.0888253,-1.3810667,-0.44688514,-0.16120891,-2.3491924,0.19132379,-0.46710593,0.47832364,1.5556144,1.4105045,0.15623207,0.062051836,0.48115692,1.5288849,0.11350021,-0.12513237,-0.50888306,-0.23482333,1.0161368,-0.39601424,0.48716682,0.6353973,-0.61654645,8.0135156e-05,-0.47200522,-0.22767843,-1.0125687,-0.08261513,-1.2448429,0.94608104,0.3296749,-0.11507585,-0.28592202,-0.12425503,-0.74361247,0.0139410375,-0.6263917,0.99095327,-0.9299902,-0.09118776,-0.82929415,0.11235958,-1.126554,-0.17311275,-0.90211517,0.1055922,0.4046747,0.14387308,-0.38717577,0.1040543,0.07416065,-0.13079393,0.54496616,0.17345732,0.48642808
CHL-1,0.49648136,0.17709664,0.241447,-0.37504357,0.19935061,0.43263733,0.9694744,-0.5162334,0.21420375,-0.116125256,0.63841987,0.12419339,-0.60870653,-0.147236,-0.11341091,0.8728368,-0.056844484,-0.20454328,-0.93263626,0.1910244,-0.0452708,-0.24858981,-0.54961467,0.6600373,-0.15771067,0.09095368,0.18987142,-0.25497887,-0.10856494,-0.14816779,0.29911092,0.81673807,0.8386595,0.5268971,0.9453691,-0.14982113,0.42065275,-0.4424132,-0.233745,-0.7522223,-0.3434206,-0.47669652,-0.16150358,-0.43939963,0.44611335,0.39367518,0.26658118,0.105748415,-0.2383004,-0.54061085,0.016217144,-0.32279843,0.2961515,-0.22492343,0.014604695,-0.47020552,-0.059013672,-0.64962316,0.23550013,-0.5366968,-0.19675165,0.28913888,-0.3231658,-0.3961215,-0.16836728,0.1324135,-0.30528083,0.4735677,0.017359143,0.32551745
NCI-H1436,0.43827242,0.33041838,-0.28044206,-3.310982,0.79618555,0.5331903,0.64284265,0.6240575,-0.3235015,-2.0221293,0.8226655,0.560197,-0.24071419,-0.8957293,-0.7281001,1.3751038,1.6445683,0.053858384,-1.3672867,1.2152284,0.9643997,-0.022281306,-0.5872455,-0.5211252,-0.13501047,0.9694625,0.2499518,-1.7151738,1.3730361,-1.1269451,0.80476004,1.6011324,1.2991606,0.04257333,0.42239556,-0.06584686,0.4455258,0.06344729,-0.039399717,-0.45935506,-0.16539423,-0.09684064,-0.31164983,-0.3596521,0.026994687,0.24105655,0.3037485,0.257368,-0.18452215,-0.25943872,0.36049163,-0.27830505,0.04036178,-0.07445088,-0.10219708,-0.21201198,0.01677948,-0.14165927,0.14389911,-0.27669752,-0.031763997,0.43747088,-0.15537898,-0.3363014,-0.16072117,0.3829332,-0.48470062,0.1655178,-0.20809264,-0.092712805
Ca9-22,0.34606668,-0.20596069,0.19519839,-1.1171241,0.015857056,0.5150215,0.23414198,0.51337093,-0.0199701,0.14252444,0.36262956,0.6060418,-1.3797354,0.011464704,0.0795038,1.9191881,0.702593,0.24528739,-0.11687929,1.5946295,-0.567036,-0.7826948,-1.4844874,0.17352892,-0.38182527,-0.802947,-0.5937705,0.28505182,-0.98319346,-0.5883133,-0.14153038,1.2675924,1.3949851,0.02078549,1.650713,-0.14982113,0.42065275,-0.4424132,-0.233745,-0.7522223,-0.3434206,-0.47669652,-0.16150358,-0.43939963,0.44611335,0.39367518,0.26658118,0.105748415,-0.2383004,-0.54061085,0.016217144,-0.32279843,0.2961515,-0.22492343,0.014604695,-0.47020552,-0.059013672,-0.64962316,0.23550013,-0.5366968,-0.19675165,0.28913888,-0.3231658,-0.3961215,-0.16836728,0.1324135,-0.30528083,0.4735677,0.017359143,0.32551745
Evsa-T,0.6230016,0.15893109,-0.6203847,-1.0002792,0.24705872,0.30103064,0.60440797,-0.029388562,0.3951473,-0.7340129,0.7997805,0.5395888,-0.47004297,0.071888745,-0.15921672,1.2779086,0.13779727,-1.1257597,-0.4212461,1.0830683,0.1870111,0.24780093,-0.3647934,-0.11993825,-0.0958072,0.45215484,-0.022862723,-0.7792055,-0.07733657,-0.45813563,0.25389796,0.8469341,0.53314525,0.15029398,0.35430983,-0.047547273,0.35856143,0.027468255,-0.094438195,-0.45753565,-0.19185035,-0.214467,-0.30774423,-0.37885317,0.1368396,0.2868361,0.35013533,0.2732203,-0.15863645,-0.37412483,0.3438182,-0.23930068,0.11099753,-0.13514535,-0.13798787,-0.27794823,0.007335413,-0.28488404,0.23678929,-0.38236552,-0.032821715,0.3745893,-0.2003602,-0.31375673,-0.20096177,0.31082016,-0.5310916,0.30928746,-0.101054616,-0.014235289
IA-LM,-0.11506027,0.26588714,-0.16447282,0.5488881,-0.1126799,-0.11909892,0.073045015,-0.2350916,-0.07773482,-0.018583775,0.010313044,-0.2750162,0.31933382,-0.17074618,0.10599873,0.04501623,0.34923527,0.07291967,-0.06621944,0.005150503,0.45178223,0.09581446,0.40297046,0.32653952,0.3554237,0.31184572,0.35979703,0.2334096,-0.0625373,0.009963187,-0.016269177,0.06249159,-0.14048295,0.64195085,-0.49695015,0.29181445,0.26275942,0.17405693,-0.18362816,-0.20964022,-0.056995224,-0.7013967,-0.45044586,-0.7125398,0.3161962,0.24241763,0.24780224,0.44104525,-0.007428045,-0.7742056,0.5866828,-0.03136564,0.44744292,-0.6888559,-0.44233763,-0.6007616,0.1568985,-0.6432966,0.26904488,-0.78018296,0.19921432,0.2922077,-0.13388218,-0.064650744,-0.15639599,0.33547863,-0.7691409,0.7771455,0.2527563,-0.0019603462
KYSE-510,0.5688277,-0.0688921,0.033952285,-0.7461739,-0.32488286,0.26078364,0.23821802,0.6659657,-0.05139389,0.18490137,0.55948114,0.4446812,-1.1946856,-0.015795255,0.19535458,1.7067951,0.34130764,-0.2027276,-0.41223153,1.9093829,-0.36701396,-0.4707457,-1.1649289,-0.2528418,-0.13937522,-0.23298411,-0.5839301,0.18246429,-0.48647022,-0.5684011,-0.15629578,1.367856,1.1347682,0.09070892,1.2285905,-0.14982113,0.42065275,-0.4424132,-0.233745,-0.7522223,-0.3434206,-0.47669652,-0.16150358,-0.43939963,0.44611335,0.39367518,0.26658118,0.105748415,-0.2383004,-0.54061085,0.016217144,-0.32279843,0.2961515,-0.22492343,0.014604695,-0.47020552,-0.059013672,-0.64962316,0.23550013,-0.5366968,-0.19675165,0.28913888,-0.3231658,-0.3961215,-0.16836728,0.1324135,-0.30528083,0.4735677,0.017359143,0.32551745
HCC2157,0.51185054,-0.06631579,0.1422257,-1.6471511,0.022180317,0.6122391,0.1731064,0.81187135,0.0071197613,0.28897613,0.27289233,0.5159801,-1.8334854,-0.38314405,-0.019843346,2.474962,0.66443604,-0.20255843,-0.4974445,2.2470875,-0.16298625,-0.35509074,-1.3328298,-0.12614292,-0.75649184,-0.5796613,-0.23910476,-0.5779374,-0.37732425,-0.6569574,-0.61613554,1.9777102,1.6343431,0.0057741846,1.7625465,0.2944707,0.773702,-0.69465417,0.0020623233,-0.63906825,-0.25903746,-0.79739565,-0.049933918,-1.0793308,0.76933455,0.29974005,-0.15674795,-0.30230767,-0.22229232,-0.5614039,-0.07834492,-0.6696948,0.8009123,-0.72012407,0.050348833,-0.71441805,0.07175998,-0.9150722,-0.26228797,-0.7005399,-0.011581959,0.46346796,0.0894757,-0.4601701,0.13646913,0.14788869,0.003679653,0.33486268,-0.004071983,0.4420874
SK-MEL-30,0.4445973,0.5531799,0.24632001,-0.0072375312,0.15042892,0.28028643,0.75100803,-0.28747606,-0.11733958,0.2234317,0.61491597,0.004627496,-0.5409853,-0.46535963,-0.022569774,0.34511143,-0.11596519,-0.0043437053,-0.2616239,-0.016399242,0.041765124,-0.20594645,-0.17756806,0.63152194,-0.07770795,-0.11077527,0.13206504,-0.068498455,0.12591667,-0.3707924,-0.1607622,0.8985135,0.2810779,0.14970176,0.14502487,-0.14982113,0.42065275,-0.4424132,-0.233745,-0.7522223,-0.3434206,-0.47669652,-0.16150358,-0.43939963,0.44611335,0.39367518,0.26658118,0.105748415,-0.2383004,-0.54061085,0.016217144,-0.32279843,0.2961515,-0.22492343,0.014604695,-0.47020552,-0.059013672,-0.64962316,0.23550013,-0.5366968,-0.19675165,0.28913888,-0.3231658,-0.3961215,-0.16836728,0.1324135,-0.30528083,0.4735677,0.017359143,0.32551745
YKG-1,0.7909136,0.7049575,0.12655883,0.4025154,-0.36801577,0.5042163,0.105763294,-0.3800678,0.052519698,0.29082453,0.4593913,-0.10809502,-0.26551786,0.2153398,-0.24393724,0.54940814,0.2073656,0.27128294,-0.4103874,0.09414853,-0.03914291,-0.27971104,-0.4428996,0.5554922,-0.07276501,-0.13854998,0.4355396,0.050842665,-0.32021973,0.13541202,-0.19640608,0.97513896,0.543719,0.38419986,0.5434096,0.08985348,0.18767507,-0.6868662,-0.37715748,-0.70382255,-0.42326498,-1.0866755,-0.10369912,-0.75533164,1.0246649,0.55056024,0.30418932,0.021236405,-0.12454994,-1.0276293,-0.089164555,-0.28787875,0.7774534,-0.6609191,-0.121242255,-0.8359879,-0.05049801,-1.3464477,0.4401142,-1.0386859,-0.13347559,0.09050046,-0.3594367,-0.32580128,-0.2240801,-0.1635204,-0.38459736,1.0233039,0.45675907,0.69710445
SW1116,0.8458226,0.09728243,0.10824904,-2.3071167,0.5236105,0.9197777,-0.66532433,0.903609,0.5753355,-0.8176523,0.94501513,1.303026,-1.0673947,-0.107905,-0.16973723,2.740038,0.9717609,-0.27813056,-0.04808797,2.2705705,0.06865846,0.23887686,-0.22693546,-0.81251615,-0.64305454,-0.11301074,0.6097185,-1.0990814,0.16120069,-1.8820924,-0.24882703,0.953264,1.4593322,-0.8803948,0.93200517,-0.014665692,0.28669918,-0.112255305,-0.5679184,-0.58416355,-0.1400751,-0.97037584,-0.4913559,-0.5040215,0.30227065,0.27840212,0.18275107,0.6969164,-0.09973957,-1.0735635,0.4481822,0.26868454,0.38966167,-0.78988564,-0.41988423,-0.83752865,0.1310162,-0.88110375,0.40557122,-0.9428203,-0.0044271844,0.12388527,-0.5141482,0.06835438,-0.17013538,0.3397346,-0.7568294,1.1961617,0.4774332,0.18755491
KGN,0.5603964,0.92650867,0.26149854,0.7891884,-0.85868406,0.5924669,0.09958883,-0.19549929,0.14857338,0.52801245,0.73145175,-0.024623988,-0.5850004,0.09699348,-0.18202588,0.8589913,0.5140327,0.55318725,-0.24257499,0.61881053,-0.2344637,0.2134942,-0.012707849,0.8151669,-0.34011808,0.05272848,1.0530248,0.5009976,-0.44854742,-0.04904569,-0.08331799,0.6991098,0.025291545,0.3340164,-0.121848606,0.24075948,0.43199435,-0.130505,-0.026655814,-0.36673784,-0.1690955,-0.5441706,-0.25002602,-0.7673791,0.45317942,0.28964058,0.18054892,0.075668216,-0.106346846,-0.53572196,0.29213858,-0.37565958,0.48535982,-0.4975128,-0.18056007,-0.49602246,0.07401043,-0.6111889,0.08413529,-0.6139468,0.084663376,0.39176667,-0.018445108,-0.31179515,-0.086362995,0.23141661,-0.43827102,0.42114913,0.02935155,0.13688955
D-263MG,0.9937991,1.2862903,0.21893738,1.6291956,-1.0434169,0.9454705,0.71911055,-0.9702848,0.47634846,0.978014,0.744584,-0.43666765,-0.5102397,0.5401175,-0.14567912,0.7273571,0.17403735,0.32310173,-0.3450981,0.14319043,0.027753113,0.19824699,0.17526682,1.1650455,-0.22991592,0.048682444,1.2926111,0.8016318,-0.9515499,0.23732464,0.043234464,0.72713226,-0.12512894,0.71249276,0.11376178,0.08985348,0.18767507,-0.6868662,-0.37715748,-0.70382255,-0.42326498,-1.0866755,-0.10369912,-0.75533164,1.0246649,0.55056024,0.30418932,0.021236405,-0.12454994,-1.0276293,-0.089164555,-0.28787875,0.7774534,-0.6609191,-0.121242255,-0.8359879,-0.05049801,-1.3464477,0.4401142,-1.0386859,-0.13347559,0.09050046,-0.3594367,-0.32580128,-0.2240801,-0.1635204,-0.38459736,1.0233039,0.45675907,0.69710445
AN3-CA,0.43064326,0.16530068,0.012724655,0.49543524,-0.5395083,0.59449947,0.60311556,-0.48288232,0.15934598,0.15543158,0.32677794,-0.079168834,-0.5077897,0.34209734,0.14287803,0.8330506,0.006013432,-0.31474543,-0.49563542,0.129316,-0.15312733,-0.32993546,-0.67120373,0.46620688,0.16770798,0.08933027,0.23234653,-0.063427135,-0.15349229,0.08043518,0.072502695,0.6418128,0.7848608,0.44500646,0.34402296,-0.06584686,0.4455258,0.06344729,-0.039399717,-0.45935506,-0.16539423,-0.09684064,-0.31164983,-0.3596521,0.026994687,0.24105655,0.3037485,0.257368,-0.18452215,-0.25943872,0.36049163,-0.27830505,0.04036178,-0.07445088,-0.10219708,-0.21201198,0.01677948,-0.14165927,0.14389911,-0.27669752,-0.031763997,0.43747088,-0.15537898,-0.3363014,-0.16072117,0.3829332,-0.48470062,0.1655178,-0.20809264,-0.092712805
Caov-3,0.86668557,-0.1328072,0.41378614,-1.0760441,-0.14523433,0.9763882,-0.015075735,0.56514084,0.4116717,0.58432466,0.6653669,0.61126614,-2.1116302,-0.056740183,0.11125669,2.1118371,0.20380296,0.087335475,-0.33548734,2.043641,-1.0611974,-0.60120517,-1.6038162,0.08295394,-0.42426524,-0.7318181,-0.18044223,0.30086514,-0.97431016,-0.46242425,-0.3100972,1.8314978,1.7132508,0.079528265,1.6814002,-0.14982113,0.42065275,-0.4424132,-0.233745,-0.7522223,-0.3434206,-0.47669652,-0.16150358,-0.43939963,0.44611335,0.39367518,0.26658118,0.105748415,-0.2383004,-0.54061085,0.016217144,-0.32279843,0.2961515,-0.22492343,0.014604695,-0.47020552,-0.059013672,-0.64962316,0.23550013,-0.5366968,-0.19675165,0.28913888,-0.3231658,-0.3961215,-0.16836728,0.1324135,-0.30528083,0.4735677,0.017359143,0.32551745
SNU-5,0.7266053,-0.028603429,-0.13195485,-1.0060651,0.088645324,0.56747687,-0.809724,0.43330917,0.13724887,0.3192022,0.557307,0.8539041,-1.0157895,0.24400003,0.4515333,2.3987353,0.2516699,-0.26305765,0.14495578,1.3859115,-0.5001117,0.091970585,-0.33594245,-0.0008540131,-0.6116465,0.38726443,0.29934278,-0.5541828,-0.0631295,-1.2131958,-0.18102503,0.9372723,1.2599883,-0.08276581,0.96430576,-0.18395837,0.6410607,-0.009969244,-0.29640466,-0.6516539,-0.08680548,-0.32694572,-0.44740245,-0.32467774,-0.1691328,0.12373399,0.057194237,0.5511305,-0.24441761,-0.47141647,0.42918047,0.018374383,0.0063644457,-0.34558734,-0.17382628,-0.44995365,0.110882245,-0.19552164,0.039137293,-0.38714117,-0.070802785,0.40200806,-0.3395554,-0.12197697,-0.037920125,0.59516764,-0.49622613,0.45022437,-0.07208821,-0.12303744
NALM-6,-2.8823924,-0.2930805,-0.5367743,0.5610879,1.0497957,-0.97315705,5.0875816,-1.3939813,-0.53935415,-1.5936139,-0.98693645,-0.58920926,3.2179286,-1.6199402,-1.7267115,-2.3536804,-2.287855,-1.0101731,-0.1368531,-3.962129,1.9122828,0.11532748,0.6663436,1.7222154,3.8600047,1.4605685,-0.28565574,1.6652584,2.0466528,-0.5348433,1.7235513,-1.989091,-2.2126026,1.2670349,-3.0081806,0.24075948,0.43199435,-0.130505,-0.026655814,-0.36673784,-0.1690955,-0.5441706,-0.25002602,-0.7673791,0.45317942,0.28964058,0.18054892,0.075668216,-0.106346846,-0.53572196,0.29213858,-0.37565958,0.48535982,-0.4975128,-0.18056007,-0.49602246,0.07401043,-0.6111889,0.08413529,-0.6139468,0.084663376,0.39176667,-0.018445108,-0.31179515,-0.086362995,0.23141661,-0.43827102,0.42114913,0.02935155,0.13688955
IST-Mes1,0.5417442,0.57398,0.55894345,-0.48595724,-0.5778477,0.8785672,-0.12396659,0.103711665,-0.054552037,0.6211797,0.64259464,0.28430057,-1.5452757,0.17683165,0.21318784,1.7400535,0.15519734,0.516399,-0.40568087,1.1812444,-0.6457809,-0.4540439,-1.0442773,0.70767426,-0.58030725,-0.63004225,0.3738508,0.42837235,-0.6987117,-0.28275758,0.055418037,1.9194549,1.4427284,0.18903212,1.1188269,0.24075948,0.43199435,-0.130505,-0.026655814,-0.36673784,-0.1690955,-0.5441706,-0.25002602,-0.7673791,0.45317942,0.28964058,0.18054892,0.075668216,-0.106346846,-0.53572196,0.29213858,-0.37565958,0.48535982,-0.4975128,-0.18056007,-0.49602246,0.07401043,-0.6111889,0.08413529,-0.6139468,0.084663376,0.39176667,-0.018445108,-0.31179515,-0.086362995,0.23141661,-0.43827102,0.42114913,0.02935155,0.13688955
NCI-H747,0.18486695,-0.06053852,0.19313565,-0.3796912,-0.039294384,0.1806225,0.030339703,0.6478038,0.07035182,0.14782396,0.13211825,0.6052162,-0.47036764,-0.10396291,0.266909,1.1964272,0.29892722,-0.30563903,-0.099642195,1.3143492,0.053050995,-0.24025641,-0.67833424,-0.52789134,-0.046828978,-0.08391224,-0.18056914,0.17684546,-0.6131364,-0.9052906,-0.49499935,0.7671061,0.890143,-0.054058187,0.7008861,-0.014665692,0.28669918,-0.112255305,-0.5679184,-0.58416355,-0.1400751,-0.97037584,-0.4913559,-0.5040215,0.30227065,0.27840212,0.18275107,0.6969164,-0.09973957,-1.0735635,0.4481822,0.26868454,0.38966167,-0.78988564,-0.41988423,-0.83752865,0.1310162,-0.88110375,0.40557122,-0.9428203,-0.0044271844,0.12388527,-0.5141482,0.06835438,-0.17013538,0.3397346,-0.7568294,1.1961617,0.4774332,0.18755491
NCI-H2009,0.39111492,-0.06449937,0.12324026,-0.28549954,-0.11758585,0.004007645,0.075273044,0.5651652,0.32294112,-0.2394832,-0.0851841,0.2352917,-0.5772553,-0.04835767,0.097130276,0.9591145,0.21908161,0.12904845,-0.47601417,1.2081345,0.30521485,-0.6556375,-0.56025964,-0.11452836,0.047563583,-0.21657963,-0.043348588,0.07749127,-0.27668393,-0.74444467,-0.71891063,0.52620286,0.87065035,0.21787111,0.8632277,0.09637526,0.39634258,0.10441575,-0.18079028,-0.37348562,-0.08770132,-0.47822204,-0.41988948,-0.54004985,0.13307102,0.21252649,0.2122766,0.42906713,-0.10455117,-0.58817935,0.49884292,-0.0719749,0.25004658,-0.4713435,-0.3023496,-0.47969243,0.11534092,-0.42393047,0.18484047,-0.5740702,0.082286224,0.35077703,-0.18979083,-0.1372668,-0.1277774,0.4104312,-0.6400127,0.56430626,0.07280488,-0.051639386
LP-1,-0.7698727,0.32093716,-0.14016308,-0.18040004,1.0261163,-0.2124617,2.1644928,-0.5295158,0.094988406,-0.75595695,0.2731773,0.034168478,1.146362,-0.5169195,-1.2822503,-0.4882111,-0.6391985,-0.80042106,-0.6449334,-1.5909384,0.7967897,0.01016592,0.013824344,0.93389595,1.0135036,0.80668795,-0.09948099,0.0976579,1.2748635,-0.14914644,0.5753909,-0.23764502,-0.3759086,0.5644828,-0.69406354,0.2944707,0.773702,-0.69465417,0.0020623233,-0.63906825,-0.25903746,-0.79739565,-0.049933918,-1.0793308,0.76933455,0.29974005,-0.15674795,-0.30230767,-0.22229232,-0.5614039,-0.07834492,-0.6696948,0.8009123,-0.72012407,0.050348833,-0.71441805,0.07175998,-0.9150722,-0.26228797,-0.7005399,-0.011581959,0.46346796,0.0894757,-0.4601701,0.13646913,0.14788869,0.003679653,0.33486268,-0.004071983,0.4420874
KO52,-1.5790493,0.37627673,-0.41201884,0.83704406,2.4306314,-1.6267877,2.7099695,-0.13078456,0.2504706,-1.6126432,-0.09906369,-0.5112392,2.3662822,-0.78114265,-0.9130097,-2.3307462,-1.8798853,-0.46156958,0.11443281,-4.564421,1.4070626,0.14215793,1.6845263,1.5540435,2.2388427,1.1803066,0.9593901,0.13313517,2.0555713,0.13348508,-0.3442782,-3.0618927,-2.1056557,0.34307593,-1.8444744,-0.14982113,0.42065275,-0.4424132,-0.233745,-0.7522223,-0.3434206,-0.47669652,-0.16150358,-0.43939963,0.44611335,0.39367518,0.26658118,0.105748415,-0.2383004,-0.54061085,0.016217144,-0.32279843,0.2961515,-0.22492343,0.014604695,-0.47020552,-0.059013672,-0.64962316,0.23550013,-0.5366968,-0.19675165,0.28913888,-0.3231658,-0.3961215,-0.16836728,0.1324135,-0.30528083,0.4735677,0.017359143,0.32551745
TGBC1TKB,-0.036906056,-0.2258086,-0.0436621,0.021825122,-0.062368788,0.09665314,-0.07556113,0.16848792,0.12443213,-0.051452454,-0.09390949,0.44493306,-0.19173342,-0.44857687,0.14709175,0.7087482,0.25024563,0.051020432,-0.33472642,0.9488855,0.03658219,-0.19266558,-0.299379,-0.23175196,0.18459122,0.0031734519,0.14278615,0.28773892,-0.8121109,-0.7698478,-0.45452744,0.31121558,0.5406077,0.048452806,0.5679295,0.08985348,0.18767507,-0.6868662,-0.37715748,-0.70382255,-0.42326498,-1.0866755,-0.10369912,-0.75533164,1.0246649,0.55056024,0.30418932,0.021236405,-0.12454994,-1.0276293,-0.089164555,-0.28787875,0.7774534,-0.6609191,-0.121242255,-0.8359879,-0.05049801,-1.3464477,0.4401142,-1.0386859,-0.13347559,0.09050046,-0.3594367,-0.32580128,-0.2240801,-0.1635204,-0.38459736,1.0233039,0.45675907,0.69710445
LB1047-RCC,0.40060154,0.24049556,0.25353658,0.37405837,-0.32511932,0.2904316,0.025136048,0.0038844473,-0.025516821,0.51338226,0.2730602,-0.44669437,-0.37622043,0.16200005,0.3030316,0.3601005,0.20943095,0.26803714,-0.06275371,0.18257374,0.104489885,-0.18413933,-0.2553388,0.21949218,0.07912824,-0.2141378,0.3392847,0.2814064,-0.30807897,-0.028125491,-0.21898219,0.50064063,0.53354985,0.3874932,0.07635611,0.24075948,0.43199435,-0.130505,-0.026655814,-0.36673784,-0.1690955,-0.5441706,-0.25002602,-0.7673791,0.45317942,0.28964058,0.18054892,0.075668216,-0.106346846,-0.53572196,0.29213858,-0.37565958,0.48535982,-0.4975128,-0.18056007,-0.49602246,0.07401043,-0.6111889,0.08413529,-0.6139468,0.084663376,0.39176667,-0.018445108,-0.31179515,-0.086362995,0.23141661,-0.43827102,0.42114913,0.02935155,0.13688955
Kuramochi,0.2770819,0.16465512,-0.04705366,-0.046886202,-0.4396877,0.5210716,0.40655538,-0.34162346,0.32987526,0.32506576,0.44637722,0.2764191,-0.3296846,-0.008956546,-0.1394244,1.010624,-0.06978382,-0.061090127,-0.32175925,0.45614064,0.040544637,-0.052284457,-0.41826054,0.024094492,-0.0010724821,0.030747764,0.24372037,0.25899157,-0.46895263,-0.018696453,0.07853869,0.71396554,0.72354203,0.26923862,0.37523082,-0.14982113,0.42065275,-0.4424132,-0.233745,-0.7522223,-0.3434206,-0.47669652,-0.16150358,-0.43939963,0.44611335,0.39367518,0.26658118,0.105748415,-0.2383004,-0.54061085,0.016217144,-0.32279843,0.2961515,-0.22492343,0.014604695,-0.47020552,-0.059013672,-0.64962316,0.23550013,-0.5366968,-0.19675165,0.28913888,-0.3231658,-0.3961215,-0.16836728,0.1324135,-0.30528083,0.4735677,0.017359143,0.32551745
KYSE-70,0.12586184,0.009279908,-0.21889393,-0.75103164,-0.012922779,0.29521587,0.23009212,0.020474965,-0.056862555,-0.15956336,0.46069592,0.42287552,-0.7065853,-0.24323064,0.014386325,0.81445825,0.21930657,-0.0790454,-0.0761998,0.7629929,-0.2046541,0.18470897,-0.7328366,-0.089127325,0.09449444,0.013449546,-0.34298703,0.38617635,-0.34936398,-0.3821396,0.16675682,0.88088936,0.8541644,0.07448889,0.9248466,-0.14982113,0.42065275,-0.4424132,-0.233745,-0.7522223,-0.3434206,-0.47669652,-0.16150358,-0.43939963,0.44611335,0.39367518,0.26658118,0.105748415,-0.2383004,-0.54061085,0.016217144,-0.32279843,0.2961515,-0.22492343,0.014604695,-0.47020552,-0.059013672,-0.64962316,0.23550013,-0.5366968,-0.19675165,0.28913888,-0.3231658,-0.3961215,-0.16836728,0.1324135,-0.30528083,0.4735677,0.017359143,0.32551745
A-549,0.6787415,0.048984066,0.06955024,-0.52026725,0.013835949,0.26614258,-0.4420934,0.15226258,-0.21713267,-0.17283787,0.25816825,-0.021690696,-0.37919348,-0.32436472,0.41177657,0.71304107,0.29367697,-0.076690674,-0.17031361,0.30015472,0.058345348,0.012517574,-0.0814469,-0.15095836,-0.2901146,0.4008011,0.16567083,0.059187997,-0.13864084,-0.27299038,-0.19124432,0.5733161,0.53884315,0.43234843,0.33604193,0.29181445,0.26275942,0.17405693,-0.18362816,-0.20964022,-0.056995224,-0.7013967,-0.45044586,-0.7125398,0.3161962,0.24241763,0.24780224,0.44104525,-0.007428045,-0.7742056,0.5866828,-0.03136564,0.44744292,-0.6888559,-0.44233763,-0.6007616,0.1568985,-0.6432966,0.26904488,-0.78018296,0.19921432,0.2922077,-0.13388218,-0.064650744,-0.15639599,0.33547863,-0.7691409,0.7771455,0.2527563,-0.0019603462
LB831-BLC,0.45463428,0.67616916,0.09996798,0.63208544,-0.41218597,0.087064244,0.5961371,-0.036529977,0.124164276,0.31448632,0.26838878,-0.4846054,-0.41470516,0.36274657,-0.13852721,0.48517197,0.37692946,0.23229693,-0.2297854,-0.07559585,0.33492792,-0.013184791,-0.13314399,0.8277546,0.042063784,0.10201425,0.48354357,0.18744694,-0.20614056,0.21963894,-0.04835078,0.6744568,0.09200513,0.48007137,-0.44366682,-0.14982113,0.42065275,-0.4424132,-0.233745,-0.7522223,-0.3434206,-0.47669652,-0.16150358,-0.43939963,0.44611335,0.39367518,0.26658118,0.105748415,-0.2383004,-0.54061085,0.016217144,-0.32279843,0.2961515,-0.22492343,0.014604695,-0.47020552,-0.059013672,-0.64962316,0.23550013,-0.5366968,-0.19675165,0.28913888,-0.3231658,-0.3961215,-0.16836728,0.1324135,-0.30528083,0.4735677,0.017359143,0.32551745
CaR-1,0.0010381656,-0.1495701,0.19389105,0.012921829,-0.04310497,-0.0050780694,0.009714191,0.42771468,0.19460143,0.14597026,0.08691989,0.4489666,-0.5978451,-0.45437938,0.14063343,0.71836793,0.2033577,0.02671372,-0.17263266,0.86918014,0.105033465,-0.22600535,-0.3824094,-0.2538817,0.1809784,0.013251837,0.26127633,0.461866,-0.63274795,-0.78228486,-0.4482814,0.049971875,0.5853346,-0.1270611,0.34529665,-0.14982113,0.42065275,-0.4424132,-0.233745,-0.7522223,-0.3434206,-0.47669652,-0.16150358,-0.43939963,0.44611335,0.39367518,0.26658118,0.105748415,-0.2383004,-0.54061085,0.016217144,-0.32279843,0.2961515,-0.22492343,0.014604695,-0.47020552,-0.059013672,-0.64962316,0.23550013,-0.5366968,-0.19675165,0.28913888,-0.3231658,-0.3961215,-0.16836728,0.1324135,-0.30528083,0.4735677,0.017359143,0.32551745
HuCC-T1,-0.0480249,-0.17452915,0.3314057,-0.005962505,-0.1474493,0.06436309,-0.12139288,0.41230547,-0.014269532,0.026836844,0.07103639,0.41657364,-0.34535745,-0.34272033,0.4062243,0.79329157,0.36045292,0.06933377,-0.23955406,1.0686958,0.026184924,-0.2740622,-0.27891496,-0.021889854,0.121377036,-0.07949317,-0.011608674,0.06349671,-0.37148646,-0.35596877,-0.6248344,0.46062228,0.43879154,-0.023575407,0.59336936,-0.32746017,0.8786296,-0.09916804,-0.60865766,-0.885291,0.008677416,-0.60651624,-0.61233765,-0.282185,-0.40742156,-0.018809253,-0.24236149,0.9080427,-0.3171887,-0.72896284,0.5126353,0.37883064,-0.034941256,-0.6750097,-0.26085353,-0.7390453,0.22521417,-0.26096272,-0.088145055,-0.5213268,-0.1182337,0.35892186,-0.56332403,0.1384205,0.111279316,0.8530258,-0.5102293,0.796134,0.09315293,-0.15988092
SKM-1,-0.9682214,0.12507275,-0.3022523,0.17277023,1.9272511,-0.9837441,2.2756057,0.3718645,0.050327167,-1.2980002,-0.1267488,-0.43916237,1.1158831,-0.89856,-1.1237055,-1.5460274,-1.6953437,0.044383887,0.07307568,-3.3525858,0.96093714,-0.06778212,0.80812734,1.4055151,1.6630454,1.0082647,0.37192145,0.23296097,1.5928323,-0.21868318,-0.15023646,-1.9963571,-1.0715306,0.41847017,-0.6606226,-0.14982113,0.42065275,-0.4424132,-0.233745,-0.7522223,-0.3434206,-0.47669652,-0.16150358,-0.43939963,0.44611335,0.39367518,0.26658118,0.105748415,-0.2383004,-0.54061085,0.016217144,-0.32279843,0.2961515,-0.22492343,0.014604695,-0.47020552,-0.059013672,-0.64962316,0.23550013,-0.5366968,-0.19675165,0.28913888,-0.3231658,-0.3961215,-0.16836728,0.1324135,-0.30528083,0.4735677,0.017359143,0.32551745
MDA-MB-231,0.41123858,0.21534759,0.15566152,0.110578805,-0.22424679,0.29543325,-0.0700796,0.123691946,0.01297094,0.18721351,0.22969943,-0.09079491,-0.43263644,-0.08307094,0.18263319,0.818223,0.34025013,0.27314764,-0.2109782,0.39406556,-0.2180845,-0.10191406,-0.19411124,0.34988943,-0.18107815,-0.25716284,0.10503079,0.062185597,-0.12936787,-0.05283689,-0.3622219,0.6283614,0.78059536,0.34738585,0.19576256,-0.15728882,0.6018847,0.005250339,-0.24958612,-0.6122757,-0.10034044,-0.29080647,-0.4234335,-0.33557707,-0.12855107,0.14592348,0.10311078,0.4978446,-0.23094523,-0.4376117,0.41894832,-0.034693804,0.017737864,-0.30181324,-0.16442351,-0.40971014,0.09480084,-0.19143972,0.060457554,-0.37238836,-0.06061717,0.4069445,-0.30448636,-0.15918042,-0.06107588,0.5544803,-0.49750537,0.40385187,-0.09219007,-0.11620322
LB373-MEL-D,0.1459408,0.3492749,-0.13792904,0.38650247,0.106011026,0.0797832,0.84699327,-0.47772944,-0.07206006,-0.15116845,0.40796497,-0.10324858,0.07301112,-0.4198654,-0.08097074,-0.026762892,0.29714948,-0.11601609,-0.25480035,-0.38175067,0.3861396,0.22226019,0.20518221,0.46260563,0.16242696,-0.018839726,0.48535046,0.0045558615,0.39150003,-0.32037738,-0.18469414,0.28975365,-0.39990106,0.49725866,-0.36190742,0.24075948,0.43199435,-0.130505,-0.026655814,-0.36673784,-0.1690955,-0.5441706,-0.25002602,-0.7673791,0.45317942,0.28964058,0.18054892,0.075668216,-0.106346846,-0.53572196,0.29213858,-0.37565958,0.48535982,-0.4975128,-0.18056007,-0.49602246,0.07401043,-0.6111889,0.08413529,-0.6139468,0.084663376,0.39176667,-0.018445108,-0.31179515,-0.086362995,0.23141661,-0.43827102,0.42114913,0.02935155,0.13688955
SW900,0.23451878,-0.044097785,0.16101459,-0.020044206,-0.3434808,0.51453143,-0.030005451,0.31906608,-0.12708963,0.48329687,0.2626699,0.05888838,-0.6834299,0.2060635,0.34806862,0.8921805,0.15886763,0.3710037,-0.06177455,0.7246197,-0.12968843,-0.29632577,-0.82760084,0.26958779,0.008537131,-0.08695515,0.08552979,0.1496113,-0.4504202,-0.014613298,-0.40950206,0.73403794,0.6535414,0.14200714,0.43147814,0.15242231,0.2508361,0.115766205,-0.074216254,-0.28402662,-0.1493025,-0.4024638,-0.34087533,-0.55376184,0.2878558,0.30088148,0.3705836,0.27802536,-0.06592324,-0.5241144,0.44293293,-0.21343707,0.29180694,-0.33954445,-0.27138266,-0.37848803,0.05451718,-0.45962772,0.28947815,-0.5577105,0.091415934,0.33783066,-0.122415654,-0.24708334,-0.21589042,0.25908983,-0.64911664,0.47568667,0.045953963,0.007282215
TC-YIK,0.6743386,0.38929322,-0.70108855,-2.0155315,0.6493833,0.10342021,-0.015585034,0.15806976,0.20078029,-1.8472897,0.6189491,0.8264286,0.45429033,-0.6360485,-0.16676666,1.4791846,1.1424592,-0.6816244,-1.0240456,0.79496074,0.77955264,0.88760775,0.38693443,-0.40988454,-0.34236756,0.7887705,0.93103766,-1.5784633,0.95973206,-1.2757974,0.5098221,0.8870003,0.22254786,0.08598382,-0.3414976,-0.14982113,0.42065275,-0.4424132,-0.233745,-0.7522223,-0.3434206,-0.47669652,-0.16150358,-0.43939963,0.44611335,0.39367518,0.26658118,0.105748415,-0.2383004,-0.54061085,0.016217144,-0.32279843,0.2961515,-0.22492343,0.014604695,-0.47020552,-0.059013672,-0.64962316,0.23550013,-0.5366968,-0.19675165,0.28913888,-0.3231658,-0.3961215,-0.16836728,0.1324135,-0.30528083,0.4735677,0.017359143,0.32551745
HPAF-II,0.41757295,-0.035713796,0.23289719,-1.2494761,-0.12028485,0.56793636,-0.523134,0.6002726,0.32991087,0.20169127,0.8597857,0.91049564,-1.1799859,0.16141488,0.2629868,2.1774232,0.6034763,-0.26144543,-0.07827458,1.8594538,-0.3010362,-0.07438328,-0.39038152,-0.46797058,-0.44628704,0.21252678,0.11476168,-0.06159418,-0.11997159,-1.2944971,-0.15422437,1.3280041,1.0478419,-0.39473447,0.822887,0.09637526,0.39634258,0.10441575,-0.18079028,-0.37348562,-0.08770132,-0.47822204,-0.41988948,-0.54004985,0.13307102,0.21252649,0.2122766,0.42906713,-0.10455117,-0.58817935,0.49884292,-0.0719749,0.25004658,-0.4713435,-0.3023496,-0.47969243,0.11534092,-0.42393047,0.18484047,-0.5740702,0.082286224,0.35077703,-0.18979083,-0.1372668,-0.1277774,0.4104312,-0.6400127,0.56430626,0.07280488,-0.051639386
NCI-H2170,0.17702545,0.012595556,-0.043122735,-0.9548371,-0.17897105,0.4975273,0.07619501,0.06012057,0.2127468,-0.21094818,0.207718,0.45395634,-0.4225757,-0.3286332,0.17594111,1.6544191,0.16674896,-0.55819803,-0.79076666,1.3545717,0.30056587,0.23423937,-0.6430604,-0.5877875,-0.15990722,0.12731574,-0.027423207,-0.4062182,-0.31359386,-1.0269743,-0.12347747,0.9085248,0.7681637,0.031279407,0.8462555,-0.14982113,0.42065275,-0.4424132,-0.233745,-0.7522223,-0.3434206,-0.47669652,-0.16150358,-0.43939963,0.44611335,0.39367518,0.26658118,0.105748415,-0.2383004,-0.54061085,0.016217144,-0.32279843,0.2961515,-0.22492343,0.014604695,-0.47020552,-0.059013672,-0.64962316,0.23550013,-0.5366968,-0.19675165,0.28913888,-0.3231658,-0.3961215,-0.16836728,0.1324135,-0.30528083,0.4735677,0.017359143,0.32551745
NCI-H524,0.1806229,0.06223955,-0.37707838,-2.272033,0.72402257,1.0171862,1.5317478,0.07827213,-0.5589185,-2.0366735,0.899896,-0.002983715,0.1464112,-0.6469422,-0.4234095,0.94265556,0.99277055,-0.5005979,-1.3270264,0.5024373,0.77373195,-0.02273785,-0.6489564,0.15867555,0.28949997,0.3147128,0.3028068,-1.3370914,0.9746944,-0.76384336,0.96255374,1.1297407,0.9517084,0.11184599,0.11638025,-0.14982113,0.42065275,-0.4424132,-0.233745,-0.7522223,-0.3434206,-0.47669652,-0.16150358,-0.43939963,0.44611335,0.39367518,0.26658118,0.105748415,-0.2383004,-0.54061085,0.016217144,-0.32279843,0.2961515,-0.22492343,0.014604695,-0.47020552,-0.059013672,-0.64962316,0.23550013,-0.5366968,-0.19675165,0.28913888,-0.3231658,-0.3961215,-0.16836728,0.1324135,-0.30528083,0.4735677,0.017359143,0.32551745
GT3TKB,0.6865532,0.19459483,0.2848898,-0.299466,-0.30849844,0.66896594,0.25734046,0.23254956,0.04499772,0.35556507,0.62332445,0.17011447,-1.1086314,0.16831963,0.1684425,1.3350067,0.24113852,0.46726987,-0.40625262,0.5434119,-0.5356486,-0.28440043,-0.81268924,0.69190574,-0.4093804,-0.2739154,-0.1670386,0.10242042,-0.38315213,-0.008690717,-0.26499143,1.2418128,1.3053861,0.21577094,0.6836972,-0.24502203,0.31002805,-0.14824808,-0.22870407,-0.6571255,-0.29484332,-0.23057516,-0.26108822,-0.2125455,0.18063237,0.3623596,0.41937882,0.29944068,-0.21523175,-0.42884666,0.19421832,-0.19123282,0.041115623,-0.017657867,-0.053639278,-0.29265082,-0.06690657,-0.36794654,0.3616969,-0.3892682,-0.18047644,0.29131168,-0.38203508,-0.346562,-0.26432234,0.22653325,-0.4860438,0.40321925,-0.05820674,0.11822932
SCC-15,0.2188956,-0.109786525,0.42590407,-0.13525617,-0.30122992,0.57626593,0.060141835,0.5314012,-0.13814507,0.31932586,0.31407905,0.27095932,-1.293785,-0.16852616,0.18498395,1.1269583,0.2342479,0.4488458,-0.09733896,1.29592,-0.52755165,-0.60946345,-1.331627,0.42521402,-0.2613902,-0.62417775,-0.07793662,0.42280185,-1.060567,-0.41087323,-0.29560003,0.96041167,0.8768728,0.11422774,0.88410294,-0.14982113,0.42065275,-0.4424132,-0.233745,-0.7522223,-0.3434206,-0.47669652,-0.16150358,-0.43939963,0.44611335,0.39367518,0.26658118,0.105748415,-0.2383004,-0.54061085,0.016217144,-0.32279843,0.2961515,-0.22492343,0.014604695,-0.47020552,-0.059013672,-0.64962316,0.23550013,-0.5366968,-0.19675165,0.28913888,-0.3231658,-0.3961215,-0.16836728,0.1324135,-0.30528083,0.4735677,0.017359143,0.32551745
SK-MES-1,0.28411403,0.31090552,-0.1463095,0.2437944,-0.14536996,0.6059254,0.52702135,0.12247477,-0.124144524,0.35718152,0.32396513,0.15690665,-0.49727803,0.009291156,0.43151456,0.4055185,-0.30249572,0.2068856,-0.014264829,0.11919111,-0.069269694,-0.33479178,-0.4819509,0.46920493,0.16513526,-0.0046672663,0.4080233,0.5097925,-0.6982935,-0.10762317,-0.16113132,0.52457535,0.23025385,0.25581944,0.101192415,-0.14982113,0.42065275,-0.4424132,-0.233745,-0.7522223,-0.3434206,-0.47669652,-0.16150358,-0.43939963,0.44611335,0.39367518,0.26658118,0.105748415,-0.2383004,-0.54061085,0.016217144,-0.32279843,0.2961515,-0.22492343,0.014604695,-0.47020552,-0.059013672,-0.64962316,0.23550013,-0.5366968,-0.19675165,0.28913888,-0.3231658,-0.3961215,-0.16836728,0.1324135,-0.30528083,0.4735677,0.017359143,0.32551745
HCC1599,0.9907947,-0.14908715,0.6494801,-2.816732,0.08543505,1.2884458,-0.27490357,1.5026503,-0.13586557,0.30284998,1.0787661,0.43124083,-3.194146,0.02789484,-0.03565097,3.6063826,0.83724177,-0.28826967,-0.56725216,3.4760182,-1.1521122,-0.6154149,-2.1346383,-0.2393953,-1.3879222,-1.1769904,-0.82958776,-0.9314696,-0.47080317,-0.8411971,-0.21550657,3.0326164,2.6173725,-0.19101696,2.3994212,-0.19571528,0.7429428,-0.10778259,-0.38271025,-0.73916245,-0.0685522,-0.46859837,-0.470062,-0.3760567,-0.17242834,0.08742268,-0.07298779,0.6018595,-0.27089095,-0.5702914,0.41065192,0.08524476,0.061402034,-0.49664184,-0.18197961,-0.5779135,0.14821923,-0.28216726,-0.037169162,-0.46133193,-0.08494529,0.39314246,-0.38250086,-0.059719287,0.033458278,0.6492553,-0.45219305,0.5617397,-0.008893545,-0.08482269
HOP-62,0.63880706,0.77794,0.27611142,0.7167191,-0.503205,0.6910258,0.2066485,-0.17687336,-0.13227703,0.49772412,0.03428113,-0.21638317,-0.18504976,-0.15787818,-0.106692635,0.71610045,0.37170774,0.4422987,-0.3043753,0.31648862,-0.13961771,-0.028237425,-0.21345285,0.44940728,-0.20285155,-0.20089117,0.7669898,0.48141703,-0.49415278,-0.007689354,-0.37702602,0.63630944,0.44278637,0.5096,-0.13471009,0.09637526,0.39634258,0.10441575,-0.18079028,-0.37348562,-0.08770132,-0.47822204,-0.41988948,-0.54004985,0.13307102,0.21252649,0.2122766,0.42906713,-0.10455117,-0.58817935,0.49884292,-0.0719749,0.25004658,-0.4713435,-0.3023496,-0.47969243,0.11534092,-0.42393047,0.18484047,-0.5740702,0.082286224,0.35077703,-0.18979083,-0.1372668,-0.1277774,0.4104312,-0.6400127,0.56430626,0.07280488,-0.051639386
TE-5,0.12694173,-0.07530475,-0.13593009,-0.537788,-0.19435456,-0.041889712,0.466232,0.21434024,0.21957015,-0.027209884,0.23673044,0.027141606,-0.53580356,-0.19960095,0.1987391,1.1088488,0.31285676,-0.39304093,-0.5223149,0.7813065,0.26956552,-0.20055103,-0.5716577,-0.2821159,-0.04034608,-0.15545978,-0.36495835,0.06763902,-0.17990491,-0.4250039,-0.4108939,0.6901239,0.8518304,0.24756946,0.74386454,-0.14982113,0.42065275,-0.4424132,-0.233745,-0.7522223,-0.3434206,-0.47669652,-0.16150358,-0.43939963,0.44611335,0.39367518,0.26658118,0.105748415,-0.2383004,-0.54061085,0.016217144,-0.32279843,0.2961515,-0.22492343,0.014604695,-0.47020552,-0.059013672,-0.64962316,0.23550013,-0.5366968,-0.19675165,0.28913888,-0.3231658,-0.3961215,-0.16836728,0.1324135,-0.30528083,0.4735677,0.017359143,0.32551745
SW982,0.7073934,0.9689879,0.42786235,1.2123191,-0.9731343,1.125933,0.24008973,-0.42041415,0.06515393,0.98758423,0.6040115,-0.36776528,-0.7769172,0.43087336,-0.2544985,0.9319213,0.22873539,0.63091964,-0.11848981,0.5214762,-0.22733042,-0.16968332,-0.2256395,1.0208266,-0.24279957,-0.073866494,1.0665985,0.6924747,-0.77733064,0.0142893065,-0.17096555,1.1091995,0.27223188,0.47765368,0.12070823,-0.06584686,0.4455258,0.06344729,-0.039399717,-0.45935506,-0.16539423,-0.09684064,-0.31164983,-0.3596521,0.026994687,0.24105655,0.3037485,0.257368,-0.18452215,-0.25943872,0.36049163,-0.27830505,0.04036178,-0.07445088,-0.10219708,-0.21201198,0.01677948,-0.14165927,0.14389911,-0.27669752,-0.031763997,0.43747088,-0.15537898,-0.3363014,-0.16072117,0.3829332,-0.48470062,0.1655178,-0.20809264,-0.092712805
