,E0,E1,E2,E3,E4,E5,E6,E7,E8,E9,E10,E11,E12,E13,E14,E15,E16,E17,E18,E19,E20,E21,E22,E23,E24,E25,E26,E27,E28,E29,E30,E31,E32,E33,E34
Capan-2,-0.21676363,0.41345558,0.7053966,0.6652687,-0.3942965,0.33060142,-0.28886855,0.06240287,0.2552241,0.093960054,0.60709727,0.65668976,0.19511218,-0.4009284,-0.61082816,-0.123610176,0.4194322,0.43633822,-0.07761529,0.098902315,0.008979345,-0.16136503,-0.33693177,0.5252214,-0.57263637,0.11251647,-0.628749,-0.05434486,0.2776175,0.2713019,-0.0693869,0.15165165,-0.36593002,-0.431926,0.22834483
P31/FUJ,-0.53327304,0.42905283,0.24427253,0.6566694,-0.3190446,0.16955574,-0.5436755,-0.08408637,0.4460281,-0.38331386,0.1797459,0.77869844,0.28745735,-0.628307,-0.9585467,-0.6494374,-0.1675196,0.4042086,0.14325885,-0.06429746,-0.0780507,-0.6222711,-0.14837837,0.3057075,-0.7519655,0.1551106,-0.47256178,0.06299197,0.7282942,0.57470274,-0.34386915,0.5695868,-0.5816175,-0.57604337,0.4419593
KYSE-450,-0.17082156,0.3578399,0.47989485,0.39856997,-0.24207668,0.27485785,-0.4829645,0.18246375,0.11239836,-0.20288835,0.34989083,0.47434708,0.018380946,-0.3029268,-0.49403515,-0.3659664,0.1844654,0.16218196,-0.23412679,0.1595235,-0.25443336,-0.17171626,-0.36638987,0.28892705,-0.46309,-0.12750736,-0.35784554,-0.2695754,0.46250552,0.49328226,-0.30461514,0.28230938,-0.3343986,-0.21081872,0.46028864
Lu-65,-0.17082156,0.3578399,0.47989485,0.39856997,-0.24207668,0.27485785,-0.4829645,0.18246375,0.11239836,-0.20288835,0.34989083,0.47434708,0.018380946,-0.3029268,-0.49403515,-0.3659664,0.1844654,0.16218196,-0.23412679,0.1595235,-0.25443336,-0.17171626,-0.36638987,0.28892705,-0.46309,-0.12750736,-0.35784554,-0.2695754,0.46250552,0.49328226,-0.30461514,0.28230938,-0.3343986,-0.21081872,0.46028864
LoVo,-0.68160427,0.8359146,0.2662937,1.1905994,-1.149715,-0.17426652,0.15329348,-0.16583706,0.6854289,-0.33612654,0.10323508,1.2527376,1.0142653,-0.87628466,-1.4248545,-0.3204111,-0.19146417,0.6841342,0.6054655,-0.57224363,0.21004017,-0.7825143,-0.132014,0.6725175,-0.9395337,0.60450613,-0.8812987,0.58594275,0.59327286,0.26820117,-0.38753742,0.35162562,-0.95671916,-1.3381217,-0.040254083
KGN,-0.1840543,0.37385896,0.54484636,0.47538748,-0.2859207,0.29091373,-0.42705882,0.14788249,0.15353662,-0.11738679,0.42397428,0.52686745,0.069285035,-0.33115432,-0.52767515,-0.29616028,0.2521431,0.24114747,-0.18904662,0.14206272,-0.17856231,-0.16873477,-0.35790503,0.35698718,-0.49464276,-0.058373038,-0.43587416,-0.20758231,0.40925202,0.429345,-0.2368621,0.2446759,-0.34348062,-0.27450448,0.3934816
SW837,-0.40970173,0.7308822,0.23495567,0.79405564,-0.9477932,-0.13882186,0.010328373,0.10184613,0.35106665,-0.46026534,0.008922983,0.8964317,0.67509216,-0.5825495,-1.0196408,-0.34663764,-0.15487488,0.30156013,0.22393925,-0.36267728,-0.1227002,-0.49921787,-0.29422367,0.4594786,-0.66203505,0.21693306,-0.5770276,0.18367355,0.57745785,0.40531316,-0.5485027,0.28214854,-0.7606093,-0.9013183,0.17472006
LB831-BLC,0.111071244,0.2800386,0.85716,0.075175665,0.020380314,0.4596522,-0.34870717,0.097481236,0.25794408,-0.41059554,0.4264798,0.6940364,-0.20396899,-0.068497896,-0.38920167,-0.77375066,0.44749755,0.023806207,-0.009659154,0.40044627,-0.037228685,-0.5324477,-0.6529597,0.17270981,-0.5101567,0.049423967,-0.67159593,-0.41370338,0.4914595,0.6649959,-0.435731,0.54098046,-0.5106309,-0.5846019,0.7395512
KNS-62,-0.17082156,0.3578399,0.47989485,0.39856997,-0.24207668,0.27485785,-0.4829645,0.18246375,0.11239836,-0.20288835,0.34989083,0.47434708,0.018380946,-0.3029268,-0.49403515,-0.3659664,0.1844654,0.16218196,-0.23412679,0.1595235,-0.25443336,-0.17171626,-0.36638987,0.28892705,-0.46309,-0.12750736,-0.35784554,-0.2695754,0.46250552,0.49328226,-0.30461514,0.28230938,-0.3343986,-0.21081872,0.46028864
TK-10,0.111071244,0.2800386,0.85716,0.075175665,0.020380314,0.4596522,-0.34870717,0.097481236,0.25794408,-0.41059554,0.4264798,0.6940364,-0.20396899,-0.068497896,-0.38920167,-0.77375066,0.44749755,0.023806207,-0.009659154,0.40044627,-0.037228685,-0.5324477,-0.6529597,0.17270981,-0.5101567,0.049423967,-0.67159593,-0.41370338,0.4914595,0.6649959,-0.435731,0.54098046,-0.5106309,-0.5846019,0.7395512
SH-4,-0.23709247,0.43806484,0.8051785,0.7832798,-0.46165198,0.3552673,-0.20298338,0.009277337,0.3184228,0.225312,0.72090816,0.7373743,0.27331367,-0.444293,-0.6625077,-0.01637038,0.5234022,0.55764914,-0.00836079,0.07207815,0.12553638,-0.15678473,-0.3238969,0.62977886,-0.6211093,0.2187242,-0.7486207,0.040892128,0.19580674,0.17307816,0.03469884,0.09383714,-0.3798823,-0.5297634,0.1257124
GP5d,-0.30831707,0.5785374,0.23783077,0.55551815,-0.64215946,-0.013418769,-0.23582481,0.17483014,0.21383318,-0.4794531,0.033950467,0.6797805,0.37767386,-0.44747525,-0.7907411,-0.4433263,-0.12217581,0.15069029,0.004160809,-0.15580784,-0.26688695,-0.3874136,-0.33062872,0.3116401,-0.5511677,0.0063107293,-0.3991847,-0.05617646,0.6054225,0.5186839,-0.54960537,0.3306521,-0.5984207,-0.5755149,0.36155847
LC-1F,-0.17082156,0.3578399,0.47989485,0.39856997,-0.24207668,0.27485785,-0.4829645,0.18246375,0.11239836,-0.20288835,0.34989083,0.47434708,0.018380946,-0.3029268,-0.49403515,-0.3659664,0.1844654,0.16218196,-0.23412679,0.1595235,-0.25443336,-0.17171626,-0.36638987,0.28892705,-0.46309,-0.12750736,-0.35784554,-0.2695754,0.46250552,0.49328226,-0.30461514,0.28230938,-0.3343986,-0.21081872,0.46028864
Ca Ski,-0.46315834,0.34819177,0.5927175,0.7724169,-0.21974508,0.3861623,-0.5081459,-0.15969385,0.48408496,0.035420705,0.587772,0.7962889,0.21516939,-0.60219777,-0.8537186,-0.37935048,0.2336619,0.621828,0.11451505,0.07885361,0.13944902,-0.45870414,-0.16410185,0.49193493,-0.772137,0.2627295,-0.67293835,0.09886487,0.46957284,0.366137,-0.00654349,0.4090122,-0.44322318,-0.53496337,0.30268258
TC-YIK,0.111071244,0.2800386,0.85716,0.075175665,0.020380314,0.4596522,-0.34870717,0.097481236,0.25794408,-0.41059554,0.4264798,0.6940364,-0.20396899,-0.068497896,-0.38920167,-0.77375066,0.44749755,0.023806207,-0.009659154,0.40044627,-0.037228685,-0.5324477,-0.6529597,0.17270981,-0.5101567,0.049423967,-0.67159593,-0.41370338,0.4914595,0.6649959,-0.435731,0.54098046,-0.5106309,-0.5846019,0.7395512
MMAc-SF,-0.28448263,0.45972016,0.929091,0.9445277,-0.5253337,0.39820135,-0.116680786,-0.08084898,0.42044893,0.3966456,0.8736361,0.85165775,0.370353,-0.5172776,-0.7472097,0.101080276,0.6471983,0.73377997,0.095347606,0.041176103,0.2900039,-0.17450307,-0.29099965,0.7626386,-0.7014816,0.3687351,-0.9081097,0.17556359,0.10448011,0.05333027,0.1812992,0.041683357,-0.400111,-0.6597241,0.0006178002
LCLC-97TM1,-0.17082156,0.3578399,0.47989485,0.39856997,-0.24207668,0.27485785,-0.4829645,0.18246375,0.11239836,-0.20288835,0.34989083,0.47434708,0.018380946,-0.3029268,-0.49403515,-0.3659664,0.1844654,0.16218196,-0.23412679,0.1595235,-0.25443336,-0.17171626,-0.36638987,0.28892705,-0.46309,-0.12750736,-0.35784554,-0.2695754,0.46250552,0.49328226,-0.30461514,0.28230938,-0.3343986,-0.21081872,0.46028864
H4,-0.21281067,0.4252377,0.40597203,0.44649965,-0.36425608,0.18682241,-0.40749165,0.18013255,0.14337507,-0.28734714,0.2534073,0.53708345,0.12810372,-0.34706977,-0.5846448,-0.38959098,0.09082168,0.15867257,-0.16135727,0.063225955,-0.2582365,-0.23758705,-0.35546893,0.29586327,-0.48998764,-0.08664128,-0.37046993,-0.2044065,0.50615025,0.50103956,-0.37943155,0.29707253,-0.41502705,-0.32219157,0.4301379
TCCSUP,0.111071244,0.2800386,0.85716,0.075175665,0.020380314,0.4596522,-0.34870717,0.097481236,0.25794408,-0.41059554,0.4264798,0.6940364,-0.20396899,-0.068497896,-0.38920167,-0.77375066,0.44749755,0.023806207,-0.009659154,0.40044627,-0.037228685,-0.5324477,-0.6529597,0.17270981,-0.5101567,0.049423967,-0.67159593,-0.41370338,0.4914595,0.6649959,-0.435731,0.54098046,-0.5106309,-0.5846019,0.7395512
SW756,-0.21676363,0.41345558,0.7053966,0.6652687,-0.3942965,0.33060142,-0.28886855,0.06240287,0.2552241,0.093960054,0.60709727,0.65668976,0.19511218,-0.4009284,-0.61082816,-0.123610176,0.4194322,0.43633822,-0.07761529,0.098902315,0.008979345,-0.16136503,-0.33693177,0.5252214,-0.57263637,0.11251647,-0.628749,-0.05434486,0.2776175,0.2713019,-0.0693869,0.15165165,-0.36593002,-0.431926,0.22834483
NCI-H1792,-0.17763409,0.3660869,0.51333344,0.43811744,-0.26464862,0.2831238,-0.45418295,0.1646605,0.1335773,-0.15887015,0.38803074,0.5013858,0.044587564,-0.317459,-0.51135385,-0.33002856,0.21930748,0.20283526,-0.21091846,0.15053429,-0.21537317,-0.17018132,-0.36202168,0.323966,-0.4793341,-0.091915384,-0.3980165,-0.2376599,0.43508938,0.46036586,-0.2697343,0.26293477,-0.33907422,-0.24360566,0.42589483
VA-ES-BJ,-0.1840543,0.37385896,0.54484636,0.47538748,-0.2859207,0.29091373,-0.42705882,0.14788249,0.15353662,-0.11738679,0.42397428,0.52686745,0.069285035,-0.33115432,-0.52767515,-0.29616028,0.2521431,0.24114747,-0.18904662,0.14206272,-0.17856231,-0.16873477,-0.35790503,0.35698718,-0.49464276,-0.058373038,-0.43587416,-0.20758231,0.40925202,0.429345,-0.2368621,0.2446759,-0.34348062,-0.27450448,0.3934816
CMK,-0.17082156,0.3578399,0.47989485,0.39856997,-0.24207668,0.27485785,-0.4829645,0.18246375,0.11239836,-0.20288835,0.34989083,0.47434708,0.018380946,-0.3029268,-0.49403515,-0.3659664,0.1844654,0.16218196,-0.23412679,0.1595235,-0.25443336,-0.17171626,-0.36638987,0.28892705,-0.46309,-0.12750736,-0.35784554,-0.2695754,0.46250552,0.49328226,-0.30461514,0.28230938,-0.3343986,-0.21081872,0.46028864
NCI-H2126,-0.17082156,0.3578399,0.47989485,0.39856997,-0.24207668,0.27485785,-0.4829645,0.18246375,0.11239836,-0.20288835,0.34989083,0.47434708,0.018380946,-0.3029268,-0.49403515,-0.3659664,0.1844654,0.16218196,-0.23412679,0.1595235,-0.25443336,-0.17171626,-0.36638987,0.28892705,-0.46309,-0.12750736,-0.35784554,-0.2695754,0.46250552,0.49328226,-0.30461514,0.28230938,-0.3343986,-0.21081872,0.46028864
CAL-39,-0.17082156,0.3578399,0.47989485,0.39856997,-0.24207668,0.27485785,-0.4829645,0.18246375,0.11239836,-0.20288835,0.34989083,0.47434708,0.018380946,-0.3029268,-0.49403515,-0.3659664,0.1844654,0.16218196,-0.23412679,0.1595235,-0.25443336,-0.17171626,-0.36638987,0.28892705,-0.46309,-0.12750736,-0.35784554,-0.2695754,0.46250552,0.49328226,-0.30461514,0.28230938,-0.3343986,-0.21081872,0.46028864
SKG-IIIa,-0.46315834,0.34819177,0.5927175,0.7724169,-0.21974508,0.3861623,-0.5081459,-0.15969385,0.48408496,0.035420705,0.587772,0.7962889,0.21516939,-0.60219777,-0.8537186,-0.37935048,0.2336619,0.621828,0.11451505,0.07885361,0.13944902,-0.45870414,-0.16410185,0.49193493,-0.772137,0.2627295,-0.67293835,0.09886487,0.46957284,0.366137,-0.00654349,0.4090122,-0.44322318,-0.53496337,0.30268258
CP50-MEL-B,-0.2208663,0.4184221,0.7255341,0.68908507,-0.40788984,0.33557937,-0.27153566,0.051681355,0.26797852,0.12046881,0.630066,0.6729731,0.21089439,-0.40968004,-0.62125784,-0.1019676,0.44041488,0.46082053,-0.06363872,0.093488805,0.03250227,-0.16044065,-0.33430114,0.54632264,-0.5824189,0.13395076,-0.6529409,-0.03512463,0.2611069,0.25147888,-0.048380863,0.13998383,-0.3687458,-0.45167106,0.20763208
NCI-H524,0.111071244,0.2800386,0.85716,0.075175665,0.020380314,0.4596522,-0.34870717,0.097481236,0.25794408,-0.41059554,0.4264798,0.6940364,-0.20396899,-0.068497896,-0.38920167,-0.77375066,0.44749755,0.023806207,-0.009659154,0.40044627,-0.037228685,-0.5324477,-0.6529597,0.17270981,-0.5101567,0.049423967,-0.67159593,-0.41370338,0.4914595,0.6649959,-0.435731,0.54098046,-0.5106309,-0.5846019,0.7395512
MHH-CALL-2,-0.17943113,0.3682623,0.5221539,0.4485494,-0.2706027,0.28530422,-0.44659084,0.15996431,0.13916394,-0.14725888,0.3980914,0.50851816,0.05150043,-0.32129234,-0.5159222,-0.32054877,0.22849824,0.21355891,-0.2047965,0.14816308,-0.20506975,-0.16977644,-0.3608694,0.33320868,-0.483619,-0.082526825,-0.40861294,-0.22924113,0.42785746,0.45168307,-0.2605333,0.2578241,-0.3403076,-0.2522543,0.4168223
NCI-H1838,-0.17082156,0.3578399,0.47989485,0.39856997,-0.24207668,0.27485785,-0.4829645,0.18246375,0.11239836,-0.20288835,0.34989083,0.47434708,0.018380946,-0.3029268,-0.49403515,-0.3659664,0.1844654,0.16218196,-0.23412679,0.1595235,-0.25443336,-0.17171626,-0.36638987,0.28892705,-0.46309,-0.12750736,-0.35784554,-0.2695754,0.46250552,0.49328226,-0.30461514,0.28230938,-0.3343986,-0.21081872,0.46028864
HCC38,-0.17082156,0.3578399,0.47989485,0.39856997,-0.24207668,0.27485785,-0.4829645,0.18246375,0.11239836,-0.20288835,0.34989083,0.47434708,0.018380946,-0.3029268,-0.49403515,-0.3659664,0.1844654,0.16218196,-0.23412679,0.1595235,-0.25443336,-0.17171626,-0.36638987,0.28892705,-0.46309,-0.12750736,-0.35784554,-0.2695754,0.46250552,0.49328226,-0.30461514,0.28230938,-0.3343986,-0.21081872,0.46028864
NCI-H520,-0.17082156,0.3578399,0.47989485,0.39856997,-0.24207668,0.27485785,-0.4829645,0.18246375,0.11239836,-0.20288835,0.34989083,0.47434708,0.018380946,-0.3029268,-0.49403515,-0.3659664,0.1844654,0.16218196,-0.23412679,0.1595235,-0.25443336,-0.17171626,-0.36638987,0.28892705,-0.46309,-0.12750736,-0.35784554,-0.2695754,0.46250552,0.49328226,-0.30461514,0.28230938,-0.3343986,-0.21081872,0.46028864
SW948,-0.30831707,0.5785374,0.23783077,0.55551815,-0.64215946,-0.013418769,-0.23582481,0.17483014,0.21383318,-0.4794531,0.033950467,0.6797805,0.37767386,-0.44747525,-0.7907411,-0.4433263,-0.12217581,0.15069029,0.004160809,-0.15580784,-0.26688695,-0.3874136,-0.33062872,0.3116401,-0.5511677,0.0063107293,-0.3991847,-0.05617646,0.6054225,0.5186839,-0.54960537,0.3306521,-0.5984207,-0.5755149,0.36155847
HuCC-T1,-0.30954143,0.53128713,0.9671316,1.0630962,-0.67775327,0.35260645,0.022134716,-0.106903285,0.47386315,0.44784865,0.8994878,0.9483394,0.50700575,-0.5659466,-0.83136946,0.19102369,0.68082005,0.8131384,0.18555959,-0.04510486,0.37006795,-0.19243903,-0.28728026,0.85365796,-0.7426286,0.46979743,-1.0092764,0.28421876,0.053665202,-0.027435176,0.20754296,-0.015107664,-0.46086952,-0.8068445,-0.108161055
SaOS-2,0.111071244,0.2800386,0.85716,0.075175665,0.020380314,0.4596522,-0.34870717,0.097481236,0.25794408,-0.41059554,0.4264798,0.6940364,-0.20396899,-0.068497896,-0.38920167,-0.77375066,0.44749755,0.023806207,-0.009659154,0.40044627,-0.037228685,-0.5324477,-0.6529597,0.17270981,-0.5101567,0.049423967,-0.67159593,-0.41370338,0.4914595,0.6649959,-0.435731,0.54098046,-0.5106309,-0.5846019,0.7395512
NCI-H1975,-0.17082156,0.3578399,0.47989485,0.39856997,-0.24207668,0.27485785,-0.4829645,0.18246375,0.11239836,-0.20288835,0.34989083,0.47434708,0.018380946,-0.3029268,-0.49403515,-0.3659664,0.1844654,0.16218196,-0.23412679,0.1595235,-0.25443336,-0.17171626,-0.36638987,0.28892705,-0.46309,-0.12750736,-0.35784554,-0.2695754,0.46250552,0.49328226,-0.30461514,0.28230938,-0.3343986,-0.21081872,0.46028864
NCI-H747,-0.22939155,0.45185205,0.37678102,0.46542636,-0.4125029,0.15205851,-0.37768856,0.179212,0.15560731,-0.32069868,0.21530737,0.5618571,0.17143162,-0.36450118,-0.62042516,-0.39891997,0.05384316,0.15728676,-0.13262165,0.025199471,-0.25973833,-0.26359844,-0.3511564,0.2986023,-0.50060916,-0.070503876,-0.3754551,-0.17867225,0.5233849,0.50410277,-0.40897545,0.30290228,-0.44686604,-0.36617106,0.41823182
P12-Ichikawa,-0.34787148,0.61834955,0.5683929,0.88053095,-0.781469,0.102280185,-0.019063504,0.019142274,0.38530177,-0.050565403,0.41691574,0.8873943,0.55506843,-0.5539806,-0.8991554,-0.11525184,0.23035656,0.51050276,0.17314625,-0.18807961,0.07903541,-0.3418037,-0.29747072,0.6169088,-0.6811539,0.2999218,-0.7468888,0.19321044,0.34266013,0.22495416,-0.20590326,0.15279508,-0.6003286,-0.8100696,0.07328148
MKN1,-0.61143863,0.46246135,0.8970067,1.1611979,-0.42641002,0.43886328,-0.18151361,-0.4841112,0.90899795,0.2353541,0.840542,1.3057964,0.55541784,-0.82349974,-1.2394749,-0.34857056,0.4423547,1.0578563,0.6300519,-0.0668975,0.665084,-0.82853055,-0.124243125,0.7831087,-1.0906231,0.81373143,-1.2247331,0.52935034,0.3748839,0.16964467,0.20978121,0.47189945,-0.7113095,-1.2096977,0.067210495
DMS 153,0.111071244,0.2800386,0.85716,0.075175665,0.020380314,0.4596522,-0.34870717,0.097481236,0.25794408,-0.41059554,0.4264798,0.6940364,-0.20396899,-0.068497896,-0.38920167,-0.77375066,0.44749755,0.023806207,-0.009659154,0.40044627,-0.037228685,-0.5324477,-0.6529597,0.17270981,-0.5101567,0.049423967,-0.67159593,-0.41370338,0.4914595,0.6649959,-0.435731,0.54098046,-0.5106309,-0.5846019,0.7395512
SK-OV-3,-0.17082156,0.3578399,0.47989485,0.39856997,-0.24207668,0.27485785,-0.4829645,0.18246375,0.11239836,-0.20288835,0.34989083,0.47434708,0.018380946,-0.3029268,-0.49403515,-0.3659664,0.1844654,0.16218196,-0.23412679,0.1595235,-0.25443336,-0.17171626,-0.36638987,0.28892705,-0.46309,-0.12750736,-0.35784554,-0.2695754,0.46250552,0.49328226,-0.30461514,0.28230938,-0.3343986,-0.21081872,0.46028864
OMC-1 [Human cervical carcinoma],-0.46315834,0.34819177,0.5927175,0.7724169,-0.21974508,0.3861623,-0.5081459,-0.15969385,0.48408496,0.035420705,0.587772,0.7962889,0.21516939,-0.60219777,-0.8537186,-0.37935048,0.2336619,0.621828,0.11451505,0.07885361,0.13944902,-0.45870414,-0.16410185,0.49193493,-0.772137,0.2627295,-0.67293835,0.09886487,0.46957284,0.366137,-0.00654349,0.4090122,-0.44322318,-0.53496337,0.30268258
NCI-H2170,-0.17082156,0.3578399,0.47989485,0.39856997,-0.24207668,0.27485785,-0.4829645,0.18246375,0.11239836,-0.20288835,0.34989083,0.47434708,0.018380946,-0.3029268,-0.49403515,-0.3659664,0.1844654,0.16218196,-0.23412679,0.1595235,-0.25443336,-0.17171626,-0.36638987,0.28892705,-0.46309,-0.12750736,-0.35784554,-0.2695754,0.46250552,0.49328226,-0.30461514,0.28230938,-0.3343986,-0.21081872,0.46028864
Panc 03.27,-0.17082156,0.3578399,0.47989485,0.39856997,-0.24207668,0.27485785,-0.4829645,0.18246375,0.11239836,-0.20288835,0.34989083,0.47434708,0.018380946,-0.3029268,-0.49403515,-0.3659664,0.1844654,0.16218196,-0.23412679,0.1595235,-0.25443336,-0.17171626,-0.36638987,0.28892705,-0.46309,-0.12750736,-0.35784554,-0.2695754,0.46250552,0.49328226,-0.30461514,0.28230938,-0.3343986,-0.21081872,0.46028864
HT-144,-0.2208663,0.4184221,0.7255341,0.68908507,-0.40788984,0.33557937,-0.27153566,0.051681355,0.26797852,0.12046881,0.630066,0.6729731,0.21089439,-0.40968004,-0.62125784,-0.1019676,0.44041488,0.46082053,-0.06363872,0.093488805,0.03250227,-0.16044065,-0.33430114,0.54632264,-0.5824189,0.13395076,-0.6529409,-0.03512463,0.2611069,0.25147888,-0.048380863,0.13998383,-0.3687458,-0.45167106,0.20763208
D-263MG,-0.17082156,0.3578399,0.47989485,0.39856997,-0.24207668,0.27485785,-0.4829645,0.18246375,0.11239836,-0.20288835,0.34989083,0.47434708,0.018380946,-0.3029268,-0.49403515,-0.3659664,0.1844654,0.16218196,-0.23412679,0.1595235,-0.25443336,-0.17171626,-0.36638987,0.28892705,-0.46309,-0.12750736,-0.35784554,-0.2695754,0.46250552,0.49328226,-0.30461514,0.28230938,-0.3343986,-0.21081872,0.46028864
WRO,-0.17082156,0.3578399,0.47989485,0.39856997,-0.24207668,0.27485785,-0.4829645,0.18246375,0.11239836,-0.20288835,0.34989083,0.47434708,0.018380946,-0.3029268,-0.49403515,-0.3659664,0.1844654,0.16218196,-0.23412679,0.1595235,-0.25443336,-0.17171626,-0.36638987,0.28892705,-0.46309,-0.12750736,-0.35784554,-0.2695754,0.46250552,0.49328226,-0.30461514,0.28230938,-0.3343986,-0.21081872,0.46028864
H-EMC-SS,-0.46315834,0.34819177,0.5927175,0.7724169,-0.21974508,0.3861623,-0.5081459,-0.15969385,0.48408496,0.035420705,0.587772,0.7962889,0.21516939,-0.60219777,-0.8537186,-0.37935048,0.2336619,0.621828,0.11451505,0.07885361,0.13944902,-0.45870414,-0.16410185,0.49193493,-0.772137,0.2627295,-0.67293835,0.09886487,0.46957284,0.366137,-0.00654349,0.4090122,-0.44322318,-0.53496337,0.30268258
TGBC11TKB,-0.40970173,0.7308822,0.23495567,0.79405564,-0.9477932,-0.13882186,0.010328373,0.10184613,0.35106665,-0.46026534,0.008922983,0.8964317,0.67509216,-0.5825495,-1.0196408,-0.34663764,-0.15487488,0.30156013,0.22393925,-0.36267728,-0.1227002,-0.49921787,-0.29422367,0.4594786,-0.66203505,0.21693306,-0.5770276,0.18367355,0.57745785,0.40531316,-0.5485027,0.28214854,-0.7606093,-0.9013183,0.17472006
MSTO-211H,-0.1840543,0.37385896,0.54484636,0.47538748,-0.2859207,0.29091373,-0.42705882,0.14788249,0.15353662,-0.11738679,0.42397428,0.52686745,0.069285035,-0.33115432,-0.52767515,-0.29616028,0.2521431,0.24114747,-0.18904662,0.14206272,-0.17856231,-0.16873477,-0.35790503,0.35698718,-0.49464276,-0.058373038,-0.43587416,-0.20758231,0.40925202,0.429345,-0.2368621,0.2446759,-0.34348062,-0.27450448,0.3934816
DEL,0.111071244,0.2800386,0.85716,0.075175665,0.020380314,0.4596522,-0.34870717,0.097481236,0.25794408,-0.41059554,0.4264798,0.6940364,-0.20396899,-0.068497896,-0.38920167,-0.77375066,0.44749755,0.023806207,-0.009659154,0.40044627,-0.037228685,-0.5324477,-0.6529597,0.17270981,-0.5101567,0.049423967,-0.67159593,-0.41370338,0.4914595,0.6649959,-0.435731,0.54098046,-0.5106309,-0.5846019,0.7395512
DU4475,-0.2676842,0.5095584,0.37288666,0.5535572,-0.5277698,0.10330027,-0.28573954,0.15272333,0.20644142,-0.31701964,0.20252924,0.64264333,0.283246,-0.4150627,-0.706718,-0.36485946,0.038399853,0.2117216,-0.05031687,-0.053344563,-0.20773214,-0.30658206,-0.33756688,0.35234398,-0.54174894,0.007257195,-0.4402692,-0.089400984,0.5149552,0.4633956,-0.4114655,0.2859284,-0.5086438,-0.48831618,0.34948727
HT-1080,-0.1840543,0.37385896,0.54484636,0.47538748,-0.2859207,0.29091373,-0.42705882,0.14788249,0.15353662,-0.11738679,0.42397428,0.52686745,0.069285035,-0.33115432,-0.52767515,-0.29616028,0.2521431,0.24114747,-0.18904662,0.14206272,-0.17856231,-0.16873477,-0.35790503,0.35698718,-0.49464276,-0.058373038,-0.43587416,-0.20758231,0.40925202,0.429345,-0.2368621,0.2446759,-0.34348062,-0.27450448,0.3934816
LB2518-MEL,-0.1840543,0.37385896,0.54484636,0.47538748,-0.2859207,0.29091373,-0.42705882,0.14788249,0.15353662,-0.11738679,0.42397428,0.52686745,0.069285035,-0.33115432,-0.52767515,-0.29616028,0.2521431,0.24114747,-0.18904662,0.14206272,-0.17856231,-0.16873477,-0.35790503,0.35698718,-0.49464276,-0.058373038,-0.43587416,-0.20758231,0.40925202,0.429345,-0.2368621,0.2446759,-0.34348062,-0.27450448,0.3934816
647V,0.111071244,0.2800386,0.85716,0.075175665,0.020380314,0.4596522,-0.34870717,0.097481236,0.25794408,-0.41059554,0.4264798,0.6940364,-0.20396899,-0.068497896,-0.38920167,-0.77375066,0.44749755,0.023806207,-0.009659154,0.40044627,-0.037228685,-0.5324477,-0.6529597,0.17270981,-0.5101567,0.049423967,-0.67159593,-0.41370338,0.4914595,0.6649959,-0.435731,0.54098046,-0.5106309,-0.5846019,0.7395512
D-247MG,-0.21281067,0.4252377,0.40597203,0.44649965,-0.36425608,0.18682241,-0.40749165,0.18013255,0.14337507,-0.28734714,0.2534073,0.53708345,0.12810372,-0.34706977,-0.5846448,-0.38959098,0.09082168,0.15867257,-0.16135727,0.063225955,-0.2582365,-0.23758705,-0.35546893,0.29586327,-0.48998764,-0.08664128,-0.37046993,-0.2044065,0.50615025,0.50103956,-0.37943155,0.29707253,-0.41502705,-0.32219157,0.4301379
SN12C,0.111071244,0.2800386,0.85716,0.075175665,0.020380314,0.4596522,-0.34870717,0.097481236,0.25794408,-0.41059554,0.4264798,0.6940364,-0.20396899,-0.068497896,-0.38920167,-0.77375066,0.44749755,0.023806207,-0.009659154,0.40044627,-0.037228685,-0.5324477,-0.6529597,0.17270981,-0.5101567,0.049423967,-0.67159593,-0.41370338,0.4914595,0.6649959,-0.435731,0.54098046,-0.5106309,-0.5846019,0.7395512
Caov-4,0.111071244,0.2800386,0.85716,0.075175665,0.020380314,0.4596522,-0.34870717,0.097481236,0.25794408,-0.41059554,0.4264798,0.6940364,-0.20396899,-0.068497896,-0.38920167,-0.77375066,0.44749755,0.023806207,-0.009659154,0.40044627,-0.037228685,-0.5324477,-0.6529597,0.17270981,-0.5101567,0.049423967,-0.67159593,-0.41370338,0.4914595,0.6649959,-0.435731,0.54098046,-0.5106309,-0.5846019,0.7395512
NCI-H128,-0.46315834,0.34819177,0.5927175,0.7724169,-0.21974508,0.3861623,-0.5081459,-0.15969385,0.48408496,0.035420705,0.587772,0.7962889,0.21516939,-0.60219777,-0.8537186,-0.37935048,0.2336619,0.621828,0.11451505,0.07885361,0.13944902,-0.45870414,-0.16410185,0.49193493,-0.772137,0.2627295,-0.67293835,0.09886487,0.46957284,0.366137,-0.00654349,0.4090122,-0.44322318,-0.53496337,0.30268258
DJM-1,-0.17082156,0.3578399,0.47989485,0.39856997,-0.24207668,0.27485785,-0.4829645,0.18246375,0.11239836,-0.20288835,0.34989083,0.47434708,0.018380946,-0.3029268,-0.49403515,-0.3659664,0.1844654,0.16218196,-0.23412679,0.1595235,-0.25443336,-0.17171626,-0.36638987,0.28892705,-0.46309,-0.12750736,-0.35784554,-0.2695754,0.46250552,0.49328226,-0.30461514,0.28230938,-0.3343986,-0.21081872,0.46028864
Calu-6,-0.17763409,0.3660869,0.51333344,0.43811744,-0.26464862,0.2831238,-0.45418295,0.1646605,0.1335773,-0.15887015,0.38803074,0.5013858,0.044587564,-0.317459,-0.51135385,-0.33002856,0.21930748,0.20283526,-0.21091846,0.15053429,-0.21537317,-0.17018132,-0.36202168,0.323966,-0.4793341,-0.091915384,-0.3980165,-0.2376599,0.43508938,0.46036586,-0.2697343,0.26293477,-0.33907422,-0.24360566,0.42589483
NCI-H28,-0.1840543,0.37385896,0.54484636,0.47538748,-0.2859207,0.29091373,-0.42705882,0.14788249,0.15353662,-0.11738679,0.42397428,0.52686745,0.069285035,-0.33115432,-0.52767515,-0.29616028,0.2521431,0.24114747,-0.18904662,0.14206272,-0.17856231,-0.16873477,-0.35790503,0.35698718,-0.49464276,-0.058373038,-0.43587416,-0.20758231,0.40925202,0.429345,-0.2368621,0.2446759,-0.34348062,-0.27450448,0.3934816
SW620,-0.22939155,0.45185205,0.37678102,0.46542636,-0.4125029,0.15205851,-0.37768856,0.179212,0.15560731,-0.32069868,0.21530737,0.5618571,0.17143162,-0.36450118,-0.62042516,-0.39891997,0.05384316,0.15728676,-0.13262165,0.025199471,-0.25973833,-0.26359844,-0.3511564,0.2986023,-0.50060916,-0.070503876,-0.3754551,-0.17867225,0.5233849,0.50410277,-0.40897545,0.30290228,-0.44686604,-0.36617106,0.41823182
NCI-H69,0.111071244,0.2800386,0.85716,0.075175665,0.020380314,0.4596522,-0.34870717,0.097481236,0.25794408,-0.41059554,0.4264798,0.6940364,-0.20396899,-0.068497896,-0.38920167,-0.77375066,0.44749755,0.023806207,-0.009659154,0.40044627,-0.037228685,-0.5324477,-0.6529597,0.17270981,-0.5101567,0.049423967,-0.67159593,-0.41370338,0.4914595,0.6649959,-0.435731,0.54098046,-0.5106309,-0.5846019,0.7395512
B-CPAP,-0.0618392,0.39520884,0.92729074,0.5360576,-0.31517768,0.41590172,-0.16726069,0.028426467,0.3232469,0.03363179,0.67485446,0.7783673,0.11683745,-0.28138945,-0.55598223,-0.26310793,0.5934056,0.38610524,0.03786064,0.20319672,0.13669968,-0.30840406,-0.49068382,0.50516534,-0.5909344,0.21850748,-0.8151954,-0.10692893,0.24862659,0.31478247,-0.11332854,0.232945,-0.45375624,-0.6416632,0.3223651
K5,-0.23709247,0.43806484,0.8051785,0.7832798,-0.46165198,0.3552673,-0.20298338,0.009277337,0.3184228,0.225312,0.72090816,0.7373743,0.27331367,-0.444293,-0.6625077,-0.01637038,0.5234022,0.55764914,-0.00836079,0.07207815,0.12553638,-0.15678473,-0.3238969,0.62977886,-0.6211093,0.2187242,-0.7486207,0.040892128,0.19580674,0.17307816,0.03469884,0.09383714,-0.3798823,-0.5297634,0.1257124
SK-MEL-28,-0.0618392,0.39520884,0.92729074,0.5360576,-0.31517768,0.41590172,-0.16726069,0.028426467,0.3232469,0.03363179,0.67485446,0.7783673,0.11683745,-0.28138945,-0.55598223,-0.26310793,0.5934056,0.38610524,0.03786064,0.20319672,0.13669968,-0.30840406,-0.49068382,0.50516534,-0.5909344,0.21850748,-0.8151954,-0.10692893,0.24862659,0.31478247,-0.11332854,0.232945,-0.45375624,-0.6416632,0.3223651
SNU-16,-0.17082156,0.3578399,0.47989485,0.39856997,-0.24207668,0.27485785,-0.4829645,0.18246375,0.11239836,-0.20288835,0.34989083,0.47434708,0.018380946,-0.3029268,-0.49403515,-0.3659664,0.1844654,0.16218196,-0.23412679,0.1595235,-0.25443336,-0.17171626,-0.36638987,0.28892705,-0.46309,-0.12750736,-0.35784554,-0.2695754,0.46250552,0.49328226,-0.30461514,0.28230938,-0.3343986,-0.21081872,0.46028864
GAK,-0.46315834,0.34819177,0.5927175,0.7724169,-0.21974508,0.3861623,-0.5081459,-0.15969385,0.48408496,0.035420705,0.587772,0.7962889,0.21516939,-0.60219777,-0.8537186,-0.37935048,0.2336619,0.621828,0.11451505,0.07885361,0.13944902,-0.45870414,-0.16410185,0.49193493,-0.772137,0.2627295,-0.67293835,0.09886487,0.46957284,0.366137,-0.00654349,0.4090122,-0.44322318,-0.53496337,0.30268258
BL-70,0.111071244,0.2800386,0.85716,0.075175665,0.020380314,0.4596522,-0.34870717,0.097481236,0.25794408,-0.41059554,0.4264798,0.6940364,-0.20396899,-0.068497896,-0.38920167,-0.77375066,0.44749755,0.023806207,-0.009659154,0.40044627,-0.037228685,-0.5324477,-0.6529597,0.17270981,-0.5101567,0.049423967,-0.67159593,-0.41370338,0.4914595,0.6649959,-0.435731,0.54098046,-0.5106309,-0.5846019,0.7395512
DG-75,0.111071244,0.2800386,0.85716,0.075175665,0.020380314,0.4596522,-0.34870717,0.097481236,0.25794408,-0.41059554,0.4264798,0.6940364,-0.20396899,-0.068497896,-0.38920167,-0.77375066,0.44749755,0.023806207,-0.009659154,0.40044627,-0.037228685,-0.5324477,-0.6529597,0.17270981,-0.5101567,0.049423967,-0.67159593,-0.41370338,0.4914595,0.6649959,-0.435731,0.54098046,-0.5106309,-0.5846019,0.7395512
HAL-01,-0.1840543,0.37385896,0.54484636,0.47538748,-0.2859207,0.29091373,-0.42705882,0.14788249,0.15353662,-0.11738679,0.42397428,0.52686745,0.069285035,-0.33115432,-0.52767515,-0.29616028,0.2521431,0.24114747,-0.18904662,0.14206272,-0.17856231,-0.16873477,-0.35790503,0.35698718,-0.49464276,-0.058373038,-0.43587416,-0.20758231,0.40925202,0.429345,-0.2368621,0.2446759,-0.34348062,-0.27450448,0.3934816
ECC10,-0.5865566,0.6111783,0.07431642,0.74693674,-0.6590661,-0.066013865,-0.31315506,-0.040420894,0.47280502,-0.5942902,-0.06807323,0.90318626,0.55498105,-0.6948553,-1.133625,-0.66436726,-0.37269315,0.34823266,0.2830465,-0.30142137,-0.122459404,-0.728194,-0.15793164,0.3226627,-0.7753718,0.22023936,-0.48749554,0.18920094,0.8046711,0.58181095,-0.5535713,0.55807924,-0.7688404,-0.83016473,0.357925
EW-16,-0.17082156,0.3578399,0.47989485,0.39856997,-0.24207668,0.27485785,-0.4829645,0.18246375,0.11239836,-0.20288835,0.34989083,0.47434708,0.018380946,-0.3029268,-0.49403515,-0.3659664,0.1844654,0.16218196,-0.23412679,0.1595235,-0.25443336,-0.17171626,-0.36638987,0.28892705,-0.46309,-0.12750736,-0.35784554,-0.2695754,0.46250552,0.49328226,-0.30461514,0.28230938,-0.3343986,-0.21081872,0.46028864
Daudi,0.111071244,0.2800386,0.85716,0.075175665,0.020380314,0.4596522,-0.34870717,0.097481236,0.25794408,-0.41059554,0.4264798,0.6940364,-0.20396899,-0.068497896,-0.38920167,-0.77375066,0.44749755,0.023806207,-0.009659154,0.40044627,-0.037228685,-0.5324477,-0.6529597,0.17270981,-0.5101567,0.049423967,-0.67159593,-0.41370338,0.4914595,0.6649959,-0.435731,0.54098046,-0.5106309,-0.5846019,0.7395512
KLE,-0.61143863,0.46246135,0.8970067,1.1611979,-0.42641002,0.43886328,-0.18151361,-0.4841112,0.90899795,0.2353541,0.840542,1.3057964,0.55541784,-0.82349974,-1.2394749,-0.34857056,0.4423547,1.0578563,0.6300519,-0.0668975,0.665084,-0.82853055,-0.124243125,0.7831087,-1.0906231,0.81373143,-1.2247331,0.52935034,0.3748839,0.16964467,0.20978121,0.47189945,-0.7113095,-1.2096977,0.067210495
Mono-Mac-6,-0.46315834,0.34819177,0.5927175,0.7724169,-0.21974508,0.3861623,-0.5081459,-0.15969385,0.48408496,0.035420705,0.587772,0.7962889,0.21516939,-0.60219777,-0.8537186,-0.37935048,0.2336619,0.621828,0.11451505,0.07885361,0.13944902,-0.45870414,-0.16410185,0.49193493,-0.772137,0.2627295,-0.67293835,0.09886487,0.46957284,0.366137,-0.00654349,0.4090122,-0.44322318,-0.53496337,0.30268258
C2BBe1,-0.21513069,0.5446462,0.37204906,0.44411004,-0.53697646,0.059435043,-0.2007878,0.137905,0.26998985,-0.5457963,0.06840283,0.7567138,0.29360768,-0.36945423,-0.7556971,-0.5902514,-0.028453995,0.10996383,0.0835362,-0.065744944,-0.18574163,-0.5172118,-0.42550692,0.27077332,-0.5723098,0.07061984,-0.5099876,-0.10533829,0.61739504,0.5797499,-0.58650964,0.4269703,-0.6562368,-0.7014138,0.46216524
HGC-27,-0.69313216,0.7389339,-0.07916976,0.8553882,-0.88624084,-0.23393114,-0.18200769,-0.06724233,0.55704814,-0.76212114,-0.2567477,1.0423009,0.7759568,-0.80217576,-1.3366629,-0.7310781,-0.5716647,0.36242616,0.44647577,-0.4943133,-0.11436498,-0.8853717,-0.11971541,0.33661243,-0.848452,0.31801456,-0.5200255,0.33510217,0.9060367,0.6027269,-0.69201326,0.60911,-0.9354201,-1.0622767,0.3019204
Karpas-299,0.111071244,0.2800386,0.85716,0.075175665,0.020380314,0.4596522,-0.34870717,0.097481236,0.25794408,-0.41059554,0.4264798,0.6940364,-0.20396899,-0.068497896,-0.38920167,-0.77375066,0.44749755,0.023806207,-0.009659154,0.40044627,-0.037228685,-0.5324477,-0.6529597,0.17270981,-0.5101567,0.049423967,-0.67159593,-0.41370338,0.4914595,0.6649959,-0.435731,0.54098046,-0.5106309,-0.5846019,0.7395512
OC 314,0.111071244,0.2800386,0.85716,0.075175665,0.020380314,0.4596522,-0.34870717,0.097481236,0.25794408,-0.41059554,0.4264798,0.6940364,-0.20396899,-0.068497896,-0.38920167,-0.77375066,0.44749755,0.023806207,-0.009659154,0.40044627,-0.037228685,-0.5324477,-0.6529597,0.17270981,-0.5101567,0.049423967,-0.67159593,-0.41370338,0.4914595,0.6649959,-0.435731,0.54098046,-0.5106309,-0.5846019,0.7395512
PLC/PRF/5,-0.17082156,0.3578399,0.47989485,0.39856997,-0.24207668,0.27485785,-0.4829645,0.18246375,0.11239836,-0.20288835,0.34989083,0.47434708,0.018380946,-0.3029268,-0.49403515,-0.3659664,0.1844654,0.16218196,-0.23412679,0.1595235,-0.25443336,-0.17171626,-0.36638987,0.28892705,-0.46309,-0.12750736,-0.35784554,-0.2695754,0.46250552,0.49328226,-0.30461514,0.28230938,-0.3343986,-0.21081872,0.46028864
AsPC-1,-0.2539009,0.4584125,0.88768095,0.8808546,-0.5173434,0.37566173,-0.13197112,-0.03464833,0.37067726,0.33391744,0.81501013,0.8040865,0.33797285,-0.48014802,-0.7052378,0.07229846,0.60936755,0.65795237,0.048900757,0.04989919,0.22190897,-0.15299761,-0.31311932,0.7162299,-0.6611881,0.3065397,-0.84773386,0.119636714,0.12816332,0.09186407,0.12075982,0.0460345,-0.39141843,-0.6106581,0.04085306
NCI-H209,0.111071244,0.2800386,0.85716,0.075175665,0.020380314,0.4596522,-0.34870717,0.097481236,0.25794408,-0.41059554,0.4264798,0.6940364,-0.20396899,-0.068497896,-0.38920167,-0.77375066,0.44749755,0.023806207,-0.009659154,0.40044627,-0.037228685,-0.5324477,-0.6529597,0.17270981,-0.5101567,0.049423967,-0.67159593,-0.41370338,0.4914595,0.6649959,-0.435731,0.54098046,-0.5106309,-0.5846019,0.7395512
EFE-184,0.111071244,0.2800386,0.85716,0.075175665,0.020380314,0.4596522,-0.34870717,0.097481236,0.25794408,-0.41059554,0.4264798,0.6940364,-0.20396899,-0.068497896,-0.38920167,-0.77375066,0.44749755,0.023806207,-0.009659154,0.40044627,-0.037228685,-0.5324477,-0.6529597,0.17270981,-0.5101567,0.049423967,-0.67159593,-0.41370338,0.4914595,0.6649959,-0.435731,0.54098046,-0.5106309,-0.5846019,0.7395512
8505C,-0.19796291,0.39069617,0.6131153,0.5561285,-0.3320041,0.30778968,-0.36829776,0.11153497,0.19677602,-0.0275182,0.50184155,0.5820703,0.12278906,-0.36082357,-0.56303334,-0.22278878,0.32327753,0.32414618,-0.14166395,0.12371012,-0.098816134,-0.16560103,-0.3489868,0.42852348,-0.52780706,0.014292346,-0.5178881,-0.14242291,0.3532786,0.36214215,-0.16564855,0.20512027,-0.3530265,-0.34144303,0.3232624
HCC1937,0.111071244,0.2800386,0.85716,0.075175665,0.020380314,0.4596522,-0.34870717,0.097481236,0.25794408,-0.41059554,0.4264798,0.6940364,-0.20396899,-0.068497896,-0.38920167,-0.77375066,0.44749755,0.023806207,-0.009659154,0.40044627,-0.037228685,-0.5324477,-0.6529597,0.17270981,-0.5101567,0.049423967,-0.67159593,-0.41370338,0.4914595,0.6649959,-0.435731,0.54098046,-0.5106309,-0.5846019,0.7395512
SNU-449,-0.17082156,0.3578399,0.47989485,0.39856997,-0.24207668,0.27485785,-0.4829645,0.18246375,0.11239836,-0.20288835,0.34989083,0.47434708,0.018380946,-0.3029268,-0.49403515,-0.3659664,0.1844654,0.16218196,-0.23412679,0.1595235,-0.25443336,-0.17171626,-0.36638987,0.28892705,-0.46309,-0.12750736,-0.35784554,-0.2695754,0.46250552,0.49328226,-0.30461514,0.28230938,-0.3343986,-0.21081872,0.46028864
KYSE-410,-0.17763409,0.3660869,0.51333344,0.43811744,-0.26464862,0.2831238,-0.45418295,0.1646605,0.1335773,-0.15887015,0.38803074,0.5013858,0.044587564,-0.317459,-0.51135385,-0.33002856,0.21930748,0.20283526,-0.21091846,0.15053429,-0.21537317,-0.17018132,-0.36202168,0.323966,-0.4793341,-0.091915384,-0.3980165,-0.2376599,0.43508938,0.46036586,-0.2697343,0.26293477,-0.33907422,-0.24360566,0.42589483
NCI-H1355,-0.17763409,0.3660869,0.51333344,0.43811744,-0.26464862,0.2831238,-0.45418295,0.1646605,0.1335773,-0.15887015,0.38803074,0.5013858,0.044587564,-0.317459,-0.51135385,-0.33002856,0.21930748,0.20283526,-0.21091846,0.15053429,-0.21537317,-0.17018132,-0.36202168,0.323966,-0.4793341,-0.091915384,-0.3980165,-0.2376599,0.43508938,0.46036586,-0.2697343,0.26293477,-0.33907422,-0.24360566,0.42589483
NCI-H2052,-0.1840543,0.37385896,0.54484636,0.47538748,-0.2859207,0.29091373,-0.42705882,0.14788249,0.15353662,-0.11738679,0.42397428,0.52686745,0.069285035,-0.33115432,-0.52767515,-0.29616028,0.2521431,0.24114747,-0.18904662,0.14206272,-0.17856231,-0.16873477,-0.35790503,0.35698718,-0.49464276,-0.058373038,-0.43587416,-0.20758231,0.40925202,0.429345,-0.2368621,0.2446759,-0.34348062,-0.27450448,0.3934816
SNU-387,-0.17082156,0.3578399,0.47989485,0.39856997,-0.24207668,0.27485785,-0.4829645,0.18246375,0.11239836,-0.20288835,0.34989083,0.47434708,0.018380946,-0.3029268,-0.49403515,-0.3659664,0.1844654,0.16218196,-0.23412679,0.1595235,-0.25443336,-0.17171626,-0.36638987,0.28892705,-0.46309,-0.12750736,-0.35784554,-0.2695754,0.46250552,0.49328226,-0.30461514,0.28230938,-0.3343986,-0.21081872,0.46028864
LS411N,-0.53836507,0.6467929,0.531229,1.0733281,-0.8192269,0.093557805,-0.026226956,-0.1549199,0.5908543,-0.034980007,0.43159133,1.0764543,0.7065592,-0.7380927,-1.1455824,-0.19178516,0.14092125,0.71561056,0.39045355,-0.28870976,0.2463029,-0.5552078,-0.1771393,0.6877043,-0.8552574,0.50112,-0.8772779,0.4053931,0.4180813,0.20506282,-0.1353284,0.26504263,-0.711258,-1.0243415,0.011353463
NCI-H596,0.111071244,0.2800386,0.85716,0.075175665,0.020380314,0.4596522,-0.34870717,0.097481236,0.25794408,-0.41059554,0.4264798,0.6940364,-0.20396899,-0.068497896,-0.38920167,-0.77375066,0.44749755,0.023806207,-0.009659154,0.40044627,-0.037228685,-0.5324477,-0.6529597,0.17270981,-0.5101567,0.049423967,-0.67159593,-0.41370338,0.4914595,0.6649959,-0.435731,0.54098046,-0.5106309,-0.5846019,0.7395512
Karpas-45,-0.6446487,0.5437191,0.09872774,0.76426166,-0.5203678,0.01823558,-0.43290606,-0.12121063,0.53651017,-0.5384558,0.0070319124,0.9153248,0.4933609,-0.7384067,-1.1590064,-0.7220885,-0.3586102,0.4290918,0.30479398,-0.2434591,-0.06187041,-0.7821713,-0.10387402,0.3186951,-0.83042955,0.25470087,-0.50676876,0.2069769,0.83013016,0.5970943,-0.46616015,0.6288152,-0.7391373,-0.7966075,0.39236125
OAW42,-0.46315834,0.34819177,0.5927175,0.7724169,-0.21974508,0.3861623,-0.5081459,-0.15969385,0.48408496,0.035420705,0.587772,0.7962889,0.21516939,-0.60219777,-0.8537186,-0.37935048,0.2336619,0.621828,0.11451505,0.07885361,0.13944902,-0.45870414,-0.16410185,0.49193493,-0.772137,0.2627295,-0.67293835,0.09886487,0.46957284,0.366137,-0.00654349,0.4090122,-0.44322318,-0.53496337,0.30268258
OVCAR-5,-0.19089794,0.3821436,0.5784376,0.51511556,-0.30859575,0.29921743,-0.39814582,0.12999792,0.17481227,-0.07316754,0.46228838,0.55402964,0.09561134,-0.34575287,-0.5450729,-0.2600583,0.28714433,0.28198645,-0.1657323,0.13303244,-0.13932373,-0.16719283,-0.35351688,0.39218614,-0.51096106,-0.02261851,-0.4762286,-0.17552105,0.38171068,0.3962783,-0.20182194,0.22521281,-0.3481776,-0.30744117,0.3589307
DBTRG-05MG,-0.2208663,0.4184221,0.7255341,0.68908507,-0.40788984,0.33557937,-0.27153566,0.051681355,0.26797852,0.12046881,0.630066,0.6729731,0.21089439,-0.40968004,-0.62125784,-0.1019676,0.44041488,0.46082053,-0.06363872,0.093488805,0.03250227,-0.16044065,-0.33430114,0.54632264,-0.5824189,0.13395076,-0.6529409,-0.03512463,0.2611069,0.25147888,-0.048380863,0.13998383,-0.3687458,-0.45167106,0.20763208
TE-15,-0.17082156,0.3578399,0.47989485,0.39856997,-0.24207668,0.27485785,-0.4829645,0.18246375,0.11239836,-0.20288835,0.34989083,0.47434708,0.018380946,-0.3029268,-0.49403515,-0.3659664,0.1844654,0.16218196,-0.23412679,0.1595235,-0.25443336,-0.17171626,-0.36638987,0.28892705,-0.46309,-0.12750736,-0.35784554,-0.2695754,0.46250552,0.49328226,-0.30461514,0.28230938,-0.3343986,-0.21081872,0.46028864
DB,0.111071244,0.2800386,0.85716,0.075175665,0.020380314,0.4596522,-0.34870717,0.097481236,0.25794408,-0.41059554,0.4264798,0.6940364,-0.20396899,-0.068497896,-0.38920167,-0.77375066,0.44749755,0.023806207,-0.009659154,0.40044627,-0.037228685,-0.5324477,-0.6529597,0.17270981,-0.5101567,0.049423967,-0.67159593,-0.41370338,0.4914595,0.6649959,-0.435731,0.54098046,-0.5106309,-0.5846019,0.7395512
KYSE-70,-0.17082156,0.3578399,0.47989485,0.39856997,-0.24207668,0.27485785,-0.4829645,0.18246375,0.11239836,-0.20288835,0.34989083,0.47434708,0.018380946,-0.3029268,-0.49403515,-0.3659664,0.1844654,0.16218196,-0.23412679,0.1595235,-0.25443336,-0.17171626,-0.36638987,0.28892705,-0.46309,-0.12750736,-0.35784554,-0.2695754,0.46250552,0.49328226,-0.30461514,0.28230938,-0.3343986,-0.21081872,0.46028864
IGROV-1,-0.6737616,0.07810334,0.5448858,0.5798876,0.46070084,0.6534307,-1.032505,-0.5193982,0.83772933,-0.24384162,0.5601538,0.9683913,-0.10212735,-0.7243338,-1.046494,-1.1496472,0.018090658,0.7200293,0.38417387,0.320623,0.3285194,-1.0893126,-0.03707257,0.22654694,-1.0487735,0.42470425,-0.73487705,0.08748298,0.87662745,0.7413048,-0.009214543,1.051422,-0.5506055,-0.6383837,0.7491527
HT-3,0.111071244,0.2800386,0.85716,0.075175665,0.020380314,0.4596522,-0.34870717,0.097481236,0.25794408,-0.41059554,0.4264798,0.6940364,-0.20396899,-0.068497896,-0.38920167,-0.77375066,0.44749755,0.023806207,-0.009659154,0.40044627,-0.037228685,-0.5324477,-0.6529597,0.17270981,-0.5101567,0.049423967,-0.67159593,-0.41370338,0.4914595,0.6649959,-0.435731,0.54098046,-0.5106309,-0.5846019,0.7395512
HuO9,-0.46315834,0.34819177,0.5927175,0.7724169,-0.21974508,0.3861623,-0.5081459,-0.15969385,0.48408496,0.035420705,0.587772,0.7962889,0.21516939,-0.60219777,-0.8537186,-0.37935048,0.2336619,0.621828,0.11451505,0.07885361,0.13944902,-0.45870414,-0.16410185,0.49193493,-0.772137,0.2627295,-0.67293835,0.09886487,0.46957284,0.366137,-0.00654349,0.4090122,-0.44322318,-0.53496337,0.30268258
NCI-H810,0.111071244,0.2800386,0.85716,0.075175665,0.020380314,0.4596522,-0.34870717,0.097481236,0.25794408,-0.41059554,0.4264798,0.6940364,-0.20396899,-0.068497896,-0.38920167,-0.77375066,0.44749755,0.023806207,-0.009659154,0.40044627,-0.037228685,-0.5324477,-0.6529597,0.17270981,-0.5101567,0.049423967,-0.67159593,-0.41370338,0.4914595,0.6649959,-0.435731,0.54098046,-0.5106309,-0.5846019,0.7395512
ES8,-0.17082156,0.3578399,0.47989485,0.39856997,-0.24207668,0.27485785,-0.4829645,0.18246375,0.11239836,-0.20288835,0.34989083,0.47434708,0.018380946,-0.3029268,-0.49403515,-0.3659664,0.1844654,0.16218196,-0.23412679,0.1595235,-0.25443336,-0.17171626,-0.36638987,0.28892705,-0.46309,-0.12750736,-0.35784554,-0.2695754,0.46250552,0.49328226,-0.30461514,0.28230938,-0.3343986,-0.21081872,0.46028864
EW-12,0.111071244,0.2800386,0.85716,0.075175665,0.020380314,0.4596522,-0.34870717,0.097481236,0.25794408,-0.41059554,0.4264798,0.6940364,-0.20396899,-0.068497896,-0.38920167,-0.77375066,0.44749755,0.023806207,-0.009659154,0.40044627,-0.037228685,-0.5324477,-0.6529597,0.17270981,-0.5101567,0.049423967,-0.67159593,-0.41370338,0.4914595,0.6649959,-0.435731,0.54098046,-0.5106309,-0.5846019,0.7395512
PC-14,0.111071244,0.2800386,0.85716,0.075175665,0.020380314,0.4596522,-0.34870717,0.097481236,0.25794408,-0.41059554,0.4264798,0.6940364,-0.20396899,-0.068497896,-0.38920167,-0.77375066,0.44749755,0.023806207,-0.009659154,0.40044627,-0.037228685,-0.5324477,-0.6529597,0.17270981,-0.5101567,0.049423967,-0.67159593,-0.41370338,0.4914595,0.6649959,-0.435731,0.54098046,-0.5106309,-0.5846019,0.7395512
A2058,-0.2502157,0.38324752,0.65439856,0.6340519,-0.3203503,0.3423521,-0.37305713,0.041737422,0.26953468,0.04309315,0.5714863,0.6433407,0.15499748,-0.4166439,-0.6250489,-0.20954828,0.35576642,0.42478675,-0.07795761,0.11738144,-0.011545424,-0.21004488,-0.31051183,0.47775507,-0.58780754,0.09410465,-0.5885251,-0.07054605,0.33976018,0.3259176,-0.08824923,0.22008723,-0.3645449,-0.39867648,0.28546757
NCI-H1755,-0.19796291,0.39069617,0.6131153,0.5561285,-0.3320041,0.30778968,-0.36829776,0.11153497,0.19677602,-0.0275182,0.50184155,0.5820703,0.12278906,-0.36082357,-0.56303334,-0.22278878,0.32327753,0.32414618,-0.14166395,0.12371012,-0.098816134,-0.16560103,-0.3489868,0.42852348,-0.52780706,0.014292346,-0.5178881,-0.14242291,0.3532786,0.36214215,-0.16564855,0.20512027,-0.3530265,-0.34144303,0.3232624
NCI-H1573,-0.015121404,0.17462952,0.9198876,0.09768004,0.2810506,0.60764307,-0.5232049,-0.12540066,0.48704845,-0.4223942,0.51597685,0.8510217,-0.279214,-0.17262302,-0.5345132,-1.0419683,0.43397897,0.18657091,0.18414502,0.48702037,0.15999284,-0.8303237,-0.5747491,0.14337084,-0.6895069,0.22543985,-0.80919915,-0.32679376,0.61316115,0.7530236,-0.3396885,0.79524654,-0.5749931,-0.7231236,0.8556323
COLO 829,-0.2208663,0.4184221,0.7255341,0.68908507,-0.40788984,0.33557937,-0.27153566,0.051681355,0.26797852,0.12046881,0.630066,0.6729731,0.21089439,-0.40968004,-0.62125784,-0.1019676,0.44041488,0.46082053,-0.06363872,0.093488805,0.03250227,-0.16044065,-0.33430114,0.54632264,-0.5824189,0.13395076,-0.6529409,-0.03512463,0.2611069,0.25147888,-0.048380863,0.13998383,-0.3687458,-0.45167106,0.20763208
D-566MG,-0.17082156,0.3578399,0.47989485,0.39856997,-0.24207668,0.27485785,-0.4829645,0.18246375,0.11239836,-0.20288835,0.34989083,0.47434708,0.018380946,-0.3029268,-0.49403515,-0.3659664,0.1844654,0.16218196,-0.23412679,0.1595235,-0.25443336,-0.17171626,-0.36638987,0.28892705,-0.46309,-0.12750736,-0.35784554,-0.2695754,0.46250552,0.49328226,-0.30461514,0.28230938,-0.3343986,-0.21081872,0.46028864
JVM-3,-0.28448263,0.45972016,0.929091,0.9445277,-0.5253337,0.39820135,-0.116680786,-0.08084898,0.42044893,0.3966456,0.8736361,0.85165775,0.370353,-0.5172776,-0.7472097,0.101080276,0.6471983,0.73377997,0.095347606,0.041176103,0.2900039,-0.17450307,-0.29099965,0.7626386,-0.7014816,0.3687351,-0.9081097,0.17556359,0.10448011,0.05333027,0.1812992,0.041683357,-0.400111,-0.6597241,0.0006178002
NCI-H1963,0.111071244,0.2800386,0.85716,0.075175665,0.020380314,0.4596522,-0.34870717,0.097481236,0.25794408,-0.41059554,0.4264798,0.6940364,-0.20396899,-0.068497896,-0.38920167,-0.77375066,0.44749755,0.023806207,-0.009659154,0.40044627,-0.037228685,-0.5324477,-0.6529597,0.17270981,-0.5101567,0.049423967,-0.67159593,-0.41370338,0.4914595,0.6649959,-0.435731,0.54098046,-0.5106309,-0.5846019,0.7395512
ES3,0.111071244,0.2800386,0.85716,0.075175665,0.020380314,0.4596522,-0.34870717,0.097481236,0.25794408,-0.41059554,0.4264798,0.6940364,-0.20396899,-0.068497896,-0.38920167,-0.77375066,0.44749755,0.023806207,-0.009659154,0.40044627,-0.037228685,-0.5324477,-0.6529597,0.17270981,-0.5101567,0.049423967,-0.67159593,-0.41370338,0.4914595,0.6649959,-0.435731,0.54098046,-0.5106309,-0.5846019,0.7395512
HLE,0.111071244,0.2800386,0.85716,0.075175665,0.020380314,0.4596522,-0.34870717,0.097481236,0.25794408,-0.41059554,0.4264798,0.6940364,-0.20396899,-0.068497896,-0.38920167,-0.77375066,0.44749755,0.023806207,-0.009659154,0.40044627,-0.037228685,-0.5324477,-0.6529597,0.17270981,-0.5101567,0.049423967,-0.67159593,-0.41370338,0.4914595,0.6649959,-0.435731,0.54098046,-0.5106309,-0.5846019,0.7395512
IPC-298,-0.17082156,0.3578399,0.47989485,0.39856997,-0.24207668,0.27485785,-0.4829645,0.18246375,0.11239836,-0.20288835,0.34989083,0.47434708,0.018380946,-0.3029268,-0.49403515,-0.3659664,0.1844654,0.16218196,-0.23412679,0.1595235,-0.25443336,-0.17171626,-0.36638987,0.28892705,-0.46309,-0.12750736,-0.35784554,-0.2695754,0.46250552,0.49328226,-0.30461514,0.28230938,-0.3343986,-0.21081872,0.46028864
ECC12,0.111071244,0.2800386,0.85716,0.075175665,0.020380314,0.4596522,-0.34870717,0.097481236,0.25794408,-0.41059554,0.4264798,0.6940364,-0.20396899,-0.068497896,-0.38920167,-0.77375066,0.44749755,0.023806207,-0.009659154,0.40044627,-0.037228685,-0.5324477,-0.6529597,0.17270981,-0.5101567,0.049423967,-0.67159593,-0.41370338,0.4914595,0.6649959,-0.435731,0.54098046,-0.5106309,-0.5846019,0.7395512
BT-474,0.111071244,0.2800386,0.85716,0.075175665,0.020380314,0.4596522,-0.34870717,0.097481236,0.25794408,-0.41059554,0.4264798,0.6940364,-0.20396899,-0.068497896,-0.38920167,-0.77375066,0.44749755,0.023806207,-0.009659154,0.40044627,-0.037228685,-0.5324477,-0.6529597,0.17270981,-0.5101567,0.049423967,-0.67159593,-0.41370338,0.4914595,0.6649959,-0.435731,0.54098046,-0.5106309,-0.5846019,0.7395512
RPMI-8226,-0.17763409,0.3660869,0.51333344,0.43811744,-0.26464862,0.2831238,-0.45418295,0.1646605,0.1335773,-0.15887015,0.38803074,0.5013858,0.044587564,-0.317459,-0.51135385,-0.33002856,0.21930748,0.20283526,-0.21091846,0.15053429,-0.21537317,-0.17018132,-0.36202168,0.323966,-0.4793341,-0.091915384,-0.3980165,-0.2376599,0.43508938,0.46036586,-0.2697343,0.26293477,-0.33907422,-0.24360566,0.42589483
C-33 A,-1.0869337,0.63937616,0.35028714,1.4926986,-0.73059595,0.11931055,-0.23905733,-0.64554054,1.141711,-0.07683812,0.4221605,1.5190518,0.9842791,-1.2330092,-1.7853571,-0.56002307,-0.19551776,1.2213153,0.9299717,-0.48367807,0.63604003,-1.1877581,0.1845499,0.77026784,-1.3279519,0.9705019,-1.1268283,0.90103096,0.728873,0.2644486,0.027983228,0.69159895,-0.9723284,-1.4775844,-0.022098646
ECC4,-0.17763409,0.3660869,0.51333344,0.43811744,-0.26464862,0.2831238,-0.45418295,0.1646605,0.1335773,-0.15887015,0.38803074,0.5013858,0.044587564,-0.317459,-0.51135385,-0.33002856,0.21930748,0.20283526,-0.21091846,0.15053429,-0.21537317,-0.17018132,-0.36202168,0.323966,-0.4793341,-0.091915384,-0.3980165,-0.2376599,0.43508938,0.46036586,-0.2697343,0.26293477,-0.33907422,-0.24360566,0.42589483
MES-SA,-0.1840543,0.37385896,0.54484636,0.47538748,-0.2859207,0.29091373,-0.42705882,0.14788249,0.15353662,-0.11738679,0.42397428,0.52686745,0.069285035,-0.33115432,-0.52767515,-0.29616028,0.2521431,0.24114747,-0.18904662,0.14206272,-0.17856231,-0.16873477,-0.35790503,0.35698718,-0.49464276,-0.058373038,-0.43587416,-0.20758231,0.40925202,0.429345,-0.2368621,0.2446759,-0.34348062,-0.27450448,0.3934816
NCI-H2030,-0.015121404,0.17462952,0.9198876,0.09768004,0.2810506,0.60764307,-0.5232049,-0.12540066,0.48704845,-0.4223942,0.51597685,0.8510217,-0.279214,-0.17262302,-0.5345132,-1.0419683,0.43397897,0.18657091,0.18414502,0.48702037,0.15999284,-0.8303237,-0.5747491,0.14337084,-0.6895069,0.22543985,-0.80919915,-0.32679376,0.61316115,0.7530236,-0.3396885,0.79524654,-0.5749931,-0.7231236,0.8556323
CTB-1,-0.5984627,1.0442574,-0.27297747,0.88671327,-1.4864218,-0.62174565,0.28569406,0.15872154,0.42788288,-1.0630653,-0.63275295,1.11329,1.1358607,-0.75250417,-1.4168556,-0.6065726,-0.769256,0.12644033,0.50699985,-0.82122606,-0.29316676,-0.8425823,-0.25516486,0.35956967,-0.7370311,0.28869623,-0.4864194,0.39414206,0.9070086,0.57228684,-1.0665885,0.4326658,-1.1555651,-1.3451037,0.15321615
KYSE-150,0.111071244,0.2800386,0.85716,0.075175665,0.020380314,0.4596522,-0.34870717,0.097481236,0.25794408,-0.41059554,0.4264798,0.6940364,-0.20396899,-0.068497896,-0.38920167,-0.77375066,0.44749755,0.023806207,-0.009659154,0.40044627,-0.037228685,-0.5324477,-0.6529597,0.17270981,-0.5101567,0.049423967,-0.67159593,-0.41370338,0.4914595,0.6649959,-0.435731,0.54098046,-0.5106309,-0.5846019,0.7395512
GCIY,0.111071244,0.2800386,0.85716,0.075175665,0.020380314,0.4596522,-0.34870717,0.097481236,0.25794408,-0.41059554,0.4264798,0.6940364,-0.20396899,-0.068497896,-0.38920167,-0.77375066,0.44749755,0.023806207,-0.009659154,0.40044627,-0.037228685,-0.5324477,-0.6529597,0.17270981,-0.5101567,0.049423967,-0.67159593,-0.41370338,0.4914595,0.6649959,-0.435731,0.54098046,-0.5106309,-0.5846019,0.7395512
SJNB-6,0.111071244,0.2800386,0.85716,0.075175665,0.020380314,0.4596522,-0.34870717,0.097481236,0.25794408,-0.41059554,0.4264798,0.6940364,-0.20396899,-0.068497896,-0.38920167,-0.77375066,0.44749755,0.023806207,-0.009659154,0.40044627,-0.037228685,-0.5324477,-0.6529597,0.17270981,-0.5101567,0.049423967,-0.67159593,-0.41370338,0.4914595,0.6649959,-0.435731,0.54098046,-0.5106309,-0.5846019,0.7395512
BHY,-0.17082156,0.3578399,0.47989485,0.39856997,-0.24207668,0.27485785,-0.4829645,0.18246375,0.11239836,-0.20288835,0.34989083,0.47434708,0.018380946,-0.3029268,-0.49403515,-0.3659664,0.1844654,0.16218196,-0.23412679,0.1595235,-0.25443336,-0.17171626,-0.36638987,0.28892705,-0.46309,-0.12750736,-0.35784554,-0.2695754,0.46250552,0.49328226,-0.30461514,0.28230938,-0.3343986,-0.21081872,0.46028864
A3/Kawakami,-0.1840543,0.37385896,0.54484636,0.47538748,-0.2859207,0.29091373,-0.42705882,0.14788249,0.15353662,-0.11738679,0.42397428,0.52686745,0.069285035,-0.33115432,-0.52767515,-0.29616028,0.2521431,0.24114747,-0.18904662,0.14206272,-0.17856231,-0.16873477,-0.35790503,0.35698718,-0.49464276,-0.058373038,-0.43587416,-0.20758231,0.40925202,0.429345,-0.2368621,0.2446759,-0.34348062,-0.27450448,0.3934816
Onda 11,-0.076544955,0.34224293,0.5888534,0.29950088,-0.18240663,0.31951302,-0.42956096,0.17343503,0.1392044,-0.26456648,0.36630532,0.52884305,-0.04299157,-0.22458501,-0.45166242,-0.4688436,0.2646874,0.108410135,-0.18092825,0.22564757,-0.2036762,-0.2582183,-0.45850885,0.25610656,-0.46393508,-0.08730321,-0.4421104,-0.31944177,0.46218026,0.5384546,-0.35124147,0.34131518,-0.38269076,-0.31309536,0.5357664
SW626,-0.22939155,0.45185205,0.37678102,0.46542636,-0.4125029,0.15205851,-0.37768856,0.179212,0.15560731,-0.32069868,0.21530737,0.5618571,0.17143162,-0.36450118,-0.62042516,-0.39891997,0.05384316,0.15728676,-0.13262165,0.025199471,-0.25973833,-0.26359844,-0.3511564,0.2986023,-0.50060916,-0.070503876,-0.3754551,-0.17867225,0.5233849,0.50410277,-0.40897545,0.30290228,-0.44686604,-0.36617106,0.41823182
LXF 289,-0.17082156,0.3578399,0.47989485,0.39856997,-0.24207668,0.27485785,-0.4829645,0.18246375,0.11239836,-0.20288835,0.34989083,0.47434708,0.018380946,-0.3029268,-0.49403515,-0.3659664,0.1844654,0.16218196,-0.23412679,0.1595235,-0.25443336,-0.17171626,-0.36638987,0.28892705,-0.46309,-0.12750736,-0.35784554,-0.2695754,0.46250552,0.49328226,-0.30461514,0.28230938,-0.3343986,-0.21081872,0.46028864
EFM-19,-0.17082156,0.3578399,0.47989485,0.39856997,-0.24207668,0.27485785,-0.4829645,0.18246375,0.11239836,-0.20288835,0.34989083,0.47434708,0.018380946,-0.3029268,-0.49403515,-0.3659664,0.1844654,0.16218196,-0.23412679,0.1595235,-0.25443336,-0.17171626,-0.36638987,0.28892705,-0.46309,-0.12750736,-0.35784554,-0.2695754,0.46250552,0.49328226,-0.30461514,0.28230938,-0.3343986,-0.21081872,0.46028864
CA46,0.111071244,0.2800386,0.85716,0.075175665,0.020380314,0.4596522,-0.34870717,0.097481236,0.25794408,-0.41059554,0.4264798,0.6940364,-0.20396899,-0.068497896,-0.38920167,-0.77375066,0.44749755,0.023806207,-0.009659154,0.40044627,-0.037228685,-0.5324477,-0.6529597,0.17270981,-0.5101567,0.049423967,-0.67159593,-0.41370338,0.4914595,0.6649959,-0.435731,0.54098046,-0.5106309,-0.5846019,0.7395512
ES5,0.111071244,0.2800386,0.85716,0.075175665,0.020380314,0.4596522,-0.34870717,0.097481236,0.25794408,-0.41059554,0.4264798,0.6940364,-0.20396899,-0.068497896,-0.38920167,-0.77375066,0.44749755,0.023806207,-0.009659154,0.40044627,-0.037228685,-0.5324477,-0.6529597,0.17270981,-0.5101567,0.049423967,-0.67159593,-0.41370338,0.4914595,0.6649959,-0.435731,0.54098046,-0.5106309,-0.5846019,0.7395512
MC/CAR,-0.46315834,0.34819177,0.5927175,0.7724169,-0.21974508,0.3861623,-0.5081459,-0.15969385,0.48408496,0.035420705,0.587772,0.7962889,0.21516939,-0.60219777,-0.8537186,-0.37935048,0.2336619,0.621828,0.11451505,0.07885361,0.13944902,-0.45870414,-0.16410185,0.49193493,-0.772137,0.2627295,-0.67293835,0.09886487,0.46957284,0.366137,-0.00654349,0.4090122,-0.44322318,-0.53496337,0.30268258
SK-N-AS,-0.46315834,0.34819177,0.5927175,0.7724169,-0.21974508,0.3861623,-0.5081459,-0.15969385,0.48408496,0.035420705,0.587772,0.7962889,0.21516939,-0.60219777,-0.8537186,-0.37935048,0.2336619,0.621828,0.11451505,0.07885361,0.13944902,-0.45870414,-0.16410185,0.49193493,-0.772137,0.2627295,-0.67293835,0.09886487,0.46957284,0.366137,-0.00654349,0.4090122,-0.44322318,-0.53496337,0.30268258
OE19,0.111071244,0.2800386,0.85716,0.075175665,0.020380314,0.4596522,-0.34870717,0.097481236,0.25794408,-0.41059554,0.4264798,0.6940364,-0.20396899,-0.068497896,-0.38920167,-0.77375066,0.44749755,0.023806207,-0.009659154,0.40044627,-0.037228685,-0.5324477,-0.6529597,0.17270981,-0.5101567,0.049423967,-0.67159593,-0.41370338,0.4914595,0.6649959,-0.435731,0.54098046,-0.5106309,-0.5846019,0.7395512
A101D,-0.2208663,0.4184221,0.7255341,0.68908507,-0.40788984,0.33557937,-0.27153566,0.051681355,0.26797852,0.12046881,0.630066,0.6729731,0.21089439,-0.40968004,-0.62125784,-0.1019676,0.44041488,0.46082053,-0.06363872,0.093488805,0.03250227,-0.16044065,-0.33430114,0.54632264,-0.5824189,0.13395076,-0.6529409,-0.03512463,0.2611069,0.25147888,-0.048380863,0.13998383,-0.3687458,-0.45167106,0.20763208
MZ-MEL-7,-0.17082156,0.3578399,0.47989485,0.39856997,-0.24207668,0.27485785,-0.4829645,0.18246375,0.11239836,-0.20288835,0.34989083,0.47434708,0.018380946,-0.3029268,-0.49403515,-0.3659664,0.1844654,0.16218196,-0.23412679,0.1595235,-0.25443336,-0.17171626,-0.36638987,0.28892705,-0.46309,-0.12750736,-0.35784554,-0.2695754,0.46250552,0.49328226,-0.30461514,0.28230938,-0.3343986,-0.21081872,0.46028864
CAL-54,-0.31774047,0.54814416,0.99060184,1.1042956,-0.7161308,0.34867936,0.06114605,-0.12077322,0.49432653,0.4790598,0.9232577,0.9793729,0.54462487,-0.5821911,-0.8554051,0.2248616,0.7041203,0.8479791,0.21357392,-0.06506753,0.4041649,-0.1952234,-0.2842108,0.8874987,-0.75838494,0.5059268,-1.0475988,0.31986317,0.031030718,-0.058303755,0.22984447,-0.0346914,-0.47416735,-0.8497355,-0.14480346
IGR-1,-0.23709247,0.43806484,0.8051785,0.7832798,-0.46165198,0.3552673,-0.20298338,0.009277337,0.3184228,0.225312,0.72090816,0.7373743,0.27331367,-0.444293,-0.6625077,-0.01637038,0.5234022,0.55764914,-0.00836079,0.07207815,0.12553638,-0.15678473,-0.3238969,0.62977886,-0.6211093,0.2187242,-0.7486207,0.040892128,0.19580674,0.17307816,0.03469884,0.09383714,-0.3798823,-0.5297634,0.1257124
Kuramochi,0.111071244,0.2800386,0.85716,0.075175665,0.020380314,0.4596522,-0.34870717,0.097481236,0.25794408,-0.41059554,0.4264798,0.6940364,-0.20396899,-0.068497896,-0.38920167,-0.77375066,0.44749755,0.023806207,-0.009659154,0.40044627,-0.037228685,-0.5324477,-0.6529597,0.17270981,-0.5101567,0.049423967,-0.67159593,-0.41370338,0.4914595,0.6649959,-0.435731,0.54098046,-0.5106309,-0.5846019,0.7395512
PC-3,-0.53327304,0.42905283,0.24427253,0.6566694,-0.3190446,0.16955574,-0.5436755,-0.08408637,0.4460281,-0.38331386,0.1797459,0.77869844,0.28745735,-0.628307,-0.9585467,-0.6494374,-0.1675196,0.4042086,0.14325885,-0.06429746,-0.0780507,-0.6222711,-0.14837837,0.3057075,-0.7519655,0.1551106,-0.47256178,0.06299197,0.7282942,0.57470274,-0.34386915,0.5695868,-0.5816175,-0.57604337,0.4419593
Lu-134-A,-0.53327304,0.42905283,0.24427253,0.6566694,-0.3190446,0.16955574,-0.5436755,-0.08408637,0.4460281,-0.38331386,0.1797459,0.77869844,0.28745735,-0.628307,-0.9585467,-0.6494374,-0.1675196,0.4042086,0.14325885,-0.06429746,-0.0780507,-0.6222711,-0.14837837,0.3057075,-0.7519655,0.1551106,-0.47256178,0.06299197,0.7282942,0.57470274,-0.34386915,0.5695868,-0.5816175,-0.57604337,0.4419593
TYK-nu,-0.17082156,0.3578399,0.47989485,0.39856997,-0.24207668,0.27485785,-0.4829645,0.18246375,0.11239836,-0.20288835,0.34989083,0.47434708,0.018380946,-0.3029268,-0.49403515,-0.3659664,0.1844654,0.16218196,-0.23412679,0.1595235,-0.25443336,-0.17171626,-0.36638987,0.28892705,-0.46309,-0.12750736,-0.35784554,-0.2695754,0.46250552,0.49328226,-0.30461514,0.28230938,-0.3343986,-0.21081872,0.46028864
ESS-1,-0.61143863,0.46246135,0.8970067,1.1611979,-0.42641002,0.43886328,-0.18151361,-0.4841112,0.90899795,0.2353541,0.840542,1.3057964,0.55541784,-0.82349974,-1.2394749,-0.34857056,0.4423547,1.0578563,0.6300519,-0.0668975,0.665084,-0.82853055,-0.124243125,0.7831087,-1.0906231,0.81373143,-1.2247331,0.52935034,0.3748839,0.16964467,0.20978121,0.47189945,-0.7113095,-1.2096977,0.067210495
K-562,-0.17082156,0.3578399,0.47989485,0.39856997,-0.24207668,0.27485785,-0.4829645,0.18246375,0.11239836,-0.20288835,0.34989083,0.47434708,0.018380946,-0.3029268,-0.49403515,-0.3659664,0.1844654,0.16218196,-0.23412679,0.1595235,-0.25443336,-0.17171626,-0.36638987,0.28892705,-0.46309,-0.12750736,-0.35784554,-0.2695754,0.46250552,0.49328226,-0.30461514,0.28230938,-0.3343986,-0.21081872,0.46028864
OVCAR-3,0.111071244,0.2800386,0.85716,0.075175665,0.020380314,0.4596522,-0.34870717,0.097481236,0.25794408,-0.41059554,0.4264798,0.6940364,-0.20396899,-0.068497896,-0.38920167,-0.77375066,0.44749755,0.023806207,-0.009659154,0.40044627,-0.037228685,-0.5324477,-0.6529597,0.17270981,-0.5101567,0.049423967,-0.67159593,-0.41370338,0.4914595,0.6649959,-0.435731,0.54098046,-0.5106309,-0.5846019,0.7395512
CW-2,-0.42293411,0.7200617,0.7535398,1.1881015,-1.0190837,0.10238505,0.23134683,-0.10672077,0.5534906,0.20157297,0.62012935,1.1172961,0.8099141,-0.6843668,-1.0794173,0.120272905,0.4123972,0.79212666,0.38286403,-0.31389213,0.34934083,-0.3741999,-0.25981504,0.8661595,-0.812208,0.57524383,-1.0357046,0.45876363,0.17975482,0.00014498064,-0.011268343,0.027146967,-0.68575895,-1.1119521,-0.18665895
Calu-1,-0.21676363,0.41345558,0.7053966,0.6652687,-0.3942965,0.33060142,-0.28886855,0.06240287,0.2552241,0.093960054,0.60709727,0.65668976,0.19511218,-0.4009284,-0.61082816,-0.123610176,0.4194322,0.43633822,-0.07761529,0.098902315,0.008979345,-0.16136503,-0.33693177,0.5252214,-0.57263637,0.11251647,-0.628749,-0.05434486,0.2776175,0.2713019,-0.0693869,0.15165165,-0.36593002,-0.431926,0.22834483
Lu-139,0.111071244,0.2800386,0.85716,0.075175665,0.020380314,0.4596522,-0.34870717,0.097481236,0.25794408,-0.41059554,0.4264798,0.6940364,-0.20396899,-0.068497896,-0.38920167,-0.77375066,0.44749755,0.023806207,-0.009659154,0.40044627,-0.037228685,-0.5324477,-0.6529597,0.17270981,-0.5101567,0.049423967,-0.67159593,-0.41370338,0.4914595,0.6649959,-0.435731,0.54098046,-0.5106309,-0.5846019,0.7395512
NCI-H1395,-0.28448263,0.45972016,0.929091,0.9445277,-0.5253337,0.39820135,-0.116680786,-0.08084898,0.42044893,0.3966456,0.8736361,0.85165775,0.370353,-0.5172776,-0.7472097,0.101080276,0.6471983,0.73377997,0.095347606,0.041176103,0.2900039,-0.17450307,-0.29099965,0.7626386,-0.7014816,0.3687351,-0.9081097,0.17556359,0.10448011,0.05333027,0.1812992,0.041683357,-0.400111,-0.6597241,0.0006178002
MRK-nu-1,-0.46315834,0.34819177,0.5927175,0.7724169,-0.21974508,0.3861623,-0.5081459,-0.15969385,0.48408496,0.035420705,0.587772,0.7962889,0.21516939,-0.60219777,-0.8537186,-0.37935048,0.2336619,0.621828,0.11451505,0.07885361,0.13944902,-0.45870414,-0.16410185,0.49193493,-0.772137,0.2627295,-0.67293835,0.09886487,0.46957284,0.366137,-0.00654349,0.4090122,-0.44322318,-0.53496337,0.30268258
NCI-H1734,-0.17763409,0.3660869,0.51333344,0.43811744,-0.26464862,0.2831238,-0.45418295,0.1646605,0.1335773,-0.15887015,0.38803074,0.5013858,0.044587564,-0.317459,-0.51135385,-0.33002856,0.21930748,0.20283526,-0.21091846,0.15053429,-0.21537317,-0.17018132,-0.36202168,0.323966,-0.4793341,-0.091915384,-0.3980165,-0.2376599,0.43508938,0.46036586,-0.2697343,0.26293477,-0.33907422,-0.24360566,0.42589483
SK-MEL-1,-0.28448263,0.45972016,0.929091,0.9445277,-0.5253337,0.39820135,-0.116680786,-0.08084898,0.42044893,0.3966456,0.8736361,0.85165775,0.370353,-0.5172776,-0.7472097,0.101080276,0.6471983,0.73377997,0.095347606,0.041176103,0.2900039,-0.17450307,-0.29099965,0.7626386,-0.7014816,0.3687351,-0.9081097,0.17556359,0.10448011,0.05333027,0.1812992,0.041683357,-0.400111,-0.6597241,0.0006178002
LP-1,0.111071244,0.2800386,0.85716,0.075175665,0.020380314,0.4596522,-0.34870717,0.097481236,0.25794408,-0.41059554,0.4264798,0.6940364,-0.20396899,-0.068497896,-0.38920167,-0.77375066,0.44749755,0.023806207,-0.009659154,0.40044627,-0.037228685,-0.5324477,-0.6529597,0.17270981,-0.5101567,0.049423967,-0.67159593,-0.41370338,0.4914595,0.6649959,-0.435731,0.54098046,-0.5106309,-0.5846019,0.7395512
CaR-1,-0.17082156,0.3578399,0.47989485,0.39856997,-0.24207668,0.27485785,-0.4829645,0.18246375,0.11239836,-0.20288835,0.34989083,0.47434708,0.018380946,-0.3029268,-0.49403515,-0.3659664,0.1844654,0.16218196,-0.23412679,0.1595235,-0.25443336,-0.17171626,-0.36638987,0.28892705,-0.46309,-0.12750736,-0.35784554,-0.2695754,0.46250552,0.49328226,-0.30461514,0.28230938,-0.3343986,-0.21081872,0.46028864
SK-PN-DW,-0.53327304,0.42905283,0.24427253,0.6566694,-0.3190446,0.16955574,-0.5436755,-0.08408637,0.4460281,-0.38331386,0.1797459,0.77869844,0.28745735,-0.628307,-0.9585467,-0.6494374,-0.1675196,0.4042086,0.14325885,-0.06429746,-0.0780507,-0.6222711,-0.14837837,0.3057075,-0.7519655,0.1551106,-0.47256178,0.06299197,0.7282942,0.57470274,-0.34386915,0.5695868,-0.5816175,-0.57604337,0.4419593
L-428,0.111071244,0.2800386,0.85716,0.075175665,0.020380314,0.4596522,-0.34870717,0.097481236,0.25794408,-0.41059554,0.4264798,0.6940364,-0.20396899,-0.068497896,-0.38920167,-0.77375066,0.44749755,0.023806207,-0.009659154,0.40044627,-0.037228685,-0.5324477,-0.6529597,0.17270981,-0.5101567,0.049423967,-0.67159593,-0.41370338,0.4914595,0.6649959,-0.435731,0.54098046,-0.5106309,-0.5846019,0.7395512
LOX-IMVI,-0.23709247,0.43806484,0.8051785,0.7832798,-0.46165198,0.3552673,-0.20298338,0.009277337,0.3184228,0.225312,0.72090816,0.7373743,0.27331367,-0.444293,-0.6625077,-0.01637038,0.5234022,0.55764914,-0.00836079,0.07207815,0.12553638,-0.15678473,-0.3238969,0.62977886,-0.6211093,0.2187242,-0.7486207,0.040892128,0.19580674,0.17307816,0.03469884,0.09383714,-0.3798823,-0.5297634,0.1257124
HCT 116,-0.19089794,0.3821436,0.5784376,0.51511556,-0.30859575,0.29921743,-0.39814582,0.12999792,0.17481227,-0.07316754,0.46228838,0.55402964,0.09561134,-0.34575287,-0.5450729,-0.2600583,0.28714433,0.28198645,-0.1657323,0.13303244,-0.13932373,-0.16719283,-0.35351688,0.39218614,-0.51096106,-0.02261851,-0.4762286,-0.17552105,0.38171068,0.3962783,-0.20182194,0.22521281,-0.3481776,-0.30744117,0.3589307
MeWo,0.03153252,0.32436273,0.71376216,0.18592936,-0.11400168,0.37070513,-0.36833984,0.16308461,0.1699345,-0.3352735,0.38512272,0.5913165,-0.11334823,-0.134775,-0.40308687,-0.5867807,0.35665286,0.04676681,-0.11994212,0.30145133,-0.14548883,-0.35738307,-0.56411284,0.21848156,-0.46490386,-0.041213684,-0.53871053,-0.37660795,0.46180737,0.5902396,-0.40469328,0.40895867,-0.4380523,-0.43034393,0.6222931
COLO 684,-0.8118312,0.5041253,0.19257051,0.9706482,-0.44366208,0.12668037,-0.4938504,-0.33326873,0.75285786,-0.35974187,0.19147159,1.082853,0.56147146,-0.90632063,-1.3426003,-0.7291949,-0.29629475,0.7129523,0.4859983,-0.24897593,0.17868428,-0.9342953,0.020771353,0.43494344,-1.0106025,0.47358313,-0.688388,0.40346444,0.8231244,0.5217074,-0.25106388,0.7080871,-0.7692055,-0.94043386,0.3149072
SW48,-1.0357139,0.5786319,0.7754808,1.7055928,-0.68683106,0.35439348,-0.13633822,-0.76338077,1.2295588,0.44866607,0.92074364,1.5996423,0.97624713,-1.243771,-1.7230434,-0.20129675,0.28656572,1.5374533,0.9551234,-0.36382866,0.9453321,-1.0181081,0.18182783,1.0410297,-1.3868644,1.161932,-1.4207106,1.0144614,0.40473554,-0.023931876,0.44985223,0.48313844,-0.84374094,-1.5118849,-0.24556363
NCI-H1155,-0.7742502,0.3215547,0.2096826,0.781068,-0.073704295,0.2980787,-0.80003315,-0.33603933,0.6879316,-0.33688363,0.26760882,0.90911245,0.260714,-0.8277556,-1.1710471,-0.86202776,-0.26313633,0.6477098,0.31811365,-0.028886918,0.10266739,-0.88602364,0.034095578,0.3037947,-0.96121943,0.32173827,-0.55057275,0.21435456,0.8713545,0.6332207,-0.18600914,0.80906075,-0.6098796,-0.6380645,0.5031461
T24,0.111071244,0.2800386,0.85716,0.075175665,0.020380314,0.4596522,-0.34870717,0.097481236,0.25794408,-0.41059554,0.4264798,0.6940364,-0.20396899,-0.068497896,-0.38920167,-0.77375066,0.44749755,0.023806207,-0.009659154,0.40044627,-0.037228685,-0.5324477,-0.6529597,0.17270981,-0.5101567,0.049423967,-0.67159593,-0.41370338,0.4914595,0.6649959,-0.435731,0.54098046,-0.5106309,-0.5846019,0.7395512
NCI-H838,0.18087524,0.29965568,0.8863625,0.028994897,-0.019478902,0.44144297,-0.2837438,0.1487823,0.2123977,-0.4329773,0.4111248,0.6776431,-0.21056788,-0.010674474,-0.33596462,-0.7497476,0.4837318,-0.038412657,-0.035670783,0.40619788,-0.06508484,-0.49441016,-0.7100377,0.16649091,-0.46624255,0.022473354,-0.6721937,-0.45560086,0.46129215,0.6617967,-0.47855362,0.50242925,-0.51455146,-0.5923594,0.74185675
SK-LU-1,-0.17082156,0.3578399,0.47989485,0.39856997,-0.24207668,0.27485785,-0.4829645,0.18246375,0.11239836,-0.20288835,0.34989083,0.47434708,0.018380946,-0.3029268,-0.49403515,-0.3659664,0.1844654,0.16218196,-0.23412679,0.1595235,-0.25443336,-0.17171626,-0.36638987,0.28892705,-0.46309,-0.12750736,-0.35784554,-0.2695754,0.46250552,0.49328226,-0.30461514,0.28230938,-0.3343986,-0.21081872,0.46028864
ETK-1,-0.17082156,0.3578399,0.47989485,0.39856997,-0.24207668,0.27485785,-0.4829645,0.18246375,0.11239836,-0.20288835,0.34989083,0.47434708,0.018380946,-0.3029268,-0.49403515,-0.3659664,0.1844654,0.16218196,-0.23412679,0.1595235,-0.25443336,-0.17171626,-0.36638987,0.28892705,-0.46309,-0.12750736,-0.35784554,-0.2695754,0.46250552,0.49328226,-0.30461514,0.28230938,-0.3343986,-0.21081872,0.46028864
T98G,-0.17082156,0.3578399,0.47989485,0.39856997,-0.24207668,0.27485785,-0.4829645,0.18246375,0.11239836,-0.20288835,0.34989083,0.47434708,0.018380946,-0.3029268,-0.49403515,-0.3659664,0.1844654,0.16218196,-0.23412679,0.1595235,-0.25443336,-0.17171626,-0.36638987,0.28892705,-0.46309,-0.12750736,-0.35784554,-0.2695754,0.46250552,0.49328226,-0.30461514,0.28230938,-0.3343986,-0.21081872,0.46028864
SK-MEL-3,-0.0618392,0.39520884,0.92729074,0.5360576,-0.31517768,0.41590172,-0.16726069,0.028426467,0.3232469,0.03363179,0.67485446,0.7783673,0.11683745,-0.28138945,-0.55598223,-0.26310793,0.5934056,0.38610524,0.03786064,0.20319672,0.13669968,-0.30840406,-0.49068382,0.50516534,-0.5909344,0.21850748,-0.8151954,-0.10692893,0.24862659,0.31478247,-0.11332854,0.232945,-0.45375624,-0.6416632,0.3223651
EGI-1,-0.17082156,0.3578399,0.47989485,0.39856997,-0.24207668,0.27485785,-0.4829645,0.18246375,0.11239836,-0.20288835,0.34989083,0.47434708,0.018380946,-0.3029268,-0.49403515,-0.3659664,0.1844654,0.16218196,-0.23412679,0.1595235,-0.25443336,-0.17171626,-0.36638987,0.28892705,-0.46309,-0.12750736,-0.35784554,-0.2695754,0.46250552,0.49328226,-0.30461514,0.28230938,-0.3343986,-0.21081872,0.46028864
NCI-H2081,-0.8118312,0.5041253,0.19257051,0.9706482,-0.44366208,0.12668037,-0.4938504,-0.33326873,0.75285786,-0.35974187,0.19147159,1.082853,0.56147146,-0.90632063,-1.3426003,-0.7291949,-0.29629475,0.7129523,0.4859983,-0.24897593,0.17868428,-0.9342953,0.020771353,0.43494344,-1.0106025,0.47358313,-0.688388,0.40346444,0.8231244,0.5217074,-0.25106388,0.7080871,-0.7692055,-0.94043386,0.3149072
EB2,0.111071244,0.2800386,0.85716,0.075175665,0.020380314,0.4596522,-0.34870717,0.097481236,0.25794408,-0.41059554,0.4264798,0.6940364,-0.20396899,-0.068497896,-0.38920167,-0.77375066,0.44749755,0.023806207,-0.009659154,0.40044627,-0.037228685,-0.5324477,-0.6529597,0.17270981,-0.5101567,0.049423967,-0.67159593,-0.41370338,0.4914595,0.6649959,-0.435731,0.54098046,-0.5106309,-0.5846019,0.7395512
SJNB-13,0.111071244,0.2800386,0.85716,0.075175665,0.020380314,0.4596522,-0.34870717,0.097481236,0.25794408,-0.41059554,0.4264798,0.6940364,-0.20396899,-0.068497896,-0.38920167,-0.77375066,0.44749755,0.023806207,-0.009659154,0.40044627,-0.037228685,-0.5324477,-0.6529597,0.17270981,-0.5101567,0.049423967,-0.67159593,-0.41370338,0.4914595,0.6649959,-0.435731,0.54098046,-0.5106309,-0.5846019,0.7395512
CAL-148,0.111071244,0.2800386,0.85716,0.075175665,0.020380314,0.4596522,-0.34870717,0.097481236,0.25794408,-0.41059554,0.4264798,0.6940364,-0.20396899,-0.068497896,-0.38920167,-0.77375066,0.44749755,0.023806207,-0.009659154,0.40044627,-0.037228685,-0.5324477,-0.6529597,0.17270981,-0.5101567,0.049423967,-0.67159593,-0.41370338,0.4914595,0.6649959,-0.435731,0.54098046,-0.5106309,-0.5846019,0.7395512
SAS,0.111071244,0.2800386,0.85716,0.075175665,0.020380314,0.4596522,-0.34870717,0.097481236,0.25794408,-0.41059554,0.4264798,0.6940364,-0.20396899,-0.068497896,-0.38920167,-0.77375066,0.44749755,0.023806207,-0.009659154,0.40044627,-0.037228685,-0.5324477,-0.6529597,0.17270981,-0.5101567,0.049423967,-0.67159593,-0.41370338,0.4914595,0.6649959,-0.435731,0.54098046,-0.5106309,-0.5846019,0.7395512
CAL-120,0.111071244,0.2800386,0.85716,0.075175665,0.020380314,0.4596522,-0.34870717,0.097481236,0.25794408,-0.41059554,0.4264798,0.6940364,-0.20396899,-0.068497896,-0.38920167,-0.77375066,0.44749755,0.023806207,-0.009659154,0.40044627,-0.037228685,-0.5324477,-0.6529597,0.17270981,-0.5101567,0.049423967,-0.67159593,-0.41370338,0.4914595,0.6649959,-0.435731,0.54098046,-0.5106309,-0.5846019,0.7395512
DK-MG,-0.1840543,0.37385896,0.54484636,0.47538748,-0.2859207,0.29091373,-0.42705882,0.14788249,0.15353662,-0.11738679,0.42397428,0.52686745,0.069285035,-0.33115432,-0.52767515,-0.29616028,0.2521431,0.24114747,-0.18904662,0.14206272,-0.17856231,-0.16873477,-0.35790503,0.35698718,-0.49464276,-0.058373038,-0.43587416,-0.20758231,0.40925202,0.429345,-0.2368621,0.2446759,-0.34348062,-0.27450448,0.3934816
697,-0.46315834,0.34819177,0.5927175,0.7724169,-0.21974508,0.3861623,-0.5081459,-0.15969385,0.48408496,0.035420705,0.587772,0.7962889,0.21516939,-0.60219777,-0.8537186,-0.37935048,0.2336619,0.621828,0.11451505,0.07885361,0.13944902,-0.45870414,-0.16410185,0.49193493,-0.772137,0.2627295,-0.67293835,0.09886487,0.46957284,0.366137,-0.00654349,0.4090122,-0.44322318,-0.53496337,0.30268258
SNU-1,-0.21676363,0.41345558,0.7053966,0.6652687,-0.3942965,0.33060142,-0.28886855,0.06240287,0.2552241,0.093960054,0.60709727,0.65668976,0.19511218,-0.4009284,-0.61082816,-0.123610176,0.4194322,0.43633822,-0.07761529,0.098902315,0.008979345,-0.16136503,-0.33693177,0.5252214,-0.57263637,0.11251647,-0.628749,-0.05434486,0.2776175,0.2713019,-0.0693869,0.15165165,-0.36593002,-0.431926,0.22834483
RCM-1 [Human rectum adenocarcinoma],-0.30954143,0.53128713,0.9671316,1.0630962,-0.67775327,0.35260645,0.022134716,-0.106903285,0.47386315,0.44784865,0.8994878,0.9483394,0.50700575,-0.5659466,-0.83136946,0.19102369,0.68082005,0.8131384,0.18555959,-0.04510486,0.37006795,-0.19243903,-0.28728026,0.85365796,-0.7426286,0.46979743,-1.0092764,0.28421876,0.053665202,-0.027435176,0.20754296,-0.015107664,-0.46086952,-0.8068445,-0.108161055
639V,0.111071244,0.2800386,0.85716,0.075175665,0.020380314,0.4596522,-0.34870717,0.097481236,0.25794408,-0.41059554,0.4264798,0.6940364,-0.20396899,-0.068497896,-0.38920167,-0.77375066,0.44749755,0.023806207,-0.009659154,0.40044627,-0.037228685,-0.5324477,-0.6529597,0.17270981,-0.5101567,0.049423967,-0.67159593,-0.41370338,0.4914595,0.6649959,-0.435731,0.54098046,-0.5106309,-0.5846019,0.7395512
HCC2998,-0.40970173,0.7308822,0.23495567,0.79405564,-0.9477932,-0.13882186,0.010328373,0.10184613,0.35106665,-0.46026534,0.008922983,0.8964317,0.67509216,-0.5825495,-1.0196408,-0.34663764,-0.15487488,0.30156013,0.22393925,-0.36267728,-0.1227002,-0.49921787,-0.29422367,0.4594786,-0.66203505,0.21693306,-0.5770276,0.18367355,0.57745785,0.40531316,-0.5485027,0.28214854,-0.7606093,-0.9013183,0.17472006
RL,0.111071244,0.2800386,0.85716,0.075175665,0.020380314,0.4596522,-0.34870717,0.097481236,0.25794408,-0.41059554,0.4264798,0.6940364,-0.20396899,-0.068497896,-0.38920167,-0.77375066,0.44749755,0.023806207,-0.009659154,0.40044627,-0.037228685,-0.5324477,-0.6529597,0.17270981,-0.5101567,0.049423967,-0.67159593,-0.41370338,0.4914595,0.6649959,-0.435731,0.54098046,-0.5106309,-0.5846019,0.7395512
EFO-21,0.111071244,0.2800386,0.85716,0.075175665,0.020380314,0.4596522,-0.34870717,0.097481236,0.25794408,-0.41059554,0.4264798,0.6940364,-0.20396899,-0.068497896,-0.38920167,-0.77375066,0.44749755,0.023806207,-0.009659154,0.40044627,-0.037228685,-0.5324477,-0.6529597,0.17270981,-0.5101567,0.049423967,-0.67159593,-0.41370338,0.4914595,0.6649959,-0.435731,0.54098046,-0.5106309,-0.5846019,0.7395512
GMS-10,0.5170256,0.24404345,1.2748625,-0.3242434,0.19327912,0.6006643,-0.09332948,0.1165897,0.30797663,-0.65289533,0.46965194,0.87195265,-0.4293962,0.26865909,-0.18488148,-1.116564,0.76976943,-0.23014015,0.15401264,0.6419682,0.11589369,-0.80283964,-1.038495,0.049466953,-0.46925578,0.1658243,-0.9726464,-0.63340324,0.4601324,0.8228621,-0.6448033,0.7128189,-0.6867409,-0.9570344,1.0109783
SK-MM-2,0.111071244,0.2800386,0.85716,0.075175665,0.020380314,0.4596522,-0.34870717,0.097481236,0.25794408,-0.41059554,0.4264798,0.6940364,-0.20396899,-0.068497896,-0.38920167,-0.77375066,0.44749755,0.023806207,-0.009659154,0.40044627,-0.037228685,-0.5324477,-0.6529597,0.17270981,-0.5101567,0.049423967,-0.67159593,-0.41370338,0.4914595,0.6649959,-0.435731,0.54098046,-0.5106309,-0.5846019,0.7395512
AGS,-0.21676363,0.41345558,0.7053966,0.6652687,-0.3942965,0.33060142,-0.28886855,0.06240287,0.2552241,0.093960054,0.60709727,0.65668976,0.19511218,-0.4009284,-0.61082816,-0.123610176,0.4194322,0.43633822,-0.07761529,0.098902315,0.008979345,-0.16136503,-0.33693177,0.5252214,-0.57263637,0.11251647,-0.628749,-0.05434486,0.2776175,0.2713019,-0.0693869,0.15165165,-0.36593002,-0.431926,0.22834483
GCT,-0.19796291,0.39069617,0.6131153,0.5561285,-0.3320041,0.30778968,-0.36829776,0.11153497,0.19677602,-0.0275182,0.50184155,0.5820703,0.12278906,-0.36082357,-0.56303334,-0.22278878,0.32327753,0.32414618,-0.14166395,0.12371012,-0.098816134,-0.16560103,-0.3489868,0.42852348,-0.52780706,0.014292346,-0.5178881,-0.14242291,0.3532786,0.36214215,-0.16564855,0.20512027,-0.3530265,-0.34144303,0.3232624
MZ-PC-1,-0.17082156,0.3578399,0.47989485,0.39856997,-0.24207668,0.27485785,-0.4829645,0.18246375,0.11239836,-0.20288835,0.34989083,0.47434708,0.018380946,-0.3029268,-0.49403515,-0.3659664,0.1844654,0.16218196,-0.23412679,0.1595235,-0.25443336,-0.17171626,-0.36638987,0.28892705,-0.46309,-0.12750736,-0.35784554,-0.2695754,0.46250552,0.49328226,-0.30461514,0.28230938,-0.3343986,-0.21081872,0.46028864
OS-RC-2,-0.21281067,0.4252377,0.40597203,0.44649965,-0.36425608,0.18682241,-0.40749165,0.18013255,0.14337507,-0.28734714,0.2534073,0.53708345,0.12810372,-0.34706977,-0.5846448,-0.38959098,0.09082168,0.15867257,-0.16135727,0.063225955,-0.2582365,-0.23758705,-0.35546893,0.29586327,-0.48998764,-0.08664128,-0.37046993,-0.2044065,0.50615025,0.50103956,-0.37943155,0.29707253,-0.41502705,-0.32219157,0.4301379
BL-41,0.111071244,0.2800386,0.85716,0.075175665,0.020380314,0.4596522,-0.34870717,0.097481236,0.25794408,-0.41059554,0.4264798,0.6940364,-0.20396899,-0.068497896,-0.38920167,-0.77375066,0.44749755,0.023806207,-0.009659154,0.40044627,-0.037228685,-0.5324477,-0.6529597,0.17270981,-0.5101567,0.049423967,-0.67159593,-0.41370338,0.4914595,0.6649959,-0.435731,0.54098046,-0.5106309,-0.5846019,0.7395512
AU565,0.111071244,0.2800386,0.85716,0.075175665,0.020380314,0.4596522,-0.34870717,0.097481236,0.25794408,-0.41059554,0.4264798,0.6940364,-0.20396899,-0.068497896,-0.38920167,-0.77375066,0.44749755,0.023806207,-0.009659154,0.40044627,-0.037228685,-0.5324477,-0.6529597,0.17270981,-0.5101567,0.049423967,-0.67159593,-0.41370338,0.4914595,0.6649959,-0.435731,0.54098046,-0.5106309,-0.5846019,0.7395512
DMS 79,0.111071244,0.2800386,0.85716,0.075175665,0.020380314,0.4596522,-0.34870717,0.097481236,0.25794408,-0.41059554,0.4264798,0.6940364,-0.20396899,-0.068497896,-0.38920167,-0.77375066,0.44749755,0.023806207,-0.009659154,0.40044627,-0.037228685,-0.5324477,-0.6529597,0.17270981,-0.5101567,0.049423967,-0.67159593,-0.41370338,0.4914595,0.6649959,-0.435731,0.54098046,-0.5106309,-0.5846019,0.7395512
TGBC1TKB,-0.53327304,0.42905283,0.24427253,0.6566694,-0.3190446,0.16955574,-0.5436755,-0.08408637,0.4460281,-0.38331386,0.1797459,0.77869844,0.28745735,-0.628307,-0.9585467,-0.6494374,-0.1675196,0.4042086,0.14325885,-0.06429746,-0.0780507,-0.6222711,-0.14837837,0.3057075,-0.7519655,0.1551106,-0.47256178,0.06299197,0.7282942,0.57470274,-0.34386915,0.5695868,-0.5816175,-0.57604337,0.4419593
U-118MG,-0.17082156,0.3578399,0.47989485,0.39856997,-0.24207668,0.27485785,-0.4829645,0.18246375,0.11239836,-0.20288835,0.34989083,0.47434708,0.018380946,-0.3029268,-0.49403515,-0.3659664,0.1844654,0.16218196,-0.23412679,0.1595235,-0.25443336,-0.17171626,-0.36638987,0.28892705,-0.46309,-0.12750736,-0.35784554,-0.2695754,0.46250552,0.49328226,-0.30461514,0.28230938,-0.3343986,-0.21081872,0.46028864
NCI-H2347,-0.46315834,0.34819177,0.5927175,0.7724169,-0.21974508,0.3861623,-0.5081459,-0.15969385,0.48408496,0.035420705,0.587772,0.7962889,0.21516939,-0.60219777,-0.8537186,-0.37935048,0.2336619,0.621828,0.11451505,0.07885361,0.13944902,-0.45870414,-0.16410185,0.49193493,-0.772137,0.2627295,-0.67293835,0.09886487,0.46957284,0.366137,-0.00654349,0.4090122,-0.44322318,-0.53496337,0.30268258
D-336MG,-0.17082156,0.3578399,0.47989485,0.39856997,-0.24207668,0.27485785,-0.4829645,0.18246375,0.11239836,-0.20288835,0.34989083,0.47434708,0.018380946,-0.3029268,-0.49403515,-0.3659664,0.1844654,0.16218196,-0.23412679,0.1595235,-0.25443336,-0.17171626,-0.36638987,0.28892705,-0.46309,-0.12750736,-0.35784554,-0.2695754,0.46250552,0.49328226,-0.30461514,0.28230938,-0.3343986,-0.21081872,0.46028864
MDA-MB-468,-0.53327304,0.42905283,0.24427253,0.6566694,-0.3190446,0.16955574,-0.5436755,-0.08408637,0.4460281,-0.38331386,0.1797459,0.77869844,0.28745735,-0.628307,-0.9585467,-0.6494374,-0.1675196,0.4042086,0.14325885,-0.06429746,-0.0780507,-0.6222711,-0.14837837,0.3057075,-0.7519655,0.1551106,-0.47256178,0.06299197,0.7282942,0.57470274,-0.34386915,0.5695868,-0.5816175,-0.57604337,0.4419593
CAMA-1,-0.53327304,0.42905283,0.24427253,0.6566694,-0.3190446,0.16955574,-0.5436755,-0.08408637,0.4460281,-0.38331386,0.1797459,0.77869844,0.28745735,-0.628307,-0.9585467,-0.6494374,-0.1675196,0.4042086,0.14325885,-0.06429746,-0.0780507,-0.6222711,-0.14837837,0.3057075,-0.7519655,0.1551106,-0.47256178,0.06299197,0.7282942,0.57470274,-0.34386915,0.5695868,-0.5816175,-0.57604337,0.4419593
HT-55,-0.21513069,0.5446462,0.37204906,0.44411004,-0.53697646,0.059435043,-0.2007878,0.137905,0.26998985,-0.5457963,0.06840283,0.7567138,0.29360768,-0.36945423,-0.7556971,-0.5902514,-0.028453995,0.10996383,0.0835362,-0.065744944,-0.18574163,-0.5172118,-0.42550692,0.27077332,-0.5723098,0.07061984,-0.5099876,-0.10533829,0.61739504,0.5797499,-0.58650964,0.4269703,-0.6562368,-0.7014138,0.46216524
Mel Ho,-0.23709247,0.43806484,0.8051785,0.7832798,-0.46165198,0.3552673,-0.20298338,0.009277337,0.3184228,0.225312,0.72090816,0.7373743,0.27331367,-0.444293,-0.6625077,-0.01637038,0.5234022,0.55764914,-0.00836079,0.07207815,0.12553638,-0.15678473,-0.3238969,0.62977886,-0.6211093,0.2187242,-0.7486207,0.040892128,0.19580674,0.17307816,0.03469884,0.09383714,-0.3798823,-0.5297634,0.1257124
A4/Fukuda,0.111071244,0.2800386,0.85716,0.075175665,0.020380314,0.4596522,-0.34870717,0.097481236,0.25794408,-0.41059554,0.4264798,0.6940364,-0.20396899,-0.068497896,-0.38920167,-0.77375066,0.44749755,0.023806207,-0.009659154,0.40044627,-0.037228685,-0.5324477,-0.6529597,0.17270981,-0.5101567,0.049423967,-0.67159593,-0.41370338,0.4914595,0.6649959,-0.435731,0.54098046,-0.5106309,-0.5846019,0.7395512
BC-3,-0.21281067,0.4252377,0.40597203,0.44649965,-0.36425608,0.18682241,-0.40749165,0.18013255,0.14337507,-0.28734714,0.2534073,0.53708345,0.12810372,-0.34706977,-0.5846448,-0.38959098,0.09082168,0.15867257,-0.16135727,0.063225955,-0.2582365,-0.23758705,-0.35546893,0.29586327,-0.48998764,-0.08664128,-0.37046993,-0.2044065,0.50615025,0.50103956,-0.37943155,0.29707253,-0.41502705,-0.32219157,0.4301379
GaMG,-0.17082156,0.3578399,0.47989485,0.39856997,-0.24207668,0.27485785,-0.4829645,0.18246375,0.11239836,-0.20288835,0.34989083,0.47434708,0.018380946,-0.3029268,-0.49403515,-0.3659664,0.1844654,0.16218196,-0.23412679,0.1595235,-0.25443336,-0.17171626,-0.36638987,0.28892705,-0.46309,-0.12750736,-0.35784554,-0.2695754,0.46250552,0.49328226,-0.30461514,0.28230938,-0.3343986,-0.21081872,0.46028864
D-423MG,0.111071244,0.2800386,0.85716,0.075175665,0.020380314,0.4596522,-0.34870717,0.097481236,0.25794408,-0.41059554,0.4264798,0.6940364,-0.20396899,-0.068497896,-0.38920167,-0.77375066,0.44749755,0.023806207,-0.009659154,0.40044627,-0.037228685,-0.5324477,-0.6529597,0.17270981,-0.5101567,0.049423967,-0.67159593,-0.41370338,0.4914595,0.6649959,-0.435731,0.54098046,-0.5106309,-0.5846019,0.7395512
HTC-C3,-0.19796291,0.39069617,0.6131153,0.5561285,-0.3320041,0.30778968,-0.36829776,0.11153497,0.19677602,-0.0275182,0.50184155,0.5820703,0.12278906,-0.36082357,-0.56303334,-0.22278878,0.32327753,0.32414618,-0.14166395,0.12371012,-0.098816134,-0.16560103,-0.3489868,0.42852348,-0.52780706,0.014292346,-0.5178881,-0.14242291,0.3532786,0.36214215,-0.16564855,0.20512027,-0.3530265,-0.34144303,0.3232624
KMOE-2,0.111071244,0.2800386,0.85716,0.075175665,0.020380314,0.4596522,-0.34870717,0.097481236,0.25794408,-0.41059554,0.4264798,0.6940364,-0.20396899,-0.068497896,-0.38920167,-0.77375066,0.44749755,0.023806207,-0.009659154,0.40044627,-0.037228685,-0.5324477,-0.6529597,0.17270981,-0.5101567,0.049423967,-0.67159593,-0.41370338,0.4914595,0.6649959,-0.435731,0.54098046,-0.5106309,-0.5846019,0.7395512
KY821,0.111071244,0.2800386,0.85716,0.075175665,0.020380314,0.4596522,-0.34870717,0.097481236,0.25794408,-0.41059554,0.4264798,0.6940364,-0.20396899,-0.068497896,-0.38920167,-0.77375066,0.44749755,0.023806207,-0.009659154,0.40044627,-0.037228685,-0.5324477,-0.6529597,0.17270981,-0.5101567,0.049423967,-0.67159593,-0.41370338,0.4914595,0.6649959,-0.435731,0.54098046,-0.5106309,-0.5846019,0.7395512
PA-1,-0.46315834,0.34819177,0.5927175,0.7724169,-0.21974508,0.3861623,-0.5081459,-0.15969385,0.48408496,0.035420705,0.587772,0.7962889,0.21516939,-0.60219777,-0.8537186,-0.37935048,0.2336619,0.621828,0.11451505,0.07885361,0.13944902,-0.45870414,-0.16410185,0.49193493,-0.772137,0.2627295,-0.67293835,0.09886487,0.46957284,0.366137,-0.00654349,0.4090122,-0.44322318,-0.53496337,0.30268258
CHP-212,-0.46315834,0.34819177,0.5927175,0.7724169,-0.21974508,0.3861623,-0.5081459,-0.15969385,0.48408496,0.035420705,0.587772,0.7962889,0.21516939,-0.60219777,-0.8537186,-0.37935048,0.2336619,0.621828,0.11451505,0.07885361,0.13944902,-0.45870414,-0.16410185,0.49193493,-0.772137,0.2627295,-0.67293835,0.09886487,0.46957284,0.366137,-0.00654349,0.4090122,-0.44322318,-0.53496337,0.30268258
NCI-H716,0.111071244,0.2800386,0.85716,0.075175665,0.020380314,0.4596522,-0.34870717,0.097481236,0.25794408,-0.41059554,0.4264798,0.6940364,-0.20396899,-0.068497896,-0.38920167,-0.77375066,0.44749755,0.023806207,-0.009659154,0.40044627,-0.037228685,-0.5324477,-0.6529597,0.17270981,-0.5101567,0.049423967,-0.67159593,-0.41370338,0.4914595,0.6649959,-0.435731,0.54098046,-0.5106309,-0.5846019,0.7395512
BB49-HNC,-0.1840543,0.37385896,0.54484636,0.47538748,-0.2859207,0.29091373,-0.42705882,0.14788249,0.15353662,-0.11738679,0.42397428,0.52686745,0.069285035,-0.33115432,-0.52767515,-0.29616028,0.2521431,0.24114747,-0.18904662,0.14206272,-0.17856231,-0.16873477,-0.35790503,0.35698718,-0.49464276,-0.058373038,-0.43587416,-0.20758231,0.40925202,0.429345,-0.2368621,0.2446759,-0.34348062,-0.27450448,0.3934816
UMC-11,-0.17082156,0.3578399,0.47989485,0.39856997,-0.24207668,0.27485785,-0.4829645,0.18246375,0.11239836,-0.20288835,0.34989083,0.47434708,0.018380946,-0.3029268,-0.49403515,-0.3659664,0.1844654,0.16218196,-0.23412679,0.1595235,-0.25443336,-0.17171626,-0.36638987,0.28892705,-0.46309,-0.12750736,-0.35784554,-0.2695754,0.46250552,0.49328226,-0.30461514,0.28230938,-0.3343986,-0.21081872,0.46028864
CAL-12T,-0.19796291,0.39069617,0.6131153,0.5561285,-0.3320041,0.30778968,-0.36829776,0.11153497,0.19677602,-0.0275182,0.50184155,0.5820703,0.12278906,-0.36082357,-0.56303334,-0.22278878,0.32327753,0.32414618,-0.14166395,0.12371012,-0.098816134,-0.16560103,-0.3489868,0.42852348,-0.52780706,0.014292346,-0.5178881,-0.14242291,0.3532786,0.36214215,-0.16564855,0.20512027,-0.3530265,-0.34144303,0.3232624
RERF-LC-MS,0.111071244,0.2800386,0.85716,0.075175665,0.020380314,0.4596522,-0.34870717,0.097481236,0.25794408,-0.41059554,0.4264798,0.6940364,-0.20396899,-0.068497896,-0.38920167,-0.77375066,0.44749755,0.023806207,-0.009659154,0.40044627,-0.037228685,-0.5324477,-0.6529597,0.17270981,-0.5101567,0.049423967,-0.67159593,-0.41370338,0.4914595,0.6649959,-0.435731,0.54098046,-0.5106309,-0.5846019,0.7395512
SW1116,-0.22939155,0.45185205,0.37678102,0.46542636,-0.4125029,0.15205851,-0.37768856,0.179212,0.15560731,-0.32069868,0.21530737,0.5618571,0.17143162,-0.36450118,-0.62042516,-0.39891997,0.05384316,0.15728676,-0.13262165,0.025199471,-0.25973833,-0.26359844,-0.3511564,0.2986023,-0.50060916,-0.070503876,-0.3754551,-0.17867225,0.5233849,0.50410277,-0.40897545,0.30290228,-0.44686604,-0.36617106,0.41823182
MHH-PREB-1,-1.5694155,0.9183333,-0.65452385,1.4815881,-1.0861696,-0.4977868,-0.3186993,-0.7081788,1.3627121,-1.2060981,-0.67748547,1.7814772,1.4360943,-1.5896217,-2.464191,-1.415287,-1.4291066,0.94370663,1.3624161,-1.0440383,0.30910465,-1.9763303,0.40560898,0.37779218,-1.5460507,1.002281,-0.7972886,1.1423929,1.5501937,0.7993688,-0.7955066,1.3013844,-1.5394663,-1.9537076,0.25417987
SF268,-0.17082156,0.3578399,0.47989485,0.39856997,-0.24207668,0.27485785,-0.4829645,0.18246375,0.11239836,-0.20288835,0.34989083,0.47434708,0.018380946,-0.3029268,-0.49403515,-0.3659664,0.1844654,0.16218196,-0.23412679,0.1595235,-0.25443336,-0.17171626,-0.36638987,0.28892705,-0.46309,-0.12750736,-0.35784554,-0.2695754,0.46250552,0.49328226,-0.30461514,0.28230938,-0.3343986,-0.21081872,0.46028864
KS-1 [Human glioblastoma],-0.1840543,0.37385896,0.54484636,0.47538748,-0.2859207,0.29091373,-0.42705882,0.14788249,0.15353662,-0.11738679,0.42397428,0.52686745,0.069285035,-0.33115432,-0.52767515,-0.29616028,0.2521431,0.24114747,-0.18904662,0.14206272,-0.17856231,-0.16873477,-0.35790503,0.35698718,-0.49464276,-0.058373038,-0.43587416,-0.20758231,0.40925202,0.429345,-0.2368621,0.2446759,-0.34348062,-0.27450448,0.3934816
TE-5,-0.17082156,0.3578399,0.47989485,0.39856997,-0.24207668,0.27485785,-0.4829645,0.18246375,0.11239836,-0.20288835,0.34989083,0.47434708,0.018380946,-0.3029268,-0.49403515,-0.3659664,0.1844654,0.16218196,-0.23412679,0.1595235,-0.25443336,-0.17171626,-0.36638987,0.28892705,-0.46309,-0.12750736,-0.35784554,-0.2695754,0.46250552,0.49328226,-0.30461514,0.28230938,-0.3343986,-0.21081872,0.46028864
CHL-1,-0.17082156,0.3578399,0.47989485,0.39856997,-0.24207668,0.27485785,-0.4829645,0.18246375,0.11239836,-0.20288835,0.34989083,0.47434708,0.018380946,-0.3029268,-0.49403515,-0.3659664,0.1844654,0.16218196,-0.23412679,0.1595235,-0.25443336,-0.17171626,-0.36638987,0.28892705,-0.46309,-0.12750736,-0.35784554,-0.2695754,0.46250552,0.49328226,-0.30461514,0.28230938,-0.3343986,-0.21081872,0.46028864
Lu-99A,-0.19089794,0.3821436,0.5784376,0.51511556,-0.30859575,0.29921743,-0.39814582,0.12999792,0.17481227,-0.07316754,0.46228838,0.55402964,0.09561134,-0.34575287,-0.5450729,-0.2600583,0.28714433,0.28198645,-0.1657323,0.13303244,-0.13932373,-0.16719283,-0.35351688,0.39218614,-0.51096106,-0.02261851,-0.4762286,-0.17552105,0.38171068,0.3962783,-0.20182194,0.22521281,-0.3481776,-0.30744117,0.3589307
Ramos.2G6.4C10,0.111071244,0.2800386,0.85716,0.075175665,0.020380314,0.4596522,-0.34870717,0.097481236,0.25794408,-0.41059554,0.4264798,0.6940364,-0.20396899,-0.068497896,-0.38920167,-0.77375066,0.44749755,0.023806207,-0.009659154,0.40044627,-0.037228685,-0.5324477,-0.6529597,0.17270981,-0.5101567,0.049423967,-0.67159593,-0.41370338,0.4914595,0.6649959,-0.435731,0.54098046,-0.5106309,-0.5846019,0.7395512
Raji,0.111071244,0.2800386,0.85716,0.075175665,0.020380314,0.4596522,-0.34870717,0.097481236,0.25794408,-0.41059554,0.4264798,0.6940364,-0.20396899,-0.068497896,-0.38920167,-0.77375066,0.44749755,0.023806207,-0.009659154,0.40044627,-0.037228685,-0.5324477,-0.6529597,0.17270981,-0.5101567,0.049423967,-0.67159593,-0.41370338,0.4914595,0.6649959,-0.435731,0.54098046,-0.5106309,-0.5846019,0.7395512
COLO 800,-0.19796291,0.39069617,0.6131153,0.5561285,-0.3320041,0.30778968,-0.36829776,0.11153497,0.19677602,-0.0275182,0.50184155,0.5820703,0.12278906,-0.36082357,-0.56303334,-0.22278878,0.32327753,0.32414618,-0.14166395,0.12371012,-0.098816134,-0.16560103,-0.3489868,0.42852348,-0.52780706,0.014292346,-0.5178881,-0.14242291,0.3532786,0.36214215,-0.16564855,0.20512027,-0.3530265,-0.34144303,0.3232624
MEG-01,0.111071244,0.2800386,0.85716,0.075175665,0.020380314,0.4596522,-0.34870717,0.097481236,0.25794408,-0.41059554,0.4264798,0.6940364,-0.20396899,-0.068497896,-0.38920167,-0.77375066,0.44749755,0.023806207,-0.009659154,0.40044627,-0.037228685,-0.5324477,-0.6529597,0.17270981,-0.5101567,0.049423967,-0.67159593,-0.41370338,0.4914595,0.6649959,-0.435731,0.54098046,-0.5106309,-0.5846019,0.7395512
A-427,-0.17082156,0.3578399,0.47989485,0.39856997,-0.24207668,0.27485785,-0.4829645,0.18246375,0.11239836,-0.20288835,0.34989083,0.47434708,0.018380946,-0.3029268,-0.49403515,-0.3659664,0.1844654,0.16218196,-0.23412679,0.1595235,-0.25443336,-0.17171626,-0.36638987,0.28892705,-0.46309,-0.12750736,-0.35784554,-0.2695754,0.46250552,0.49328226,-0.30461514,0.28230938,-0.3343986,-0.21081872,0.46028864
Lu-165,0.111071244,0.2800386,0.85716,0.075175665,0.020380314,0.4596522,-0.34870717,0.097481236,0.25794408,-0.41059554,0.4264798,0.6940364,-0.20396899,-0.068497896,-0.38920167,-0.77375066,0.44749755,0.023806207,-0.009659154,0.40044627,-0.037228685,-0.5324477,-0.6529597,0.17270981,-0.5101567,0.049423967,-0.67159593,-0.41370338,0.4914595,0.6649959,-0.435731,0.54098046,-0.5106309,-0.5846019,0.7395512
LB373-MEL-D,-0.1840543,0.37385896,0.54484636,0.47538748,-0.2859207,0.29091373,-0.42705882,0.14788249,0.15353662,-0.11738679,0.42397428,0.52686745,0.069285035,-0.33115432,-0.52767515,-0.29616028,0.2521431,0.24114747,-0.18904662,0.14206272,-0.17856231,-0.16873477,-0.35790503,0.35698718,-0.49464276,-0.058373038,-0.43587416,-0.20758231,0.40925202,0.429345,-0.2368621,0.2446759,-0.34348062,-0.27450448,0.3934816
UO-31,-0.1840543,0.37385896,0.54484636,0.47538748,-0.2859207,0.29091373,-0.42705882,0.14788249,0.15353662,-0.11738679,0.42397428,0.52686745,0.069285035,-0.33115432,-0.52767515,-0.29616028,0.2521431,0.24114747,-0.18904662,0.14206272,-0.17856231,-0.16873477,-0.35790503,0.35698718,-0.49464276,-0.058373038,-0.43587416,-0.20758231,0.40925202,0.429345,-0.2368621,0.2446759,-0.34348062,-0.27450448,0.3934816
RKO,-0.071150064,0.43281257,1.1257807,0.7098945,-0.4135607,0.46970397,-0.0072062104,-0.064162284,0.43768492,0.24010636,0.8724249,0.9298861,0.2331756,-0.33406,-0.6323795,-0.108572066,0.7913248,0.57764906,0.16963127,0.1753368,0.34810963,-0.32374713,-0.49317718,0.673871,-0.6734388,0.40953013,-1.0411865,0.04140042,0.10967328,0.16012895,0.050886713,0.15057944,-0.4903451,-0.83506685,0.16832727
SCH,0.111071244,0.2800386,0.85716,0.075175665,0.020380314,0.4596522,-0.34870717,0.097481236,0.25794408,-0.41059554,0.4264798,0.6940364,-0.20396899,-0.068497896,-0.38920167,-0.77375066,0.44749755,0.023806207,-0.009659154,0.40044627,-0.037228685,-0.5324477,-0.6529597,0.17270981,-0.5101567,0.049423967,-0.67159593,-0.41370338,0.4914595,0.6649959,-0.435731,0.54098046,-0.5106309,-0.5846019,0.7395512
SW982,-0.23709247,0.43806484,0.8051785,0.7832798,-0.46165198,0.3552673,-0.20298338,0.009277337,0.3184228,0.225312,0.72090816,0.7373743,0.27331367,-0.444293,-0.6625077,-0.01637038,0.5234022,0.55764914,-0.00836079,0.07207815,0.12553638,-0.15678473,-0.3238969,0.62977886,-0.6211093,0.2187242,-0.7486207,0.040892128,0.19580674,0.17307816,0.03469884,0.09383714,-0.3798823,-0.5297634,0.1257124
ES6,0.111071244,0.2800386,0.85716,0.075175665,0.020380314,0.4596522,-0.34870717,0.097481236,0.25794408,-0.41059554,0.4264798,0.6940364,-0.20396899,-0.068497896,-0.38920167,-0.77375066,0.44749755,0.023806207,-0.009659154,0.40044627,-0.037228685,-0.5324477,-0.6529597,0.17270981,-0.5101567,0.049423967,-0.67159593,-0.41370338,0.4914595,0.6649959,-0.435731,0.54098046,-0.5106309,-0.5846019,0.7395512
DoHH2,-0.1840543,0.37385896,0.54484636,0.47538748,-0.2859207,0.29091373,-0.42705882,0.14788249,0.15353662,-0.11738679,0.42397428,0.52686745,0.069285035,-0.33115432,-0.52767515,-0.29616028,0.2521431,0.24114747,-0.18904662,0.14206272,-0.17856231,-0.16873477,-0.35790503,0.35698718,-0.49464276,-0.058373038,-0.43587416,-0.20758231,0.40925202,0.429345,-0.2368621,0.2446759,-0.34348062,-0.27450448,0.3934816
HL-60,-0.17082156,0.3578399,0.47989485,0.39856997,-0.24207668,0.27485785,-0.4829645,0.18246375,0.11239836,-0.20288835,0.34989083,0.47434708,0.018380946,-0.3029268,-0.49403515,-0.3659664,0.1844654,0.16218196,-0.23412679,0.1595235,-0.25443336,-0.17171626,-0.36638987,0.28892705,-0.46309,-0.12750736,-0.35784554,-0.2695754,0.46250552,0.49328226,-0.30461514,0.28230938,-0.3343986,-0.21081872,0.46028864
COR-L23,-0.19089794,0.3821436,0.5784376,0.51511556,-0.30859575,0.29921743,-0.39814582,0.12999792,0.17481227,-0.07316754,0.46228838,0.55402964,0.09561134,-0.34575287,-0.5450729,-0.2600583,0.28714433,0.28198645,-0.1657323,0.13303244,-0.13932373,-0.16719283,-0.35351688,0.39218614,-0.51096106,-0.02261851,-0.4762286,-0.17552105,0.38171068,0.3962783,-0.20182194,0.22521281,-0.3481776,-0.30744117,0.3589307
J82,-0.53327304,0.42905283,0.24427253,0.6566694,-0.3190446,0.16955574,-0.5436755,-0.08408637,0.4460281,-0.38331386,0.1797459,0.77869844,0.28745735,-0.628307,-0.9585467,-0.6494374,-0.1675196,0.4042086,0.14325885,-0.06429746,-0.0780507,-0.6222711,-0.14837837,0.3057075,-0.7519655,0.1551106,-0.47256178,0.06299197,0.7282942,0.57470274,-0.34386915,0.5695868,-0.5816175,-0.57604337,0.4419593
SW13,0.04843663,-0.057890058,1.3600037,-0.16266468,0.91993135,1.0029855,-0.6682975,-0.5445478,0.97095054,-0.6298503,0.72299874,1.2919664,-0.5972804,-0.11850999,-0.6616907,-1.8249158,0.65306556,0.30992252,0.68588775,0.83938694,0.6603525,-1.6158372,-0.7161255,-0.007561209,-1.0073535,0.6565745,-1.3061887,-0.32496879,0.8261217,1.0445197,-0.31199995,1.4208584,-0.83433044,-1.2762538,1.2881866
NCI-H322M,-0.17082156,0.3578399,0.47989485,0.39856997,-0.24207668,0.27485785,-0.4829645,0.18246375,0.11239836,-0.20288835,0.34989083,0.47434708,0.018380946,-0.3029268,-0.49403515,-0.3659664,0.1844654,0.16218196,-0.23412679,0.1595235,-0.25443336,-0.17171626,-0.36638987,0.28892705,-0.46309,-0.12750736,-0.35784554,-0.2695754,0.46250552,0.49328226,-0.30461514,0.28230938,-0.3343986,-0.21081872,0.46028864
NCI-H1304,0.111071244,0.2800386,0.85716,0.075175665,0.020380314,0.4596522,-0.34870717,0.097481236,0.25794408,-0.41059554,0.4264798,0.6940364,-0.20396899,-0.068497896,-0.38920167,-0.77375066,0.44749755,0.023806207,-0.009659154,0.40044627,-0.037228685,-0.5324477,-0.6529597,0.17270981,-0.5101567,0.049423967,-0.67159593,-0.41370338,0.4914595,0.6649959,-0.435731,0.54098046,-0.5106309,-0.5846019,0.7395512
NCI-H2009,-0.17763409,0.3660869,0.51333344,0.43811744,-0.26464862,0.2831238,-0.45418295,0.1646605,0.1335773,-0.15887015,0.38803074,0.5013858,0.044587564,-0.317459,-0.51135385,-0.33002856,0.21930748,0.20283526,-0.21091846,0.15053429,-0.21537317,-0.17018132,-0.36202168,0.323966,-0.4793341,-0.091915384,-0.3980165,-0.2376599,0.43508938,0.46036586,-0.2697343,0.26293477,-0.33907422,-0.24360566,0.42589483
VMRC-RCZ,-0.1840543,0.37385896,0.54484636,0.47538748,-0.2859207,0.29091373,-0.42705882,0.14788249,0.15353662,-0.11738679,0.42397428,0.52686745,0.069285035,-0.33115432,-0.52767515,-0.29616028,0.2521431,0.24114747,-0.18904662,0.14206272,-0.17856231,-0.16873477,-0.35790503,0.35698718,-0.49464276,-0.058373038,-0.43587416,-0.20758231,0.40925202,0.429345,-0.2368621,0.2446759,-0.34348062,-0.27450448,0.3934816
SCC-15,0.111071244,0.2800386,0.85716,0.075175665,0.020380314,0.4596522,-0.34870717,0.097481236,0.25794408,-0.41059554,0.4264798,0.6940364,-0.20396899,-0.068497896,-0.38920167,-0.77375066,0.44749755,0.023806207,-0.009659154,0.40044627,-0.037228685,-0.5324477,-0.6529597,0.17270981,-0.5101567,0.049423967,-0.67159593,-0.41370338,0.4914595,0.6649959,-0.435731,0.54098046,-0.5106309,-0.5846019,0.7395512
MKN7,0.111071244,0.2800386,0.85716,0.075175665,0.020380314,0.4596522,-0.34870717,0.097481236,0.25794408,-0.41059554,0.4264798,0.6940364,-0.20396899,-0.068497896,-0.38920167,-0.77375066,0.44749755,0.023806207,-0.009659154,0.40044627,-0.037228685,-0.5324477,-0.6529597,0.17270981,-0.5101567,0.049423967,-0.67159593,-0.41370338,0.4914595,0.6649959,-0.435731,0.54098046,-0.5106309,-0.5846019,0.7395512
