,E0,E1,E2,E3,E4,E5,E6,E7,E8,E9,E10,E11,E12,E13,E14,E15
GCT,-0.91935986,0.820797,0.108294696,0.57496,-0.6758931,-0.6193328,0.71121305,0.5715597,-1.1519997,-0.30564323,0.23715326,0.16073957,0.13535896,0.3081823,-0.3297227,0.80917484
KYSE-510,-1.5149164,0.7473178,-0.14773972,0.30211726,-1.1869402,-0.65068865,0.9060732,1.6795605,-2.1170163,-0.67953014,0.82637805,-0.8203395,-0.2682512,0.49410468,-1.3061765,1.9735012
DU145,-0.92811084,0.66882247,-0.21227282,0.18987775,-0.77411366,-0.23854524,0.4297437,0.77686894,-1.2215779,-0.25746822,0.71451944,-0.3362795,-0.28728148,-0.0086891,-0.84688556,1.1673746
LB1047-RCC,-0.7471515,0.635703,-0.19654289,0.15033835,-0.814565,-0.2722931,0.6696558,0.806449,-1.4187297,-0.30996692,0.7444596,-0.59927154,-0.4376252,0.20383015,-0.91772336,1.3444335
UM-UC-3,-0.6045994,0.64089185,0.074370645,0.6803173,-0.42107335,-0.6365096,0.7904032,0.3442322,-0.9762491,-0.35287133,0.16833296,-0.15355904,-0.047667585,0.38820797,-0.3660004,0.76235825
NCI-H1734,-0.5155856,0.3239371,-0.08364937,0.57602245,-0.29047674,-0.2335245,-0.016342575,0.32686767,-0.37893036,-0.3044369,0.05552128,-0.2166435,-0.09419383,-0.25882465,-0.108986184,0.516449
ES1,-0.92811084,0.66882247,-0.21227282,0.18987775,-0.77411366,-0.23854524,0.4297437,0.77686894,-1.2215779,-0.25746822,0.71451944,-0.3362795,-0.28728148,-0.0086891,-0.84688556,1.1673746
VM-CUB-1,-0.92811084,0.66882247,-0.21227282,0.18987775,-0.77411366,-0.23854524,0.4297437,0.77686894,-1.2215779,-0.25746822,0.71451944,-0.3362795,-0.28728148,-0.0086891,-0.84688556,1.1673746
COR-L23,-0.6409114,0.7316293,0.022832666,0.4501984,-0.8062436,-0.644877,1.0246404,0.7287712,-1.4626153,-0.41395906,0.25201482,-0.33037922,-0.19616476,0.6200935,-0.4887944,1.119886
HCC1954,-0.93606454,0.5496323,-0.16771099,0.48916635,-0.6421563,-0.46304566,0.33161944,0.96138424,-1.0878502,-0.42694843,0.26617944,-0.3350025,-0.20256197,0.028648457,-0.5741516,1.0811416
KNS-42,-0.40585145,0.37319186,-0.13540795,0.32020664,-0.3046403,-0.087938435,0.06735396,0.05652361,-0.30356884,-0.073052615,0.25859526,0.11743971,-0.15093528,-0.33298764,-0.13750789,0.38791472
NCI-H1694,-0.40585145,0.37319186,-0.13540795,0.32020664,-0.3046403,-0.087938435,0.06735396,0.05652361,-0.30356884,-0.073052615,0.25859526,0.11743971,-0.15093528,-0.33298764,-0.13750789,0.38791472
SNG-M,0.46608275,0.6763922,-1.02275,0.5521821,-0.6682542,-0.5970991,0.73785263,1.503365,-1.7866261,-0.7282592,-0.27249682,-2.5831409,-1.9205594,0.87919456,-1.3245649,1.7629625
EM-2,-0.92811084,0.66882247,-0.21227282,0.18987775,-0.77411366,-0.23854524,0.4297437,0.77686894,-1.2215779,-0.25746822,0.71451944,-0.3362795,-0.28728148,-0.0086891,-0.84688556,1.1673746
SNU-C1,-0.40585145,0.37319186,-0.13540795,0.32020664,-0.3046403,-0.087938435,0.06735396,0.05652361,-0.30356884,-0.073052615,0.25859526,0.11743971,-0.15093528,-0.33298764,-0.13750789,0.38791472
GB-1,-0.92811084,0.66882247,-0.21227282,0.18987775,-0.77411366,-0.23854524,0.4297437,0.77686894,-1.2215779,-0.25746822,0.71451944,-0.3362795,-0.28728148,-0.0086891,-0.84688556,1.1673746
NCI-H1417,-0.92811084,0.66882247,-0.21227282,0.18987775,-0.77411366,-0.23854524,0.4297437,0.77686894,-1.2215779,-0.25746822,0.71451944,-0.3362795,-0.28728148,-0.0086891,-0.84688556,1.1673746
HCC1937,-0.40585145,0.37319186,-0.13540795,0.32020664,-0.3046403,-0.087938435,0.06735396,0.05652361,-0.30356884,-0.073052615,0.25859526,0.11743971,-0.15093528,-0.33298764,-0.13750789,0.38791472
CHL-1,-0.92811084,0.66882247,-0.21227282,0.18987775,-0.77411366,-0.23854524,0.4297437,0.77686894,-1.2215779,-0.25746822,0.71451944,-0.3362795,-0.28728148,-0.0086891,-0.84688556,1.1673746
KYSE-270,-0.40585145,0.37319186,-0.13540795,0.32020664,-0.3046403,-0.087938435,0.06735396,0.05652361,-0.30356884,-0.073052615,0.25859526,0.11743971,-0.15093528,-0.33298764,-0.13750789,0.38791472
HCT 116,-1.158201,0.82059586,0.093105234,0.5489993,-1.2686197,-1.0683734,1.5199302,1.7103527,-2.4241965,-0.8447304,0.28178862,-0.8343546,-0.21368667,1.164139,-0.87090945,1.9609952
A-427,-0.44272414,1.2342992,0.13104099,0.6989774,-0.54412425,-0.7990902,1.5008988,0.23724611,-1.746754,-0.25760013,0.58014464,-0.5353525,-0.28384182,0.9700177,-0.93625885,1.1371552
IGROV-1,-0.30085227,0.38867486,-0.92125547,0.013262167,-0.94570535,-0.065757245,-0.011467273,1.444969,-1.2185794,-0.48298773,0.16112415,-1.4624583,-1.259341,-0.030027313,-0.97747695,1.4260029
A4/Fukuda,-0.40585145,0.37319186,-0.13540795,0.32020664,-0.3046403,-0.087938435,0.06735396,0.05652361,-0.30356884,-0.073052615,0.25859526,0.11743971,-0.15093528,-0.33298764,-0.13750789,0.38791472
EFO-21,-0.40585145,0.37319186,-0.13540795,0.32020664,-0.3046403,-0.087938435,0.06735396,0.05652361,-0.30356884,-0.073052615,0.25859526,0.11743971,-0.15093528,-0.33298764,-0.13750789,0.38791472
MZ-MEL-2,-0.7471515,0.635703,-0.19654289,0.15033835,-0.814565,-0.2722931,0.6696558,0.806449,-1.4187297,-0.30996692,0.7444596,-0.59927154,-0.4376252,0.20383015,-0.91772336,1.3444335
HLE,-0.40585145,0.37319186,-0.13540795,0.32020664,-0.3046403,-0.087938435,0.06735396,0.05652361,-0.30356884,-0.073052615,0.25859526,0.11743971,-0.15093528,-0.33298764,-0.13750789,0.38791472
U-118MG,-0.7817792,0.5293389,-0.14146248,0.4122542,-0.36386925,-0.24509591,0.3668909,0.40071812,-0.88104993,-0.24656093,0.7314242,-0.43173277,-0.26193357,-0.10918615,-0.8603617,0.99114114
TE-5,-1.5149164,0.7473178,-0.14773972,0.30211726,-1.1869402,-0.65068865,0.9060732,1.6795605,-2.1170163,-0.67953014,0.82637805,-0.8203395,-0.2682512,0.49410468,-1.3061765,1.9735012
MDA-MB-157,-0.45631948,0.2723204,-0.13251351,0.39047328,-0.28480896,-0.15944786,0.057286307,0.15986924,-0.28047603,-0.16843182,0.15966068,0.055923507,-0.13294116,-0.30949578,-0.10612388,0.4215057
Loucy,-0.40585145,0.37319186,-0.13540795,0.32020664,-0.3046403,-0.087938435,0.06735396,0.05652361,-0.30356884,-0.073052615,0.25859526,0.11743971,-0.15093528,-0.33298764,-0.13750789,0.38791472
NCI-H2171,-0.40585145,0.37319186,-0.13540795,0.32020664,-0.3046403,-0.087938435,0.06735396,0.05652361,-0.30356884,-0.073052615,0.25859526,0.11743971,-0.15093528,-0.33298764,-0.13750789,0.38791472
L-363,-0.93606454,0.5496323,-0.16771099,0.48916635,-0.6421563,-0.46304566,0.33161944,0.96138424,-1.0878502,-0.42694843,0.26617944,-0.3350025,-0.20256197,0.028648457,-0.5741516,1.0811416
SW684,-0.40585145,0.37319186,-0.13540795,0.32020664,-0.3046403,-0.087938435,0.06735396,0.05652361,-0.30356884,-0.073052615,0.25859526,0.11743971,-0.15093528,-0.33298764,-0.13750789,0.38791472
EW-22,-0.40585145,0.37319186,-0.13540795,0.32020664,-0.3046403,-0.087938435,0.06735396,0.05652361,-0.30356884,-0.073052615,0.25859526,0.11743971,-0.15093528,-0.33298764,-0.13750789,0.38791472
SJNB-10,-0.40368566,0.2909859,-0.15928559,0.34300402,-0.28786156,-0.10855813,0.03934482,0.10969569,-0.2625163,-0.1253121,0.19315878,0.058119792,-0.17278287,-0.33531415,-0.11889144,0.39838794
NCI-H1755,-0.91935986,0.820797,0.108294696,0.57496,-0.6758931,-0.6193328,0.71121305,0.5715597,-1.1519997,-0.30564323,0.23715326,0.16073957,0.13535896,0.3081823,-0.3297227,0.80917484
SW1116,-0.11414636,0.20969762,-0.41642985,0.5306829,-0.23704216,0.12544046,-0.54940784,0.27910262,-0.096177675,-0.36555696,-0.006839666,-1.074566,-0.52527064,-0.4998992,-0.250393,0.4598373
G-361,-0.6715861,0.96651363,-0.06353663,0.545969,-0.7414308,-0.68346614,0.9266983,0.51411676,-1.2804277,-0.291807,0.15332255,-0.054609165,-0.12936509,0.5735001,-0.47528523,0.7951861
CAL-39,-0.92811084,0.66882247,-0.21227282,0.18987775,-0.77411366,-0.23854524,0.4297437,0.77686894,-1.2215779,-0.25746822,0.71451944,-0.3362795,-0.28728148,-0.0086891,-0.84688556,1.1673746
Capan-1,-0.2753377,0.3509981,-0.018486852,0.7969014,-0.2513892,-0.5978929,0.66737443,0.707449,-1.1136198,-0.58450323,0.07714203,-1.0809196,-0.48683032,0.3860027,-0.5261361,1.2154014
EFE-184,-0.40585145,0.37319186,-0.13540795,0.32020664,-0.3046403,-0.087938435,0.06735396,0.05652361,-0.30356884,-0.073052615,0.25859526,0.11743971,-0.15093528,-0.33298764,-0.13750789,0.38791472
NCI-H838,-0.9524416,1.0547019,-0.05102892,0.33336294,-0.5598836,-0.27261853,0.7328264,0.37351453,-1.4523543,-0.09623003,1.2084998,-0.41626072,-0.23913455,0.11908273,-1.28521,1.2501649
SK-CO-1,0.020860298,0.10881779,-0.40794057,0.5418604,-0.24129075,0.14316319,-0.36222005,-0.00985598,-0.019786166,-0.47153878,0.06292637,-1.4193203,-0.5384603,-0.27691278,-0.34236872,0.38527322
HT-55,-0.5213963,0.12410929,-0.21944703,0.5157793,-0.05361448,0.0562944,-0.40696847,0.1128358,-0.017404024,-0.2564903,0.35815006,-0.48790008,-0.2066647,-0.6575891,-0.3689903,0.470803
SF126,-0.4772613,0.58196676,-0.17296182,0.46912313,-0.32517758,-0.36652163,0.7300446,0.29689884,-1.0682769,-0.29613775,0.6933894,-0.780394,-0.4927227,0.24839243,-1.0006102,1.0880685
KYSE-520,-0.40585145,0.37319186,-0.13540795,0.32020664,-0.3046403,-0.087938435,0.06735396,0.05652361,-0.30356884,-0.073052615,0.25859526,0.11743971,-0.15093528,-0.33298764,-0.13750789,0.38791472
MS-1 [Human lung carcinoma],-0.40585145,0.37319186,-0.13540795,0.32020664,-0.3046403,-0.087938435,0.06735396,0.05652361,-0.30356884,-0.073052615,0.25859526,0.11743971,-0.15093528,-0.33298764,-0.13750789,0.38791472
769-P,-0.7471515,0.635703,-0.19654289,0.15033835,-0.814565,-0.2722931,0.6696558,0.806449,-1.4187297,-0.30996692,0.7444596,-0.59927154,-0.4376252,0.20383015,-0.91772336,1.3444335
LB2518-MEL,-0.7471515,0.635703,-0.19654289,0.15033835,-0.814565,-0.2722931,0.6696558,0.806449,-1.4187297,-0.30996692,0.7444596,-0.59927154,-0.4376252,0.20383015,-0.91772336,1.3444335
RL95-2,-0.25177434,0.16780593,0.03553317,0.80431306,0.24991012,-0.30690655,0.19932233,-0.059539165,-0.24944657,-0.27778834,0.2561835,-0.4763698,-0.22887507,-0.22610436,-0.33806607,0.5921676
NCI-H1155,0.20270671,0.659037,-0.7224725,0.65575165,-0.27557713,-0.42539182,0.23232096,0.7909355,-0.9311908,-0.37010175,-0.2593404,-1.3403624,-1.2178322,0.21962857,-0.7477152,0.955538
HOP-62,-0.87645906,0.7065722,0.042204693,0.394516,-0.8677685,-0.5533647,0.7289334,0.81717676,-1.3042773,-0.36516434,0.23301132,0.0057695922,0.0011891768,0.34218654,-0.3237107,1.0034547
RXF 393L,-0.7817792,0.5293389,-0.14146248,0.4122542,-0.36386925,-0.24509591,0.3668909,0.40071812,-0.88104993,-0.24656093,0.7314242,-0.43173277,-0.26193357,-0.10918615,-0.8603617,0.99114114
Calu-3,-0.40585145,0.37319186,-0.13540795,0.32020664,-0.3046403,-0.087938435,0.06735396,0.05652361,-0.30356884,-0.073052615,0.25859526,0.11743971,-0.15093528,-0.33298764,-0.13750789,0.38791472
UMC-11,-0.92811084,0.66882247,-0.21227282,0.18987775,-0.77411366,-0.23854524,0.4297437,0.77686894,-1.2215779,-0.25746822,0.71451944,-0.3362795,-0.28728148,-0.0086891,-0.84688556,1.1673746
ES3,-0.40585145,0.37319186,-0.13540795,0.32020664,-0.3046403,-0.087938435,0.06735396,0.05652361,-0.30356884,-0.073052615,0.25859526,0.11743971,-0.15093528,-0.33298764,-0.13750789,0.38791472
A2058,-0.38382953,0.41496053,-0.12631221,0.60505027,-0.1885196,-0.37792766,0.2987412,0.042415515,-0.34109315,-0.21789467,0.02983263,-0.025679525,-0.15103626,-0.03723552,-0.18076465,0.34903494
Onda 10,-0.488947,0.2771911,-0.15490742,0.3786913,-0.20787412,-0.08155075,-0.04478149,0.07797779,-0.20042013,-0.11735309,0.2859218,0.050068386,-0.13990723,-0.4368691,-0.20153987,0.40188244
DSH1,-0.7817792,0.5293389,-0.14146248,0.4122542,-0.36386925,-0.24509591,0.3668909,0.40071812,-0.88104993,-0.24656093,0.7314242,-0.43173277,-0.26193357,-0.10918615,-0.8603617,0.99114114
SK-MG-1,-0.9046483,0.593503,0.009265783,0.43378732,-0.5609708,-0.3679607,0.41005233,0.5465318,-0.94202375,-0.26844317,0.4541614,-0.010468973,0.009861177,-0.026074767,-0.46083558,0.8740184
Karpas-45,0.49051726,0.9269116,-0.67487514,0.10618492,-1.000264,-0.66034234,1.973848,0.67879635,-2.2355182,-0.48147568,0.4513345,-2.0143714,-1.6256768,1.6206673,-1.537276,1.7165508
HO-1-N-1,-0.40585145,0.37319186,-0.13540795,0.32020664,-0.3046403,-0.087938435,0.06735396,0.05652361,-0.30356884,-0.073052615,0.25859526,0.11743971,-0.15093528,-0.33298764,-0.13750789,0.38791472
Panc 10.05,-0.5155856,0.3239371,-0.08364937,0.57602245,-0.29047674,-0.2335245,-0.016342575,0.32686767,-0.37893036,-0.3044369,0.05552128,-0.2166435,-0.09419383,-0.25882465,-0.108986184,0.516449
EW-12,-0.40585145,0.37319186,-0.13540795,0.32020664,-0.3046403,-0.087938435,0.06735396,0.05652361,-0.30356884,-0.073052615,0.25859526,0.11743971,-0.15093528,-0.33298764,-0.13750789,0.38791472
HCC70,-0.488947,0.2771911,-0.15490742,0.3786913,-0.20787412,-0.08155075,-0.04478149,0.07797779,-0.20042013,-0.11735309,0.2859218,0.050068386,-0.13990723,-0.4368691,-0.20153987,0.40188244
RD,-0.40585145,0.37319186,-0.13540795,0.32020664,-0.3046403,-0.087938435,0.06735396,0.05652361,-0.30356884,-0.073052615,0.25859526,0.11743971,-0.15093528,-0.33298764,-0.13750789,0.38791472
LB373-MEL-D,-0.7471515,0.635703,-0.19654289,0.15033835,-0.814565,-0.2722931,0.6696558,0.806449,-1.4187297,-0.30996692,0.7444596,-0.59927154,-0.4376252,0.20383015,-0.91772336,1.3444335
DMS 53,-0.40585145,0.37319186,-0.13540795,0.32020664,-0.3046403,-0.087938435,0.06735396,0.05652361,-0.30356884,-0.073052615,0.25859526,0.11743971,-0.15093528,-0.33298764,-0.13750789,0.38791472
HPAF-II,-0.87645906,0.7065722,0.042204693,0.394516,-0.8677685,-0.5533647,0.7289334,0.81717676,-1.3042773,-0.36516434,0.23301132,0.0057695922,0.0011891768,0.34218654,-0.3237107,1.0034547
SK-MES-1,-0.92811084,0.66882247,-0.21227282,0.18987775,-0.77411366,-0.23854524,0.4297437,0.77686894,-1.2215779,-0.25746822,0.71451944,-0.3362795,-0.28728148,-0.0086891,-0.84688556,1.1673746
ChaGo-K-1,-0.40585145,0.37319186,-0.13540795,0.32020664,-0.3046403,-0.087938435,0.06735396,0.05652361,-0.30356884,-0.073052615,0.25859526,0.11743971,-0.15093528,-0.33298764,-0.13750789,0.38791472
NCI-H64,-0.40585145,0.37319186,-0.13540795,0.32020664,-0.3046403,-0.087938435,0.06735396,0.05652361,-0.30356884,-0.073052615,0.25859526,0.11743971,-0.15093528,-0.33298764,-0.13750789,0.38791472
MEG-01,-0.40585145,0.37319186,-0.13540795,0.32020664,-0.3046403,-0.087938435,0.06735396,0.05652361,-0.30356884,-0.073052615,0.25859526,0.11743971,-0.15093528,-0.33298764,-0.13750789,0.38791472
A-673,-0.91935986,0.820797,0.108294696,0.57496,-0.6758931,-0.6193328,0.71121305,0.5715597,-1.1519997,-0.30564323,0.23715326,0.16073957,0.13535896,0.3081823,-0.3297227,0.80917484
LC-2/ad,-0.92811084,0.66882247,-0.21227282,0.18987775,-0.77411366,-0.23854524,0.4297437,0.77686894,-1.2215779,-0.25746822,0.71451944,-0.3362795,-0.28728148,-0.0086891,-0.84688556,1.1673746
Lu-99A,-1.158201,0.82059586,0.093105234,0.5489993,-1.2686197,-1.0683734,1.5199302,1.7103527,-2.4241965,-0.8447304,0.28178862,-0.8343546,-0.21368667,1.164139,-0.87090945,1.9609952
NCI-H2170,-0.92811084,0.66882247,-0.21227282,0.18987775,-0.77411366,-0.23854524,0.4297437,0.77686894,-1.2215779,-0.25746822,0.71451944,-0.3362795,-0.28728148,-0.0086891,-0.84688556,1.1673746
KG-1,-0.40585145,0.37319186,-0.13540795,0.32020664,-0.3046403,-0.087938435,0.06735396,0.05652361,-0.30356884,-0.073052615,0.25859526,0.11743971,-0.15093528,-0.33298764,-0.13750789,0.38791472
BE-13,-0.06155902,0.43489644,-0.40171158,0.5248067,-0.18582311,-0.2551554,0.2756239,-0.21077225,-0.18293224,-0.19841053,0.009034258,-0.4212771,-0.46704912,0.05412552,-0.3679783,0.18345115
DB,-0.40585145,0.37319186,-0.13540795,0.32020664,-0.3046403,-0.087938435,0.06735396,0.05652361,-0.30356884,-0.073052615,0.25859526,0.11743971,-0.15093528,-0.33298764,-0.13750789,0.38791472
TE-1,-0.40585145,0.37319186,-0.13540795,0.32020664,-0.3046403,-0.087938435,0.06735396,0.05652361,-0.30356884,-0.073052615,0.25859526,0.11743971,-0.15093528,-0.33298764,-0.13750789,0.38791472
SCC-25,-0.92811084,0.66882247,-0.21227282,0.18987775,-0.77411366,-0.23854524,0.4297437,0.77686894,-1.2215779,-0.25746822,0.71451944,-0.3362795,-0.28728148,-0.0086891,-0.84688556,1.1673746
MFH-ino,-0.7471515,0.635703,-0.19654289,0.15033835,-0.814565,-0.2722931,0.6696558,0.806449,-1.4187297,-0.30996692,0.7444596,-0.59927154,-0.4376252,0.20383015,-0.91772336,1.3444335
HCC1569,-0.40585145,0.37319186,-0.13540795,0.32020664,-0.3046403,-0.087938435,0.06735396,0.05652361,-0.30356884,-0.073052615,0.25859526,0.11743971,-0.15093528,-0.33298764,-0.13750789,0.38791472
NCI-H2030,-0.18499364,0.98773605,0.048058547,0.85522884,-0.06999175,-0.4588098,0.35247782,0.11700178,-0.7834412,-0.04230065,0.04073796,-0.09501765,-0.22309528,0.023264034,-0.21093471,0.5267761
GAK,-0.38606372,0.3827362,-0.17512354,0.23975249,-0.41781965,-0.04094938,0.08531525,0.09393276,-0.36993185,-0.091577396,0.2894936,0.012280714,-0.19771549,-0.2870177,-0.17222086,0.42957237
SW872,-0.68347514,0.82284683,0.047777753,0.84229064,-0.2489683,-0.6792272,0.6831073,0.08980205,-0.76631,-0.25381196,0.15863843,0.059508484,0.059924945,0.29745474,-0.41579404,0.4863401
U-698-M,-0.40585145,0.37319186,-0.13540795,0.32020664,-0.3046403,-0.087938435,0.06735396,0.05652361,-0.30356884,-0.073052615,0.25859526,0.11743971,-0.15093528,-0.33298764,-0.13750789,0.38791472
LB2241-RCC,-0.7471515,0.635703,-0.19654289,0.15033835,-0.814565,-0.2722931,0.6696558,0.806449,-1.4187297,-0.30996692,0.7444596,-0.59927154,-0.4376252,0.20383015,-0.91772336,1.3444335
IA-LM,-0.53687406,0.2291985,-0.18409294,0.33512682,-0.49948585,0.00037147634,-0.14655921,0.1984169,-0.23800421,-0.30748478,0.19671327,-0.32037222,-0.082077384,-0.3325842,-0.13355175,0.4065476
UACC-62,-0.4274423,0.9550145,-0.10362843,0.8257965,-0.29933542,-0.7516993,0.92008555,0.025608893,-0.90329605,-0.24920534,0.08147326,-0.17524365,-0.19985995,0.57620084,-0.5605831,0.48849493
YKG-1,-0.7817792,0.5293389,-0.14146248,0.4122542,-0.36386925,-0.24509591,0.3668909,0.40071812,-0.88104993,-0.24656093,0.7314242,-0.43173277,-0.26193357,-0.10918615,-0.8603617,0.99114114
BB65-RCC,-0.40585145,0.37319186,-0.13540795,0.32020664,-0.3046403,-0.087938435,0.06735396,0.05652361,-0.30356884,-0.073052615,0.25859526,0.11743971,-0.15093528,-0.33298764,-0.13750789,0.38791472
8305C,-0.6536399,0.3821562,0.0333277,0.52824533,-0.33904094,-0.33988667,0.22758251,0.26607108,-0.4719119,-0.23784877,0.12930657,0.182463,0.07342971,-0.15675323,-0.06286427,0.49515536
T24,-0.40585145,0.37319186,-0.13540795,0.32020664,-0.3046403,-0.087938435,0.06735396,0.05652361,-0.30356884,-0.073052615,0.25859526,0.11743971,-0.15093528,-0.33298764,-0.13750789,0.38791472
CP67-MEL,-0.4274423,0.9550145,-0.10362843,0.8257965,-0.29933542,-0.7516993,0.92008555,0.025608893,-0.90329605,-0.24920534,0.08147326,-0.17524365,-0.19985995,0.57620084,-0.5605831,0.48849493
CAL-62,-0.87645906,0.7065722,0.042204693,0.394516,-0.8677685,-0.5533647,0.7289334,0.81717676,-1.3042773,-0.36516434,0.23301132,0.0057695922,0.0011891768,0.34218654,-0.3237107,1.0034547
EKVX,-0.40585145,0.37319186,-0.13540795,0.32020664,-0.3046403,-0.087938435,0.06735396,0.05652361,-0.30356884,-0.073052615,0.25859526,0.11743971,-0.15093528,-0.33298764,-0.13750789,0.38791472
IST-SL2,-0.488947,0.2771911,-0.15490742,0.3786913,-0.20787412,-0.08155075,-0.04478149,0.07797779,-0.20042013,-0.11735309,0.2859218,0.050068386,-0.13990723,-0.4368691,-0.20153987,0.40188244
MFM-223,-0.93606454,0.5496323,-0.16771099,0.48916635,-0.6421563,-0.46304566,0.33161944,0.96138424,-1.0878502,-0.42694843,0.26617944,-0.3350025,-0.20256197,0.028648457,-0.5741516,1.0811416
Ramos.2G6.4C10,-0.40585145,0.37319186,-0.13540795,0.32020664,-0.3046403,-0.087938435,0.06735396,0.05652361,-0.30356884,-0.073052615,0.25859526,0.11743971,-0.15093528,-0.33298764,-0.13750789,0.38791472
FaDu,-0.92811084,0.66882247,-0.21227282,0.18987775,-0.77411366,-0.23854524,0.4297437,0.77686894,-1.2215779,-0.25746822,0.71451944,-0.3362795,-0.28728148,-0.0086891,-0.84688556,1.1673746
NCI-H520,-0.92811084,0.66882247,-0.21227282,0.18987775,-0.77411366,-0.23854524,0.4297437,0.77686894,-1.2215779,-0.25746822,0.71451944,-0.3362795,-0.28728148,-0.0086891,-0.84688556,1.1673746
ALL-PO,-0.40585145,0.37319186,-0.13540795,0.32020664,-0.3046403,-0.087938435,0.06735396,0.05652361,-0.30356884,-0.073052615,0.25859526,0.11743971,-0.15093528,-0.33298764,-0.13750789,0.38791472
NCI-H2227,-0.40585145,0.37319186,-0.13540795,0.32020664,-0.3046403,-0.087938435,0.06735396,0.05652361,-0.30356884,-0.073052615,0.25859526,0.11743971,-0.15093528,-0.33298764,-0.13750789,0.38791472
Karpas-299,-0.40585145,0.37319186,-0.13540795,0.32020664,-0.3046403,-0.087938435,0.06735396,0.05652361,-0.30356884,-0.073052615,0.25859526,0.11743971,-0.15093528,-0.33298764,-0.13750789,0.38791472
COLO 824,-0.38606372,0.3827362,-0.17512354,0.23975249,-0.41781965,-0.04094938,0.08531525,0.09393276,-0.36993185,-0.091577396,0.2894936,0.012280714,-0.19771549,-0.2870177,-0.17222086,0.42957237
MDA-MB-453,-0.8476745,0.47253177,-0.14877345,0.3341415,-0.78225464,-0.44272798,0.56891286,0.9754783,-1.256901,-0.4629549,0.365021,-0.4641221,-0.2780515,0.20783363,-0.6185328,1.227281
ETK-1,-0.92811084,0.66882247,-0.21227282,0.18987775,-0.77411366,-0.23854524,0.4297437,0.77686894,-1.2215779,-0.25746822,0.71451944,-0.3362795,-0.28728148,-0.0086891,-0.84688556,1.1673746
EW-11,-0.40585145,0.37319186,-0.13540795,0.32020664,-0.3046403,-0.087938435,0.06735396,0.05652361,-0.30356884,-0.073052615,0.25859526,0.11743971,-0.15093528,-0.33298764,-0.13750789,0.38791472
HMV-II,-0.6536399,0.3821562,0.0333277,0.52824533,-0.33904094,-0.33988667,0.22758251,0.26607108,-0.4719119,-0.23784877,0.12930657,0.182463,0.07342971,-0.15675323,-0.06286427,0.49515536
SNU-475,-0.40585145,0.37319186,-0.13540795,0.32020664,-0.3046403,-0.087938435,0.06735396,0.05652361,-0.30356884,-0.073052615,0.25859526,0.11743971,-0.15093528,-0.33298764,-0.13750789,0.38791472
ARH-77,-0.40585145,0.37319186,-0.13540795,0.32020664,-0.3046403,-0.087938435,0.06735396,0.05652361,-0.30356884,-0.073052615,0.25859526,0.11743971,-0.15093528,-0.33298764,-0.13750789,0.38791472
HT-1080,-0.7471515,0.635703,-0.19654289,0.15033835,-0.814565,-0.2722931,0.6696558,0.806449,-1.4187297,-0.30996692,0.7444596,-0.59927154,-0.4376252,0.20383015,-0.91772336,1.3444335
Kuramochi,-0.40585145,0.37319186,-0.13540795,0.32020664,-0.3046403,-0.087938435,0.06735396,0.05652361,-0.30356884,-0.073052615,0.25859526,0.11743971,-0.15093528,-0.33298764,-0.13750789,0.38791472
TGW,-0.45631948,0.2723204,-0.13251351,0.39047328,-0.28480896,-0.15944786,0.057286307,0.15986924,-0.28047603,-0.16843182,0.15966068,0.055923507,-0.13294116,-0.30949578,-0.10612388,0.4215057
BV-173,-0.7471515,0.635703,-0.19654289,0.15033835,-0.814565,-0.2722931,0.6696558,0.806449,-1.4187297,-0.30996692,0.7444596,-0.59927154,-0.4376252,0.20383015,-0.91772336,1.3444335
OMC-1 [Human cervical carcinoma],-0.8476745,0.47253177,-0.14877345,0.3341415,-0.78225464,-0.44272798,0.56891286,0.9754783,-1.256901,-0.4629549,0.365021,-0.4641221,-0.2780515,0.20783363,-0.6185328,1.227281
DoHH2,-0.7471515,0.635703,-0.19654289,0.15033835,-0.814565,-0.2722931,0.6696558,0.806449,-1.4187297,-0.30996692,0.7444596,-0.59927154,-0.4376252,0.20383015,-0.91772336,1.3444335
NCI-H727,-0.5155856,0.3239371,-0.08364937,0.57602245,-0.29047674,-0.2335245,-0.016342575,0.32686767,-0.37893036,-0.3044369,0.05552128,-0.2166435,-0.09419383,-0.25882465,-0.108986184,0.516449
RL,-0.40585145,0.37319186,-0.13540795,0.32020664,-0.3046403,-0.087938435,0.06735396,0.05652361,-0.30356884,-0.073052615,0.25859526,0.11743971,-0.15093528,-0.33298764,-0.13750789,0.38791472
A2780,-0.28393614,0.33935907,-0.09361554,0.5005619,-0.11144765,-0.21106265,0.23629473,-0.08900367,-0.28536293,-0.13938077,0.23101342,-0.09381173,-0.20184001,-0.17568311,-0.2266571,0.39594895
Lu-65,-0.87645906,0.7065722,0.042204693,0.394516,-0.8677685,-0.5533647,0.7289334,0.81717676,-1.3042773,-0.36516434,0.23301132,0.0057695922,0.0011891768,0.34218654,-0.3237107,1.0034547
OE33,-0.92811084,0.66882247,-0.21227282,0.18987775,-0.77411366,-0.23854524,0.4297437,0.77686894,-1.2215779,-0.25746822,0.71451944,-0.3362795,-0.28728148,-0.0086891,-0.84688556,1.1673746
CAL-148,-0.93606454,0.5496323,-0.16771099,0.48916635,-0.6421563,-0.46304566,0.33161944,0.96138424,-1.0878502,-0.42694843,0.26617944,-0.3350025,-0.20256197,0.028648457,-0.5741516,1.0811416
MFE-296,-0.40585145,0.37319186,-0.13540795,0.32020664,-0.3046403,-0.087938435,0.06735396,0.05652361,-0.30356884,-0.073052615,0.25859526,0.11743971,-0.15093528,-0.33298764,-0.13750789,0.38791472
GOTO,-0.38606372,0.3827362,-0.17512354,0.23975249,-0.41781965,-0.04094938,0.08531525,0.09393276,-0.36993185,-0.091577396,0.2894936,0.012280714,-0.19771549,-0.2870177,-0.17222086,0.42957237
COLO 680N,-0.92811084,0.66882247,-0.21227282,0.18987775,-0.77411366,-0.23854524,0.4297437,0.77686894,-1.2215779,-0.25746822,0.71451944,-0.3362795,-0.28728148,-0.0086891,-0.84688556,1.1673746
HuP-T3,-0.87645906,0.7065722,0.042204693,0.394516,-0.8677685,-0.5533647,0.7289334,0.81717676,-1.3042773,-0.36516434,0.23301132,0.0057695922,0.0011891768,0.34218654,-0.3237107,1.0034547
KOSC-2,-0.92811084,0.66882247,-0.21227282,0.18987775,-0.77411366,-0.23854524,0.4297437,0.77686894,-1.2215779,-0.25746822,0.71451944,-0.3362795,-0.28728148,-0.0086891,-0.84688556,1.1673746
HuO9,-0.38606372,0.3827362,-0.17512354,0.23975249,-0.41781965,-0.04094938,0.08531525,0.09393276,-0.36993185,-0.091577396,0.2894936,0.012280714,-0.19771549,-0.2870177,-0.17222086,0.42957237
NCI-H1355,-0.5155856,0.3239371,-0.08364937,0.57602245,-0.29047674,-0.2335245,-0.016342575,0.32686767,-0.37893036,-0.3044369,0.05552128,-0.2166435,-0.09419383,-0.25882465,-0.108986184,0.516449
VA-ES-BJ,-0.7471515,0.635703,-0.19654289,0.15033835,-0.814565,-0.2722931,0.6696558,0.806449,-1.4187297,-0.30996692,0.7444596,-0.59927154,-0.4376252,0.20383015,-0.91772336,1.3444335
BB49-HNC,-0.7471515,0.635703,-0.19654289,0.15033835,-0.814565,-0.2722931,0.6696558,0.806449,-1.4187297,-0.30996692,0.7444596,-0.59927154,-0.4376252,0.20383015,-0.91772336,1.3444335
D-263MG,-0.7817792,0.5293389,-0.14146248,0.4122542,-0.36386925,-0.24509591,0.3668909,0.40071812,-0.88104993,-0.24656093,0.7314242,-0.43173277,-0.26193357,-0.10918615,-0.8603617,0.99114114
OE19,-0.40585145,0.37319186,-0.13540795,0.32020664,-0.3046403,-0.087938435,0.06735396,0.05652361,-0.30356884,-0.073052615,0.25859526,0.11743971,-0.15093528,-0.33298764,-0.13750789,0.38791472
PF-382,-0.7817792,0.5293389,-0.14146248,0.4122542,-0.36386925,-0.24509591,0.3668909,0.40071812,-0.88104993,-0.24656093,0.7314242,-0.43173277,-0.26193357,-0.10918615,-0.8603617,0.99114114
SNU-387,-0.92811084,0.66882247,-0.21227282,0.18987775,-0.77411366,-0.23854524,0.4297437,0.77686894,-1.2215779,-0.25746822,0.71451944,-0.3362795,-0.28728148,-0.0086891,-0.84688556,1.1673746
NCI-H250,-0.488947,0.2771911,-0.15490742,0.3786913,-0.20787412,-0.08155075,-0.04478149,0.07797779,-0.20042013,-0.11735309,0.2859218,0.050068386,-0.13990723,-0.4368691,-0.20153987,0.40188244
MZ-PC-1,-0.87645906,0.7065722,0.042204693,0.394516,-0.8677685,-0.5533647,0.7289334,0.81717676,-1.3042773,-0.36516434,0.23301132,0.0057695922,0.0011891768,0.34218654,-0.3237107,1.0034547
HT-3,-0.40585145,0.37319186,-0.13540795,0.32020664,-0.3046403,-0.087938435,0.06735396,0.05652361,-0.30356884,-0.073052615,0.25859526,0.11743971,-0.15093528,-0.33298764,-0.13750789,0.38791472
H9,-0.92811084,0.66882247,-0.21227282,0.18987775,-0.77411366,-0.23854524,0.4297437,0.77686894,-1.2215779,-0.25746822,0.71451944,-0.3362795,-0.28728148,-0.0086891,-0.84688556,1.1673746
SW900,-0.9669341,0.615045,0.26319608,0.7125521,-0.5200265,-0.66087365,0.5997683,0.52693325,-0.9272237,-0.37135866,0.09448521,0.30120465,0.33698454,0.19506504,-0.070607096,0.70584965
MDA-MB-231,-1.006015,0.84224385,0.38067496,0.99499756,-0.44194323,-0.9535096,0.9079909,0.41707295,-1.0617337,-0.42198086,-0.03220019,0.3617581,0.4676357,0.51212955,-0.09295962,0.6307723
Lu-165,-0.40585145,0.37319186,-0.13540795,0.32020664,-0.3046403,-0.087938435,0.06735396,0.05652361,-0.30356884,-0.073052615,0.25859526,0.11743971,-0.15093528,-0.33298764,-0.13750789,0.38791472
Ca Ski,-0.8476745,0.47253177,-0.14877345,0.3341415,-0.78225464,-0.44272798,0.56891286,0.9754783,-1.256901,-0.4629549,0.365021,-0.4641221,-0.2780515,0.20783363,-0.6185328,1.227281
HCT 15,0.8858155,0.38197124,-1.2448369,1.045731,-0.26840287,-0.14684378,-0.33000112,1.799732,-1.5623659,-1.2106211,-0.27935863,-4.8850055,-2.4829745,0.42648932,-1.7656312,2.199239
Ca9-22,-0.40585145,0.37319186,-0.13540795,0.32020664,-0.3046403,-0.087938435,0.06735396,0.05652361,-0.30356884,-0.073052615,0.25859526,0.11743971,-0.15093528,-0.33298764,-0.13750789,0.38791472
HTC-C3,-0.91935986,0.820797,0.108294696,0.57496,-0.6758931,-0.6193328,0.71121305,0.5715597,-1.1519997,-0.30564323,0.23715326,0.16073957,0.13535896,0.3081823,-0.3297227,0.80917484
J.RT3-T3.5,0.11477573,0.9297858,0.2366195,0.6640561,-0.27255332,-0.6646591,1.5656878,-0.2586727,-1.3762705,-0.18330558,0.46449852,-0.5870634,-0.368761,0.9676381,-0.60446703,0.89425135
SW1783,-0.488947,0.2771911,-0.15490742,0.3786913,-0.20787412,-0.08155075,-0.04478149,0.07797779,-0.20042013,-0.11735309,0.2859218,0.050068386,-0.13990723,-0.4368691,-0.20153987,0.40188244
NCI-H1975,-1.5149164,0.7473178,-0.14773972,0.30211726,-1.1869402,-0.65068865,0.9060732,1.6795605,-2.1170163,-0.67953014,0.82637805,-0.8203395,-0.2682512,0.49410468,-1.3061765,1.9735012
U-87MG ATCC,-0.4772613,0.58196676,-0.17296182,0.46912313,-0.32517758,-0.36652163,0.7300446,0.29689884,-1.0682769,-0.29613775,0.6933894,-0.780394,-0.4927227,0.24839243,-1.0006102,1.0880685
KYSE-150,-0.40585145,0.37319186,-0.13540795,0.32020664,-0.3046403,-0.087938435,0.06735396,0.05652361,-0.30356884,-0.073052615,0.25859526,0.11743971,-0.15093528,-0.33298764,-0.13750789,0.38791472
NCI-H1703,-0.92811084,0.66882247,-0.21227282,0.18987775,-0.77411366,-0.23854524,0.4297437,0.77686894,-1.2215779,-0.25746822,0.71451944,-0.3362795,-0.28728148,-0.0086891,-0.84688556,1.1673746
SK-MEL-1,-0.49217018,0.4763517,-0.035045926,0.5656967,-0.272381,-0.36622757,0.31819788,0.09839361,-0.4452101,-0.19215536,0.10292908,0.10919817,-0.037271738,-0.054796834,-0.13677186,0.40145412
Lu-134-A,-0.488947,0.2771911,-0.15490742,0.3786913,-0.20787412,-0.08155075,-0.04478149,0.07797779,-0.20042013,-0.11735309,0.2859218,0.050068386,-0.13990723,-0.4368691,-0.20153987,0.40188244
COLO 679,-0.6715861,0.96651363,-0.06353663,0.545969,-0.7414308,-0.68346614,0.9266983,0.51411676,-1.2804277,-0.291807,0.15332255,-0.054609165,-0.12936509,0.5735001,-0.47528523,0.7951861
NCI-H1650,-0.92811084,0.66882247,-0.21227282,0.18987775,-0.77411366,-0.23854524,0.4297437,0.77686894,-1.2215779,-0.25746822,0.71451944,-0.3362795,-0.28728148,-0.0086891,-0.84688556,1.1673746
NCI-H2052,-0.7471515,0.635703,-0.19654289,0.15033835,-0.814565,-0.2722931,0.6696558,0.806449,-1.4187297,-0.30996692,0.7444596,-0.59927154,-0.4376252,0.20383015,-0.91772336,1.3444335
LA-N-6,-0.6409114,0.7316293,0.022832666,0.4501984,-0.8062436,-0.644877,1.0246404,0.7287712,-1.4626153,-0.41395906,0.25201482,-0.33037922,-0.19616476,0.6200935,-0.4887944,1.119886
NCI-H526,-0.40585145,0.37319186,-0.13540795,0.32020664,-0.3046403,-0.087938435,0.06735396,0.05652361,-0.30356884,-0.073052615,0.25859526,0.11743971,-0.15093528,-0.33298764,-0.13750789,0.38791472
OC 314,-0.40585145,0.37319186,-0.13540795,0.32020664,-0.3046403,-0.087938435,0.06735396,0.05652361,-0.30356884,-0.073052615,0.25859526,0.11743971,-0.15093528,-0.33298764,-0.13750789,0.38791472
K5,-1.3145484,1.0661422,-0.051052466,0.5955234,-1.2210279,-1.048035,1.3056939,1.4706826,-2.1516297,-0.6858156,0.2611323,-0.4570965,-0.10593304,0.99873036,-0.91990405,1.5707084
ME-180,-0.8476745,0.47253177,-0.14877345,0.3341415,-0.78225464,-0.44272798,0.56891286,0.9754783,-1.256901,-0.4629549,0.365021,-0.4641221,-0.2780515,0.20783363,-0.6185328,1.227281
NCI-H28,-0.7471515,0.635703,-0.19654289,0.15033835,-0.814565,-0.2722931,0.6696558,0.806449,-1.4187297,-0.30996692,0.7444596,-0.59927154,-0.4376252,0.20383015,-0.91772336,1.3444335
SHP-77,-0.5155856,0.3239371,-0.08364937,0.57602245,-0.29047674,-0.2335245,-0.016342575,0.32686767,-0.37893036,-0.3044369,0.05552128,-0.2166435,-0.09419383,-0.25882465,-0.108986184,0.516449
AM-38,-0.6715861,0.96651363,-0.06353663,0.545969,-0.7414308,-0.68346614,0.9266983,0.51411676,-1.2804277,-0.291807,0.15332255,-0.054609165,-0.12936509,0.5735001,-0.47528523,0.7951861
A-431,-0.40585145,0.37319186,-0.13540795,0.32020664,-0.3046403,-0.087938435,0.06735396,0.05652361,-0.30356884,-0.073052615,0.25859526,0.11743971,-0.15093528,-0.33298764,-0.13750789,0.38791472
CAL-72,-0.36410752,0.5802663,-0.8782402,0.01942203,-1.2501607,-0.40560594,0.7246453,1.1460568,-1.4055952,-0.57989746,0.044562526,-1.242922,-1.0612832,0.6889621,-0.98495525,1.1853644
CAL-51,-0.8476745,0.47253177,-0.14877345,0.3341415,-0.78225464,-0.44272798,0.56891286,0.9754783,-1.256901,-0.4629549,0.365021,-0.4641221,-0.2780515,0.20783363,-0.6185328,1.227281
KNS-81-FD,-0.7471515,0.635703,-0.19654289,0.15033835,-0.814565,-0.2722931,0.6696558,0.806449,-1.4187297,-0.30996692,0.7444596,-0.59927154,-0.4376252,0.20383015,-0.91772336,1.3444335
NCI-H661,-0.9524416,1.0547019,-0.05102892,0.33336294,-0.5598836,-0.27261853,0.7328264,0.37351453,-1.4523543,-0.09623003,1.2084998,-0.41626072,-0.23913455,0.11908273,-1.28521,1.2501649
SW756,-0.53687406,0.2291985,-0.18409294,0.33512682,-0.49948585,0.00037147634,-0.14655921,0.1984169,-0.23800421,-0.30748478,0.19671327,-0.32037222,-0.082077384,-0.3325842,-0.13355175,0.4065476
HOS,-0.92811084,0.66882247,-0.21227282,0.18987775,-0.77411366,-0.23854524,0.4297437,0.77686894,-1.2215779,-0.25746822,0.71451944,-0.3362795,-0.28728148,-0.0086891,-0.84688556,1.1673746
COLO 684,-0.28393614,0.33935907,-0.09361554,0.5005619,-0.11144765,-0.21106265,0.23629473,-0.08900367,-0.28536293,-0.13938077,0.23101342,-0.09381173,-0.20184001,-0.17568311,-0.2266571,0.39594895
SW1463,0.36957043,0.31568176,-0.07939098,1.1478955,0.41759855,-0.462989,0.35090274,-0.14254744,-0.3550923,-0.4342475,-0.14143305,-1.3355973,-0.6401517,0.18555486,-0.38546494,0.59475213
DG-75,-0.40585145,0.37319186,-0.13540795,0.32020664,-0.3046403,-0.087938435,0.06735396,0.05652361,-0.30356884,-0.073052615,0.25859526,0.11743971,-0.15093528,-0.33298764,-0.13750789,0.38791472
SCLC-21H,-0.40585145,0.37319186,-0.13540795,0.32020664,-0.3046403,-0.087938435,0.06735396,0.05652361,-0.30356884,-0.073052615,0.25859526,0.11743971,-0.15093528,-0.33298764,-0.13750789,0.38791472
GT3TKB,-0.50633204,0.7159419,-0.021812953,0.39520952,-0.23921445,-0.10848253,0.19844504,-0.19503799,-0.42887682,0.082406044,0.5246907,0.2943524,-0.01694961,-0.29823402,-0.31889832,0.33578318
ACN,-0.38382953,0.41496053,-0.12631221,0.60505027,-0.1885196,-0.37792766,0.2987412,0.042415515,-0.34109315,-0.21789467,0.02983263,-0.025679525,-0.15103626,-0.03723552,-0.18076465,0.34903494
HCC1419,-0.40585145,0.37319186,-0.13540795,0.32020664,-0.3046403,-0.087938435,0.06735396,0.05652361,-0.30356884,-0.073052615,0.25859526,0.11743971,-0.15093528,-0.33298764,-0.13750789,0.38791472
IGR-1,-0.6715861,0.96651363,-0.06353663,0.545969,-0.7414308,-0.68346614,0.9266983,0.51411676,-1.2804277,-0.291807,0.15332255,-0.054609165,-0.12936509,0.5735001,-0.47528523,0.7951861
HCC2157,-0.40585145,0.37319186,-0.13540795,0.32020664,-0.3046403,-0.087938435,0.06735396,0.05652361,-0.30356884,-0.073052615,0.25859526,0.11743971,-0.15093528,-0.33298764,-0.13750789,0.38791472
ST486,-0.40585145,0.37319186,-0.13540795,0.32020664,-0.3046403,-0.087938435,0.06735396,0.05652361,-0.30356884,-0.073052615,0.25859526,0.11743971,-0.15093528,-0.33298764,-0.13750789,0.38791472
SW1088,-0.7817792,0.5293389,-0.14146248,0.4122542,-0.36386925,-0.24509591,0.3668909,0.40071812,-0.88104993,-0.24656093,0.7314242,-0.43173277,-0.26193357,-0.10918615,-0.8603617,0.99114114
D-502MG,-0.7471515,0.635703,-0.19654289,0.15033835,-0.814565,-0.2722931,0.6696558,0.806449,-1.4187297,-0.30996692,0.7444596,-0.59927154,-0.4376252,0.20383015,-0.91772336,1.3444335
SK-MEL-2,-0.40585145,0.37319186,-0.13540795,0.32020664,-0.3046403,-0.087938435,0.06735396,0.05652361,-0.30356884,-0.073052615,0.25859526,0.11743971,-0.15093528,-0.33298764,-0.13750789,0.38791472
RERF-LC-MS,-0.40585145,0.37319186,-0.13540795,0.32020664,-0.3046403,-0.087938435,0.06735396,0.05652361,-0.30356884,-0.073052615,0.25859526,0.11743971,-0.15093528,-0.33298764,-0.13750789,0.38791472
DMS 79,-0.40585145,0.37319186,-0.13540795,0.32020664,-0.3046403,-0.087938435,0.06735396,0.05652361,-0.30356884,-0.073052615,0.25859526,0.11743971,-0.15093528,-0.33298764,-0.13750789,0.38791472
SiHa,-0.38606372,0.3827362,-0.17512354,0.23975249,-0.41781965,-0.04094938,0.08531525,0.09393276,-0.36993185,-0.091577396,0.2894936,0.012280714,-0.19771549,-0.2870177,-0.17222086,0.42957237
SR,-0.7471515,0.635703,-0.19654289,0.15033835,-0.814565,-0.2722931,0.6696558,0.806449,-1.4187297,-0.30996692,0.7444596,-0.59927154,-0.4376252,0.20383015,-0.91772336,1.3444335
TK-10,-0.40585145,0.37319186,-0.13540795,0.32020664,-0.3046403,-0.087938435,0.06735396,0.05652361,-0.30356884,-0.073052615,0.25859526,0.11743971,-0.15093528,-0.33298764,-0.13750789,0.38791472
NCI-H1838,-0.92811084,0.66882247,-0.21227282,0.18987775,-0.77411366,-0.23854524,0.4297437,0.77686894,-1.2215779,-0.25746822,0.71451944,-0.3362795,-0.28728148,-0.0086891,-0.84688556,1.1673746
A-498,-0.7471515,0.635703,-0.19654289,0.15033835,-0.814565,-0.2722931,0.6696558,0.806449,-1.4187297,-0.30996692,0.7444596,-0.59927154,-0.4376252,0.20383015,-0.91772336,1.3444335
DU4475,-0.13682608,0.30553603,-0.42500535,0.4002673,-0.31277478,-0.056291126,0.044617206,-0.23285455,-0.036004137,-0.24623418,0.08999802,-0.5455425,-0.39141217,-0.09954614,-0.32253653,0.1293498
CAL-33,-1.5149164,0.7473178,-0.14773972,0.30211726,-1.1869402,-0.65068865,0.9060732,1.6795605,-2.1170163,-0.67953014,0.82637805,-0.8203395,-0.2682512,0.49410468,-1.3061765,1.9735012
SCC-15,-0.40585145,0.37319186,-0.13540795,0.32020664,-0.3046403,-0.087938435,0.06735396,0.05652361,-0.30356884,-0.073052615,0.25859526,0.11743971,-0.15093528,-0.33298764,-0.13750789,0.38791472
IST-SL1,-0.38606372,0.3827362,-0.17512354,0.23975249,-0.41781965,-0.04094938,0.08531525,0.09393276,-0.36993185,-0.091577396,0.2894936,0.012280714,-0.19771549,-0.2870177,-0.17222086,0.42957237
JVM-3,-0.49217018,0.4763517,-0.035045926,0.5656967,-0.272381,-0.36622757,0.31819788,0.09839361,-0.4452101,-0.19215536,0.10292908,0.10919817,-0.037271738,-0.054796834,-0.13677186,0.40145412
UACC-893,-0.93606454,0.5496323,-0.16771099,0.48916635,-0.6421563,-0.46304566,0.33161944,0.96138424,-1.0878502,-0.42694843,0.26617944,-0.3350025,-0.20256197,0.028648457,-0.5741516,1.0811416
M14,-0.91935986,0.820797,0.108294696,0.57496,-0.6758931,-0.6193328,0.71121305,0.5715597,-1.1519997,-0.30564323,0.23715326,0.16073957,0.13535896,0.3081823,-0.3297227,0.80917484
MHH-CALL-2,-0.67879057,0.5915423,0.007833691,0.4292807,-0.57266325,-0.4335688,0.69474775,0.5276373,-1.135569,-0.31988013,0.4594011,-0.3045913,-0.16971458,0.23915586,-0.55689573,1.0219592
BC-3,-0.4772613,0.58196676,-0.17296182,0.46912313,-0.32517758,-0.36652163,0.7300446,0.29689884,-1.0682769,-0.29613775,0.6933894,-0.780394,-0.4927227,0.24839243,-1.0006102,1.0880685
DV-90,-0.53687406,0.2291985,-0.18409294,0.33512682,-0.49948585,0.00037147634,-0.14655921,0.1984169,-0.23800421,-0.30748478,0.19671327,-0.32037222,-0.082077384,-0.3325842,-0.13355175,0.4065476
IM-9,-0.38606372,0.3827362,-0.17512354,0.23975249,-0.41781965,-0.04094938,0.08531525,0.09393276,-0.36993185,-0.091577396,0.2894936,0.012280714,-0.19771549,-0.2870177,-0.17222086,0.42957237
OCUB-M,-0.93606454,0.5496323,-0.16771099,0.48916635,-0.6421563,-0.46304566,0.33161944,0.96138424,-1.0878502,-0.42694843,0.26617944,-0.3350025,-0.20256197,0.028648457,-0.5741516,1.0811416
SK-LMS-1,-0.40585145,0.37319186,-0.13540795,0.32020664,-0.3046403,-0.087938435,0.06735396,0.05652361,-0.30356884,-0.073052615,0.25859526,0.11743971,-0.15093528,-0.33298764,-0.13750789,0.38791472
NCI-H1092,-0.40585145,0.37319186,-0.13540795,0.32020664,-0.3046403,-0.087938435,0.06735396,0.05652361,-0.30356884,-0.073052615,0.25859526,0.11743971,-0.15093528,-0.33298764,-0.13750789,0.38791472
SK-N-FI,-0.50633204,0.7159419,-0.021812953,0.39520952,-0.23921445,-0.10848253,0.19844504,-0.19503799,-0.42887682,0.082406044,0.5246907,0.2943524,-0.01694961,-0.29823402,-0.31889832,0.33578318
MKN1,-0.5346072,0.71721226,0.31594333,0.6082937,-0.54655266,-0.62246525,1.0338224,0.54846025,-1.4495546,-0.35802257,0.35764608,-0.31177333,-0.04959124,0.5273086,-0.35344183,1.1700623
AN3-CA,0.048934385,0.6269954,0.1352038,0.6440713,0.0023485569,-0.3782446,0.82062936,-0.48947102,-0.5785406,-0.055910014,0.33451074,-0.18635662,-0.2136961,0.28397068,-0.28686953,0.4129348
TT,-0.38606372,0.3827362,-0.17512354,0.23975249,-0.41781965,-0.04094938,0.08531525,0.09393276,-0.36993185,-0.091577396,0.2894936,0.012280714,-0.19771549,-0.2870177,-0.17222086,0.42957237
NCI-H1792,-0.5155856,0.3239371,-0.08364937,0.57602245,-0.29047674,-0.2335245,-0.016342575,0.32686767,-0.37893036,-0.3044369,0.05552128,-0.2166435,-0.09419383,-0.25882465,-0.108986184,0.516449
SaOS-2,-0.40585145,0.37319186,-0.13540795,0.32020664,-0.3046403,-0.087938435,0.06735396,0.05652361,-0.30356884,-0.073052615,0.25859526,0.11743971,-0.15093528,-0.33298764,-0.13750789,0.38791472
SK-MEL-3,-0.6536399,0.3821562,0.0333277,0.52824533,-0.33904094,-0.33988667,0.22758251,0.26607108,-0.4719119,-0.23784877,0.12930657,0.182463,0.07342971,-0.15675323,-0.06286427,0.49515536
TE-12,-0.7471515,0.635703,-0.19654289,0.15033835,-0.814565,-0.2722931,0.6696558,0.806449,-1.4187297,-0.30996692,0.7444596,-0.59927154,-0.4376252,0.20383015,-0.91772336,1.3444335
NCI-H2342,-0.40585145,0.37319186,-0.13540795,0.32020664,-0.3046403,-0.087938435,0.06735396,0.05652361,-0.30356884,-0.073052615,0.25859526,0.11743971,-0.15093528,-0.33298764,-0.13750789,0.38791472
HT-29,-0.6677678,0.5092628,-0.03259336,0.9252714,-0.10604713,-0.5577732,0.17910886,0.5028398,-0.62402433,-0.40428674,0.0039753444,-0.341856,-0.10105252,-0.06863995,-0.3493288,0.7044997
NCI-H2228,-0.92811084,0.66882247,-0.21227282,0.18987775,-0.77411366,-0.23854524,0.4297437,0.77686894,-1.2215779,-0.25746822,0.71451944,-0.3362795,-0.28728148,-0.0086891,-0.84688556,1.1673746
SK-NEP-1,-0.92811084,0.66882247,-0.21227282,0.18987775,-0.77411366,-0.23854524,0.4297437,0.77686894,-1.2215779,-0.25746822,0.71451944,-0.3362795,-0.28728148,-0.0086891,-0.84688556,1.1673746
EW-24,-0.93606454,0.5496323,-0.16771099,0.48916635,-0.6421563,-0.46304566,0.33161944,0.96138424,-1.0878502,-0.42694843,0.26617944,-0.3350025,-0.20256197,0.028648457,-0.5741516,1.0811416
NCI-H358,-0.53687406,0.2291985,-0.18409294,0.33512682,-0.49948585,0.00037147634,-0.14655921,0.1984169,-0.23800421,-0.30748478,0.19671327,-0.32037222,-0.082077384,-0.3325842,-0.13355175,0.4065476
647V,-0.40585145,0.37319186,-0.13540795,0.32020664,-0.3046403,-0.087938435,0.06735396,0.05652361,-0.30356884,-0.073052615,0.25859526,0.11743971,-0.15093528,-0.33298764,-0.13750789,0.38791472
SK-MEL-30,-0.40585145,0.37319186,-0.13540795,0.32020664,-0.3046403,-0.087938435,0.06735396,0.05652361,-0.30356884,-0.073052615,0.25859526,0.11743971,-0.15093528,-0.33298764,-0.13750789,0.38791472
AU565,-0.40585145,0.37319186,-0.13540795,0.32020664,-0.3046403,-0.087938435,0.06735396,0.05652361,-0.30356884,-0.073052615,0.25859526,0.11743971,-0.15093528,-0.33298764,-0.13750789,0.38791472
COLO 800,-0.91935986,0.820797,0.108294696,0.57496,-0.6758931,-0.6193328,0.71121305,0.5715597,-1.1519997,-0.30564323,0.23715326,0.16073957,0.13535896,0.3081823,-0.3297227,0.80917484
YAPC,-0.87645906,0.7065722,0.042204693,0.394516,-0.8677685,-0.5533647,0.7289334,0.81717676,-1.3042773,-0.36516434,0.23301132,0.0057695922,0.0011891768,0.34218654,-0.3237107,1.0034547
NCI-H1793,-0.5516121,0.5515722,-0.6286146,0.11349911,-1.1182564,-0.48372287,0.7029792,1.2213534,-1.4171402,-0.5230225,0.061790537,-0.8116188,-0.7987535,0.5313254,-0.7816793,1.2343225
MG-63,-0.7471515,0.635703,-0.19654289,0.15033835,-0.814565,-0.2722931,0.6696558,0.806449,-1.4187297,-0.30996692,0.7444596,-0.59927154,-0.4376252,0.20383015,-0.91772336,1.3444335
NCI-H1522,-0.488947,0.2771911,-0.15490742,0.3786913,-0.20787412,-0.08155075,-0.04478149,0.07797779,-0.20042013,-0.11735309,0.2859218,0.050068386,-0.13990723,-0.4368691,-0.20153987,0.40188244
22Rv1,-0.93606454,0.5496323,-0.16771099,0.48916635,-0.6421563,-0.46304566,0.33161944,0.96138424,-1.0878502,-0.42694843,0.26617944,-0.3350025,-0.20256197,0.028648457,-0.5741516,1.0811416
UO-31,-0.7471515,0.635703,-0.19654289,0.15033835,-0.814565,-0.2722931,0.6696558,0.806449,-1.4187297,-0.30996692,0.7444596,-0.59927154,-0.4376252,0.20383015,-0.91772336,1.3444335
MFE-280,-0.93606454,0.5496323,-0.16771099,0.48916635,-0.6421563,-0.46304566,0.33161944,0.96138424,-1.0878502,-0.42694843,0.26617944,-0.3350025,-0.20256197,0.028648457,-0.5741516,1.0811416
BL-70,-0.40585145,0.37319186,-0.13540795,0.32020664,-0.3046403,-0.087938435,0.06735396,0.05652361,-0.30356884,-0.073052615,0.25859526,0.11743971,-0.15093528,-0.33298764,-0.13750789,0.38791472
EW-18,-0.40585145,0.37319186,-0.13540795,0.32020664,-0.3046403,-0.087938435,0.06735396,0.05652361,-0.30356884,-0.073052615,0.25859526,0.11743971,-0.15093528,-0.33298764,-0.13750789,0.38791472
CAMA-1,-0.488947,0.2771911,-0.15490742,0.3786913,-0.20787412,-0.08155075,-0.04478149,0.07797779,-0.20042013,-0.11735309,0.2859218,0.050068386,-0.13990723,-0.4368691,-0.20153987,0.40188244
D-247MG,-0.4772613,0.58196676,-0.17296182,0.46912313,-0.32517758,-0.36652163,0.7300446,0.29689884,-1.0682769,-0.29613775,0.6933894,-0.780394,-0.4927227,0.24839243,-1.0006102,1.0880685
NCI-H23,-0.5155856,0.3239371,-0.08364937,0.57602245,-0.29047674,-0.2335245,-0.016342575,0.32686767,-0.37893036,-0.3044369,0.05552128,-0.2166435,-0.09419383,-0.25882465,-0.108986184,0.516449
CAL-12T,-0.91935986,0.820797,0.108294696,0.57496,-0.6758931,-0.6193328,0.71121305,0.5715597,-1.1519997,-0.30564323,0.23715326,0.16073957,0.13535896,0.3081823,-0.3297227,0.80917484
HuP-T4,-0.87645906,0.7065722,0.042204693,0.394516,-0.8677685,-0.5533647,0.7289334,0.81717676,-1.3042773,-0.36516434,0.23301132,0.0057695922,0.0011891768,0.34218654,-0.3237107,1.0034547
SK-MEL-24,-0.4274423,0.9550145,-0.10362843,0.8257965,-0.29933542,-0.7516993,0.92008555,0.025608893,-0.90329605,-0.24920534,0.08147326,-0.17524365,-0.19985995,0.57620084,-0.5605831,0.48849493
KP-4,-0.6409114,0.7316293,0.022832666,0.4501984,-0.8062436,-0.644877,1.0246404,0.7287712,-1.4626153,-0.41395906,0.25201482,-0.33037922,-0.19616476,0.6200935,-0.4887944,1.119886
MHH-NB-11,-0.40368566,0.2909859,-0.15928559,0.34300402,-0.28786156,-0.10855813,0.03934482,0.10969569,-0.2625163,-0.1253121,0.19315878,0.058119792,-0.17278287,-0.33531415,-0.11889144,0.39838794
K-562,-0.92811084,0.66882247,-0.21227282,0.18987775,-0.77411366,-0.23854524,0.4297437,0.77686894,-1.2215779,-0.25746822,0.71451944,-0.3362795,-0.28728148,-0.0086891,-0.84688556,1.1673746
LCLC-103H,-0.92811084,0.66882247,-0.21227282,0.18987775,-0.77411366,-0.23854524,0.4297437,0.77686894,-1.2215779,-0.25746822,0.71451944,-0.3362795,-0.28728148,-0.0086891,-0.84688556,1.1673746
MRK-nu-1,-0.38606372,0.3827362,-0.17512354,0.23975249,-0.41781965,-0.04094938,0.08531525,0.09393276,-0.36993185,-0.091577396,0.2894936,0.012280714,-0.19771549,-0.2870177,-0.17222086,0.42957237
MHH-ES-1,-0.92811084,0.66882247,-0.21227282,0.18987775,-0.77411366,-0.23854524,0.4297437,0.77686894,-1.2215779,-0.25746822,0.71451944,-0.3362795,-0.28728148,-0.0086891,-0.84688556,1.1673746
NCI-H596,-0.93606454,0.5496323,-0.16771099,0.48916635,-0.6421563,-0.46304566,0.33161944,0.96138424,-1.0878502,-0.42694843,0.26617944,-0.3350025,-0.20256197,0.028648457,-0.5741516,1.0811416
CAL-120,-0.40585145,0.37319186,-0.13540795,0.32020664,-0.3046403,-0.087938435,0.06735396,0.05652361,-0.30356884,-0.073052615,0.25859526,0.11743971,-0.15093528,-0.33298764,-0.13750789,0.38791472
KGN,-0.7471515,0.635703,-0.19654289,0.15033835,-0.814565,-0.2722931,0.6696558,0.806449,-1.4187297,-0.30996692,0.7444596,-0.59927154,-0.4376252,0.20383015,-0.91772336,1.3444335
NCI-H226,-0.7471515,0.635703,-0.19654289,0.15033835,-0.814565,-0.2722931,0.6696558,0.806449,-1.4187297,-0.30996692,0.7444596,-0.59927154,-0.4376252,0.20383015,-0.91772336,1.3444335
DBTRG-05MG,-0.4274423,0.9550145,-0.10362843,0.8257965,-0.29933542,-0.7516993,0.92008555,0.025608893,-0.90329605,-0.24920534,0.08147326,-0.17524365,-0.19985995,0.57620084,-0.5605831,0.48849493
NCI-H209,-0.40585145,0.37319186,-0.13540795,0.32020664,-0.3046403,-0.087938435,0.06735396,0.05652361,-0.30356884,-0.073052615,0.25859526,0.11743971,-0.15093528,-0.33298764,-0.13750789,0.38791472
HEL,-0.17076953,0.7739055,-1.5589858,-0.45418173,-1.9890599,-0.40001744,0.8107085,2.789208,-2.7015815,-0.7957445,-0.012575308,-2.4471045,-2.247081,0.9857565,-1.6986399,2.4703577
NCI-H1573,-0.18499364,0.98773605,0.048058547,0.85522884,-0.06999175,-0.4588098,0.35247782,0.11700178,-0.7834412,-0.04230065,0.04073796,-0.09501765,-0.22309528,0.023264034,-0.21093471,0.5267761
A-388,-0.93606454,0.5496323,-0.16771099,0.48916635,-0.6421563,-0.46304566,0.33161944,0.96138424,-1.0878502,-0.42694843,0.26617944,-0.3350025,-0.20256197,0.028648457,-0.5741516,1.0811416
TYK-nu,-0.92811084,0.66882247,-0.21227282,0.18987775,-0.77411366,-0.23854524,0.4297437,0.77686894,-1.2215779,-0.25746822,0.71451944,-0.3362795,-0.28728148,-0.0086891,-0.84688556,1.1673746
SJNB-13,-0.40585145,0.37319186,-0.13540795,0.32020664,-0.3046403,-0.087938435,0.06735396,0.05652361,-0.30356884,-0.073052615,0.25859526,0.11743971,-0.15093528,-0.33298764,-0.13750789,0.38791472
CMK,-0.92811084,0.66882247,-0.21227282,0.18987775,-0.77411366,-0.23854524,0.4297437,0.77686894,-1.2215779,-0.25746822,0.71451944,-0.3362795,-0.28728148,-0.0086891,-0.84688556,1.1673746
ML-2,-0.6409114,0.7316293,0.022832666,0.4501984,-0.8062436,-0.644877,1.0246404,0.7287712,-1.4626153,-0.41395906,0.25201482,-0.33037922,-0.19616476,0.6200935,-0.4887944,1.119886
PLC/PRF/5,-0.92811084,0.66882247,-0.21227282,0.18987775,-0.77411366,-0.23854524,0.4297437,0.77686894,-1.2215779,-0.25746822,0.71451944,-0.3362795,-0.28728148,-0.0086891,-0.84688556,1.1673746
NCI-H810,-0.40585145,0.37319186,-0.13540795,0.32020664,-0.3046403,-0.087938435,0.06735396,0.05652361,-0.30356884,-0.073052615,0.25859526,0.11743971,-0.15093528,-0.33298764,-0.13750789,0.38791472
NCI-H441,-0.5155856,0.3239371,-0.08364937,0.57602245,-0.29047674,-0.2335245,-0.016342575,0.32686767,-0.37893036,-0.3044369,0.05552128,-0.2166435,-0.09419383,-0.25882465,-0.108986184,0.516449
NCI-H1048,-0.93606454,0.5496323,-0.16771099,0.48916635,-0.6421563,-0.46304566,0.33161944,0.96138424,-1.0878502,-0.42694843,0.26617944,-0.3350025,-0.20256197,0.028648457,-0.5741516,1.0811416
SK-OV-3,-1.5149164,0.7473178,-0.14773972,0.30211726,-1.1869402,-0.65068865,0.9060732,1.6795605,-2.1170163,-0.67953014,0.82637805,-0.8203395,-0.2682512,0.49410468,-1.3061765,1.9735012
LS411N,0.10967303,0.4995963,-0.24994548,0.7971347,0.11708602,-0.49124444,0.5785264,-0.39247826,-0.24015278,-0.19095634,-0.06597962,-0.41676947,-0.47321054,0.2632535,-0.37572125,0.19085458
GCIY,-0.40585145,0.37319186,-0.13540795,0.32020664,-0.3046403,-0.087938435,0.06735396,0.05652361,-0.30356884,-0.073052615,0.25859526,0.11743971,-0.15093528,-0.33298764,-0.13750789,0.38791472
TE-9,-0.92811084,0.66882247,-0.21227282,0.18987775,-0.77411366,-0.23854524,0.4297437,0.77686894,-1.2215779,-0.25746822,0.71451944,-0.3362795,-0.28728148,-0.0086891,-0.84688556,1.1673746
BEN,-0.40585145,0.37319186,-0.13540795,0.32020664,-0.3046403,-0.087938435,0.06735396,0.05652361,-0.30356884,-0.073052615,0.25859526,0.11743971,-0.15093528,-0.33298764,-0.13750789,0.38791472
BxPC-3,-0.92811084,0.66882247,-0.21227282,0.18987775,-0.77411366,-0.23854524,0.4297437,0.77686894,-1.2215779,-0.25746822,0.71451944,-0.3362795,-0.28728148,-0.0086891,-0.84688556,1.1673746
NCI-H378,-0.40585145,0.37319186,-0.13540795,0.32020664,-0.3046403,-0.087938435,0.06735396,0.05652361,-0.30356884,-0.073052615,0.25859526,0.11743971,-0.15093528,-0.33298764,-0.13750789,0.38791472
NCI-H2009,-0.5155856,0.3239371,-0.08364937,0.57602245,-0.29047674,-0.2335245,-0.016342575,0.32686767,-0.37893036,-0.3044369,0.05552128,-0.2166435,-0.09419383,-0.25882465,-0.108986184,0.516449
HAL-01,-0.7471515,0.635703,-0.19654289,0.15033835,-0.814565,-0.2722931,0.6696558,0.806449,-1.4187297,-0.30996692,0.7444596,-0.59927154,-0.4376252,0.20383015,-0.91772336,1.3444335
HT,-0.488947,0.2771911,-0.15490742,0.3786913,-0.20787412,-0.08155075,-0.04478149,0.07797779,-0.20042013,-0.11735309,0.2859218,0.050068386,-0.13990723,-0.4368691,-0.20153987,0.40188244
U266B1,-0.6536399,0.3821562,0.0333277,0.52824533,-0.33904094,-0.33988667,0.22758251,0.26607108,-0.4719119,-0.23784877,0.12930657,0.182463,0.07342971,-0.15675323,-0.06286427,0.49515536
KYSE-140,-0.92811084,0.66882247,-0.21227282,0.18987775,-0.77411366,-0.23854524,0.4297437,0.77686894,-1.2215779,-0.25746822,0.71451944,-0.3362795,-0.28728148,-0.0086891,-0.84688556,1.1673746
NCI-H292,-0.7471515,0.635703,-0.19654289,0.15033835,-0.814565,-0.2722931,0.6696558,0.806449,-1.4187297,-0.30996692,0.7444596,-0.59927154,-0.4376252,0.20383015,-0.91772336,1.3444335
BT-474,-0.93606454,0.5496323,-0.16771099,0.48916635,-0.6421563,-0.46304566,0.33161944,0.96138424,-1.0878502,-0.42694843,0.26617944,-0.3350025,-0.20256197,0.028648457,-0.5741516,1.0811416
IPC-298,-0.92811084,0.66882247,-0.21227282,0.18987775,-0.77411366,-0.23854524,0.4297437,0.77686894,-1.2215779,-0.25746822,0.71451944,-0.3362795,-0.28728148,-0.0086891,-0.84688556,1.1673746
CAL-85-1,-0.40585145,0.37319186,-0.13540795,0.32020664,-0.3046403,-0.087938435,0.06735396,0.05652361,-0.30356884,-0.073052615,0.25859526,0.11743971,-0.15093528,-0.33298764,-0.13750789,0.38791472
RMG-I,-0.7471515,0.635703,-0.19654289,0.15033835,-0.814565,-0.2722931,0.6696558,0.806449,-1.4187297,-0.30996692,0.7444596,-0.59927154,-0.4376252,0.20383015,-0.91772336,1.3444335
SiMa,-0.40368566,0.2909859,-0.15928559,0.34300402,-0.28786156,-0.10855813,0.03934482,0.10969569,-0.2625163,-0.1253121,0.19315878,0.058119792,-0.17278287,-0.33531415,-0.11889144,0.39838794
CPC-N,-0.40585145,0.37319186,-0.13540795,0.32020664,-0.3046403,-0.087938435,0.06735396,0.05652361,-0.30356884,-0.073052615,0.25859526,0.11743971,-0.15093528,-0.33298764,-0.13750789,0.38791472
RT-4,-0.36410752,0.5802663,-0.8782402,0.01942203,-1.2501607,-0.40560594,0.7246453,1.1460568,-1.4055952,-0.57989746,0.044562526,-1.242922,-1.0612832,0.6889621,-0.98495525,1.1853644
SF295,-0.7817792,0.5293389,-0.14146248,0.4122542,-0.36386925,-0.24509591,0.3668909,0.40071812,-0.88104993,-0.24656093,0.7314242,-0.43173277,-0.26193357,-0.10918615,-0.8603617,0.99114114
OVCAR-8,-0.40585145,0.37319186,-0.13540795,0.32020664,-0.3046403,-0.087938435,0.06735396,0.05652361,-0.30356884,-0.073052615,0.25859526,0.11743971,-0.15093528,-0.33298764,-0.13750789,0.38791472
SF539,-0.488947,0.2771911,-0.15490742,0.3786913,-0.20787412,-0.08155075,-0.04478149,0.07797779,-0.20042013,-0.11735309,0.2859218,0.050068386,-0.13990723,-0.4368691,-0.20153987,0.40188244
A3/Kawakami,-0.7471515,0.635703,-0.19654289,0.15033835,-0.814565,-0.2722931,0.6696558,0.806449,-1.4187297,-0.30996692,0.7444596,-0.59927154,-0.4376252,0.20383015,-0.91772336,1.3444335
NCI-H1581,-0.33801413,0.44746578,-0.047839873,1.1530423,0.67990327,-0.27536723,-0.16523212,-0.15563233,-0.15502496,-0.19332577,0.47306952,-0.79260635,-0.3409333,-0.537087,-0.78228205,0.61978704
KP-N-YS,-0.40585145,0.37319186,-0.13540795,0.32020664,-0.3046403,-0.087938435,0.06735396,0.05652361,-0.30356884,-0.073052615,0.25859526,0.11743971,-0.15093528,-0.33298764,-0.13750789,0.38791472
Onda 11,-0.39571074,0.24846892,-0.1798221,0.3653718,-0.26267347,-0.12219658,0.023282545,0.12305731,-0.22879261,-0.15275373,0.15912195,0.013532057,-0.19321445,-0.33610955,-0.123095654,0.39612645
LoVo,0.50457704,0.21480194,-0.070901684,1.159073,0.41334993,-0.44526625,0.5380905,-0.43150598,-0.27870083,-0.5402293,-0.07166697,-1.6803516,-0.6533413,0.40854126,-0.47744066,0.52018803
HN,-0.92811084,0.66882247,-0.21227282,0.18987775,-0.77411366,-0.23854524,0.4297437,0.77686894,-1.2215779,-0.25746822,0.71451944,-0.3362795,-0.28728148,-0.0086891,-0.84688556,1.1673746
KE-37,-0.7817792,0.5293389,-0.14146248,0.4122542,-0.36386925,-0.24509591,0.3668909,0.40071812,-0.88104993,-0.24656093,0.7314242,-0.43173277,-0.26193357,-0.10918615,-0.8603617,0.99114114
BL-41,-0.40585145,0.37319186,-0.13540795,0.32020664,-0.3046403,-0.087938435,0.06735396,0.05652361,-0.30356884,-0.073052615,0.25859526,0.11743971,-0.15093528,-0.33298764,-0.13750789,0.38791472
NMC-G1,-0.6715861,0.96651363,-0.06353663,0.545969,-0.7414308,-0.68346614,0.9266983,0.51411676,-1.2804277,-0.291807,0.15332255,-0.054609165,-0.12936509,0.5735001,-0.47528523,0.7951861
A-704,-0.38606372,0.3827362,-0.17512354,0.23975249,-0.41781965,-0.04094938,0.08531525,0.09393276,-0.36993185,-0.091577396,0.2894936,0.012280714,-0.19771549,-0.2870177,-0.17222086,0.42957237
PA-1,-0.38606372,0.3827362,-0.17512354,0.23975249,-0.41781965,-0.04094938,0.08531525,0.09393276,-0.36993185,-0.091577396,0.2894936,0.012280714,-0.19771549,-0.2870177,-0.17222086,0.42957237
SK-MEL-5,-0.6715861,0.96651363,-0.06353663,0.545969,-0.7414308,-0.68346614,0.9266983,0.51411676,-1.2804277,-0.291807,0.15332255,-0.054609165,-0.12936509,0.5735001,-0.47528523,0.7951861
HCC1806,-0.92811084,0.66882247,-0.21227282,0.18987775,-0.77411366,-0.23854524,0.4297437,0.77686894,-1.2215779,-0.25746822,0.71451944,-0.3362795,-0.28728148,-0.0086891,-0.84688556,1.1673746
HCE-4,-0.40585145,0.37319186,-0.13540795,0.32020664,-0.3046403,-0.087938435,0.06735396,0.05652361,-0.30356884,-0.073052615,0.25859526,0.11743971,-0.15093528,-0.33298764,-0.13750789,0.38791472
Daudi,-0.40585145,0.37319186,-0.13540795,0.32020664,-0.3046403,-0.087938435,0.06735396,0.05652361,-0.30356884,-0.073052615,0.25859526,0.11743971,-0.15093528,-0.33298764,-0.13750789,0.38791472
B-CPAP,-0.6536399,0.3821562,0.0333277,0.52824533,-0.33904094,-0.33988667,0.22758251,0.26607108,-0.4719119,-0.23784877,0.12930657,0.182463,0.07342971,-0.15675323,-0.06286427,0.49515536
BT-20,-1.5149164,0.7473178,-0.14773972,0.30211726,-1.1869402,-0.65068865,0.9060732,1.6795605,-2.1170163,-0.67953014,0.82637805,-0.8203395,-0.2682512,0.49410468,-1.3061765,1.9735012
MN-60,-0.7471515,0.635703,-0.19654289,0.15033835,-0.814565,-0.2722931,0.6696558,0.806449,-1.4187297,-0.30996692,0.7444596,-0.59927154,-0.4376252,0.20383015,-0.91772336,1.3444335
MeWo,-0.9046483,0.593503,0.009265783,0.43378732,-0.5609708,-0.3679607,0.41005233,0.5465318,-0.94202375,-0.26844317,0.4541614,-0.010468973,0.009861177,-0.026074767,-0.46083558,0.8740184
ES4,-0.7471515,0.635703,-0.19654289,0.15033835,-0.814565,-0.2722931,0.6696558,0.806449,-1.4187297,-0.30996692,0.7444596,-0.59927154,-0.4376252,0.20383015,-0.91772336,1.3444335
NCI-H446,-0.488947,0.2771911,-0.15490742,0.3786913,-0.20787412,-0.08155075,-0.04478149,0.07797779,-0.20042013,-0.11735309,0.2859218,0.050068386,-0.13990723,-0.4368691,-0.20153987,0.40188244
NCI-H1299,-0.38606372,0.3827362,-0.17512354,0.23975249,-0.41781965,-0.04094938,0.08531525,0.09393276,-0.36993185,-0.091577396,0.2894936,0.012280714,-0.19771549,-0.2870177,-0.17222086,0.42957237
NUGC-3,-0.40585145,0.37319186,-0.13540795,0.32020664,-0.3046403,-0.087938435,0.06735396,0.05652361,-0.30356884,-0.073052615,0.25859526,0.11743971,-0.15093528,-0.33298764,-0.13750789,0.38791472
VMRC-RCZ,-0.7471515,0.635703,-0.19654289,0.15033835,-0.814565,-0.2722931,0.6696558,0.806449,-1.4187297,-0.30996692,0.7444596,-0.59927154,-0.4376252,0.20383015,-0.91772336,1.3444335
SK-HEP-1,-0.59810466,1.4803776,-0.013194809,0.7469053,-0.4953497,-0.779222,1.2860209,-0.0015947544,-1.4746002,-0.09887442,0.5585488,-0.15977152,-0.1770608,0.80446965,-0.9854315,0.7475186
OVCAR-5,-0.6409114,0.7316293,0.022832666,0.4501984,-0.8062436,-0.644877,1.0246404,0.7287712,-1.4626153,-0.41395906,0.25201482,-0.33037922,-0.19616476,0.6200935,-0.4887944,1.119886
LAMA-84,-0.92811084,0.66882247,-0.21227282,0.18987775,-0.77411366,-0.23854524,0.4297437,0.77686894,-1.2215779,-0.25746822,0.71451944,-0.3362795,-0.28728148,-0.0086891,-0.84688556,1.1673746
MZ-MEL-7,-0.09115724,0.88892925,-1.2598463,-0.24064602,-1.4003061,-0.36557314,0.9893454,1.2693392,-1.8252245,-0.4256015,0.2579805,-1.5725316,-1.6649948,0.9055106,-1.5335997,1.457317
KO52,-0.40585145,0.37319186,-0.13540795,0.32020664,-0.3046403,-0.087938435,0.06735396,0.05652361,-0.30356884,-0.073052615,0.25859526,0.11743971,-0.15093528,-0.33298764,-0.13750789,0.38791472
Detroit 562,-1.5149164,0.7473178,-0.14773972,0.30211726,-1.1869402,-0.65068865,0.9060732,1.6795605,-2.1170163,-0.67953014,0.82637805,-0.8203395,-0.2682512,0.49410468,-1.3061765,1.9735012
HSC-2,-1.5149164,0.7473178,-0.14773972,0.30211726,-1.1869402,-0.65068865,0.9060732,1.6795605,-2.1170163,-0.67953014,0.82637805,-0.8203395,-0.2682512,0.49410468,-1.3061765,1.9735012
OS-RC-2,-0.4772613,0.58196676,-0.17296182,0.46912313,-0.32517758,-0.36652163,0.7300446,0.29689884,-1.0682769,-0.29613775,0.6933894,-0.780394,-0.4927227,0.24839243,-1.0006102,1.0880685
C2BBe1,-0.5213963,0.12410929,-0.21944703,0.5157793,-0.05361448,0.0562944,-0.40696847,0.1128358,-0.017404024,-0.2564903,0.35815006,-0.48790008,-0.2066647,-0.6575891,-0.3689903,0.470803
NCI-H2126,-0.92811084,0.66882247,-0.21227282,0.18987775,-0.77411366,-0.23854524,0.4297437,0.77686894,-1.2215779,-0.25746822,0.71451944,-0.3362795,-0.28728148,-0.0086891,-0.84688556,1.1673746
NH-12,-0.40368566,0.2909859,-0.15928559,0.34300402,-0.28786156,-0.10855813,0.03934482,0.10969569,-0.2625163,-0.1253121,0.19315878,0.058119792,-0.17278287,-0.33531415,-0.11889144,0.39838794
SW954,-0.40585145,0.37319186,-0.13540795,0.32020664,-0.3046403,-0.087938435,0.06735396,0.05652361,-0.30356884,-0.073052615,0.25859526,0.11743971,-0.15093528,-0.33298764,-0.13750789,0.38791472
Hep-G2/C3A,-0.38606372,0.3827362,-0.17512354,0.23975249,-0.41781965,-0.04094938,0.08531525,0.09393276,-0.36993185,-0.091577396,0.2894936,0.012280714,-0.19771549,-0.2870177,-0.17222086,0.42957237
MDA-MB-134-VI,-0.38606372,0.3827362,-0.17512354,0.23975249,-0.41781965,-0.04094938,0.08531525,0.09393276,-0.36993185,-0.091577396,0.2894936,0.012280714,-0.19771549,-0.2870177,-0.17222086,0.42957237
NCI-H1693,-0.5274161,0.7831894,-0.0192152,0.4266026,-0.11140845,-0.007327354,0.033410657,-0.19077927,-0.44443786,0.15001167,0.7101946,0.18099467,-0.07263866,-0.49017662,-0.47721195,0.4379139
BFTC-909,-1.5149164,0.7473178,-0.14773972,0.30211726,-1.1869402,-0.65068865,0.9060732,1.6795605,-2.1170163,-0.67953014,0.82637805,-0.8203395,-0.2682512,0.49410468,-1.3061765,1.9735012
SW48,0.019646984,0.65988654,0.24999304,0.59083074,-0.038932838,-0.33569658,0.8736642,-0.50067264,-0.6792955,-0.015175291,0.45588455,-0.110921055,-0.13250187,0.2722811,-0.2541217,0.48587444
KINGS-1,-0.92811084,0.66882247,-0.21227282,0.18987775,-0.77411366,-0.23854524,0.4297437,0.77686894,-1.2215779,-0.25746822,0.71451944,-0.3362795,-0.28728148,-0.0086891,-0.84688556,1.1673746
LNCaP clone FGC,-0.28393614,0.33935907,-0.09361554,0.5005619,-0.11144765,-0.21106265,0.23629473,-0.08900367,-0.28536293,-0.13938077,0.23101342,-0.09381173,-0.20184001,-0.17568311,-0.2266571,0.39594895
NCI-H716,-0.40585145,0.37319186,-0.13540795,0.32020664,-0.3046403,-0.087938435,0.06735396,0.05652361,-0.30356884,-0.073052615,0.25859526,0.11743971,-0.15093528,-0.33298764,-0.13750789,0.38791472
SW620,-0.11414636,0.20969762,-0.41642985,0.5306829,-0.23704216,0.12544046,-0.54940784,0.27910262,-0.096177675,-0.36555696,-0.006839666,-1.074566,-0.52527064,-0.4998992,-0.250393,0.4598373
LN-405,-0.488947,0.2771911,-0.15490742,0.3786913,-0.20787412,-0.08155075,-0.04478149,0.07797779,-0.20042013,-0.11735309,0.2859218,0.050068386,-0.13990723,-0.4368691,-0.20153987,0.40188244
TE-11,-0.92811084,0.66882247,-0.21227282,0.18987775,-0.77411366,-0.23854524,0.4297437,0.77686894,-1.2215779,-0.25746822,0.71451944,-0.3362795,-0.28728148,-0.0086891,-0.84688556,1.1673746
SJNB-7,-0.40585145,0.37319186,-0.13540795,0.32020664,-0.3046403,-0.087938435,0.06735396,0.05652361,-0.30356884,-0.073052615,0.25859526,0.11743971,-0.15093528,-0.33298764,-0.13750789,0.38791472
CAL-54,0.032613363,1.0104233,0.18737115,0.45448872,-0.6153725,-0.66085625,1.7556334,0.112169184,-1.8294708,-0.24289484,0.5938412,-0.7698822,-0.4996815,1.1470864,-0.7695517,1.2545165
C32 [Human melanoma],-0.4274423,0.9550145,-0.10362843,0.8257965,-0.29933542,-0.7516993,0.92008555,0.025608893,-0.90329605,-0.24920534,0.08147326,-0.17524365,-0.19985995,0.57620084,-0.5605831,0.48849493
SNB-75,-0.40585145,0.37319186,-0.13540795,0.32020664,-0.3046403,-0.087938435,0.06735396,0.05652361,-0.30356884,-0.073052615,0.25859526,0.11743971,-0.15093528,-0.33298764,-0.13750789,0.38791472
CAL-27,-0.92811084,0.66882247,-0.21227282,0.18987775,-0.77411366,-0.23854524,0.4297437,0.77686894,-1.2215779,-0.25746822,0.71451944,-0.3362795,-0.28728148,-0.0086891,-0.84688556,1.1673746
KY821,-0.40585145,0.37319186,-0.13540795,0.32020664,-0.3046403,-0.087938435,0.06735396,0.05652361,-0.30356884,-0.073052615,0.25859526,0.11743971,-0.15093528,-0.33298764,-0.13750789,0.38791472
SJNB-14,-0.40585145,0.37319186,-0.13540795,0.32020664,-0.3046403,-0.087938435,0.06735396,0.05652361,-0.30356884,-0.073052615,0.25859526,0.11743971,-0.15093528,-0.33298764,-0.13750789,0.38791472
MDA-MB-361,-1.3625832,0.6943326,-0.12106776,0.24024215,-1.2457272,-0.66412324,1.1174325,1.7400461,-2.3164673,-0.7327057,0.8720668,-1.0634837,-0.39995733,0.67301655,-1.3609333,2.1691248
639V,-0.93606454,0.5496323,-0.16771099,0.48916635,-0.6421563,-0.46304566,0.33161944,0.96138424,-1.0878502,-0.42694843,0.26617944,-0.3350025,-0.20256197,0.028648457,-0.5741516,1.0811416
SW948,-0.103143804,0.27853024,-0.2958278,0.8311438,-0.3584053,-0.29286,0.04433568,0.77235764,-0.82990175,-0.76038074,-0.10305858,-1.8973721,-0.69398046,0.1748413,-0.5486458,1.0850891
NCI-H460,-1.158201,0.82059586,0.093105234,0.5489993,-1.2686197,-1.0683734,1.5199302,1.7103527,-2.4241965,-0.8447304,0.28178862,-0.8343546,-0.21368667,1.164139,-0.87090945,1.9609952
NCI-H1436,0.048934385,0.6269954,0.1352038,0.6440713,0.0023485569,-0.3782446,0.82062936,-0.48947102,-0.5785406,-0.055910014,0.33451074,-0.18635662,-0.2136961,0.28397068,-0.28686953,0.4129348
NCI-H1648,-0.92811084,0.66882247,-0.21227282,0.18987775,-0.77411366,-0.23854524,0.4297437,0.77686894,-1.2215779,-0.25746822,0.71451944,-0.3362795,-0.28728148,-0.0086891,-0.84688556,1.1673746
SW1990,-0.6409114,0.7316293,0.022832666,0.4501984,-0.8062436,-0.644877,1.0246404,0.7287712,-1.4626153,-0.41395906,0.25201482,-0.33037922,-0.19616476,0.6200935,-0.4887944,1.119886
UACC-257,-0.49217018,0.4763517,-0.035045926,0.5656967,-0.272381,-0.36622757,0.31819788,0.09839361,-0.4452101,-0.19215536,0.10292908,0.10919817,-0.037271738,-0.054796834,-0.13677186,0.40145412
COLO 741,-0.91935986,0.820797,0.108294696,0.57496,-0.6758931,-0.6193328,0.71121305,0.5715597,-1.1519997,-0.30564323,0.23715326,0.16073957,0.13535896,0.3081823,-0.3297227,0.80917484
SH-4,-0.6715861,0.96651363,-0.06353663,0.545969,-0.7414308,-0.68346614,0.9266983,0.51411676,-1.2804277,-0.291807,0.15332255,-0.054609165,-0.12936509,0.5735001,-0.47528523,0.7951861
AGS,-0.8046676,0.46998063,-0.002304832,0.7527957,-0.6541764,-0.6021274,0.37476823,1.0886078,-1.1648066,-0.67654276,-0.05733043,-0.74250543,-0.12069593,0.2548543,-0.32362485,1.1398313
Capan-2,-0.53687406,0.2291985,-0.18409294,0.33512682,-0.49948585,0.00037147634,-0.14655921,0.1984169,-0.23800421,-0.30748478,0.19671327,-0.32037222,-0.082077384,-0.3325842,-0.13355175,0.4065476
TGBC1TKB,-0.488947,0.2771911,-0.15490742,0.3786913,-0.20787412,-0.08155075,-0.04478149,0.07797779,-0.20042013,-0.11735309,0.2859218,0.050068386,-0.13990723,-0.4368691,-0.20153987,0.40188244
T98G,-0.92811084,0.66882247,-0.21227282,0.18987775,-0.77411366,-0.23854524,0.4297437,0.77686894,-1.2215779,-0.25746822,0.71451944,-0.3362795,-0.28728148,-0.0086891,-0.84688556,1.1673746
CTB-1,-1.0860012,0.1333069,-0.23737998,0.5532047,0.13098459,0.021884415,-0.5115224,0.18608633,0.005997697,-0.1984036,0.80192286,-0.21644919,-0.06294698,-0.9529821,-0.82407403,0.622024
NALM-6,-0.7471515,0.635703,-0.19654289,0.15033835,-0.814565,-0.2722931,0.6696558,0.806449,-1.4187297,-0.30996692,0.7444596,-0.59927154,-0.4376252,0.20383015,-0.91772336,1.3444335
J82,-0.9609409,0.313515,-0.067661844,0.5257237,-0.389714,-0.36270905,0.2099051,0.628761,-0.7187548,-0.39847794,0.4008821,-0.22814554,-0.046419755,-0.17989318,-0.5220394,0.90733576
IST-MEL1,-0.6536399,0.3821562,0.0333277,0.52824533,-0.33904094,-0.33988667,0.22758251,0.26607108,-0.4719119,-0.23784877,0.12930657,0.182463,0.07342971,-0.15675323,-0.06286427,0.49515536
P12-Ichikawa,0.11477573,0.9297858,0.2366195,0.6640561,-0.27255332,-0.6646591,1.5656878,-0.2586727,-1.3762705,-0.18330558,0.46449852,-0.5870634,-0.368761,0.9676381,-0.60446703,0.89425135
PC-3,-0.488947,0.2771911,-0.15490742,0.3786913,-0.20787412,-0.08155075,-0.04478149,0.07797779,-0.20042013,-0.11735309,0.2859218,0.050068386,-0.13990723,-0.4368691,-0.20153987,0.40188244
EW-1,-0.92811084,0.66882247,-0.21227282,0.18987775,-0.77411366,-0.23854524,0.4297437,0.77686894,-1.2215779,-0.25746822,0.71451944,-0.3362795,-0.28728148,-0.0086891,-0.84688556,1.1673746
KALS-1,-0.39571074,0.24846892,-0.1798221,0.3653718,-0.26267347,-0.12219658,0.023282545,0.12305731,-0.22879261,-0.15275373,0.15912195,0.013532057,-0.19321445,-0.33610955,-0.123095654,0.39612645
DMS 114,-0.5274161,0.7831894,-0.0192152,0.4266026,-0.11140845,-0.007327354,0.033410657,-0.19077927,-0.44443786,0.15001167,0.7101946,0.18099467,-0.07263866,-0.49017662,-0.47721195,0.4379139
SCC-4,-0.92811084,0.66882247,-0.21227282,0.18987775,-0.77411366,-0.23854524,0.4297437,0.77686894,-1.2215779,-0.25746822,0.71451944,-0.3362795,-0.28728148,-0.0086891,-0.84688556,1.1673746
SUP-T1,-1.5149164,0.7473178,-0.14773972,0.30211726,-1.1869402,-0.65068865,0.9060732,1.6795605,-2.1170163,-0.67953014,0.82637805,-0.8203395,-0.2682512,0.49410468,-1.3061765,1.9735012
NCI-H2291,-0.5155856,0.3239371,-0.08364937,0.57602245,-0.29047674,-0.2335245,-0.016342575,0.32686767,-0.37893036,-0.3044369,0.05552128,-0.2166435,-0.09419383,-0.25882465,-0.108986184,0.516449
ECC10,-0.40760717,-0.0073162834,-0.22038719,0.4273295,-0.18365562,0.109759994,-0.22723489,-0.040010396,-0.02502561,-0.37719807,0.42391586,-0.82673365,-0.23557392,-0.43705177,-0.41801065,0.4766613
NCI-H2122,-0.87645906,0.7065722,0.042204693,0.394516,-0.8677685,-0.5533647,0.7289334,0.81717676,-1.3042773,-0.36516434,0.23301132,0.0057695922,0.0011891768,0.34218654,-0.3237107,1.0034547
TUR,-0.488947,0.2771911,-0.15490742,0.3786913,-0.20787412,-0.08155075,-0.04478149,0.07797779,-0.20042013,-0.11735309,0.2859218,0.050068386,-0.13990723,-0.4368691,-0.20153987,0.40188244
MPP 89,-0.38606372,0.3827362,-0.17512354,0.23975249,-0.41781965,-0.04094938,0.08531525,0.09393276,-0.36993185,-0.091577396,0.2894936,0.012280714,-0.19771549,-0.2870177,-0.17222086,0.42957237
OAW28,-0.38606372,0.3827362,-0.17512354,0.23975249,-0.41781965,-0.04094938,0.08531525,0.09393276,-0.36993185,-0.091577396,0.2894936,0.012280714,-0.19771549,-0.2870177,-0.17222086,0.42957237
LXF 289,-0.92811084,0.66882247,-0.21227282,0.18987775,-0.77411366,-0.23854524,0.4297437,0.77686894,-1.2215779,-0.25746822,0.71451944,-0.3362795,-0.28728148,-0.0086891,-0.84688556,1.1673746
ABC-1,-0.40585145,0.37319186,-0.13540795,0.32020664,-0.3046403,-0.087938435,0.06735396,0.05652361,-0.30356884,-0.073052615,0.25859526,0.11743971,-0.15093528,-0.33298764,-0.13750789,0.38791472
LB996-RCC,-0.7471515,0.635703,-0.19654289,0.15033835,-0.814565,-0.2722931,0.6696558,0.806449,-1.4187297,-0.30996692,0.7444596,-0.59927154,-0.4376252,0.20383015,-0.91772336,1.3444335
MOLT-4,-0.7817792,0.5293389,-0.14146248,0.4122542,-0.36386925,-0.24509591,0.3668909,0.40071812,-0.88104993,-0.24656093,0.7314242,-0.43173277,-0.26193357,-0.10918615,-0.8603617,0.99114114
SW1710,-0.92811084,0.66882247,-0.21227282,0.18987775,-0.77411366,-0.23854524,0.4297437,0.77686894,-1.2215779,-0.25746822,0.71451944,-0.3362795,-0.28728148,-0.0086891,-0.84688556,1.1673746
EoL-1,-0.7471515,0.635703,-0.19654289,0.15033835,-0.814565,-0.2722931,0.6696558,0.806449,-1.4187297,-0.30996692,0.7444596,-0.59927154,-0.4376252,0.20383015,-0.91772336,1.3444335
NCI-H1623,-0.40585145,0.37319186,-0.13540795,0.32020664,-0.3046403,-0.087938435,0.06735396,0.05652361,-0.30356884,-0.073052615,0.25859526,0.11743971,-0.15093528,-0.33298764,-0.13750789,0.38791472
GMS-10,-0.45631948,0.2723204,-0.13251351,0.39047328,-0.28480896,-0.15944786,0.057286307,0.15986924,-0.28047603,-0.16843182,0.15966068,0.055923507,-0.13294116,-0.30949578,-0.10612388,0.4215057
HCC2218,-0.40585145,0.37319186,-0.13540795,0.32020664,-0.3046403,-0.087938435,0.06735396,0.05652361,-0.30356884,-0.073052615,0.25859526,0.11743971,-0.15093528,-0.33298764,-0.13750789,0.38791472
MSTO-211H,-0.7471515,0.635703,-0.19654289,0.15033835,-0.814565,-0.2722931,0.6696558,0.806449,-1.4187297,-0.30996692,0.7444596,-0.59927154,-0.4376252,0.20383015,-0.91772336,1.3444335
NCI-H2141,-0.40585145,0.37319186,-0.13540795,0.32020664,-0.3046403,-0.087938435,0.06735396,0.05652361,-0.30356884,-0.073052615,0.25859526,0.11743971,-0.15093528,-0.33298764,-0.13750789,0.38791472
CAS-1,-0.7817792,0.5293389,-0.14146248,0.4122542,-0.36386925,-0.24509591,0.3668909,0.40071812,-0.88104993,-0.24656093,0.7314242,-0.43173277,-0.26193357,-0.10918615,-0.8603617,0.99114114
NCI-H1395,-0.49217018,0.4763517,-0.035045926,0.5656967,-0.272381,-0.36622757,0.31819788,0.09839361,-0.4452101,-0.19215536,0.10292908,0.10919817,-0.037271738,-0.054796834,-0.13677186,0.40145412
NCI-H522,-0.40585145,0.37319186,-0.13540795,0.32020664,-0.3046403,-0.087938435,0.06735396,0.05652361,-0.30356884,-0.073052615,0.25859526,0.11743971,-0.15093528,-0.33298764,-0.13750789,0.38791472
SCH,-0.40585145,0.37319186,-0.13540795,0.32020664,-0.3046403,-0.087938435,0.06735396,0.05652361,-0.30356884,-0.073052615,0.25859526,0.11743971,-0.15093528,-0.33298764,-0.13750789,0.38791472
L-428,-0.40585145,0.37319186,-0.13540795,0.32020664,-0.3046403,-0.087938435,0.06735396,0.05652361,-0.30356884,-0.073052615,0.25859526,0.11743971,-0.15093528,-0.33298764,-0.13750789,0.38791472
HT-1376,-0.40585145,0.37319186,-0.13540795,0.32020664,-0.3046403,-0.087938435,0.06735396,0.05652361,-0.30356884,-0.073052615,0.25859526,0.11743971,-0.15093528,-0.33298764,-0.13750789,0.38791472
Caki-1,-0.7471515,0.635703,-0.19654289,0.15033835,-0.814565,-0.2722931,0.6696558,0.806449,-1.4187297,-0.30996692,0.7444596,-0.59927154,-0.4376252,0.20383015,-0.91772336,1.3444335
LP-1,-0.40585145,0.37319186,-0.13540795,0.32020664,-0.3046403,-0.087938435,0.06735396,0.05652361,-0.30356884,-0.073052615,0.25859526,0.11743971,-0.15093528,-0.33298764,-0.13750789,0.38791472
COLO 320HSR,-0.5213963,0.12410929,-0.21944703,0.5157793,-0.05361448,0.0562944,-0.40696847,0.1128358,-0.017404024,-0.2564903,0.35815006,-0.48790008,-0.2066647,-0.6575891,-0.3689903,0.470803
NCI-H630,-0.5213963,0.12410929,-0.21944703,0.5157793,-0.05361448,0.0562944,-0.40696847,0.1128358,-0.017404024,-0.2564903,0.35815006,-0.48790008,-0.2066647,-0.6575891,-0.3689903,0.470803
ES6,-0.40585145,0.37319186,-0.13540795,0.32020664,-0.3046403,-0.087938435,0.06735396,0.05652361,-0.30356884,-0.073052615,0.25859526,0.11743971,-0.15093528,-0.33298764,-0.13750789,0.38791472
Calu-6,-0.5155856,0.3239371,-0.08364937,0.57602245,-0.29047674,-0.2335245,-0.016342575,0.32686767,-0.37893036,-0.3044369,0.05552128,-0.2166435,-0.09419383,-0.25882465,-0.108986184,0.516449
MC116,-0.488947,0.2771911,-0.15490742,0.3786913,-0.20787412,-0.08155075,-0.04478149,0.07797779,-0.20042013,-0.11735309,0.2859218,0.050068386,-0.13990723,-0.4368691,-0.20153987,0.40188244
EPLC-272H,-0.40585145,0.37319186,-0.13540795,0.32020664,-0.3046403,-0.087938435,0.06735396,0.05652361,-0.30356884,-0.073052615,0.25859526,0.11743971,-0.15093528,-0.33298764,-0.13750789,0.38791472
HCC1187,-0.40585145,0.37319186,-0.13540795,0.32020664,-0.3046403,-0.087938435,0.06735396,0.05652361,-0.30356884,-0.073052615,0.25859526,0.11743971,-0.15093528,-0.33298764,-0.13750789,0.38791472
DoTc2 4510,-0.18667549,-0.045607194,-0.11789658,0.4807784,-0.20061436,0.014754235,-0.01476333,0.08060211,-0.24170789,-0.46000338,0.28751838,-1.0425044,-0.3284597,-0.21788998,-0.3019693,0.65640914
COLO 668,-0.5155856,0.3239371,-0.08364937,0.57602245,-0.29047674,-0.2335245,-0.016342575,0.32686767,-0.37893036,-0.3044369,0.05552128,-0.2166435,-0.09419383,-0.25882465,-0.108986184,0.516449
EGI-1,-0.87645906,0.7065722,0.042204693,0.394516,-0.8677685,-0.5533647,0.7289334,0.81717676,-1.3042773,-0.36516434,0.23301132,0.0057695922,0.0011891768,0.34218654,-0.3237107,1.0034547
NCI-H1666,-0.6715861,0.96651363,-0.06353663,0.545969,-0.7414308,-0.68346614,0.9266983,0.51411676,-1.2804277,-0.291807,0.15332255,-0.054609165,-0.12936509,0.5735001,-0.47528523,0.7951861
HOP-92,-0.9046483,0.593503,0.009265783,0.43378732,-0.5609708,-0.3679607,0.41005233,0.5465318,-0.94202375,-0.26844317,0.4541614,-0.010468973,0.009861177,-0.026074767,-0.46083558,0.8740184
NCI-N87,-0.40585145,0.37319186,-0.13540795,0.32020664,-0.3046403,-0.087938435,0.06735396,0.05652361,-0.30356884,-0.073052615,0.25859526,0.11743971,-0.15093528,-0.33298764,-0.13750789,0.38791472
WRO,-0.92811084,0.66882247,-0.21227282,0.18987775,-0.77411366,-0.23854524,0.4297437,0.77686894,-1.2215779,-0.25746822,0.71451944,-0.3362795,-0.28728148,-0.0086891,-0.84688556,1.1673746
HT-144,-0.4274423,0.9550145,-0.10362843,0.8257965,-0.29933542,-0.7516993,0.92008555,0.025608893,-0.90329605,-0.24920534,0.08147326,-0.17524365,-0.19985995,0.57620084,-0.5605831,0.48849493
HuTu 80,-0.38606372,0.3827362,-0.17512354,0.23975249,-0.41781965,-0.04094938,0.08531525,0.09393276,-0.36993185,-0.091577396,0.2894936,0.012280714,-0.19771549,-0.2870177,-0.17222086,0.42957237
MMAc-SF,-0.49217018,0.4763517,-0.035045926,0.5656967,-0.272381,-0.36622757,0.31819788,0.09839361,-0.4452101,-0.19215536,0.10292908,0.10919817,-0.037271738,-0.054796834,-0.13677186,0.40145412
Mel JuSo,-0.7471515,0.635703,-0.19654289,0.15033835,-0.814565,-0.2722931,0.6696558,0.806449,-1.4187297,-0.30996692,0.7444596,-0.59927154,-0.4376252,0.20383015,-0.91772336,1.3444335
NCI-H2452,-0.7471515,0.635703,-0.19654289,0.15033835,-0.814565,-0.2722931,0.6696558,0.806449,-1.4187297,-0.30996692,0.7444596,-0.59927154,-0.4376252,0.20383015,-0.91772336,1.3444335
BB30-HNC,-0.40585145,0.37319186,-0.13540795,0.32020664,-0.3046403,-0.087938435,0.06735396,0.05652361,-0.30356884,-0.073052615,0.25859526,0.11743971,-0.15093528,-0.33298764,-0.13750789,0.38791472
MDA-MB-468,-0.488947,0.2771911,-0.15490742,0.3786913,-0.20787412,-0.08155075,-0.04478149,0.07797779,-0.20042013,-0.11735309,0.2859218,0.050068386,-0.13990723,-0.4368691,-0.20153987,0.40188244
OVCAR-3,-0.40585145,0.37319186,-0.13540795,0.32020664,-0.3046403,-0.087938435,0.06735396,0.05652361,-0.30356884,-0.073052615,0.25859526,0.11743971,-0.15093528,-0.33298764,-0.13750789,0.38791472
CGTH-W-1,-0.92811084,0.66882247,-0.21227282,0.18987775,-0.77411366,-0.23854524,0.4297437,0.77686894,-1.2215779,-0.25746822,0.71451944,-0.3362795,-0.28728148,-0.0086891,-0.84688556,1.1673746
697,-0.38606372,0.3827362,-0.17512354,0.23975249,-0.41781965,-0.04094938,0.08531525,0.09393276,-0.36993185,-0.091577396,0.2894936,0.012280714,-0.19771549,-0.2870177,-0.17222086,0.42957237
MLMA,-0.40585145,0.37319186,-0.13540795,0.32020664,-0.3046403,-0.087938435,0.06735396,0.05652361,-0.30356884,-0.073052615,0.25859526,0.11743971,-0.15093528,-0.33298764,-0.13750789,0.38791472
NCI-H719,-0.40585145,0.37319186,-0.13540795,0.32020664,-0.3046403,-0.087938435,0.06735396,0.05652361,-0.30356884,-0.073052615,0.25859526,0.11743971,-0.15093528,-0.33298764,-0.13750789,0.38791472
8-MG-BA,-0.40585145,0.37319186,-0.13540795,0.32020664,-0.3046403,-0.087938435,0.06735396,0.05652361,-0.30356884,-0.073052615,0.25859526,0.11743971,-0.15093528,-0.33298764,-0.13750789,0.38791472
T-47D,-0.93606454,0.5496323,-0.16771099,0.48916635,-0.6421563,-0.46304566,0.33161944,0.96138424,-1.0878502,-0.42694843,0.26617944,-0.3350025,-0.20256197,0.028648457,-0.5741516,1.0811416
KYSE-180,-0.92811084,0.66882247,-0.21227282,0.18987775,-0.77411366,-0.23854524,0.4297437,0.77686894,-1.2215779,-0.25746822,0.71451944,-0.3362795,-0.28728148,-0.0086891,-0.84688556,1.1673746
HCC2998,0.36957043,0.31568176,-0.07939098,1.1478955,0.41759855,-0.462989,0.35090274,-0.14254744,-0.3550923,-0.4342475,-0.14143305,-1.3355973,-0.6401517,0.18555486,-0.38546494,0.59475213
Caov-4,-0.40585145,0.37319186,-0.13540795,0.32020664,-0.3046403,-0.087938435,0.06735396,0.05652361,-0.30356884,-0.073052615,0.25859526,0.11743971,-0.15093528,-0.33298764,-0.13750789,0.38791472
MES-SA,-0.7471515,0.635703,-0.19654289,0.15033835,-0.814565,-0.2722931,0.6696558,0.806449,-1.4187297,-0.30996692,0.7444596,-0.59927154,-0.4376252,0.20383015,-0.91772336,1.3444335
NOS-1 [Human osteosarcoma],-0.40585145,0.37319186,-0.13540795,0.32020664,-0.3046403,-0.087938435,0.06735396,0.05652361,-0.30356884,-0.073052615,0.25859526,0.11743971,-0.15093528,-0.33298764,-0.13750789,0.38791472
SW1417,-0.26488155,0.28593078,-0.2891393,0.4026539,-0.26520053,-0.107080944,0.038140245,-0.032987233,-0.14991693,-0.19392195,0.11441566,-0.24772675,-0.29420182,-0.22309619,-0.2160743,0.28133938
GP5d,-0.103143804,0.27853024,-0.2958278,0.8311438,-0.3584053,-0.29286,0.04433568,0.77235764,-0.82990175,-0.76038074,-0.10305858,-1.8973721,-0.69398046,0.1748413,-0.5486458,1.0850891
KYSE-70,-0.92811084,0.66882247,-0.21227282,0.18987775,-0.77411366,-0.23854524,0.4297437,0.77686894,-1.2215779,-0.25746822,0.71451944,-0.3362795,-0.28728148,-0.0086891,-0.84688556,1.1673746
DMS 273,-0.40585145,0.37319186,-0.13540795,0.32020664,-0.3046403,-0.087938435,0.06735396,0.05652361,-0.30356884,-0.073052615,0.25859526,0.11743971,-0.15093528,-0.33298764,-0.13750789,0.38791472
H-EMC-SS,-0.38606372,0.3827362,-0.17512354,0.23975249,-0.41781965,-0.04094938,0.08531525,0.09393276,-0.36993185,-0.091577396,0.2894936,0.012280714,-0.19771549,-0.2870177,-0.17222086,0.42957237
NCI-H2029,-0.40585145,0.37319186,-0.13540795,0.32020664,-0.3046403,-0.087938435,0.06735396,0.05652361,-0.30356884,-0.073052615,0.25859526,0.11743971,-0.15093528,-0.33298764,-0.13750789,0.38791472
KP-N-YN,-0.40368566,0.2909859,-0.15928559,0.34300402,-0.28786156,-0.10855813,0.03934482,0.10969569,-0.2625163,-0.1253121,0.19315878,0.058119792,-0.17278287,-0.33531415,-0.11889144,0.39838794
A101D,-0.4274423,0.9550145,-0.10362843,0.8257965,-0.29933542,-0.7516993,0.92008555,0.025608893,-0.90329605,-0.24920534,0.08147326,-0.17524365,-0.19985995,0.57620084,-0.5605831,0.48849493
GR-ST,-0.19338748,0.61157846,0.1574208,0.39760163,-0.22786446,-0.17635725,0.5559304,-0.270443,-0.61042833,0.02366674,0.4730195,0.10200738,-0.07512947,-0.007314177,-0.17206891,0.4779432
SK-UT-1,-0.4804122,0.19517012,-0.19254473,0.85978216,0.31542164,-0.2604203,-0.06428029,0.33145648,-0.4127644,-0.36935812,0.49079135,-0.9842301,-0.49686867,-0.42750087,-0.87453943,0.96762806
SW962,-0.40585145,0.37319186,-0.13540795,0.32020664,-0.3046403,-0.087938435,0.06735396,0.05652361,-0.30356884,-0.073052615,0.25859526,0.11743971,-0.15093528,-0.33298764,-0.13750789,0.38791472
NCI-H650,-0.40585145,0.37319186,-0.13540795,0.32020664,-0.3046403,-0.087938435,0.06735396,0.05652361,-0.30356884,-0.073052615,0.25859526,0.11743971,-0.15093528,-0.33298764,-0.13750789,0.38791472
CA46,-0.40585145,0.37319186,-0.13540795,0.32020664,-0.3046403,-0.087938435,0.06735396,0.05652361,-0.30356884,-0.073052615,0.25859526,0.11743971,-0.15093528,-0.33298764,-0.13750789,0.38791472
D-566MG,-0.7134182,0.48517823,0.062914,0.69119644,-0.12196759,-0.40637162,0.39198288,0.12190657,-0.59788936,-0.25647414,0.44636557,-0.13705261,0.005976906,-0.07386033,-0.49953404,0.6686668
P30/OHK,-0.7471515,0.635703,-0.19654289,0.15033835,-0.814565,-0.2722931,0.6696558,0.806449,-1.4187297,-0.30996692,0.7444596,-0.59927154,-0.4376252,0.20383015,-0.91772336,1.3444335
SW1573,-1.158201,0.82059586,0.093105234,0.5489993,-1.2686197,-1.0683734,1.5199302,1.7103527,-2.4241965,-0.8447304,0.28178862,-0.8343546,-0.21368667,1.164139,-0.87090945,1.9609952
PFSK-1,-0.40585145,0.37319186,-0.13540795,0.32020664,-0.3046403,-0.087938435,0.06735396,0.05652361,-0.30356884,-0.073052615,0.25859526,0.11743971,-0.15093528,-0.33298764,-0.13750789,0.38791472
BFTC-905,-0.92811084,0.66882247,-0.21227282,0.18987775,-0.77411366,-0.23854524,0.4297437,0.77686894,-1.2215779,-0.25746822,0.71451944,-0.3362795,-0.28728148,-0.0086891,-0.84688556,1.1673746
Becker,-0.92811084,0.66882247,-0.21227282,0.18987775,-0.77411366,-0.23854524,0.4297437,0.77686894,-1.2215779,-0.25746822,0.71451944,-0.3362795,-0.28728148,-0.0086891,-0.84688556,1.1673746
HL-60,-0.92811084,0.66882247,-0.21227282,0.18987775,-0.77411366,-0.23854524,0.4297437,0.77686894,-1.2215779,-0.25746822,0.71451944,-0.3362795,-0.28728148,-0.0086891,-0.84688556,1.1673746
T84,-0.32963392,0.37509027,-0.18024558,0.9563264,-0.20391668,-0.3484963,-0.18827206,0.9349058,-0.7879334,-0.6436641,-0.1519247,-1.4168851,-0.50737405,-0.12612844,-0.3984744,1.0706571
ACHN,-0.7471515,0.635703,-0.19654289,0.15033835,-0.814565,-0.2722931,0.6696558,0.806449,-1.4187297,-0.30996692,0.7444596,-0.59927154,-0.4376252,0.20383015,-0.91772336,1.3444335
Lu-135,-0.40585145,0.37319186,-0.13540795,0.32020664,-0.3046403,-0.087938435,0.06735396,0.05652361,-0.30356884,-0.073052615,0.25859526,0.11743971,-0.15093528,-0.33298764,-0.13750789,0.38791472
MV4-11,-0.38606372,0.3827362,-0.17512354,0.23975249,-0.41781965,-0.04094938,0.08531525,0.09393276,-0.36993185,-0.091577396,0.2894936,0.012280714,-0.19771549,-0.2870177,-0.17222086,0.42957237
MKN7,-0.40585145,0.37319186,-0.13540795,0.32020664,-0.3046403,-0.087938435,0.06735396,0.05652361,-0.30356884,-0.073052615,0.25859526,0.11743971,-0.15093528,-0.33298764,-0.13750789,0.38791472
KYSE-410,-0.5155856,0.3239371,-0.08364937,0.57602245,-0.29047674,-0.2335245,-0.016342575,0.32686767,-0.37893036,-0.3044369,0.05552128,-0.2166435,-0.09419383,-0.25882465,-0.108986184,0.516449
CW-2,0.06748089,-0.054693863,-0.094855316,0.80639446,0.13245434,-0.056047697,0.06574858,-0.31194624,-0.065336585,-0.56652933,0.2723416,-1.5891213,-0.4115275,-0.05051666,-0.47616747,0.5389691
Raji,-0.40585145,0.37319186,-0.13540795,0.32020664,-0.3046403,-0.087938435,0.06735396,0.05652361,-0.30356884,-0.073052615,0.25859526,0.11743971,-0.15093528,-0.33298764,-0.13750789,0.38791472
SW626,-0.11414636,0.20969762,-0.41642985,0.5306829,-0.23704216,0.12544046,-0.54940784,0.27910262,-0.096177675,-0.36555696,-0.006839666,-1.074566,-0.52527064,-0.4998992,-0.250393,0.4598373
NCI-H510A,-0.40585145,0.37319186,-0.13540795,0.32020664,-0.3046403,-0.087938435,0.06735396,0.05652361,-0.30356884,-0.073052615,0.25859526,0.11743971,-0.15093528,-0.33298764,-0.13750789,0.38791472
NCI-H82,-0.38606372,0.3827362,-0.17512354,0.23975249,-0.41781965,-0.04094938,0.08531525,0.09393276,-0.36993185,-0.091577396,0.2894936,0.012280714,-0.19771549,-0.2870177,-0.17222086,0.42957237
EB2,-0.40585145,0.37319186,-0.13540795,0.32020664,-0.3046403,-0.087938435,0.06735396,0.05652361,-0.30356884,-0.073052615,0.25859526,0.11743971,-0.15093528,-0.33298764,-0.13750789,0.38791472
SF268,-0.92811084,0.66882247,-0.21227282,0.18987775,-0.77411366,-0.23854524,0.4297437,0.77686894,-1.2215779,-0.25746822,0.71451944,-0.3362795,-0.28728148,-0.0086891,-0.84688556,1.1673746
OAW42,-0.8476745,0.47253177,-0.14877345,0.3341415,-0.78225464,-0.44272798,0.56891286,0.9754783,-1.256901,-0.4629549,0.365021,-0.4641221,-0.2780515,0.20783363,-0.6185328,1.227281
KM12,-0.58729255,0.038611554,0.11631018,0.95818263,0.5962788,-0.25950176,0.07127391,-0.35246855,0.019976476,-0.28625438,0.6852638,-0.51319355,-0.03477025,-0.4824979,-0.6984463,0.57452774
NCI-H322M,-0.92811084,0.66882247,-0.21227282,0.18987775,-0.77411366,-0.23854524,0.4297437,0.77686894,-1.2215779,-0.25746822,0.71451944,-0.3362795,-0.28728148,-0.0086891,-0.84688556,1.1673746
Caov-3,-0.40585145,0.37319186,-0.13540795,0.32020664,-0.3046403,-0.087938435,0.06735396,0.05652361,-0.30356884,-0.073052615,0.25859526,0.11743971,-0.15093528,-0.33298764,-0.13750789,0.38791472
Evsa-T,-0.488947,0.2771911,-0.15490742,0.3786913,-0.20787412,-0.08155075,-0.04478149,0.07797779,-0.20042013,-0.11735309,0.2859218,0.050068386,-0.13990723,-0.4368691,-0.20153987,0.40188244
KS-1 [Human glioblastoma],-0.7471515,0.635703,-0.19654289,0.15033835,-0.814565,-0.2722931,0.6696558,0.806449,-1.4187297,-0.30996692,0.7444596,-0.59927154,-0.4376252,0.20383015,-0.91772336,1.3444335
MDA-MB-415,-0.488947,0.2771911,-0.15490742,0.3786913,-0.20787412,-0.08155075,-0.04478149,0.07797779,-0.20042013,-0.11735309,0.2859218,0.050068386,-0.13990723,-0.4368691,-0.20153987,0.40188244
Mel Ho,-0.6715861,0.96651363,-0.06353663,0.545969,-0.7414308,-0.68346614,0.9266983,0.51411676,-1.2804277,-0.291807,0.15332255,-0.054609165,-0.12936509,0.5735001,-0.47528523,0.7951861
SCC-9,-0.92811084,0.66882247,-0.21227282,0.18987775,-0.77411366,-0.23854524,0.4297437,0.77686894,-1.2215779,-0.25746822,0.71451944,-0.3362795,-0.28728148,-0.0086891,-0.84688556,1.1673746
SNU-C2B,-0.5155856,0.3239371,-0.08364937,0.57602245,-0.29047674,-0.2335245,-0.016342575,0.32686767,-0.37893036,-0.3044369,0.05552128,-0.2166435,-0.09419383,-0.25882465,-0.108986184,0.516449
EFM-19,-1.5149164,0.7473178,-0.14773972,0.30211726,-1.1869402,-0.65068865,0.9060732,1.6795605,-2.1170163,-0.67953014,0.82637805,-0.8203395,-0.2682512,0.49410468,-1.3061765,1.9735012
Rh1,-0.40585145,0.37319186,-0.13540795,0.32020664,-0.3046403,-0.087938435,0.06735396,0.05652361,-0.30356884,-0.073052615,0.25859526,0.11743971,-0.15093528,-0.33298764,-0.13750789,0.38791472
MHH-PREB-1,-0.7546753,0.084038645,-0.23988417,0.39444777,-0.10082461,0.13306448,-0.46494383,0.0070594186,0.1116313,-0.20164926,0.54828405,-0.23689327,-0.06609826,-0.787444,-0.44684988,0.37448886
786-O,-0.7817792,0.5293389,-0.14146248,0.4122542,-0.36386925,-0.24509591,0.3668909,0.40071812,-0.88104993,-0.24656093,0.7314242,-0.43173277,-0.26193357,-0.10918615,-0.8603617,0.99114114
HCC38,-0.92811084,0.66882247,-0.21227282,0.18987775,-0.77411366,-0.23854524,0.4297437,0.77686894,-1.2215779,-0.25746822,0.71451944,-0.3362795,-0.28728148,-0.0086891,-0.84688556,1.1673746
TGBC24TKB,-0.5213963,0.12410929,-0.21944703,0.5157793,-0.05361448,0.0562944,-0.40696847,0.1128358,-0.017404024,-0.2564903,0.35815006,-0.48790008,-0.2066647,-0.6575891,-0.3689903,0.470803
TALL-1 [Human adult T-ALL],-0.40585145,0.37319186,-0.13540795,0.32020664,-0.3046403,-0.087938435,0.06735396,0.05652361,-0.30356884,-0.073052615,0.25859526,0.11743971,-0.15093528,-0.33298764,-0.13750789,0.38791472
8505C,-0.91935986,0.820797,0.108294696,0.57496,-0.6758931,-0.6193328,0.71121305,0.5715597,-1.1519997,-0.30564323,0.23715326,0.16073957,0.13535896,0.3081823,-0.3297227,0.80917484
NBsusSR,-0.40585145,0.37319186,-0.13540795,0.32020664,-0.3046403,-0.087938435,0.06735396,0.05652361,-0.30356884,-0.073052615,0.25859526,0.11743971,-0.15093528,-0.33298764,-0.13750789,0.38791472
KLE,-0.19338748,0.61157846,0.1574208,0.39760163,-0.22786446,-0.17635725,0.5559304,-0.270443,-0.61042833,0.02366674,0.4730195,0.10200738,-0.07512947,-0.007314177,-0.17206891,0.4779432
COLO 678,-0.19286013,0.21812043,-0.31278414,0.57166946,-0.35616612,-0.37874138,0.60290855,0.39736885,-0.8423375,-0.60766286,0.2574008,-1.4187925,-0.67107755,0.39837614,-0.80839807,1.0236773
H4,-0.4772613,0.58196676,-0.17296182,0.46912313,-0.32517758,-0.36652163,0.7300446,0.29689884,-1.0682769,-0.29613775,0.6933894,-0.780394,-0.4927227,0.24839243,-1.0006102,1.0880685
HGC-27,-0.4804122,0.19517012,-0.19254473,0.85978216,0.31542164,-0.2604203,-0.06428029,0.33145648,-0.4127644,-0.36935812,0.49079135,-0.9842301,-0.49686867,-0.42750087,-0.87453943,0.96762806
NKM-1,-0.7471515,0.635703,-0.19654289,0.15033835,-0.814565,-0.2722931,0.6696558,0.806449,-1.4187297,-0.30996692,0.7444596,-0.59927154,-0.4376252,0.20383015,-0.91772336,1.3444335
CTV-1,0.49629316,0.9964618,-0.7665882,-0.1585089,-1.364563,-0.61654323,2.157732,1.0264857,-2.6697917,-0.5179434,0.5599524,-2.2186036,-1.8220879,1.8021247,-1.6822075,2.0541155
MOLT-16,-0.92811084,0.66882247,-0.21227282,0.18987775,-0.77411366,-0.23854524,0.4297437,0.77686894,-1.2215779,-0.25746822,0.71451944,-0.3362795,-0.28728148,-0.0086891,-0.84688556,1.1673746
SNU-449,-0.92811084,0.66882247,-0.21227282,0.18987775,-0.77411366,-0.23854524,0.4297437,0.77686894,-1.2215779,-0.25746822,0.71451944,-0.3362795,-0.28728148,-0.0086891,-0.84688556,1.1673746
FTC-133,-0.22017616,0.43910304,-0.59048444,0.2583332,-0.5307969,-0.25062394,0.33882952,0.44648352,-0.6769783,-0.27165404,0.11768761,-0.6235319,-0.75195146,0.104302295,-0.6344742,0.69880605
Kasumi-1,-0.40585145,0.37319186,-0.13540795,0.32020664,-0.3046403,-0.087938435,0.06735396,0.05652361,-0.30356884,-0.073052615,0.25859526,0.11743971,-0.15093528,-0.33298764,-0.13750789,0.38791472
MIA PaCa-2,-0.87645906,0.7065722,0.042204693,0.394516,-0.8677685,-0.5533647,0.7289334,0.81717676,-1.3042773,-0.36516434,0.23301132,0.0057695922,0.0011891768,0.34218654,-0.3237107,1.0034547
A-375,-0.6715861,0.96651363,-0.06353663,0.545969,-0.7414308,-0.68346614,0.9266983,0.51411676,-1.2804277,-0.291807,0.15332255,-0.054609165,-0.12936509,0.5735001,-0.47528523,0.7951861
THP-1,-0.92811084,0.66882247,-0.21227282,0.18987775,-0.77411366,-0.23854524,0.4297437,0.77686894,-1.2215779,-0.25746822,0.71451944,-0.3362795,-0.28728148,-0.0086891,-0.84688556,1.1673746
RVH-421,-0.4274423,0.9550145,-0.10362843,0.8257965,-0.29933542,-0.7516993,0.92008555,0.025608893,-0.90329605,-0.24920534,0.08147326,-0.17524365,-0.19985995,0.57620084,-0.5605831,0.48849493
SIG-M5,-0.49217018,0.4763517,-0.035045926,0.5656967,-0.272381,-0.36622757,0.31819788,0.09839361,-0.4452101,-0.19215536,0.10292908,0.10919817,-0.037271738,-0.054796834,-0.13677186,0.40145412
SNU-5,-0.92811084,0.66882247,-0.21227282,0.18987775,-0.77411366,-0.23854524,0.4297437,0.77686894,-1.2215779,-0.25746822,0.71451944,-0.3362795,-0.28728148,-0.0086891,-0.84688556,1.1673746
HCC1395,-0.7817792,0.5293389,-0.14146248,0.4122542,-0.36386925,-0.24509591,0.3668909,0.40071812,-0.88104993,-0.24656093,0.7314242,-0.43173277,-0.26193357,-0.10918615,-0.8603617,0.99114114
NCI-H1770,-0.488947,0.2771911,-0.15490742,0.3786913,-0.20787412,-0.08155075,-0.04478149,0.07797779,-0.20042013,-0.11735309,0.2859218,0.050068386,-0.13990723,-0.4368691,-0.20153987,0.40188244
HSC-4,-0.7817792,0.5293389,-0.14146248,0.4122542,-0.36386925,-0.24509591,0.3668909,0.40071812,-0.88104993,-0.24656093,0.7314242,-0.43173277,-0.26193357,-0.10918615,-0.8603617,0.99114114
ATN-1,-0.7546753,0.084038645,-0.23988417,0.39444777,-0.10082461,0.13306448,-0.46494383,0.0070594186,0.1116313,-0.20164926,0.54828405,-0.23689327,-0.06609826,-0.787444,-0.44684988,0.37448886
NCI-H2107,-0.38606372,0.3827362,-0.17512354,0.23975249,-0.41781965,-0.04094938,0.08531525,0.09393276,-0.36993185,-0.091577396,0.2894936,0.012280714,-0.19771549,-0.2870177,-0.17222086,0.42957237
SK-N-DZ,-0.40585145,0.37319186,-0.13540795,0.32020664,-0.3046403,-0.087938435,0.06735396,0.05652361,-0.30356884,-0.073052615,0.25859526,0.11743971,-0.15093528,-0.33298764,-0.13750789,0.38791472
LB647-SCLC,-0.40585145,0.37319186,-0.13540795,0.32020664,-0.3046403,-0.087938435,0.06735396,0.05652361,-0.30356884,-0.073052615,0.25859526,0.11743971,-0.15093528,-0.33298764,-0.13750789,0.38791472
DEL,-0.40585145,0.37319186,-0.13540795,0.32020664,-0.3046403,-0.087938435,0.06735396,0.05652361,-0.30356884,-0.073052615,0.25859526,0.11743971,-0.15093528,-0.33298764,-0.13750789,0.38791472
NCI-H69,-0.93606454,0.5496323,-0.16771099,0.48916635,-0.6421563,-0.46304566,0.33161944,0.96138424,-1.0878502,-0.42694843,0.26617944,-0.3350025,-0.20256197,0.028648457,-0.5741516,1.0811416
KP-N-RT-BM-1,-0.38606372,0.3827362,-0.17512354,0.23975249,-0.41781965,-0.04094938,0.08531525,0.09393276,-0.36993185,-0.091577396,0.2894936,0.012280714,-0.19771549,-0.2870177,-0.17222086,0.42957237
HDLM-2,-0.38606372,0.3827362,-0.17512354,0.23975249,-0.41781965,-0.04094938,0.08531525,0.09393276,-0.36993185,-0.091577396,0.2894936,0.012280714,-0.19771549,-0.2870177,-0.17222086,0.42957237
SK-N-AS,-0.38606372,0.3827362,-0.17512354,0.23975249,-0.41781965,-0.04094938,0.08531525,0.09393276,-0.36993185,-0.091577396,0.2894936,0.012280714,-0.19771549,-0.2870177,-0.17222086,0.42957237
CP66-MEL,0.032613363,1.0104233,0.18737115,0.45448872,-0.6153725,-0.66085625,1.7556334,0.112169184,-1.8294708,-0.24289484,0.5938412,-0.7698822,-0.4996815,1.1470864,-0.7695517,1.2545165
KM-H2,-0.38606372,0.3827362,-0.17512354,0.23975249,-0.41781965,-0.04094938,0.08531525,0.09393276,-0.36993185,-0.091577396,0.2894936,0.012280714,-0.19771549,-0.2870177,-0.17222086,0.42957237
SK-LU-1,-0.87645906,0.7065722,0.042204693,0.394516,-0.8677685,-0.5533647,0.7289334,0.81717676,-1.3042773,-0.36516434,0.23301132,0.0057695922,0.0011891768,0.34218654,-0.3237107,1.0034547
ZR-75-30,-0.38606372,0.3827362,-0.17512354,0.23975249,-0.41781965,-0.04094938,0.08531525,0.09393276,-0.36993185,-0.091577396,0.2894936,0.012280714,-0.19771549,-0.2870177,-0.17222086,0.42957237
PC-14,-0.40585145,0.37319186,-0.13540795,0.32020664,-0.3046403,-0.087938435,0.06735396,0.05652361,-0.30356884,-0.073052615,0.25859526,0.11743971,-0.15093528,-0.33298764,-0.13750789,0.38791472
KMOE-2,-0.40585145,0.37319186,-0.13540795,0.32020664,-0.3046403,-0.087938435,0.06735396,0.05652361,-0.30356884,-0.073052615,0.25859526,0.11743971,-0.15093528,-0.33298764,-0.13750789,0.38791472
SW982,-0.6715861,0.96651363,-0.06353663,0.545969,-0.7414308,-0.68346614,0.9266983,0.51411676,-1.2804277,-0.291807,0.15332255,-0.054609165,-0.12936509,0.5735001,-0.47528523,0.7951861
LB831-BLC,-0.40585145,0.37319186,-0.13540795,0.32020664,-0.3046403,-0.087938435,0.06735396,0.05652361,-0.30356884,-0.073052615,0.25859526,0.11743971,-0.15093528,-0.33298764,-0.13750789,0.38791472
SJNB-6,-0.40585145,0.37319186,-0.13540795,0.32020664,-0.3046403,-0.087938435,0.06735396,0.05652361,-0.30356884,-0.073052615,0.25859526,0.11743971,-0.15093528,-0.33298764,-0.13750789,0.38791472
NCI-H345,-0.40585145,0.37319186,-0.13540795,0.32020664,-0.3046403,-0.087938435,0.06735396,0.05652361,-0.30356884,-0.073052615,0.25859526,0.11743971,-0.15093528,-0.33298764,-0.13750789,0.38791472
WM115,-0.4274423,0.9550145,-0.10362843,0.8257965,-0.29933542,-0.7516993,0.92008555,0.025608893,-0.90329605,-0.24920534,0.08147326,-0.17524365,-0.19985995,0.57620084,-0.5605831,0.48849493
A-253,-0.92811084,0.66882247,-0.21227282,0.18987775,-0.77411366,-0.23854524,0.4297437,0.77686894,-1.2215779,-0.25746822,0.71451944,-0.3362795,-0.28728148,-0.0086891,-0.84688556,1.1673746
BHY,-0.92811084,0.66882247,-0.21227282,0.18987775,-0.77411366,-0.23854524,0.4297437,0.77686894,-1.2215779,-0.25746822,0.71451944,-0.3362795,-0.28728148,-0.0086891,-0.84688556,1.1673746
P31/FUJ,-0.488947,0.2771911,-0.15490742,0.3786913,-0.20787412,-0.08155075,-0.04478149,0.07797779,-0.20042013,-0.11735309,0.2859218,0.050068386,-0.13990723,-0.4368691,-0.20153987,0.40188244
NCI-H2081,-0.28393614,0.33935907,-0.09361554,0.5005619,-0.11144765,-0.21106265,0.23629473,-0.08900367,-0.28536293,-0.13938077,0.23101342,-0.09381173,-0.20184001,-0.17568311,-0.2266571,0.39594895
LS513,-0.53687406,0.2291985,-0.18409294,0.33512682,-0.49948585,0.00037147634,-0.14655921,0.1984169,-0.23800421,-0.30748478,0.19671327,-0.32037222,-0.082077384,-0.3325842,-0.13355175,0.4065476
TCCSUP,-0.93606454,0.5496323,-0.16771099,0.48916635,-0.6421563,-0.46304566,0.33161944,0.96138424,-1.0878502,-0.42694843,0.26617944,-0.3350025,-0.20256197,0.028648457,-0.5741516,1.0811416
NCI-H2405,-0.91935986,0.820797,0.108294696,0.57496,-0.6758931,-0.6193328,0.71121305,0.5715597,-1.1519997,-0.30564323,0.23715326,0.16073957,0.13535896,0.3081823,-0.3297227,0.80917484
LB771-HNC,-0.92811084,0.66882247,-0.21227282,0.18987775,-0.77411366,-0.23854524,0.4297437,0.77686894,-1.2215779,-0.25746822,0.71451944,-0.3362795,-0.28728148,-0.0086891,-0.84688556,1.1673746
COLO 829,-0.4274423,0.9550145,-0.10362843,0.8257965,-0.29933542,-0.7516993,0.92008555,0.025608893,-0.90329605,-0.24920534,0.08147326,-0.17524365,-0.19985995,0.57620084,-0.5605831,0.48849493
5637,-0.40585145,0.37319186,-0.13540795,0.32020664,-0.3046403,-0.087938435,0.06735396,0.05652361,-0.30356884,-0.073052615,0.25859526,0.11743971,-0.15093528,-0.33298764,-0.13750789,0.38791472
NCI-H2087,-0.6536399,0.3821562,0.0333277,0.52824533,-0.33904094,-0.33988667,0.22758251,0.26607108,-0.4719119,-0.23784877,0.12930657,0.182463,0.07342971,-0.15675323,-0.06286427,0.49515536
Mono-Mac-6,-0.38606372,0.3827362,-0.17512354,0.23975249,-0.41781965,-0.04094938,0.08531525,0.09393276,-0.36993185,-0.091577396,0.2894936,0.012280714,-0.19771549,-0.2870177,-0.17222086,0.42957237
YH-13,-0.92811084,0.66882247,-0.21227282,0.18987775,-0.77411366,-0.23854524,0.4297437,0.77686894,-1.2215779,-0.25746822,0.71451944,-0.3362795,-0.28728148,-0.0086891,-0.84688556,1.1673746
