,E0,E1,E2,E3,E4,E5,E6,E7,E8,E9,E10,E11,E12,E13,E14,E15
GCT,-0.38382953,0.41496053,-0.12631221,0.60505027,-0.1885196,-0.37792766,0.2987412,0.042415515,-0.34109315,-0.21789467,0.02983263,-0.025679525,-0.15103626,-0.03723552,-0.18076465,0.34903494
KYSE-510,-0.32207137,0.052343,-0.25075772,0.6004399,-0.3256854,-0.22756326,0.18080197,0.9459697,-1.0075252,-0.7232597,0.34140342,-1.8050991,-0.74610454,0.03594185,-0.8341502,1.4822886
Hs 863.T,-0.38606372,0.3827362,-0.17512354,0.23975249,-0.41781965,-0.04094938,0.08531525,0.09393276,-0.36993185,-0.091577396,0.2894936,0.012280714,-0.19771549,-0.2870177,-0.17222086,0.42957237
Hs 274.T,-0.53687406,0.2291985,-0.18409294,0.33512682,-0.49948585,0.00037147634,-0.14655921,0.1984169,-0.23800421,-0.30748478,0.19671327,-0.32037222,-0.082077384,-0.3325842,-0.13355175,0.4065476
DU145,-1.0732871,0.18945166,-0.36392412,1.0870346,0.829043,-0.13418487,-0.5349573,-0.03391003,0.08426779,-0.3084656,1.1240716,-1.069524,-0.3762236,-0.98181784,-1.6538819,0.83629483
L3.3,0.13742931,0.38960484,-1.0827485,0.16082878,-0.9306943,0.046466753,-0.13812333,1.1340522,-0.9923561,-0.6409199,-0.06293335,-2.2677872,-1.4728179,0.16149461,-0.98881996,1.1822189
JHUEM-2,0.13709247,0.36411536,-1.1756321,0.5537093,-0.5315109,-0.7496986,1.3272771,1.9946855,-2.5433257,-1.1292392,0.6504421,-3.9833934,-2.474472,1.228816,-2.732525,2.9708748
UM-UC-3,-0.53687406,0.2291985,-0.18409294,0.33512682,-0.49948585,0.00037147634,-0.14655921,0.1984169,-0.23800421,-0.30748478,0.19671327,-0.32037222,-0.082077384,-0.3325842,-0.13355175,0.4065476
HCC1438,-0.45631948,0.2723204,-0.13251351,0.39047328,-0.28480896,-0.15944786,0.057286307,0.15986924,-0.28047603,-0.16843182,0.15966068,0.055923507,-0.13294116,-0.30949578,-0.10612388,0.4215057
JURL-MK1,-0.40585145,0.37319186,-0.13540795,0.32020664,-0.3046403,-0.087938435,0.06735396,0.05652361,-0.30356884,-0.073052615,0.25859526,0.11743971,-0.15093528,-0.33298764,-0.13750789,0.38791472
HLC-1,-0.53687406,0.2291985,-0.18409294,0.33512682,-0.49948585,0.00037147634,-0.14655921,0.1984169,-0.23800421,-0.30748478,0.19671327,-0.32037222,-0.082077384,-0.3325842,-0.13355175,0.4065476
NCI-H2023,-0.33801413,0.44746578,-0.047839873,1.1530423,0.67990327,-0.27536723,-0.16523212,-0.15563233,-0.15502496,-0.19332577,0.47306952,-0.79260635,-0.3409333,-0.537087,-0.78228205,0.61978704
NCI-H1836,-0.5213963,0.12410929,-0.21944703,0.5157793,-0.05361448,0.0562944,-0.40696847,0.1128358,-0.017404024,-0.2564903,0.35815006,-0.48790008,-0.2066647,-0.6575891,-0.3689903,0.470803
OVISE,-0.46084884,0.061654087,-0.4161971,0.48588595,-0.2922653,-0.056468252,-0.09297424,0.7735111,-0.72269964,-0.6029605,0.49930978,-1.6294583,-0.7338308,-0.24160215,-0.9686317,1.2706642
NCI-H1734,-0.6941958,0.3421927,0.044641547,0.57053906,-0.32734534,-0.3805702,0.22674854,0.31638223,-0.4680943,-0.28419584,0.08994758,0.161597,0.09601872,-0.14481938,-0.052371334,0.51482016
RCC4,-0.40585145,0.37319186,-0.13540795,0.32020664,-0.3046403,-0.087938435,0.06735396,0.05652361,-0.30356884,-0.073052615,0.25859526,0.11743971,-0.15093528,-0.33298764,-0.13750789,0.38791472
SNU-466,-0.28393614,0.33935907,-0.09361554,0.5005619,-0.11144765,-0.21106265,0.23629473,-0.08900367,-0.28536293,-0.13938077,0.23101342,-0.09381173,-0.20184001,-0.17568311,-0.2266571,0.39594895
BCP-1,-0.40585145,0.37319186,-0.13540795,0.32020664,-0.3046403,-0.087938435,0.06735396,0.05652361,-0.30356884,-0.073052615,0.25859526,0.11743971,-0.15093528,-0.33298764,-0.13750789,0.38791472
Hs 688(A).T,-0.38606372,0.3827362,-0.17512354,0.23975249,-0.41781965,-0.04094938,0.08531525,0.09393276,-0.36993185,-0.091577396,0.2894936,0.012280714,-0.19771549,-0.2870177,-0.17222086,0.42957237
VM-CUB-1,-1.696154,0.15081778,-0.38245526,0.5855063,0.041826297,-0.024783505,-0.63104886,0.707594,-0.3128049,-0.38602683,1.2060767,-0.6107001,-0.117032625,-1.0690743,-1.4892305,1.1249138
COR-L23,-0.002389787,0.93059766,0.023885543,0.8248705,-0.06962627,-0.40725958,0.52647793,-0.21164225,-0.6969556,-0.08768103,0.12997667,-0.3870119,-0.27941063,0.21733353,-0.3127699,0.42208102
HCC1954,-0.59282804,0.22380286,-0.3367408,0.684812,-0.07723975,-0.17917001,-0.23131347,0.8340213,-0.6731398,-0.48400888,0.39844894,-1.2145002,-0.6087576,-0.43161485,-0.87155294,1.1949389
KNS-42,-0.5274161,0.7831894,-0.0192152,0.4266026,-0.11140845,-0.007327354,0.033410657,-0.19077927,-0.44443786,0.15001167,0.7101946,0.18099467,-0.07263866,-0.49017662,-0.47721195,0.4379139
NCI-H1385,-0.53687406,0.2291985,-0.18409294,0.33512682,-0.49948585,0.00037147634,-0.14655921,0.1984169,-0.23800421,-0.30748478,0.19671327,-0.32037222,-0.082077384,-0.3325842,-0.13355175,0.4065476
NCI-H1694,-0.40585145,0.37319186,-0.13540795,0.32020664,-0.3046403,-0.087938435,0.06735396,0.05652361,-0.30356884,-0.073052615,0.25859526,0.11743971,-0.15093528,-0.33298764,-0.13750789,0.38791472
EM-2,-0.40585145,0.37319186,-0.13540795,0.32020664,-0.3046403,-0.087938435,0.06735396,0.05652361,-0.30356884,-0.073052615,0.25859526,0.11743971,-0.15093528,-0.33298764,-0.13750789,0.38791472
OVKATE,-0.40585145,0.37319186,-0.13540795,0.32020664,-0.3046403,-0.087938435,0.06735396,0.05652361,-0.30356884,-0.073052615,0.25859526,0.11743971,-0.15093528,-0.33298764,-0.13750789,0.38791472
SNG-M,1.4558543,1.2421784,-2.0760422,1.0197288,-0.53784436,-0.60341305,0.4389119,1.3234978,-1.6909581,-0.982713,-0.8314291,-4.7712193,-3.197253,1.4017831,-2.2428458,1.5087132
SNU-C1,-0.40585145,0.37319186,-0.13540795,0.32020664,-0.3046403,-0.087938435,0.06735396,0.05652361,-0.30356884,-0.073052615,0.25859526,0.11743971,-0.15093528,-0.33298764,-0.13750789,0.38791472
GB-1,-0.40585145,0.37319186,-0.13540795,0.32020664,-0.3046403,-0.087938435,0.06735396,0.05652361,-0.30356884,-0.073052615,0.25859526,0.11743971,-0.15093528,-0.33298764,-0.13750789,0.38791472
KMS-34,-0.40585145,0.37319186,-0.13540795,0.32020664,-0.3046403,-0.087938435,0.06735396,0.05652361,-0.30356884,-0.073052615,0.25859526,0.11743971,-0.15093528,-0.33298764,-0.13750789,0.38791472
KLM-1,-0.53687406,0.2291985,-0.18409294,0.33512682,-0.49948585,0.00037147634,-0.14655921,0.1984169,-0.23800421,-0.30748478,0.19671327,-0.32037222,-0.082077384,-0.3325842,-0.13355175,0.4065476
HCC1937,-0.40585145,0.37319186,-0.13540795,0.32020664,-0.3046403,-0.087938435,0.06735396,0.05652361,-0.30356884,-0.073052615,0.25859526,0.11743971,-0.15093528,-0.33298764,-0.13750789,0.38791472
CHL-1,0.07439629,0.27981472,-0.89828086,0.43609414,-0.5875699,-0.067662515,-0.13302049,1.3975683,-1.2106348,-0.75378674,0.09870534,-2.6380363,-1.5370829,0.07057785,-1.2059033,1.6477815
KYSE-270,-0.5779404,0.19023079,0.19908887,1.2587699,0.9646476,-0.30801946,0.0005395333,-0.48503044,0.015505253,-0.24975382,0.85002804,-0.7407464,-0.062424377,-0.5840766,-0.95076615,0.65572566
U-138MG,-0.1576313,0.39715922,-0.29054484,0.5286022,-0.13929464,-0.25747842,0.22880676,-0.1442873,-0.18647544,-0.1605553,0.038028408,-0.20272659,-0.3522186,-0.06568638,-0.26412314,0.22839011
KOPN-8,-0.5155856,0.3239371,-0.08364937,0.57602245,-0.29047674,-0.2335245,-0.016342575,0.32686767,-0.37893036,-0.3044369,0.05552128,-0.2166435,-0.09419383,-0.25882465,-0.108986184,0.516449
HCT 116,0.19671367,0.2205763,0.5294505,1.8289376,0.9473362,-0.9547659,0.8706597,-0.1373222,-0.68503636,-0.7229123,-0.030931666,-1.656175,-0.29972377,0.5240955,-0.4915812,1.0384165
TM-31,-0.45631948,0.2723204,-0.13251351,0.39047328,-0.28480896,-0.15944786,0.057286307,0.15986924,-0.28047603,-0.16843182,0.15966068,0.055923507,-0.13294116,-0.30949578,-0.10612388,0.4215057
IGROV-1,0.43133318,0.7255445,-0.85606295,1.4728377,0.523059,-0.8612853,0.6367188,1.4370112,-1.8717505,-0.8618221,0.22600982,-3.6625977,-2.2039502,0.6461787,-2.2950134,2.3712115
A4/Fukuda,-0.40585145,0.37319186,-0.13540795,0.32020664,-0.3046403,-0.087938435,0.06735396,0.05652361,-0.30356884,-0.073052615,0.25859526,0.11743971,-0.15093528,-0.33298764,-0.13750789,0.38791472
EFO-21,-0.2660979,0.14536527,-0.68790036,-0.021394677,-0.84610283,0.24511142,-0.18101443,0.17876786,-0.20345604,-0.40153673,0.24073891,-1.0304927,-0.5831509,-0.15899383,-0.49325693,0.38904884
59M,-0.40585145,0.37319186,-0.13540795,0.32020664,-0.3046403,-0.087938435,0.06735396,0.05652361,-0.30356884,-0.073052615,0.25859526,0.11743971,-0.15093528,-0.33298764,-0.13750789,0.38791472
COR-L311,-0.40585145,0.37319186,-0.13540795,0.32020664,-0.3046403,-0.087938435,0.06735396,0.05652361,-0.30356884,-0.073052615,0.25859526,0.11743971,-0.15093528,-0.33298764,-0.13750789,0.38791472
HLE,-0.40585145,0.37319186,-0.13540795,0.32020664,-0.3046403,-0.087938435,0.06735396,0.05652361,-0.30356884,-0.073052615,0.25859526,0.11743971,-0.15093528,-0.33298764,-0.13750789,0.38791472
U-118MG,-0.40585145,0.37319186,-0.13540795,0.32020664,-0.3046403,-0.087938435,0.06735396,0.05652361,-0.30356884,-0.073052615,0.25859526,0.11743971,-0.15093528,-0.33298764,-0.13750789,0.38791472
TE-5,-0.59282804,0.22380286,-0.3367408,0.684812,-0.07723975,-0.17917001,-0.23131347,0.8340213,-0.6731398,-0.48400888,0.39844894,-1.2145002,-0.6087576,-0.43161485,-0.87155294,1.1949389
MDA-MB-157,-0.40585145,0.37319186,-0.13540795,0.32020664,-0.3046403,-0.087938435,0.06735396,0.05652361,-0.30356884,-0.073052615,0.25859526,0.11743971,-0.15093528,-0.33298764,-0.13750789,0.38791472
Loucy,-0.40585145,0.37319186,-0.13540795,0.32020664,-0.3046403,-0.087938435,0.06735396,0.05652361,-0.30356884,-0.073052615,0.25859526,0.11743971,-0.15093528,-0.33298764,-0.13750789,0.38791472
NCI-H2171,-0.40585145,0.37319186,-0.13540795,0.32020664,-0.3046403,-0.087938435,0.06735396,0.05652361,-0.30356884,-0.073052615,0.25859526,0.11743971,-0.15093528,-0.33298764,-0.13750789,0.38791472
CHP-126,-0.40585145,0.37319186,-0.13540795,0.32020664,-0.3046403,-0.087938435,0.06735396,0.05652361,-0.30356884,-0.073052615,0.25859526,0.11743971,-0.15093528,-0.33298764,-0.13750789,0.38791472
MHH-CALL-3,-0.38606372,0.3827362,-0.17512354,0.23975249,-0.41781965,-0.04094938,0.08531525,0.09393276,-0.36993185,-0.091577396,0.2894936,0.012280714,-0.19771549,-0.2870177,-0.17222086,0.42957237
JL-1,-0.38606372,0.3827362,-0.17512354,0.23975249,-0.41781965,-0.04094938,0.08531525,0.09393276,-0.36993185,-0.091577396,0.2894936,0.012280714,-0.19771549,-0.2870177,-0.17222086,0.42957237
L-363,-0.28269535,0.48977932,-1.2252115,0.019857967,-1.0593287,-0.17678389,0.055158824,2.2036858,-1.8421428,-0.65792555,0.21939628,-2.269215,-1.8494107,0.12501037,-1.5607548,2.1374047
KMS-21-BM,-0.40368566,0.2909859,-0.15928559,0.34300402,-0.28786156,-0.10855813,0.03934482,0.10969569,-0.2625163,-0.1253121,0.19315878,0.058119792,-0.17278287,-0.33531415,-0.11889144,0.39838794
NCI-H1755,-0.49217018,0.4763517,-0.035045926,0.5656967,-0.272381,-0.36622757,0.31819788,0.09839361,-0.4452101,-0.19215536,0.10292908,0.10919817,-0.037271738,-0.054796834,-0.13677186,0.40145412
F5,-0.40585145,0.37319186,-0.13540795,0.32020664,-0.3046403,-0.087938435,0.06735396,0.05652361,-0.30356884,-0.073052615,0.25859526,0.11743971,-0.15093528,-0.33298764,-0.13750789,0.38791472
SNU-668,-0.11414636,0.20969762,-0.41642985,0.5306829,-0.23704216,0.12544046,-0.54940784,0.27910262,-0.096177675,-0.36555696,-0.006839666,-1.074566,-0.52527064,-0.4998992,-0.250393,0.4598373
NUGC-4,-0.40368566,0.2909859,-0.15928559,0.34300402,-0.28786156,-0.10855813,0.03934482,0.10969569,-0.2625163,-0.1253121,0.19315878,0.058119792,-0.17278287,-0.33531415,-0.11889144,0.39838794
G-361,-0.49217018,0.4763517,-0.035045926,0.5656967,-0.272381,-0.36622757,0.31819788,0.09839361,-0.4452101,-0.19215536,0.10292908,0.10919817,-0.037271738,-0.054796834,-0.13677186,0.40145412
SNU-216,-0.40585145,0.37319186,-0.13540795,0.32020664,-0.3046403,-0.087938435,0.06735396,0.05652361,-0.30356884,-0.073052615,0.25859526,0.11743971,-0.15093528,-0.33298764,-0.13750789,0.38791472
SW1116,0.36957043,0.31568176,-0.07939098,1.1478955,0.41759855,-0.462989,0.35090274,-0.14254744,-0.3550923,-0.4342475,-0.14143305,-1.3355973,-0.6401517,0.18555486,-0.38546494,0.59475213
Capan-1,-0.5155856,0.3239371,-0.08364937,0.57602245,-0.29047674,-0.2335245,-0.016342575,0.32686767,-0.37893036,-0.3044369,0.05552128,-0.2166435,-0.09419383,-0.25882465,-0.108986184,0.516449
Hs 766T,-0.53687406,0.2291985,-0.18409294,0.33512682,-0.49948585,0.00037147634,-0.14655921,0.1984169,-0.23800421,-0.30748478,0.19671327,-0.32037222,-0.082077384,-0.3325842,-0.13355175,0.4065476
EFE-184,-0.7495236,-0.029618144,0.10579912,0.7158324,0.3360113,-0.10133166,-0.14744186,-0.08430796,-0.014517257,-0.25544992,0.6954009,-0.28344917,0.048175078,-0.69057083,-0.5198474,0.63475996
NCI-H838,-0.33031797,0.8205332,-0.008772478,0.43405974,-0.15447295,-0.14504671,0.47185677,-0.31449366,-0.64675105,0.08981122,0.7166843,-0.041805133,-0.19657286,-0.08962523,-0.5957194,0.5140603
SK-CO-1,0.20620069,0.095615186,0.009397992,1.2926321,0.6821505,-0.35047537,0.21098496,-0.39849052,-0.12561537,-0.55646956,0.21457793,-1.7542534,-0.5255616,0.023013078,-0.6815746,0.64642924
DFCI024,-0.40585145,0.37319186,-0.13540795,0.32020664,-0.3046403,-0.087938435,0.06735396,0.05652361,-0.30356884,-0.073052615,0.25859526,0.11743971,-0.15093528,-0.33298764,-0.13750789,0.38791472
HuT 102,-0.7546753,0.084038645,-0.23988417,0.39444777,-0.10082461,0.13306448,-0.46494383,0.0070594186,0.1116313,-0.20164926,0.54828405,-0.23689327,-0.06609826,-0.787444,-0.44684988,0.37448886
HT-55,-0.079566255,0.40331095,-0.37766626,0.52405405,-0.17387617,-0.21509306,0.21387579,-0.25850147,-0.11282948,-0.19772671,0.023795327,-0.40554538,-0.41465756,-0.0004281813,-0.3291343,0.13902731
SF126,-0.28393614,0.33935907,-0.09361554,0.5005619,-0.11144765,-0.21106265,0.23629473,-0.08900367,-0.28536293,-0.13938077,0.23101342,-0.09381173,-0.20184001,-0.17568311,-0.2266571,0.39594895
KYSE-520,-0.40585145,0.37319186,-0.13540795,0.32020664,-0.3046403,-0.087938435,0.06735396,0.05652361,-0.30356884,-0.073052615,0.25859526,0.11743971,-0.15093528,-0.33298764,-0.13750789,0.38791472
OV7,-0.53687406,0.2291985,-0.18409294,0.33512682,-0.49948585,0.00037147634,-0.14655921,0.1984169,-0.23800421,-0.30748478,0.19671327,-0.32037222,-0.082077384,-0.3325842,-0.13355175,0.4065476
NALM-19,-0.38606372,0.3827362,-0.17512354,0.23975249,-0.41781965,-0.04094938,0.08531525,0.09393276,-0.36993185,-0.091577396,0.2894936,0.012280714,-0.19771549,-0.2870177,-0.17222086,0.42957237
SNU-1033,-0.11414636,0.20969762,-0.41642985,0.5306829,-0.23704216,0.12544046,-0.54940784,0.27910262,-0.096177675,-0.36555696,-0.006839666,-1.074566,-0.52527064,-0.4998992,-0.250393,0.4598373
Ishikawa (Heraklio) 02 ER-,0.028537486,0.5528347,-0.41265824,0.6286886,-0.09143868,-0.4195569,0.4799272,-0.21453446,-0.30120233,-0.16898987,-0.06666608,-0.37869674,-0.5606227,0.21480885,-0.43380234,0.21314578
769-P,-0.38606372,0.3827362,-0.17512354,0.23975249,-0.41781965,-0.04094938,0.08531525,0.09393276,-0.36993185,-0.091577396,0.2894936,0.012280714,-0.19771549,-0.2870177,-0.17222086,0.42957237
FU-OV-1,-0.45631948,0.2723204,-0.13251351,0.39047328,-0.28480896,-0.15944786,0.057286307,0.15986924,-0.28047603,-0.16843182,0.15966068,0.055923507,-0.13294116,-0.30949578,-0.10612388,0.4215057
RKN,-0.38258633,0.22088145,-0.34506172,0.5019376,-0.4958737,0.045641523,-0.34435275,0.19029382,-0.13533895,-0.4977046,0.04074576,-1.0131608,-0.24951854,-0.2571599,-0.25345787,0.35681498
RL95-2,2.1109993,1.5282645,-1.3748252,2.0716276,0.57957125,-1.6801984,1.7157577,1.31316,-2.4452894,-0.9595668,-1.2465451,-4.6528454,-3.3688822,2.214585,-2.1648178,2.0772495
NCI-H1155,-0.4228315,0.33525562,-0.12199215,0.51967144,-0.21980056,-0.2680303,0.1371485,0.15327519,-0.32158816,-0.20392002,0.07899206,-0.014670113,-0.1498668,-0.20388484,-0.1337358,0.41908205
LN-443,-0.40585145,0.37319186,-0.13540795,0.32020664,-0.3046403,-0.087938435,0.06735396,0.05652361,-0.30356884,-0.073052615,0.25859526,0.11743971,-0.15093528,-0.33298764,-0.13750789,0.38791472
HCC1195,-0.5274161,0.7831894,-0.0192152,0.4266026,-0.11140845,-0.007327354,0.033410657,-0.19077927,-0.44443786,0.15001167,0.7101946,0.18099467,-0.07263866,-0.49017662,-0.47721195,0.4379139
OC 315,-0.40585145,0.37319186,-0.13540795,0.32020664,-0.3046403,-0.087938435,0.06735396,0.05652361,-0.30356884,-0.073052615,0.25859526,0.11743971,-0.15093528,-0.33298764,-0.13750789,0.38791472
BICR 16,-0.40585145,0.37319186,-0.13540795,0.32020664,-0.3046403,-0.087938435,0.06735396,0.05652361,-0.30356884,-0.073052615,0.25859526,0.11743971,-0.15093528,-0.33298764,-0.13750789,0.38791472
Calu-3,-0.5805803,0.55836326,-1.158149,-0.4383097,-1.4381523,-0.058332555,0.5412962,1.8079557,-1.9810812,-0.51888007,0.8077283,-1.8285338,-1.5958143,0.3458978,-1.8009423,2.0681224
NCI-H2085,-0.40585145,0.37319186,-0.13540795,0.32020664,-0.3046403,-0.087938435,0.06735396,0.05652361,-0.30356884,-0.073052615,0.25859526,0.11743971,-0.15093528,-0.33298764,-0.13750789,0.38791472
LN-340,-0.40585145,0.37319186,-0.13540795,0.32020664,-0.3046403,-0.087938435,0.06735396,0.05652361,-0.30356884,-0.073052615,0.25859526,0.11743971,-0.15093528,-0.33298764,-0.13750789,0.38791472
TUHR4TKB,-0.38606372,0.3827362,-0.17512354,0.23975249,-0.41781965,-0.04094938,0.08531525,0.09393276,-0.36993185,-0.091577396,0.2894936,0.012280714,-0.19771549,-0.2870177,-0.17222086,0.42957237
HEC-265,0.9907831,0.5810514,-0.40345985,1.2792878,0.29581276,-1.0747828,1.6458095,0.19105677,-1.4079561,-0.7222018,-0.26916173,-2.5246403,-1.5755292,1.4728842,-1.1988554,1.3225981
A2058,-0.07431718,0.4715095,-0.30267194,0.61614317,-0.056811724,-0.35025918,0.34385175,-0.22393286,-0.20297706,-0.14515352,-0.017691119,-0.20930544,-0.4024641,0.04121045,-0.30364275,0.18769275
COV504,-0.40585145,0.37319186,-0.13540795,0.32020664,-0.3046403,-0.087938435,0.06735396,0.05652361,-0.30356884,-0.073052615,0.25859526,0.11743971,-0.15093528,-0.33298764,-0.13750789,0.38791472
MOLM-6,-0.40585145,0.37319186,-0.13540795,0.32020664,-0.3046403,-0.087938435,0.06735396,0.05652361,-0.30356884,-0.073052615,0.25859526,0.11743971,-0.15093528,-0.33298764,-0.13750789,0.38791472
MDA-MB-436,-0.38606372,0.3827362,-0.17512354,0.23975249,-0.41781965,-0.04094938,0.08531525,0.09393276,-0.36993185,-0.091577396,0.2894936,0.012280714,-0.19771549,-0.2870177,-0.17222086,0.42957237
NCI-H929,-0.18667549,-0.045607194,-0.11789658,0.4807784,-0.20061436,0.014754235,-0.01476333,0.08060211,-0.24170789,-0.46000338,0.28751838,-1.0425044,-0.3284597,-0.21788998,-0.3019693,0.65640914
Kelly,-0.40585145,0.37319186,-0.13540795,0.32020664,-0.3046403,-0.087938435,0.06735396,0.05652361,-0.30356884,-0.073052615,0.25859526,0.11743971,-0.15093528,-0.33298764,-0.13750789,0.38791472
JHUEM-3,-0.40585145,0.37319186,-0.13540795,0.32020664,-0.3046403,-0.087938435,0.06735396,0.05652361,-0.30356884,-0.073052615,0.25859526,0.11743971,-0.15093528,-0.33298764,-0.13750789,0.38791472
Hs 751.T,-0.38606372,0.3827362,-0.17512354,0.23975249,-0.41781965,-0.04094938,0.08531525,0.09393276,-0.36993185,-0.091577396,0.2894936,0.012280714,-0.19771549,-0.2870177,-0.17222086,0.42957237
TE 159.T,-0.38606372,0.3827362,-0.17512354,0.23975249,-0.41781965,-0.04094938,0.08531525,0.09393276,-0.36993185,-0.091577396,0.2894936,0.012280714,-0.19771549,-0.2870177,-0.17222086,0.42957237
Panc 10.05,-0.6941958,0.3421927,0.044641547,0.57053906,-0.32734534,-0.3805702,0.22674854,0.31638223,-0.4680943,-0.28419584,0.08994758,0.161597,0.09601872,-0.14481938,-0.052371334,0.51482016
HCC70,-0.488947,0.2771911,-0.15490742,0.3786913,-0.20787412,-0.08155075,-0.04478149,0.07797779,-0.20042013,-0.11735309,0.2859218,0.050068386,-0.13990723,-0.4368691,-0.20153987,0.40188244
HCT 8,-0.8046676,0.46998063,-0.002304832,0.7527957,-0.6541764,-0.6021274,0.37476823,1.0886078,-1.1648066,-0.67654276,-0.05733043,-0.74250543,-0.12069593,0.2548543,-0.32362485,1.1398313
KP-3,-0.21816178,0.22225134,0.023619095,0.8310382,0.20979534,-0.33093053,0.14849508,0.08759085,-0.3265131,-0.2867377,0.14107114,-0.49514458,-0.26919052,-0.22657362,-0.2680829,0.63618046
HEY A8,-0.6612506,0.4311169,-0.021626348,0.7011976,-0.40493837,-0.46253654,0.34451747,0.15328895,-0.44789794,-0.42636213,0.003807902,-0.1846991,0.10234803,0.13080432,-0.16412017,0.37745148
RD,-0.45631948,0.2723204,-0.13251351,0.39047328,-0.28480896,-0.15944786,0.057286307,0.15986924,-0.28047603,-0.16843182,0.15966068,0.055923507,-0.13294116,-0.30949578,-0.10612388,0.4215057
SLR21,-0.40585145,0.37319186,-0.13540795,0.32020664,-0.3046403,-0.087938435,0.06735396,0.05652361,-0.30356884,-0.073052615,0.25859526,0.11743971,-0.15093528,-0.33298764,-0.13750789,0.38791472
SNU-349,-0.18667549,-0.045607194,-0.11789658,0.4807784,-0.20061436,0.014754235,-0.01476333,0.08060211,-0.24170789,-0.46000338,0.28751838,-1.0425044,-0.3284597,-0.21788998,-0.3019693,0.65640914
P3HR-1,-0.430369,0.7391229,-0.003934474,0.62954146,0.13975802,-0.15633947,0.2606599,-0.5407829,-0.28636324,0.097218946,0.7116076,0.04554021,-0.074956395,-0.29419765,-0.61836004,0.29284558
DMS 53,-0.5274161,0.7831894,-0.0192152,0.4266026,-0.11140845,-0.007327354,0.033410657,-0.19077927,-0.44443786,0.15001167,0.7101946,0.18099467,-0.07263866,-0.49017662,-0.47721195,0.4379139
HPAF-II,-0.5155856,0.3239371,-0.08364937,0.57602245,-0.29047674,-0.2335245,-0.016342575,0.32686767,-0.37893036,-0.3044369,0.05552128,-0.2166435,-0.09419383,-0.25882465,-0.108986184,0.516449
SK-MES-1,-0.40585145,0.37319186,-0.13540795,0.32020664,-0.3046403,-0.087938435,0.06735396,0.05652361,-0.30356884,-0.073052615,0.25859526,0.11743971,-0.15093528,-0.33298764,-0.13750789,0.38791472
SCaBER,-0.40585145,0.37319186,-0.13540795,0.32020664,-0.3046403,-0.087938435,0.06735396,0.05652361,-0.30356884,-0.073052615,0.25859526,0.11743971,-0.15093528,-0.33298764,-0.13750789,0.38791472
ChaGo-K-1,-0.7495236,-0.029618144,0.10579912,0.7158324,0.3360113,-0.10133166,-0.14744186,-0.08430796,-0.014517257,-0.25544992,0.6954009,-0.28344917,0.048175078,-0.69057083,-0.5198474,0.63475996
HEC-1-B,0.92410195,0.9629986,-0.84619546,1.443517,0.1386568,-0.9367379,0.733611,0.8463093,-1.3987845,-0.7554597,-0.70364416,-2.937995,-1.8796493,1.0517236,-1.2413694,1.2976825
PaTu 8988t,-0.53687406,0.2291985,-0.18409294,0.33512682,-0.49948585,0.00037147634,-0.14655921,0.1984169,-0.23800421,-0.30748478,0.19671327,-0.32037222,-0.082077384,-0.3325842,-0.13355175,0.4065476
Hs 675.T,-0.40760717,-0.0073162834,-0.22038719,0.4273295,-0.18365562,0.109759994,-0.22723489,-0.040010396,-0.02502561,-0.37719807,0.42391586,-0.82673365,-0.23557392,-0.43705177,-0.41801065,0.4766613
MEG-01,-0.40585145,0.37319186,-0.13540795,0.32020664,-0.3046403,-0.087938435,0.06735396,0.05652361,-0.30356884,-0.073052615,0.25859526,0.11743971,-0.15093528,-0.33298764,-0.13750789,0.38791472
A-673,-0.49217018,0.4763517,-0.035045926,0.5656967,-0.272381,-0.36622757,0.31819788,0.09839361,-0.4452101,-0.19215536,0.10292908,0.10919817,-0.037271738,-0.054796834,-0.13677186,0.40145412
AMO1,-0.44435272,0.038213823,-0.37175274,0.08683989,-0.6046974,0.27168688,-0.36628062,0.06556688,0.014920747,-0.29730222,0.29141274,-0.49922177,-0.20422626,-0.49020928,-0.17352743,0.28531146
Hs 229.T,-0.38606372,0.3827362,-0.17512354,0.23975249,-0.41781965,-0.04094938,0.08531525,0.09393276,-0.36993185,-0.091577396,0.2894936,0.012280714,-0.19771549,-0.2870177,-0.17222086,0.42957237
GLC-82,-0.40585145,0.37319186,-0.13540795,0.32020664,-0.3046403,-0.087938435,0.06735396,0.05652361,-0.30356884,-0.073052615,0.25859526,0.11743971,-0.15093528,-0.33298764,-0.13750789,0.38791472
Lu-99A,-0.8046676,0.46998063,-0.002304832,0.7527957,-0.6541764,-0.6021274,0.37476823,1.0886078,-1.1648066,-0.67654276,-0.05733043,-0.74250543,-0.12069593,0.2548543,-0.32362485,1.1398313
NU-DUL-1,-0.5155856,0.3239371,-0.08364937,0.57602245,-0.29047674,-0.2335245,-0.016342575,0.32686767,-0.37893036,-0.3044369,0.05552128,-0.2166435,-0.09419383,-0.25882465,-0.108986184,0.516449
SW403,0.3393202,0.17389807,-0.30371433,1.2594314,0.2612325,-0.17464575,-0.40037486,0.6825058,-0.6003531,-0.8270172,-0.15484096,-2.7801993,-1.0299182,-0.12106789,-0.69829786,1.2163014
NCI-H2170,-0.40585145,0.37319186,-0.13540795,0.32020664,-0.3046403,-0.087938435,0.06735396,0.05652361,-0.30356884,-0.073052615,0.25859526,0.11743971,-0.15093528,-0.33298764,-0.13750789,0.38791472
KG-1,-0.30085227,0.38867486,-0.92125547,0.013262167,-0.94570535,-0.065757245,-0.011467273,1.444969,-1.2185794,-0.48298773,0.16112415,-1.4624583,-1.259341,-0.030027313,-0.97747695,1.4260029
DB,-0.45631948,0.2723204,-0.13251351,0.39047328,-0.28480896,-0.15944786,0.057286307,0.15986924,-0.28047603,-0.16843182,0.15966068,0.055923507,-0.13294116,-0.30949578,-0.10612388,0.4215057
TE-1,-0.40585145,0.37319186,-0.13540795,0.32020664,-0.3046403,-0.087938435,0.06735396,0.05652361,-0.30356884,-0.073052615,0.25859526,0.11743971,-0.15093528,-0.33298764,-0.13750789,0.38791472
SCC-25,-0.40585145,0.37319186,-0.13540795,0.32020664,-0.3046403,-0.087938435,0.06735396,0.05652361,-0.30356884,-0.073052615,0.25859526,0.11743971,-0.15093528,-0.33298764,-0.13750789,0.38791472
NCI-H1184,-0.40585145,0.37319186,-0.13540795,0.32020664,-0.3046403,-0.087938435,0.06735396,0.05652361,-0.30356884,-0.073052615,0.25859526,0.11743971,-0.15093528,-0.33298764,-0.13750789,0.38791472
HCC33,-0.40585145,0.37319186,-0.13540795,0.32020664,-0.3046403,-0.087938435,0.06735396,0.05652361,-0.30356884,-0.073052615,0.25859526,0.11743971,-0.15093528,-0.33298764,-0.13750789,0.38791472
HCC1897,-0.40585145,0.37319186,-0.13540795,0.32020664,-0.3046403,-0.087938435,0.06735396,0.05652361,-0.30356884,-0.073052615,0.25859526,0.11743971,-0.15093528,-0.33298764,-0.13750789,0.38791472
Panc 04.03,0.42160764,0.44591397,-1.06019,0.5637306,-0.56548333,0.016704839,-0.4095434,1.1189257,-0.8864036,-0.7196992,-0.27960902,-2.809006,-1.6263133,0.070305355,-0.9788845,1.1923068
Hs 895.T,-0.38606372,0.3827362,-0.17512354,0.23975249,-0.41781965,-0.04094938,0.08531525,0.09393276,-0.36993185,-0.091577396,0.2894936,0.012280714,-0.19771549,-0.2870177,-0.17222086,0.42957237
HCC1569,-0.25177434,0.16780593,0.03553317,0.80431306,0.24991012,-0.30690655,0.19932233,-0.059539165,-0.24944657,-0.27778834,0.2561835,-0.4763698,-0.22887507,-0.22610436,-0.33806607,0.5921676
Hs 840.T,-0.18667549,-0.045607194,-0.11789658,0.4807784,-0.20061436,0.014754235,-0.01476333,0.08060211,-0.24170789,-0.46000338,0.28751838,-1.0425044,-0.3284597,-0.21788998,-0.3019693,0.65640914
VMRC-LCP,-0.40585145,0.37319186,-0.13540795,0.32020664,-0.3046403,-0.087938435,0.06735396,0.05652361,-0.30356884,-0.073052615,0.25859526,0.11743971,-0.15093528,-0.33298764,-0.13750789,0.38791472
VMRC-RCW,-0.38606372,0.3827362,-0.17512354,0.23975249,-0.41781965,-0.04094938,0.08531525,0.09393276,-0.36993185,-0.091577396,0.2894936,0.012280714,-0.19771549,-0.2870177,-0.17222086,0.42957237
Hs 852.T,-0.38606372,0.3827362,-0.17512354,0.23975249,-0.41781965,-0.04094938,0.08531525,0.09393276,-0.36993185,-0.091577396,0.2894936,0.012280714,-0.19771549,-0.2870177,-0.17222086,0.42957237
HLF-a,-0.38606372,0.3827362,-0.17512354,0.23975249,-0.41781965,-0.04094938,0.08531525,0.09393276,-0.36993185,-0.091577396,0.2894936,0.012280714,-0.19771549,-0.2870177,-0.17222086,0.42957237
NCI-H2030,-0.6941958,0.3421927,0.044641547,0.57053906,-0.32734534,-0.3805702,0.22674854,0.31638223,-0.4680943,-0.28419584,0.08994758,0.161597,0.09601872,-0.14481938,-0.052371334,0.51482016
Ku812,-0.40585145,0.37319186,-0.13540795,0.32020664,-0.3046403,-0.087938435,0.06735396,0.05652361,-0.30356884,-0.073052615,0.25859526,0.11743971,-0.15093528,-0.33298764,-0.13750789,0.38791472
OUMS-27,-0.38606372,0.3827362,-0.17512354,0.23975249,-0.41781965,-0.04094938,0.08531525,0.09393276,-0.36993185,-0.091577396,0.2894936,0.012280714,-0.19771549,-0.2870177,-0.17222086,0.42957237
SK-RC-31,-0.40585145,0.37319186,-0.13540795,0.32020664,-0.3046403,-0.087938435,0.06735396,0.05652361,-0.30356884,-0.073052615,0.25859526,0.11743971,-0.15093528,-0.33298764,-0.13750789,0.38791472
JHOS-2,-0.45631948,0.2723204,-0.13251351,0.39047328,-0.28480896,-0.15944786,0.057286307,0.15986924,-0.28047603,-0.16843182,0.15966068,0.055923507,-0.13294116,-0.30949578,-0.10612388,0.4215057
KE-97,-0.5130411,-0.018265408,0.19166377,0.8893067,0.4883573,-0.26713905,0.17815734,-0.26568773,-0.093308195,-0.31702563,0.6232198,-0.50607467,-0.023442779,-0.38859528,-0.5519236,0.6543356
T.T,-0.5274161,0.7831894,-0.0192152,0.4266026,-0.11140845,-0.007327354,0.033410657,-0.19077927,-0.44443786,0.15001167,0.7101946,0.18099467,-0.07263866,-0.49017662,-0.47721195,0.4379139
IA-LM,-0.87645906,0.7065722,0.042204693,0.394516,-0.8677685,-0.5533647,0.7289334,0.81717676,-1.3042773,-0.36516434,0.23301132,0.0057695922,0.0011891768,0.34218654,-0.3237107,1.0034547
UACC-62,-0.18217227,0.5116867,-0.21927205,0.68508327,-0.08425619,-0.43960586,0.41852596,-0.15701145,-0.29374507,-0.18732414,-0.036402833,-0.14894302,-0.29594764,0.10893885,-0.2775802,0.23052263
YKG-1,-0.9266426,0.33264023,0.18135594,0.7396116,-0.21029174,-0.47643596,0.23843627,0.3468296,-0.49803656,-0.3541006,0.19540325,0.1660256,0.27124485,-0.17440207,-0.14093828,0.6026611
8305C,-0.6536399,0.3821562,0.0333277,0.52824533,-0.33904094,-0.33988667,0.22758251,0.26607108,-0.4719119,-0.23784877,0.12930657,0.182463,0.07342971,-0.15675323,-0.06286427,0.49515536
Hs 600.T,-0.38606372,0.3827362,-0.17512354,0.23975249,-0.41781965,-0.04094938,0.08531525,0.09393276,-0.36993185,-0.091577396,0.2894936,0.012280714,-0.19771549,-0.2870177,-0.17222086,0.42957237
BICR 31,-0.40585145,0.37319186,-0.13540795,0.32020664,-0.3046403,-0.087938435,0.06735396,0.05652361,-0.30356884,-0.073052615,0.25859526,0.11743971,-0.15093528,-0.33298764,-0.13750789,0.38791472
OUMS-23,0.17128131,0.54461783,-0.9126474,0.50889695,-0.45455614,-0.17115742,-0.013089867,0.65272415,-0.7178706,-0.47653618,-0.12509698,-1.7887686,-1.266965,0.14847697,-0.9149813,0.8357458
SNU-245,-0.40585145,0.37319186,-0.13540795,0.32020664,-0.3046403,-0.087938435,0.06735396,0.05652361,-0.30356884,-0.073052615,0.25859526,0.11743971,-0.15093528,-0.33298764,-0.13750789,0.38791472
T24,-0.38606372,0.3827362,-0.17512354,0.23975249,-0.41781965,-0.04094938,0.08531525,0.09393276,-0.36993185,-0.091577396,0.2894936,0.012280714,-0.19771549,-0.2870177,-0.17222086,0.42957237
CAL-62,-0.5155856,0.3239371,-0.08364937,0.57602245,-0.29047674,-0.2335245,-0.016342575,0.32686767,-0.37893036,-0.3044369,0.05552128,-0.2166435,-0.09419383,-0.25882465,-0.108986184,0.516449
Ki-JK,-0.38606372,0.3827362,-0.17512354,0.23975249,-0.41781965,-0.04094938,0.08531525,0.09393276,-0.36993185,-0.091577396,0.2894936,0.012280714,-0.19771549,-0.2870177,-0.17222086,0.42957237
SNU-1077,-0.40585145,0.37319186,-0.13540795,0.32020664,-0.3046403,-0.087938435,0.06735396,0.05652361,-0.30356884,-0.073052615,0.25859526,0.11743971,-0.15093528,-0.33298764,-0.13750789,0.38791472
Hs 706.T,-0.38606372,0.3827362,-0.17512354,0.23975249,-0.41781965,-0.04094938,0.08531525,0.09393276,-0.36993185,-0.091577396,0.2894936,0.012280714,-0.19771549,-0.2870177,-0.17222086,0.42957237
HCC2814,-0.40585145,0.37319186,-0.13540795,0.32020664,-0.3046403,-0.087938435,0.06735396,0.05652361,-0.30356884,-0.073052615,0.25859526,0.11743971,-0.15093528,-0.33298764,-0.13750789,0.38791472
FaDu,-0.40585145,0.37319186,-0.13540795,0.32020664,-0.3046403,-0.087938435,0.06735396,0.05652361,-0.30356884,-0.073052615,0.25859526,0.11743971,-0.15093528,-0.33298764,-0.13750789,0.38791472
MOLM-13,-0.18667549,-0.045607194,-0.11789658,0.4807784,-0.20061436,0.014754235,-0.01476333,0.08060211,-0.24170789,-0.46000338,0.28751838,-1.0425044,-0.3284597,-0.21788998,-0.3019693,0.65640914
NCI-H520,-0.40585145,0.37319186,-0.13540795,0.32020664,-0.3046403,-0.087938435,0.06735396,0.05652361,-0.30356884,-0.073052615,0.25859526,0.11743971,-0.15093528,-0.33298764,-0.13750789,0.38791472
MEC-2,-0.40585145,0.37319186,-0.13540795,0.32020664,-0.3046403,-0.087938435,0.06735396,0.05652361,-0.30356884,-0.073052615,0.25859526,0.11743971,-0.15093528,-0.33298764,-0.13750789,0.38791472
D283 Med,-0.40585145,0.37319186,-0.13540795,0.32020664,-0.3046403,-0.087938435,0.06735396,0.05652361,-0.30356884,-0.073052615,0.25859526,0.11743971,-0.15093528,-0.33298764,-0.13750789,0.38791472
NCI-H2227,-0.6536399,0.3821562,0.0333277,0.52824533,-0.33904094,-0.33988667,0.22758251,0.26607108,-0.4719119,-0.23784877,0.12930657,0.182463,0.07342971,-0.15675323,-0.06286427,0.49515536
HEC-50B,-0.5094242,-0.051451836,-0.4557334,0.011620762,-0.6794084,0.44081953,-0.57211745,0.004069905,0.16338375,-0.355419,0.39912534,-0.73428047,-0.19638036,-0.6053543,-0.26178464,0.23127426
HCC44,-0.5155856,0.3239371,-0.08364937,0.57602245,-0.29047674,-0.2335245,-0.016342575,0.32686767,-0.37893036,-0.3044369,0.05552128,-0.2166435,-0.09419383,-0.25882465,-0.108986184,0.516449
BICR 6,-0.40585145,0.37319186,-0.13540795,0.32020664,-0.3046403,-0.087938435,0.06735396,0.05652361,-0.30356884,-0.073052615,0.25859526,0.11743971,-0.15093528,-0.33298764,-0.13750789,0.38791472
Karpas-299,-0.40585145,0.37319186,-0.13540795,0.32020664,-0.3046403,-0.087938435,0.06735396,0.05652361,-0.30356884,-0.073052615,0.25859526,0.11743971,-0.15093528,-0.33298764,-0.13750789,0.38791472
SU-DHL-8,-0.6536399,0.3821562,0.0333277,0.52824533,-0.33904094,-0.33988667,0.22758251,0.26607108,-0.4719119,-0.23784877,0.12930657,0.182463,0.07342971,-0.15675323,-0.06286427,0.49515536
KYM-1,-0.7546753,0.084038645,-0.23988417,0.39444777,-0.10082461,0.13306448,-0.46494383,0.0070594186,0.1116313,-0.20164926,0.54828405,-0.23689327,-0.06609826,-0.787444,-0.44684988,0.37448886
MDA-MB-453,-0.7206816,0.32154867,-0.074598804,0.532454,-0.3921818,-0.43853652,0.508965,0.59431803,-0.91114324,-0.44957432,0.3981988,-0.53225315,-0.23537189,0.10224497,-0.62618977,1.0459367
SNU-175,2.6108832,0.9929998,-0.9622283,2.6494827,1.2807395,-1.2633581,1.2876881,-0.39035368,-1.0991001,-1.2474153,-1.1478429,-5.7389164,-2.8128076,2.1092389,-1.8653502,1.1028935
NCC-StC-K140,-0.40585145,0.37319186,-0.13540795,0.32020664,-0.3046403,-0.087938435,0.06735396,0.05652361,-0.30356884,-0.073052615,0.25859526,0.11743971,-0.15093528,-0.33298764,-0.13750789,0.38791472
HCC1588,-0.6612506,0.4311169,-0.021626348,0.7011976,-0.40493837,-0.46253654,0.34451747,0.15328895,-0.44789794,-0.42636213,0.003807902,-0.1846991,0.10234803,0.13080432,-0.16412017,0.37745148
SNU-475,-0.45631948,0.2723204,-0.13251351,0.39047328,-0.28480896,-0.15944786,0.057286307,0.15986924,-0.28047603,-0.16843182,0.15966068,0.055923507,-0.13294116,-0.30949578,-0.10612388,0.4215057
HT-1080,-0.18667549,-0.045607194,-0.11789658,0.4807784,-0.20061436,0.014754235,-0.01476333,0.08060211,-0.24170789,-0.46000338,0.28751838,-1.0425044,-0.3284597,-0.21788998,-0.3019693,0.65640914
HCC827,-0.40585145,0.37319186,-0.13540795,0.32020664,-0.3046403,-0.087938435,0.06735396,0.05652361,-0.30356884,-0.073052615,0.25859526,0.11743971,-0.15093528,-0.33298764,-0.13750789,0.38791472
Kuramochi,-0.34861726,-0.031144172,0.3376537,1.3406715,0.9658844,-0.40698162,0.107214704,-0.18187678,-0.16653588,-0.42551684,0.58336264,-1.0334455,-0.15301162,-0.43435046,-0.6905635,0.92144907
SNU-1041,-0.18667549,-0.045607194,-0.11789658,0.4807784,-0.20061436,0.014754235,-0.01476333,0.08060211,-0.24170789,-0.46000338,0.28751838,-1.0425044,-0.3284597,-0.21788998,-0.3019693,0.65640914
Kasumi-2,-0.5155856,0.3239371,-0.08364937,0.57602245,-0.29047674,-0.2335245,-0.016342575,0.32686767,-0.37893036,-0.3044369,0.05552128,-0.2166435,-0.09419383,-0.25882465,-0.108986184,0.516449
SU-DHL-5,-0.3355237,0.060572762,0.19633168,1.1435844,0.75841624,-0.43615642,0.41212025,-0.5503522,-0.05758653,-0.34746858,0.604673,-0.7464179,-0.11634065,-0.16257605,-0.7391099,0.5841896
BV-173,-0.40368566,0.2909859,-0.15928559,0.34300402,-0.28786156,-0.10855813,0.03934482,0.10969569,-0.2625163,-0.1253121,0.19315878,0.058119792,-0.17278287,-0.33531415,-0.11889144,0.39838794
CAL-29,-0.93606454,0.5496323,-0.16771099,0.48916635,-0.6421563,-0.46304566,0.33161944,0.96138424,-1.0878502,-0.42694843,0.26617944,-0.3350025,-0.20256197,0.028648457,-0.5741516,1.0811416
DoHH2,-0.18667549,-0.045607194,-0.11789658,0.4807784,-0.20061436,0.014754235,-0.01476333,0.08060211,-0.24170789,-0.46000338,0.28751838,-1.0425044,-0.3284597,-0.21788998,-0.3019693,0.65640914
NCI-H727,-0.5155856,0.3239371,-0.08364937,0.57602245,-0.29047674,-0.2335245,-0.016342575,0.32686767,-0.37893036,-0.3044369,0.05552128,-0.2166435,-0.09419383,-0.25882465,-0.108986184,0.516449
RL,-0.488947,0.2771911,-0.15490742,0.3786913,-0.20787412,-0.08155075,-0.04478149,0.07797779,-0.20042013,-0.11735309,0.2859218,0.050068386,-0.13990723,-0.4368691,-0.20153987,0.40188244
HMEL,-0.40585145,0.37319186,-0.13540795,0.32020664,-0.3046403,-0.087938435,0.06735396,0.05652361,-0.30356884,-0.073052615,0.25859526,0.11743971,-0.15093528,-0.33298764,-0.13750789,0.38791472
HCC78,-0.40585145,0.37319186,-0.13540795,0.32020664,-0.3046403,-0.087938435,0.06735396,0.05652361,-0.30356884,-0.073052615,0.25859526,0.11743971,-0.15093528,-0.33298764,-0.13750789,0.38791472
A2780,-0.5716347,1.166223,0.10874929,1.1290209,-0.0729666,-0.94546545,1.1253303,-0.21372575,-0.9670138,-0.23848179,0.21228792,-0.09275308,0.025192417,0.70288455,-0.6938979,0.4490217
DMS 454,-0.7824847,0.15560356,-0.15931499,0.52157,0.072669886,-0.009918578,-0.35497218,0.022018697,0.044818737,-0.14255781,0.5404828,-0.03441659,-0.042396203,-0.7800105,-0.46371752,0.4242199
Lu-65,0.03956095,0.41736898,-0.91435856,0.2870834,-0.7376241,-0.013208491,-0.26861316,1.248326,-0.9797264,-0.54508764,-0.11169141,-1.8929219,-1.3279723,-0.06439608,-0.806538,1.2192181
OE33,-0.40585145,0.37319186,-0.13540795,0.32020664,-0.3046403,-0.087938435,0.06735396,0.05652361,-0.30356884,-0.073052615,0.25859526,0.11743971,-0.15093528,-0.33298764,-0.13750789,0.38791472
CAL-148,-0.78342164,0.818979,0.059397146,0.9224506,0.03685758,-0.5082155,0.47754058,0.28367049,-1.0056828,-0.26373148,0.72371143,-0.59651756,-0.18026894,-0.0030447347,-1.0199358,1.0475466
Fu97,-0.5213963,0.12410929,-0.21944703,0.5157793,-0.05361448,0.0562944,-0.40696847,0.1128358,-0.017404024,-0.2564903,0.35815006,-0.48790008,-0.2066647,-0.6575891,-0.3689903,0.470803
JHUEM-1,0.49461025,0.47770715,0.7593125,1.9711528,1.3204101,-1.2766633,2.0524952,-1.3979384,-0.67988014,-0.5238649,0.42893124,-1.4137869,-0.18390541,1.3012382,-0.90889376,0.67473835
MFE-296,-0.015486103,0.5351188,-0.9637128,0.84903324,-0.07416456,-0.5091942,0.26117584,1.5446512,-1.5741658,-0.72946316,0.27993032,-2.7918382,-1.8435718,0.2581941,-1.8924791,2.045538
PK-59,-0.53687406,0.2291985,-0.18409294,0.33512682,-0.49948585,0.00037147634,-0.14655921,0.1984169,-0.23800421,-0.30748478,0.19671327,-0.32037222,-0.082077384,-0.3325842,-0.13355175,0.4065476
TC-71,-0.40585145,0.37319186,-0.13540795,0.32020664,-0.3046403,-0.087938435,0.06735396,0.05652361,-0.30356884,-0.073052615,0.25859526,0.11743971,-0.15093528,-0.33298764,-0.13750789,0.38791472
COLO 680N,-0.40585145,0.37319186,-0.13540795,0.32020664,-0.3046403,-0.087938435,0.06735396,0.05652361,-0.30356884,-0.073052615,0.25859526,0.11743971,-0.15093528,-0.33298764,-0.13750789,0.38791472
YD-10B,-0.9046483,0.593503,0.009265783,0.43378732,-0.5609708,-0.3679607,0.41005233,0.5465318,-0.94202375,-0.26844317,0.4541614,-0.010468973,0.009861177,-0.026074767,-0.46083558,0.8740184
HuP-T3,0.03956095,0.41736898,-0.91435856,0.2870834,-0.7376241,-0.013208491,-0.26861316,1.248326,-0.9797264,-0.54508764,-0.11169141,-1.8929219,-1.3279723,-0.06439608,-0.806538,1.2192181
TE-14,-0.2716173,0.102555454,-0.10466083,0.6140811,-0.018926932,-0.060398765,-0.17677397,0.1625555,-0.19662735,-0.3299445,0.20337102,-0.69130564,-0.2882373,-0.42199996,-0.24526821,0.6014295
SW1271,-0.42863762,0.4752334,-0.13610795,1.0740253,0.538697,-0.44734704,0.232002,-0.5241622,-0.004101025,-0.18932836,0.4147573,-0.4211982,-0.20032288,-0.18818183,-0.8036547,0.2510857
JHH-1,-1.2973933,-0.019255042,-0.2830398,0.71809304,0.50202453,0.29600272,-1.0461019,-0.31213793,0.6280814,-0.20352766,1.1518643,-0.48643437,0.10769038,-1.4221687,-1.1093931,0.32300487
SJSA-1,-0.38606372,0.3827362,-0.17512354,0.23975249,-0.41781965,-0.04094938,0.08531525,0.09393276,-0.36993185,-0.091577396,0.2894936,0.012280714,-0.19771549,-0.2870177,-0.17222086,0.42957237
NCI-H1355,-0.5155856,0.3239371,-0.08364937,0.57602245,-0.29047674,-0.2335245,-0.016342575,0.32686767,-0.37893036,-0.3044369,0.05552128,-0.2166435,-0.09419383,-0.25882465,-0.108986184,0.516449
OE19,-0.7836037,0.12922814,-0.5214118,0.3473899,-0.23424302,0.17228469,-0.5985798,0.49221706,-0.1940088,-0.331604,0.61793786,-0.8710248,-0.46115527,-0.78832734,-0.86628366,0.78040445
PF-382,-0.2224463,0.23532636,-0.007052892,1.1873045,0.7377504,-0.49336353,0.40726838,-0.49083397,-0.11650815,-0.33337873,0.47771323,-0.9029818,-0.33749804,-0.06822699,-0.88238573,0.55076987
COR-L51,-0.40585145,0.37319186,-0.13540795,0.32020664,-0.3046403,-0.087938435,0.06735396,0.05652361,-0.30356884,-0.073052615,0.25859526,0.11743971,-0.15093528,-0.33298764,-0.13750789,0.38791472
HuH-1,-0.40585145,0.37319186,-0.13540795,0.32020664,-0.3046403,-0.087938435,0.06735396,0.05652361,-0.30356884,-0.073052615,0.25859526,0.11743971,-0.15093528,-0.33298764,-0.13750789,0.38791472
SNU-387,-0.40585145,0.37319186,-0.13540795,0.32020664,-0.3046403,-0.087938435,0.06735396,0.05652361,-0.30356884,-0.073052615,0.25859526,0.11743971,-0.15093528,-0.33298764,-0.13750789,0.38791472
COLO 320,-0.5213963,0.12410929,-0.21944703,0.5157793,-0.05361448,0.0562944,-0.40696847,0.1128358,-0.017404024,-0.2564903,0.35815006,-0.48790008,-0.2066647,-0.6575891,-0.3689903,0.470803
Panc 05.04,-0.53687406,0.2291985,-0.18409294,0.33512682,-0.49948585,0.00037147634,-0.14655921,0.1984169,-0.23800421,-0.30748478,0.19671327,-0.32037222,-0.082077384,-0.3325842,-0.13355175,0.4065476
PE/CA-PJ41 (clone D2),-0.40585145,0.37319186,-0.13540795,0.32020664,-0.3046403,-0.087938435,0.06735396,0.05652361,-0.30356884,-0.073052615,0.25859526,0.11743971,-0.15093528,-0.33298764,-0.13750789,0.38791472
IOMM-Lee,-0.40585145,0.37319186,-0.13540795,0.32020664,-0.3046403,-0.087938435,0.06735396,0.05652361,-0.30356884,-0.073052615,0.25859526,0.11743971,-0.15093528,-0.33298764,-0.13750789,0.38791472
WM793,-0.18217227,0.5116867,-0.21927205,0.68508327,-0.08425619,-0.43960586,0.41852596,-0.15701145,-0.29374507,-0.18732414,-0.036402833,-0.14894302,-0.29594764,0.10893885,-0.2775802,0.23052263
Granta-519,-0.38606372,0.3827362,-0.17512354,0.23975249,-0.41781965,-0.04094938,0.08531525,0.09393276,-0.36993185,-0.091577396,0.2894936,0.012280714,-0.19771549,-0.2870177,-0.17222086,0.42957237
JHH-4,-0.40585145,0.37319186,-0.13540795,0.32020664,-0.3046403,-0.087938435,0.06735396,0.05652361,-0.30356884,-0.073052615,0.25859526,0.11743971,-0.15093528,-0.33298764,-0.13750789,0.38791472
KYSE-30,-0.33801413,0.44746578,-0.047839873,1.1530423,0.67990327,-0.27536723,-0.16523212,-0.15563233,-0.15502496,-0.19332577,0.47306952,-0.79260635,-0.3409333,-0.537087,-0.78228205,0.61978704
RERF-LC-Ad1,-0.83933467,0.4278043,0.15154439,0.7375,-0.36892313,-0.5575418,0.37524843,0.38249433,-0.6014214,-0.39590374,0.016978497,0.13942394,0.24868473,0.041956488,-0.046489015,0.54726124
TUHR10TKB,-0.38606372,0.3827362,-0.17512354,0.23975249,-0.41781965,-0.04094938,0.08531525,0.09393276,-0.36993185,-0.091577396,0.2894936,0.012280714,-0.19771549,-0.2870177,-0.17222086,0.42957237
SW900,-0.5155856,0.3239371,-0.08364937,0.57602245,-0.29047674,-0.2335245,-0.016342575,0.32686767,-0.37893036,-0.3044369,0.05552128,-0.2166435,-0.09419383,-0.25882465,-0.108986184,0.516449
MDA-MB-231,-0.8784518,0.51079214,0.22382917,0.8584328,-0.32069924,-0.71312994,0.536826,0.38826492,-0.6950738,-0.41111892,-0.038658526,0.23132214,0.30949393,0.17266016,-0.044399753,0.56052727
KMS-11,-0.38606372,0.3827362,-0.17512354,0.23975249,-0.41781965,-0.04094938,0.08531525,0.09393276,-0.36993185,-0.091577396,0.2894936,0.012280714,-0.19771549,-0.2870177,-0.17222086,0.42957237
HCT 15,2.6827166,1.2410661,-1.6161388,2.3236067,0.50182503,-1.4620289,1.267712,2.347169,-3.086238,-1.6155404,-1.382962,-7.2541866,-4.2817926,2.3314512,-2.6516073,3.1972237
BICR 56,-0.7495236,-0.029618144,0.10579912,0.7158324,0.3360113,-0.10133166,-0.14744186,-0.08430796,-0.014517257,-0.25544992,0.6954009,-0.28344917,0.048175078,-0.69057083,-0.5198474,0.63475996
IGR-37,-0.6536399,0.3821562,0.0333277,0.52824533,-0.33904094,-0.33988667,0.22758251,0.26607108,-0.4719119,-0.23784877,0.12930657,0.182463,0.07342971,-0.15675323,-0.06286427,0.49515536
SW1783,-0.42312315,0.12104266,0.059296034,0.9134047,0.47778264,-0.3130219,0.20928878,-0.35031956,-0.058487616,-0.27451563,0.5175633,-0.49539804,-0.12290906,-0.29986033,-0.6025238,0.5112259
UM-RC-2,-0.40585145,0.37319186,-0.13540795,0.32020664,-0.3046403,-0.087938435,0.06735396,0.05652361,-0.30356884,-0.073052615,0.25859526,0.11743971,-0.15093528,-0.33298764,-0.13750789,0.38791472
NCI-H1975,-1.2530195,0.18276775,-0.3282215,0.5408556,-0.53077847,-0.4961677,0.43192977,1.5839183,-1.5713837,-0.8306189,0.8595337,-1.5989153,-0.64176965,0.07330164,-1.5740861,2.0710835
Rh18,-0.40585145,0.37319186,-0.13540795,0.32020664,-0.3046403,-0.087938435,0.06735396,0.05652361,-0.30356884,-0.073052615,0.25859526,0.11743971,-0.15093528,-0.33298764,-0.13750789,0.38791472
U-87MG ATCC,-0.21723185,0.31094638,-0.17296606,0.5239017,-0.11689691,-0.25673592,0.24350376,-0.06273765,-0.24381493,-0.17853937,0.09661923,-0.15375936,-0.27657244,-0.11469086,-0.20612498,0.34882644
KYSE-150,-0.40585145,0.37319186,-0.13540795,0.32020664,-0.3046403,-0.087938435,0.06735396,0.05652361,-0.30356884,-0.073052615,0.25859526,0.11743971,-0.15093528,-0.33298764,-0.13750789,0.38791472
HCC202,-0.9697302,0.42725256,0.09717794,0.64381444,-0.49797204,-0.5684256,0.40235996,0.65003526,-0.80052036,-0.43016356,0.09543998,0.09524395,0.17849469,0.047087666,-0.17430544,0.763683
COLO 849,-0.49217018,0.4763517,-0.035045926,0.5656967,-0.272381,-0.36622757,0.31819788,0.09839361,-0.4452101,-0.19215536,0.10292908,0.10919817,-0.037271738,-0.054796834,-0.13677186,0.40145412
LS180,1.494628,1.1155379,-1.750109,1.2047597,-0.17653102,-0.418422,0.1878445,0.13208222,-0.6812751,-0.8121837,-0.86547726,-4.1091905,-2.4941485,1.1395798,-1.6752415,0.48597407
NCI-H1703,-0.9524416,1.0547019,-0.05102892,0.33336294,-0.5598836,-0.27261853,0.7328264,0.37351453,-1.4523543,-0.09623003,1.2084998,-0.41626072,-0.23913455,0.11908273,-1.28521,1.2501649
NCI-H2052,-0.38606372,0.3827362,-0.17512354,0.23975249,-0.41781965,-0.04094938,0.08531525,0.09393276,-0.36993185,-0.091577396,0.2894936,0.012280714,-0.19771549,-0.2870177,-0.17222086,0.42957237
COLO 679,-0.49217018,0.4763517,-0.035045926,0.5656967,-0.272381,-0.36622757,0.31819788,0.09839361,-0.4452101,-0.19215536,0.10292908,0.10919817,-0.037271738,-0.054796834,-0.13677186,0.40145412
NCI-H1650,-0.5274161,0.7831894,-0.0192152,0.4266026,-0.11140845,-0.007327354,0.033410657,-0.19077927,-0.44443786,0.15001167,0.7101946,0.18099467,-0.07263866,-0.49017662,-0.47721195,0.4379139
SK-MEL-1,-0.19571538,0.38424367,-0.17238475,0.7788844,0.16622837,-0.38656396,0.34222782,-0.3021013,-0.15866368,-0.20032138,0.15505706,-0.3276394,-0.30113414,-0.028654082,-0.44074145,0.2838559
HLF,-0.40585145,0.37319186,-0.13540795,0.32020664,-0.3046403,-0.087938435,0.06735396,0.05652361,-0.30356884,-0.073052615,0.25859526,0.11743971,-0.15093528,-0.33298764,-0.13750789,0.38791472
Mino,-0.40585145,0.37319186,-0.13540795,0.32020664,-0.3046403,-0.087938435,0.06735396,0.05652361,-0.30356884,-0.073052615,0.25859526,0.11743971,-0.15093528,-0.33298764,-0.13750789,0.38791472
NCI-H526,-0.7495236,-0.029618144,0.10579912,0.7158324,0.3360113,-0.10133166,-0.14744186,-0.08430796,-0.014517257,-0.25544992,0.6954009,-0.28344917,0.048175078,-0.69057083,-0.5198474,0.63475996
OC 314,-0.40585145,0.37319186,-0.13540795,0.32020664,-0.3046403,-0.087938435,0.06735396,0.05652361,-0.30356884,-0.073052615,0.25859526,0.11743971,-0.15093528,-0.33298764,-0.13750789,0.38791472
RERF-LC-Ad2,-0.03384794,0.13713042,-0.28358397,0.66947263,-0.09098187,0.066560484,-0.4838395,0.31799933,-0.17601731,-0.43509924,-0.005710809,-1.2763441,-0.5341421,-0.45901456,-0.24013361,0.61758703
KP-2,-0.5155856,0.3239371,-0.08364937,0.57602245,-0.29047674,-0.2335245,-0.016342575,0.32686767,-0.37893036,-0.3044369,0.05552128,-0.2166435,-0.09419383,-0.25882465,-0.108986184,0.516449
NCI-H28,-0.38606372,0.3827362,-0.17512354,0.23975249,-0.41781965,-0.04094938,0.08531525,0.09393276,-0.36993185,-0.091577396,0.2894936,0.012280714,-0.19771549,-0.2870177,-0.17222086,0.42957237
AM-38,-0.49217018,0.4763517,-0.035045926,0.5656967,-0.272381,-0.36622757,0.31819788,0.09839361,-0.4452101,-0.19215536,0.10292908,0.10919817,-0.037271738,-0.054796834,-0.13677186,0.40145412
HuT 78,-0.40585145,0.37319186,-0.13540795,0.32020664,-0.3046403,-0.087938435,0.06735396,0.05652361,-0.30356884,-0.073052615,0.25859526,0.11743971,-0.15093528,-0.33298764,-0.13750789,0.38791472
COLO 201,-0.12730777,0.31932044,-0.10430287,1.072541,0.5723291,-0.46315,0.44264585,-0.6487462,-0.013024746,-0.2731887,0.33960813,-0.72560275,-0.32820594,0.029353393,-0.74555373,0.28719348
CAL-51,-0.7206816,0.32154867,-0.074598804,0.532454,-0.3921818,-0.43853652,0.508965,0.59431803,-0.91114324,-0.44957432,0.3981988,-0.53225315,-0.23537189,0.10224497,-0.62618977,1.0459367
Hs 822.T,-0.38606372,0.3827362,-0.17512354,0.23975249,-0.41781965,-0.04094938,0.08531525,0.09393276,-0.36993185,-0.091577396,0.2894936,0.012280714,-0.19771549,-0.2870177,-0.17222086,0.42957237
KNS-81-FD,-0.40585145,0.37319186,-0.13540795,0.32020664,-0.3046403,-0.087938435,0.06735396,0.05652361,-0.30356884,-0.073052615,0.25859526,0.11743971,-0.15093528,-0.33298764,-0.13750789,0.38791472
NCI-H661,-0.098151386,0.5741752,0.102658205,1.1540413,0.6040325,-0.34296405,0.1314871,-0.12515783,-0.47449732,-0.17942739,0.43254888,-0.88894737,-0.39796618,-0.27795807,-0.6748867,0.77976096
HOS,-0.45631948,0.2723204,-0.13251351,0.39047328,-0.28480896,-0.15944786,0.057286307,0.15986924,-0.28047603,-0.16843182,0.15966068,0.055923507,-0.13294116,-0.30949578,-0.10612388,0.4215057
COLO 684,-0.1744945,0.79686797,0.08649858,0.8035685,0.2891192,-0.32704994,0.6197772,-0.7582149,-0.3862184,0.05697691,0.6518098,-0.16178326,-0.14875127,0.034391977,-0.6608987,0.2982191
SW1463,0.36957043,0.31568176,-0.07939098,1.1478955,0.41759855,-0.462989,0.35090274,-0.14254744,-0.3550923,-0.4342475,-0.14143305,-1.3355973,-0.6401517,0.18555486,-0.38546494,0.59475213
HCC827 GR5,-0.40585145,0.37319186,-0.13540795,0.32020664,-0.3046403,-0.087938435,0.06735396,0.05652361,-0.30356884,-0.073052615,0.25859526,0.11743971,-0.15093528,-0.33298764,-0.13750789,0.38791472
SNU-1214,-0.92811084,0.66882247,-0.21227282,0.18987775,-0.77411366,-0.23854524,0.4297437,0.77686894,-1.2215779,-0.25746822,0.71451944,-0.3362795,-0.28728148,-0.0086891,-0.84688556,1.1673746
SCLC-21H,-0.5213963,0.12410929,-0.21944703,0.5157793,-0.05361448,0.0562944,-0.40696847,0.1128358,-0.017404024,-0.2564903,0.35815006,-0.48790008,-0.2066647,-0.6575891,-0.3689903,0.470803
SH-10-TC,-0.4228315,0.33525562,-0.12199215,0.51967144,-0.21980056,-0.2680303,0.1371485,0.15327519,-0.32158816,-0.20392002,0.07899206,-0.014670113,-0.1498668,-0.20388484,-0.1337358,0.41908205
JVM-2,-0.38606372,0.3827362,-0.17512354,0.23975249,-0.41781965,-0.04094938,0.08531525,0.09393276,-0.36993185,-0.091577396,0.2894936,0.012280714,-0.19771549,-0.2870177,-0.17222086,0.42957237
HCC1419,-0.40585145,0.37319186,-0.13540795,0.32020664,-0.3046403,-0.087938435,0.06735396,0.05652361,-0.30356884,-0.073052615,0.25859526,0.11743971,-0.15093528,-0.33298764,-0.13750789,0.38791472
SNU-719,-0.16935799,0.37275276,-1.276266,-0.122869454,-1.2683326,-0.118281834,0.26264656,2.1382008,-1.9345431,-0.7937142,0.2961938,-2.6748507,-1.9440206,0.38544488,-1.663635,2.2122185
IGR-1,-0.49217018,0.4763517,-0.035045926,0.5656967,-0.272381,-0.36622757,0.31819788,0.09839361,-0.4452101,-0.19215536,0.10292908,0.10919817,-0.037271738,-0.054796834,-0.13677186,0.40145412
HCC2157,-0.40585145,0.37319186,-0.13540795,0.32020664,-0.3046403,-0.087938435,0.06735396,0.05652361,-0.30356884,-0.073052615,0.25859526,0.11743971,-0.15093528,-0.33298764,-0.13750789,0.38791472
ST486,-0.40585145,0.37319186,-0.13540795,0.32020664,-0.3046403,-0.087938435,0.06735396,0.05652361,-0.30356884,-0.073052615,0.25859526,0.11743971,-0.15093528,-0.33298764,-0.13750789,0.38791472
SW1088,-0.7824847,0.15560356,-0.15931499,0.52157,0.072669886,-0.009918578,-0.35497218,0.022018697,0.044818737,-0.14255781,0.5404828,-0.03441659,-0.042396203,-0.7800105,-0.46371752,0.4242199
NCI-H322,-0.40585145,0.37319186,-0.13540795,0.32020664,-0.3046403,-0.087938435,0.06735396,0.05652361,-0.30356884,-0.073052615,0.25859526,0.11743971,-0.15093528,-0.33298764,-0.13750789,0.38791472
SK-MEL-2,-0.40585145,0.37319186,-0.13540795,0.32020664,-0.3046403,-0.087938435,0.06735396,0.05652361,-0.30356884,-0.073052615,0.25859526,0.11743971,-0.15093528,-0.33298764,-0.13750789,0.38791472
RERF-LC-MS,-0.40585145,0.37319186,-0.13540795,0.32020664,-0.3046403,-0.087938435,0.06735396,0.05652361,-0.30356884,-0.073052615,0.25859526,0.11743971,-0.15093528,-0.33298764,-0.13750789,0.38791472
LN-18,-0.2716173,0.102555454,-0.10466083,0.6140811,-0.018926932,-0.060398765,-0.17677397,0.1625555,-0.19662735,-0.3299445,0.20337102,-0.69130564,-0.2882373,-0.42199996,-0.24526821,0.6014295
HPAC,-0.53687406,0.2291985,-0.18409294,0.33512682,-0.49948585,0.00037147634,-0.14655921,0.1984169,-0.23800421,-0.30748478,0.19671327,-0.32037222,-0.082077384,-0.3325842,-0.13355175,0.4065476
SNU-886,-0.40585145,0.37319186,-0.13540795,0.32020664,-0.3046403,-0.087938435,0.06735396,0.05652361,-0.30356884,-0.073052615,0.25859526,0.11743971,-0.15093528,-0.33298764,-0.13750789,0.38791472
DMS 79,-0.5213963,0.12410929,-0.21944703,0.5157793,-0.05361448,0.0562944,-0.40696847,0.1128358,-0.017404024,-0.2564903,0.35815006,-0.48790008,-0.2066647,-0.6575891,-0.3689903,0.470803
SNU-182,-0.7495236,-0.029618144,0.10579912,0.7158324,0.3360113,-0.10133166,-0.14744186,-0.08430796,-0.014517257,-0.25544992,0.6954009,-0.28344917,0.048175078,-0.69057083,-0.5198474,0.63475996
NCI-H660,-0.2660979,0.14536527,-0.68790036,-0.021394677,-0.84610283,0.24511142,-0.18101443,0.17876786,-0.20345604,-0.40153673,0.24073891,-1.0304927,-0.5831509,-0.15899383,-0.49325693,0.38904884
OCI-Ly19,-0.38606372,0.3827362,-0.17512354,0.23975249,-0.41781965,-0.04094938,0.08531525,0.09393276,-0.36993185,-0.091577396,0.2894936,0.012280714,-0.19771549,-0.2870177,-0.17222086,0.42957237
KP-1N,-0.53687406,0.2291985,-0.18409294,0.33512682,-0.49948585,0.00037147634,-0.14655921,0.1984169,-0.23800421,-0.30748478,0.19671327,-0.32037222,-0.082077384,-0.3325842,-0.13355175,0.4065476
SR,-0.40585145,0.37319186,-0.13540795,0.32020664,-0.3046403,-0.087938435,0.06735396,0.05652361,-0.30356884,-0.073052615,0.25859526,0.11743971,-0.15093528,-0.33298764,-0.13750789,0.38791472
23132/87,-0.38606372,0.3827362,-0.17512354,0.23975249,-0.41781965,-0.04094938,0.08531525,0.09393276,-0.36993185,-0.091577396,0.2894936,0.012280714,-0.19771549,-0.2870177,-0.17222086,0.42957237
NCI-H1838,-0.45631948,0.2723204,-0.13251351,0.39047328,-0.28480896,-0.15944786,0.057286307,0.15986924,-0.28047603,-0.16843182,0.15966068,0.055923507,-0.13294116,-0.30949578,-0.10612388,0.4215057
A-498,-0.002389787,0.93059766,0.023885543,0.8248705,-0.06962627,-0.40725958,0.52647793,-0.21164225,-0.6969556,-0.08768103,0.12997667,-0.3870119,-0.27941063,0.21733353,-0.3127699,0.42208102
ALL-SIL,-0.38606372,0.3827362,-0.17512354,0.23975249,-0.41781965,-0.04094938,0.08531525,0.09393276,-0.36993185,-0.091577396,0.2894936,0.012280714,-0.19771549,-0.2870177,-0.17222086,0.42957237
DU4475,-0.13682608,0.30553603,-0.42500535,0.4002673,-0.31277478,-0.056291126,0.044617206,-0.23285455,-0.036004137,-0.24623418,0.08999802,-0.5455425,-0.39141217,-0.09954614,-0.32253653,0.1293498
CAL-33,-1.2530195,0.18276775,-0.3282215,0.5408556,-0.53077847,-0.4961677,0.43192977,1.5839183,-1.5713837,-0.8306189,0.8595337,-1.5989153,-0.64176965,0.07330164,-1.5740861,2.0710835
Hs 934.T,-0.38606372,0.3827362,-0.17512354,0.23975249,-0.41781965,-0.04094938,0.08531525,0.09393276,-0.36993185,-0.091577396,0.2894936,0.012280714,-0.19771549,-0.2870177,-0.17222086,0.42957237
LOU-NH91,-0.93606454,0.5496323,-0.16771099,0.48916635,-0.6421563,-0.46304566,0.33161944,0.96138424,-1.0878502,-0.42694843,0.26617944,-0.3350025,-0.20256197,0.028648457,-0.5741516,1.0811416
NCI-H854,-0.6536399,0.3821562,0.0333277,0.52824533,-0.33904094,-0.33988667,0.22758251,0.26607108,-0.4719119,-0.23784877,0.12930657,0.182463,0.07342971,-0.15675323,-0.06286427,0.49515536
RERF-GC-1B,-0.13493496,0.086593226,0.38208494,2.000383,1.7047813,-0.66775835,0.17281985,-0.4883811,-0.068652056,-0.5075038,0.6092924,-1.6734151,-0.34580112,-0.34898052,-1.1307548,0.9773406
SCC-15,-0.40585145,0.37319186,-0.13540795,0.32020664,-0.3046403,-0.087938435,0.06735396,0.05652361,-0.30356884,-0.073052615,0.25859526,0.11743971,-0.15093528,-0.33298764,-0.13750789,0.38791472
JVM-3,-0.49217018,0.4763517,-0.035045926,0.5656967,-0.272381,-0.36622757,0.31819788,0.09839361,-0.4452101,-0.19215536,0.10292908,0.10919817,-0.037271738,-0.054796834,-0.13677186,0.40145412
ONCO-DG-1,-0.40585145,0.37319186,-0.13540795,0.32020664,-0.3046403,-0.087938435,0.06735396,0.05652361,-0.30356884,-0.073052615,0.25859526,0.11743971,-0.15093528,-0.33298764,-0.13750789,0.38791472
253J,-0.8476745,0.47253177,-0.14877345,0.3341415,-0.78225464,-0.44272798,0.56891286,0.9754783,-1.256901,-0.4629549,0.365021,-0.4641221,-0.2780515,0.20783363,-0.6185328,1.227281
UACC-893,-0.9697302,0.42725256,0.09717794,0.64381444,-0.49797204,-0.5684256,0.40235996,0.65003526,-0.80052036,-0.43016356,0.09543998,0.09524395,0.17849469,0.047087666,-0.17430544,0.763683
JM-1,-0.38606372,0.3827362,-0.17512354,0.23975249,-0.41781965,-0.04094938,0.08531525,0.09393276,-0.36993185,-0.091577396,0.2894936,0.012280714,-0.19771549,-0.2870177,-0.17222086,0.42957237
SNU-410,-0.5155856,0.3239371,-0.08364937,0.57602245,-0.29047674,-0.2335245,-0.016342575,0.32686767,-0.37893036,-0.3044369,0.05552128,-0.2166435,-0.09419383,-0.25882465,-0.108986184,0.516449
U-BLC1,-0.40585145,0.37319186,-0.13540795,0.32020664,-0.3046403,-0.087938435,0.06735396,0.05652361,-0.30356884,-0.073052615,0.25859526,0.11743971,-0.15093528,-0.33298764,-0.13750789,0.38791472
MHH-CALL-4,0.31950778,0.58896077,-1.4110583,0.21177319,-1.0987047,-0.041631598,-0.18199988,1.7569333,-1.4590842,-0.78568697,-0.2690388,-2.9990425,-2.0186477,0.34285685,-1.3107088,1.6080952
SNU-119,-0.30085227,0.38867486,-0.92125547,0.013262167,-0.94570535,-0.065757245,-0.011467273,1.444969,-1.2185794,-0.48298773,0.16112415,-1.4624583,-1.259341,-0.030027313,-0.97747695,1.4260029
JHOC-5,-0.38606372,0.3827362,-0.17512354,0.23975249,-0.41781965,-0.04094938,0.08531525,0.09393276,-0.36993185,-0.091577396,0.2894936,0.012280714,-0.19771549,-0.2870177,-0.17222086,0.42957237
CML-T1,0.4398265,1.1465024,0.30126345,0.8209242,0.14294556,-0.5689384,1.4759932,-1.0746043,-0.8829817,0.13124989,0.4750201,-0.21750455,-0.26850024,0.815929,-0.46151114,0.29840142
MHH-CALL-2,-0.40368566,0.2909859,-0.15928559,0.34300402,-0.28786156,-0.10855813,0.03934482,0.10969569,-0.2625163,-0.1253121,0.19315878,0.058119792,-0.17278287,-0.33531415,-0.11889144,0.39838794
DV-90,0.43407965,0.28986016,0.12790777,2.0542762,1.5475411,-0.7570425,0.41954774,-0.67877793,-0.120106,-0.583966,0.19284344,-2.1976862,-0.7114755,0.16168001,-1.1003759,0.74687696
MOG-G-UVW,-0.28393614,0.33935907,-0.09361554,0.5005619,-0.11144765,-0.21106265,0.23629473,-0.08900367,-0.28536293,-0.13938077,0.23101342,-0.09381173,-0.20184001,-0.17568311,-0.2266571,0.39594895
RCH-ACV,0.4351457,0.36300716,-0.401069,1.1192981,0.27212632,-0.49092036,0.41577712,0.31962144,-0.77318674,-0.6292471,-0.052412763,-2.2132444,-1.1547139,0.38815752,-0.9474751,1.0850136
HRT-18,1.9499127,1.0804656,-1.0685577,2.660354,1.5030744,-1.2422286,0.92826265,-0.16324945,-1.0300033,-1.0820394,-0.71506006,-5.2568197,-2.7078185,1.5568962,-2.3256142,1.2477049
CMK-86,-0.38606372,0.3827362,-0.17512354,0.23975249,-0.41781965,-0.04094938,0.08531525,0.09393276,-0.36993185,-0.091577396,0.2894936,0.012280714,-0.19771549,-0.2870177,-0.17222086,0.42957237
NCI-H1092,-0.5274161,0.7831894,-0.0192152,0.4266026,-0.11140845,-0.007327354,0.033410657,-0.19077927,-0.44443786,0.15001167,0.7101946,0.18099467,-0.07263866,-0.49017662,-0.47721195,0.4379139
SK-LMS-1,-0.45631948,0.2723204,-0.13251351,0.39047328,-0.28480896,-0.15944786,0.057286307,0.15986924,-0.28047603,-0.16843182,0.15966068,0.055923507,-0.13294116,-0.30949578,-0.10612388,0.4215057
SK-N-FI,-0.40585145,0.37319186,-0.13540795,0.32020664,-0.3046403,-0.087938435,0.06735396,0.05652361,-0.30356884,-0.073052615,0.25859526,0.11743971,-0.15093528,-0.33298764,-0.13750789,0.38791472
MKN1,-0.5346072,0.71721226,0.31594333,0.6082937,-0.54655266,-0.62246525,1.0338224,0.54846025,-1.4495546,-0.35802257,0.35764608,-0.31177333,-0.04959124,0.5273086,-0.35344183,1.1700623
AN3-CA,0.90646493,0.7236688,0.12975167,2.040703,1.3804144,-1.2016208,1.6144913,-0.7562716,-0.95522004,-0.5542143,0.19982465,-2.4216304,-1.118219,1.1777098,-1.4407663,1.071101
IM95,0.34852645,0.683826,-0.18238229,1.236869,0.19936974,-1.0214531,1.3029441,-0.076876335,-0.939089,-0.5167432,-0.26371214,-1.263144,-0.7921539,1.0525484,-0.73395836,0.7184868
TT,-0.40760717,-0.0073162834,-0.22038719,0.4273295,-0.18365562,0.109759994,-0.22723489,-0.040010396,-0.02502561,-0.37719807,0.42391586,-0.82673365,-0.23557392,-0.43705177,-0.41801065,0.4766613
NCI-H1792,-0.5155856,0.3239371,-0.08364937,0.57602245,-0.29047674,-0.2335245,-0.016342575,0.32686767,-0.37893036,-0.3044369,0.05552128,-0.2166435,-0.09419383,-0.25882465,-0.108986184,0.516449
SaOS-2,-0.17396748,0.35355735,-1.0254352,-0.14496085,-1.1820412,-0.0039443593,0.18838337,1.3478118,-1.3051236,-0.57928944,0.22120719,-1.821855,-1.3796877,0.24024476,-1.1007808,1.4385362
SK-MEL-3,-0.6536399,0.3821562,0.0333277,0.52824533,-0.33904094,-0.33988667,0.22758251,0.26607108,-0.4719119,-0.23784877,0.12930657,0.182463,0.07342971,-0.15675323,-0.06286427,0.49515536
NCI-H2342,0.41731822,0.51594687,0.4164016,1.2455705,0.6790047,-0.76334536,1.4472798,-1.0192382,-0.59804034,-0.25673673,0.3971063,-0.87163067,-0.29226497,0.79264116,-0.59251904,0.53323054
HT-29,-0.6677678,0.5092628,-0.03259336,0.9252714,-0.10604713,-0.5577732,0.17910886,0.5028398,-0.62402433,-0.40428674,0.0039753444,-0.341856,-0.10105252,-0.06863995,-0.3493288,0.7044997
NCI-H2228,-0.40585145,0.37319186,-0.13540795,0.32020664,-0.3046403,-0.087938435,0.06735396,0.05652361,-0.30356884,-0.073052615,0.25859526,0.11743971,-0.15093528,-0.33298764,-0.13750789,0.38791472
NCI-H358,0.31950778,0.58896077,-1.4110583,0.21177319,-1.0987047,-0.041631598,-0.18199988,1.7569333,-1.4590842,-0.78568697,-0.2690388,-2.9990425,-2.0186477,0.34285685,-1.3107088,1.6080952
SK-MEL-30,-0.6564553,0.4838603,-0.28066525,0.6807091,-0.17858458,-0.45081356,0.29619944,0.25998366,-0.51776344,-0.32509202,0.2481253,-0.36530197,-0.27831322,-0.019284002,-0.6771038,0.60349786
647V,-0.40585145,0.37319186,-0.13540795,0.32020664,-0.3046403,-0.087938435,0.06735396,0.05652361,-0.30356884,-0.073052615,0.25859526,0.11743971,-0.15093528,-0.33298764,-0.13750789,0.38791472
GDM-1,-0.38606372,0.3827362,-0.17512354,0.23975249,-0.41781965,-0.04094938,0.08531525,0.09393276,-0.36993185,-0.091577396,0.2894936,0.012280714,-0.19771549,-0.2870177,-0.17222086,0.42957237
AU565,-0.40585145,0.37319186,-0.13540795,0.32020664,-0.3046403,-0.087938435,0.06735396,0.05652361,-0.30356884,-0.073052615,0.25859526,0.11743971,-0.15093528,-0.33298764,-0.13750789,0.38791472
HCC1359,-0.45631948,0.2723204,-0.13251351,0.39047328,-0.28480896,-0.15944786,0.057286307,0.15986924,-0.28047603,-0.16843182,0.15966068,0.055923507,-0.13294116,-0.30949578,-0.10612388,0.4215057
HT115,2.5164278,1.6634372,-2.2567687,1.8225671,-0.018954819,-1.3027791,1.2561888,1.5825624,-2.4864266,-1.2726288,-1.4329859,-6.3509555,-4.2185774,2.4410098,-2.7697673,2.0906413
ES-2,-0.6536399,0.3821562,0.0333277,0.52824533,-0.33904094,-0.33988667,0.22758251,0.26607108,-0.4719119,-0.23784877,0.12930657,0.182463,0.07342971,-0.15675323,-0.06286427,0.49515536
Li-7,-0.38606372,0.3827362,-0.17512354,0.23975249,-0.41781965,-0.04094938,0.08531525,0.09393276,-0.36993185,-0.091577396,0.2894936,0.012280714,-0.19771549,-0.2870177,-0.17222086,0.42957237
NCI-H2073,-0.40585145,0.37319186,-0.13540795,0.32020664,-0.3046403,-0.087938435,0.06735396,0.05652361,-0.30356884,-0.073052615,0.25859526,0.11743971,-0.15093528,-0.33298764,-0.13750789,0.38791472
OCUM-1,-0.38606372,0.3827362,-0.17512354,0.23975249,-0.41781965,-0.04094938,0.08531525,0.09393276,-0.36993185,-0.091577396,0.2894936,0.012280714,-0.19771549,-0.2870177,-0.17222086,0.42957237
Namalwa,-0.92811084,0.66882247,-0.21227282,0.18987775,-0.77411366,-0.23854524,0.4297437,0.77686894,-1.2215779,-0.25746822,0.71451944,-0.3362795,-0.28728148,-0.0086891,-0.84688556,1.1673746
ME-1 [Human leukemia],-0.38606372,0.3827362,-0.17512354,0.23975249,-0.41781965,-0.04094938,0.08531525,0.09393276,-0.36993185,-0.091577396,0.2894936,0.012280714,-0.19771549,-0.2870177,-0.17222086,0.42957237
SLR23,-0.40585145,0.37319186,-0.13540795,0.32020664,-0.3046403,-0.087938435,0.06735396,0.05652361,-0.30356884,-0.073052615,0.25859526,0.11743971,-0.15093528,-0.33298764,-0.13750789,0.38791472
COLO 800,-0.49217018,0.4763517,-0.035045926,0.5656967,-0.272381,-0.36622757,0.31819788,0.09839361,-0.4452101,-0.19215536,0.10292908,0.10919817,-0.037271738,-0.054796834,-0.13677186,0.40145412
YAPC,-0.5155856,0.3239371,-0.08364937,0.57602245,-0.29047674,-0.2335245,-0.016342575,0.32686767,-0.37893036,-0.3044369,0.05552128,-0.2166435,-0.09419383,-0.25882465,-0.108986184,0.516449
NCI-H1793,0.23924275,0.5192874,-0.8049201,0.79656535,-0.06966336,-0.11500884,-0.22158849,0.050435282,-0.19620855,-0.44336808,-0.11801152,-1.8039623,-1.0442016,-0.00887586,-0.84500957,0.39583194
MG-63,-0.38606372,0.3827362,-0.17512354,0.23975249,-0.41781965,-0.04094938,0.08531525,0.09393276,-0.36993185,-0.091577396,0.2894936,0.012280714,-0.19771549,-0.2870177,-0.17222086,0.42957237
COLO 818,-0.25023127,0.3025431,-0.27206838,0.4745626,-0.21619421,-0.12751363,-0.018982738,0.056885444,-0.18855728,-0.21273169,0.07040264,-0.32203102,-0.31962526,-0.25535256,-0.2073888,0.3444537
22Rv1,0.2841755,1.0141209,-1.3348868,0.7013372,-1.0322676,-0.7053857,0.3728834,2.464231,-2.301562,-0.9632243,-0.6190624,-3.2178376,-2.2360842,0.911658,-1.5313585,2.1771085
SLR26,-0.40585145,0.37319186,-0.13540795,0.32020664,-0.3046403,-0.087938435,0.06735396,0.05652361,-0.30356884,-0.073052615,0.25859526,0.11743971,-0.15093528,-0.33298764,-0.13750789,0.38791472
SHP-77,-0.53687406,0.2291985,-0.18409294,0.33512682,-0.49948585,0.00037147634,-0.14655921,0.1984169,-0.23800421,-0.30748478,0.19671327,-0.32037222,-0.082077384,-0.3325842,-0.13355175,0.4065476
143B,-0.53687406,0.2291985,-0.18409294,0.33512682,-0.49948585,0.00037147634,-0.14655921,0.1984169,-0.23800421,-0.30748478,0.19671327,-0.32037222,-0.082077384,-0.3325842,-0.13355175,0.4065476
MFE-280,-0.93606454,0.5496323,-0.16771099,0.48916635,-0.6421563,-0.46304566,0.33161944,0.96138424,-1.0878502,-0.42694843,0.26617944,-0.3350025,-0.20256197,0.028648457,-0.5741516,1.0811416
SNU-685,-0.5213963,0.12410929,-0.21944703,0.5157793,-0.05361448,0.0562944,-0.40696847,0.1128358,-0.017404024,-0.2564903,0.35815006,-0.48790008,-0.2066647,-0.6575891,-0.3689903,0.470803
BL-70,-0.40585145,0.37319186,-0.13540795,0.32020664,-0.3046403,-0.087938435,0.06735396,0.05652361,-0.30356884,-0.073052615,0.25859526,0.11743971,-0.15093528,-0.33298764,-0.13750789,0.38791472
CAMA-1,-0.488947,0.2771911,-0.15490742,0.3786913,-0.20787412,-0.08155075,-0.04478149,0.07797779,-0.20042013,-0.11735309,0.2859218,0.050068386,-0.13990723,-0.4368691,-0.20153987,0.40188244
NCI-H23,-0.18499364,0.98773605,0.048058547,0.85522884,-0.06999175,-0.4588098,0.35247782,0.11700178,-0.7834412,-0.04230065,0.04073796,-0.09501765,-0.22309528,0.023264034,-0.21093471,0.5267761
ACCS,-0.7495236,-0.029618144,0.10579912,0.7158324,0.3360113,-0.10133166,-0.14744186,-0.08430796,-0.014517257,-0.25544992,0.6954009,-0.28344917,0.048175078,-0.69057083,-0.5198474,0.63475996
CAL-12T,-0.42036906,0.9654224,0.07569555,0.6063276,-0.3000449,-0.4365423,0.647519,-0.22897239,-0.69417554,0.0129163405,0.2849048,0.32356152,0.037169885,0.18343756,-0.2563545,0.29650387
HuP-T4,0.03956095,0.41736898,-0.91435856,0.2870834,-0.7376241,-0.013208491,-0.26861316,1.248326,-0.9797264,-0.54508764,-0.11169141,-1.8929219,-1.3279723,-0.06439608,-0.806538,1.2192181
KP-4,-0.53687406,0.2291985,-0.18409294,0.33512682,-0.49948585,0.00037147634,-0.14655921,0.1984169,-0.23800421,-0.30748478,0.19671327,-0.32037222,-0.082077384,-0.3325842,-0.13355175,0.4065476
L-1236,0.09104352,0.547659,-1.4373572,-0.16575551,-1.4252087,-0.066134624,0.12137554,2.0026712,-1.7519329,-0.7120896,-0.07902677,-2.54717,-2.0048037,0.43844298,-1.3668548,1.8172793
K-562,-0.40585145,0.37319186,-0.13540795,0.32020664,-0.3046403,-0.087938435,0.06735396,0.05652361,-0.30356884,-0.073052615,0.25859526,0.11743971,-0.15093528,-0.33298764,-0.13750789,0.38791472
MHH-NB-11,-0.38606372,0.3827362,-0.17512354,0.23975249,-0.41781965,-0.04094938,0.08531525,0.09393276,-0.36993185,-0.091577396,0.2894936,0.012280714,-0.19771549,-0.2870177,-0.17222086,0.42957237
HEC-251,3.0207918,1.8832088,-2.600139,2.1066208,0.02295618,-1.5110778,1.3726392,2.185557,-3.0796435,-1.5234264,-1.735464,-7.651421,-5.0287347,2.8472126,-3.2472172,2.673544
HCC4006,-0.38606372,0.3827362,-0.17512354,0.23975249,-0.41781965,-0.04094938,0.08531525,0.09393276,-0.36993185,-0.091577396,0.2894936,0.012280714,-0.19771549,-0.2870177,-0.17222086,0.42957237
NCI-H2444,-0.4228315,0.33525562,-0.12199215,0.51967144,-0.21980056,-0.2680303,0.1371485,0.15327519,-0.32158816,-0.20392002,0.07899206,-0.014670113,-0.1498668,-0.20388484,-0.1337358,0.41908205
Hs 742.T,-0.38606372,0.3827362,-0.17512354,0.23975249,-0.41781965,-0.04094938,0.08531525,0.09393276,-0.36993185,-0.091577396,0.2894936,0.012280714,-0.19771549,-0.2870177,-0.17222086,0.42957237
LCLC-103H,-0.45631948,0.2723204,-0.13251351,0.39047328,-0.28480896,-0.15944786,0.057286307,0.15986924,-0.28047603,-0.16843182,0.15966068,0.055923507,-0.13294116,-0.30949578,-0.10612388,0.4215057
OCI-AML-2,-0.38606372,0.3827362,-0.17512354,0.23975249,-0.41781965,-0.04094938,0.08531525,0.09393276,-0.36993185,-0.091577396,0.2894936,0.012280714,-0.19771549,-0.2870177,-0.17222086,0.42957237
VMRC-LCD,-0.40585145,0.37319186,-0.13540795,0.32020664,-0.3046403,-0.087938435,0.06735396,0.05652361,-0.30356884,-0.073052615,0.25859526,0.11743971,-0.15093528,-0.33298764,-0.13750789,0.38791472
JHOS-4,-0.40585145,0.37319186,-0.13540795,0.32020664,-0.3046403,-0.087938435,0.06735396,0.05652361,-0.30356884,-0.073052615,0.25859526,0.11743971,-0.15093528,-0.33298764,-0.13750789,0.38791472
KG-1-C,-0.49217018,0.4763517,-0.035045926,0.5656967,-0.272381,-0.36622757,0.31819788,0.09839361,-0.4452101,-0.19215536,0.10292908,0.10919817,-0.037271738,-0.054796834,-0.13677186,0.40145412
MCAS,-0.45529488,0.23632953,0.31678855,1.823536,0.88369584,-1.135386,1.1107578,0.43869057,-1.2534183,-0.9424536,0.588205,-2.200144,-0.53141767,0.6305702,-1.5363584,1.7990805
MHH-ES-1,-0.45631948,0.2723204,-0.13251351,0.39047328,-0.28480896,-0.15944786,0.057286307,0.15986924,-0.28047603,-0.16843182,0.15966068,0.055923507,-0.13294116,-0.30949578,-0.10612388,0.4215057
NCI-H596,-0.93606454,0.5496323,-0.16771099,0.48916635,-0.6421563,-0.46304566,0.33161944,0.96138424,-1.0878502,-0.42694843,0.26617944,-0.3350025,-0.20256197,0.028648457,-0.5741516,1.0811416
CAL-120,-0.5213963,0.12410929,-0.21944703,0.5157793,-0.05361448,0.0562944,-0.40696847,0.1128358,-0.017404024,-0.2564903,0.35815006,-0.48790008,-0.2066647,-0.6575891,-0.3689903,0.470803
NCI-H226,-0.40760717,-0.0073162834,-0.22038719,0.4273295,-0.18365562,0.109759994,-0.22723489,-0.040010396,-0.02502561,-0.37719807,0.42391586,-0.82673365,-0.23557392,-0.43705177,-0.41801065,0.4766613
NCI-H684,0.90522015,0.541051,-0.6465519,1.2542118,0.1979734,-0.57564646,0.45438874,0.5669077,-1.029967,-0.75993484,-0.42238903,-2.9637158,-1.6423352,0.69838816,-1.0354875,1.227453
DBTRG-05MG,-0.28170875,0.37949345,-0.36036843,0.5474609,-0.42108917,-0.1948056,0.1731274,-0.22094709,-0.12696618,-0.4030769,0.022553544,-0.69749564,-0.23716278,0.12749328,-0.34795254,0.109902106
NCI-H209,-0.7836037,0.12922814,-0.5214118,0.3473899,-0.23424302,0.17228469,-0.5985798,0.49221706,-0.1940088,-0.331604,0.61793786,-0.8710248,-0.46115527,-0.78832734,-0.86628366,0.78040445
SEM,-1.5731511,-0.009674879,0.25553843,1.0361954,0.10005791,-0.659728,0.52886975,0.9597578,-1.1785898,-0.8677236,1.1457235,-1.2742455,0.03190496,-0.068151996,-1.4815273,1.873005
HEL,0.36204594,0.6255835,-1.4473841,0.21720955,-1.0842,-0.08259322,-0.18433326,1.9983138,-1.6323274,-0.77614427,-0.30633637,-3.0574336,-2.1661792,0.3258308,-1.3581536,1.8016125
MDA-MB-175-VII,-0.40585145,0.37319186,-0.13540795,0.32020664,-0.3046403,-0.087938435,0.06735396,0.05652361,-0.30356884,-0.073052615,0.25859526,0.11743971,-0.15093528,-0.33298764,-0.13750789,0.38791472
NCI-H1573,0.72806734,0.93456,-0.81160426,1.2935503,0.26915258,-0.65742326,0.11040627,0.76530474,-0.9351366,-0.43966496,-0.67498386,-2.0873868,-1.6212795,0.3380877,-0.8790573,0.9640191
Hs 618.T,-0.38606372,0.3827362,-0.17512354,0.23975249,-0.41781965,-0.04094938,0.08531525,0.09393276,-0.36993185,-0.091577396,0.2894936,0.012280714,-0.19771549,-0.2870177,-0.17222086,0.42957237
TYK-nu,-0.30085227,0.38867486,-0.92125547,0.013262167,-0.94570535,-0.065757245,-0.011467273,1.444969,-1.2185794,-0.48298773,0.16112415,-1.4624583,-1.259341,-0.030027313,-0.97747695,1.4260029
HDQ-P1,-0.40585145,0.37319186,-0.13540795,0.32020664,-0.3046403,-0.087938435,0.06735396,0.05652361,-0.30356884,-0.073052615,0.25859526,0.11743971,-0.15093528,-0.33298764,-0.13750789,0.38791472
CL-14,0.36204594,0.6255835,-1.4473841,0.21720955,-1.0842,-0.08259322,-0.18433326,1.9983138,-1.6323274,-0.77614427,-0.30633637,-3.0574336,-2.1661792,0.3258308,-1.3581536,1.8016125
CMK,-0.2716173,0.102555454,-0.10466083,0.6140811,-0.018926932,-0.060398765,-0.17677397,0.1625555,-0.19662735,-0.3299445,0.20337102,-0.69130564,-0.2882373,-0.42199996,-0.24526821,0.6014295
COV644,-0.38606372,0.3827362,-0.17512354,0.23975249,-0.41781965,-0.04094938,0.08531525,0.09393276,-0.36993185,-0.091577396,0.2894936,0.012280714,-0.19771549,-0.2870177,-0.17222086,0.42957237
SNU-1066,-0.5213963,0.12410929,-0.21944703,0.5157793,-0.05361448,0.0562944,-0.40696847,0.1128358,-0.017404024,-0.2564903,0.35815006,-0.48790008,-0.2066647,-0.6575891,-0.3689903,0.470803
RD-ES,-0.40585145,0.37319186,-0.13540795,0.32020664,-0.3046403,-0.087938435,0.06735396,0.05652361,-0.30356884,-0.073052615,0.25859526,0.11743971,-0.15093528,-0.33298764,-0.13750789,0.38791472
PLC/PRF/5,-0.4230809,0.21793544,-0.2495395,0.33576143,-0.40834576,-0.04121769,-0.04774273,0.060836617,-0.15953664,-0.26135233,0.16678186,-0.26793402,-0.17226692,-0.27398938,-0.17414264,0.31969598
SLR20,-0.40585145,0.37319186,-0.13540795,0.32020664,-0.3046403,-0.087938435,0.06735396,0.05652361,-0.30356884,-0.073052615,0.25859526,0.11743971,-0.15093528,-0.33298764,-0.13750789,0.38791472
TOV-112D,-0.40585145,0.37319186,-0.13540795,0.32020664,-0.3046403,-0.087938435,0.06735396,0.05652361,-0.30356884,-0.073052615,0.25859526,0.11743971,-0.15093528,-0.33298764,-0.13750789,0.38791472
Hs 255.T,-0.40585145,0.37319186,-0.13540795,0.32020664,-0.3046403,-0.087938435,0.06735396,0.05652361,-0.30356884,-0.073052615,0.25859526,0.11743971,-0.15093528,-0.33298764,-0.13750789,0.38791472
NCI-H810,-0.40585145,0.37319186,-0.13540795,0.32020664,-0.3046403,-0.087938435,0.06735396,0.05652361,-0.30356884,-0.073052615,0.25859526,0.11743971,-0.15093528,-0.33298764,-0.13750789,0.38791472
Hs 737.T,-0.38606372,0.3827362,-0.17512354,0.23975249,-0.41781965,-0.04094938,0.08531525,0.09393276,-0.36993185,-0.091577396,0.2894936,0.012280714,-0.19771549,-0.2870177,-0.17222086,0.42957237
NCI-H441,-0.5155856,0.3239371,-0.08364937,0.57602245,-0.29047674,-0.2335245,-0.016342575,0.32686767,-0.37893036,-0.3044369,0.05552128,-0.2166435,-0.09419383,-0.25882465,-0.108986184,0.516449
GSS,0.38814104,0.9947791,0.10029628,0.9472926,0.23197073,-0.69629717,1.680423,-0.4951507,-1.4431094,-0.21232219,0.8044731,-1.4529865,-0.8190823,1.0423526,-1.3179551,1.1623105
NCI-H1048,-0.93606454,0.5496323,-0.16771099,0.48916635,-0.6421563,-0.46304566,0.33161944,0.96138424,-1.0878502,-0.42694843,0.26617944,-0.3350025,-0.20256197,0.028648457,-0.5741516,1.0811416
PrEC LH,-0.40585145,0.37319186,-0.13540795,0.32020664,-0.3046403,-0.087938435,0.06735396,0.05652361,-0.30356884,-0.073052615,0.25859526,0.11743971,-0.15093528,-0.33298764,-0.13750789,0.38791472
SK-OV-3,-0.41026822,0.64684826,0.5034846,0.916807,-0.19309326,-0.8230578,1.3009293,0.05077006,-1.1954488,-0.39749232,0.280307,-0.2621018,0.12824821,0.72996753,-0.28133345,0.90590024
LS411N,1.2787367,1.2323847,-0.5405866,2.0342207,1.1500435,-1.2151414,0.955161,-0.725033,-0.39413482,-0.2731218,-0.90561193,-1.7331998,-1.399248,1.005907,-0.8488194,0.07654553
GCIY,-0.45631948,0.2723204,-0.13251351,0.39047328,-0.28480896,-0.15944786,0.057286307,0.15986924,-0.28047603,-0.16843182,0.15966068,0.055923507,-0.13294116,-0.30949578,-0.10612388,0.4215057
TE-9,-0.40585145,0.37319186,-0.13540795,0.32020664,-0.3046403,-0.087938435,0.06735396,0.05652361,-0.30356884,-0.073052615,0.25859526,0.11743971,-0.15093528,-0.33298764,-0.13750789,0.38791472
BEN,-0.93606454,0.5496323,-0.16771099,0.48916635,-0.6421563,-0.46304566,0.33161944,0.96138424,-1.0878502,-0.42694843,0.26617944,-0.3350025,-0.20256197,0.028648457,-0.5741516,1.0811416
BxPC-3,-0.40585145,0.37319186,-0.13540795,0.32020664,-0.3046403,-0.087938435,0.06735396,0.05652361,-0.30356884,-0.073052615,0.25859526,0.11743971,-0.15093528,-0.33298764,-0.13750789,0.38791472
Hs 936.T,-0.3436894,0.61845404,-0.979109,-0.10529187,-1.3593957,-0.4475063,0.8366385,1.4371564,-1.6694293,-0.55843353,0.05748234,-1.2544514,-1.2664878,0.7501023,-1.0993598,1.427679
SNU-324,-0.18667549,-0.045607194,-0.11789658,0.4807784,-0.20061436,0.014754235,-0.01476333,0.08060211,-0.24170789,-0.46000338,0.28751838,-1.0425044,-0.3284597,-0.21788998,-0.3019693,0.65640914
BICR 22,-0.40585145,0.37319186,-0.13540795,0.32020664,-0.3046403,-0.087938435,0.06735396,0.05652361,-0.30356884,-0.073052615,0.25859526,0.11743971,-0.15093528,-0.33298764,-0.13750789,0.38791472
LMSU,-0.40585145,0.37319186,-0.13540795,0.32020664,-0.3046403,-0.087938435,0.06735396,0.05652361,-0.30356884,-0.073052615,0.25859526,0.11743971,-0.15093528,-0.33298764,-0.13750789,0.38791472
U-178MG,-0.40585145,0.37319186,-0.13540795,0.32020664,-0.3046403,-0.087938435,0.06735396,0.05652361,-0.30356884,-0.073052615,0.25859526,0.11743971,-0.15093528,-0.33298764,-0.13750789,0.38791472
NCI-H2009,-0.5155856,0.3239371,-0.08364937,0.57602245,-0.29047674,-0.2335245,-0.016342575,0.32686767,-0.37893036,-0.3044369,0.05552128,-0.2166435,-0.09419383,-0.25882465,-0.108986184,0.516449
HT,-0.33801413,0.44746578,-0.047839873,1.1530423,0.67990327,-0.27536723,-0.16523212,-0.15563233,-0.15502496,-0.19332577,0.47306952,-0.79260635,-0.3409333,-0.537087,-0.78228205,0.61978704
U266B1,-0.18876109,0.418916,-0.44955182,0.34421355,-0.40122315,-0.2590999,0.32002133,0.22450806,-0.49940306,-0.21871574,0.06579656,-0.39450544,-0.57393336,0.049395844,-0.43458614,0.5104948
NCI-H1869,-0.40585145,0.37319186,-0.13540795,0.32020664,-0.3046403,-0.087938435,0.06735396,0.05652361,-0.30356884,-0.073052615,0.25859526,0.11743971,-0.15093528,-0.33298764,-0.13750789,0.38791472
KYSE-140,-0.5274161,0.7831894,-0.0192152,0.4266026,-0.11140845,-0.007327354,0.033410657,-0.19077927,-0.44443786,0.15001167,0.7101946,0.18099467,-0.07263866,-0.49017662,-0.47721195,0.4379139
NCI-H1944,-0.024574501,0.6863745,0.22006778,0.8247734,0.014159075,-0.5165761,0.89063644,-0.39700085,-0.6909311,-0.16569246,0.24917935,-0.31263077,-0.13325544,0.41093925,-0.28703436,0.47873655
BT-474,-0.58025974,0.58405894,0.006053421,0.96224934,-0.23364028,-0.67710334,0.3194638,0.7172001,-0.8557239,-0.46729115,-0.19530828,-0.39704698,-0.14398722,0.12554467,-0.2196487,0.8159096
COLO 792,-0.20973141,0.016126802,-0.041993745,0.4621167,-0.17775239,-0.09174482,0.20445126,-0.108105,-0.20517716,-0.3562529,0.2685151,-0.6021095,-0.19588839,-0.119515546,-0.19570838,0.4930879
CAL-85-1,-0.40585145,0.37319186,-0.13540795,0.32020664,-0.3046403,-0.087938435,0.06735396,0.05652361,-0.30356884,-0.073052615,0.25859526,0.11743971,-0.15093528,-0.33298764,-0.13750789,0.38791472
IPC-298,-0.92811084,0.66882247,-0.21227282,0.18987775,-0.77411366,-0.23854524,0.4297437,0.77686894,-1.2215779,-0.25746822,0.71451944,-0.3362795,-0.28728148,-0.0086891,-0.84688556,1.1673746
NCI-H292,-0.40585145,0.37319186,-0.13540795,0.32020664,-0.3046403,-0.087938435,0.06735396,0.05652361,-0.30356884,-0.073052615,0.25859526,0.11743971,-0.15093528,-0.33298764,-0.13750789,0.38791472
RMG-I,-0.38606372,0.3827362,-0.17512354,0.23975249,-0.41781965,-0.04094938,0.08531525,0.09393276,-0.36993185,-0.091577396,0.2894936,0.012280714,-0.19771549,-0.2870177,-0.17222086,0.42957237
HEK TE,-0.40585145,0.37319186,-0.13540795,0.32020664,-0.3046403,-0.087938435,0.06735396,0.05652361,-0.30356884,-0.073052615,0.25859526,0.11743971,-0.15093528,-0.33298764,-0.13750789,0.38791472
SK-BR-3,-0.40585145,0.37319186,-0.13540795,0.32020664,-0.3046403,-0.087938435,0.06735396,0.05652361,-0.30356884,-0.073052615,0.25859526,0.11743971,-0.15093528,-0.33298764,-0.13750789,0.38791472
SiMa,-0.18667549,-0.045607194,-0.11789658,0.4807784,-0.20061436,0.014754235,-0.01476333,0.08060211,-0.24170789,-0.46000338,0.28751838,-1.0425044,-0.3284597,-0.21788998,-0.3019693,0.65640914
SU.86.86,-0.5155856,0.3239371,-0.08364937,0.57602245,-0.29047674,-0.2335245,-0.016342575,0.32686767,-0.37893036,-0.3044369,0.05552128,-0.2166435,-0.09419383,-0.25882465,-0.108986184,0.516449
CPC-N,-0.40585145,0.37319186,-0.13540795,0.32020664,-0.3046403,-0.087938435,0.06735396,0.05652361,-0.30356884,-0.073052615,0.25859526,0.11743971,-0.15093528,-0.33298764,-0.13750789,0.38791472
RT-4,-0.2660979,0.14536527,-0.68790036,-0.021394677,-0.84610283,0.24511142,-0.18101443,0.17876786,-0.20345604,-0.40153673,0.24073891,-1.0304927,-0.5831509,-0.15899383,-0.49325693,0.38904884
COLO 699,-0.40585145,0.37319186,-0.13540795,0.32020664,-0.3046403,-0.087938435,0.06735396,0.05652361,-0.30356884,-0.073052615,0.25859526,0.11743971,-0.15093528,-0.33298764,-0.13750789,0.38791472
SF295,-0.488947,0.2771911,-0.15490742,0.3786913,-0.20787412,-0.08155075,-0.04478149,0.07797779,-0.20042013,-0.11735309,0.2859218,0.050068386,-0.13990723,-0.4368691,-0.20153987,0.40188244
OVCAR-8,-0.5155856,0.3239371,-0.08364937,0.57602245,-0.29047674,-0.2335245,-0.016342575,0.32686767,-0.37893036,-0.3044369,0.05552128,-0.2166435,-0.09419383,-0.25882465,-0.108986184,0.516449
NH-6,-0.38606372,0.3827362,-0.17512354,0.23975249,-0.41781965,-0.04094938,0.08531525,0.09393276,-0.36993185,-0.091577396,0.2894936,0.012280714,-0.19771549,-0.2870177,-0.17222086,0.42957237
CL-34,0.049450558,0.29571456,-0.6246769,0.4247039,-0.3722774,0.089218974,-0.1478525,-0.36018735,0.11794603,-0.36295277,0.03050125,-1.1525555,-0.5716624,-0.05538481,-0.45355564,0.010118107
JIMT-1,-0.93606454,0.5496323,-0.16771099,0.48916635,-0.6421563,-0.46304566,0.33161944,0.96138424,-1.0878502,-0.42694843,0.26617944,-0.3350025,-0.20256197,0.028648457,-0.5741516,1.0811416
DAN-G,-0.53687406,0.2291985,-0.18409294,0.33512682,-0.49948585,0.00037147634,-0.14655921,0.1984169,-0.23800421,-0.30748478,0.19671327,-0.32037222,-0.082077384,-0.3325842,-0.13355175,0.4065476
A3/Kawakami,-0.38606372,0.3827362,-0.17512354,0.23975249,-0.41781965,-0.04094938,0.08531525,0.09393276,-0.36993185,-0.091577396,0.2894936,0.012280714,-0.19771549,-0.2870177,-0.17222086,0.42957237
NCI-H1581,-0.5213963,0.12410929,-0.21944703,0.5157793,-0.05361448,0.0562944,-0.40696847,0.1128358,-0.017404024,-0.2564903,0.35815006,-0.48790008,-0.2066647,-0.6575891,-0.3689903,0.470803
BDCM,-0.38606372,0.3827362,-0.17512354,0.23975249,-0.41781965,-0.04094938,0.08531525,0.09393276,-0.36993185,-0.091577396,0.2894936,0.012280714,-0.19771549,-0.2870177,-0.17222086,0.42957237
COR-L24,-0.5213963,0.12410929,-0.21944703,0.5157793,-0.05361448,0.0562944,-0.40696847,0.1128358,-0.017404024,-0.2564903,0.35815006,-0.48790008,-0.2066647,-0.6575891,-0.3689903,0.470803
NCI-H146,-0.38606372,0.3827362,-0.17512354,0.23975249,-0.41781965,-0.04094938,0.08531525,0.09393276,-0.36993185,-0.091577396,0.2894936,0.012280714,-0.19771549,-0.2870177,-0.17222086,0.42957237
MOG-G-CCM,-0.40585145,0.37319186,-0.13540795,0.32020664,-0.3046403,-0.087938435,0.06735396,0.05652361,-0.30356884,-0.073052615,0.25859526,0.11743971,-0.15093528,-0.33298764,-0.13750789,0.38791472
LoVo,0.4165552,0.26207417,-0.046134695,1.0710996,0.3663043,-0.52635735,0.75987923,-0.55927783,-0.28526354,-0.45090833,-0.020586187,-1.2800823,-0.5519996,0.5048153,-0.46100882,0.41492513
SNB-19,-0.40585145,0.37319186,-0.13540795,0.32020664,-0.3046403,-0.087938435,0.06735396,0.05652361,-0.30356884,-0.073052615,0.25859526,0.11743971,-0.15093528,-0.33298764,-0.13750789,0.38791472
ACC-MESO-1,-0.33031797,0.8205332,-0.008772478,0.43405974,-0.15447295,-0.14504671,0.47185677,-0.31449366,-0.64675105,0.08981122,0.7166843,-0.041805133,-0.19657286,-0.08962523,-0.5957194,0.5140603
HEC-151,0.8811077,0.48033214,-0.007893162,3.066973,2.5324562,-1.5051183,1.2287552,-0.23464775,-1.0791999,-1.035714,0.43007112,-4.3275256,-1.776198,0.93006885,-2.6142688,2.0039353
HN,-0.40585145,0.37319186,-0.13540795,0.32020664,-0.3046403,-0.087938435,0.06735396,0.05652361,-0.30356884,-0.073052615,0.25859526,0.11743971,-0.15093528,-0.33298764,-0.13750789,0.38791472
HMC-1-8,-0.5155856,0.3239371,-0.08364937,0.57602245,-0.29047674,-0.2335245,-0.016342575,0.32686767,-0.37893036,-0.3044369,0.05552128,-0.2166435,-0.09419383,-0.25882465,-0.108986184,0.516449
RERF-LC-Sq1,-0.8375738,0.38986072,0.07384485,0.55865085,-0.58545494,-0.5656427,0.5580882,0.73367864,-0.97163695,-0.47131526,0.1176478,-0.11513342,0.03253144,0.19237341,-0.2300214,0.9249376
NALM-1,-0.38606372,0.3827362,-0.17512354,0.23975249,-0.41781965,-0.04094938,0.08531525,0.09393276,-0.36993185,-0.091577396,0.2894936,0.012280714,-0.19771549,-0.2870177,-0.17222086,0.42957237
JJN-3,-0.38606372,0.3827362,-0.17512354,0.23975249,-0.41781965,-0.04094938,0.08531525,0.09393276,-0.36993185,-0.091577396,0.2894936,0.012280714,-0.19771549,-0.2870177,-0.17222086,0.42957237
SLR24,-0.40585145,0.37319186,-0.13540795,0.32020664,-0.3046403,-0.087938435,0.06735396,0.05652361,-0.30356884,-0.073052615,0.25859526,0.11743971,-0.15093528,-0.33298764,-0.13750789,0.38791472
NCI-H889,-0.40585145,0.37319186,-0.13540795,0.32020664,-0.3046403,-0.087938435,0.06735396,0.05652361,-0.30356884,-0.073052615,0.25859526,0.11743971,-0.15093528,-0.33298764,-0.13750789,0.38791472
KPL-1,-0.8476745,0.47253177,-0.14877345,0.3341415,-0.78225464,-0.44272798,0.56891286,0.9754783,-1.256901,-0.4629549,0.365021,-0.4641221,-0.2780515,0.20783363,-0.6185328,1.227281
TO 175.T,-0.38606372,0.3827362,-0.17512354,0.23975249,-0.41781965,-0.04094938,0.08531525,0.09393276,-0.36993185,-0.091577396,0.2894936,0.012280714,-0.19771549,-0.2870177,-0.17222086,0.42957237
KE-37,-0.38606372,0.3827362,-0.17512354,0.23975249,-0.41781965,-0.04094938,0.08531525,0.09393276,-0.36993185,-0.091577396,0.2894936,0.012280714,-0.19771549,-0.2870177,-0.17222086,0.42957237
BL-41,-0.40585145,0.37319186,-0.13540795,0.32020664,-0.3046403,-0.087938435,0.06735396,0.05652361,-0.30356884,-0.073052615,0.25859526,0.11743971,-0.15093528,-0.33298764,-0.13750789,0.38791472
NMC-G1,-0.49217018,0.4763517,-0.035045926,0.5656967,-0.272381,-0.36622757,0.31819788,0.09839361,-0.4452101,-0.19215536,0.10292908,0.10919817,-0.037271738,-0.054796834,-0.13677186,0.40145412
A-704,-0.38606372,0.3827362,-0.17512354,0.23975249,-0.41781965,-0.04094938,0.08531525,0.09393276,-0.36993185,-0.091577396,0.2894936,0.012280714,-0.19771549,-0.2870177,-0.17222086,0.42957237
JH-EsoAd1,-0.40585145,0.37319186,-0.13540795,0.32020664,-0.3046403,-0.087938435,0.06735396,0.05652361,-0.30356884,-0.073052615,0.25859526,0.11743971,-0.15093528,-0.33298764,-0.13750789,0.38791472
CCK-81,0.1325668,0.5258696,-0.4491916,0.984465,0.2544538,-0.27640447,-0.14066923,-0.085366465,-0.10554466,-0.28149712,-0.1469911,-1.0726459,-0.6991946,-0.16462448,-0.5215636,0.30242515
SK-MEL-5,-0.6544175,0.03285308,-0.3835179,0.28291246,-0.28081012,0.28534514,-0.56013906,-0.10421151,0.22573434,-0.28321242,0.53386885,-0.58143276,-0.14407566,-0.7261781,-0.4833052,0.25397137
NCI-H1876,-0.19338748,0.61157846,0.1574208,0.39760163,-0.22786446,-0.17635725,0.5559304,-0.270443,-0.61042833,0.02366674,0.4730195,0.10200738,-0.07512947,-0.007314177,-0.17206891,0.4779432
WM88,-0.06252989,0.5326796,-0.10228214,1.2401292,0.5812505,-0.7114997,0.7157903,-0.67967206,-0.15005438,-0.28254765,0.13781457,-0.63979137,-0.33822107,0.32661468,-0.7362457,0.20923907
F-36P,-0.40585145,0.37319186,-0.13540795,0.32020664,-0.3046403,-0.087938435,0.06735396,0.05652361,-0.30356884,-0.073052615,0.25859526,0.11743971,-0.15093528,-0.33298764,-0.13750789,0.38791472
HCC1806,-0.38606372,0.3827362,-0.17512354,0.23975249,-0.41781965,-0.04094938,0.08531525,0.09393276,-0.36993185,-0.091577396,0.2894936,0.012280714,-0.19771549,-0.2870177,-0.17222086,0.42957237
Daudi,-1.0203581,-0.04209582,-0.29552317,0.4137545,0.01595293,0.3344389,-0.8406732,-0.09255594,0.37945986,-0.24359967,0.84375817,-0.4510235,0.024400907,-1.1254407,-0.6995493,0.34851795
B-CPAP,-0.26488155,0.28593078,-0.2891393,0.4026539,-0.26520053,-0.107080944,0.038140245,-0.032987233,-0.14991693,-0.19392195,0.11441566,-0.24772675,-0.29420182,-0.22309619,-0.2160743,0.28133938
BICR 18,-0.30150434,0.033174593,0.24648236,1.1904192,0.8119587,-0.4684219,0.48222825,-0.58546543,-0.077456675,-0.37214243,0.6178518,-0.8097924,-0.11124175,-0.11238407,-0.7480979,0.6188171
SH-SY5Y,-0.33031797,0.8205332,-0.008772478,0.43405974,-0.15447295,-0.14504671,0.47185677,-0.31449366,-0.64675105,0.08981122,0.7166843,-0.041805133,-0.19657286,-0.08962523,-0.5957194,0.5140603
BT-20,-0.42517155,0.23453313,-0.18234032,0.82189906,-0.0921622,-0.37075758,0.07126759,0.97530085,-0.9556456,-0.6036252,0.224655,-1.4101645,-0.63983375,-0.12016661,-0.7532947,1.3878344
MeWo,-0.5399491,0.098616205,-0.4639405,0.6179785,0.023777222,-0.36428732,0.56718886,0.5341614,-0.9480657,-0.6131001,0.91611075,-1.7899734,-0.9299486,0.1318913,-1.6824691,1.5201961
COR-L95,-0.40585145,0.37319186,-0.13540795,0.32020664,-0.3046403,-0.087938435,0.06735396,0.05652361,-0.30356884,-0.073052615,0.25859526,0.11743971,-0.15093528,-0.33298764,-0.13750789,0.38791472
IST-Mes2,-0.40585145,0.37319186,-0.13540795,0.32020664,-0.3046403,-0.087938435,0.06735396,0.05652361,-0.30356884,-0.073052615,0.25859526,0.11743971,-0.15093528,-0.33298764,-0.13750789,0.38791472
NCI-H446,-0.22370079,0.55949956,0.10809892,0.48665392,-0.18974972,-0.25917846,0.5390375,-0.2110772,-0.55643845,-0.05363297,0.3540066,0.03737506,-0.0920647,0.027915077,-0.18142885,0.45573342
NCI-H1299,-0.38606372,0.3827362,-0.17512354,0.23975249,-0.41781965,-0.04094938,0.08531525,0.09393276,-0.36993185,-0.091577396,0.2894936,0.012280714,-0.19771549,-0.2870177,-0.17222086,0.42957237
TUHR14TKB,-0.38606372,0.3827362,-0.17512354,0.23975249,-0.41781965,-0.04094938,0.08531525,0.09393276,-0.36993185,-0.091577396,0.2894936,0.012280714,-0.19771549,-0.2870177,-0.17222086,0.42957237
AML-193,-0.45631948,0.2723204,-0.13251351,0.39047328,-0.28480896,-0.15944786,0.057286307,0.15986924,-0.28047603,-0.16843182,0.15966068,0.055923507,-0.13294116,-0.30949578,-0.10612388,0.4215057
NUGC-3,-0.40585145,0.37319186,-0.13540795,0.32020664,-0.3046403,-0.087938435,0.06735396,0.05652361,-0.30356884,-0.073052615,0.25859526,0.11743971,-0.15093528,-0.33298764,-0.13750789,0.38791472
VMRC-RCZ,-0.38606372,0.3827362,-0.17512354,0.23975249,-0.41781965,-0.04094938,0.08531525,0.09393276,-0.36993185,-0.091577396,0.2894936,0.012280714,-0.19771549,-0.2870177,-0.17222086,0.42957237
SK-HEP-1,-0.17271054,1.0991378,-0.011387001,0.6584003,-0.24518931,-0.5050149,0.82275534,-0.4306533,-0.6949799,0.05823484,0.19201632,0.2258459,-0.11817719,0.38528025,-0.3150997,0.17213193
LAMA-84,-0.40585145,0.37319186,-0.13540795,0.32020664,-0.3046403,-0.087938435,0.06735396,0.05652361,-0.30356884,-0.073052615,0.25859526,0.11743971,-0.15093528,-0.33298764,-0.13750789,0.38791472
LN-215,-0.40585145,0.37319186,-0.13540795,0.32020664,-0.3046403,-0.087938435,0.06735396,0.05652361,-0.30356884,-0.073052615,0.25859526,0.11743971,-0.15093528,-0.33298764,-0.13750789,0.38791472
NCI-H2106,-0.488947,0.2771911,-0.15490742,0.3786913,-0.20787412,-0.08155075,-0.04478149,0.07797779,-0.20042013,-0.11735309,0.2859218,0.050068386,-0.13990723,-0.4368691,-0.20153987,0.40188244
KO52,-0.30085227,0.38867486,-0.92125547,0.013262167,-0.94570535,-0.065757245,-0.011467273,1.444969,-1.2185794,-0.48298773,0.16112415,-1.4624583,-1.259341,-0.030027313,-0.97747695,1.4260029
Detroit 562,-0.93606454,0.5496323,-0.16771099,0.48916635,-0.6421563,-0.46304566,0.33161944,0.96138424,-1.0878502,-0.42694843,0.26617944,-0.3350025,-0.20256197,0.028648457,-0.5741516,1.0811416
BGC-823,-0.40585145,0.37319186,-0.13540795,0.32020664,-0.3046403,-0.087938435,0.06735396,0.05652361,-0.30356884,-0.073052615,0.25859526,0.11743971,-0.15093528,-0.33298764,-0.13750789,0.38791472
HSC-2,-1.807021,0.3111205,-0.1542475,0.72327614,-0.22611685,-0.3770705,-0.18582931,0.9845179,-0.7410306,-0.5418164,0.913983,-0.43634826,0.108142085,-0.5960764,-1.2309533,1.2459173
HTK-,-0.6941958,0.3421927,0.044641547,0.57053906,-0.32734534,-0.3805702,0.22674854,0.31638223,-0.4680943,-0.28419584,0.08994758,0.161597,0.09601872,-0.14481938,-0.052371334,0.51482016
LUDLU-1,-0.2716173,0.102555454,-0.10466083,0.6140811,-0.018926932,-0.060398765,-0.17677397,0.1625555,-0.19662735,-0.3299445,0.20337102,-0.69130564,-0.2882373,-0.42199996,-0.24526821,0.6014295
KP-1NL,-0.53687406,0.2291985,-0.18409294,0.33512682,-0.49948585,0.00037147634,-0.14655921,0.1984169,-0.23800421,-0.30748478,0.19671327,-0.32037222,-0.082077384,-0.3325842,-0.13355175,0.4065476
KCL-22,0.08224418,0.32723588,-1.1408992,0.44921318,-0.68393904,-0.17731129,-0.0443456,2.1725378,-1.8576381,-0.9516689,0.19009316,-3.4706016,-2.0952826,0.22261482,-1.7702364,2.4180813
OS-RC-2,0.5016367,0.3172896,0.15467592,1.2394257,0.5959585,-0.8301559,1.2991406,-0.7835058,-0.42164358,-0.4023087,-0.012515152,-1.0015764,-0.48106518,0.8246124,-0.47167748,0.43185067
C2BBe1,-0.5213963,0.12410929,-0.21944703,0.5157793,-0.05361448,0.0562944,-0.40696847,0.1128358,-0.017404024,-0.2564903,0.35815006,-0.48790008,-0.2066647,-0.6575891,-0.3689903,0.470803
NCI-H2126,-0.38095734,0.21557344,0.29428035,1.3472908,1.0419763,-0.4500781,0.39873698,-0.7529827,-0.059184376,-0.278472,0.8474598,-0.8459132,-0.07698169,-0.24700013,-0.98245615,0.621489
MOLP-8,-0.020374555,0.43246776,-0.5026867,0.46717006,-0.2830523,-0.20724754,0.26512176,-0.20778304,-0.19020788,-0.24270959,0.012842578,-0.62117714,-0.5560739,0.11313088,-0.44964597,0.18091013
HEC-6,0.600508,0.6265049,-0.2573679,2.0701585,1.3861545,-1.0357131,0.71157503,-0.014809893,-0.7902917,-0.637146,0.011027852,-2.6539748,-1.3615961,0.533709,-1.5719081,1.2452055
Hep-G2/C3A,-0.38606372,0.3827362,-0.17512354,0.23975249,-0.41781965,-0.04094938,0.08531525,0.09393276,-0.36993185,-0.091577396,0.2894936,0.012280714,-0.19771549,-0.2870177,-0.17222086,0.42957237
MDA-MB-134-VI,-0.38606372,0.3827362,-0.17512354,0.23975249,-0.41781965,-0.04094938,0.08531525,0.09393276,-0.36993185,-0.091577396,0.2894936,0.012280714,-0.19771549,-0.2870177,-0.17222086,0.42957237
NCI-H1693,-0.5274161,0.7831894,-0.0192152,0.4266026,-0.11140845,-0.007327354,0.033410657,-0.19077927,-0.44443786,0.15001167,0.7101946,0.18099467,-0.07263866,-0.49017662,-0.47721195,0.4379139
BFTC-909,-0.93606454,0.5496323,-0.16771099,0.48916635,-0.6421563,-0.46304566,0.33161944,0.96138424,-1.0878502,-0.42694843,0.26617944,-0.3350025,-0.20256197,0.028648457,-0.5741516,1.0811416
SW48,2.1273334,0.92951816,-1.1492599,2.4471178,1.108355,-1.3827397,1.5145507,0.56557167,-1.9091655,-1.3990875,-0.618171,-6.1747003,-3.2183108,2.1301568,-2.7019563,2.1443381
COR-L105,-0.40585145,0.37319186,-0.13540795,0.32020664,-0.3046403,-0.087938435,0.06735396,0.05652361,-0.30356884,-0.073052615,0.25859526,0.11743971,-0.15093528,-0.33298764,-0.13750789,0.38791472
COR-L47,-0.47273216,0.20908974,-0.09059333,0.72812957,0.23320547,-0.21011256,-0.002649281,-0.14054467,-0.06752746,-0.20387304,0.39526904,-0.29378754,-0.16613261,-0.42800626,-0.47809848,0.44263077
LNCaP clone FGC,0.30652475,0.6580981,-0.4506145,1.1036259,0.44024426,-0.5981629,0.6887769,-0.9273009,0.015363163,-0.2275386,-0.041351058,-0.89675736,-0.6583195,0.4823219,-0.80087006,-0.09993883
NCI-H716,-0.5155856,0.3239371,-0.08364937,0.57602245,-0.29047674,-0.2335245,-0.016342575,0.32686767,-0.37893036,-0.3044369,0.05552128,-0.2166435,-0.09419383,-0.25882465,-0.108986184,0.516449
SF8657,-0.40585145,0.37319186,-0.13540795,0.32020664,-0.3046403,-0.087938435,0.06735396,0.05652361,-0.30356884,-0.073052615,0.25859526,0.11743971,-0.15093528,-0.33298764,-0.13750789,0.38791472
SNU-398,-0.18667549,-0.045607194,-0.11789658,0.4807784,-0.20061436,0.014754235,-0.01476333,0.08060211,-0.24170789,-0.46000338,0.28751838,-1.0425044,-0.3284597,-0.21788998,-0.3019693,0.65640914
NB4,-0.5155856,0.3239371,-0.08364937,0.57602245,-0.29047674,-0.2335245,-0.016342575,0.32686767,-0.37893036,-0.3044369,0.05552128,-0.2166435,-0.09419383,-0.25882465,-0.108986184,0.516449
SW620,0.42160764,0.44591397,-1.06019,0.5637306,-0.56548333,0.016704839,-0.4095434,1.1189257,-0.8864036,-0.7196992,-0.27960902,-2.809006,-1.6263133,0.070305355,-0.9788845,1.1923068
TE-11,0.019646984,0.65988654,0.24999304,0.59083074,-0.038932838,-0.33569658,0.8736642,-0.50067264,-0.6792955,-0.015175291,0.45588455,-0.110921055,-0.13250187,0.2722811,-0.2541217,0.48587444
AZ-521,-0.38606372,0.3827362,-0.17512354,0.23975249,-0.41781965,-0.04094938,0.08531525,0.09393276,-0.36993185,-0.091577396,0.2894936,0.012280714,-0.19771549,-0.2870177,-0.17222086,0.42957237
NCO2,-0.40585145,0.37319186,-0.13540795,0.32020664,-0.3046403,-0.087938435,0.06735396,0.05652361,-0.30356884,-0.073052615,0.25859526,0.11743971,-0.15093528,-0.33298764,-0.13750789,0.38791472
OCI-AML-5,-0.60960835,0.17988741,-0.18200977,0.42371964,-0.11326226,-0.029101765,-0.21227485,0.06953014,-0.06479233,-0.15854034,0.37462503,-0.048403338,-0.11098371,-0.5892675,-0.30582225,0.40536147
CAL-54,0.42372423,1.1917466,0.3787968,0.75213516,0.066313446,-0.530928,1.5375006,-1.0129361,-1.0438555,0.15596879,0.5874973,-0.21509399,-0.24723187,0.82945544,-0.46826112,0.4273187
OVMANA,-0.32207137,0.052343,-0.25075772,0.6004399,-0.3256854,-0.22756326,0.18080197,0.9459697,-1.0075252,-0.7232597,0.34140342,-1.8050991,-0.74610454,0.03594185,-0.8341502,1.4822886
NCI-H1339,-0.6230245,0.58481526,0.23212253,0.9494444,-0.17134126,-0.7721218,0.75579584,0.12620887,-0.7070062,-0.3788774,-0.024782695,0.059021223,0.18776709,0.36237046,-0.13749088,0.5114461
RERF-LC-A1,-0.20560177,0.76259327,0.022354253,0.52758527,-0.08687526,-0.23053956,0.51179284,-0.44009376,-0.48467466,0.06841557,0.47463405,0.07195227,-0.14055796,-0.010101604,-0.37267333,0.3151489
C32 [Human melanoma],-0.49217018,0.4763517,-0.035045926,0.5656967,-0.272381,-0.36622757,0.31819788,0.09839361,-0.4452101,-0.19215536,0.10292908,0.10919817,-0.037271738,-0.054796834,-0.13677186,0.40145412
D341 Med,-0.38606372,0.3827362,-0.17512354,0.23975249,-0.41781965,-0.04094938,0.08531525,0.09393276,-0.36993185,-0.091577396,0.2894936,0.012280714,-0.19771549,-0.2870177,-0.17222086,0.42957237
SNU-478,-0.40585145,0.37319186,-0.13540795,0.32020664,-0.3046403,-0.087938435,0.06735396,0.05652361,-0.30356884,-0.073052615,0.25859526,0.11743971,-0.15093528,-0.33298764,-0.13750789,0.38791472
HCC366,-0.5274161,0.7831894,-0.0192152,0.4266026,-0.11140845,-0.007327354,0.033410657,-0.19077927,-0.44443786,0.15001167,0.7101946,0.18099467,-0.07263866,-0.49017662,-0.47721195,0.4379139
KMRC-1,-0.38606372,0.3827362,-0.17512354,0.23975249,-0.41781965,-0.04094938,0.08531525,0.09393276,-0.36993185,-0.091577396,0.2894936,0.012280714,-0.19771549,-0.2870177,-0.17222086,0.42957237
Ci-1,-1.2078491,0.27875707,0.13243185,0.8264127,0.049589906,-0.3476056,-0.120900154,0.24360266,-0.23125699,-0.30983782,0.4923694,0.14812009,0.34479386,-0.57139623,-0.42665604,0.57396877
GR-M,-0.40585145,0.37319186,-0.13540795,0.32020664,-0.3046403,-0.087938435,0.06735396,0.05652361,-0.30356884,-0.073052615,0.25859526,0.11743971,-0.15093528,-0.33298764,-0.13750789,0.38791472
CAL-27,-0.76600176,0.062403906,-0.3761465,0.3592355,-0.20567636,-0.10154695,0.05954719,0.61032325,-0.6497069,-0.42344072,0.7921822,-0.9820929,-0.5595809,-0.36067554,-1.1055294,1.2029991
