,E0,E1,E2,E3,E4,E5,E6,E7,E8,E9,E10,E11,E12,E13,E14,E15,E16,E17,E18,E19,E20,E21,E22,E23,E24,E25,E26,E27,E28,E29,E30,E31,E32,E33,E34,E35,E36,E37,E38,E39,E40,E41,E42,E43,E44,E45,E46,E47,E48,E49,E50,E51,E52,E53,E54,E55,E56,E57,E58,E59,E60,E61,E62,E63,E64,E65,E66,E67,E68,E69,E70,E71,E72,E73,E74,E75,E76,E77,E78,E79
LOX-IMVI,0.03608056,0.7778585,0.7479836,0.7032331,-0.18423419,0.319404,-1.6847466,-0.5593105,1.2081583,-0.14502095,-0.30266434,0.45067096,0.19496188,-0.6441653,-0.3938007,1.4157228,0.5407038,1.0112978,0.7043362,0.3986197,-1.4311999,-0.26710308,0.9057619,-0.03745969,-0.949228,-0.17829113,-2.1414874,-0.28943342,0.4732725,0.12130015,1.1759036,1.3337126,0.17916393,0.099403426,-0.39845845,-0.020126736,0.08199607,0.5447102,0.13529584,-0.53311276,0.5994267,-0.57294977,0.103678346,-0.6293999,0.9784894,0.21898617,-1.1556551,0.38261628,-0.99606764,-0.4861862,-0.06628309,0.18666244,1.5249527,-0.94695246,-0.08069729,0.056647714,-0.8881808,0.30922264,-0.5378367,-0.14226167,-0.21561648,0.24963148,-1.4521116,-1.562711,0.52148354,0.4377096,-0.45490465,-0.3063341,-0.2926907,0.84739774,-0.45690057,-0.39982238,-0.43016478,-0.1536687,-0.87657034,1.1966976,-0.59917265,0.38307026,-1.301053,-0.6031937
SK-CO-1,-0.38465762,1.1187617,0.028505253,1.0886027,-1.3930241,1.0404651,-3.6897283,1.0067756,0.8813452,-0.68590456,-2.3392076,0.17055877,2.948114,-2.5144658,-1.3188834,1.3325562,1.9087343,0.17718226,2.660805,0.2583733,-1.703952,0.32312205,2.2323074,0.4995305,-0.23758759,0.07111483,-2.2136447,0.82933044,1.0175301,-0.7308079,-0.008884503,0.7922274,2.4810352,0.50012046,-1.1509066,-0.91146123,2.0163176,0.28221184,0.30341733,-0.19468272,1.1353823,-1.0368258,1.3392569,-0.67106473,2.2738495,0.31151515,-0.85737133,-0.6966563,-2.3533895,1.1982766,1.309054,0.6089397,-0.096323736,-2.8972087,-0.28473875,-0.21442178,-0.13492452,0.7654191,-1.7843455,-0.11168937,-0.8717307,1.1205486,-1.6020328,-3.0535789,-0.12575361,0.55526465,1.1436512,-1.1294007,0.28728744,1.1216495,0.02259181,0.681541,-0.43586743,-0.72324467,0.040970452,2.0823143,1.2223852,0.58565986,-2.0371642,0.88323903
KINGS-1,0.35261747,1.297563,-0.40551186,0.8214584,0.3215365,0.637108,-0.9128492,0.5184567,0.39743978,0.21978334,-0.3620615,0.5323161,0.5479361,0.11511484,-0.8560789,1.0434133,0.092014484,0.50278884,0.2479557,0.13353354,-0.51469874,-0.19851884,0.5934568,0.2130399,-0.30666485,-0.31762606,-1.3765787,-0.027409911,-0.06733642,-0.1922983,0.8932846,0.892138,-0.051921558,0.32731247,-0.62958467,-0.90283835,0.11991939,1.1816127,-0.2522057,0.4054064,0.18669407,-1.0233837,-1.1251668,-0.37608358,0.28007883,0.10582821,0.00758393,0.46695104,-1.363391,0.061545722,-0.017271804,0.32589084,0.33458832,-0.6105185,0.5557337,-0.3648852,-1.2124275,0.012387464,-0.1473662,-0.12252765,0.07501084,0.2356447,-0.6272123,-1.009853,0.68574136,-0.16492975,-0.676998,0.4218389,0.18092376,0.61697054,-0.23624408,-0.47491172,-0.008309607,-0.82195634,-0.6953391,0.7867972,0.1246686,0.36581463,-1.3583236,-0.14419822
ETK-1,0.35261747,1.297563,-0.40551186,0.8214584,0.3215365,0.637108,-0.9128492,0.5184567,0.39743978,0.21978334,-0.3620615,0.5323161,0.5479361,0.11511484,-0.8560789,1.0434133,0.092014484,0.50278884,0.2479557,0.13353354,-0.51469874,-0.19851884,0.5934568,0.2130399,-0.30666485,-0.31762606,-1.3765787,-0.027409911,-0.06733642,-0.1922983,0.8932846,0.892138,-0.051921558,0.32731247,-0.62958467,-0.90283835,0.11991939,1.1816127,-0.2522057,0.4054064,0.18669407,-1.0233837,-1.1251668,-0.37608358,0.28007883,0.10582821,0.00758393,0.46695104,-1.363391,0.061545722,-0.017271804,0.32589084,0.33458832,-0.6105185,0.5557337,-0.3648852,-1.2124275,0.012387464,-0.1473662,-0.12252765,0.07501084,0.2356447,-0.6272123,-1.009853,0.68574136,-0.16492975,-0.676998,0.4218389,0.18092376,0.61697054,-0.23624408,-0.47491172,-0.008309607,-0.82195634,-0.6953391,0.7867972,0.1246686,0.36581463,-1.3583236,-0.14419822
SNU-449,0.35261747,1.297563,-0.40551186,0.8214584,0.3215365,0.637108,-0.9128492,0.5184567,0.39743978,0.21978334,-0.3620615,0.5323161,0.5479361,0.11511484,-0.8560789,1.0434133,0.092014484,0.50278884,0.2479557,0.13353354,-0.51469874,-0.19851884,0.5934568,0.2130399,-0.30666485,-0.31762606,-1.3765787,-0.027409911,-0.06733642,-0.1922983,0.8932846,0.892138,-0.051921558,0.32731247,-0.62958467,-0.90283835,0.11991939,1.1816127,-0.2522057,0.4054064,0.18669407,-1.0233837,-1.1251668,-0.37608358,0.28007883,0.10582821,0.00758393,0.46695104,-1.363391,0.061545722,-0.017271804,0.32589084,0.33458832,-0.6105185,0.5557337,-0.3648852,-1.2124275,0.012387464,-0.1473662,-0.12252765,0.07501084,0.2356447,-0.6272123,-1.009853,0.68574136,-0.16492975,-0.676998,0.4218389,0.18092376,0.61697054,-0.23624408,-0.47491172,-0.008309607,-0.82195634,-0.6953391,0.7867972,0.1246686,0.36581463,-1.3583236,-0.14419822
COLO 205,-0.2015799,0.31967488,0.62141603,0.7020387,-0.2144913,0.41784954,-0.17624092,-0.7326634,0.56288785,0.14322554,0.18974125,0.8316693,-0.534298,-0.369652,0.6069433,0.40895727,-0.17843887,0.6482213,0.21476634,-0.10818957,-0.60734886,-0.4499789,-0.5332232,-0.26962644,-0.77313745,-0.06655001,-0.7346423,-0.35387233,0.11694325,-0.07312494,1.2297437,0.72213537,-0.19028966,-0.22582224,0.49626517,0.50975055,-0.30050156,0.48780876,0.5950804,-0.6290386,-0.23345177,-0.1382552,-0.27456972,0.09321743,0.42353082,-0.49579623,-0.7072132,0.22219989,0.13076945,-0.93336195,-0.7426782,0.28759357,0.8181211,-0.13822746,-0.021519696,-0.3105832,-0.53527564,0.12166848,0.14702697,0.08201405,0.11691795,-0.30944243,-0.5118396,-0.814291,-0.014273994,0.15714408,-0.1341425,-0.3191987,0.21121627,0.22094052,-0.41605625,-0.30748183,-0.4975494,0.016988812,-0.6798016,0.95278716,-0.84435225,0.09101007,-0.20894693,-0.05751184
ChaGo-K-1,0.27655935,0.41556063,-0.5809785,0.29871148,-0.15375027,0.6476461,-0.1569951,0.41207692,-0.28552338,0.33860114,-0.38449058,0.40395558,0.47547656,-0.11625921,-0.63769627,0.14977223,0.22572312,-0.05044285,-0.12224221,0.034103945,-0.15293649,-0.11593794,0.051068857,0.26516443,0.08035087,-0.34726778,-0.081064865,0.17615777,-0.31243744,-0.10265739,0.2979958,0.08085423,-0.19979809,0.048342396,-0.0033413062,-0.21609496,0.15634686,0.7720164,-0.31111145,0.16871172,-0.3077046,-0.31115806,-0.8512888,0.009169216,0.09950497,-0.5965047,0.32938093,0.08994638,-0.37219715,-0.0056878063,0.1772337,0.37475488,-0.18254702,-0.5857287,0.36802667,-0.2967758,-0.36145568,-0.2528245,-0.050596002,-0.3501491,0.15950091,0.2184439,0.34297678,-0.3456975,0.18139188,-0.28434977,-0.1263982,0.39213613,0.2591186,0.018886665,-0.032851633,-0.5109681,0.22491513,-0.19022457,-0.537428,0.43047032,0.08559096,0.08751666,-0.30603346,0.22515753
HT-3,0.27655935,0.41556063,-0.5809785,0.29871148,-0.15375027,0.6476461,-0.1569951,0.41207692,-0.28552338,0.33860114,-0.38449058,0.40395558,0.47547656,-0.11625921,-0.63769627,0.14977223,0.22572312,-0.05044285,-0.12224221,0.034103945,-0.15293649,-0.11593794,0.051068857,0.26516443,0.08035087,-0.34726778,-0.081064865,0.17615777,-0.31243744,-0.10265739,0.2979958,0.08085423,-0.19979809,0.048342396,-0.0033413062,-0.21609496,0.15634686,0.7720164,-0.31111145,0.16871172,-0.3077046,-0.31115806,-0.8512888,0.009169216,0.09950497,-0.5965047,0.32938093,0.08994638,-0.37219715,-0.0056878063,0.1772337,0.37475488,-0.18254702,-0.5857287,0.36802667,-0.2967758,-0.36145568,-0.2528245,-0.050596002,-0.3501491,0.15950091,0.2184439,0.34297678,-0.3456975,0.18139188,-0.28434977,-0.1263982,0.39213613,0.2591186,0.018886665,-0.032851633,-0.5109681,0.22491513,-0.19022457,-0.537428,0.43047032,0.08559096,0.08751666,-0.30603346,0.22515753
Hs 578T,0.35261747,1.297563,-0.40551186,0.8214584,0.3215365,0.637108,-0.9128492,0.5184567,0.39743978,0.21978334,-0.3620615,0.5323161,0.5479361,0.11511484,-0.8560789,1.0434133,0.092014484,0.50278884,0.2479557,0.13353354,-0.51469874,-0.19851884,0.5934568,0.2130399,-0.30666485,-0.31762606,-1.3765787,-0.027409911,-0.06733642,-0.1922983,0.8932846,0.892138,-0.051921558,0.32731247,-0.62958467,-0.90283835,0.11991939,1.1816127,-0.2522057,0.4054064,0.18669407,-1.0233837,-1.1251668,-0.37608358,0.28007883,0.10582821,0.00758393,0.46695104,-1.363391,0.061545722,-0.017271804,0.32589084,0.33458832,-0.6105185,0.5557337,-0.3648852,-1.2124275,0.012387464,-0.1473662,-0.12252765,0.07501084,0.2356447,-0.6272123,-1.009853,0.68574136,-0.16492975,-0.676998,0.4218389,0.18092376,0.61697054,-0.23624408,-0.47491172,-0.008309607,-0.82195634,-0.6953391,0.7867972,0.1246686,0.36581463,-1.3583236,-0.14419822
SIG-M5,-0.29279196,1.1340699,0.029470496,0.95592403,-1.677301,0.8216105,-3.732148,0.94996524,0.88937914,-0.5451286,-2.2853591,0.27532408,2.8381512,-2.4741292,-1.2424864,1.2497449,2.2200992,0.07639808,2.6932662,0.15829858,-1.7177116,0.41719875,2.314799,0.5335502,-0.3030042,0.1063998,-2.205807,0.8051448,0.8134669,-0.56682867,-0.089205936,1.0428315,2.5613315,0.64300907,-0.8595,-0.8237852,1.4748943,-0.036952265,0.27315462,0.00039431342,1.0820092,-0.9454329,1.5351942,-0.68612665,1.971071,0.40244344,-0.6714347,-0.60180616,-2.7240314,1.0367546,1.3927782,0.4245825,0.2995664,-2.9016433,-0.29951206,-0.1153524,0.10820973,0.600577,-1.8140079,-0.35685372,-0.5500087,1.4409027,-1.5386043,-3.1762052,-0.42141888,0.2073279,1.2098166,-1.2829739,-0.101056404,1.0955367,0.0899695,0.91859174,-0.24633816,-0.3608819,-0.11457969,2.0868542,1.2116625,0.49490744,-1.9486256,0.814267
8305C,-0.11561538,0.3000662,0.49775165,0.4984482,-0.3955382,0.20430969,-0.20938726,-0.6241739,0.46199667,0.17943296,0.05562545,0.7621857,-0.403605,-0.26061857,0.47530168,0.2884995,0.042587392,0.5149387,0.18761545,-0.083185695,-0.43720508,-0.27804288,-0.35926718,-0.15141223,-0.63539386,0.0019648427,-0.57350004,-0.32618782,-0.06983365,0.059380297,0.9282714,0.7578656,-0.2132831,-0.14821084,0.5689956,0.40165114,-0.42608657,0.24934345,0.45939973,-0.45274234,-0.2517975,-0.13451067,-0.16102996,0.09165231,0.21908219,-0.477553,-0.46993533,0.29066086,-0.03392034,-0.7699126,-0.604609,0.10144209,0.84572124,-0.24927486,0.0078004836,-0.10973252,-0.28385547,0.006303395,0.015382053,-0.15578826,0.34527487,-0.050803475,-0.42616537,-0.6985321,-0.05358596,-0.11064786,-0.004197147,-0.2043106,0.042232107,0.11919516,-0.28702596,-0.20640008,-0.30433547,0.25393382,-0.65220696,0.8197493,-0.6984946,0.123716675,-0.16869971,-0.223397
NCI-H322M,0.35261747,1.297563,-0.40551186,0.8214584,0.3215365,0.637108,-0.9128492,0.5184567,0.39743978,0.21978334,-0.3620615,0.5323161,0.5479361,0.11511484,-0.8560789,1.0434133,0.092014484,0.50278884,0.2479557,0.13353354,-0.51469874,-0.19851884,0.5934568,0.2130399,-0.30666485,-0.31762606,-1.3765787,-0.027409911,-0.06733642,-0.1922983,0.8932846,0.892138,-0.051921558,0.32731247,-0.62958467,-0.90283835,0.11991939,1.1816127,-0.2522057,0.4054064,0.18669407,-1.0233837,-1.1251668,-0.37608358,0.28007883,0.10582821,0.00758393,0.46695104,-1.363391,0.061545722,-0.017271804,0.32589084,0.33458832,-0.6105185,0.5557337,-0.3648852,-1.2124275,0.012387464,-0.1473662,-0.12252765,0.07501084,0.2356447,-0.6272123,-1.009853,0.68574136,-0.16492975,-0.676998,0.4218389,0.18092376,0.61697054,-0.23624408,-0.47491172,-0.008309607,-0.82195634,-0.6953391,0.7867972,0.1246686,0.36581463,-1.3583236,-0.14419822
A-431,0.27655935,0.41556063,-0.5809785,0.29871148,-0.15375027,0.6476461,-0.1569951,0.41207692,-0.28552338,0.33860114,-0.38449058,0.40395558,0.47547656,-0.11625921,-0.63769627,0.14977223,0.22572312,-0.05044285,-0.12224221,0.034103945,-0.15293649,-0.11593794,0.051068857,0.26516443,0.08035087,-0.34726778,-0.081064865,0.17615777,-0.31243744,-0.10265739,0.2979958,0.08085423,-0.19979809,0.048342396,-0.0033413062,-0.21609496,0.15634686,0.7720164,-0.31111145,0.16871172,-0.3077046,-0.31115806,-0.8512888,0.009169216,0.09950497,-0.5965047,0.32938093,0.08994638,-0.37219715,-0.0056878063,0.1772337,0.37475488,-0.18254702,-0.5857287,0.36802667,-0.2967758,-0.36145568,-0.2528245,-0.050596002,-0.3501491,0.15950091,0.2184439,0.34297678,-0.3456975,0.18139188,-0.28434977,-0.1263982,0.39213613,0.2591186,0.018886665,-0.032851633,-0.5109681,0.22491513,-0.19022457,-0.537428,0.43047032,0.08559096,0.08751666,-0.30603346,0.22515753
KP-N-YN,-0.26483104,1.2303946,0.55569404,1.1938193,-1.5680838,0.84697497,-3.5468652,0.54796374,1.005023,-0.4168875,-2.2188919,0.6184373,2.6887617,-2.5114164,-1.1076776,1.1992638,2.1120617,0.6725346,2.4112015,0.17492606,-2.0926354,0.0023347992,2.2122514,0.23162004,-0.26284197,0.16333139,-2.3139455,0.94471055,0.4932764,-0.59587175,0.017092917,0.92137074,2.5161343,0.3947691,-0.49635467,-0.6483563,1.0531772,-0.3354919,0.29483065,-0.33167025,0.746662,-0.91806227,1.4214506,-0.5974456,1.7646159,0.06170542,-0.88290536,-0.37881935,-2.680335,0.9231023,1.2922285,0.3938144,0.643925,-2.8717642,-0.41103673,0.2302991,-0.31269157,1.1290257,-1.9825199,-0.10607557,-0.23076117,1.538861,-1.7654976,-2.9859765,-0.60242724,0.2580703,1.1515436,-1.633962,0.14239167,1.4175478,-0.21017729,1.2002393,-0.41222423,0.044761807,-0.19975188,2.4738336,1.0688624,0.6621587,-1.9209126,0.5014701
AN3-CA,0.33464578,1.003816,-0.19279787,0.8704625,0.5071403,1.1140478,-0.93146217,0.47626302,0.14904591,0.3170028,-0.7079,0.408031,0.9637497,-0.025400493,-0.866229,0.90457034,0.44353154,0.033987503,0.23278184,-0.1238274,-0.42986077,-0.43509027,0.52043766,0.092795335,0.040670037,-0.6709427,-1.3431879,0.30877858,-0.14452581,-0.1935348,0.8392972,0.25025883,-0.17168844,0.2073854,-0.40161797,-0.7617789,0.46924484,1.3217152,-0.34280732,0.14343809,-0.15038207,-0.9109574,-1.1005917,-0.080151886,0.37813926,0.08887768,-0.23297058,0.68404204,-0.71915513,-0.06861029,0.07332868,0.50402075,0.3309401,-0.58015156,0.33138606,-0.20646314,-1.1714789,0.13196193,-0.4291528,-0.21109848,-0.0051592705,0.35014218,-0.6596458,-0.8246693,0.5132486,0.08450004,-0.5413998,0.24799262,0.28527224,0.20186453,-0.03605741,-0.76359564,-0.14671685,-0.54519504,-0.8065826,0.82955515,0.2538405,0.108586736,-1.1173394,0.30692872
SJNB-13,0.27655935,0.41556063,-0.5809785,0.29871148,-0.15375027,0.6476461,-0.1569951,0.41207692,-0.28552338,0.33860114,-0.38449058,0.40395558,0.47547656,-0.11625921,-0.63769627,0.14977223,0.22572312,-0.05044285,-0.12224221,0.034103945,-0.15293649,-0.11593794,0.051068857,0.26516443,0.08035087,-0.34726778,-0.081064865,0.17615777,-0.31243744,-0.10265739,0.2979958,0.08085423,-0.19979809,0.048342396,-0.0033413062,-0.21609496,0.15634686,0.7720164,-0.31111145,0.16871172,-0.3077046,-0.31115806,-0.8512888,0.009169216,0.09950497,-0.5965047,0.32938093,0.08994638,-0.37219715,-0.0056878063,0.1772337,0.37475488,-0.18254702,-0.5857287,0.36802667,-0.2967758,-0.36145568,-0.2528245,-0.050596002,-0.3501491,0.15950091,0.2184439,0.34297678,-0.3456975,0.18139188,-0.28434977,-0.1263982,0.39213613,0.2591186,0.018886665,-0.032851633,-0.5109681,0.22491513,-0.19022457,-0.537428,0.43047032,0.08559096,0.08751666,-0.30603346,0.22515753
HCT 15,-0.6542799,0.023139434,0.8945929,0.72839135,0.13451593,0.5171054,-0.3415743,-0.87277716,0.66660327,-0.062041957,-0.15775035,0.85665256,0.27464426,-0.5065035,0.66241235,0.73515445,-0.5484556,0.99490196,0.38155356,-0.28371567,-0.6495181,-0.57460886,-0.7396435,-0.12023553,-1.006249,-0.32077524,-1.1196045,-0.006531198,0.5646736,-0.14580457,1.6675373,1.0100036,-0.3479846,-0.23064764,0.44386452,0.30380073,0.03091928,0.53401476,0.99277294,-0.49855712,-0.27596787,-0.13957214,-0.02855436,0.36479336,0.9056337,-0.446139,-0.97457564,0.4773693,0.34768358,-0.60580224,-1.165724,0.7580067,0.5331847,-0.44108236,0.10052369,-0.62825084,-0.74621594,-0.23924907,0.18705347,0.16975845,-0.17414446,-0.55525565,-0.9533157,-1.4025608,0.37432736,0.43726325,-0.113764055,0.40921256,0.32387686,0.49770278,-0.41363797,-0.7230901,-0.67833626,-0.34417757,-0.6936048,1.0908742,-0.87696713,0.22688454,-0.83633626,0.015696594
UACC-62,-0.039907746,1.5575905,0.5597109,1.1180472,0.4165422,0.6753471,-2.0750039,-0.30028474,1.438742,-0.37121353,-0.48109838,0.32828772,0.56727433,-0.67252547,-0.9997796,2.2957902,0.76803875,1.2813332,1.666547,0.7021293,-2.036441,-0.4336379,1.4090848,-0.24450806,-0.7803972,0.14828041,-3.5772579,-0.20003048,0.70004535,-0.16024765,1.390394,1.7799418,0.6108788,0.6570592,-1.1988506,-0.7518479,-0.13088585,0.61883104,0.31828883,-0.06105641,0.9274058,-1.1709117,0.070433505,-1.1438156,1.2253025,0.8437783,-1.4110533,0.72683823,-2.3246467,-0.61712915,-0.35519403,0.20870994,1.9973036,-0.8530009,-0.0015466721,0.039262984,-1.6699247,0.46175778,-0.63658226,-0.12233818,-0.6326154,0.4459985,-2.2636025,-2.2478797,0.7136047,0.7062007,-0.97981393,-0.29196227,-0.46124375,1.2695131,-0.91818357,-0.12174363,-0.80417997,-0.9432155,-0.99089044,1.4822319,-0.41882825,0.24909297,-2.5403569,-0.72160393
HO-1-N-1,0.27655935,0.41556063,-0.5809785,0.29871148,-0.15375027,0.6476461,-0.1569951,0.41207692,-0.28552338,0.33860114,-0.38449058,0.40395558,0.47547656,-0.11625921,-0.63769627,0.14977223,0.22572312,-0.05044285,-0.12224221,0.034103945,-0.15293649,-0.11593794,0.051068857,0.26516443,0.08035087,-0.34726778,-0.081064865,0.17615777,-0.31243744,-0.10265739,0.2979958,0.08085423,-0.19979809,0.048342396,-0.0033413062,-0.21609496,0.15634686,0.7720164,-0.31111145,0.16871172,-0.3077046,-0.31115806,-0.8512888,0.009169216,0.09950497,-0.5965047,0.32938093,0.08994638,-0.37219715,-0.0056878063,0.1772337,0.37475488,-0.18254702,-0.5857287,0.36802667,-0.2967758,-0.36145568,-0.2528245,-0.050596002,-0.3501491,0.15950091,0.2184439,0.34297678,-0.3456975,0.18139188,-0.28434977,-0.1263982,0.39213613,0.2591186,0.018886665,-0.032851633,-0.5109681,0.22491513,-0.19022457,-0.537428,0.43047032,0.08559096,0.08751666,-0.30603346,0.22515753
RPMI-8226,-0.12151678,0.26514918,0.37312168,0.42753658,-0.29230824,0.20962419,-0.2001139,-0.45887387,0.3530717,0.0748646,-0.13233884,0.58793694,-0.16294889,-0.1919213,0.26726308,0.25085324,-0.04775133,0.48244035,0.12800336,0.04189291,-0.25330117,-0.20018364,-0.26780272,-0.06721773,-0.43223366,0.035194788,-0.420195,-0.27431792,-0.052547492,0.02790635,0.70712084,0.542992,-0.31657258,-0.213488,0.35031924,0.20587602,-0.010247913,0.33004248,0.35398155,-0.47152317,-0.21677023,-0.2221591,-0.24342768,0.105149046,0.31741175,-0.550238,-0.4185939,0.2642717,0.17203207,-0.44494125,-0.5502638,0.09964783,0.47743142,-0.35588753,0.051894102,-0.007951127,-0.27556962,0.055780556,-0.08660066,-0.14842644,0.2519096,-0.112518564,-0.4039197,-0.46014717,0.20276737,-0.030502813,0.059583355,0.06415055,0.26159182,0.043562654,-0.22537321,-0.3423691,-0.30065078,0.12851608,-0.4690623,0.682172,-0.5419147,0.24717572,-0.21699128,-0.3203103
U-118MG,0.22516118,2.0737374,-0.58182174,1.3667071,0.86758125,1.1268488,-1.5626197,0.87635237,0.7443286,-0.012545603,-0.61856735,0.2723923,1.0171615,0.037903808,-1.4706383,2.061998,0.40700224,0.71971375,1.2608622,0.48760068,-1.2517724,-0.31758997,1.2083168,-0.08686174,-0.12344985,-0.20631501,-2.9209795,0.13554488,0.29130664,-0.4845454,1.1855965,1.3219056,0.5161748,0.7949005,-1.5823724,-1.7622476,0.03537274,1.4534018,-0.16416599,0.7938214,0.5983948,-1.6974037,-1.1590976,-0.9874325,0.67572343,0.75324327,-0.32903895,0.9194592,-2.7085671,0.040395904,-0.17331265,0.3937971,0.9297626,-0.59112686,0.5395051,-0.30757317,-2.0607216,0.22678232,-0.29577544,0.039596356,-0.43272007,0.44261217,-1.6817007,-1.8177307,0.9277913,0.06144922,-1.2961291,0.47164437,0.012811303,1.16201,-0.6852346,-0.27186304,-0.47036046,-1.7022588,-0.89263624,1.1977109,0.39672187,0.36008683,-2.7089465,-0.22908542
SF295,0.22516118,2.0737374,-0.58182174,1.3667071,0.86758125,1.1268488,-1.5626197,0.87635237,0.7443286,-0.012545603,-0.61856735,0.2723923,1.0171615,0.037903808,-1.4706383,2.061998,0.40700224,0.71971375,1.2608622,0.48760068,-1.2517724,-0.31758997,1.2083168,-0.08686174,-0.12344985,-0.20631501,-2.9209795,0.13554488,0.29130664,-0.4845454,1.1855965,1.3219056,0.5161748,0.7949005,-1.5823724,-1.7622476,0.03537274,1.4534018,-0.16416599,0.7938214,0.5983948,-1.6974037,-1.1590976,-0.9874325,0.67572343,0.75324327,-0.32903895,0.9194592,-2.7085671,0.040395904,-0.17331265,0.3937971,0.9297626,-0.59112686,0.5395051,-0.30757317,-2.0607216,0.22678232,-0.29577544,0.039596356,-0.43272007,0.44261217,-1.6817007,-1.8177307,0.9277913,0.06144922,-1.2961291,0.47164437,0.012811303,1.16201,-0.6852346,-0.27186304,-0.47036046,-1.7022588,-0.89263624,1.1977109,0.39672187,0.36008683,-2.7089465,-0.22908542
IM-9,0.09938307,1.2495644,-1.0492592,0.7561874,-1.4355131,1.2649472,-3.6797557,1.9862158,0.14185894,-0.38596046,-2.7254758,-0.08290631,3.717232,-2.32977,-2.3554842,1.1110178,2.4032347,-0.4889835,2.3834088,0.27558818,-1.4334433,0.5793036,2.725135,0.95012695,0.4127406,-0.24283287,-1.7133723,1.3074906,0.570863,-0.72886646,-0.7194816,0.36581993,2.5748165,0.83956224,-1.4318368,-1.4415314,2.0573277,0.48572063,-0.4973566,0.6218484,1.0261023,-1.1220803,0.8449356,-0.76860964,1.8514937,0.28349152,0.1278816,-0.8025207,-3.0623083,1.8009795,2.1746206,0.6978952,-0.7287019,-3.2380974,0.060713965,-0.30239564,0.03060953,0.34144902,-1.879986,-0.5512146,-0.7357826,1.71015,-0.76946235,-2.8233702,-0.1864411,0.03362584,1.0876148,-0.68652713,0.11583,0.99522793,0.3441438,0.6140236,0.28291243,-0.8050402,0.00019934961,1.6975752,1.9957479,0.45870748,-2.085959,1.2628219
DMS 153,0.27655935,0.41556063,-0.5809785,0.29871148,-0.15375027,0.6476461,-0.1569951,0.41207692,-0.28552338,0.33860114,-0.38449058,0.40395558,0.47547656,-0.11625921,-0.63769627,0.14977223,0.22572312,-0.05044285,-0.12224221,0.034103945,-0.15293649,-0.11593794,0.051068857,0.26516443,0.08035087,-0.34726778,-0.081064865,0.17615777,-0.31243744,-0.10265739,0.2979958,0.08085423,-0.19979809,0.048342396,-0.0033413062,-0.21609496,0.15634686,0.7720164,-0.31111145,0.16871172,-0.3077046,-0.31115806,-0.8512888,0.009169216,0.09950497,-0.5965047,0.32938093,0.08994638,-0.37219715,-0.0056878063,0.1772337,0.37475488,-0.18254702,-0.5857287,0.36802667,-0.2967758,-0.36145568,-0.2528245,-0.050596002,-0.3501491,0.15950091,0.2184439,0.34297678,-0.3456975,0.18139188,-0.28434977,-0.1263982,0.39213613,0.2591186,0.018886665,-0.032851633,-0.5109681,0.22491513,-0.19022457,-0.537428,0.43047032,0.08559096,0.08751666,-0.30603346,0.22515753
MS-1 [Human lung carcinoma],0.27655935,0.41556063,-0.5809785,0.29871148,-0.15375027,0.6476461,-0.1569951,0.41207692,-0.28552338,0.33860114,-0.38449058,0.40395558,0.47547656,-0.11625921,-0.63769627,0.14977223,0.22572312,-0.05044285,-0.12224221,0.034103945,-0.15293649,-0.11593794,0.051068857,0.26516443,0.08035087,-0.34726778,-0.081064865,0.17615777,-0.31243744,-0.10265739,0.2979958,0.08085423,-0.19979809,0.048342396,-0.0033413062,-0.21609496,0.15634686,0.7720164,-0.31111145,0.16871172,-0.3077046,-0.31115806,-0.8512888,0.009169216,0.09950497,-0.5965047,0.32938093,0.08994638,-0.37219715,-0.0056878063,0.1772337,0.37475488,-0.18254702,-0.5857287,0.36802667,-0.2967758,-0.36145568,-0.2528245,-0.050596002,-0.3501491,0.15950091,0.2184439,0.34297678,-0.3456975,0.18139188,-0.28434977,-0.1263982,0.39213613,0.2591186,0.018886665,-0.032851633,-0.5109681,0.22491513,-0.19022457,-0.537428,0.43047032,0.08559096,0.08751666,-0.30603346,0.22515753
NCI-H69,0.15555684,0.29848182,-0.56886363,0.12297493,-0.011574946,0.6833988,-0.34149247,0.4030282,-0.32807824,0.29546997,-0.52923715,0.30144194,0.6587259,-0.29327726,-0.66001326,0.28170806,0.15213,0.009672168,0.11438019,0.021154894,-0.16535822,-0.073219635,-0.09523899,0.5954421,0.08202661,-0.2771692,-0.17694382,0.32294324,0.05747707,-0.10024159,0.38485387,0.2758836,-0.03311279,0.1912386,-0.06267179,-0.27242017,0.07113563,0.558293,-0.2714887,0.43844184,-0.17564394,-0.26129946,-0.7016383,0.124025814,0.26612362,-0.67656106,0.28933227,0.12955289,-0.34079146,0.003910553,0.03751881,0.4899612,-0.37970784,-0.73133725,0.41962123,-0.47838777,-0.20706658,-0.52789885,0.01664763,-0.33308616,0.012837436,0.21131186,0.43113846,-0.6834444,0.3379433,-0.18587887,-0.09355498,0.4468861,0.09553384,0.19100201,0.07734101,-0.44054183,0.3872253,-0.20492987,-0.5788928,0.4775563,-0.014264049,0.07997949,-0.51302797,0.19683455
KP-N-YS,0.27655935,0.41556063,-0.5809785,0.29871148,-0.15375027,0.6476461,-0.1569951,0.41207692,-0.28552338,0.33860114,-0.38449058,0.40395558,0.47547656,-0.11625921,-0.63769627,0.14977223,0.22572312,-0.05044285,-0.12224221,0.034103945,-0.15293649,-0.11593794,0.051068857,0.26516443,0.08035087,-0.34726778,-0.081064865,0.17615777,-0.31243744,-0.10265739,0.2979958,0.08085423,-0.19979809,0.048342396,-0.0033413062,-0.21609496,0.15634686,0.7720164,-0.31111145,0.16871172,-0.3077046,-0.31115806,-0.8512888,0.009169216,0.09950497,-0.5965047,0.32938093,0.08994638,-0.37219715,-0.0056878063,0.1772337,0.37475488,-0.18254702,-0.5857287,0.36802667,-0.2967758,-0.36145568,-0.2528245,-0.050596002,-0.3501491,0.15950091,0.2184439,0.34297678,-0.3456975,0.18139188,-0.28434977,-0.1263982,0.39213613,0.2591186,0.018886665,-0.032851633,-0.5109681,0.22491513,-0.19022457,-0.537428,0.43047032,0.08559096,0.08751666,-0.30603346,0.22515753
MZ-MEL-2,0.4282552,0.89335275,-0.33074644,0.5034964,0.057553697,0.7627405,-1.6323545,0.47694057,0.46063787,0.014147193,-0.7427805,0.092440724,1.0740434,-0.4998061,-1.5067986,1.2769957,0.7238395,0.44591627,0.39447844,0.5159094,-1.1469315,-0.104998134,1.316098,0.37911695,-0.23348331,-0.5275238,-1.6490523,0.2129122,0.23066865,-0.04073764,0.5456279,0.65670097,0.19264911,0.29595658,-0.9707952,-0.6378727,0.6644294,1.067383,-0.6352152,0.08834137,0.54351956,-0.7495972,-0.5865804,-0.71188295,0.8589121,0.10003452,-0.35633895,0.18190186,-1.3343445,0.27803847,0.71555954,0.45997515,0.49668443,-1.2834064,0.27952898,-0.13039558,-0.96578103,0.050094698,-0.6038148,-0.33662254,-0.40139028,0.51887894,-0.6829697,-1.2098769,0.7564613,0.2640077,-0.5771056,0.29011267,-0.075804204,0.7470893,-0.20272623,-0.7043905,0.09908568,-0.5978271,-0.76179135,0.8074187,0.18491296,0.3468701,-1.4383867,-0.15463917
MSTO-211H,0.4282552,0.89335275,-0.33074644,0.5034964,0.057553697,0.7627405,-1.6323545,0.47694057,0.46063787,0.014147193,-0.7427805,0.092440724,1.0740434,-0.4998061,-1.5067986,1.2769957,0.7238395,0.44591627,0.39447844,0.5159094,-1.1469315,-0.104998134,1.316098,0.37911695,-0.23348331,-0.5275238,-1.6490523,0.2129122,0.23066865,-0.04073764,0.5456279,0.65670097,0.19264911,0.29595658,-0.9707952,-0.6378727,0.6644294,1.067383,-0.6352152,0.08834137,0.54351956,-0.7495972,-0.5865804,-0.71188295,0.8589121,0.10003452,-0.35633895,0.18190186,-1.3343445,0.27803847,0.71555954,0.45997515,0.49668443,-1.2834064,0.27952898,-0.13039558,-0.96578103,0.050094698,-0.6038148,-0.33662254,-0.40139028,0.51887894,-0.6829697,-1.2098769,0.7564613,0.2640077,-0.5771056,0.29011267,-0.075804204,0.7470893,-0.20272623,-0.7043905,0.09908568,-0.5978271,-0.76179135,0.8074187,0.18491296,0.3468701,-1.4383867,-0.15463917
EPLC-272H,0.27655935,0.41556063,-0.5809785,0.29871148,-0.15375027,0.6476461,-0.1569951,0.41207692,-0.28552338,0.33860114,-0.38449058,0.40395558,0.47547656,-0.11625921,-0.63769627,0.14977223,0.22572312,-0.05044285,-0.12224221,0.034103945,-0.15293649,-0.11593794,0.051068857,0.26516443,0.08035087,-0.34726778,-0.081064865,0.17615777,-0.31243744,-0.10265739,0.2979958,0.08085423,-0.19979809,0.048342396,-0.0033413062,-0.21609496,0.15634686,0.7720164,-0.31111145,0.16871172,-0.3077046,-0.31115806,-0.8512888,0.009169216,0.09950497,-0.5965047,0.32938093,0.08994638,-0.37219715,-0.0056878063,0.1772337,0.37475488,-0.18254702,-0.5857287,0.36802667,-0.2967758,-0.36145568,-0.2528245,-0.050596002,-0.3501491,0.15950091,0.2184439,0.34297678,-0.3456975,0.18139188,-0.28434977,-0.1263982,0.39213613,0.2591186,0.018886665,-0.032851633,-0.5109681,0.22491513,-0.19022457,-0.537428,0.43047032,0.08559096,0.08751666,-0.30603346,0.22515753
MHH-NB-11,-0.26483104,1.2303946,0.55569404,1.1938193,-1.5680838,0.84697497,-3.5468652,0.54796374,1.005023,-0.4168875,-2.2188919,0.6184373,2.6887617,-2.5114164,-1.1076776,1.1992638,2.1120617,0.6725346,2.4112015,0.17492606,-2.0926354,0.0023347992,2.2122514,0.23162004,-0.26284197,0.16333139,-2.3139455,0.94471055,0.4932764,-0.59587175,0.017092917,0.92137074,2.5161343,0.3947691,-0.49635467,-0.6483563,1.0531772,-0.3354919,0.29483065,-0.33167025,0.746662,-0.91806227,1.4214506,-0.5974456,1.7646159,0.06170542,-0.88290536,-0.37881935,-2.680335,0.9231023,1.2922285,0.3938144,0.643925,-2.8717642,-0.41103673,0.2302991,-0.31269157,1.1290257,-1.9825199,-0.10607557,-0.23076117,1.538861,-1.7654976,-2.9859765,-0.60242724,0.2580703,1.1515436,-1.633962,0.14239167,1.4175478,-0.21017729,1.2002393,-0.41222423,0.044761807,-0.19975188,2.4738336,1.0688624,0.6621587,-1.9209126,0.5014701
NCI-H1666,0.03608056,0.7778585,0.7479836,0.7032331,-0.18423419,0.319404,-1.6847466,-0.5593105,1.2081583,-0.14502095,-0.30266434,0.45067096,0.19496188,-0.6441653,-0.3938007,1.4157228,0.5407038,1.0112978,0.7043362,0.3986197,-1.4311999,-0.26710308,0.9057619,-0.03745969,-0.949228,-0.17829113,-2.1414874,-0.28943342,0.4732725,0.12130015,1.1759036,1.3337126,0.17916393,0.099403426,-0.39845845,-0.020126736,0.08199607,0.5447102,0.13529584,-0.53311276,0.5994267,-0.57294977,0.103678346,-0.6293999,0.9784894,0.21898617,-1.1556551,0.38261628,-0.99606764,-0.4861862,-0.06628309,0.18666244,1.5249527,-0.94695246,-0.08069729,0.056647714,-0.8881808,0.30922264,-0.5378367,-0.14226167,-0.21561648,0.24963148,-1.4521116,-1.562711,0.52148354,0.4377096,-0.45490465,-0.3063341,-0.2926907,0.84739774,-0.45690057,-0.39982238,-0.43016478,-0.1536687,-0.87657034,1.1966976,-0.59917265,0.38307026,-1.301053,-0.6031937
TE-11,0.35261747,1.297563,-0.40551186,0.8214584,0.3215365,0.637108,-0.9128492,0.5184567,0.39743978,0.21978334,-0.3620615,0.5323161,0.5479361,0.11511484,-0.8560789,1.0434133,0.092014484,0.50278884,0.2479557,0.13353354,-0.51469874,-0.19851884,0.5934568,0.2130399,-0.30666485,-0.31762606,-1.3765787,-0.027409911,-0.06733642,-0.1922983,0.8932846,0.892138,-0.051921558,0.32731247,-0.62958467,-0.90283835,0.11991939,1.1816127,-0.2522057,0.4054064,0.18669407,-1.0233837,-1.1251668,-0.37608358,0.28007883,0.10582821,0.00758393,0.46695104,-1.363391,0.061545722,-0.017271804,0.32589084,0.33458832,-0.6105185,0.5557337,-0.3648852,-1.2124275,0.012387464,-0.1473662,-0.12252765,0.07501084,0.2356447,-0.6272123,-1.009853,0.68574136,-0.16492975,-0.676998,0.4218389,0.18092376,0.61697054,-0.23624408,-0.47491172,-0.008309607,-0.82195634,-0.6953391,0.7867972,0.1246686,0.36581463,-1.3583236,-0.14419822
OVCAR-8,0.27655935,0.41556063,-0.5809785,0.29871148,-0.15375027,0.6476461,-0.1569951,0.41207692,-0.28552338,0.33860114,-0.38449058,0.40395558,0.47547656,-0.11625921,-0.63769627,0.14977223,0.22572312,-0.05044285,-0.12224221,0.034103945,-0.15293649,-0.11593794,0.051068857,0.26516443,0.08035087,-0.34726778,-0.081064865,0.17615777,-0.31243744,-0.10265739,0.2979958,0.08085423,-0.19979809,0.048342396,-0.0033413062,-0.21609496,0.15634686,0.7720164,-0.31111145,0.16871172,-0.3077046,-0.31115806,-0.8512888,0.009169216,0.09950497,-0.5965047,0.32938093,0.08994638,-0.37219715,-0.0056878063,0.1772337,0.37475488,-0.18254702,-0.5857287,0.36802667,-0.2967758,-0.36145568,-0.2528245,-0.050596002,-0.3501491,0.15950091,0.2184439,0.34297678,-0.3456975,0.18139188,-0.28434977,-0.1263982,0.39213613,0.2591186,0.018886665,-0.032851633,-0.5109681,0.22491513,-0.19022457,-0.537428,0.43047032,0.08559096,0.08751666,-0.30603346,0.22515753
MKN7,0.27655935,0.41556063,-0.5809785,0.29871148,-0.15375027,0.6476461,-0.1569951,0.41207692,-0.28552338,0.33860114,-0.38449058,0.40395558,0.47547656,-0.11625921,-0.63769627,0.14977223,0.22572312,-0.05044285,-0.12224221,0.034103945,-0.15293649,-0.11593794,0.051068857,0.26516443,0.08035087,-0.34726778,-0.081064865,0.17615777,-0.31243744,-0.10265739,0.2979958,0.08085423,-0.19979809,0.048342396,-0.0033413062,-0.21609496,0.15634686,0.7720164,-0.31111145,0.16871172,-0.3077046,-0.31115806,-0.8512888,0.009169216,0.09950497,-0.5965047,0.32938093,0.08994638,-0.37219715,-0.0056878063,0.1772337,0.37475488,-0.18254702,-0.5857287,0.36802667,-0.2967758,-0.36145568,-0.2528245,-0.050596002,-0.3501491,0.15950091,0.2184439,0.34297678,-0.3456975,0.18139188,-0.28434977,-0.1263982,0.39213613,0.2591186,0.018886665,-0.032851633,-0.5109681,0.22491513,-0.19022457,-0.537428,0.43047032,0.08559096,0.08751666,-0.30603346,0.22515753
GT3TKB,0.0045978483,0.57483274,1.2049167,0.84048444,-0.11781583,0.3590415,-0.068226434,-1.2144654,0.81511074,0.539628,0.14121208,1.172915,-0.5759854,-0.27508917,0.9804421,0.3357966,-0.121673346,1.1287401,-0.18093234,-0.30228227,-0.98663896,-0.7221658,-0.3719516,-0.56528676,-0.8604628,-0.22984928,-0.79309255,-0.2453821,-0.43068585,0.2153739,1.329801,0.86282396,-0.42423105,-0.37961644,1.0900908,0.7537452,-0.6114459,0.26697254,0.6395366,-0.8116085,-0.70970064,-0.18615781,-0.59718895,0.34189555,0.00048644678,-0.9445695,-0.92438805,0.56044436,0.087774925,-0.6843675,-0.8596491,0.23838146,1.3423682,-0.16751601,-0.010294057,0.058973636,-0.9057723,0.36368057,-0.14317726,0.19385105,0.5848197,0.012654412,-0.84020126,-0.74642134,-0.13130619,0.0149345435,-0.19719455,-0.45826238,0.28849462,0.6981292,-0.6394394,-0.030694967,-0.4607535,0.5860939,-0.7636781,1.3151462,-0.9756325,0.2430946,-0.06308722,-0.44487202
NCI-H1993,0.27655935,0.41556063,-0.5809785,0.29871148,-0.15375027,0.6476461,-0.1569951,0.41207692,-0.28552338,0.33860114,-0.38449058,0.40395558,0.47547656,-0.11625921,-0.63769627,0.14977223,0.22572312,-0.05044285,-0.12224221,0.034103945,-0.15293649,-0.11593794,0.051068857,0.26516443,0.08035087,-0.34726778,-0.081064865,0.17615777,-0.31243744,-0.10265739,0.2979958,0.08085423,-0.19979809,0.048342396,-0.0033413062,-0.21609496,0.15634686,0.7720164,-0.31111145,0.16871172,-0.3077046,-0.31115806,-0.8512888,0.009169216,0.09950497,-0.5965047,0.32938093,0.08994638,-0.37219715,-0.0056878063,0.1772337,0.37475488,-0.18254702,-0.5857287,0.36802667,-0.2967758,-0.36145568,-0.2528245,-0.050596002,-0.3501491,0.15950091,0.2184439,0.34297678,-0.3456975,0.18139188,-0.28434977,-0.1263982,0.39213613,0.2591186,0.018886665,-0.032851633,-0.5109681,0.22491513,-0.19022457,-0.537428,0.43047032,0.08559096,0.08751666,-0.30603346,0.22515753
GMS-10,-0.08765471,0.3963911,1.0239748,0.7363435,-0.28632095,0.22967415,-0.02410462,-1.0261756,0.57764065,0.30767414,0.122092746,1.1052985,-0.5529946,-0.2979056,0.6101107,0.23801845,-0.06545015,1.1110754,-0.09444964,-0.06655811,-0.8121283,-0.6929068,-0.46181437,-0.4533424,-0.59523165,0.058896404,-0.68163866,-0.18662216,-0.3900242,0.03033726,1.0345706,0.63640493,-0.25848046,-0.3964508,0.9321409,0.5770799,-0.84780353,-0.04919606,0.48107582,-0.784807,-0.58714473,-0.10714,-0.2747741,0.1803333,0.012626981,-0.81829077,-0.68140584,0.5136478,0.009775772,-0.8835651,-0.70515835,0.070674,1.1900802,-0.21939608,-0.10372406,0.23591928,-0.7047566,0.5347523,-0.15312985,0.09498981,0.6645223,0.047154922,-0.65305835,-0.50830346,-0.23459414,-0.059905425,-0.062469903,-0.5552997,0.2856803,0.44120622,-0.58717257,0.07524762,-0.47022143,0.6595777,-0.73737925,1.2067287,-0.8412948,0.29096797,-0.14098671,-0.5361942
CAL-120,0.27655935,0.41556063,-0.5809785,0.29871148,-0.15375027,0.6476461,-0.1569951,0.41207692,-0.28552338,0.33860114,-0.38449058,0.40395558,0.47547656,-0.11625921,-0.63769627,0.14977223,0.22572312,-0.05044285,-0.12224221,0.034103945,-0.15293649,-0.11593794,0.051068857,0.26516443,0.08035087,-0.34726778,-0.081064865,0.17615777,-0.31243744,-0.10265739,0.2979958,0.08085423,-0.19979809,0.048342396,-0.0033413062,-0.21609496,0.15634686,0.7720164,-0.31111145,0.16871172,-0.3077046,-0.31115806,-0.8512888,0.009169216,0.09950497,-0.5965047,0.32938093,0.08994638,-0.37219715,-0.0056878063,0.1772337,0.37475488,-0.18254702,-0.5857287,0.36802667,-0.2967758,-0.36145568,-0.2528245,-0.050596002,-0.3501491,0.15950091,0.2184439,0.34297678,-0.3456975,0.18139188,-0.28434977,-0.1263982,0.39213613,0.2591186,0.018886665,-0.032851633,-0.5109681,0.22491513,-0.19022457,-0.537428,0.43047032,0.08559096,0.08751666,-0.30603346,0.22515753
BEN,0.27655935,0.41556063,-0.5809785,0.29871148,-0.15375027,0.6476461,-0.1569951,0.41207692,-0.28552338,0.33860114,-0.38449058,0.40395558,0.47547656,-0.11625921,-0.63769627,0.14977223,0.22572312,-0.05044285,-0.12224221,0.034103945,-0.15293649,-0.11593794,0.051068857,0.26516443,0.08035087,-0.34726778,-0.081064865,0.17615777,-0.31243744,-0.10265739,0.2979958,0.08085423,-0.19979809,0.048342396,-0.0033413062,-0.21609496,0.15634686,0.7720164,-0.31111145,0.16871172,-0.3077046,-0.31115806,-0.8512888,0.009169216,0.09950497,-0.5965047,0.32938093,0.08994638,-0.37219715,-0.0056878063,0.1772337,0.37475488,-0.18254702,-0.5857287,0.36802667,-0.2967758,-0.36145568,-0.2528245,-0.050596002,-0.3501491,0.15950091,0.2184439,0.34297678,-0.3456975,0.18139188,-0.28434977,-0.1263982,0.39213613,0.2591186,0.018886665,-0.032851633,-0.5109681,0.22491513,-0.19022457,-0.537428,0.43047032,0.08559096,0.08751666,-0.30603346,0.22515753
SK-MEL-30,0.27655935,0.41556063,-0.5809785,0.29871148,-0.15375027,0.6476461,-0.1569951,0.41207692,-0.28552338,0.33860114,-0.38449058,0.40395558,0.47547656,-0.11625921,-0.63769627,0.14977223,0.22572312,-0.05044285,-0.12224221,0.034103945,-0.15293649,-0.11593794,0.051068857,0.26516443,0.08035087,-0.34726778,-0.081064865,0.17615777,-0.31243744,-0.10265739,0.2979958,0.08085423,-0.19979809,0.048342396,-0.0033413062,-0.21609496,0.15634686,0.7720164,-0.31111145,0.16871172,-0.3077046,-0.31115806,-0.8512888,0.009169216,0.09950497,-0.5965047,0.32938093,0.08994638,-0.37219715,-0.0056878063,0.1772337,0.37475488,-0.18254702,-0.5857287,0.36802667,-0.2967758,-0.36145568,-0.2528245,-0.050596002,-0.3501491,0.15950091,0.2184439,0.34297678,-0.3456975,0.18139188,-0.28434977,-0.1263982,0.39213613,0.2591186,0.018886665,-0.032851633,-0.5109681,0.22491513,-0.19022457,-0.537428,0.43047032,0.08559096,0.08751666,-0.30603346,0.22515753
NH-12,-0.26483104,1.2303946,0.55569404,1.1938193,-1.5680838,0.84697497,-3.5468652,0.54796374,1.005023,-0.4168875,-2.2188919,0.6184373,2.6887617,-2.5114164,-1.1076776,1.1992638,2.1120617,0.6725346,2.4112015,0.17492606,-2.0926354,0.0023347992,2.2122514,0.23162004,-0.26284197,0.16333139,-2.3139455,0.94471055,0.4932764,-0.59587175,0.017092917,0.92137074,2.5161343,0.3947691,-0.49635467,-0.6483563,1.0531772,-0.3354919,0.29483065,-0.33167025,0.746662,-0.91806227,1.4214506,-0.5974456,1.7646159,0.06170542,-0.88290536,-0.37881935,-2.680335,0.9231023,1.2922285,0.3938144,0.643925,-2.8717642,-0.41103673,0.2302991,-0.31269157,1.1290257,-1.9825199,-0.10607557,-0.23076117,1.538861,-1.7654976,-2.9859765,-0.60242724,0.2580703,1.1515436,-1.633962,0.14239167,1.4175478,-0.21017729,1.2002393,-0.41222423,0.044761807,-0.19975188,2.4738336,1.0688624,0.6621587,-1.9209126,0.5014701
NCI-H661,0.44487005,1.4760045,-0.22456978,0.9255992,0.49004155,0.76647556,-0.956971,0.33016673,0.6349098,0.4517373,-0.3429422,0.5999325,0.52494526,0.13793132,-0.4857475,1.1411912,0.035791166,0.5204535,0.16147292,-0.1021903,-0.68920934,-0.22777773,0.68331957,0.101095475,-0.57189626,-0.6063718,-1.4880325,-0.08616978,-0.10799805,-0.007261661,1.1885152,1.1185571,-0.21767224,0.34414688,-0.47163454,-0.7261731,0.35627723,1.4977818,-0.093744524,0.37860492,0.06413818,-1.1024016,-1.4475821,-0.21452124,0.26793826,-0.020450566,-0.23539819,0.5137476,-1.285392,0.2607433,-0.17176245,0.49359828,0.4868765,-0.5586384,0.6491637,-0.5418307,-1.4134433,-0.15868442,-0.13741358,-0.023666333,-0.0046919477,0.20114423,-0.81435525,-1.2479708,0.7890293,-0.09008989,-0.811723,0.5188762,0.1837381,0.8738933,-0.2885109,-0.5808546,0.0011583541,-0.8954401,-0.721638,0.89521486,-0.0096692,0.31794125,-1.280424,-0.05287602
EW-11,0.27655935,0.41556063,-0.5809785,0.29871148,-0.15375027,0.6476461,-0.1569951,0.41207692,-0.28552338,0.33860114,-0.38449058,0.40395558,0.47547656,-0.11625921,-0.63769627,0.14977223,0.22572312,-0.05044285,-0.12224221,0.034103945,-0.15293649,-0.11593794,0.051068857,0.26516443,0.08035087,-0.34726778,-0.081064865,0.17615777,-0.31243744,-0.10265739,0.2979958,0.08085423,-0.19979809,0.048342396,-0.0033413062,-0.21609496,0.15634686,0.7720164,-0.31111145,0.16871172,-0.3077046,-0.31115806,-0.8512888,0.009169216,0.09950497,-0.5965047,0.32938093,0.08994638,-0.37219715,-0.0056878063,0.1772337,0.37475488,-0.18254702,-0.5857287,0.36802667,-0.2967758,-0.36145568,-0.2528245,-0.050596002,-0.3501491,0.15950091,0.2184439,0.34297678,-0.3456975,0.18139188,-0.28434977,-0.1263982,0.39213613,0.2591186,0.018886665,-0.032851633,-0.5109681,0.22491513,-0.19022457,-0.537428,0.43047032,0.08559096,0.08751666,-0.30603346,0.22515753
NCI-H1838,0.35261747,1.297563,-0.40551186,0.8214584,0.3215365,0.637108,-0.9128492,0.5184567,0.39743978,0.21978334,-0.3620615,0.5323161,0.5479361,0.11511484,-0.8560789,1.0434133,0.092014484,0.50278884,0.2479557,0.13353354,-0.51469874,-0.19851884,0.5934568,0.2130399,-0.30666485,-0.31762606,-1.3765787,-0.027409911,-0.06733642,-0.1922983,0.8932846,0.892138,-0.051921558,0.32731247,-0.62958467,-0.90283835,0.11991939,1.1816127,-0.2522057,0.4054064,0.18669407,-1.0233837,-1.1251668,-0.37608358,0.28007883,0.10582821,0.00758393,0.46695104,-1.363391,0.061545722,-0.017271804,0.32589084,0.33458832,-0.6105185,0.5557337,-0.3648852,-1.2124275,0.012387464,-0.1473662,-0.12252765,0.07501084,0.2356447,-0.6272123,-1.009853,0.68574136,-0.16492975,-0.676998,0.4218389,0.18092376,0.61697054,-0.23624408,-0.47491172,-0.008309607,-0.82195634,-0.6953391,0.7867972,0.1246686,0.36581463,-1.3583236,-0.14419822
NCI-H2170,0.35261747,1.297563,-0.40551186,0.8214584,0.3215365,0.637108,-0.9128492,0.5184567,0.39743978,0.21978334,-0.3620615,0.5323161,0.5479361,0.11511484,-0.8560789,1.0434133,0.092014484,0.50278884,0.2479557,0.13353354,-0.51469874,-0.19851884,0.5934568,0.2130399,-0.30666485,-0.31762606,-1.3765787,-0.027409911,-0.06733642,-0.1922983,0.8932846,0.892138,-0.051921558,0.32731247,-0.62958467,-0.90283835,0.11991939,1.1816127,-0.2522057,0.4054064,0.18669407,-1.0233837,-1.1251668,-0.37608358,0.28007883,0.10582821,0.00758393,0.46695104,-1.363391,0.061545722,-0.017271804,0.32589084,0.33458832,-0.6105185,0.5557337,-0.3648852,-1.2124275,0.012387464,-0.1473662,-0.12252765,0.07501084,0.2356447,-0.6272123,-1.009853,0.68574136,-0.16492975,-0.676998,0.4218389,0.18092376,0.61697054,-0.23624408,-0.47491172,-0.008309607,-0.82195634,-0.6953391,0.7867972,0.1246686,0.36581463,-1.3583236,-0.14419822
Rh1,0.27655935,0.41556063,-0.5809785,0.29871148,-0.15375027,0.6476461,-0.1569951,0.41207692,-0.28552338,0.33860114,-0.38449058,0.40395558,0.47547656,-0.11625921,-0.63769627,0.14977223,0.22572312,-0.05044285,-0.12224221,0.034103945,-0.15293649,-0.11593794,0.051068857,0.26516443,0.08035087,-0.34726778,-0.081064865,0.17615777,-0.31243744,-0.10265739,0.2979958,0.08085423,-0.19979809,0.048342396,-0.0033413062,-0.21609496,0.15634686,0.7720164,-0.31111145,0.16871172,-0.3077046,-0.31115806,-0.8512888,0.009169216,0.09950497,-0.5965047,0.32938093,0.08994638,-0.37219715,-0.0056878063,0.1772337,0.37475488,-0.18254702,-0.5857287,0.36802667,-0.2967758,-0.36145568,-0.2528245,-0.050596002,-0.3501491,0.15950091,0.2184439,0.34297678,-0.3456975,0.18139188,-0.28434977,-0.1263982,0.39213613,0.2591186,0.018886665,-0.032851633,-0.5109681,0.22491513,-0.19022457,-0.537428,0.43047032,0.08559096,0.08751666,-0.30603346,0.22515753
SCC-15,0.27655935,0.41556063,-0.5809785,0.29871148,-0.15375027,0.6476461,-0.1569951,0.41207692,-0.28552338,0.33860114,-0.38449058,0.40395558,0.47547656,-0.11625921,-0.63769627,0.14977223,0.22572312,-0.05044285,-0.12224221,0.034103945,-0.15293649,-0.11593794,0.051068857,0.26516443,0.08035087,-0.34726778,-0.081064865,0.17615777,-0.31243744,-0.10265739,0.2979958,0.08085423,-0.19979809,0.048342396,-0.0033413062,-0.21609496,0.15634686,0.7720164,-0.31111145,0.16871172,-0.3077046,-0.31115806,-0.8512888,0.009169216,0.09950497,-0.5965047,0.32938093,0.08994638,-0.37219715,-0.0056878063,0.1772337,0.37475488,-0.18254702,-0.5857287,0.36802667,-0.2967758,-0.36145568,-0.2528245,-0.050596002,-0.3501491,0.15950091,0.2184439,0.34297678,-0.3456975,0.18139188,-0.28434977,-0.1263982,0.39213613,0.2591186,0.018886665,-0.032851633,-0.5109681,0.22491513,-0.19022457,-0.537428,0.43047032,0.08559096,0.08751666,-0.30603346,0.22515753
HOP-62,-0.04545851,1.1471515,0.5485882,0.9502834,0.18297859,0.19908611,-0.9559678,-0.35249418,1.036035,-0.043953158,-0.109909706,0.71629757,-0.090489455,0.039452795,0.048880503,1.144494,-0.18145996,1.0356722,0.49820122,0.14132243,-0.6150634,-0.28276455,0.27458507,-0.11934224,-0.81924933,0.064836495,-1.7157086,-0.4778856,0.1925536,-0.061734464,1.3024096,1.3542757,-0.168696,0.06548212,-0.27592412,-0.4808676,-0.046675276,0.73963886,0.4128876,-0.23482856,0.27762848,-0.93438447,-0.51730585,-0.28010356,0.4979856,0.1520949,-0.7403911,0.64127624,-0.8191619,-0.37770754,-0.74476916,0.05078381,0.9945665,-0.38067725,0.23960106,-0.07606074,-1.1265413,0.3209926,-0.1833708,0.07919503,0.16741939,-0.09531787,-1.3741088,-1.1243027,0.7071169,0.088917114,-0.49101648,0.0938533,0.18339702,0.6416465,-0.42876562,-0.30631265,-0.53387547,-0.50321585,-0.6269734,1.038499,-0.5028372,0.5254738,-1.2692814,-0.6896661
SUP-T1,0.23161493,1.180484,-0.393397,0.6457217,0.46371183,0.6728607,-1.0973463,0.509408,0.354885,0.1766522,-0.50680804,0.42980242,0.7311855,-0.061903257,-0.8783959,1.175349,0.018421331,0.5629038,0.48457816,0.1205845,-0.5271204,-0.15580052,0.44714886,0.5433176,-0.3049892,-0.24752745,-1.4724574,0.11937557,0.3025781,-0.1898825,0.98014283,1.0871675,0.11476375,0.47020867,-0.68891513,-0.9591636,0.03470815,0.96788937,-0.21258298,0.6751365,0.31875473,-0.9735251,-0.97551614,-0.26122686,0.44669747,0.025771812,-0.03246472,0.5065575,-1.3319854,0.071144074,-0.15698658,0.44109723,0.13742739,-0.756127,0.6073283,-0.5464972,-1.0580387,-0.26268706,-0.080122575,-0.10546474,-0.07165262,0.2285127,-0.5390506,-1.3475997,0.84229267,-0.066458814,-0.64415485,0.47658893,0.017339006,0.7890859,-0.12605138,-0.40448543,0.15400057,-0.83666164,-0.7368039,0.8338831,0.024813566,0.35827747,-1.5653181,-0.17252123
SW982,0.03608056,0.7778585,0.7479836,0.7032331,-0.18423419,0.319404,-1.6847466,-0.5593105,1.2081583,-0.14502095,-0.30266434,0.45067096,0.19496188,-0.6441653,-0.3938007,1.4157228,0.5407038,1.0112978,0.7043362,0.3986197,-1.4311999,-0.26710308,0.9057619,-0.03745969,-0.949228,-0.17829113,-2.1414874,-0.28943342,0.4732725,0.12130015,1.1759036,1.3337126,0.17916393,0.099403426,-0.39845845,-0.020126736,0.08199607,0.5447102,0.13529584,-0.53311276,0.5994267,-0.57294977,0.103678346,-0.6293999,0.9784894,0.21898617,-1.1556551,0.38261628,-0.99606764,-0.4861862,-0.06628309,0.18666244,1.5249527,-0.94695246,-0.08069729,0.056647714,-0.8881808,0.30922264,-0.5378367,-0.14226167,-0.21561648,0.24963148,-1.4521116,-1.562711,0.52148354,0.4377096,-0.45490465,-0.3063341,-0.2926907,0.84739774,-0.45690057,-0.39982238,-0.43016478,-0.1536687,-0.87657034,1.1966976,-0.59917265,0.38307026,-1.301053,-0.6031937
NCI-H1755,-0.03955715,1.1820683,0.67321837,1.021195,0.07974857,0.19377165,-0.9652412,-0.5177943,1.1449602,0.06061524,0.07805459,0.8905463,-0.33114555,-0.029244484,0.2569191,1.1821405,-0.091121264,1.0681704,0.55781347,0.01624399,-0.79896706,-0.3606238,0.18312067,-0.20353675,-1.0224097,0.031606488,-1.8690137,-0.5297556,0.17526743,-0.030260483,1.5235603,1.5691495,-0.06540663,0.1307593,-0.057247885,-0.2850925,-0.46251372,0.65894,0.51830566,-0.21604773,0.24260126,-0.846736,-0.43490803,-0.29360035,0.399656,0.22477989,-0.79173255,0.6676654,-1.0251143,-0.702679,-0.7991145,0.05257811,1.3628565,-0.2740647,0.19550744,-0.177842,-1.1348273,0.27151543,-0.08138812,0.071833216,0.26078457,-0.03360275,-1.3963544,-1.3626872,0.4507636,0.008772198,-0.554797,-0.17460781,-0.035962697,0.717279,-0.49041837,-0.17034368,-0.5375602,-0.37779808,-0.8101181,1.1760763,-0.65941715,0.40201476,-1.2209898,-0.59275275
CAL-27,0.35261747,1.297563,-0.40551186,0.8214584,0.3215365,0.637108,-0.9128492,0.5184567,0.39743978,0.21978334,-0.3620615,0.5323161,0.5479361,0.11511484,-0.8560789,1.0434133,0.092014484,0.50278884,0.2479557,0.13353354,-0.51469874,-0.19851884,0.5934568,0.2130399,-0.30666485,-0.31762606,-1.3765787,-0.027409911,-0.06733642,-0.1922983,0.8932846,0.892138,-0.051921558,0.32731247,-0.62958467,-0.90283835,0.11991939,1.1816127,-0.2522057,0.4054064,0.18669407,-1.0233837,-1.1251668,-0.37608358,0.28007883,0.10582821,0.00758393,0.46695104,-1.363391,0.061545722,-0.017271804,0.32589084,0.33458832,-0.6105185,0.5557337,-0.3648852,-1.2124275,0.012387464,-0.1473662,-0.12252765,0.07501084,0.2356447,-0.6272123,-1.009853,0.68574136,-0.16492975,-0.676998,0.4218389,0.18092376,0.61697054,-0.23624408,-0.47491172,-0.008309607,-0.82195634,-0.6953391,0.7867972,0.1246686,0.36581463,-1.3583236,-0.14419822
NCI-H1299,0.09938307,1.2495644,-1.0492592,0.7561874,-1.4355131,1.2649472,-3.6797557,1.9862158,0.14185894,-0.38596046,-2.7254758,-0.08290631,3.717232,-2.32977,-2.3554842,1.1110178,2.4032347,-0.4889835,2.3834088,0.27558818,-1.4334433,0.5793036,2.725135,0.95012695,0.4127406,-0.24283287,-1.7133723,1.3074906,0.570863,-0.72886646,-0.7194816,0.36581993,2.5748165,0.83956224,-1.4318368,-1.4415314,2.0573277,0.48572063,-0.4973566,0.6218484,1.0261023,-1.1220803,0.8449356,-0.76860964,1.8514937,0.28349152,0.1278816,-0.8025207,-3.0623083,1.8009795,2.1746206,0.6978952,-0.7287019,-3.2380974,0.060713965,-0.30239564,0.03060953,0.34144902,-1.879986,-0.5512146,-0.7357826,1.71015,-0.76946235,-2.8233702,-0.1864411,0.03362584,1.0876148,-0.68652713,0.11583,0.99522793,0.3441438,0.6140236,0.28291243,-0.8050402,0.00019934961,1.6975752,1.9957479,0.45870748,-2.085959,1.2628219
IGROV-1,0.02490543,0.38896996,-0.39074466,0.40887064,-0.12331058,0.6654712,-0.12590861,0.35071003,0.028180161,0.22922426,-0.44422966,0.53960997,0.6627991,-0.122755535,-0.34196785,0.49078736,-0.040656347,0.15539011,-0.15383373,-0.018883513,-0.27602273,-0.2591381,-0.043296378,0.11911341,-0.23769766,-0.5163096,-0.32153243,0.25584438,-0.16788252,-0.093504004,0.6586015,0.1624371,-0.29272935,0.032038894,0.24107851,-0.15587406,0.21105884,0.8965421,0.02006142,-0.03399702,-0.3449761,-0.28478292,-0.7418722,-0.057500433,0.20694798,-0.46946535,0.06976207,0.16638605,-0.26249316,-0.0055905315,-0.13758625,0.5934636,-0.058395773,-0.47569808,0.36121404,-0.40813252,-0.41804403,-0.40492857,0.07547284,-0.20305367,-0.03438246,0.17398223,0.07829192,-0.6210711,0.21367668,-0.19278699,-0.07911822,0.54902595,0.25392246,0.14757244,-0.033733796,-0.79776603,-0.0035352155,-0.19622959,-0.51794606,0.58242124,-0.041317426,-0.06686636,-0.53664017,0.3460622
NCI-H23,-0.12151678,0.26514918,0.37312168,0.42753658,-0.29230824,0.20962419,-0.2001139,-0.45887387,0.3530717,0.0748646,-0.13233884,0.58793694,-0.16294889,-0.1919213,0.26726308,0.25085324,-0.04775133,0.48244035,0.12800336,0.04189291,-0.25330117,-0.20018364,-0.26780272,-0.06721773,-0.43223366,0.035194788,-0.420195,-0.27431792,-0.052547492,0.02790635,0.70712084,0.542992,-0.31657258,-0.213488,0.35031924,0.20587602,-0.010247913,0.33004248,0.35398155,-0.47152317,-0.21677023,-0.2221591,-0.24342768,0.105149046,0.31741175,-0.550238,-0.4185939,0.2642717,0.17203207,-0.44494125,-0.5502638,0.09964783,0.47743142,-0.35588753,0.051894102,-0.007951127,-0.27556962,0.055780556,-0.08660066,-0.14842644,0.2519096,-0.112518564,-0.4039197,-0.46014717,0.20276737,-0.030502813,0.059583355,0.06415055,0.26159182,0.043562654,-0.22537321,-0.3423691,-0.30065078,0.12851608,-0.4690623,0.682172,-0.5419147,0.24717572,-0.21699128,-0.3203103
NCI-N87,0.27655935,0.41556063,-0.5809785,0.29871148,-0.15375027,0.6476461,-0.1569951,0.41207692,-0.28552338,0.33860114,-0.38449058,0.40395558,0.47547656,-0.11625921,-0.63769627,0.14977223,0.22572312,-0.05044285,-0.12224221,0.034103945,-0.15293649,-0.11593794,0.051068857,0.26516443,0.08035087,-0.34726778,-0.081064865,0.17615777,-0.31243744,-0.10265739,0.2979958,0.08085423,-0.19979809,0.048342396,-0.0033413062,-0.21609496,0.15634686,0.7720164,-0.31111145,0.16871172,-0.3077046,-0.31115806,-0.8512888,0.009169216,0.09950497,-0.5965047,0.32938093,0.08994638,-0.37219715,-0.0056878063,0.1772337,0.37475488,-0.18254702,-0.5857287,0.36802667,-0.2967758,-0.36145568,-0.2528245,-0.050596002,-0.3501491,0.15950091,0.2184439,0.34297678,-0.3456975,0.18139188,-0.28434977,-0.1263982,0.39213613,0.2591186,0.018886665,-0.032851633,-0.5109681,0.22491513,-0.19022457,-0.537428,0.43047032,0.08559096,0.08751666,-0.30603346,0.22515753
MKN1,0.23557422,0.3277084,-0.38222963,0.1372197,0.091982774,0.86757845,-0.5709103,0.42880714,-0.29362974,0.17815427,-0.7021088,0.26715752,1.0018615,-0.22444096,-0.6777786,0.33230975,0.14356127,-0.24821304,-0.104414016,-0.22693282,0.20322102,-0.21789528,0.0006509466,0.86195266,0.23992796,-0.60150534,-0.26329264,0.45857066,0.11788644,-0.011916515,0.5614358,0.23727849,-0.09032627,0.17935903,-0.04026753,-0.29110247,0.3088902,0.7158895,-0.2597009,0.56835717,-0.07949892,-0.34763002,-0.9223043,0.4578274,0.30006498,-0.5757767,-0.014223455,0.36451825,0.11809769,-0.0012440713,0.0011860713,0.6224432,-0.3597408,-0.95969653,0.44263098,-0.4953922,-0.29175112,-0.2570667,-0.27358454,-0.3515306,0.13941205,0.05075663,0.25214055,-0.6306756,0.46428657,0.073609695,0.05052683,0.29923353,0.15122974,-0.1874922,0.39656425,-0.6671523,0.34104222,-0.23384877,-0.5550577,0.4084244,0.0046083257,0.18683541,-0.5982921,0.38762006
NCI-H250,0.25462836,0.9745896,-0.3794318,0.85621774,0.40358254,0.9298679,-0.7020443,0.45048404,0.11459732,0.43431845,-0.53502846,0.44231528,0.6206141,-0.0942368,-0.84846365,0.8539686,0.45210028,0.2918726,0.4515761,0.12426032,-0.79844004,-0.29041478,0.42454764,-0.17371522,-0.117231354,-0.34660634,-1.2568392,0.1731511,-0.20493522,-0.28185987,0.66271526,0.28886393,-0.11447493,0.21926491,-0.42402226,-0.7430966,0.23149016,1.1641188,-0.35459512,0.013522741,-0.24652714,-0.8246268,-0.8799256,-0.41395357,0.34419793,-0.011906674,0.070585154,0.44907662,-1.1780444,-0.06345559,0.10966144,0.37153855,0.31097308,-0.35179225,0.30837637,-0.18945873,-1.0867943,-0.13887063,-0.13892068,-0.19265407,-0.13173385,0.5106974,-0.4806476,-0.87743807,0.3869052,-0.1749885,-0.6854818,0.39564505,0.22957633,0.5803587,-0.35528073,-0.53698546,-0.10053362,-0.5162762,-0.8304177,0.8986872,0.23496817,0.0017307275,-1.0320753,0.11614331
AsPC-1,0.03455886,1.1763779,0.73522234,0.9645282,0.28653622,0.38326576,-1.1853858,-0.32671526,1.0704836,-0.16126868,-0.28278112,0.6820133,0.25264612,0.108289,0.031115187,1.1950958,-0.1900287,0.7777867,0.27940708,-0.1067649,-0.24648407,-0.42744,0.37047493,0.14716828,-0.6613479,-0.25949967,-1.8020575,-0.34225816,0.25296292,0.026590683,1.4789915,1.3156707,-0.22590953,0.053602535,-0.2535198,-0.4995499,0.19107924,0.8972355,0.42467543,-0.1049132,0.37377355,-1.0207151,-0.7379717,0.053697873,0.53192693,0.25287914,-1.0439467,0.8762416,-0.36027262,-0.38286227,-0.7811019,0.18326609,1.0145335,-0.6090366,0.26261073,-0.093065135,-1.2112259,0.5918249,-0.47360298,0.060750637,0.293994,-0.25587323,-1.5531067,-1.0715339,0.83346033,0.34840566,-0.34693488,-0.05379924,0.2390929,0.26315224,-0.10954238,-0.532923,-0.5800587,-0.53213465,-0.60313827,0.96936697,-0.48396474,0.6323297,-1.3545455,-0.4988806
A-388,0.15555684,0.29848182,-0.56886363,0.12297493,-0.011574946,0.6833988,-0.34149247,0.4030282,-0.32807824,0.29546997,-0.52923715,0.30144194,0.6587259,-0.29327726,-0.66001326,0.28170806,0.15213,0.009672168,0.11438019,0.021154894,-0.16535822,-0.073219635,-0.09523899,0.5954421,0.08202661,-0.2771692,-0.17694382,0.32294324,0.05747707,-0.10024159,0.38485387,0.2758836,-0.03311279,0.1912386,-0.06267179,-0.27242017,0.07113563,0.558293,-0.2714887,0.43844184,-0.17564394,-0.26129946,-0.7016383,0.124025814,0.26612362,-0.67656106,0.28933227,0.12955289,-0.34079146,0.003910553,0.03751881,0.4899612,-0.37970784,-0.73133725,0.41962123,-0.47838777,-0.20706658,-0.52789885,0.01664763,-0.33308616,0.012837436,0.21131186,0.43113846,-0.6834444,0.3379433,-0.18587887,-0.09355498,0.4468861,0.09553384,0.19100201,0.07734101,-0.44054183,0.3872253,-0.20492987,-0.5788928,0.4775563,-0.014264049,0.07997949,-0.51302797,0.19683455
COLO 678,-0.055785343,0.7625502,0.7470182,0.83591187,0.10004266,0.5382584,-1.6423271,-0.50249994,1.2001243,-0.28579667,-0.35651293,0.34590578,0.3049247,-0.6845015,-0.4701977,1.4985343,0.22933891,1.1120822,0.6718748,0.49869442,-1.4174402,-0.36117962,0.8232702,-0.07147942,-0.8838113,-0.21357602,-2.1493251,-0.2652479,0.6773356,-0.04267913,1.256225,1.0831085,0.09886801,-0.043485142,-0.689865,-0.107802555,0.6234194,0.86387426,0.16555858,-0.72818977,0.65279967,-0.66434276,-0.09225915,-0.6143379,1.2812676,0.12805799,-1.3415917,0.2877662,-0.6254255,-0.32466424,-0.15000719,0.3710196,1.1290624,-0.9425179,-0.06592384,-0.04242162,-1.131315,0.47406495,-0.5081743,0.10290252,-0.53733844,-0.070722386,-1.5155401,-1.4400855,0.8171489,0.7856466,-0.52106947,-0.15276101,0.09565321,0.87351084,-0.52427816,-0.6368732,-0.6196943,-0.5160315,-0.7210203,1.192158,-0.5884504,0.47382265,-1.3895917,-0.53422177
MN-60,0.4282552,0.89335275,-0.33074644,0.5034964,0.057553697,0.7627405,-1.6323545,0.47694057,0.46063787,0.014147193,-0.7427805,0.092440724,1.0740434,-0.4998061,-1.5067986,1.2769957,0.7238395,0.44591627,0.39447844,0.5159094,-1.1469315,-0.104998134,1.316098,0.37911695,-0.23348331,-0.5275238,-1.6490523,0.2129122,0.23066865,-0.04073764,0.5456279,0.65670097,0.19264911,0.29595658,-0.9707952,-0.6378727,0.6644294,1.067383,-0.6352152,0.08834137,0.54351956,-0.7495972,-0.5865804,-0.71188295,0.8589121,0.10003452,-0.35633895,0.18190186,-1.3343445,0.27803847,0.71555954,0.45997515,0.49668443,-1.2834064,0.27952898,-0.13039558,-0.96578103,0.050094698,-0.6038148,-0.33662254,-0.40139028,0.51887894,-0.6829697,-1.2098769,0.7564613,0.2640077,-0.5771056,0.29011267,-0.075804204,0.7470893,-0.20272623,-0.7043905,0.09908568,-0.5978271,-0.76179135,0.8074187,0.18491296,0.3468701,-1.4383867,-0.15463917
HGC-27,0.047661413,0.87711924,-0.24365242,0.8840716,0.7268049,1.1791607,-0.8533953,0.33294588,0.17293349,0.35497996,-0.54565936,0.40928537,0.6731704,-0.38028833,-0.739139,1.1063622,0.15748096,0.48527035,0.71534944,0.086307436,-0.9810056,-0.41963235,0.10428367,0.038348347,-0.25329927,-0.34502256,-1.5138601,0.29225215,0.35175622,-0.41194937,1.0510455,0.44816297,0.075203896,0.28454968,-0.556083,-0.69132257,0.27186385,1.1888603,-0.17929156,0.106956646,-0.096120685,-0.7785128,-0.84381473,-0.2975317,0.71526533,-0.11020629,-0.20674132,0.42022234,-0.9819489,-0.21730675,-0.16812252,0.6728962,0.08621213,-0.3863533,0.33065075,-0.5719213,-1.1838256,-0.29858002,0.059967913,0.062211096,-0.5067543,0.24492648,-0.4781603,-1.3309437,0.58276844,0.19127436,-0.78258383,0.3355069,0.23497583,0.85421944,-0.37411824,-0.567641,-0.13143761,-0.7679264,-0.8994772,1.0788113,-0.010744603,-0.038513068,-1.279317,0.25370553
A101D,-0.039907746,1.5575905,0.5597109,1.1180472,0.4165422,0.6753471,-2.0750039,-0.30028474,1.438742,-0.37121353,-0.48109838,0.32828772,0.56727433,-0.67252547,-0.9997796,2.2957902,0.76803875,1.2813332,1.666547,0.7021293,-2.036441,-0.4336379,1.4090848,-0.24450806,-0.7803972,0.14828041,-3.5772579,-0.20003048,0.70004535,-0.16024765,1.390394,1.7799418,0.6108788,0.6570592,-1.1988506,-0.7518479,-0.13088585,0.61883104,0.31828883,-0.06105641,0.9274058,-1.1709117,0.070433505,-1.1438156,1.2253025,0.8437783,-1.4110533,0.72683823,-2.3246467,-0.61712915,-0.35519403,0.20870994,1.9973036,-0.8530009,-0.0015466721,0.039262984,-1.6699247,0.46175778,-0.63658226,-0.12233818,-0.6326154,0.4459985,-2.2636025,-2.2478797,0.7136047,0.7062007,-0.97981393,-0.29196227,-0.46124375,1.2695131,-0.91818357,-0.12174363,-0.80417997,-0.9432155,-0.99089044,1.4822319,-0.41882825,0.24909297,-2.5403569,-0.72160393
SW620,-0.20748127,0.28475785,0.49678633,0.63112694,-0.1112613,0.42316404,-0.16696756,-0.56736344,0.45396262,0.038657226,0.0017769225,0.6574205,-0.29364216,-0.3009547,0.3989048,0.371311,-0.26877758,0.61572295,0.15515423,0.016889038,-0.4234451,-0.3721197,-0.4417588,-0.18543194,-0.56997716,-0.033320073,-0.5813372,-0.3020023,0.13422939,-0.10459888,1.008593,0.50726163,-0.29357907,-0.2910994,0.27758887,0.31397533,0.11533692,0.56850773,0.48966244,-0.64781946,-0.19842452,-0.22590365,-0.35696745,0.106714144,0.5218605,-0.56848127,-0.6558718,0.19581077,0.33672178,-0.6083906,-0.6883329,0.28579924,0.44983125,-0.24484012,0.02257394,-0.20880193,-0.5269896,0.17114559,0.045044415,0.08937586,0.023552744,-0.37115744,-0.4895939,-0.5759062,0.24207944,0.23728918,-0.07036198,-0.05073759,0.43057606,0.14530805,-0.3544035,-0.44345084,-0.49386472,-0.10842898,-0.49665695,0.8152098,-0.6877725,0.21446912,-0.25723848,-0.1544251
CAMA-1,0.25462836,0.9745896,-0.3794318,0.85621774,0.40358254,0.9298679,-0.7020443,0.45048404,0.11459732,0.43431845,-0.53502846,0.44231528,0.6206141,-0.0942368,-0.84846365,0.8539686,0.45210028,0.2918726,0.4515761,0.12426032,-0.79844004,-0.29041478,0.42454764,-0.17371522,-0.117231354,-0.34660634,-1.2568392,0.1731511,-0.20493522,-0.28185987,0.66271526,0.28886393,-0.11447493,0.21926491,-0.42402226,-0.7430966,0.23149016,1.1641188,-0.35459512,0.013522741,-0.24652714,-0.8246268,-0.8799256,-0.41395357,0.34419793,-0.011906674,0.070585154,0.44907662,-1.1780444,-0.06345559,0.10966144,0.37153855,0.31097308,-0.35179225,0.30837637,-0.18945873,-1.0867943,-0.13887063,-0.13892068,-0.19265407,-0.13173385,0.5106974,-0.4806476,-0.87743807,0.3869052,-0.1749885,-0.6854818,0.39564505,0.22957633,0.5803587,-0.35528073,-0.53698546,-0.10053362,-0.5162762,-0.8304177,0.8986872,0.23496817,0.0017307275,-1.0320753,0.11614331
D-392MG,0.35226718,1.6730851,-0.51901895,0.9183106,0.6583301,1.1186837,-2.0226116,0.7359661,0.6912217,-0.21204537,-0.92121446,-0.029942788,1.4463555,-0.52816623,-2.1127775,2.157062,0.9511745,0.7159515,1.3566895,0.81941885,-1.7521728,-0.27153283,1.8194208,0.17206869,-0.0646525,-0.20095216,-3.0848227,0.30231518,0.45744154,-0.32228544,0.76011825,1.1029305,0.6243639,0.8536124,-1.7711877,-1.3695941,0.45154744,1.1415038,-0.45222226,0.56039774,0.8714988,-1.3475593,-0.61982536,-1.2262989,1.1057249,0.7248266,-0.6117371,0.52612364,-2.6629236,0.14709564,0.42664865,0.48202252,0.96903515,-1.1894546,0.35867947,-0.14778031,-1.7475249,0.20262983,-0.7025605,-0.31669903,-0.8183891,0.7152458,-1.4944602,-1.8950454,0.9485825,0.53249884,-1.1020153,0.30448452,-0.24435723,1.1692041,-0.66400903,-0.42631176,-0.27492937,-1.3873742,-0.8761115,1.0929527,0.36525747,0.21289288,-2.67769,-0.2730491
Caov-4,0.27655935,0.41556063,-0.5809785,0.29871148,-0.15375027,0.6476461,-0.1569951,0.41207692,-0.28552338,0.33860114,-0.38449058,0.40395558,0.47547656,-0.11625921,-0.63769627,0.14977223,0.22572312,-0.05044285,-0.12224221,0.034103945,-0.15293649,-0.11593794,0.051068857,0.26516443,0.08035087,-0.34726778,-0.081064865,0.17615777,-0.31243744,-0.10265739,0.2979958,0.08085423,-0.19979809,0.048342396,-0.0033413062,-0.21609496,0.15634686,0.7720164,-0.31111145,0.16871172,-0.3077046,-0.31115806,-0.8512888,0.009169216,0.09950497,-0.5965047,0.32938093,0.08994638,-0.37219715,-0.0056878063,0.1772337,0.37475488,-0.18254702,-0.5857287,0.36802667,-0.2967758,-0.36145568,-0.2528245,-0.050596002,-0.3501491,0.15950091,0.2184439,0.34297678,-0.3456975,0.18139188,-0.28434977,-0.1263982,0.39213613,0.2591186,0.018886665,-0.032851633,-0.5109681,0.22491513,-0.19022457,-0.537428,0.43047032,0.08559096,0.08751666,-0.30603346,0.22515753
CCRF-CEM,-0.09289758,1.952552,0.55891234,1.5097767,0.8325809,0.87300634,-1.8351563,0.031180289,1.4173727,-0.39359775,-0.539287,0.4220893,0.7218715,0.03107803,-0.5834444,2.2136807,0.12495909,0.9947117,1.2923136,0.24730195,-0.98355764,-0.5465114,0.98533493,-0.15273331,-0.47813278,-0.14818859,-3.3464587,-0.17930335,0.6116061,-0.2656564,1.7713033,1.7454382,0.3421868,0.52119035,-1.2063074,-1.3589591,0.10653262,1.1690245,0.5127148,0.2835017,0.78547424,-1.6947352,-0.7719024,-0.5576509,0.9275716,0.90029407,-1.3805696,1.3287503,-1.7054487,-0.4040121,-0.9371428,0.25117224,1.609708,-0.58964485,0.24638236,-0.035753082,-2.0595198,0.80621964,-0.6220124,0.22287463,-0.21373676,-0.048905592,-2.607595,-1.8794116,1.0755101,0.57478464,-0.9660655,-0.0039936583,0.07098044,0.8081919,-0.558533,-0.3298744,-1.0421096,-1.4124367,-0.8004355,1.3802805,-0.21191151,0.62660193,-2.7051687,-0.5837679
LXF 289,0.35261747,1.297563,-0.40551186,0.8214584,0.3215365,0.637108,-0.9128492,0.5184567,0.39743978,0.21978334,-0.3620615,0.5323161,0.5479361,0.11511484,-0.8560789,1.0434133,0.092014484,0.50278884,0.2479557,0.13353354,-0.51469874,-0.19851884,0.5934568,0.2130399,-0.30666485,-0.31762606,-1.3765787,-0.027409911,-0.06733642,-0.1922983,0.8932846,0.892138,-0.051921558,0.32731247,-0.62958467,-0.90283835,0.11991939,1.1816127,-0.2522057,0.4054064,0.18669407,-1.0233837,-1.1251668,-0.37608358,0.28007883,0.10582821,0.00758393,0.46695104,-1.363391,0.061545722,-0.017271804,0.32589084,0.33458832,-0.6105185,0.5557337,-0.3648852,-1.2124275,0.012387464,-0.1473662,-0.12252765,0.07501084,0.2356447,-0.6272123,-1.009853,0.68574136,-0.16492975,-0.676998,0.4218389,0.18092376,0.61697054,-0.23624408,-0.47491172,-0.008309607,-0.82195634,-0.6953391,0.7867972,0.1246686,0.36581463,-1.3583236,-0.14419822
NCI-H1618,0.27655935,0.41556063,-0.5809785,0.29871148,-0.15375027,0.6476461,-0.1569951,0.41207692,-0.28552338,0.33860114,-0.38449058,0.40395558,0.47547656,-0.11625921,-0.63769627,0.14977223,0.22572312,-0.05044285,-0.12224221,0.034103945,-0.15293649,-0.11593794,0.051068857,0.26516443,0.08035087,-0.34726778,-0.081064865,0.17615777,-0.31243744,-0.10265739,0.2979958,0.08085423,-0.19979809,0.048342396,-0.0033413062,-0.21609496,0.15634686,0.7720164,-0.31111145,0.16871172,-0.3077046,-0.31115806,-0.8512888,0.009169216,0.09950497,-0.5965047,0.32938093,0.08994638,-0.37219715,-0.0056878063,0.1772337,0.37475488,-0.18254702,-0.5857287,0.36802667,-0.2967758,-0.36145568,-0.2528245,-0.050596002,-0.3501491,0.15950091,0.2184439,0.34297678,-0.3456975,0.18139188,-0.28434977,-0.1263982,0.39213613,0.2591186,0.018886665,-0.032851633,-0.5109681,0.22491513,-0.19022457,-0.537428,0.43047032,0.08559096,0.08751666,-0.30603346,0.22515753
BC-3,0.35226718,1.6730851,-0.51901895,0.9183106,0.6583301,1.1186837,-2.0226116,0.7359661,0.6912217,-0.21204537,-0.92121446,-0.029942788,1.4463555,-0.52816623,-2.1127775,2.157062,0.9511745,0.7159515,1.3566895,0.81941885,-1.7521728,-0.27153283,1.8194208,0.17206869,-0.0646525,-0.20095216,-3.0848227,0.30231518,0.45744154,-0.32228544,0.76011825,1.1029305,0.6243639,0.8536124,-1.7711877,-1.3695941,0.45154744,1.1415038,-0.45222226,0.56039774,0.8714988,-1.3475593,-0.61982536,-1.2262989,1.1057249,0.7248266,-0.6117371,0.52612364,-2.6629236,0.14709564,0.42664865,0.48202252,0.96903515,-1.1894546,0.35867947,-0.14778031,-1.7475249,0.20262983,-0.7025605,-0.31669903,-0.8183891,0.7152458,-1.4944602,-1.8950454,0.9485825,0.53249884,-1.1020153,0.30448452,-0.24435723,1.1692041,-0.66400903,-0.42631176,-0.27492937,-1.3873742,-0.8761115,1.0929527,0.36525747,0.21289288,-2.67769,-0.2730491
MC/CAR,0.09938307,1.2495644,-1.0492592,0.7561874,-1.4355131,1.2649472,-3.6797557,1.9862158,0.14185894,-0.38596046,-2.7254758,-0.08290631,3.717232,-2.32977,-2.3554842,1.1110178,2.4032347,-0.4889835,2.3834088,0.27558818,-1.4334433,0.5793036,2.725135,0.95012695,0.4127406,-0.24283287,-1.7133723,1.3074906,0.570863,-0.72886646,-0.7194816,0.36581993,2.5748165,0.83956224,-1.4318368,-1.4415314,2.0573277,0.48572063,-0.4973566,0.6218484,1.0261023,-1.1220803,0.8449356,-0.76860964,1.8514937,0.28349152,0.1278816,-0.8025207,-3.0623083,1.8009795,2.1746206,0.6978952,-0.7287019,-3.2380974,0.060713965,-0.30239564,0.03060953,0.34144902,-1.879986,-0.5512146,-0.7357826,1.71015,-0.76946235,-2.8233702,-0.1864411,0.03362584,1.0876148,-0.68652713,0.11583,0.99522793,0.3441438,0.6140236,0.28291243,-0.8050402,0.00019934961,1.6975752,1.9957479,0.45870748,-2.085959,1.2628219
LNCaP clone FGC,0.327516,1.2264332,-0.16133769,1.2590332,-0.5403092,1.2956362,-2.6543267,0.25609356,0.69552684,-0.08948372,-1.1453052,-0.09861312,1.8514692,-0.8373468,-2.1464813,1.4948788,1.577515,0.07602648,1.1931845,0.28414717,-1.8121799,-0.10086977,1.5733525,0.2016576,0.009565392,-0.9237614,-2.3120418,0.78723586,0.34122437,-0.69414383,-0.010678556,0.6351006,0.74742365,0.3214814,-1.3114042,-0.8667179,1.7129084,0.6821037,-0.25775898,-0.20100474,0.54635024,-1.0467234,-0.3239097,-1.4551724,1.7060448,0.07542433,-0.096891925,-0.20185153,-1.9239348,0.019004105,1.2033156,0.45732763,0.6576918,-1.709683,0.031670325,0.22060975,-0.998781,0.5007457,-1.1876119,-0.44107488,-0.35724798,1.1178796,-1.6072974,-1.9588945,0.44601905,0.5209052,-0.45019463,-0.61271614,-0.09588769,0.45373702,-0.7399939,-0.40773875,-0.1136771,-0.5378999,-0.81617093,1.588508,0.82892185,0.30898464,-1.8158342,0.61018914
SK-PN-DW,0.25462836,0.9745896,-0.3794318,0.85621774,0.40358254,0.9298679,-0.7020443,0.45048404,0.11459732,0.43431845,-0.53502846,0.44231528,0.6206141,-0.0942368,-0.84846365,0.8539686,0.45210028,0.2918726,0.4515761,0.12426032,-0.79844004,-0.29041478,0.42454764,-0.17371522,-0.117231354,-0.34660634,-1.2568392,0.1731511,-0.20493522,-0.28185987,0.66271526,0.28886393,-0.11447493,0.21926491,-0.42402226,-0.7430966,0.23149016,1.1641188,-0.35459512,0.013522741,-0.24652714,-0.8246268,-0.8799256,-0.41395357,0.34419793,-0.011906674,0.070585154,0.44907662,-1.1780444,-0.06345559,0.10966144,0.37153855,0.31097308,-0.35179225,0.30837637,-0.18945873,-1.0867943,-0.13887063,-0.13892068,-0.19265407,-0.13173385,0.5106974,-0.4806476,-0.87743807,0.3869052,-0.1749885,-0.6854818,0.39564505,0.22957633,0.5803587,-0.35528073,-0.53698546,-0.10053362,-0.5162762,-0.8304177,0.8986872,0.23496817,0.0017307275,-1.0320753,0.11614331
DoHH2,0.4282552,0.89335275,-0.33074644,0.5034964,0.057553697,0.7627405,-1.6323545,0.47694057,0.46063787,0.014147193,-0.7427805,0.092440724,1.0740434,-0.4998061,-1.5067986,1.2769957,0.7238395,0.44591627,0.39447844,0.5159094,-1.1469315,-0.104998134,1.316098,0.37911695,-0.23348331,-0.5275238,-1.6490523,0.2129122,0.23066865,-0.04073764,0.5456279,0.65670097,0.19264911,0.29595658,-0.9707952,-0.6378727,0.6644294,1.067383,-0.6352152,0.08834137,0.54351956,-0.7495972,-0.5865804,-0.71188295,0.8589121,0.10003452,-0.35633895,0.18190186,-1.3343445,0.27803847,0.71555954,0.45997515,0.49668443,-1.2834064,0.27952898,-0.13039558,-0.96578103,0.050094698,-0.6038148,-0.33662254,-0.40139028,0.51887894,-0.6829697,-1.2098769,0.7564613,0.2640077,-0.5771056,0.29011267,-0.075804204,0.7470893,-0.20272623,-0.7043905,0.09908568,-0.5978271,-0.76179135,0.8074187,0.18491296,0.3468701,-1.4383867,-0.15463917
CAL-12T,-0.03955715,1.1820683,0.67321837,1.021195,0.07974857,0.19377165,-0.9652412,-0.5177943,1.1449602,0.06061524,0.07805459,0.8905463,-0.33114555,-0.029244484,0.2569191,1.1821405,-0.091121264,1.0681704,0.55781347,0.01624399,-0.79896706,-0.3606238,0.18312067,-0.20353675,-1.0224097,0.031606488,-1.8690137,-0.5297556,0.17526743,-0.030260483,1.5235603,1.5691495,-0.06540663,0.1307593,-0.057247885,-0.2850925,-0.46251372,0.65894,0.51830566,-0.21604773,0.24260126,-0.846736,-0.43490803,-0.29360035,0.399656,0.22477989,-0.79173255,0.6676654,-1.0251143,-0.702679,-0.7991145,0.05257811,1.3628565,-0.2740647,0.19550744,-0.177842,-1.1348273,0.27151543,-0.08138812,0.071833216,0.26078457,-0.03360275,-1.3963544,-1.3626872,0.4507636,0.008772198,-0.554797,-0.17460781,-0.035962697,0.717279,-0.49041837,-0.17034368,-0.5375602,-0.37779808,-0.8101181,1.1760763,-0.65941715,0.40201476,-1.2209898,-0.59275275
COLO 320HSR,0.19059485,0.43516937,-0.45731387,0.50230193,0.02729661,0.86118597,-0.123848744,0.30358735,-0.18463239,0.30239376,-0.25037485,0.47343898,0.3447835,-0.2252927,-0.5060546,0.27022997,0.004696956,0.082839675,-0.09509136,0.009100093,-0.32308036,-0.2878739,-0.122887164,0.14695019,-0.05739294,-0.41578266,-0.24220723,0.14847338,-0.12566054,-0.23516268,0.59946805,0.045123864,-0.1768046,-0.029269008,-0.07607157,-0.10799554,0.28193182,1.0104815,-0.17543061,-0.00758453,-0.28935888,-0.31490266,-0.96482855,0.01073433,0.30395368,-0.6147478,0.092103146,0.021485502,-0.20750736,-0.16913727,0.039164346,0.56090623,-0.21014714,-0.4746813,0.33870643,-0.49762627,-0.6128757,-0.13745935,0.08104888,-0.11234682,-0.068856,-0.04019511,0.2573026,-0.46145645,0.22070383,-0.016557848,-0.2563435,0.277248,0.42810282,0.12063206,-0.16188185,-0.61204994,0.031701155,-0.4271695,-0.56502265,0.5635082,-0.060266666,0.05480995,-0.34628066,0.3910428
Ca9-22,0.27655935,0.41556063,-0.5809785,0.29871148,-0.15375027,0.6476461,-0.1569951,0.41207692,-0.28552338,0.33860114,-0.38449058,0.40395558,0.47547656,-0.11625921,-0.63769627,0.14977223,0.22572312,-0.05044285,-0.12224221,0.034103945,-0.15293649,-0.11593794,0.051068857,0.26516443,0.08035087,-0.34726778,-0.081064865,0.17615777,-0.31243744,-0.10265739,0.2979958,0.08085423,-0.19979809,0.048342396,-0.0033413062,-0.21609496,0.15634686,0.7720164,-0.31111145,0.16871172,-0.3077046,-0.31115806,-0.8512888,0.009169216,0.09950497,-0.5965047,0.32938093,0.08994638,-0.37219715,-0.0056878063,0.1772337,0.37475488,-0.18254702,-0.5857287,0.36802667,-0.2967758,-0.36145568,-0.2528245,-0.050596002,-0.3501491,0.15950091,0.2184439,0.34297678,-0.3456975,0.18139188,-0.28434977,-0.1263982,0.39213613,0.2591186,0.018886665,-0.032851633,-0.5109681,0.22491513,-0.19022457,-0.537428,0.43047032,0.08559096,0.08751666,-0.30603346,0.22515753
D-263MG,0.22516118,2.0737374,-0.58182174,1.3667071,0.86758125,1.1268488,-1.5626197,0.87635237,0.7443286,-0.012545603,-0.61856735,0.2723923,1.0171615,0.037903808,-1.4706383,2.061998,0.40700224,0.71971375,1.2608622,0.48760068,-1.2517724,-0.31758997,1.2083168,-0.08686174,-0.12344985,-0.20631501,-2.9209795,0.13554488,0.29130664,-0.4845454,1.1855965,1.3219056,0.5161748,0.7949005,-1.5823724,-1.7622476,0.03537274,1.4534018,-0.16416599,0.7938214,0.5983948,-1.6974037,-1.1590976,-0.9874325,0.67572343,0.75324327,-0.32903895,0.9194592,-2.7085671,0.040395904,-0.17331265,0.3937971,0.9297626,-0.59112686,0.5395051,-0.30757317,-2.0607216,0.22678232,-0.29577544,0.039596356,-0.43272007,0.44261217,-1.6817007,-1.8177307,0.9277913,0.06144922,-1.2961291,0.47164437,0.012811303,1.16201,-0.6852346,-0.27186304,-0.47036046,-1.7022588,-0.89263624,1.1977109,0.39672187,0.36008683,-2.7089465,-0.22908542
MCF-7,0.30725268,0.7762739,-0.3186316,0.32775977,0.19972897,0.7984932,-1.8168517,0.46789184,0.41808307,-0.028983938,-0.8875272,-0.010072837,1.2572926,-0.6768242,-1.5291156,1.4089314,0.6502463,0.50603133,0.6311009,0.5029603,-1.159353,-0.06227983,1.1697901,0.7093946,-0.23180756,-0.45742518,-1.744931,0.35969767,0.6005834,-0.03832182,0.632486,0.8517305,0.35933438,0.43885282,-1.0301255,-0.694198,0.5792182,0.8536596,-0.59559256,0.35807148,0.6755802,-0.6997386,-0.43692994,-0.5970262,1.0255307,0.019978128,-0.39638773,0.2215084,-1.3029388,0.28763682,0.57584476,0.5751815,0.29952338,-1.4290149,0.3311236,-0.31200755,-0.811392,-0.22497983,-0.536571,-0.3195596,-0.54805374,0.51174694,-0.5948081,-1.5476236,0.9130127,0.36247867,-0.54426247,0.3448626,-0.23938897,0.91920465,-0.09253359,-0.63396436,0.26139593,-0.6125323,-0.80325615,0.8545046,0.08505796,0.33933294,-1.6453812,-0.18296218
MV4-11,0.09938307,1.2495644,-1.0492592,0.7561874,-1.4355131,1.2649472,-3.6797557,1.9862158,0.14185894,-0.38596046,-2.7254758,-0.08290631,3.717232,-2.32977,-2.3554842,1.1110178,2.4032347,-0.4889835,2.3834088,0.27558818,-1.4334433,0.5793036,2.725135,0.95012695,0.4127406,-0.24283287,-1.7133723,1.3074906,0.570863,-0.72886646,-0.7194816,0.36581993,2.5748165,0.83956224,-1.4318368,-1.4415314,2.0573277,0.48572063,-0.4973566,0.6218484,1.0261023,-1.1220803,0.8449356,-0.76860964,1.8514937,0.28349152,0.1278816,-0.8025207,-3.0623083,1.8009795,2.1746206,0.6978952,-0.7287019,-3.2380974,0.060713965,-0.30239564,0.03060953,0.34144902,-1.879986,-0.5512146,-0.7357826,1.71015,-0.76946235,-2.8233702,-0.1864411,0.03362584,1.0876148,-0.68652713,0.11583,0.99522793,0.3441438,0.6140236,0.28291243,-0.8050402,0.00019934961,1.6975752,1.9957479,0.45870748,-2.085959,1.2628219
KALS-1,-0.109585576,0.95541996,1.2255213,1.2938496,0.2710119,0.511896,-0.5691539,-0.98776853,0.9777614,0.40339145,-0.028445205,1.1436588,-0.40785703,-0.2758832,0.39934325,0.9422147,0.16092703,1.453391,0.4793687,0.023598198,-1.4576323,-0.86738366,-0.088335514,-0.89222205,-0.7928138,0.059557732,-1.8574129,-0.18962882,-0.28252196,-0.14886525,1.39929,0.8444148,-0.17315727,-0.22552821,0.5114601,0.050077975,-0.77266026,0.3429065,0.43759212,-0.9399958,-0.5259672,-0.6206088,-0.30341086,-0.24278934,0.25732002,-0.23369285,-0.94020194,0.87277794,-0.79607147,-0.94133276,-0.7727306,0.067457765,1.6836004,0.014540415,-0.1633743,0.3432363,-1.4300953,0.6487064,-0.24145445,0.25248483,0.37328738,0.33940834,-1.476683,-1.040044,-0.029080989,0.049455866,-0.6215531,-0.5517907,0.25613806,1.0026784,-0.9096017,0.049230367,-0.79567033,0.33352602,-1.0303692,1.6749456,-0.6919177,0.205182,-0.8670284,-0.6452085
Kasumi-1,0.27655935,0.41556063,-0.5809785,0.29871148,-0.15375027,0.6476461,-0.1569951,0.41207692,-0.28552338,0.33860114,-0.38449058,0.40395558,0.47547656,-0.11625921,-0.63769627,0.14977223,0.22572312,-0.05044285,-0.12224221,0.034103945,-0.15293649,-0.11593794,0.051068857,0.26516443,0.08035087,-0.34726778,-0.081064865,0.17615777,-0.31243744,-0.10265739,0.2979958,0.08085423,-0.19979809,0.048342396,-0.0033413062,-0.21609496,0.15634686,0.7720164,-0.31111145,0.16871172,-0.3077046,-0.31115806,-0.8512888,0.009169216,0.09950497,-0.5965047,0.32938093,0.08994638,-0.37219715,-0.0056878063,0.1772337,0.37475488,-0.18254702,-0.5857287,0.36802667,-0.2967758,-0.36145568,-0.2528245,-0.050596002,-0.3501491,0.15950091,0.2184439,0.34297678,-0.3456975,0.18139188,-0.28434977,-0.1263982,0.39213613,0.2591186,0.018886665,-0.032851633,-0.5109681,0.22491513,-0.19022457,-0.537428,0.43047032,0.08559096,0.08751666,-0.30603346,0.22515753
NCI-H2107,0.09938307,1.2495644,-1.0492592,0.7561874,-1.4355131,1.2649472,-3.6797557,1.9862158,0.14185894,-0.38596046,-2.7254758,-0.08290631,3.717232,-2.32977,-2.3554842,1.1110178,2.4032347,-0.4889835,2.3834088,0.27558818,-1.4334433,0.5793036,2.725135,0.95012695,0.4127406,-0.24283287,-1.7133723,1.3074906,0.570863,-0.72886646,-0.7194816,0.36581993,2.5748165,0.83956224,-1.4318368,-1.4415314,2.0573277,0.48572063,-0.4973566,0.6218484,1.0261023,-1.1220803,0.8449356,-0.76860964,1.8514937,0.28349152,0.1278816,-0.8025207,-3.0623083,1.8009795,2.1746206,0.6978952,-0.7287019,-3.2380974,0.060713965,-0.30239564,0.03060953,0.34144902,-1.879986,-0.5512146,-0.7357826,1.71015,-0.76946235,-2.8233702,-0.1864411,0.03362584,1.0876148,-0.68652713,0.11583,0.99522793,0.3441438,0.6140236,0.28291243,-0.8050402,0.00019934961,1.6975752,1.9957479,0.45870748,-2.085959,1.2628219
A-498,0.4282552,0.89335275,-0.33074644,0.5034964,0.057553697,0.7627405,-1.6323545,0.47694057,0.46063787,0.014147193,-0.7427805,0.092440724,1.0740434,-0.4998061,-1.5067986,1.2769957,0.7238395,0.44591627,0.39447844,0.5159094,-1.1469315,-0.104998134,1.316098,0.37911695,-0.23348331,-0.5275238,-1.6490523,0.2129122,0.23066865,-0.04073764,0.5456279,0.65670097,0.19264911,0.29595658,-0.9707952,-0.6378727,0.6644294,1.067383,-0.6352152,0.08834137,0.54351956,-0.7495972,-0.5865804,-0.71188295,0.8589121,0.10003452,-0.35633895,0.18190186,-1.3343445,0.27803847,0.71555954,0.45997515,0.49668443,-1.2834064,0.27952898,-0.13039558,-0.96578103,0.050094698,-0.6038148,-0.33662254,-0.40139028,0.51887894,-0.6829697,-1.2098769,0.7564613,0.2640077,-0.5771056,0.29011267,-0.075804204,0.7470893,-0.20272623,-0.7043905,0.09908568,-0.5978271,-0.76179135,0.8074187,0.18491296,0.3468701,-1.4383867,-0.15463917
DOK,0.27655935,0.41556063,-0.5809785,0.29871148,-0.15375027,0.6476461,-0.1569951,0.41207692,-0.28552338,0.33860114,-0.38449058,0.40395558,0.47547656,-0.11625921,-0.63769627,0.14977223,0.22572312,-0.05044285,-0.12224221,0.034103945,-0.15293649,-0.11593794,0.051068857,0.26516443,0.08035087,-0.34726778,-0.081064865,0.17615777,-0.31243744,-0.10265739,0.2979958,0.08085423,-0.19979809,0.048342396,-0.0033413062,-0.21609496,0.15634686,0.7720164,-0.31111145,0.16871172,-0.3077046,-0.31115806,-0.8512888,0.009169216,0.09950497,-0.5965047,0.32938093,0.08994638,-0.37219715,-0.0056878063,0.1772337,0.37475488,-0.18254702,-0.5857287,0.36802667,-0.2967758,-0.36145568,-0.2528245,-0.050596002,-0.3501491,0.15950091,0.2184439,0.34297678,-0.3456975,0.18139188,-0.28434977,-0.1263982,0.39213613,0.2591186,0.018886665,-0.032851633,-0.5109681,0.22491513,-0.19022457,-0.537428,0.43047032,0.08559096,0.08751666,-0.30603346,0.22515753
NCI-H2087,-0.11561538,0.3000662,0.49775165,0.4984482,-0.3955382,0.20430969,-0.20938726,-0.6241739,0.46199667,0.17943296,0.05562545,0.7621857,-0.403605,-0.26061857,0.47530168,0.2884995,0.042587392,0.5149387,0.18761545,-0.083185695,-0.43720508,-0.27804288,-0.35926718,-0.15141223,-0.63539386,0.0019648427,-0.57350004,-0.32618782,-0.06983365,0.059380297,0.9282714,0.7578656,-0.2132831,-0.14821084,0.5689956,0.40165114,-0.42608657,0.24934345,0.45939973,-0.45274234,-0.2517975,-0.13451067,-0.16102996,0.09165231,0.21908219,-0.477553,-0.46993533,0.29066086,-0.03392034,-0.7699126,-0.604609,0.10144209,0.84572124,-0.24927486,0.0078004836,-0.10973252,-0.28385547,0.006303395,0.015382053,-0.15578826,0.34527487,-0.050803475,-0.42616537,-0.6985321,-0.05358596,-0.11064786,-0.004197147,-0.2043106,0.042232107,0.11919516,-0.28702596,-0.20640008,-0.30433547,0.25393382,-0.65220696,0.8197493,-0.6984946,0.123716675,-0.16869971,-0.223397
PC-14,0.27655935,0.41556063,-0.5809785,0.29871148,-0.15375027,0.6476461,-0.1569951,0.41207692,-0.28552338,0.33860114,-0.38449058,0.40395558,0.47547656,-0.11625921,-0.63769627,0.14977223,0.22572312,-0.05044285,-0.12224221,0.034103945,-0.15293649,-0.11593794,0.051068857,0.26516443,0.08035087,-0.34726778,-0.081064865,0.17615777,-0.31243744,-0.10265739,0.2979958,0.08085423,-0.19979809,0.048342396,-0.0033413062,-0.21609496,0.15634686,0.7720164,-0.31111145,0.16871172,-0.3077046,-0.31115806,-0.8512888,0.009169216,0.09950497,-0.5965047,0.32938093,0.08994638,-0.37219715,-0.0056878063,0.1772337,0.37475488,-0.18254702,-0.5857287,0.36802667,-0.2967758,-0.36145568,-0.2528245,-0.050596002,-0.3501491,0.15950091,0.2184439,0.34297678,-0.3456975,0.18139188,-0.28434977,-0.1263982,0.39213613,0.2591186,0.018886665,-0.032851633,-0.5109681,0.22491513,-0.19022457,-0.537428,0.43047032,0.08559096,0.08751666,-0.30603346,0.22515753
HTC-C3,-0.03955715,1.1820683,0.67321837,1.021195,0.07974857,0.19377165,-0.9652412,-0.5177943,1.1449602,0.06061524,0.07805459,0.8905463,-0.33114555,-0.029244484,0.2569191,1.1821405,-0.091121264,1.0681704,0.55781347,0.01624399,-0.79896706,-0.3606238,0.18312067,-0.20353675,-1.0224097,0.031606488,-1.8690137,-0.5297556,0.17526743,-0.030260483,1.5235603,1.5691495,-0.06540663,0.1307593,-0.057247885,-0.2850925,-0.46251372,0.65894,0.51830566,-0.21604773,0.24260126,-0.846736,-0.43490803,-0.29360035,0.399656,0.22477989,-0.79173255,0.6676654,-1.0251143,-0.702679,-0.7991145,0.05257811,1.3628565,-0.2740647,0.19550744,-0.177842,-1.1348273,0.27151543,-0.08138812,0.071833216,0.26078457,-0.03360275,-1.3963544,-1.3626872,0.4507636,0.008772198,-0.554797,-0.17460781,-0.035962697,0.717279,-0.49041837,-0.17034368,-0.5375602,-0.37779808,-0.8101181,1.1760763,-0.65941715,0.40201476,-1.2209898,-0.59275275
KYSE-70,0.35261747,1.297563,-0.40551186,0.8214584,0.3215365,0.637108,-0.9128492,0.5184567,0.39743978,0.21978334,-0.3620615,0.5323161,0.5479361,0.11511484,-0.8560789,1.0434133,0.092014484,0.50278884,0.2479557,0.13353354,-0.51469874,-0.19851884,0.5934568,0.2130399,-0.30666485,-0.31762606,-1.3765787,-0.027409911,-0.06733642,-0.1922983,0.8932846,0.892138,-0.051921558,0.32731247,-0.62958467,-0.90283835,0.11991939,1.1816127,-0.2522057,0.4054064,0.18669407,-1.0233837,-1.1251668,-0.37608358,0.28007883,0.10582821,0.00758393,0.46695104,-1.363391,0.061545722,-0.017271804,0.32589084,0.33458832,-0.6105185,0.5557337,-0.3648852,-1.2124275,0.012387464,-0.1473662,-0.12252765,0.07501084,0.2356447,-0.6272123,-1.009853,0.68574136,-0.16492975,-0.676998,0.4218389,0.18092376,0.61697054,-0.23624408,-0.47491172,-0.008309607,-0.82195634,-0.6953391,0.7867972,0.1246686,0.36581463,-1.3583236,-0.14419822
LB1047-RCC,0.4282552,0.89335275,-0.33074644,0.5034964,0.057553697,0.7627405,-1.6323545,0.47694057,0.46063787,0.014147193,-0.7427805,0.092440724,1.0740434,-0.4998061,-1.5067986,1.2769957,0.7238395,0.44591627,0.39447844,0.5159094,-1.1469315,-0.104998134,1.316098,0.37911695,-0.23348331,-0.5275238,-1.6490523,0.2129122,0.23066865,-0.04073764,0.5456279,0.65670097,0.19264911,0.29595658,-0.9707952,-0.6378727,0.6644294,1.067383,-0.6352152,0.08834137,0.54351956,-0.7495972,-0.5865804,-0.71188295,0.8589121,0.10003452,-0.35633895,0.18190186,-1.3343445,0.27803847,0.71555954,0.45997515,0.49668443,-1.2834064,0.27952898,-0.13039558,-0.96578103,0.050094698,-0.6038148,-0.33662254,-0.40139028,0.51887894,-0.6829697,-1.2098769,0.7564613,0.2640077,-0.5771056,0.29011267,-0.075804204,0.7470893,-0.20272623,-0.7043905,0.09908568,-0.5978271,-0.76179135,0.8074187,0.18491296,0.3468701,-1.4383867,-0.15463917
SKG-IIIa,0.09938307,1.2495644,-1.0492592,0.7561874,-1.4355131,1.2649472,-3.6797557,1.9862158,0.14185894,-0.38596046,-2.7254758,-0.08290631,3.717232,-2.32977,-2.3554842,1.1110178,2.4032347,-0.4889835,2.3834088,0.27558818,-1.4334433,0.5793036,2.725135,0.95012695,0.4127406,-0.24283287,-1.7133723,1.3074906,0.570863,-0.72886646,-0.7194816,0.36581993,2.5748165,0.83956224,-1.4318368,-1.4415314,2.0573277,0.48572063,-0.4973566,0.6218484,1.0261023,-1.1220803,0.8449356,-0.76860964,1.8514937,0.28349152,0.1278816,-0.8025207,-3.0623083,1.8009795,2.1746206,0.6978952,-0.7287019,-3.2380974,0.060713965,-0.30239564,0.03060953,0.34144902,-1.879986,-0.5512146,-0.7357826,1.71015,-0.76946235,-2.8233702,-0.1864411,0.03362584,1.0876148,-0.68652713,0.11583,0.99522793,0.3441438,0.6140236,0.28291243,-0.8050402,0.00019934961,1.6975752,1.9957479,0.45870748,-2.085959,1.2628219
GCIY,0.27655935,0.41556063,-0.5809785,0.29871148,-0.15375027,0.6476461,-0.1569951,0.41207692,-0.28552338,0.33860114,-0.38449058,0.40395558,0.47547656,-0.11625921,-0.63769627,0.14977223,0.22572312,-0.05044285,-0.12224221,0.034103945,-0.15293649,-0.11593794,0.051068857,0.26516443,0.08035087,-0.34726778,-0.081064865,0.17615777,-0.31243744,-0.10265739,0.2979958,0.08085423,-0.19979809,0.048342396,-0.0033413062,-0.21609496,0.15634686,0.7720164,-0.31111145,0.16871172,-0.3077046,-0.31115806,-0.8512888,0.009169216,0.09950497,-0.5965047,0.32938093,0.08994638,-0.37219715,-0.0056878063,0.1772337,0.37475488,-0.18254702,-0.5857287,0.36802667,-0.2967758,-0.36145568,-0.2528245,-0.050596002,-0.3501491,0.15950091,0.2184439,0.34297678,-0.3456975,0.18139188,-0.28434977,-0.1263982,0.39213613,0.2591186,0.018886665,-0.032851633,-0.5109681,0.22491513,-0.19022457,-0.537428,0.43047032,0.08559096,0.08751666,-0.30603346,0.22515753
SK-N-FI,0.0045978483,0.57483274,1.2049167,0.84048444,-0.11781583,0.3590415,-0.068226434,-1.2144654,0.81511074,0.539628,0.14121208,1.172915,-0.5759854,-0.27508917,0.9804421,0.3357966,-0.121673346,1.1287401,-0.18093234,-0.30228227,-0.98663896,-0.7221658,-0.3719516,-0.56528676,-0.8604628,-0.22984928,-0.79309255,-0.2453821,-0.43068585,0.2153739,1.329801,0.86282396,-0.42423105,-0.37961644,1.0900908,0.7537452,-0.6114459,0.26697254,0.6395366,-0.8116085,-0.70970064,-0.18615781,-0.59718895,0.34189555,0.00048644678,-0.9445695,-0.92438805,0.56044436,0.087774925,-0.6843675,-0.8596491,0.23838146,1.3423682,-0.16751601,-0.010294057,0.058973636,-0.9057723,0.36368057,-0.14317726,0.19385105,0.5848197,0.012654412,-0.84020126,-0.74642134,-0.13130619,0.0149345435,-0.19719455,-0.45826238,0.28849462,0.6981292,-0.6394394,-0.030694967,-0.4607535,0.5860939,-0.7636781,1.3151462,-0.9756325,0.2430946,-0.06308722,-0.44487202
EFO-21,0.27655935,0.41556063,-0.5809785,0.29871148,-0.15375027,0.6476461,-0.1569951,0.41207692,-0.28552338,0.33860114,-0.38449058,0.40395558,0.47547656,-0.11625921,-0.63769627,0.14977223,0.22572312,-0.05044285,-0.12224221,0.034103945,-0.15293649,-0.11593794,0.051068857,0.26516443,0.08035087,-0.34726778,-0.081064865,0.17615777,-0.31243744,-0.10265739,0.2979958,0.08085423,-0.19979809,0.048342396,-0.0033413062,-0.21609496,0.15634686,0.7720164,-0.31111145,0.16871172,-0.3077046,-0.31115806,-0.8512888,0.009169216,0.09950497,-0.5965047,0.32938093,0.08994638,-0.37219715,-0.0056878063,0.1772337,0.37475488,-0.18254702,-0.5857287,0.36802667,-0.2967758,-0.36145568,-0.2528245,-0.050596002,-0.3501491,0.15950091,0.2184439,0.34297678,-0.3456975,0.18139188,-0.28434977,-0.1263982,0.39213613,0.2591186,0.018886665,-0.032851633,-0.5109681,0.22491513,-0.19022457,-0.537428,0.43047032,0.08559096,0.08751666,-0.30603346,0.22515753
OVCAR-4,0.27655935,0.41556063,-0.5809785,0.29871148,-0.15375027,0.6476461,-0.1569951,0.41207692,-0.28552338,0.33860114,-0.38449058,0.40395558,0.47547656,-0.11625921,-0.63769627,0.14977223,0.22572312,-0.05044285,-0.12224221,0.034103945,-0.15293649,-0.11593794,0.051068857,0.26516443,0.08035087,-0.34726778,-0.081064865,0.17615777,-0.31243744,-0.10265739,0.2979958,0.08085423,-0.19979809,0.048342396,-0.0033413062,-0.21609496,0.15634686,0.7720164,-0.31111145,0.16871172,-0.3077046,-0.31115806,-0.8512888,0.009169216,0.09950497,-0.5965047,0.32938093,0.08994638,-0.37219715,-0.0056878063,0.1772337,0.37475488,-0.18254702,-0.5857287,0.36802667,-0.2967758,-0.36145568,-0.2528245,-0.050596002,-0.3501491,0.15950091,0.2184439,0.34297678,-0.3456975,0.18139188,-0.28434977,-0.1263982,0.39213613,0.2591186,0.018886665,-0.032851633,-0.5109681,0.22491513,-0.19022457,-0.537428,0.43047032,0.08559096,0.08751666,-0.30603346,0.22515753
DU145,0.35261747,1.297563,-0.40551186,0.8214584,0.3215365,0.637108,-0.9128492,0.5184567,0.39743978,0.21978334,-0.3620615,0.5323161,0.5479361,0.11511484,-0.8560789,1.0434133,0.092014484,0.50278884,0.2479557,0.13353354,-0.51469874,-0.19851884,0.5934568,0.2130399,-0.30666485,-0.31762606,-1.3765787,-0.027409911,-0.06733642,-0.1922983,0.8932846,0.892138,-0.051921558,0.32731247,-0.62958467,-0.90283835,0.11991939,1.1816127,-0.2522057,0.4054064,0.18669407,-1.0233837,-1.1251668,-0.37608358,0.28007883,0.10582821,0.00758393,0.46695104,-1.363391,0.061545722,-0.017271804,0.32589084,0.33458832,-0.6105185,0.5557337,-0.3648852,-1.2124275,0.012387464,-0.1473662,-0.12252765,0.07501084,0.2356447,-0.6272123,-1.009853,0.68574136,-0.16492975,-0.676998,0.4218389,0.18092376,0.61697054,-0.23624408,-0.47491172,-0.008309607,-0.82195634,-0.6953391,0.7867972,0.1246686,0.36581463,-1.3583236,-0.14419822
NCI-H1522,0.25462836,0.9745896,-0.3794318,0.85621774,0.40358254,0.9298679,-0.7020443,0.45048404,0.11459732,0.43431845,-0.53502846,0.44231528,0.6206141,-0.0942368,-0.84846365,0.8539686,0.45210028,0.2918726,0.4515761,0.12426032,-0.79844004,-0.29041478,0.42454764,-0.17371522,-0.117231354,-0.34660634,-1.2568392,0.1731511,-0.20493522,-0.28185987,0.66271526,0.28886393,-0.11447493,0.21926491,-0.42402226,-0.7430966,0.23149016,1.1641188,-0.35459512,0.013522741,-0.24652714,-0.8246268,-0.8799256,-0.41395357,0.34419793,-0.011906674,0.070585154,0.44907662,-1.1780444,-0.06345559,0.10966144,0.37153855,0.31097308,-0.35179225,0.30837637,-0.18945873,-1.0867943,-0.13887063,-0.13892068,-0.19265407,-0.13173385,0.5106974,-0.4806476,-0.87743807,0.3869052,-0.1749885,-0.6854818,0.39564505,0.22957633,0.5803587,-0.35528073,-0.53698546,-0.10053362,-0.5162762,-0.8304177,0.8986872,0.23496817,0.0017307275,-1.0320753,0.11614331
NCI-H1693,0.36881185,0.5940021,-0.40003636,0.4028523,0.014754924,0.7770136,-0.20111693,0.22378713,-0.048053432,0.57055503,-0.36537132,0.4715718,0.4524857,-0.09344276,-0.2673649,0.24755034,0.1694999,-0.032778136,-0.20872499,-0.20162022,-0.32744727,-0.14519697,0.1409316,0.15322,-0.18488055,-0.6360133,-0.19251874,0.11739795,-0.35309908,0.082379155,0.5932263,0.3072733,-0.36554873,0.06517674,0.15460889,-0.03942959,0.39270464,1.0881852,-0.15265055,0.14191023,-0.43026057,-0.39017585,-1.173704,0.17073138,0.087364435,-0.7227833,0.0863989,0.13674302,-0.29419807,0.1935098,0.022742903,0.5424622,-0.030258887,-0.53384864,0.46145657,-0.47372115,-0.56247115,-0.42389634,-0.040643375,-0.2512879,0.079798155,0.18394351,0.15583381,-0.58381546,0.2846798,-0.20950983,-0.26112285,0.4891735,0.2619329,0.27580944,-0.08511844,-0.6169111,0.23438314,-0.26370838,-0.5637269,0.5388878,-0.048746847,0.039643206,-0.2281339,0.31647983
SK-LMS-1,0.27655935,0.41556063,-0.5809785,0.29871148,-0.15375027,0.6476461,-0.1569951,0.41207692,-0.28552338,0.33860114,-0.38449058,0.40395558,0.47547656,-0.11625921,-0.63769627,0.14977223,0.22572312,-0.05044285,-0.12224221,0.034103945,-0.15293649,-0.11593794,0.051068857,0.26516443,0.08035087,-0.34726778,-0.081064865,0.17615777,-0.31243744,-0.10265739,0.2979958,0.08085423,-0.19979809,0.048342396,-0.0033413062,-0.21609496,0.15634686,0.7720164,-0.31111145,0.16871172,-0.3077046,-0.31115806,-0.8512888,0.009169216,0.09950497,-0.5965047,0.32938093,0.08994638,-0.37219715,-0.0056878063,0.1772337,0.37475488,-0.18254702,-0.5857287,0.36802667,-0.2967758,-0.36145568,-0.2528245,-0.050596002,-0.3501491,0.15950091,0.2184439,0.34297678,-0.3456975,0.18139188,-0.28434977,-0.1263982,0.39213613,0.2591186,0.018886665,-0.032851633,-0.5109681,0.22491513,-0.19022457,-0.537428,0.43047032,0.08559096,0.08751666,-0.30603346,0.22515753
SNB-75,0.27655935,0.41556063,-0.5809785,0.29871148,-0.15375027,0.6476461,-0.1569951,0.41207692,-0.28552338,0.33860114,-0.38449058,0.40395558,0.47547656,-0.11625921,-0.63769627,0.14977223,0.22572312,-0.05044285,-0.12224221,0.034103945,-0.15293649,-0.11593794,0.051068857,0.26516443,0.08035087,-0.34726778,-0.081064865,0.17615777,-0.31243744,-0.10265739,0.2979958,0.08085423,-0.19979809,0.048342396,-0.0033413062,-0.21609496,0.15634686,0.7720164,-0.31111145,0.16871172,-0.3077046,-0.31115806,-0.8512888,0.009169216,0.09950497,-0.5965047,0.32938093,0.08994638,-0.37219715,-0.0056878063,0.1772337,0.37475488,-0.18254702,-0.5857287,0.36802667,-0.2967758,-0.36145568,-0.2528245,-0.050596002,-0.3501491,0.15950091,0.2184439,0.34297678,-0.3456975,0.18139188,-0.28434977,-0.1263982,0.39213613,0.2591186,0.018886665,-0.032851633,-0.5109681,0.22491513,-0.19022457,-0.537428,0.43047032,0.08559096,0.08751666,-0.30603346,0.22515753
T-47D,0.15555684,0.29848182,-0.56886363,0.12297493,-0.011574946,0.6833988,-0.34149247,0.4030282,-0.32807824,0.29546997,-0.52923715,0.30144194,0.6587259,-0.29327726,-0.66001326,0.28170806,0.15213,0.009672168,0.11438019,0.021154894,-0.16535822,-0.073219635,-0.09523899,0.5954421,0.08202661,-0.2771692,-0.17694382,0.32294324,0.05747707,-0.10024159,0.38485387,0.2758836,-0.03311279,0.1912386,-0.06267179,-0.27242017,0.07113563,0.558293,-0.2714887,0.43844184,-0.17564394,-0.26129946,-0.7016383,0.124025814,0.26612362,-0.67656106,0.28933227,0.12955289,-0.34079146,0.003910553,0.03751881,0.4899612,-0.37970784,-0.73133725,0.41962123,-0.47838777,-0.20706658,-0.52789885,0.01664763,-0.33308616,0.012837436,0.21131186,0.43113846,-0.6834444,0.3379433,-0.18587887,-0.09355498,0.4468861,0.09553384,0.19100201,0.07734101,-0.44054183,0.3872253,-0.20492987,-0.5788928,0.4775563,-0.014264049,0.07997949,-0.51302797,0.19683455
DBTRG-05MG,-0.039907746,1.5575905,0.5597109,1.1180472,0.4165422,0.6753471,-2.0750039,-0.30028474,1.438742,-0.37121353,-0.48109838,0.32828772,0.56727433,-0.67252547,-0.9997796,2.2957902,0.76803875,1.2813332,1.666547,0.7021293,-2.036441,-0.4336379,1.4090848,-0.24450806,-0.7803972,0.14828041,-3.5772579,-0.20003048,0.70004535,-0.16024765,1.390394,1.7799418,0.6108788,0.6570592,-1.1988506,-0.7518479,-0.13088585,0.61883104,0.31828883,-0.06105641,0.9274058,-1.1709117,0.070433505,-1.1438156,1.2253025,0.8437783,-1.4110533,0.72683823,-2.3246467,-0.61712915,-0.35519403,0.20870994,1.9973036,-0.8530009,-0.0015466721,0.039262984,-1.6699247,0.46175778,-0.63658226,-0.12233818,-0.6326154,0.4459985,-2.2636025,-2.2478797,0.7136047,0.7062007,-0.97981393,-0.29196227,-0.46124375,1.2695131,-0.91818357,-0.12174363,-0.80417997,-0.9432155,-0.99089044,1.4822319,-0.41882825,0.24909297,-2.5403569,-0.72160393
NCI-H1048,0.15555684,0.29848182,-0.56886363,0.12297493,-0.011574946,0.6833988,-0.34149247,0.4030282,-0.32807824,0.29546997,-0.52923715,0.30144194,0.6587259,-0.29327726,-0.66001326,0.28170806,0.15213,0.009672168,0.11438019,0.021154894,-0.16535822,-0.073219635,-0.09523899,0.5954421,0.08202661,-0.2771692,-0.17694382,0.32294324,0.05747707,-0.10024159,0.38485387,0.2758836,-0.03311279,0.1912386,-0.06267179,-0.27242017,0.07113563,0.558293,-0.2714887,0.43844184,-0.17564394,-0.26129946,-0.7016383,0.124025814,0.26612362,-0.67656106,0.28933227,0.12955289,-0.34079146,0.003910553,0.03751881,0.4899612,-0.37970784,-0.73133725,0.41962123,-0.47838777,-0.20706658,-0.52789885,0.01664763,-0.33308616,0.012837436,0.21131186,0.43113846,-0.6834444,0.3379433,-0.18587887,-0.09355498,0.4468861,0.09553384,0.19100201,0.07734101,-0.44054183,0.3872253,-0.20492987,-0.5788928,0.4775563,-0.014264049,0.07997949,-0.51302797,0.19683455
J.RT3-T3.5,0.30517873,2.1029637,-0.3951878,1.3809518,0.9711386,1.3110284,-1.7920375,0.9021313,0.77877724,-0.12986118,-0.7914389,0.23810786,1.3602973,0.10674015,-1.4884036,2.1125996,0.3984336,0.46182844,1.042068,0.23951304,-0.88319284,-0.4622657,1.3042066,0.17964885,0.03445163,-0.5306512,-3.0073283,0.27117234,0.3517161,-0.3962203,1.3621782,1.2833005,0.45896125,0.7830209,-1.5599681,-1.7809299,0.27312735,1.6109984,-0.15237822,0.92373675,0.69453984,-1.7837342,-1.3797635,-0.6536307,0.70966476,0.85402757,-0.6325945,1.1544248,-2.249678,0.03524118,-0.20964544,0.52627915,0.9497297,-0.8194861,0.5625148,-0.32457763,-2.1454062,0.49761465,-0.58600783,0.021151999,-0.3061455,0.2820568,-1.8606987,-1.7649618,1.0541347,0.32093772,-1.1520474,0.3239919,0.068507195,0.7835159,-0.36601153,-0.49847332,-0.51654357,-1.7311777,-0.8688011,1.128579,0.41559413,0.46694294,-2.7942104,-0.03830001
VM-CUB-1,0.35261747,1.297563,-0.40551186,0.8214584,0.3215365,0.637108,-0.9128492,0.5184567,0.39743978,0.21978334,-0.3620615,0.5323161,0.5479361,0.11511484,-0.8560789,1.0434133,0.092014484,0.50278884,0.2479557,0.13353354,-0.51469874,-0.19851884,0.5934568,0.2130399,-0.30666485,-0.31762606,-1.3765787,-0.027409911,-0.06733642,-0.1922983,0.8932846,0.892138,-0.051921558,0.32731247,-0.62958467,-0.90283835,0.11991939,1.1816127,-0.2522057,0.4054064,0.18669407,-1.0233837,-1.1251668,-0.37608358,0.28007883,0.10582821,0.00758393,0.46695104,-1.363391,0.061545722,-0.017271804,0.32589084,0.33458832,-0.6105185,0.5557337,-0.3648852,-1.2124275,0.012387464,-0.1473662,-0.12252765,0.07501084,0.2356447,-0.6272123,-1.009853,0.68574136,-0.16492975,-0.676998,0.4218389,0.18092376,0.61697054,-0.23624408,-0.47491172,-0.008309607,-0.82195634,-0.6953391,0.7867972,0.1246686,0.36581463,-1.3583236,-0.14419822
COR-L88,0.27655935,0.41556063,-0.5809785,0.29871148,-0.15375027,0.6476461,-0.1569951,0.41207692,-0.28552338,0.33860114,-0.38449058,0.40395558,0.47547656,-0.11625921,-0.63769627,0.14977223,0.22572312,-0.05044285,-0.12224221,0.034103945,-0.15293649,-0.11593794,0.051068857,0.26516443,0.08035087,-0.34726778,-0.081064865,0.17615777,-0.31243744,-0.10265739,0.2979958,0.08085423,-0.19979809,0.048342396,-0.0033413062,-0.21609496,0.15634686,0.7720164,-0.31111145,0.16871172,-0.3077046,-0.31115806,-0.8512888,0.009169216,0.09950497,-0.5965047,0.32938093,0.08994638,-0.37219715,-0.0056878063,0.1772337,0.37475488,-0.18254702,-0.5857287,0.36802667,-0.2967758,-0.36145568,-0.2528245,-0.050596002,-0.3501491,0.15950091,0.2184439,0.34297678,-0.3456975,0.18139188,-0.28434977,-0.1263982,0.39213613,0.2591186,0.018886665,-0.032851633,-0.5109681,0.22491513,-0.19022457,-0.537428,0.43047032,0.08559096,0.08751666,-0.30603346,0.22515753
NCI-H2126,0.35261747,1.297563,-0.40551186,0.8214584,0.3215365,0.637108,-0.9128492,0.5184567,0.39743978,0.21978334,-0.3620615,0.5323161,0.5479361,0.11511484,-0.8560789,1.0434133,0.092014484,0.50278884,0.2479557,0.13353354,-0.51469874,-0.19851884,0.5934568,0.2130399,-0.30666485,-0.31762606,-1.3765787,-0.027409911,-0.06733642,-0.1922983,0.8932846,0.892138,-0.051921558,0.32731247,-0.62958467,-0.90283835,0.11991939,1.1816127,-0.2522057,0.4054064,0.18669407,-1.0233837,-1.1251668,-0.37608358,0.28007883,0.10582821,0.00758393,0.46695104,-1.363391,0.061545722,-0.017271804,0.32589084,0.33458832,-0.6105185,0.5557337,-0.3648852,-1.2124275,0.012387464,-0.1473662,-0.12252765,0.07501084,0.2356447,-0.6272123,-1.009853,0.68574136,-0.16492975,-0.676998,0.4218389,0.18092376,0.61697054,-0.23624408,-0.47491172,-0.008309607,-0.82195634,-0.6953391,0.7867972,0.1246686,0.36581463,-1.3583236,-0.14419822
