,E0,E1,E2,E3,E4,E5,E6,E7,E8,E9,E10,E11,E12,E13,E14,E15,E16,E17,E18,E19,E20,E21,E22,E23,E24,E25,E26,E27,E28,E29,E30,E31,E32,E33,E34,E35,E36,E37,E38,E39,E40,E41,E42,E43,E44,E45,E46,E47,E48,E49,E50,E51,E52,E53,E54,E55,E56,E57,E58,E59,E60,E61,E62,E63,E64,E65,E66,E67,E68,E69,E70,E71,E72,E73,E74,E75,E76,E77,E78,E79,E80,E81,E82,E83,E84
YH-13,-0.36515886,0.21130826,0.10597308,-0.1963061,0.060999207,-0.2539491,-0.1603284,0.60053027,0.21236049,0.3930281,0.38914567,-0.9565393,-0.2232438,0.32451206,0.11582987,0.40542826,-0.108805574,0.20553763,0.4148156,0.54967874,0.88225853,0.509461,0.62746924,-0.3593234,-0.33071023,0.37883008,0.9041848,-0.7400355,0.79826605,-0.633757,0.83311874,0.38797382,0.4848223,-0.47671402,-0.2793427,0.32010046,0.049406637,0.49039593,-0.36894056,0.46422395,-0.968945,1.0888157,0.69064313,-0.44590417,-0.7162328,0.16750108,-0.33915663,0.14776601,-0.649127,0.46154648,-0.30529442,0.10887862,0.3499546,0.93106043,0.73033917,-0.28637326,0.4863218,-0.26121622,-0.74255985,-0.63563824,-0.092309944,-0.387438,0.30752307,-0.28143466,-0.6213083,0.5350149,-0.19791265,-0.51519066,-0.61812717,0.47246814,-0.3021583,-0.95049554,0.17764166,0.67261153,0.19352557,-0.34307063,-0.76238364,-0.10766601,-0.2220639,0.65258443,0.062364295,0.17591809,0.2965466,-0.46392313,-0.74919474
SK-PN-DW,0.44504392,0.055517916,-0.21592452,-0.010861709,-0.12713861,0.11641344,-0.6122951,0.33310416,0.2829607,0.061694656,0.45708728,-0.33180127,-0.17990285,-0.30047184,0.2942198,0.58883566,-0.13586865,-0.40024507,0.34939426,-0.19462468,0.9951393,0.45652232,0.20064941,-0.20507416,-0.28755423,-0.35631552,0.60100055,-0.52620465,1.0440117,-0.68604255,0.29535523,0.3766758,0.4758539,-0.16667083,0.1318759,0.6777497,0.29479292,0.41405037,-0.1665935,-0.08409947,-0.63374996,0.646752,0.43490118,-0.50006074,-0.5967739,0.060045276,-0.5436742,0.47462934,-0.6194321,0.38602802,0.0027068593,0.03449997,0.08541208,0.34548888,0.61949164,-0.11213353,0.7762172,-0.4085615,-0.74284226,0.21048553,-0.2979587,-0.7209852,-0.14776212,-0.64241135,-0.6126706,0.41169304,-0.15778342,-0.10674918,-0.1067121,-0.25369093,-0.38400245,-0.9294512,-0.031481937,0.040268704,-0.061211057,0.093907066,-0.12211974,0.013829841,-0.54725945,0.8105594,0.5115989,0.1889284,0.10408124,0.027146136,-0.34082466
KYSE-410,0.06578509,0.55348516,-0.05905592,-0.5390901,-0.109388866,-0.32946756,-0.39541754,-0.29214966,-0.4774942,0.14714657,-0.59885365,-0.01624632,0.39498433,-0.15235439,0.2796596,-0.14380568,-0.07812507,-0.41051778,0.073565856,0.24757624,0.394917,-0.5959318,-0.21191019,0.17202452,0.149166,0.31297082,0.067072585,-0.22233675,0.03413901,0.016030878,-0.34825027,-0.043674067,0.21779448,0.17559831,-0.4755738,-0.21098481,0.57882804,-0.0020012755,-0.3050502,-0.23482434,0.24101588,0.5980678,0.055635437,-0.2521535,-0.30352053,0.48336306,0.2679565,-0.13852486,0.11562596,0.056513324,-0.2459375,0.5044548,-0.49641517,-0.2751397,-0.12014506,-0.090335056,-0.1296789,0.4083771,0.010224541,0.30146852,-0.03638059,0.42847282,0.672709,0.0081607755,0.043767426,0.29351896,-0.3581977,0.40041673,0.57102114,-0.39481208,-0.27695385,-0.32028627,-0.24322082,0.27614143,-0.26061437,0.07868275,0.41892195,-0.006396972,0.32751614,0.27913934,-0.41961592,0.36394557,-0.03823279,-0.18616092,-0.037510812
BL-70,0.3370279,0.11436234,0.19254865,-0.14717962,0.3258254,-0.2629724,-0.34422868,-0.07927474,-0.41032043,-0.15482841,0.035505038,-0.1647874,0.10063722,-0.34061095,-0.011905422,-0.21114396,-0.2724525,-0.41408506,0.14527181,-0.18620788,0.60458684,-0.008899878,0.068532184,0.26056752,-0.18504046,-0.31375605,0.19385017,-0.008807721,0.3168111,-0.26434666,-0.07432799,0.018077366,-0.13628338,0.17684056,-0.16900188,0.28378692,0.06966519,0.09781459,-0.14082727,0.14754136,0.09143222,0.2933378,-0.14586827,0.19101746,0.08923273,0.27353463,0.4866036,0.018843949,-0.45257553,-0.017198423,-0.14483371,-0.16122638,-0.25333747,0.16418205,0.08649223,0.1672381,0.23200715,0.0033497731,-0.055740748,0.045102317,0.06594256,-0.016040992,0.5229451,0.011554619,0.0033699519,0.28791398,0.111812375,-0.047953684,0.03597962,-0.10620866,0.15277772,-0.5249205,0.16078629,0.058969066,0.17249434,-0.23833434,0.112388425,0.14949591,-0.012394301,0.4534426,0.16089611,0.44908452,0.29065424,0.022740848,-0.14486732
SW1463,-0.028391395,0.5618513,-0.136595,-0.54177684,-0.110721834,-0.3060919,-0.36299115,-0.25019208,-0.55207217,0.107315615,-0.5996624,-0.019528173,0.3152075,-0.0760167,0.31439453,-0.046723507,-0.020273115,-0.42439002,0.066792004,0.19348426,0.34552076,-0.5577069,-0.2488314,0.15078497,0.1669228,0.34921134,0.1631095,-0.22854412,-0.018176695,0.044231944,-0.391982,0.01519443,0.23068349,0.1400029,-0.44616228,-0.22494374,0.5774283,-0.09213057,-0.23547287,-0.23469819,0.19908558,0.5356574,0.039064616,-0.287905,-0.3347493,0.48325607,0.29110965,-0.1011165,0.1473799,0.08953715,-0.23524344,0.57309175,-0.45414233,-0.3104145,-0.17902206,-0.15558447,-0.10520707,0.3860856,0.020777475,0.25626343,0.05601545,0.42558557,0.56541365,0.020947052,0.0036074615,0.19806875,-0.3821372,0.47890285,0.5040263,-0.38790435,-0.2739028,-0.27840474,-0.24786602,0.29857185,-0.25772247,0.06763488,0.422732,-0.018233187,0.28998405,0.2896128,-0.42014098,0.24028818,-0.09170137,-0.112351455,-0.06596251
A2780,0.34002793,0.13028184,-0.13761601,0.2818816,-0.35942787,0.08052421,-0.60738057,0.3630134,0.24313742,0.0042205933,0.42799494,-0.30247334,-0.19978057,-0.38302523,0.34191912,0.9026053,-0.18433401,-0.24776438,0.28675318,-0.12982719,1.1130213,0.49372336,0.0885078,-0.49264535,-0.030545853,-0.42091706,0.43217692,-0.74302214,0.8331551,-0.55530643,0.48715872,0.39496207,0.42272833,-0.3670258,0.061359264,0.83204526,0.22341132,0.46327314,-0.28739747,-0.13755387,-0.74505806,0.858086,0.65443575,-0.39728045,-0.70744085,-0.19279785,-0.7728243,0.28933305,-0.38181618,0.55606955,-0.31745943,-0.06279057,0.06613635,0.36227876,0.439526,-0.09208422,0.8273769,-0.65293473,-0.90721565,0.21545486,-0.34516558,-0.58290637,-0.11046726,-0.8021346,-0.7269569,0.48865664,0.030580191,-0.19963947,-0.15850368,0.035778455,-0.24891879,-0.881163,-0.1017503,-0.022750303,0.19362462,0.3150942,-0.1566721,0.20913492,-0.19497177,0.7800665,0.33636492,-0.07979793,0.26705116,-0.0842266,-0.18677989
EFM-19,0.11218779,-0.0042519793,-0.28578603,-0.092661455,-0.26645577,0.15238348,-0.5122938,0.6572469,0.61549324,0.40431625,0.6145785,-0.7080322,-0.30495018,0.044366684,0.32885808,0.84544986,-0.024069682,-0.15529701,0.47399572,0.11257382,1.1807057,0.6348601,0.42973512,-0.49912104,-0.42394376,-0.0012514715,0.9255739,-0.89026135,1.1326556,-0.78578895,0.673561,0.5157596,0.8708085,-0.446871,0.19997907,0.68469155,0.35306686,0.5778439,-0.29444194,0.10814642,-1.0888131,1.0121069,0.88303,-0.7109922,-0.91572577,-0.06538102,-0.85968196,0.4130236,-0.64767724,0.6165935,-0.11625877,0.09209852,0.27550521,0.76812845,0.9191171,-0.30312812,0.8685988,-0.541784,-1.1421893,-0.14964257,-0.44096226,-0.8449861,-0.19067797,-0.7079694,-0.88298935,0.49158663,-0.28373635,-0.34976867,-0.33939415,0.052729957,-0.5584203,-1.0765185,-0.11057427,0.33768618,-0.07951218,-0.004520822,-0.4668722,-0.087322496,-0.5200953,0.9141204,0.43031433,2.13352e-05,0.10865214,-0.15632607,-0.54629195
HuO-3N1,0.3370279,0.11436234,0.19254865,-0.14717962,0.3258254,-0.2629724,-0.34422868,-0.07927474,-0.41032043,-0.15482841,0.035505038,-0.1647874,0.10063722,-0.34061095,-0.011905422,-0.21114396,-0.2724525,-0.41408506,0.14527181,-0.18620788,0.60458684,-0.008899878,0.068532184,0.26056752,-0.18504046,-0.31375605,0.19385017,-0.008807721,0.3168111,-0.26434666,-0.07432799,0.018077366,-0.13628338,0.17684056,-0.16900188,0.28378692,0.06966519,0.09781459,-0.14082727,0.14754136,0.09143222,0.2933378,-0.14586827,0.19101746,0.08923273,0.27353463,0.4866036,0.018843949,-0.45257553,-0.017198423,-0.14483371,-0.16122638,-0.25333747,0.16418205,0.08649223,0.1672381,0.23200715,0.0033497731,-0.055740748,0.045102317,0.06594256,-0.016040992,0.5229451,0.011554619,0.0033699519,0.28791398,0.111812375,-0.047953684,0.03597962,-0.10620866,0.15277772,-0.5249205,0.16078629,0.058969066,0.17249434,-0.23833434,0.112388425,0.14949591,-0.012394301,0.4534426,0.16089611,0.44908452,0.29065424,0.022740848,-0.14486732
HCC1395,-0.33882445,0.17417228,-0.3190287,-0.0762815,-0.41773602,0.12649435,-0.40708888,1.1042094,0.97651505,0.67780167,0.85660076,-1.2292964,-0.5447552,0.4497882,0.44428697,1.278342,0.041406218,0.29411572,0.65747714,0.62685126,1.3022759,1.0399114,0.82945526,-0.8991488,-0.46178874,0.42357168,1.4050512,-1.3468615,1.5980594,-1.1040971,1.3143038,0.79485065,1.1752179,-0.8996366,0.0026871026,0.7193919,0.27304497,0.86381674,-0.42405683,0.27688244,-1.833802,1.5441488,1.3711534,-1.2197133,-1.514025,-0.04966509,-1.4716604,0.62974834,-0.8494002,0.9291507,-0.16737893,0.34371132,0.76555765,1.2056812,1.3455038,-0.6310584,1.0720003,-0.7003963,-1.5188955,-0.5551893,-0.46582806,-1.1477522,-0.39819938,-0.9714992,-1.3095174,0.693312,-0.51102453,-0.6302987,-0.83914286,0.38842925,-0.8995555,-1.421561,-0.0051083113,0.7316969,-0.040257804,-0.025974445,-1.1023474,-0.27980402,-0.79370075,1.044566,0.3965423,-0.11062746,0.102454156,-0.5292057,-1.03269
HT-1197,0.81308985,-0.07422688,-0.086599134,0.36187047,-0.33037233,0.06712059,-0.578236,-0.25494227,-0.085129015,-0.32541233,0.22489859,0.058394063,0.009249534,-0.71996474,0.07132241,0.3736447,-0.44034913,-0.58017564,0.2056963,-0.4610187,1.0840545,0.014108091,-0.318639,0.118572734,0.2351195,-1.0702739,-0.20416531,-0.45972225,0.48948476,-0.2013573,0.03860709,0.25759447,0.12587933,-0.087792106,0.20014659,0.9960805,0.063320704,0.1378863,-0.18590295,-0.51261103,-0.19021603,0.59858835,-0.019271318,0.34065163,-0.17605291,-0.6420109,-0.20586264,-0.025373364,-0.31604216,0.44414067,-0.38080966,-0.48056155,-0.20647147,-0.23388033,-0.00090635725,0.059488997,0.6304101,-0.65238583,-0.77573115,0.6006943,-0.28096405,-0.48891073,0.3780269,-0.68907577,-0.16136612,0.37070686,0.5180327,-0.075579844,0.49143827,-0.34384558,0.20413949,-0.5267868,-0.3024186,-0.64763814,-0.002321864,0.36148795,0.45642886,0.56065536,0.22104035,0.5710192,0.30267662,-0.11809431,0.38459447,0.51319957,0.40781447
UM-UC-3,-0.61006737,0.6132951,-0.57063323,-0.46819204,-0.8529503,0.059999194,-0.4582777,0.89133453,0.9093413,0.97977686,0.22224224,-1.0807552,-0.25040796,0.6380448,0.73585206,1.3456805,0.23573366,0.29768288,0.58577126,1.0606354,1.0926061,0.4528794,0.54901284,-0.9876919,-0.12758231,1.0502986,1.2782737,-1.5603906,1.3153875,-0.8237196,1.0403817,0.7330992,1.5292956,-0.900879,-0.30388483,0.2246201,0.7822078,0.76400095,-0.5882798,-0.10548331,-1.6842183,1.8488787,1.5726572,-1.6628841,-1.9067782,0.16016333,-1.6903071,0.4723795,-0.28119886,1.0028623,-0.26848269,1.0093924,0.52247995,0.7663595,1.1388665,-0.8886316,0.71031415,-0.29536885,-1.4529303,-0.29882318,-0.5681512,-0.7032384,-0.24843548,-0.974893,-1.2691199,0.698917,-0.9810347,-0.18192819,-0.3041012,0.09982582,-1.329287,-1.2169268,-0.40911537,0.94886917,-0.47336656,0.2910426,-0.7958139,-0.43569702,-0.45379034,0.8702626,-0.18396974,-0.19576642,-0.22643286,-0.7381074,-0.9253336
EFE-184,0.3370279,0.11436234,0.19254865,-0.14717962,0.3258254,-0.2629724,-0.34422868,-0.07927474,-0.41032043,-0.15482841,0.035505038,-0.1647874,0.10063722,-0.34061095,-0.011905422,-0.21114396,-0.2724525,-0.41408506,0.14527181,-0.18620788,0.60458684,-0.008899878,0.068532184,0.26056752,-0.18504046,-0.31375605,0.19385017,-0.008807721,0.3168111,-0.26434666,-0.07432799,0.018077366,-0.13628338,0.17684056,-0.16900188,0.28378692,0.06966519,0.09781459,-0.14082727,0.14754136,0.09143222,0.2933378,-0.14586827,0.19101746,0.08923273,0.27353463,0.4866036,0.018843949,-0.45257553,-0.017198423,-0.14483371,-0.16122638,-0.25333747,0.16418205,0.08649223,0.1672381,0.23200715,0.0033497731,-0.055740748,0.045102317,0.06594256,-0.016040992,0.5229451,0.011554619,0.0033699519,0.28791398,0.111812375,-0.047953684,0.03597962,-0.10620866,0.15277772,-0.5249205,0.16078629,0.058969066,0.17249434,-0.23833434,0.112388425,0.14949591,-0.012394301,0.4534426,0.16089611,0.44908452,0.29065424,0.022740848,-0.14486732
COLO 829,-0.4051003,-0.21194701,-0.62058014,0.16628361,-1.1521218,-0.24253124,-0.6415424,1.2038743,1.5357869,1.0529819,0.4541803,-1.0799688,-0.25140637,0.95556086,0.8428735,1.5185666,-0.2986556,0.48550498,0.42768684,1.0128795,0.54865676,1.3417078,1.2488801,-1.1751038,-0.03255671,0.7016995,0.94247675,-1.1184119,1.4853836,-0.88598096,1.1334152,0.2639609,1.0330565,-0.49956328,0.49432302,0.61898255,0.7773248,1.4556876,-0.52781326,0.08383073,-2.4393694,1.449449,1.507412,-1.1271422,-1.6302168,0.1120744,-2.2440503,0.9919926,-0.30941293,1.1986638,0.13220146,0.14964171,1.0632143,0.79863054,1.3619761,-0.8225104,0.7474708,-0.6532875,-1.164877,-0.41159147,-0.4429954,-0.91743207,-0.3947695,-0.77214706,-1.6723875,0.76648825,-0.94108367,-0.40776134,-1.2016282,0.7267939,-1.2664891,-1.438784,-0.074276604,0.6963523,-0.5930255,0.61168975,-1.4734584,-0.5777346,-0.61017716,0.67450684,-0.16642255,-0.4043263,-0.677666,-0.9777182,-1.1226057
MFE-296,0.3370279,0.11436234,0.19254865,-0.14717962,0.3258254,-0.2629724,-0.34422868,-0.07927474,-0.41032043,-0.15482841,0.035505038,-0.1647874,0.10063722,-0.34061095,-0.011905422,-0.21114396,-0.2724525,-0.41408506,0.14527181,-0.18620788,0.60458684,-0.008899878,0.068532184,0.26056752,-0.18504046,-0.31375605,0.19385017,-0.008807721,0.3168111,-0.26434666,-0.07432799,0.018077366,-0.13628338,0.17684056,-0.16900188,0.28378692,0.06966519,0.09781459,-0.14082727,0.14754136,0.09143222,0.2933378,-0.14586827,0.19101746,0.08923273,0.27353463,0.4866036,0.018843949,-0.45257553,-0.017198423,-0.14483371,-0.16122638,-0.25333747,0.16418205,0.08649223,0.1672381,0.23200715,0.0033497731,-0.055740748,0.045102317,0.06594256,-0.016040992,0.5229451,0.011554619,0.0033699519,0.28791398,0.111812375,-0.047953684,0.03597962,-0.10620866,0.15277772,-0.5249205,0.16078629,0.058969066,0.17249434,-0.23833434,0.112388425,0.14949591,-0.012394301,0.4534426,0.16089611,0.44908452,0.29065424,0.022740848,-0.14486732
NCI-H2347,0.33574325,0.1413334,0.30516,0.25822586,-0.0029173526,-0.33921203,-0.22627057,-0.3116588,-0.48826176,-0.33670065,-0.00053417194,-0.19011301,0.09095596,-0.4398193,-0.14170572,-0.066376835,-0.5250851,-0.21934101,0.14651619,-0.02391374,0.78560734,-0.11129103,-0.12090485,0.25837034,0.32835305,-0.69019234,-0.22555427,-0.3094965,0.15509523,-0.049325336,0.19816494,0.12980871,-0.26010686,-0.1176351,-0.2791752,0.6314894,-0.24033953,0.050438363,-0.2604016,-0.15653348,-0.07034806,0.67529726,-0.21165815,0.6057397,0.02344005,-0.40912887,0.3146627,-0.2906309,-0.317492,0.28909364,-0.56984526,-0.46378145,-0.13202213,-0.070948444,-0.18968435,0.07624384,0.24813306,-0.3718181,-0.37610176,0.11469859,0.067688294,-0.0313627,0.8762279,-0.2625409,0.10031492,0.41413513,0.60385644,-0.2410019,0.21270537,0.07589262,0.46040148,-0.4007638,-0.014202628,-0.31271282,0.27071586,0.022938183,0.16091739,0.5403119,0.51907176,0.3094832,-0.06527341,0.057802435,0.572489,0.2056025,0.20491152
SK-UT-1,0.9150612,-0.30955535,-0.7958127,0.108292915,-0.44746408,0.57649016,-1.0233,0.2844719,0.6156004,-0.12823021,0.7123799,-0.1445002,-0.28402886,-0.65363264,0.6258723,1.1626331,-0.13949604,-0.9711873,0.38480413,-0.6434695,1.2774568,0.5369357,-0.09885581,-0.35268638,-0.40633813,-0.84868073,0.7636828,-0.86179036,1.4567785,-0.88109636,-0.04458939,0.60469145,0.9823136,-0.14160666,0.71479756,1.1469681,0.7241512,0.3754842,-0.050153013,-0.44214982,-0.7686102,0.56963676,0.5993953,-0.7699032,-0.942683,-0.20357548,-1.0676286,0.74075234,-0.7301502,0.5792261,0.119639635,0.17301172,-0.013712997,0.23951577,0.75462544,-0.22769372,1.189202,-0.8188765,-1.266407,0.73766536,-0.67926395,-1.3409624,-0.74264663,-1.0567876,-1.0218219,0.30760232,-0.28261286,0.20160072,0.17318064,-0.79923517,-0.68134767,-1.2306659,-0.30053058,-0.41535237,-0.37721,0.5879488,0.23730831,0.109102026,-0.9066448,1.2242033,0.9633733,-0.092532165,-0.08223696,0.49716532,-0.10866273
NCI-H526,0.3370279,0.11436234,0.19254865,-0.14717962,0.3258254,-0.2629724,-0.34422868,-0.07927474,-0.41032043,-0.15482841,0.035505038,-0.1647874,0.10063722,-0.34061095,-0.011905422,-0.21114396,-0.2724525,-0.41408506,0.14527181,-0.18620788,0.60458684,-0.008899878,0.068532184,0.26056752,-0.18504046,-0.31375605,0.19385017,-0.008807721,0.3168111,-0.26434666,-0.07432799,0.018077366,-0.13628338,0.17684056,-0.16900188,0.28378692,0.06966519,0.09781459,-0.14082727,0.14754136,0.09143222,0.2933378,-0.14586827,0.19101746,0.08923273,0.27353463,0.4866036,0.018843949,-0.45257553,-0.017198423,-0.14483371,-0.16122638,-0.25333747,0.16418205,0.08649223,0.1672381,0.23200715,0.0033497731,-0.055740748,0.045102317,0.06594256,-0.016040992,0.5229451,0.011554619,0.0033699519,0.28791398,0.111812375,-0.047953684,0.03597962,-0.10620866,0.15277772,-0.5249205,0.16078629,0.058969066,0.17249434,-0.23833434,0.112388425,0.14949591,-0.012394301,0.4534426,0.16089611,0.44908452,0.29065424,0.022740848,-0.14486732
SBC-5,-0.41692004,0.14376071,0.1729499,-0.10299459,-0.0075615975,-0.26097667,-0.1670373,0.6335368,0.2784568,0.39287803,0.36795294,-0.9498362,-0.2008353,0.3606015,0.0605867,0.45071694,-0.099609524,0.23549964,0.426102,0.63587415,0.95911384,0.5390373,0.6349531,-0.43991923,-0.26632854,0.3859258,0.9353024,-0.8104194,0.78482115,-0.6310525,0.9259297,0.38838217,0.5526507,-0.5282804,-0.27326155,0.3007792,0.0031626346,0.48296538,-0.38289604,0.4465239,-0.9868227,1.1615714,0.76873976,-0.43662187,-0.7176021,0.07034338,-0.4017366,0.07580594,-0.6389519,0.4578671,-0.39605916,0.08990895,0.3926373,0.9630223,0.74477386,-0.3014018,0.45446664,-0.29633665,-0.7815281,-0.6750975,-0.14347288,-0.33525482,0.3318437,-0.28634465,-0.66964066,0.5655394,-0.18852837,-0.5460163,-0.67950976,0.53994954,-0.2839496,-0.9494351,0.115364596,0.7261931,0.22258069,-0.33756107,-0.7892322,-0.11327996,-0.12951787,0.6184786,0.04635372,0.13366026,0.31816828,-0.45463535,-0.710539
MHH-PREB-1,0.334353,0.14704135,0.3008093,0.27275816,0.009472996,-0.3277491,-0.23638706,-0.32014808,-0.49575356,-0.32399726,0.0011814509,-0.22685008,0.09023316,-0.44026297,-0.1538669,-0.056538865,-0.51151484,-0.19561765,0.15045328,-0.023994101,0.7586609,-0.12031503,-0.12632315,0.28532156,0.3097111,-0.6966161,-0.24492215,-0.31172338,0.14755723,-0.046773408,0.20536447,0.110058144,-0.2911091,-0.1007736,-0.27115443,0.6337674,-0.23974876,0.043435786,-0.26283652,-0.16513868,-0.06658151,0.6827186,-0.2134529,0.61418855,0.012774864,-0.4307411,0.3005366,-0.30183944,-0.3041568,0.31259793,-0.5555926,-0.46434215,-0.117629565,-0.07242044,-0.19129758,0.08439089,0.25218704,-0.36026853,-0.36604786,0.10310885,0.06997355,-0.045912206,0.85225093,-0.26298246,0.12882479,0.4193632,0.5994988,-0.25539762,0.21105093,0.096088305,0.46521917,-0.3716357,-0.01607481,-0.3064903,0.2793117,0.022204226,0.14758635,0.540089,0.52010113,0.2887779,-0.058691524,0.040599465,0.5803983,0.1881119,0.19661672
A-253,-0.36515886,0.21130826,0.10597308,-0.1963061,0.060999207,-0.2539491,-0.1603284,0.60053027,0.21236049,0.3930281,0.38914567,-0.9565393,-0.2232438,0.32451206,0.11582987,0.40542826,-0.108805574,0.20553763,0.4148156,0.54967874,0.88225853,0.509461,0.62746924,-0.3593234,-0.33071023,0.37883008,0.9041848,-0.7400355,0.79826605,-0.633757,0.83311874,0.38797382,0.4848223,-0.47671402,-0.2793427,0.32010046,0.049406637,0.49039593,-0.36894056,0.46422395,-0.968945,1.0888157,0.69064313,-0.44590417,-0.7162328,0.16750108,-0.33915663,0.14776601,-0.649127,0.46154648,-0.30529442,0.10887862,0.3499546,0.93106043,0.73033917,-0.28637326,0.4863218,-0.26121622,-0.74255985,-0.63563824,-0.092309944,-0.387438,0.30752307,-0.28143466,-0.6213083,0.5350149,-0.19791265,-0.51519066,-0.61812717,0.47246814,-0.3021583,-0.95049554,0.17764166,0.67261153,0.19352557,-0.34307063,-0.76238364,-0.10766601,-0.2220639,0.65258443,0.062364295,0.17591809,0.2965466,-0.46392313,-0.74919474
KYSE-140,-0.36515886,0.21130826,0.10597308,-0.1963061,0.060999207,-0.2539491,-0.1603284,0.60053027,0.21236049,0.3930281,0.38914567,-0.9565393,-0.2232438,0.32451206,0.11582987,0.40542826,-0.108805574,0.20553763,0.4148156,0.54967874,0.88225853,0.509461,0.62746924,-0.3593234,-0.33071023,0.37883008,0.9041848,-0.7400355,0.79826605,-0.633757,0.83311874,0.38797382,0.4848223,-0.47671402,-0.2793427,0.32010046,0.049406637,0.49039593,-0.36894056,0.46422395,-0.968945,1.0888157,0.69064313,-0.44590417,-0.7162328,0.16750108,-0.33915663,0.14776601,-0.649127,0.46154648,-0.30529442,0.10887862,0.3499546,0.93106043,0.73033917,-0.28637326,0.4863218,-0.26121622,-0.74255985,-0.63563824,-0.092309944,-0.387438,0.30752307,-0.28143466,-0.6213083,0.5350149,-0.19791265,-0.51519066,-0.61812717,0.47246814,-0.3021583,-0.95049554,0.17764166,0.67261153,0.19352557,-0.34307063,-0.76238364,-0.10766601,-0.2220639,0.65258443,0.062364295,0.17591809,0.2965466,-0.46392313,-0.74919474
TYK-nu,-0.36515886,0.21130826,0.10597308,-0.1963061,0.060999207,-0.2539491,-0.1603284,0.60053027,0.21236049,0.3930281,0.38914567,-0.9565393,-0.2232438,0.32451206,0.11582987,0.40542826,-0.108805574,0.20553763,0.4148156,0.54967874,0.88225853,0.509461,0.62746924,-0.3593234,-0.33071023,0.37883008,0.9041848,-0.7400355,0.79826605,-0.633757,0.83311874,0.38797382,0.4848223,-0.47671402,-0.2793427,0.32010046,0.049406637,0.49039593,-0.36894056,0.46422395,-0.968945,1.0888157,0.69064313,-0.44590417,-0.7162328,0.16750108,-0.33915663,0.14776601,-0.649127,0.46154648,-0.30529442,0.10887862,0.3499546,0.93106043,0.73033917,-0.28637326,0.4863218,-0.26121622,-0.74255985,-0.63563824,-0.092309944,-0.387438,0.30752307,-0.28143466,-0.6213083,0.5350149,-0.19791265,-0.51519066,-0.61812717,0.47246814,-0.3021583,-0.95049554,0.17764166,0.67261153,0.19352557,-0.34307063,-0.76238364,-0.10766601,-0.2220639,0.65258443,0.062364295,0.17591809,0.2965466,-0.46392313,-0.74919474
KGN,-0.41692004,0.14376071,0.1729499,-0.10299459,-0.0075615975,-0.26097667,-0.1670373,0.6335368,0.2784568,0.39287803,0.36795294,-0.9498362,-0.2008353,0.3606015,0.0605867,0.45071694,-0.099609524,0.23549964,0.426102,0.63587415,0.95911384,0.5390373,0.6349531,-0.43991923,-0.26632854,0.3859258,0.9353024,-0.8104194,0.78482115,-0.6310525,0.9259297,0.38838217,0.5526507,-0.5282804,-0.27326155,0.3007792,0.0031626346,0.48296538,-0.38289604,0.4465239,-0.9868227,1.1615714,0.76873976,-0.43662187,-0.7176021,0.07034338,-0.4017366,0.07580594,-0.6389519,0.4578671,-0.39605916,0.08990895,0.3926373,0.9630223,0.74477386,-0.3014018,0.45446664,-0.29633665,-0.7815281,-0.6750975,-0.14347288,-0.33525482,0.3318437,-0.28634465,-0.66964066,0.5655394,-0.18852837,-0.5460163,-0.67950976,0.53994954,-0.2839496,-0.9494351,0.115364596,0.7261931,0.22258069,-0.33756107,-0.7892322,-0.11327996,-0.12951787,0.6184786,0.04635372,0.13366026,0.31816828,-0.45463535,-0.710539
SK-MEL-1,0.34512115,-0.2030265,-0.019382767,0.4531404,-0.6835738,-0.70916986,-0.4809688,-0.2240681,-0.0038845786,0.0020819327,-0.4173553,-0.02376341,0.4027048,0.033162892,0.28051868,0.1134814,-0.9098445,-0.081394345,-0.076359145,0.2827676,-0.012116393,0.15832916,0.26257578,0.038817026,0.7151261,-0.45297188,-0.70917636,-0.02413196,0.07356383,0.18020065,-0.05074928,-0.41465813,-0.4391162,0.33590382,0.19425839,0.53269476,0.2704627,0.65765643,-0.3536684,-0.34636325,-0.64338124,0.5418615,-0.1533463,0.72368616,-0.09650518,-0.19263726,-0.39963678,0.11377581,0.19085823,0.5505069,-0.20773245,-0.648484,0.13404576,-0.54006886,-0.20619425,-0.12913121,-0.04431418,-0.27865428,0.005170473,0.30287528,0.15157138,0.17807917,0.85303897,-0.041714076,-0.19276598,0.48958677,0.16969422,0.02206004,-0.09049331,0.33253795,0.103962384,-0.4573628,-0.04736399,-0.38212243,-0.2969517,0.6570639,-0.13445117,0.23726912,0.66321754,-0.023479197,-0.6429613,-0.1795073,-0.24932894,-0.2559209,0.09382436
KY821,0.3370279,0.11436234,0.19254865,-0.14717962,0.3258254,-0.2629724,-0.34422868,-0.07927474,-0.41032043,-0.15482841,0.035505038,-0.1647874,0.10063722,-0.34061095,-0.011905422,-0.21114396,-0.2724525,-0.41408506,0.14527181,-0.18620788,0.60458684,-0.008899878,0.068532184,0.26056752,-0.18504046,-0.31375605,0.19385017,-0.008807721,0.3168111,-0.26434666,-0.07432799,0.018077366,-0.13628338,0.17684056,-0.16900188,0.28378692,0.06966519,0.09781459,-0.14082727,0.14754136,0.09143222,0.2933378,-0.14586827,0.19101746,0.08923273,0.27353463,0.4866036,0.018843949,-0.45257553,-0.017198423,-0.14483371,-0.16122638,-0.25333747,0.16418205,0.08649223,0.1672381,0.23200715,0.0033497731,-0.055740748,0.045102317,0.06594256,-0.016040992,0.5229451,0.011554619,0.0033699519,0.28791398,0.111812375,-0.047953684,0.03597962,-0.10620866,0.15277772,-0.5249205,0.16078629,0.058969066,0.17249434,-0.23833434,0.112388425,0.14949591,-0.012394301,0.4534426,0.16089611,0.44908452,0.29065424,0.022740848,-0.14486732
NCI-H2227,0.3370279,0.11436234,0.19254865,-0.14717962,0.3258254,-0.2629724,-0.34422868,-0.07927474,-0.41032043,-0.15482841,0.035505038,-0.1647874,0.10063722,-0.34061095,-0.011905422,-0.21114396,-0.2724525,-0.41408506,0.14527181,-0.18620788,0.60458684,-0.008899878,0.068532184,0.26056752,-0.18504046,-0.31375605,0.19385017,-0.008807721,0.3168111,-0.26434666,-0.07432799,0.018077366,-0.13628338,0.17684056,-0.16900188,0.28378692,0.06966519,0.09781459,-0.14082727,0.14754136,0.09143222,0.2933378,-0.14586827,0.19101746,0.08923273,0.27353463,0.4866036,0.018843949,-0.45257553,-0.017198423,-0.14483371,-0.16122638,-0.25333747,0.16418205,0.08649223,0.1672381,0.23200715,0.0033497731,-0.055740748,0.045102317,0.06594256,-0.016040992,0.5229451,0.011554619,0.0033699519,0.28791398,0.111812375,-0.047953684,0.03597962,-0.10620866,0.15277772,-0.5249205,0.16078629,0.058969066,0.17249434,-0.23833434,0.112388425,0.14949591,-0.012394301,0.4534426,0.16089611,0.44908452,0.29065424,0.022740848,-0.14486732
Karpas-299,0.3370279,0.11436234,0.19254865,-0.14717962,0.3258254,-0.2629724,-0.34422868,-0.07927474,-0.41032043,-0.15482841,0.035505038,-0.1647874,0.10063722,-0.34061095,-0.011905422,-0.21114396,-0.2724525,-0.41408506,0.14527181,-0.18620788,0.60458684,-0.008899878,0.068532184,0.26056752,-0.18504046,-0.31375605,0.19385017,-0.008807721,0.3168111,-0.26434666,-0.07432799,0.018077366,-0.13628338,0.17684056,-0.16900188,0.28378692,0.06966519,0.09781459,-0.14082727,0.14754136,0.09143222,0.2933378,-0.14586827,0.19101746,0.08923273,0.27353463,0.4866036,0.018843949,-0.45257553,-0.017198423,-0.14483371,-0.16122638,-0.25333747,0.16418205,0.08649223,0.1672381,0.23200715,0.0033497731,-0.055740748,0.045102317,0.06594256,-0.016040992,0.5229451,0.011554619,0.0033699519,0.28791398,0.111812375,-0.047953684,0.03597962,-0.10620866,0.15277772,-0.5249205,0.16078629,0.058969066,0.17249434,-0.23833434,0.112388425,0.14949591,-0.012394301,0.4534426,0.16089611,0.44908452,0.29065424,0.022740848,-0.14486732
MKN28,0.34461018,-0.33551222,-0.12436185,0.05600499,-0.17810391,-0.6110942,-0.4613593,0.09888928,0.033501763,0.044901494,-0.3742493,0.010789541,0.1853715,0.22192368,0.52163124,-0.050214324,-0.6303918,-0.38671452,-0.093861654,-0.0205788,-0.18590905,0.29344034,0.51051146,0.058090594,0.25170767,-0.12373515,-0.20683123,0.24751125,0.30947858,-0.09452308,-0.5258085,-0.33424947,-0.23884185,0.5249081,0.330564,0.24417406,0.5730577,0.4892768,-0.10549493,0.041336317,-0.4706787,0.046292868,-0.16417164,0.25382495,0.045777656,0.3885242,-0.0027751857,0.37506202,0.03984697,0.22239561,0.1425809,-0.37081653,0.062418964,-0.2000307,0.058044504,-0.14807154,0.01452683,0.09178722,0.29168022,0.2167161,0.18507063,0.2915241,0.36409393,0.2857924,-0.34567392,0.21758741,-0.26111063,0.21125683,-0.35083303,0.2038206,-0.15298434,-0.31845558,0.06154403,0.11053109,-0.3903115,0.29727864,-0.006117398,-0.097428136,0.11287442,0.24750087,-0.25029278,0.16755633,-0.49253014,-0.34985834,-0.29496172
C-33 A,0.9288153,-0.2715297,-0.71254975,0.13174321,-0.49284172,0.567257,-1.0931714,0.23863937,0.66999435,-0.077827066,0.69147336,-0.07565582,-0.22647573,-0.6699882,0.5489602,1.124597,-0.18016957,-0.97221154,0.4455559,-0.62334913,1.3456643,0.53114796,-0.1341431,-0.37901512,-0.44391972,-0.8645365,0.7134044,-0.85376906,1.4506522,-0.8850562,0.011986447,0.498098,1.0011156,-0.10313965,0.73716396,1.1420938,0.6369564,0.42724386,-0.13567698,-0.40731585,-0.64848036,0.60200435,0.6452742,-0.69970393,-0.9043666,-0.1533416,-1.0745146,0.7753932,-0.77509785,0.56372476,0.13064323,0.1773155,-0.024963746,0.25130218,0.7617139,-0.1581153,1.1577193,-0.82994324,-1.3035948,0.77304107,-0.7327933,-1.3069451,-0.68041444,-1.069066,-0.9454721,0.39105463,-0.2572553,0.12581353,0.27319852,-0.82348114,-0.6385316,-1.231692,-0.30514485,-0.49952093,-0.3347542,0.61982065,0.21868826,0.09258431,-0.873059,1.1211759,0.9626982,-0.047845013,-0.108715855,0.47787368,-0.09888596
CAL-120,0.3370279,0.11436234,0.19254865,-0.14717962,0.3258254,-0.2629724,-0.34422868,-0.07927474,-0.41032043,-0.15482841,0.035505038,-0.1647874,0.10063722,-0.34061095,-0.011905422,-0.21114396,-0.2724525,-0.41408506,0.14527181,-0.18620788,0.60458684,-0.008899878,0.068532184,0.26056752,-0.18504046,-0.31375605,0.19385017,-0.008807721,0.3168111,-0.26434666,-0.07432799,0.018077366,-0.13628338,0.17684056,-0.16900188,0.28378692,0.06966519,0.09781459,-0.14082727,0.14754136,0.09143222,0.2933378,-0.14586827,0.19101746,0.08923273,0.27353463,0.4866036,0.018843949,-0.45257553,-0.017198423,-0.14483371,-0.16122638,-0.25333747,0.16418205,0.08649223,0.1672381,0.23200715,0.0033497731,-0.055740748,0.045102317,0.06594256,-0.016040992,0.5229451,0.011554619,0.0033699519,0.28791398,0.111812375,-0.047953684,0.03597962,-0.10620866,0.15277772,-0.5249205,0.16078629,0.058969066,0.17249434,-0.23833434,0.112388425,0.14949591,-0.012394301,0.4534426,0.16089611,0.44908452,0.29065424,0.022740848,-0.14486732
KYSE-180,-0.36515886,0.21130826,0.10597308,-0.1963061,0.060999207,-0.2539491,-0.1603284,0.60053027,0.21236049,0.3930281,0.38914567,-0.9565393,-0.2232438,0.32451206,0.11582987,0.40542826,-0.108805574,0.20553763,0.4148156,0.54967874,0.88225853,0.509461,0.62746924,-0.3593234,-0.33071023,0.37883008,0.9041848,-0.7400355,0.79826605,-0.633757,0.83311874,0.38797382,0.4848223,-0.47671402,-0.2793427,0.32010046,0.049406637,0.49039593,-0.36894056,0.46422395,-0.968945,1.0888157,0.69064313,-0.44590417,-0.7162328,0.16750108,-0.33915663,0.14776601,-0.649127,0.46154648,-0.30529442,0.10887862,0.3499546,0.93106043,0.73033917,-0.28637326,0.4863218,-0.26121622,-0.74255985,-0.63563824,-0.092309944,-0.387438,0.30752307,-0.28143466,-0.6213083,0.5350149,-0.19791265,-0.51519066,-0.61812717,0.47246814,-0.3021583,-0.95049554,0.17764166,0.67261153,0.19352557,-0.34307063,-0.76238364,-0.10766601,-0.2220639,0.65258443,0.062364295,0.17591809,0.2965466,-0.46392313,-0.74919474
CGTH-W-1,-0.36515886,0.21130826,0.10597308,-0.1963061,0.060999207,-0.2539491,-0.1603284,0.60053027,0.21236049,0.3930281,0.38914567,-0.9565393,-0.2232438,0.32451206,0.11582987,0.40542826,-0.108805574,0.20553763,0.4148156,0.54967874,0.88225853,0.509461,0.62746924,-0.3593234,-0.33071023,0.37883008,0.9041848,-0.7400355,0.79826605,-0.633757,0.83311874,0.38797382,0.4848223,-0.47671402,-0.2793427,0.32010046,0.049406637,0.49039593,-0.36894056,0.46422395,-0.968945,1.0888157,0.69064313,-0.44590417,-0.7162328,0.16750108,-0.33915663,0.14776601,-0.649127,0.46154648,-0.30529442,0.10887862,0.3499546,0.93106043,0.73033917,-0.28637326,0.4863218,-0.26121622,-0.74255985,-0.63563824,-0.092309944,-0.387438,0.30752307,-0.28143466,-0.6213083,0.5350149,-0.19791265,-0.51519066,-0.61812717,0.47246814,-0.3021583,-0.95049554,0.17764166,0.67261153,0.19352557,-0.34307063,-0.76238364,-0.10766601,-0.2220639,0.65258443,0.062364295,0.17591809,0.2965466,-0.46392313,-0.74919474
MDA-MB-361,0.06042664,-0.07179954,-0.21880923,0.00065001624,-0.33501658,0.1453559,-0.5190027,0.69025344,0.6815896,0.40416616,0.5933857,-0.7013291,-0.28254172,0.08045608,0.27361488,0.89073855,-0.014873614,-0.12533498,0.48528212,0.19876917,1.257561,0.6644364,0.43721896,-0.5797168,-0.3595621,0.0058443127,0.95669144,-0.96064526,1.1192107,-0.78308445,0.76637185,0.51616794,0.9386369,-0.49843737,0.20606022,0.6653703,0.30682287,0.57041335,-0.3083974,0.090446346,-1.1066906,1.0848625,0.9611266,-0.7017099,-0.91709507,-0.1625387,-0.92226195,0.3410635,-0.63750213,0.6129141,-0.20702356,0.07312884,0.31818792,0.8000903,0.9335518,-0.3181567,0.8367437,-0.5769044,-1.1811575,-0.1891018,-0.49212518,-0.7928028,-0.16635735,-0.71287936,-0.9313217,0.52211124,-0.27435207,-0.38059428,-0.40077674,0.120211355,-0.5402116,-1.075458,-0.17285137,0.39126772,-0.05045704,0.0009887036,-0.49372074,-0.09293651,-0.42754927,0.8800146,0.41430375,-0.042236462,0.13027379,-0.14703815,-0.5076362
NCI-H1436,0.40483272,0.078713804,-0.21306255,-0.00047993523,-0.15049396,0.12348465,-0.6310175,0.33116668,0.27286875,0.06698075,0.4462296,-0.29901984,-0.19101469,-0.27048072,0.27313122,0.6183587,-0.12727945,-0.4076933,0.3763832,-0.21161045,1.0045449,0.47274086,0.16454515,-0.2288583,-0.29746664,-0.34612316,0.6238799,-0.52529764,1.0147907,-0.6739219,0.30177727,0.3528133,0.49169946,-0.16523507,0.15776485,0.6683331,0.25049567,0.3948655,-0.17456682,-0.06661941,-0.5946502,0.63173056,0.44955522,-0.48283687,-0.5932302,0.08510869,-0.5355406,0.510654,-0.6260289,0.39478928,0.013555694,0.07097034,0.10092308,0.3337447,0.59359735,-0.109969035,0.77271175,-0.4252406,-0.75615966,0.20557089,-0.27852532,-0.70542014,-0.17029364,-0.64215744,-0.59457576,0.40569407,-0.15707439,-0.10539976,-0.09020066,-0.26236007,-0.3610689,-0.9090235,-0.036111668,0.009399638,-0.038537227,0.10431904,-0.12952478,-0.0003471388,-0.5492326,0.7642824,0.51099885,0.14944333,0.06410748,0.05440501,-0.3501621
THP-1,-0.36515886,0.21130826,0.10597308,-0.1963061,0.060999207,-0.2539491,-0.1603284,0.60053027,0.21236049,0.3930281,0.38914567,-0.9565393,-0.2232438,0.32451206,0.11582987,0.40542826,-0.108805574,0.20553763,0.4148156,0.54967874,0.88225853,0.509461,0.62746924,-0.3593234,-0.33071023,0.37883008,0.9041848,-0.7400355,0.79826605,-0.633757,0.83311874,0.38797382,0.4848223,-0.47671402,-0.2793427,0.32010046,0.049406637,0.49039593,-0.36894056,0.46422395,-0.968945,1.0888157,0.69064313,-0.44590417,-0.7162328,0.16750108,-0.33915663,0.14776601,-0.649127,0.46154648,-0.30529442,0.10887862,0.3499546,0.93106043,0.73033917,-0.28637326,0.4863218,-0.26121622,-0.74255985,-0.63563824,-0.092309944,-0.387438,0.30752307,-0.28143466,-0.6213083,0.5350149,-0.19791265,-0.51519066,-0.61812717,0.47246814,-0.3021583,-0.95049554,0.17764166,0.67261153,0.19352557,-0.34307063,-0.76238364,-0.10766601,-0.2220639,0.65258443,0.062364295,0.17591809,0.2965466,-0.46392313,-0.74919474
EoL-1,-0.41692004,0.14376071,0.1729499,-0.10299459,-0.0075615975,-0.26097667,-0.1670373,0.6335368,0.2784568,0.39287803,0.36795294,-0.9498362,-0.2008353,0.3606015,0.0605867,0.45071694,-0.099609524,0.23549964,0.426102,0.63587415,0.95911384,0.5390373,0.6349531,-0.43991923,-0.26632854,0.3859258,0.9353024,-0.8104194,0.78482115,-0.6310525,0.9259297,0.38838217,0.5526507,-0.5282804,-0.27326155,0.3007792,0.0031626346,0.48296538,-0.38289604,0.4465239,-0.9868227,1.1615714,0.76873976,-0.43662187,-0.7176021,0.07034338,-0.4017366,0.07580594,-0.6389519,0.4578671,-0.39605916,0.08990895,0.3926373,0.9630223,0.74477386,-0.3014018,0.45446664,-0.29633665,-0.7815281,-0.6750975,-0.14347288,-0.33525482,0.3318437,-0.28634465,-0.66964066,0.5655394,-0.18852837,-0.5460163,-0.67950976,0.53994954,-0.2839496,-0.9494351,0.115364596,0.7261931,0.22258069,-0.33756107,-0.7892322,-0.11327996,-0.12951787,0.6184786,0.04635372,0.13366026,0.31816828,-0.45463535,-0.710539
HN,-0.36515886,0.21130826,0.10597308,-0.1963061,0.060999207,-0.2539491,-0.1603284,0.60053027,0.21236049,0.3930281,0.38914567,-0.9565393,-0.2232438,0.32451206,0.11582987,0.40542826,-0.108805574,0.20553763,0.4148156,0.54967874,0.88225853,0.509461,0.62746924,-0.3593234,-0.33071023,0.37883008,0.9041848,-0.7400355,0.79826605,-0.633757,0.83311874,0.38797382,0.4848223,-0.47671402,-0.2793427,0.32010046,0.049406637,0.49039593,-0.36894056,0.46422395,-0.968945,1.0888157,0.69064313,-0.44590417,-0.7162328,0.16750108,-0.33915663,0.14776601,-0.649127,0.46154648,-0.30529442,0.10887862,0.3499546,0.93106043,0.73033917,-0.28637326,0.4863218,-0.26121622,-0.74255985,-0.63563824,-0.092309944,-0.387438,0.30752307,-0.28143466,-0.6213083,0.5350149,-0.19791265,-0.51519066,-0.61812717,0.47246814,-0.3021583,-0.95049554,0.17764166,0.67261153,0.19352557,-0.34307063,-0.76238364,-0.10766601,-0.2220639,0.65258443,0.062364295,0.17591809,0.2965466,-0.46392313,-0.74919474
RT-4,-0.41692004,0.14376071,0.1729499,-0.10299459,-0.0075615975,-0.26097667,-0.1670373,0.6335368,0.2784568,0.39287803,0.36795294,-0.9498362,-0.2008353,0.3606015,0.0605867,0.45071694,-0.099609524,0.23549964,0.426102,0.63587415,0.95911384,0.5390373,0.6349531,-0.43991923,-0.26632854,0.3859258,0.9353024,-0.8104194,0.78482115,-0.6310525,0.9259297,0.38838217,0.5526507,-0.5282804,-0.27326155,0.3007792,0.0031626346,0.48296538,-0.38289604,0.4465239,-0.9868227,1.1615714,0.76873976,-0.43662187,-0.7176021,0.07034338,-0.4017366,0.07580594,-0.6389519,0.4578671,-0.39605916,0.08990895,0.3926373,0.9630223,0.74477386,-0.3014018,0.45446664,-0.29633665,-0.7815281,-0.6750975,-0.14347288,-0.33525482,0.3318437,-0.28634465,-0.66964066,0.5655394,-0.18852837,-0.5460163,-0.67950976,0.53994954,-0.2839496,-0.9494351,0.115364596,0.7261931,0.22258069,-0.33756107,-0.7892322,-0.11327996,-0.12951787,0.6184786,0.04635372,0.13366026,0.31816828,-0.45463535,-0.710539
ZR-75-30,0.39335847,0.20650756,0.31650218,0.26471347,-0.06752428,-0.29049894,-0.20837133,-0.19685763,-0.39462388,-0.22667892,0.04489078,-0.10809859,0.03255642,-0.40866497,-0.1361893,-0.015049762,-0.39582923,-0.13052273,0.15058862,-0.13122351,0.8206931,-0.026452057,-0.06971766,0.2378595,0.36387223,-0.67086923,-0.276708,-0.2040418,0.1531439,-0.041624468,0.2784433,0.15208751,-0.2811491,-0.13433895,-0.26233226,0.6357451,-0.2495076,0.109142035,-0.21567568,-0.24583475,-0.14756674,0.62908673,-0.16974425,0.50584465,0.07235667,-0.4532992,0.20720644,-0.22720212,-0.20446314,0.31077114,-0.48404846,-0.56251496,-0.10230565,-0.16514249,-0.12972234,0.10201606,0.3219123,-0.33386612,-0.337764,0.15108566,0.08156286,-0.005640848,0.7876677,-0.3646955,0.103706,0.3837542,0.59963316,-0.25267246,0.18716843,0.100517206,0.41542044,-0.27001128,-0.08673383,-0.24517561,0.2408819,-0.03271572,0.17709556,0.49231702,0.4713208,0.28085563,-0.050138447,0.05162594,0.53082263,0.18245108,0.20805588
Daudi,0.3370279,0.11436234,0.19254865,-0.14717962,0.3258254,-0.2629724,-0.34422868,-0.07927474,-0.41032043,-0.15482841,0.035505038,-0.1647874,0.10063722,-0.34061095,-0.011905422,-0.21114396,-0.2724525,-0.41408506,0.14527181,-0.18620788,0.60458684,-0.008899878,0.068532184,0.26056752,-0.18504046,-0.31375605,0.19385017,-0.008807721,0.3168111,-0.26434666,-0.07432799,0.018077366,-0.13628338,0.17684056,-0.16900188,0.28378692,0.06966519,0.09781459,-0.14082727,0.14754136,0.09143222,0.2933378,-0.14586827,0.19101746,0.08923273,0.27353463,0.4866036,0.018843949,-0.45257553,-0.017198423,-0.14483371,-0.16122638,-0.25333747,0.16418205,0.08649223,0.1672381,0.23200715,0.0033497731,-0.055740748,0.045102317,0.06594256,-0.016040992,0.5229451,0.011554619,0.0033699519,0.28791398,0.111812375,-0.047953684,0.03597962,-0.10620866,0.15277772,-0.5249205,0.16078629,0.058969066,0.17249434,-0.23833434,0.112388425,0.14949591,-0.012394301,0.4534426,0.16089611,0.44908452,0.29065424,0.022740848,-0.14486732
MV4-11,0.33574325,0.1413334,0.30516,0.25822586,-0.0029173526,-0.33921203,-0.22627057,-0.3116588,-0.48826176,-0.33670065,-0.00053417194,-0.19011301,0.09095596,-0.4398193,-0.14170572,-0.066376835,-0.5250851,-0.21934101,0.14651619,-0.02391374,0.78560734,-0.11129103,-0.12090485,0.25837034,0.32835305,-0.69019234,-0.22555427,-0.3094965,0.15509523,-0.049325336,0.19816494,0.12980871,-0.26010686,-0.1176351,-0.2791752,0.6314894,-0.24033953,0.050438363,-0.2604016,-0.15653348,-0.07034806,0.67529726,-0.21165815,0.6057397,0.02344005,-0.40912887,0.3146627,-0.2906309,-0.317492,0.28909364,-0.56984526,-0.46378145,-0.13202213,-0.070948444,-0.18968435,0.07624384,0.24813306,-0.3718181,-0.37610176,0.11469859,0.067688294,-0.0313627,0.8762279,-0.2625409,0.10031492,0.41413513,0.60385644,-0.2410019,0.21270537,0.07589262,0.46040148,-0.4007638,-0.014202628,-0.31271282,0.27071586,0.022938183,0.16091739,0.5403119,0.51907176,0.3094832,-0.06527341,0.057802435,0.572489,0.2056025,0.20491152
ETK-1,-0.36515886,0.21130826,0.10597308,-0.1963061,0.060999207,-0.2539491,-0.1603284,0.60053027,0.21236049,0.3930281,0.38914567,-0.9565393,-0.2232438,0.32451206,0.11582987,0.40542826,-0.108805574,0.20553763,0.4148156,0.54967874,0.88225853,0.509461,0.62746924,-0.3593234,-0.33071023,0.37883008,0.9041848,-0.7400355,0.79826605,-0.633757,0.83311874,0.38797382,0.4848223,-0.47671402,-0.2793427,0.32010046,0.049406637,0.49039593,-0.36894056,0.46422395,-0.968945,1.0888157,0.69064313,-0.44590417,-0.7162328,0.16750108,-0.33915663,0.14776601,-0.649127,0.46154648,-0.30529442,0.10887862,0.3499546,0.93106043,0.73033917,-0.28637326,0.4863218,-0.26121622,-0.74255985,-0.63563824,-0.092309944,-0.387438,0.30752307,-0.28143466,-0.6213083,0.5350149,-0.19791265,-0.51519066,-0.61812717,0.47246814,-0.3021583,-0.95049554,0.17764166,0.67261153,0.19352557,-0.34307063,-0.76238364,-0.10766601,-0.2220639,0.65258443,0.062364295,0.17591809,0.2965466,-0.46392313,-0.74919474
SCC-9,-0.36515886,0.21130826,0.10597308,-0.1963061,0.060999207,-0.2539491,-0.1603284,0.60053027,0.21236049,0.3930281,0.38914567,-0.9565393,-0.2232438,0.32451206,0.11582987,0.40542826,-0.108805574,0.20553763,0.4148156,0.54967874,0.88225853,0.509461,0.62746924,-0.3593234,-0.33071023,0.37883008,0.9041848,-0.7400355,0.79826605,-0.633757,0.83311874,0.38797382,0.4848223,-0.47671402,-0.2793427,0.32010046,0.049406637,0.49039593,-0.36894056,0.46422395,-0.968945,1.0888157,0.69064313,-0.44590417,-0.7162328,0.16750108,-0.33915663,0.14776601,-0.649127,0.46154648,-0.30529442,0.10887862,0.3499546,0.93106043,0.73033917,-0.28637326,0.4863218,-0.26121622,-0.74255985,-0.63563824,-0.092309944,-0.387438,0.30752307,-0.28143466,-0.6213083,0.5350149,-0.19791265,-0.51519066,-0.61812717,0.47246814,-0.3021583,-0.95049554,0.17764166,0.67261153,0.19352557,-0.34307063,-0.76238364,-0.10766601,-0.2220639,0.65258443,0.062364295,0.17591809,0.2965466,-0.46392313,-0.74919474
SW962,0.3370279,0.11436234,0.19254865,-0.14717962,0.3258254,-0.2629724,-0.34422868,-0.07927474,-0.41032043,-0.15482841,0.035505038,-0.1647874,0.10063722,-0.34061095,-0.011905422,-0.21114396,-0.2724525,-0.41408506,0.14527181,-0.18620788,0.60458684,-0.008899878,0.068532184,0.26056752,-0.18504046,-0.31375605,0.19385017,-0.008807721,0.3168111,-0.26434666,-0.07432799,0.018077366,-0.13628338,0.17684056,-0.16900188,0.28378692,0.06966519,0.09781459,-0.14082727,0.14754136,0.09143222,0.2933378,-0.14586827,0.19101746,0.08923273,0.27353463,0.4866036,0.018843949,-0.45257553,-0.017198423,-0.14483371,-0.16122638,-0.25333747,0.16418205,0.08649223,0.1672381,0.23200715,0.0033497731,-0.055740748,0.045102317,0.06594256,-0.016040992,0.5229451,0.011554619,0.0033699519,0.28791398,0.111812375,-0.047953684,0.03597962,-0.10620866,0.15277772,-0.5249205,0.16078629,0.058969066,0.17249434,-0.23833434,0.112388425,0.14949591,-0.012394301,0.4534426,0.16089611,0.44908452,0.29065424,0.022740848,-0.14486732
LB2518-MEL,-0.41692004,0.14376071,0.1729499,-0.10299459,-0.0075615975,-0.26097667,-0.1670373,0.6335368,0.2784568,0.39287803,0.36795294,-0.9498362,-0.2008353,0.3606015,0.0605867,0.45071694,-0.099609524,0.23549964,0.426102,0.63587415,0.95911384,0.5390373,0.6349531,-0.43991923,-0.26632854,0.3859258,0.9353024,-0.8104194,0.78482115,-0.6310525,0.9259297,0.38838217,0.5526507,-0.5282804,-0.27326155,0.3007792,0.0031626346,0.48296538,-0.38289604,0.4465239,-0.9868227,1.1615714,0.76873976,-0.43662187,-0.7176021,0.07034338,-0.4017366,0.07580594,-0.6389519,0.4578671,-0.39605916,0.08990895,0.3926373,0.9630223,0.74477386,-0.3014018,0.45446664,-0.29633665,-0.7815281,-0.6750975,-0.14347288,-0.33525482,0.3318437,-0.28634465,-0.66964066,0.5655394,-0.18852837,-0.5460163,-0.67950976,0.53994954,-0.2839496,-0.9494351,0.115364596,0.7261931,0.22258069,-0.33756107,-0.7892322,-0.11327996,-0.12951787,0.6184786,0.04635372,0.13366026,0.31816828,-0.45463535,-0.710539
NCI-H2342,0.3370279,0.11436234,0.19254865,-0.14717962,0.3258254,-0.2629724,-0.34422868,-0.07927474,-0.41032043,-0.15482841,0.035505038,-0.1647874,0.10063722,-0.34061095,-0.011905422,-0.21114396,-0.2724525,-0.41408506,0.14527181,-0.18620788,0.60458684,-0.008899878,0.068532184,0.26056752,-0.18504046,-0.31375605,0.19385017,-0.008807721,0.3168111,-0.26434666,-0.07432799,0.018077366,-0.13628338,0.17684056,-0.16900188,0.28378692,0.06966519,0.09781459,-0.14082727,0.14754136,0.09143222,0.2933378,-0.14586827,0.19101746,0.08923273,0.27353463,0.4866036,0.018843949,-0.45257553,-0.017198423,-0.14483371,-0.16122638,-0.25333747,0.16418205,0.08649223,0.1672381,0.23200715,0.0033497731,-0.055740748,0.045102317,0.06594256,-0.016040992,0.5229451,0.011554619,0.0033699519,0.28791398,0.111812375,-0.047953684,0.03597962,-0.10620866,0.15277772,-0.5249205,0.16078629,0.058969066,0.17249434,-0.23833434,0.112388425,0.14949591,-0.012394301,0.4534426,0.16089611,0.44908452,0.29065424,0.022740848,-0.14486732
ARH-77,0.3370279,0.11436234,0.19254865,-0.14717962,0.3258254,-0.2629724,-0.34422868,-0.07927474,-0.41032043,-0.15482841,0.035505038,-0.1647874,0.10063722,-0.34061095,-0.011905422,-0.21114396,-0.2724525,-0.41408506,0.14527181,-0.18620788,0.60458684,-0.008899878,0.068532184,0.26056752,-0.18504046,-0.31375605,0.19385017,-0.008807721,0.3168111,-0.26434666,-0.07432799,0.018077366,-0.13628338,0.17684056,-0.16900188,0.28378692,0.06966519,0.09781459,-0.14082727,0.14754136,0.09143222,0.2933378,-0.14586827,0.19101746,0.08923273,0.27353463,0.4866036,0.018843949,-0.45257553,-0.017198423,-0.14483371,-0.16122638,-0.25333747,0.16418205,0.08649223,0.1672381,0.23200715,0.0033497731,-0.055740748,0.045102317,0.06594256,-0.016040992,0.5229451,0.011554619,0.0033699519,0.28791398,0.111812375,-0.047953684,0.03597962,-0.10620866,0.15277772,-0.5249205,0.16078629,0.058969066,0.17249434,-0.23833434,0.112388425,0.14949591,-0.012394301,0.4534426,0.16089611,0.44908452,0.29065424,0.022740848,-0.14486732
RT-112,-0.36515886,0.21130826,0.10597308,-0.1963061,0.060999207,-0.2539491,-0.1603284,0.60053027,0.21236049,0.3930281,0.38914567,-0.9565393,-0.2232438,0.32451206,0.11582987,0.40542826,-0.108805574,0.20553763,0.4148156,0.54967874,0.88225853,0.509461,0.62746924,-0.3593234,-0.33071023,0.37883008,0.9041848,-0.7400355,0.79826605,-0.633757,0.83311874,0.38797382,0.4848223,-0.47671402,-0.2793427,0.32010046,0.049406637,0.49039593,-0.36894056,0.46422395,-0.968945,1.0888157,0.69064313,-0.44590417,-0.7162328,0.16750108,-0.33915663,0.14776601,-0.649127,0.46154648,-0.30529442,0.10887862,0.3499546,0.93106043,0.73033917,-0.28637326,0.4863218,-0.26121622,-0.74255985,-0.63563824,-0.092309944,-0.387438,0.30752307,-0.28143466,-0.6213083,0.5350149,-0.19791265,-0.51519066,-0.61812717,0.47246814,-0.3021583,-0.95049554,0.17764166,0.67261153,0.19352557,-0.34307063,-0.76238364,-0.10766601,-0.2220639,0.65258443,0.062364295,0.17591809,0.2965466,-0.46392313,-0.74919474
KOSC-2,-0.36515886,0.21130826,0.10597308,-0.1963061,0.060999207,-0.2539491,-0.1603284,0.60053027,0.21236049,0.3930281,0.38914567,-0.9565393,-0.2232438,0.32451206,0.11582987,0.40542826,-0.108805574,0.20553763,0.4148156,0.54967874,0.88225853,0.509461,0.62746924,-0.3593234,-0.33071023,0.37883008,0.9041848,-0.7400355,0.79826605,-0.633757,0.83311874,0.38797382,0.4848223,-0.47671402,-0.2793427,0.32010046,0.049406637,0.49039593,-0.36894056,0.46422395,-0.968945,1.0888157,0.69064313,-0.44590417,-0.7162328,0.16750108,-0.33915663,0.14776601,-0.649127,0.46154648,-0.30529442,0.10887862,0.3499546,0.93106043,0.73033917,-0.28637326,0.4863218,-0.26121622,-0.74255985,-0.63563824,-0.092309944,-0.387438,0.30752307,-0.28143466,-0.6213083,0.5350149,-0.19791265,-0.51519066,-0.61812717,0.47246814,-0.3021583,-0.95049554,0.17764166,0.67261153,0.19352557,-0.34307063,-0.76238364,-0.10766601,-0.2220639,0.65258443,0.062364295,0.17591809,0.2965466,-0.46392313,-0.74919474
TGBC11TKB,0.44895524,0.34629104,-0.5283541,-0.43813226,-0.4381768,0.10024067,-0.7149566,-0.19347551,-0.14893943,0.11860398,-0.3742297,0.2289789,0.23350106,-0.35616213,0.5274228,0.39329806,0.064462796,-0.7852246,0.1259721,-0.24362072,0.643968,-0.43230778,-0.44656563,0.010987352,0.073689215,-0.030870182,0.18449847,-0.37876987,0.31621277,-0.10780004,-0.5515397,0.14298019,0.61666965,0.16984591,0.03315946,0.1396473,0.88108855,-0.004682636,-0.16097422,-0.5907757,0.07921761,0.45894864,0.23145145,-0.5529931,-0.5342423,0.25037396,-0.22941563,0.16414106,0.1488297,0.24458417,-0.046207815,0.5563116,-0.52859175,-0.47334635,0.00975593,-0.17233934,0.27706993,0.10551785,-0.37885192,0.7422591,-0.29263687,-0.031962477,0.06721267,-0.40558773,-0.2580735,0.15464045,-0.46796095,0.6443249,0.78275925,-0.8076426,-0.53016484,-0.40442777,-0.53608197,-0.03635349,-0.5307602,0.40618464,0.7182435,0.0021102468,-0.008047381,0.5511487,-0.05219096,0.06439145,-0.27959588,0.19524568,0.13694042
TALL-1 [Human adult T-ALL],0.3370279,0.11436234,0.19254865,-0.14717962,0.3258254,-0.2629724,-0.34422868,-0.07927474,-0.41032043,-0.15482841,0.035505038,-0.1647874,0.10063722,-0.34061095,-0.011905422,-0.21114396,-0.2724525,-0.41408506,0.14527181,-0.18620788,0.60458684,-0.008899878,0.068532184,0.26056752,-0.18504046,-0.31375605,0.19385017,-0.008807721,0.3168111,-0.26434666,-0.07432799,0.018077366,-0.13628338,0.17684056,-0.16900188,0.28378692,0.06966519,0.09781459,-0.14082727,0.14754136,0.09143222,0.2933378,-0.14586827,0.19101746,0.08923273,0.27353463,0.4866036,0.018843949,-0.45257553,-0.017198423,-0.14483371,-0.16122638,-0.25333747,0.16418205,0.08649223,0.1672381,0.23200715,0.0033497731,-0.055740748,0.045102317,0.06594256,-0.016040992,0.5229451,0.011554619,0.0033699519,0.28791398,0.111812375,-0.047953684,0.03597962,-0.10620866,0.15277772,-0.5249205,0.16078629,0.058969066,0.17249434,-0.23833434,0.112388425,0.14949591,-0.012394301,0.4534426,0.16089611,0.44908452,0.29065424,0.022740848,-0.14486732
NCI-H1770,0.44504392,0.055517916,-0.21592452,-0.010861709,-0.12713861,0.11641344,-0.6122951,0.33310416,0.2829607,0.061694656,0.45708728,-0.33180127,-0.17990285,-0.30047184,0.2942198,0.58883566,-0.13586865,-0.40024507,0.34939426,-0.19462468,0.9951393,0.45652232,0.20064941,-0.20507416,-0.28755423,-0.35631552,0.60100055,-0.52620465,1.0440117,-0.68604255,0.29535523,0.3766758,0.4758539,-0.16667083,0.1318759,0.6777497,0.29479292,0.41405037,-0.1665935,-0.08409947,-0.63374996,0.646752,0.43490118,-0.50006074,-0.5967739,0.060045276,-0.5436742,0.47462934,-0.6194321,0.38602802,0.0027068593,0.03449997,0.08541208,0.34548888,0.61949164,-0.11213353,0.7762172,-0.4085615,-0.74284226,0.21048553,-0.2979587,-0.7209852,-0.14776212,-0.64241135,-0.6126706,0.41169304,-0.15778342,-0.10674918,-0.1067121,-0.25369093,-0.38400245,-0.9294512,-0.031481937,0.040268704,-0.061211057,0.093907066,-0.12211974,0.013829841,-0.54725945,0.8105594,0.5115989,0.1889284,0.10408124,0.027146136,-0.34082466
KYSE-520,0.3370279,0.11436234,0.19254865,-0.14717962,0.3258254,-0.2629724,-0.34422868,-0.07927474,-0.41032043,-0.15482841,0.035505038,-0.1647874,0.10063722,-0.34061095,-0.011905422,-0.21114396,-0.2724525,-0.41408506,0.14527181,-0.18620788,0.60458684,-0.008899878,0.068532184,0.26056752,-0.18504046,-0.31375605,0.19385017,-0.008807721,0.3168111,-0.26434666,-0.07432799,0.018077366,-0.13628338,0.17684056,-0.16900188,0.28378692,0.06966519,0.09781459,-0.14082727,0.14754136,0.09143222,0.2933378,-0.14586827,0.19101746,0.08923273,0.27353463,0.4866036,0.018843949,-0.45257553,-0.017198423,-0.14483371,-0.16122638,-0.25333747,0.16418205,0.08649223,0.1672381,0.23200715,0.0033497731,-0.055740748,0.045102317,0.06594256,-0.016040992,0.5229451,0.011554619,0.0033699519,0.28791398,0.111812375,-0.047953684,0.03597962,-0.10620866,0.15277772,-0.5249205,0.16078629,0.058969066,0.17249434,-0.23833434,0.112388425,0.14949591,-0.012394301,0.4534426,0.16089611,0.44908452,0.29065424,0.022740848,-0.14486732
LB2241-RCC,-0.41692004,0.14376071,0.1729499,-0.10299459,-0.0075615975,-0.26097667,-0.1670373,0.6335368,0.2784568,0.39287803,0.36795294,-0.9498362,-0.2008353,0.3606015,0.0605867,0.45071694,-0.099609524,0.23549964,0.426102,0.63587415,0.95911384,0.5390373,0.6349531,-0.43991923,-0.26632854,0.3859258,0.9353024,-0.8104194,0.78482115,-0.6310525,0.9259297,0.38838217,0.5526507,-0.5282804,-0.27326155,0.3007792,0.0031626346,0.48296538,-0.38289604,0.4465239,-0.9868227,1.1615714,0.76873976,-0.43662187,-0.7176021,0.07034338,-0.4017366,0.07580594,-0.6389519,0.4578671,-0.39605916,0.08990895,0.3926373,0.9630223,0.74477386,-0.3014018,0.45446664,-0.29633665,-0.7815281,-0.6750975,-0.14347288,-0.33525482,0.3318437,-0.28634465,-0.66964066,0.5655394,-0.18852837,-0.5460163,-0.67950976,0.53994954,-0.2839496,-0.9494351,0.115364596,0.7261931,0.22258069,-0.33756107,-0.7892322,-0.11327996,-0.12951787,0.6184786,0.04635372,0.13366026,0.31816828,-0.45463535,-0.710539
KNS-42,0.3370279,0.11436234,0.19254865,-0.14717962,0.3258254,-0.2629724,-0.34422868,-0.07927474,-0.41032043,-0.15482841,0.035505038,-0.1647874,0.10063722,-0.34061095,-0.011905422,-0.21114396,-0.2724525,-0.41408506,0.14527181,-0.18620788,0.60458684,-0.008899878,0.068532184,0.26056752,-0.18504046,-0.31375605,0.19385017,-0.008807721,0.3168111,-0.26434666,-0.07432799,0.018077366,-0.13628338,0.17684056,-0.16900188,0.28378692,0.06966519,0.09781459,-0.14082727,0.14754136,0.09143222,0.2933378,-0.14586827,0.19101746,0.08923273,0.27353463,0.4866036,0.018843949,-0.45257553,-0.017198423,-0.14483371,-0.16122638,-0.25333747,0.16418205,0.08649223,0.1672381,0.23200715,0.0033497731,-0.055740748,0.045102317,0.06594256,-0.016040992,0.5229451,0.011554619,0.0033699519,0.28791398,0.111812375,-0.047953684,0.03597962,-0.10620866,0.15277772,-0.5249205,0.16078629,0.058969066,0.17249434,-0.23833434,0.112388425,0.14949591,-0.012394301,0.4534426,0.16089611,0.44908452,0.29065424,0.022740848,-0.14486732
HCC1187,0.3370279,0.11436234,0.19254865,-0.14717962,0.3258254,-0.2629724,-0.34422868,-0.07927474,-0.41032043,-0.15482841,0.035505038,-0.1647874,0.10063722,-0.34061095,-0.011905422,-0.21114396,-0.2724525,-0.41408506,0.14527181,-0.18620788,0.60458684,-0.008899878,0.068532184,0.26056752,-0.18504046,-0.31375605,0.19385017,-0.008807721,0.3168111,-0.26434666,-0.07432799,0.018077366,-0.13628338,0.17684056,-0.16900188,0.28378692,0.06966519,0.09781459,-0.14082727,0.14754136,0.09143222,0.2933378,-0.14586827,0.19101746,0.08923273,0.27353463,0.4866036,0.018843949,-0.45257553,-0.017198423,-0.14483371,-0.16122638,-0.25333747,0.16418205,0.08649223,0.1672381,0.23200715,0.0033497731,-0.055740748,0.045102317,0.06594256,-0.016040992,0.5229451,0.011554619,0.0033699519,0.28791398,0.111812375,-0.047953684,0.03597962,-0.10620866,0.15277772,-0.5249205,0.16078629,0.058969066,0.17249434,-0.23833434,0.112388425,0.14949591,-0.012394301,0.4534426,0.16089611,0.44908452,0.29065424,0.022740848,-0.14486732
NCI-H2405,-0.35578096,-0.13305165,-0.21856964,-0.0013913929,-0.61965734,-0.623907,-0.4150266,0.688121,0.69673777,0.7318105,-0.027675444,-0.79018956,0.08850511,0.79749435,0.5380544,0.5852864,-0.49356514,0.3434843,0.19194038,0.85636,0.08453487,0.77908117,1.0109501,-0.5788766,0.056062773,0.6160504,0.42056254,-0.45467082,0.7167346,-0.40423104,0.5842048,-0.156493,0.30581293,-0.023175139,0.19409087,0.22130582,0.56020886,1.0976138,-0.46220738,0.27439412,-1.5419781,0.95538,0.74895495,-0.32795763,-0.83617806,0.38399264,-1.0534557,0.55217266,-0.14077693,0.7229597,0.056818448,-0.075824,0.6160223,0.46194002,0.7138292,-0.4917483,0.1938746,-0.16805252,-0.36128765,-0.44746166,-0.00842684,-0.1779963,0.28433412,-0.060607817,-0.9143892,0.61046654,-0.6320747,-0.25212875,-0.92132574,0.7291134,-0.65859723,-1.0070946,0.1444803,0.60320187,-0.37414205,0.2910551,-1.0577524,-0.41070884,-0.07791811,0.31962207,-0.51532364,-0.06139168,-0.52527106,-0.9254467,-0.8602818
P31/FUJ,0.44504392,0.055517916,-0.21592452,-0.010861709,-0.12713861,0.11641344,-0.6122951,0.33310416,0.2829607,0.061694656,0.45708728,-0.33180127,-0.17990285,-0.30047184,0.2942198,0.58883566,-0.13586865,-0.40024507,0.34939426,-0.19462468,0.9951393,0.45652232,0.20064941,-0.20507416,-0.28755423,-0.35631552,0.60100055,-0.52620465,1.0440117,-0.68604255,0.29535523,0.3766758,0.4758539,-0.16667083,0.1318759,0.6777497,0.29479292,0.41405037,-0.1665935,-0.08409947,-0.63374996,0.646752,0.43490118,-0.50006074,-0.5967739,0.060045276,-0.5436742,0.47462934,-0.6194321,0.38602802,0.0027068593,0.03449997,0.08541208,0.34548888,0.61949164,-0.11213353,0.7762172,-0.4085615,-0.74284226,0.21048553,-0.2979587,-0.7209852,-0.14776212,-0.64241135,-0.6126706,0.41169304,-0.15778342,-0.10674918,-0.1067121,-0.25369093,-0.38400245,-0.9294512,-0.031481937,0.040268704,-0.061211057,0.093907066,-0.12211974,0.013829841,-0.54725945,0.8105594,0.5115989,0.1889284,0.10408124,0.027146136,-0.34082466
CAL-12T,-0.35578096,-0.13305165,-0.21856964,-0.0013913929,-0.61965734,-0.623907,-0.4150266,0.688121,0.69673777,0.7318105,-0.027675444,-0.79018956,0.08850511,0.79749435,0.5380544,0.5852864,-0.49356514,0.3434843,0.19194038,0.85636,0.08453487,0.77908117,1.0109501,-0.5788766,0.056062773,0.6160504,0.42056254,-0.45467082,0.7167346,-0.40423104,0.5842048,-0.156493,0.30581293,-0.023175139,0.19409087,0.22130582,0.56020886,1.0976138,-0.46220738,0.27439412,-1.5419781,0.95538,0.74895495,-0.32795763,-0.83617806,0.38399264,-1.0534557,0.55217266,-0.14077693,0.7229597,0.056818448,-0.075824,0.6160223,0.46194002,0.7138292,-0.4917483,0.1938746,-0.16805252,-0.36128765,-0.44746166,-0.00842684,-0.1779963,0.28433412,-0.060607817,-0.9143892,0.61046654,-0.6320747,-0.25212875,-0.92132574,0.7291134,-0.65859723,-1.0070946,0.1444803,0.60320187,-0.37414205,0.2910551,-1.0577524,-0.41070884,-0.07791811,0.31962207,-0.51532364,-0.06139168,-0.52527106,-0.9254467,-0.8602818
ME-180,0.81308985,-0.07422688,-0.086599134,0.36187047,-0.33037233,0.06712059,-0.578236,-0.25494227,-0.085129015,-0.32541233,0.22489859,0.058394063,0.009249534,-0.71996474,0.07132241,0.3736447,-0.44034913,-0.58017564,0.2056963,-0.4610187,1.0840545,0.014108091,-0.318639,0.118572734,0.2351195,-1.0702739,-0.20416531,-0.45972225,0.48948476,-0.2013573,0.03860709,0.25759447,0.12587933,-0.087792106,0.20014659,0.9960805,0.063320704,0.1378863,-0.18590295,-0.51261103,-0.19021603,0.59858835,-0.019271318,0.34065163,-0.17605291,-0.6420109,-0.20586264,-0.025373364,-0.31604216,0.44414067,-0.38080966,-0.48056155,-0.20647147,-0.23388033,-0.00090635725,0.059488997,0.6304101,-0.65238583,-0.77573115,0.6006943,-0.28096405,-0.48891073,0.3780269,-0.68907577,-0.16136612,0.37070686,0.5180327,-0.075579844,0.49143827,-0.34384558,0.20413949,-0.5267868,-0.3024186,-0.64763814,-0.002321864,0.36148795,0.45642886,0.56065536,0.22104035,0.5710192,0.30267662,-0.11809431,0.38459447,0.51319957,0.40781447
SJNB-13,0.3370279,0.11436234,0.19254865,-0.14717962,0.3258254,-0.2629724,-0.34422868,-0.07927474,-0.41032043,-0.15482841,0.035505038,-0.1647874,0.10063722,-0.34061095,-0.011905422,-0.21114396,-0.2724525,-0.41408506,0.14527181,-0.18620788,0.60458684,-0.008899878,0.068532184,0.26056752,-0.18504046,-0.31375605,0.19385017,-0.008807721,0.3168111,-0.26434666,-0.07432799,0.018077366,-0.13628338,0.17684056,-0.16900188,0.28378692,0.06966519,0.09781459,-0.14082727,0.14754136,0.09143222,0.2933378,-0.14586827,0.19101746,0.08923273,0.27353463,0.4866036,0.018843949,-0.45257553,-0.017198423,-0.14483371,-0.16122638,-0.25333747,0.16418205,0.08649223,0.1672381,0.23200715,0.0033497731,-0.055740748,0.045102317,0.06594256,-0.016040992,0.5229451,0.011554619,0.0033699519,0.28791398,0.111812375,-0.047953684,0.03597962,-0.10620866,0.15277772,-0.5249205,0.16078629,0.058969066,0.17249434,-0.23833434,0.112388425,0.14949591,-0.012394301,0.4534426,0.16089611,0.44908452,0.29065424,0.022740848,-0.14486732
KS-1 [Human glioblastoma],-0.41692004,0.14376071,0.1729499,-0.10299459,-0.0075615975,-0.26097667,-0.1670373,0.6335368,0.2784568,0.39287803,0.36795294,-0.9498362,-0.2008353,0.3606015,0.0605867,0.45071694,-0.099609524,0.23549964,0.426102,0.63587415,0.95911384,0.5390373,0.6349531,-0.43991923,-0.26632854,0.3859258,0.9353024,-0.8104194,0.78482115,-0.6310525,0.9259297,0.38838217,0.5526507,-0.5282804,-0.27326155,0.3007792,0.0031626346,0.48296538,-0.38289604,0.4465239,-0.9868227,1.1615714,0.76873976,-0.43662187,-0.7176021,0.07034338,-0.4017366,0.07580594,-0.6389519,0.4578671,-0.39605916,0.08990895,0.3926373,0.9630223,0.74477386,-0.3014018,0.45446664,-0.29633665,-0.7815281,-0.6750975,-0.14347288,-0.33525482,0.3318437,-0.28634465,-0.66964066,0.5655394,-0.18852837,-0.5460163,-0.67950976,0.53994954,-0.2839496,-0.9494351,0.115364596,0.7261931,0.22258069,-0.33756107,-0.7892322,-0.11327996,-0.12951787,0.6184786,0.04635372,0.13366026,0.31816828,-0.45463535,-0.710539
OVCAR-5,-0.6881628,0.58288354,-0.07865467,-0.49490505,-0.44277593,-0.32747185,-0.21822615,0.42066202,0.21128304,0.69485277,-0.26640564,-0.80129504,0.09351184,0.5488581,0.35215172,0.5180551,0.094717935,0.23906688,0.35439608,1.0696582,0.749444,-0.047994718,0.35451072,-0.52846205,0.0678779,1.0126525,0.8085247,-1.0239484,0.5021489,-0.35067493,0.6520075,0.32663074,0.90672857,-0.5295226,-0.5798335,-0.19399251,0.5123255,0.38314965,-0.5471189,0.064158194,-0.83723897,1.4663013,0.9702435,-0.8797927,-1.1103554,0.2801718,-0.6203837,-0.08156289,-0.070750535,0.53157884,-0.49716288,0.75559,0.14955965,0.5237006,0.5381365,-0.55897504,0.09278064,0.10869075,-0.7155629,-0.41873142,-0.24579604,0.109258756,0.48160762,-0.28973848,-0.62924314,0.5711444,-0.6585384,-0.09764585,-0.14446807,0.25134626,-0.71368116,-0.7448009,-0.2886425,0.94336534,-0.21052803,-0.020544006,-0.48269877,-0.26917294,0.21039258,0.4441753,-0.5341583,0.048521314,-0.010718784,-0.66353726,-0.60318244
COLO 678,-0.7421281,0.5680538,-0.1590557,-0.50797355,-0.42075354,-0.3111674,-0.16707732,0.46455708,0.14679708,0.64973575,-0.25635678,-0.8373581,0.024846887,0.5952048,0.4079753,0.58561426,0.14398068,0.23264293,0.32063326,1.032552,0.6906421,-0.02598838,0.35369372,-0.5259175,0.09554712,1.0387007,0.88168234,-1.0310627,0.47905424,-0.33459452,0.60185367,0.40936178,0.90377206,-0.5665538,-0.576311,-0.19853482,0.555223,0.31220517,-0.46956834,0.046804238,-0.9182689,1.4189123,0.93901855,-0.9327683,-1.1451279,0.2550013,-0.6053641,-0.08017914,-0.03239977,0.5558414,-0.49731764,0.7877566,0.17632136,0.50017,0.5051537,-0.62638897,0.1207579,0.10307838,-0.6916925,-0.45902184,-0.17283337,0.0908065,0.39684394,-0.27720615,-0.6874979,0.48169312,-0.683187,-0.02050919,-0.22797453,0.26692316,-0.7335636,-0.7233471,-0.28865796,0.996665,-0.23030995,-0.042003877,-0.47148374,-0.26683217,0.17483361,0.5009258,-0.5340833,-0.03565099,-0.024213605,-0.61698675,-0.62229663
RERF-LC-MS,0.3370279,0.11436234,0.19254865,-0.14717962,0.3258254,-0.2629724,-0.34422868,-0.07927474,-0.41032043,-0.15482841,0.035505038,-0.1647874,0.10063722,-0.34061095,-0.011905422,-0.21114396,-0.2724525,-0.41408506,0.14527181,-0.18620788,0.60458684,-0.008899878,0.068532184,0.26056752,-0.18504046,-0.31375605,0.19385017,-0.008807721,0.3168111,-0.26434666,-0.07432799,0.018077366,-0.13628338,0.17684056,-0.16900188,0.28378692,0.06966519,0.09781459,-0.14082727,0.14754136,0.09143222,0.2933378,-0.14586827,0.19101746,0.08923273,0.27353463,0.4866036,0.018843949,-0.45257553,-0.017198423,-0.14483371,-0.16122638,-0.25333747,0.16418205,0.08649223,0.1672381,0.23200715,0.0033497731,-0.055740748,0.045102317,0.06594256,-0.016040992,0.5229451,0.011554619,0.0033699519,0.28791398,0.111812375,-0.047953684,0.03597962,-0.10620866,0.15277772,-0.5249205,0.16078629,0.058969066,0.17249434,-0.23833434,0.112388425,0.14949591,-0.012394301,0.4534426,0.16089611,0.44908452,0.29065424,0.022740848,-0.14486732
SJNB-10,0.39729083,-0.29371133,0.06865049,0.474479,-0.5288689,-0.7036382,-0.3945499,-0.1773898,0.020046366,-0.09185372,-0.4203374,0.021527035,0.24435526,0.076368704,0.33600718,0.026993617,-0.93228704,-0.1855465,-0.05885449,0.17882152,0.053913273,0.1690429,0.32189143,0.053348806,0.73743224,-0.52621955,-0.6993931,-0.04606319,0.17085746,0.10441783,-0.20316187,-0.3052491,-0.3597089,0.26746377,0.21686795,0.59641886,0.22015543,0.51284516,-0.3026199,-0.24538456,-0.5514289,0.47564122,-0.19873664,0.72152257,0.014757561,-0.26896882,-0.18973565,0.06420346,0.13657978,0.5044252,-0.282276,-0.70553815,0.15697265,-0.4116305,-0.18514934,-0.17165191,0.0026754749,-0.2777682,-0.052551188,0.32660285,0.11385367,0.29465467,0.8021404,-0.00083548774,-0.19047412,0.43325984,0.255582,-0.058928013,-0.09060089,0.37034497,0.17452185,-0.21575265,-0.113429435,-0.3144503,-0.272308,0.5800109,0.031196443,0.29104707,0.67989945,0.046791,-0.47653738,-0.13955349,-0.1972008,-0.21354729,0.073931314
U-87MG ATCC,-0.41447824,0.13241288,-0.2960374,-0.028631045,-0.4714654,0.12742668,-0.38684416,1.1162835,1.0514095,0.7141989,0.87100136,-1.2463185,-0.5631553,0.4825787,0.4206491,1.338708,0.08610393,0.34755844,0.6505621,0.7061981,1.3463804,1.0720878,0.8653996,-0.95555,-0.4193297,0.464479,1.426099,-1.4037764,1.566915,-1.1155069,1.3823292,0.80842775,1.2120658,-0.9531022,0.020889407,0.71777725,0.26652247,0.8484698,-0.4345464,0.27366057,-1.8663365,1.5828848,1.4490999,-1.2450888,-1.5102717,-0.10441719,-1.5297511,0.58758587,-0.817763,0.93725115,-0.2299114,0.33434433,0.79714644,1.267751,1.3784859,-0.61713535,1.0399181,-0.7464512,-1.5461491,-0.5997682,-0.5268785,-1.126874,-0.37158057,-0.992974,-1.3793066,0.69103664,-0.50692147,-0.6708233,-0.8984297,0.47014853,-0.9100501,-1.382185,-0.04111524,0.76576203,-0.025357865,-0.022435956,-1.1780897,-0.27469173,-0.754323,1.0074693,0.41126537,-0.1670165,0.14415175,-0.5161949,-1.0115185
Panc 10.05,0.06578509,0.55348516,-0.05905592,-0.5390901,-0.109388866,-0.32946756,-0.39541754,-0.29214966,-0.4774942,0.14714657,-0.59885365,-0.01624632,0.39498433,-0.15235439,0.2796596,-0.14380568,-0.07812507,-0.41051778,0.073565856,0.24757624,0.394917,-0.5959318,-0.21191019,0.17202452,0.149166,0.31297082,0.067072585,-0.22233675,0.03413901,0.016030878,-0.34825027,-0.043674067,0.21779448,0.17559831,-0.4755738,-0.21098481,0.57882804,-0.0020012755,-0.3050502,-0.23482434,0.24101588,0.5980678,0.055635437,-0.2521535,-0.30352053,0.48336306,0.2679565,-0.13852486,0.11562596,0.056513324,-0.2459375,0.5044548,-0.49641517,-0.2751397,-0.12014506,-0.090335056,-0.1296789,0.4083771,0.010224541,0.30146852,-0.03638059,0.42847282,0.672709,0.0081607755,0.043767426,0.29351896,-0.3581977,0.40041673,0.57102114,-0.39481208,-0.27695385,-0.32028627,-0.24322082,0.27614143,-0.26061437,0.07868275,0.41892195,-0.006396972,0.32751614,0.27913934,-0.41961592,0.36394557,-0.03823279,-0.18616092,-0.037510812
Hep-G2/C3A,0.33574325,0.1413334,0.30516,0.25822586,-0.0029173526,-0.33921203,-0.22627057,-0.3116588,-0.48826176,-0.33670065,-0.00053417194,-0.19011301,0.09095596,-0.4398193,-0.14170572,-0.066376835,-0.5250851,-0.21934101,0.14651619,-0.02391374,0.78560734,-0.11129103,-0.12090485,0.25837034,0.32835305,-0.69019234,-0.22555427,-0.3094965,0.15509523,-0.049325336,0.19816494,0.12980871,-0.26010686,-0.1176351,-0.2791752,0.6314894,-0.24033953,0.050438363,-0.2604016,-0.15653348,-0.07034806,0.67529726,-0.21165815,0.6057397,0.02344005,-0.40912887,0.3146627,-0.2906309,-0.317492,0.28909364,-0.56984526,-0.46378145,-0.13202213,-0.070948444,-0.18968435,0.07624384,0.24813306,-0.3718181,-0.37610176,0.11469859,0.067688294,-0.0313627,0.8762279,-0.2625409,0.10031492,0.41413513,0.60385644,-0.2410019,0.21270537,0.07589262,0.46040148,-0.4007638,-0.014202628,-0.31271282,0.27071586,0.022938183,0.16091739,0.5403119,0.51907176,0.3094832,-0.06527341,0.057802435,0.572489,0.2056025,0.20491152
H-EMC-SS,0.33574325,0.1413334,0.30516,0.25822586,-0.0029173526,-0.33921203,-0.22627057,-0.3116588,-0.48826176,-0.33670065,-0.00053417194,-0.19011301,0.09095596,-0.4398193,-0.14170572,-0.066376835,-0.5250851,-0.21934101,0.14651619,-0.02391374,0.78560734,-0.11129103,-0.12090485,0.25837034,0.32835305,-0.69019234,-0.22555427,-0.3094965,0.15509523,-0.049325336,0.19816494,0.12980871,-0.26010686,-0.1176351,-0.2791752,0.6314894,-0.24033953,0.050438363,-0.2604016,-0.15653348,-0.07034806,0.67529726,-0.21165815,0.6057397,0.02344005,-0.40912887,0.3146627,-0.2906309,-0.317492,0.28909364,-0.56984526,-0.46378145,-0.13202213,-0.070948444,-0.18968435,0.07624384,0.24813306,-0.3718181,-0.37610176,0.11469859,0.067688294,-0.0313627,0.8762279,-0.2625409,0.10031492,0.41413513,0.60385644,-0.2410019,0.21270537,0.07589262,0.46040148,-0.4007638,-0.014202628,-0.31271282,0.27071586,0.022938183,0.16091739,0.5403119,0.51907176,0.3094832,-0.06527341,0.057802435,0.572489,0.2056025,0.20491152
K-562,-0.36515886,0.21130826,0.10597308,-0.1963061,0.060999207,-0.2539491,-0.1603284,0.60053027,0.21236049,0.3930281,0.38914567,-0.9565393,-0.2232438,0.32451206,0.11582987,0.40542826,-0.108805574,0.20553763,0.4148156,0.54967874,0.88225853,0.509461,0.62746924,-0.3593234,-0.33071023,0.37883008,0.9041848,-0.7400355,0.79826605,-0.633757,0.83311874,0.38797382,0.4848223,-0.47671402,-0.2793427,0.32010046,0.049406637,0.49039593,-0.36894056,0.46422395,-0.968945,1.0888157,0.69064313,-0.44590417,-0.7162328,0.16750108,-0.33915663,0.14776601,-0.649127,0.46154648,-0.30529442,0.10887862,0.3499546,0.93106043,0.73033917,-0.28637326,0.4863218,-0.26121622,-0.74255985,-0.63563824,-0.092309944,-0.387438,0.30752307,-0.28143466,-0.6213083,0.5350149,-0.19791265,-0.51519066,-0.61812717,0.47246814,-0.3021583,-0.95049554,0.17764166,0.67261153,0.19352557,-0.34307063,-0.76238364,-0.10766601,-0.2220639,0.65258443,0.062364295,0.17591809,0.2965466,-0.46392313,-0.74919474
MKN1,0.7741633,-0.07800207,-0.19634853,-0.033153225,-0.024984911,0.1504314,-0.7149165,-0.024495644,-0.01727965,-0.13825396,0.25008014,0.11650094,0.007818963,-0.5907653,0.18003415,0.25840062,-0.17912741,-0.7823679,0.2314409,-0.64029866,0.91243964,0.13271783,-0.16530624,0.096985765,-0.2881864,-0.6836452,0.23811844,-0.15812652,0.62197953,-0.40425807,-0.22746374,0.12200058,0.26554832,0.20811933,0.33620885,0.6389613,0.32902816,0.16607769,-0.07430191,-0.19105613,0.01066396,0.2016076,0.061172646,-0.056846794,-0.106716424,0.065716,-0.025788218,0.32012615,-0.45772254,0.14660987,0.055050734,-0.14153615,-0.31227583,-0.010494031,0.24937601,0.15264773,0.6107787,-0.29389712,-0.46868756,0.52618337,-0.2632764,-0.458024,0.0022124674,-0.4147262,-0.24021618,0.2384867,0.026697678,0.118817806,0.33122402,-0.53461605,-0.08055072,-0.63051575,-0.13205938,-0.30682537,-0.07786959,0.11062746,0.4004948,0.15566237,-0.31239885,0.6687015,0.5282461,0.23370264,0.062786005,0.35759693,0.048698153
ALL-PO,0.3370279,0.11436234,0.19254865,-0.14717962,0.3258254,-0.2629724,-0.34422868,-0.07927474,-0.41032043,-0.15482841,0.035505038,-0.1647874,0.10063722,-0.34061095,-0.011905422,-0.21114396,-0.2724525,-0.41408506,0.14527181,-0.18620788,0.60458684,-0.008899878,0.068532184,0.26056752,-0.18504046,-0.31375605,0.19385017,-0.008807721,0.3168111,-0.26434666,-0.07432799,0.018077366,-0.13628338,0.17684056,-0.16900188,0.28378692,0.06966519,0.09781459,-0.14082727,0.14754136,0.09143222,0.2933378,-0.14586827,0.19101746,0.08923273,0.27353463,0.4866036,0.018843949,-0.45257553,-0.017198423,-0.14483371,-0.16122638,-0.25333747,0.16418205,0.08649223,0.1672381,0.23200715,0.0033497731,-0.055740748,0.045102317,0.06594256,-0.016040992,0.5229451,0.011554619,0.0033699519,0.28791398,0.111812375,-0.047953684,0.03597962,-0.10620866,0.15277772,-0.5249205,0.16078629,0.058969066,0.17249434,-0.23833434,0.112388425,0.14949591,-0.012394301,0.4534426,0.16089611,0.44908452,0.29065424,0.022740848,-0.14486732
BT-474,0.8143745,-0.101197965,-0.19921048,-0.043535043,-0.0016295768,0.14336017,-0.6961941,-0.022558173,-0.0071876887,-0.14354007,0.2609378,0.083719656,0.018930819,-0.62075645,0.20112278,0.2288776,-0.1877166,-0.7749196,0.20445192,-0.62331283,0.90303403,0.116499245,-0.12920198,0.12076991,-0.27827403,-0.6938376,0.21523917,-0.1590335,0.65120053,-0.41637868,-0.23388581,0.1458631,0.2497028,0.20668358,0.31031987,0.64837795,0.3733254,0.18526252,-0.066328615,-0.20853621,-0.028435748,0.21662903,0.04651859,-0.07407067,-0.11026023,0.0406525,-0.03392175,0.28410152,-0.45112574,0.13784862,0.04420189,-0.17800644,-0.32778683,0.0012501333,0.27527025,0.15048324,0.61428416,-0.27721798,-0.45537013,0.531098,-0.28270978,-0.47358903,0.024744006,-0.41498014,-0.25831106,0.24448568,0.025988666,0.11746839,0.31471255,-0.5259469,-0.103484266,-0.6509435,-0.12742966,-0.2759563,-0.100543424,0.10021548,0.4078999,0.16983934,-0.3104257,0.7149786,0.52884614,0.27318776,0.10275977,0.330338,0.05803561
JVM-3,0.34512115,-0.2030265,-0.019382767,0.4531404,-0.6835738,-0.70916986,-0.4809688,-0.2240681,-0.0038845786,0.0020819327,-0.4173553,-0.02376341,0.4027048,0.033162892,0.28051868,0.1134814,-0.9098445,-0.081394345,-0.076359145,0.2827676,-0.012116393,0.15832916,0.26257578,0.038817026,0.7151261,-0.45297188,-0.70917636,-0.02413196,0.07356383,0.18020065,-0.05074928,-0.41465813,-0.4391162,0.33590382,0.19425839,0.53269476,0.2704627,0.65765643,-0.3536684,-0.34636325,-0.64338124,0.5418615,-0.1533463,0.72368616,-0.09650518,-0.19263726,-0.39963678,0.11377581,0.19085823,0.5505069,-0.20773245,-0.648484,0.13404576,-0.54006886,-0.20619425,-0.12913121,-0.04431418,-0.27865428,0.005170473,0.30287528,0.15157138,0.17807917,0.85303897,-0.041714076,-0.19276598,0.48958677,0.16969422,0.02206004,-0.09049331,0.33253795,0.103962384,-0.4573628,-0.04736399,-0.38212243,-0.2969517,0.6570639,-0.13445117,0.23726912,0.66321754,-0.023479197,-0.6429613,-0.1795073,-0.24932894,-0.2559209,0.09382436
SW948,0.48788175,0.3500662,-0.41860473,-0.043108527,-0.74356425,0.016929839,-0.578276,-0.42392215,-0.2167888,-0.06855437,-0.39941123,0.17087203,0.23493166,-0.48536155,0.418711,0.5085421,-0.196759,-0.58303237,0.10022752,-0.0643408,0.8155828,-0.55091745,-0.5998984,0.032574337,0.5969951,-0.41749886,-0.2577853,-0.6803656,0.18371789,0.095100746,-0.28546897,0.2785741,0.47700065,-0.12606554,-0.10290287,0.49676654,0.615381,-0.032874037,-0.27257523,-0.9123306,-0.121662356,0.85592943,0.15100755,-0.15549472,-0.6035788,-0.45735306,-0.4094901,-0.18135846,0.29051006,0.54211503,-0.48206818,0.21728632,-0.42278734,-0.69673264,-0.24052638,-0.26549807,0.2967013,-0.25297078,-0.6858955,0.8167701,-0.31032452,-0.062849216,0.44302696,-0.6799373,-0.17922345,0.28686056,0.023374027,0.44992733,0.9429735,-0.61687213,-0.24547458,-0.30069882,-0.70644116,-0.37716627,-0.45521244,0.6570452,0.77417755,0.40710315,0.5253918,0.4534663,-0.27776042,-0.28740555,0.04221261,0.35084835,0.4960568
HT-29,0.76978713,-0.46038765,-0.6041543,0.13831116,-0.6602638,-0.21029335,-0.8997435,0.10892757,0.41270357,0.15012552,-0.14583442,0.21400619,0.2620146,-0.10142757,0.6791708,0.47629505,-0.5232134,-0.643397,-0.052186217,-0.35373774,0.046508476,0.40812576,0.25346166,-0.09623881,0.13616809,-0.43056893,-0.19522545,0.11921667,0.5465744,-0.17077224,-0.5329537,-0.3158727,0.067736976,0.6231913,0.78727615,0.54504097,0.9270252,0.721536,-0.082044825,-0.41572,-0.682499,0.03580427,0.07360551,-0.009099585,-0.26497802,0.23197368,-0.73320156,0.68989193,0.09557522,0.4235243,0.40616003,-0.33054253,-0.03495726,-0.49140093,0.22577761,-0.122305736,0.34981418,-0.18966666,-0.050227564,0.6789842,-0.12586398,-0.28259942,-0.08320862,-0.181621,-0.60964674,0.23048605,-0.43282205,0.45766696,-0.071992494,-0.2537247,-0.47980583,-0.6860887,-0.16060652,-0.29206643,-0.68799305,0.7128814,0.123746455,-0.13086268,-0.20183887,0.4387666,-0.048766673,-0.04829423,-0.73255277,-0.084634826,-0.0721657
HLE,0.3370279,0.11436234,0.19254865,-0.14717962,0.3258254,-0.2629724,-0.34422868,-0.07927474,-0.41032043,-0.15482841,0.035505038,-0.1647874,0.10063722,-0.34061095,-0.011905422,-0.21114396,-0.2724525,-0.41408506,0.14527181,-0.18620788,0.60458684,-0.008899878,0.068532184,0.26056752,-0.18504046,-0.31375605,0.19385017,-0.008807721,0.3168111,-0.26434666,-0.07432799,0.018077366,-0.13628338,0.17684056,-0.16900188,0.28378692,0.06966519,0.09781459,-0.14082727,0.14754136,0.09143222,0.2933378,-0.14586827,0.19101746,0.08923273,0.27353463,0.4866036,0.018843949,-0.45257553,-0.017198423,-0.14483371,-0.16122638,-0.25333747,0.16418205,0.08649223,0.1672381,0.23200715,0.0033497731,-0.055740748,0.045102317,0.06594256,-0.016040992,0.5229451,0.011554619,0.0033699519,0.28791398,0.111812375,-0.047953684,0.03597962,-0.10620866,0.15277772,-0.5249205,0.16078629,0.058969066,0.17249434,-0.23833434,0.112388425,0.14949591,-0.012394301,0.4534426,0.16089611,0.44908452,0.29065424,0.022740848,-0.14486732
A-427,-0.73396224,0.57545954,-0.08878294,-0.504956,-0.41845053,-0.31360483,-0.2268454,0.4767693,0.15753084,0.68446726,-0.28877234,-0.79959387,0.1051673,0.5876675,0.38648888,0.4783189,0.09478219,0.21789782,0.386858,1.1046157,0.7471915,-0.045751043,0.41261628,-0.5014626,0.13926466,0.9928608,0.74808854,-1.0418482,0.5148517,-0.32560512,0.686772,0.35616204,0.9125287,-0.5523118,-0.5979838,-0.20090781,0.49549454,0.3912203,-0.5611197,0.034108724,-0.8111924,1.4302224,0.95864874,-0.88540685,-1.160147,0.22209968,-0.6787495,-0.1082608,-0.099898405,0.50513786,-0.4658389,0.70172906,0.11470837,0.53868955,0.52945256,-0.6311896,0.07509016,0.10923469,-0.6817617,-0.4543854,-0.21634415,0.13579063,0.40749738,-0.34075198,-0.60607433,0.54002124,-0.6754073,-0.07100181,-0.17253542,0.23181063,-0.7110508,-0.7457266,-0.27749172,0.9542229,-0.2532786,0.010153187,-0.49085918,-0.28799257,0.18171664,0.3923791,-0.5623057,0.07188546,-0.08047436,-0.64073074,-0.58476514
CAL-51,0.81308985,-0.07422688,-0.086599134,0.36187047,-0.33037233,0.06712059,-0.578236,-0.25494227,-0.085129015,-0.32541233,0.22489859,0.058394063,0.009249534,-0.71996474,0.07132241,0.3736447,-0.44034913,-0.58017564,0.2056963,-0.4610187,1.0840545,0.014108091,-0.318639,0.118572734,0.2351195,-1.0702739,-0.20416531,-0.45972225,0.48948476,-0.2013573,0.03860709,0.25759447,0.12587933,-0.087792106,0.20014659,0.9960805,0.063320704,0.1378863,-0.18590295,-0.51261103,-0.19021603,0.59858835,-0.019271318,0.34065163,-0.17605291,-0.6420109,-0.20586264,-0.025373364,-0.31604216,0.44414067,-0.38080966,-0.48056155,-0.20647147,-0.23388033,-0.00090635725,0.059488997,0.6304101,-0.65238583,-0.77573115,0.6006943,-0.28096405,-0.48891073,0.3780269,-0.68907577,-0.16136612,0.37070686,0.5180327,-0.075579844,0.49143827,-0.34384558,0.20413949,-0.5267868,-0.3024186,-0.64763814,-0.002321864,0.36148795,0.45642886,0.56065536,0.22104035,0.5710192,0.30267662,-0.11809431,0.38459447,0.51319957,0.40781447
SNB-75,0.3370279,0.11436234,0.19254865,-0.14717962,0.3258254,-0.2629724,-0.34422868,-0.07927474,-0.41032043,-0.15482841,0.035505038,-0.1647874,0.10063722,-0.34061095,-0.011905422,-0.21114396,-0.2724525,-0.41408506,0.14527181,-0.18620788,0.60458684,-0.008899878,0.068532184,0.26056752,-0.18504046,-0.31375605,0.19385017,-0.008807721,0.3168111,-0.26434666,-0.07432799,0.018077366,-0.13628338,0.17684056,-0.16900188,0.28378692,0.06966519,0.09781459,-0.14082727,0.14754136,0.09143222,0.2933378,-0.14586827,0.19101746,0.08923273,0.27353463,0.4866036,0.018843949,-0.45257553,-0.017198423,-0.14483371,-0.16122638,-0.25333747,0.16418205,0.08649223,0.1672381,0.23200715,0.0033497731,-0.055740748,0.045102317,0.06594256,-0.016040992,0.5229451,0.011554619,0.0033699519,0.28791398,0.111812375,-0.047953684,0.03597962,-0.10620866,0.15277772,-0.5249205,0.16078629,0.058969066,0.17249434,-0.23833434,0.112388425,0.14949591,-0.012394301,0.4534426,0.16089611,0.44908452,0.29065424,0.022740848,-0.14486732
RCM-1 [Human rectum adenocarcinoma],0.025573878,0.5766811,-0.05619397,-0.5287083,-0.13274416,-0.32239634,-0.41413996,-0.29408714,-0.48758614,0.15243267,-0.6097113,0.016534945,0.3838725,-0.12236329,0.25857097,-0.11428266,-0.06953586,-0.417966,0.100554794,0.23059046,0.40432262,-0.5797133,-0.24801444,0.14824036,0.1392536,0.32316315,0.08995185,-0.22142977,0.0049180198,0.028151492,-0.3418282,-0.06753658,0.23363999,0.17703407,-0.4496848,-0.22040144,0.53453076,-0.021186091,-0.3130235,-0.21734427,0.28011557,0.58304644,0.07028952,-0.23492959,-0.29997677,0.5084265,0.27609006,-0.10250023,0.10902916,0.065274596,-0.23508866,0.54092515,-0.4809041,-0.28688383,-0.1460393,-0.08817056,-0.13318434,0.39169797,-0.0030928804,0.29655385,-0.016947243,0.4440378,0.6501774,0.008414721,0.0618623,0.28751996,-0.35748866,0.40176618,0.5875326,-0.40348122,-0.2540203,-0.29985854,-0.24785052,0.24527238,-0.23794056,0.08909473,0.41151688,-0.020573936,0.325543,0.23286235,-0.420216,0.32446042,-0.078206554,-0.15890199,-0.046848267
HCC1806,-0.36515886,0.21130826,0.10597308,-0.1963061,0.060999207,-0.2539491,-0.1603284,0.60053027,0.21236049,0.3930281,0.38914567,-0.9565393,-0.2232438,0.32451206,0.11582987,0.40542826,-0.108805574,0.20553763,0.4148156,0.54967874,0.88225853,0.509461,0.62746924,-0.3593234,-0.33071023,0.37883008,0.9041848,-0.7400355,0.79826605,-0.633757,0.83311874,0.38797382,0.4848223,-0.47671402,-0.2793427,0.32010046,0.049406637,0.49039593,-0.36894056,0.46422395,-0.968945,1.0888157,0.69064313,-0.44590417,-0.7162328,0.16750108,-0.33915663,0.14776601,-0.649127,0.46154648,-0.30529442,0.10887862,0.3499546,0.93106043,0.73033917,-0.28637326,0.4863218,-0.26121622,-0.74255985,-0.63563824,-0.092309944,-0.387438,0.30752307,-0.28143466,-0.6213083,0.5350149,-0.19791265,-0.51519066,-0.61812717,0.47246814,-0.3021583,-0.95049554,0.17764166,0.67261153,0.19352557,-0.34307063,-0.76238364,-0.10766601,-0.2220639,0.65258443,0.062364295,0.17591809,0.2965466,-0.46392313,-0.74919474
HCC1569,0.3370279,0.11436234,0.19254865,-0.14717962,0.3258254,-0.2629724,-0.34422868,-0.07927474,-0.41032043,-0.15482841,0.035505038,-0.1647874,0.10063722,-0.34061095,-0.011905422,-0.21114396,-0.2724525,-0.41408506,0.14527181,-0.18620788,0.60458684,-0.008899878,0.068532184,0.26056752,-0.18504046,-0.31375605,0.19385017,-0.008807721,0.3168111,-0.26434666,-0.07432799,0.018077366,-0.13628338,0.17684056,-0.16900188,0.28378692,0.06966519,0.09781459,-0.14082727,0.14754136,0.09143222,0.2933378,-0.14586827,0.19101746,0.08923273,0.27353463,0.4866036,0.018843949,-0.45257553,-0.017198423,-0.14483371,-0.16122638,-0.25333747,0.16418205,0.08649223,0.1672381,0.23200715,0.0033497731,-0.055740748,0.045102317,0.06594256,-0.016040992,0.5229451,0.011554619,0.0033699519,0.28791398,0.111812375,-0.047953684,0.03597962,-0.10620866,0.15277772,-0.5249205,0.16078629,0.058969066,0.17249434,-0.23833434,0.112388425,0.14949591,-0.012394301,0.4534426,0.16089611,0.44908452,0.29065424,0.022740848,-0.14486732
HCC1937,0.3370279,0.11436234,0.19254865,-0.14717962,0.3258254,-0.2629724,-0.34422868,-0.07927474,-0.41032043,-0.15482841,0.035505038,-0.1647874,0.10063722,-0.34061095,-0.011905422,-0.21114396,-0.2724525,-0.41408506,0.14527181,-0.18620788,0.60458684,-0.008899878,0.068532184,0.26056752,-0.18504046,-0.31375605,0.19385017,-0.008807721,0.3168111,-0.26434666,-0.07432799,0.018077366,-0.13628338,0.17684056,-0.16900188,0.28378692,0.06966519,0.09781459,-0.14082727,0.14754136,0.09143222,0.2933378,-0.14586827,0.19101746,0.08923273,0.27353463,0.4866036,0.018843949,-0.45257553,-0.017198423,-0.14483371,-0.16122638,-0.25333747,0.16418205,0.08649223,0.1672381,0.23200715,0.0033497731,-0.055740748,0.045102317,0.06594256,-0.016040992,0.5229451,0.011554619,0.0033699519,0.28791398,0.111812375,-0.047953684,0.03597962,-0.10620866,0.15277772,-0.5249205,0.16078629,0.058969066,0.17249434,-0.23833434,0.112388425,0.14949591,-0.012394301,0.4534426,0.16089611,0.44908452,0.29065424,0.022740848,-0.14486732
NCI-H2141,0.3370279,0.11436234,0.19254865,-0.14717962,0.3258254,-0.2629724,-0.34422868,-0.07927474,-0.41032043,-0.15482841,0.035505038,-0.1647874,0.10063722,-0.34061095,-0.011905422,-0.21114396,-0.2724525,-0.41408506,0.14527181,-0.18620788,0.60458684,-0.008899878,0.068532184,0.26056752,-0.18504046,-0.31375605,0.19385017,-0.008807721,0.3168111,-0.26434666,-0.07432799,0.018077366,-0.13628338,0.17684056,-0.16900188,0.28378692,0.06966519,0.09781459,-0.14082727,0.14754136,0.09143222,0.2933378,-0.14586827,0.19101746,0.08923273,0.27353463,0.4866036,0.018843949,-0.45257553,-0.017198423,-0.14483371,-0.16122638,-0.25333747,0.16418205,0.08649223,0.1672381,0.23200715,0.0033497731,-0.055740748,0.045102317,0.06594256,-0.016040992,0.5229451,0.011554619,0.0033699519,0.28791398,0.111812375,-0.047953684,0.03597962,-0.10620866,0.15277772,-0.5249205,0.16078629,0.058969066,0.17249434,-0.23833434,0.112388425,0.14949591,-0.012394301,0.4534426,0.16089611,0.44908452,0.29065424,0.022740848,-0.14486732
ECC4,0.06578509,0.55348516,-0.05905592,-0.5390901,-0.109388866,-0.32946756,-0.39541754,-0.29214966,-0.4774942,0.14714657,-0.59885365,-0.01624632,0.39498433,-0.15235439,0.2796596,-0.14380568,-0.07812507,-0.41051778,0.073565856,0.24757624,0.394917,-0.5959318,-0.21191019,0.17202452,0.149166,0.31297082,0.067072585,-0.22233675,0.03413901,0.016030878,-0.34825027,-0.043674067,0.21779448,0.17559831,-0.4755738,-0.21098481,0.57882804,-0.0020012755,-0.3050502,-0.23482434,0.24101588,0.5980678,0.055635437,-0.2521535,-0.30352053,0.48336306,0.2679565,-0.13852486,0.11562596,0.056513324,-0.2459375,0.5044548,-0.49641517,-0.2751397,-0.12014506,-0.090335056,-0.1296789,0.4083771,0.010224541,0.30146852,-0.03638059,0.42847282,0.672709,0.0081607755,0.043767426,0.29351896,-0.3581977,0.40041673,0.57102114,-0.39481208,-0.27695385,-0.32028627,-0.24322082,0.27614143,-0.26061437,0.07868275,0.41892195,-0.006396972,0.32751614,0.27913934,-0.41961592,0.36394557,-0.03823279,-0.18616092,-0.037510812
MHH-NB-11,0.39729083,-0.29371133,0.06865049,0.474479,-0.5288689,-0.7036382,-0.3945499,-0.1773898,0.020046366,-0.09185372,-0.4203374,0.021527035,0.24435526,0.076368704,0.33600718,0.026993617,-0.93228704,-0.1855465,-0.05885449,0.17882152,0.053913273,0.1690429,0.32189143,0.053348806,0.73743224,-0.52621955,-0.6993931,-0.04606319,0.17085746,0.10441783,-0.20316187,-0.3052491,-0.3597089,0.26746377,0.21686795,0.59641886,0.22015543,0.51284516,-0.3026199,-0.24538456,-0.5514289,0.47564122,-0.19873664,0.72152257,0.014757561,-0.26896882,-0.18973565,0.06420346,0.13657978,0.5044252,-0.282276,-0.70553815,0.15697265,-0.4116305,-0.18514934,-0.17165191,0.0026754749,-0.2777682,-0.052551188,0.32660285,0.11385367,0.29465467,0.8021404,-0.00083548774,-0.19047412,0.43325984,0.255582,-0.058928013,-0.09060089,0.37034497,0.17452185,-0.21575265,-0.113429435,-0.3144503,-0.272308,0.5800109,0.031196443,0.29104707,0.67989945,0.046791,-0.47653738,-0.13955349,-0.1972008,-0.21354729,0.073931314
HT-1080,-0.41692004,0.14376071,0.1729499,-0.10299459,-0.0075615975,-0.26097667,-0.1670373,0.6335368,0.2784568,0.39287803,0.36795294,-0.9498362,-0.2008353,0.3606015,0.0605867,0.45071694,-0.099609524,0.23549964,0.426102,0.63587415,0.95911384,0.5390373,0.6349531,-0.43991923,-0.26632854,0.3859258,0.9353024,-0.8104194,0.78482115,-0.6310525,0.9259297,0.38838217,0.5526507,-0.5282804,-0.27326155,0.3007792,0.0031626346,0.48296538,-0.38289604,0.4465239,-0.9868227,1.1615714,0.76873976,-0.43662187,-0.7176021,0.07034338,-0.4017366,0.07580594,-0.6389519,0.4578671,-0.39605916,0.08990895,0.3926373,0.9630223,0.74477386,-0.3014018,0.45446664,-0.29633665,-0.7815281,-0.6750975,-0.14347288,-0.33525482,0.3318437,-0.28634465,-0.66964066,0.5655394,-0.18852837,-0.5460163,-0.67950976,0.53994954,-0.2839496,-0.9494351,0.115364596,0.7261931,0.22258069,-0.33756107,-0.7892322,-0.11327996,-0.12951787,0.6184786,0.04635372,0.13366026,0.31816828,-0.45463535,-0.710539
NCI-N87,0.3370279,0.11436234,0.19254865,-0.14717962,0.3258254,-0.2629724,-0.34422868,-0.07927474,-0.41032043,-0.15482841,0.035505038,-0.1647874,0.10063722,-0.34061095,-0.011905422,-0.21114396,-0.2724525,-0.41408506,0.14527181,-0.18620788,0.60458684,-0.008899878,0.068532184,0.26056752,-0.18504046,-0.31375605,0.19385017,-0.008807721,0.3168111,-0.26434666,-0.07432799,0.018077366,-0.13628338,0.17684056,-0.16900188,0.28378692,0.06966519,0.09781459,-0.14082727,0.14754136,0.09143222,0.2933378,-0.14586827,0.19101746,0.08923273,0.27353463,0.4866036,0.018843949,-0.45257553,-0.017198423,-0.14483371,-0.16122638,-0.25333747,0.16418205,0.08649223,0.1672381,0.23200715,0.0033497731,-0.055740748,0.045102317,0.06594256,-0.016040992,0.5229451,0.011554619,0.0033699519,0.28791398,0.111812375,-0.047953684,0.03597962,-0.10620866,0.15277772,-0.5249205,0.16078629,0.058969066,0.17249434,-0.23833434,0.112388425,0.14949591,-0.012394301,0.4534426,0.16089611,0.44908452,0.29065424,0.022740848,-0.14486732
AU565,0.3370279,0.11436234,0.19254865,-0.14717962,0.3258254,-0.2629724,-0.34422868,-0.07927474,-0.41032043,-0.15482841,0.035505038,-0.1647874,0.10063722,-0.34061095,-0.011905422,-0.21114396,-0.2724525,-0.41408506,0.14527181,-0.18620788,0.60458684,-0.008899878,0.068532184,0.26056752,-0.18504046,-0.31375605,0.19385017,-0.008807721,0.3168111,-0.26434666,-0.07432799,0.018077366,-0.13628338,0.17684056,-0.16900188,0.28378692,0.06966519,0.09781459,-0.14082727,0.14754136,0.09143222,0.2933378,-0.14586827,0.19101746,0.08923273,0.27353463,0.4866036,0.018843949,-0.45257553,-0.017198423,-0.14483371,-0.16122638,-0.25333747,0.16418205,0.08649223,0.1672381,0.23200715,0.0033497731,-0.055740748,0.045102317,0.06594256,-0.016040992,0.5229451,0.011554619,0.0033699519,0.28791398,0.111812375,-0.047953684,0.03597962,-0.10620866,0.15277772,-0.5249205,0.16078629,0.058969066,0.17249434,-0.23833434,0.112388425,0.14949591,-0.012394301,0.4534426,0.16089611,0.44908452,0.29065424,0.022740848,-0.14486732
SW684,0.3370279,0.11436234,0.19254865,-0.14717962,0.3258254,-0.2629724,-0.34422868,-0.07927474,-0.41032043,-0.15482841,0.035505038,-0.1647874,0.10063722,-0.34061095,-0.011905422,-0.21114396,-0.2724525,-0.41408506,0.14527181,-0.18620788,0.60458684,-0.008899878,0.068532184,0.26056752,-0.18504046,-0.31375605,0.19385017,-0.008807721,0.3168111,-0.26434666,-0.07432799,0.018077366,-0.13628338,0.17684056,-0.16900188,0.28378692,0.06966519,0.09781459,-0.14082727,0.14754136,0.09143222,0.2933378,-0.14586827,0.19101746,0.08923273,0.27353463,0.4866036,0.018843949,-0.45257553,-0.017198423,-0.14483371,-0.16122638,-0.25333747,0.16418205,0.08649223,0.1672381,0.23200715,0.0033497731,-0.055740748,0.045102317,0.06594256,-0.016040992,0.5229451,0.011554619,0.0033699519,0.28791398,0.111812375,-0.047953684,0.03597962,-0.10620866,0.15277772,-0.5249205,0.16078629,0.058969066,0.17249434,-0.23833434,0.112388425,0.14949591,-0.012394301,0.4534426,0.16089611,0.44908452,0.29065424,0.022740848,-0.14486732
GMS-10,0.39857545,-0.32068247,-0.04396085,0.069073476,-0.20012623,-0.6273986,-0.51250803,0.05499426,0.09798767,0.090018496,-0.38429818,0.046852633,0.25403652,0.17557706,0.46580765,-0.11777347,-0.67965454,-0.3802905,-0.060098857,0.016527379,-0.12710716,0.271434,0.51132846,0.055545997,0.22403854,-0.14978331,-0.27998888,0.25462562,0.3325733,-0.11060354,-0.47565472,-0.41698048,-0.23588537,0.5619395,0.3270415,0.24871638,0.5301602,0.5602214,-0.18304557,0.05869027,-0.3896486,0.09368189,-0.13294677,0.30680034,0.08055024,0.41369468,-0.017794766,0.3736783,0.0014962032,0.1981331,0.14273569,-0.4029831,0.03565724,-0.17650007,0.09102724,-0.080657616,-0.013450447,0.09739962,0.26780984,0.25700656,0.112107925,0.30997643,0.4488576,0.27326012,-0.28741914,0.30703866,-0.23646209,0.13412015,-0.26732668,0.18824373,-0.13310187,-0.33990937,0.061559506,0.057231598,-0.3705296,0.3187385,-0.01733252,-0.0997689,0.14843339,0.19075045,-0.2503678,0.25172865,-0.4790353,-0.3964089,-0.27584746
RPMI-7951,-0.3294465,-0.1701876,-0.64357144,0.11863316,-1.0983925,-0.24346358,-0.6617871,1.1918002,1.4608924,1.0165846,0.4397797,-1.0629468,-0.23300627,0.9227703,0.8665114,1.4582003,-0.34335333,0.43206227,0.43460187,0.9335326,0.50455225,1.3095313,1.2129358,-1.1187024,-0.07501577,0.66079223,0.92142904,-1.0614971,1.516528,-0.8745712,1.0653898,0.25038376,0.9962086,-0.44609767,0.4761207,0.6205972,0.7838472,1.4710346,-0.5173237,0.0870526,-2.4068348,1.410713,1.4294654,-1.1017667,-1.6339701,0.1668265,-2.1859596,1.034155,-0.34105015,1.1905633,0.19473395,0.1590087,1.0316255,0.7365607,1.328994,-0.8364335,0.7795531,-0.6072326,-1.1376234,-0.36701268,-0.38194492,-0.9383104,-0.4213883,-0.7506723,-1.6025984,0.7687636,-0.94518673,-0.36723673,-1.1423414,0.6450746,-1.2559946,-1.47816,-0.0382697,0.6622872,-0.6079255,0.60815126,-1.397716,-0.5828469,-0.6495549,0.7116036,-0.18114561,-0.3479372,-0.7193636,-0.9907289,-1.1437773
CAL-72,-0.41692004,0.14376071,0.1729499,-0.10299459,-0.0075615975,-0.26097667,-0.1670373,0.6335368,0.2784568,0.39287803,0.36795294,-0.9498362,-0.2008353,0.3606015,0.0605867,0.45071694,-0.099609524,0.23549964,0.426102,0.63587415,0.95911384,0.5390373,0.6349531,-0.43991923,-0.26632854,0.3859258,0.9353024,-0.8104194,0.78482115,-0.6310525,0.9259297,0.38838217,0.5526507,-0.5282804,-0.27326155,0.3007792,0.0031626346,0.48296538,-0.38289604,0.4465239,-0.9868227,1.1615714,0.76873976,-0.43662187,-0.7176021,0.07034338,-0.4017366,0.07580594,-0.6389519,0.4578671,-0.39605916,0.08990895,0.3926373,0.9630223,0.74477386,-0.3014018,0.45446664,-0.29633665,-0.7815281,-0.6750975,-0.14347288,-0.33525482,0.3318437,-0.28634465,-0.66964066,0.5655394,-0.18852837,-0.5460163,-0.67950976,0.53994954,-0.2839496,-0.9494351,0.115364596,0.7261931,0.22258069,-0.33756107,-0.7892322,-0.11327996,-0.12951787,0.6184786,0.04635372,0.13366026,0.31816828,-0.45463535,-0.710539
NCI-H596,0.8143745,-0.101197965,-0.19921048,-0.043535043,-0.0016295768,0.14336017,-0.6961941,-0.022558173,-0.0071876887,-0.14354007,0.2609378,0.083719656,0.018930819,-0.62075645,0.20112278,0.2288776,-0.1877166,-0.7749196,0.20445192,-0.62331283,0.90303403,0.116499245,-0.12920198,0.12076991,-0.27827403,-0.6938376,0.21523917,-0.1590335,0.65120053,-0.41637868,-0.23388581,0.1458631,0.2497028,0.20668358,0.31031987,0.64837795,0.3733254,0.18526252,-0.066328615,-0.20853621,-0.028435748,0.21662903,0.04651859,-0.07407067,-0.11026023,0.0406525,-0.03392175,0.28410152,-0.45112574,0.13784862,0.04420189,-0.17800644,-0.32778683,0.0012501333,0.27527025,0.15048324,0.61428416,-0.27721798,-0.45537013,0.531098,-0.28270978,-0.47358903,0.024744006,-0.41498014,-0.25831106,0.24448568,0.025988666,0.11746839,0.31471255,-0.5259469,-0.103484266,-0.6509435,-0.12742966,-0.2759563,-0.100543424,0.10021548,0.4078999,0.16983934,-0.3104257,0.7149786,0.52884614,0.27318776,0.10275977,0.330338,0.05803561
DU145,-0.36515886,0.21130826,0.10597308,-0.1963061,0.060999207,-0.2539491,-0.1603284,0.60053027,0.21236049,0.3930281,0.38914567,-0.9565393,-0.2232438,0.32451206,0.11582987,0.40542826,-0.108805574,0.20553763,0.4148156,0.54967874,0.88225853,0.509461,0.62746924,-0.3593234,-0.33071023,0.37883008,0.9041848,-0.7400355,0.79826605,-0.633757,0.83311874,0.38797382,0.4848223,-0.47671402,-0.2793427,0.32010046,0.049406637,0.49039593,-0.36894056,0.46422395,-0.968945,1.0888157,0.69064313,-0.44590417,-0.7162328,0.16750108,-0.33915663,0.14776601,-0.649127,0.46154648,-0.30529442,0.10887862,0.3499546,0.93106043,0.73033917,-0.28637326,0.4863218,-0.26121622,-0.74255985,-0.63563824,-0.092309944,-0.387438,0.30752307,-0.28143466,-0.6213083,0.5350149,-0.19791265,-0.51519066,-0.61812717,0.47246814,-0.3021583,-0.95049554,0.17764166,0.67261153,0.19352557,-0.34307063,-0.76238364,-0.10766601,-0.2220639,0.65258443,0.062364295,0.17591809,0.2965466,-0.46392313,-0.74919474
NCI-H1581,0.23726322,0.0921086,0.10201931,-0.17029911,0.37217313,-0.23280102,-0.3016991,0.020727616,-0.52855855,-0.21033104,0.023187203,-0.1991494,0.043627698,-0.25545484,0.078255266,-0.18332097,-0.22312549,-0.4416781,0.14397086,-0.18835638,0.54353243,0.015350119,0.12582079,0.29011175,-0.08598457,-0.3074997,0.20657161,-0.033821817,0.3064191,-0.2231964,-0.08971737,0.13033967,-0.13343978,0.11702027,-0.18362969,0.27232933,0.09573177,0.034940723,-0.077277385,0.10013797,0.03644873,0.20986988,-0.18868808,0.13242795,0.0046685687,0.19029208,0.44325727,-0.006470226,-0.44337264,-0.019376783,-0.113664486,-0.18292074,-0.261427,0.15564038,0.044825587,0.027609635,0.24229392,-0.0017186855,0.0019308113,-0.030842088,0.16835709,-0.0079614045,0.3640711,-0.026926542,-0.03171605,0.1673396,0.07029499,0.055826984,-0.07559408,-0.11016741,0.13552564,-0.5043923,0.17192157,0.12312611,0.10996178,-0.229097,0.11544309,0.13301705,-0.07662921,0.45839688,0.13282368,0.38827637,0.20740385,0.09209787,-0.14556424
RVH-421,-0.4051003,-0.21194701,-0.62058014,0.16628361,-1.1521218,-0.24253124,-0.6415424,1.2038743,1.5357869,1.0529819,0.4541803,-1.0799688,-0.25140637,0.95556086,0.8428735,1.5185666,-0.2986556,0.48550498,0.42768684,1.0128795,0.54865676,1.3417078,1.2488801,-1.1751038,-0.03255671,0.7016995,0.94247675,-1.1184119,1.4853836,-0.88598096,1.1334152,0.2639609,1.0330565,-0.49956328,0.49432302,0.61898255,0.7773248,1.4556876,-0.52781326,0.08383073,-2.4393694,1.449449,1.507412,-1.1271422,-1.6302168,0.1120744,-2.2440503,0.9919926,-0.30941293,1.1986638,0.13220146,0.14964171,1.0632143,0.79863054,1.3619761,-0.8225104,0.7474708,-0.6532875,-1.164877,-0.41159147,-0.4429954,-0.91743207,-0.3947695,-0.77214706,-1.6723875,0.76648825,-0.94108367,-0.40776134,-1.2016282,0.7267939,-1.2664891,-1.438784,-0.074276604,0.6963523,-0.5930255,0.61168975,-1.4734584,-0.5777346,-0.61017716,0.67450684,-0.16642255,-0.4043263,-0.677666,-0.9777182,-1.1226057
786-O,-0.33882445,0.17417228,-0.3190287,-0.0762815,-0.41773602,0.12649435,-0.40708888,1.1042094,0.97651505,0.67780167,0.85660076,-1.2292964,-0.5447552,0.4497882,0.44428697,1.278342,0.041406218,0.29411572,0.65747714,0.62685126,1.3022759,1.0399114,0.82945526,-0.8991488,-0.46178874,0.42357168,1.4050512,-1.3468615,1.5980594,-1.1040971,1.3143038,0.79485065,1.1752179,-0.8996366,0.0026871026,0.7193919,0.27304497,0.86381674,-0.42405683,0.27688244,-1.833802,1.5441488,1.3711534,-1.2197133,-1.514025,-0.04966509,-1.4716604,0.62974834,-0.8494002,0.9291507,-0.16737893,0.34371132,0.76555765,1.2056812,1.3455038,-0.6310584,1.0720003,-0.7003963,-1.5188955,-0.5551893,-0.46582806,-1.1477522,-0.39819938,-0.9714992,-1.3095174,0.693312,-0.51102453,-0.6302987,-0.83914286,0.38842925,-0.8995555,-1.421561,-0.0051083113,0.7316969,-0.040257804,-0.025974445,-1.1023474,-0.27980402,-0.79370075,1.044566,0.3965423,-0.11062746,0.102454156,-0.5292057,-1.03269
SCC-25,-0.36515886,0.21130826,0.10597308,-0.1963061,0.060999207,-0.2539491,-0.1603284,0.60053027,0.21236049,0.3930281,0.38914567,-0.9565393,-0.2232438,0.32451206,0.11582987,0.40542826,-0.108805574,0.20553763,0.4148156,0.54967874,0.88225853,0.509461,0.62746924,-0.3593234,-0.33071023,0.37883008,0.9041848,-0.7400355,0.79826605,-0.633757,0.83311874,0.38797382,0.4848223,-0.47671402,-0.2793427,0.32010046,0.049406637,0.49039593,-0.36894056,0.46422395,-0.968945,1.0888157,0.69064313,-0.44590417,-0.7162328,0.16750108,-0.33915663,0.14776601,-0.649127,0.46154648,-0.30529442,0.10887862,0.3499546,0.93106043,0.73033917,-0.28637326,0.4863218,-0.26121622,-0.74255985,-0.63563824,-0.092309944,-0.387438,0.30752307,-0.28143466,-0.6213083,0.5350149,-0.19791265,-0.51519066,-0.61812717,0.47246814,-0.3021583,-0.95049554,0.17764166,0.67261153,0.19352557,-0.34307063,-0.76238364,-0.10766601,-0.2220639,0.65258443,0.062364295,0.17591809,0.2965466,-0.46392313,-0.74919474
Raji,0.3370279,0.11436234,0.19254865,-0.14717962,0.3258254,-0.2629724,-0.34422868,-0.07927474,-0.41032043,-0.15482841,0.035505038,-0.1647874,0.10063722,-0.34061095,-0.011905422,-0.21114396,-0.2724525,-0.41408506,0.14527181,-0.18620788,0.60458684,-0.008899878,0.068532184,0.26056752,-0.18504046,-0.31375605,0.19385017,-0.008807721,0.3168111,-0.26434666,-0.07432799,0.018077366,-0.13628338,0.17684056,-0.16900188,0.28378692,0.06966519,0.09781459,-0.14082727,0.14754136,0.09143222,0.2933378,-0.14586827,0.19101746,0.08923273,0.27353463,0.4866036,0.018843949,-0.45257553,-0.017198423,-0.14483371,-0.16122638,-0.25333747,0.16418205,0.08649223,0.1672381,0.23200715,0.0033497731,-0.055740748,0.045102317,0.06594256,-0.016040992,0.5229451,0.011554619,0.0033699519,0.28791398,0.111812375,-0.047953684,0.03597962,-0.10620866,0.15277772,-0.5249205,0.16078629,0.058969066,0.17249434,-0.23833434,0.112388425,0.14949591,-0.012394301,0.4534426,0.16089611,0.44908452,0.29065424,0.022740848,-0.14486732
