,E0,E1,E2,E3,E4,E5,E6,E7,E8,E9,E10,E11,E12,E13,E14,E15,E16,E17,E18,E19,E20,E21,E22,E23,E24,E25,E26,E27,E28,E29,E30,E31,E32,E33,E34,E35,E36,E37,E38,E39,E40,E41,E42,E43,E44,E45,E46,E47,E48,E49,E50,E51,E52,E53,E54,E55,E56,E57,E58,E59,E60,E61,E62,E63,E64,E65,E66,E67,E68,E69,E70,E71,E72,E73,E74,E75,E76,E77,E78,E79,E80,E81,E82,E83,E84
YH-13,0.81308985,-0.07422688,-0.086599134,0.36187047,-0.33037233,0.06712059,-0.578236,-0.25494227,-0.085129015,-0.32541233,0.22489859,0.058394063,0.009249534,-0.71996474,0.07132241,0.3736447,-0.44034913,-0.58017564,0.2056963,-0.4610187,1.0840545,0.014108091,-0.318639,0.118572734,0.2351195,-1.0702739,-0.20416531,-0.45972225,0.48948476,-0.2013573,0.03860709,0.25759447,0.12587933,-0.087792106,0.20014659,0.9960805,0.063320704,0.1378863,-0.18590295,-0.51261103,-0.19021603,0.59858835,-0.019271318,0.34065163,-0.17605291,-0.6420109,-0.20586264,-0.025373364,-0.31604216,0.44414067,-0.38080966,-0.48056155,-0.20647147,-0.23388033,-0.00090635725,0.059488997,0.6304101,-0.65238583,-0.77573115,0.6006943,-0.28096405,-0.48891073,0.3780269,-0.68907577,-0.16136612,0.37070686,0.5180327,-0.075579844,0.49143827,-0.34384558,0.20413949,-0.5267868,-0.3024186,-0.64763814,-0.002321864,0.36148795,0.45642886,0.56065536,0.22104035,0.5710192,0.30267662,-0.11809431,0.38459447,0.51319957,0.40781447
SNU-119,0.37374237,0.09549562,0.16870113,-0.13882208,0.31656107,-0.22591628,-0.3463503,-0.07645522,-0.34204572,-0.15649357,0.07004425,-0.18633805,0.09311958,-0.29182112,0.00902823,-0.22540529,-0.2906813,-0.41097438,0.17154513,-0.19987355,0.5919226,-0.019714886,0.09185046,0.26377916,-0.19260454,-0.31169656,0.15252234,-0.010984944,0.31467125,-0.27481946,-0.09558546,-0.01774174,-0.10145718,0.20370816,-0.21761765,0.2673889,0.05136488,0.14216448,-0.15877075,0.15179211,0.11831142,0.28367874,-0.15359697,0.2540603,0.06166552,0.24369386,0.47981346,0.0005219797,-0.4449283,-0.030133171,-0.15662318,-0.19257161,-0.25168872,0.1287026,0.04354633,0.1440318,0.27338493,0.01630339,-0.025108643,-0.014467352,0.09573016,-0.01896539,0.54051507,0.009316614,0.05971178,0.2887707,0.14838216,-0.0339279,-0.01710014,-0.10853433,0.16197284,-0.552238,0.14972484,0.031001769,0.17624274,-0.20879465,0.11054716,0.13136989,-0.011764354,0.44048977,0.15748653,0.4841934,0.25514174,0.023266174,-0.1917797
DM-3,0.2944926,0.1413014,0.17067657,0.20533732,0.021555956,-0.3049609,-0.12813383,-0.2426252,-0.5445023,-0.41858304,0.03447791,-0.25161472,0.038231935,-0.41996792,-0.071109675,-0.02955904,-0.48844427,-0.18731488,0.13344951,-0.08298704,0.7157133,-0.12830526,-0.07665478,0.24139114,0.36444965,-0.64332527,-0.15354818,-0.35562396,0.10208331,-0.0043105655,0.15428333,0.24498133,-0.2565868,-0.15787135,-0.26964292,0.5907097,-0.18148424,-0.088925675,-0.21710622,-0.20969988,-0.11214061,0.59688693,-0.23933783,0.55639565,-0.037112482,-0.4034866,0.287288,-0.27925354,-0.30239737,0.33665895,-0.54780126,-0.41811463,-0.12483903,-0.09385944,-0.24420391,-0.014854162,0.29032117,-0.33693445,-0.3787827,0.09325075,0.1187393,-0.09062893,0.7971964,-0.21955058,0.02711072,0.3484941,0.55484396,-0.14866798,0.17272319,0.06847937,0.36974663,-0.33892316,0.0058219694,-0.2110394,0.25286335,-0.004035411,0.17282279,0.54837924,0.49291536,0.3607904,-0.06502517,-0.017875792,0.5360522,0.26961237,0.20765333
KYSE-410,-0.03536987,0.5369394,-0.15393592,-0.5476773,-0.050650798,-0.28783324,-0.36300445,-0.20063658,-0.6032241,0.10434729,-0.60945576,-0.08734538,0.33725202,-0.067642026,0.35765916,-0.10614474,-0.015227888,-0.41438746,0.07620202,0.2453474,0.30691615,-0.5807058,-0.1600399,0.22851993,0.22957988,0.31280333,0.06042611,-0.24957773,0.016209066,0.05973308,-0.35644004,0.048837654,0.18963583,0.1326395,-0.48218083,-0.22016443,0.6054854,-0.0718777,-0.24393524,-0.29083294,0.18979897,0.5220213,0.011020886,-0.3022942,-0.3987499,0.3785082,0.21048416,-0.17504752,0.13816404,0.07783925,-0.20051564,0.48219964,-0.49011207,-0.28515336,-0.16342494,-0.2218165,-0.11533813,0.41485825,0.07795001,0.21393435,0.068319194,0.42200288,0.48985806,-0.030761922,0.037191298,0.17817266,-0.40407273,0.48980173,0.4577931,-0.37857515,-0.2893882,-0.27063,-0.2339577,0.34652096,-0.3145511,0.087186135,0.4086456,-0.023098737,0.26431063,0.26338825,-0.44110647,0.28593445,-0.113573864,-0.1342945,-0.046502538
BL-70,0.39464313,0.1795365,0.20389083,-0.14069201,0.26121846,-0.21425934,-0.32632947,0.03552643,-0.31668255,-0.044806678,0.08092999,-0.08277299,0.042237677,-0.30945662,-0.0063889907,-0.15981689,-0.14319667,-0.32526675,0.14934424,-0.29351765,0.6396726,0.0759391,0.11971937,0.24005668,-0.1495213,-0.29443294,0.14269644,0.09664697,0.31485978,-0.2566458,0.005950358,0.04035616,-0.1573256,0.16013671,-0.15215896,0.2880427,0.06049711,0.15651827,-0.09610135,0.05824008,0.014213547,0.24712728,-0.103954375,0.091122404,0.13814937,0.22936429,0.37914735,0.08227275,-0.33954668,0.0044790795,-0.059036914,-0.2599599,-0.22362098,0.069988,0.14645423,0.19301033,0.30578637,0.041301724,-0.017402982,0.08148939,0.07981713,0.009680862,0.43438485,-0.090599984,0.0067610224,0.25753304,0.10758907,-0.059624236,0.010442682,-0.08158408,0.10779669,-0.39416796,0.088255085,0.12650625,0.14266038,-0.29398823,0.1285666,0.10150105,-0.060145255,0.42481503,0.17603108,0.44290802,0.24898782,-0.00041055045,-0.14172295
QGP-1,0.009144897,0.5713345,-0.031196294,-0.13222086,-0.40371892,-0.37793985,-0.23642705,-0.48912796,-0.6274133,-0.06713936,-0.62312835,-0.114372104,0.31591532,-0.20565982,0.19352168,0.07835851,-0.26792464,-0.19847439,0.04498451,0.3726838,0.4901891,-0.6853405,-0.40758258,0.19932316,0.67158675,-0.043841157,-0.29854214,-0.5323667,-0.15820958,0.24968463,-0.11871161,0.13103777,0.060012262,-0.13904709,-0.5742039,0.13445343,0.31231156,-0.12732455,-0.3495088,-0.5648583,0.0019721654,0.94005954,-0.043174036,0.118042216,-0.414751,-0.24608317,0.09690914,-0.45782453,0.30239543,0.41057226,-0.6568511,0.23350574,-0.3339454,-0.53527266,-0.43091756,-0.2405962,-0.081521735,0.039146505,-0.27621222,0.31918463,0.04061306,0.38014933,0.91725105,-0.25384402,0.110967435,0.33551693,0.10484008,0.27010953,0.66258603,-0.17693824,0.015605126,-0.14554769,-0.42009738,-0.036018424,-0.1735789,0.31776145,0.465335,0.3865368,0.8244526,0.17122504,-0.63912857,-0.12871176,0.23801638,0.025760647,0.28485903
SW1463,-0.028391395,0.5618513,-0.136595,-0.54177684,-0.110721834,-0.3060919,-0.36299115,-0.25019208,-0.55207217,0.107315615,-0.5996624,-0.019528173,0.3152075,-0.0760167,0.31439453,-0.046723507,-0.020273115,-0.42439002,0.066792004,0.19348426,0.34552076,-0.5577069,-0.2488314,0.15078497,0.1669228,0.34921134,0.1631095,-0.22854412,-0.018176695,0.044231944,-0.391982,0.01519443,0.23068349,0.1400029,-0.44616228,-0.22494374,0.5774283,-0.09213057,-0.23547287,-0.23469819,0.19908558,0.5356574,0.039064616,-0.287905,-0.3347493,0.48325607,0.29110965,-0.1011165,0.1473799,0.08953715,-0.23524344,0.57309175,-0.45414233,-0.3104145,-0.17902206,-0.15558447,-0.10520707,0.3860856,0.020777475,0.25626343,0.05601545,0.42558557,0.56541365,0.020947052,0.0036074615,0.19806875,-0.3821372,0.47890285,0.5040263,-0.38790435,-0.2739028,-0.27840474,-0.24786602,0.29857185,-0.25772247,0.06763488,0.422732,-0.018233187,0.28998405,0.2896128,-0.42014098,0.24028818,-0.09170137,-0.112351455,-0.06596251
A2780,0.827589,-0.5717456,-0.9717742,0.5989684,-1.3581067,0.16820559,-1.3328519,0.41418418,1.0708882,0.18780974,0.23405087,0.08894169,0.08816273,-0.27074116,1.0743097,1.5489657,-0.62191933,-0.695505,0.16551238,-0.19992685,0.6541644,0.8239944,0.23140578,-0.8353558,0.2811608,-0.7219018,-0.022356916,-0.8040288,1.2001879,-0.51184493,-0.016781764,0.025311222,0.7589352,0.12581955,1.0960417,1.200096,1.1038435,1.11094,-0.3557752,-0.6981296,-1.3458745,0.6588451,0.8968718,-0.501815,-1.1883141,-0.27282867,-2.0844634,0.9317812,-0.051682703,0.95997727,0.19306494,-0.19500902,0.17146614,-0.17429525,0.5824487,-0.41782013,0.9022466,-0.9639297,-1.0395774,0.9354478,-0.6860985,-0.94845754,-0.7178873,-1.0592299,-1.3477654,0.5183456,-0.5206317,0.3212797,-0.12637064,-0.28823307,-0.88019013,-1.2613561,-0.39279407,-0.59022295,-0.71301067,1.4954187,-0.11198812,-0.019796034,-0.40332827,0.7522015,0.18222898,-0.49103186,-0.79734564,-0.09947494,-0.028173631
TE-14,0.34974253,0.12916005,0.13846627,-0.18699972,0.32827634,-0.24502575,-0.2972408,-0.05413619,-0.402075,-0.19159386,0.060468238,-0.19022599,0.11657818,-0.36710626,0.0028670786,-0.24188532,-0.28507444,-0.3756349,0.16596794,-0.20817508,0.5934947,-0.04792043,0.113599226,0.24104367,-0.17661302,-0.2929371,0.19269863,-0.047820855,0.2868938,-0.23541237,-0.06805573,0.050518945,-0.12980683,0.1736355,-0.16299208,0.24754953,0.085622944,0.029395033,-0.17508253,0.11172885,0.13066968,0.26231658,-0.14232308,0.19464873,0.06345278,0.30434737,0.4442093,0.028837562,-0.47583163,0.0061043496,-0.12263499,-0.14772625,-0.2729161,0.16480164,0.06495544,0.14355397,0.246218,0.043845803,-0.08229201,0.06394486,0.04403087,-0.056854963,0.52867734,0.042012732,-0.011579433,0.31172425,0.08744849,-0.032756425,0.07950381,-0.12919882,0.08200535,-0.48453364,0.18082638,0.10734296,0.17442372,-0.24384807,0.11307869,0.15522252,-0.002991751,0.44799933,0.16106935,0.45757863,0.26771238,0.040200174,-0.12301128
TE 159.T,0.33574325,0.1413334,0.30516,0.25822586,-0.0029173526,-0.33921203,-0.22627057,-0.3116588,-0.48826176,-0.33670065,-0.00053417194,-0.19011301,0.09095596,-0.4398193,-0.14170572,-0.066376835,-0.5250851,-0.21934101,0.14651619,-0.02391374,0.78560734,-0.11129103,-0.12090485,0.25837034,0.32835305,-0.69019234,-0.22555427,-0.3094965,0.15509523,-0.049325336,0.19816494,0.12980871,-0.26010686,-0.1176351,-0.2791752,0.6314894,-0.24033953,0.050438363,-0.2604016,-0.15653348,-0.07034806,0.67529726,-0.21165815,0.6057397,0.02344005,-0.40912887,0.3146627,-0.2906309,-0.317492,0.28909364,-0.56984526,-0.46378145,-0.13202213,-0.070948444,-0.18968435,0.07624384,0.24813306,-0.3718181,-0.37610176,0.11469859,0.067688294,-0.0313627,0.8762279,-0.2625409,0.10031492,0.41413513,0.60385644,-0.2410019,0.21270537,0.07589262,0.46040148,-0.4007638,-0.014202628,-0.31271282,0.27071586,0.022938183,0.16091739,0.5403119,0.51907176,0.3094832,-0.06527341,0.057802435,0.572489,0.2056025,0.20491152
EFM-19,0.8143745,-0.101197965,-0.19921048,-0.043535043,-0.0016295768,0.14336017,-0.6961941,-0.022558173,-0.0071876887,-0.14354007,0.2609378,0.083719656,0.018930819,-0.62075645,0.20112278,0.2288776,-0.1877166,-0.7749196,0.20445192,-0.62331283,0.90303403,0.116499245,-0.12920198,0.12076991,-0.27827403,-0.6938376,0.21523917,-0.1590335,0.65120053,-0.41637868,-0.23388581,0.1458631,0.2497028,0.20668358,0.31031987,0.64837795,0.3733254,0.18526252,-0.066328615,-0.20853621,-0.028435748,0.21662903,0.04651859,-0.07407067,-0.11026023,0.0406525,-0.03392175,0.28410152,-0.45112574,0.13784862,0.04420189,-0.17800644,-0.32778683,0.0012501333,0.27527025,0.15048324,0.61428416,-0.27721798,-0.45537013,0.531098,-0.28270978,-0.47358903,0.024744006,-0.41498014,-0.25831106,0.24448568,0.025988666,0.11746839,0.31471255,-0.5259469,-0.103484266,-0.6509435,-0.12742966,-0.2759563,-0.100543424,0.10021548,0.4078999,0.16983934,-0.3104257,0.7149786,0.52884614,0.27318776,0.10275977,0.330338,0.05803561
HCC1395,0.34974253,0.12916005,0.13846627,-0.18699972,0.32827634,-0.24502575,-0.2972408,-0.05413619,-0.402075,-0.19159386,0.060468238,-0.19022599,0.11657818,-0.36710626,0.0028670786,-0.24188532,-0.28507444,-0.3756349,0.16596794,-0.20817508,0.5934947,-0.04792043,0.113599226,0.24104367,-0.17661302,-0.2929371,0.19269863,-0.047820855,0.2868938,-0.23541237,-0.06805573,0.050518945,-0.12980683,0.1736355,-0.16299208,0.24754953,0.085622944,0.029395033,-0.17508253,0.11172885,0.13066968,0.26231658,-0.14232308,0.19464873,0.06345278,0.30434737,0.4442093,0.028837562,-0.47583163,0.0061043496,-0.12263499,-0.14772625,-0.2729161,0.16480164,0.06495544,0.14355397,0.246218,0.043845803,-0.08229201,0.06394486,0.04403087,-0.056854963,0.52867734,0.042012732,-0.011579433,0.31172425,0.08744849,-0.032756425,0.07950381,-0.12919882,0.08200535,-0.48453364,0.18082638,0.10734296,0.17442372,-0.24384807,0.11307869,0.15522252,-0.002991751,0.44799933,0.16106935,0.45757863,0.26771238,0.040200174,-0.12301128
HT-1197,0.81308985,-0.07422688,-0.086599134,0.36187047,-0.33037233,0.06712059,-0.578236,-0.25494227,-0.085129015,-0.32541233,0.22489859,0.058394063,0.009249534,-0.71996474,0.07132241,0.3736447,-0.44034913,-0.58017564,0.2056963,-0.4610187,1.0840545,0.014108091,-0.318639,0.118572734,0.2351195,-1.0702739,-0.20416531,-0.45972225,0.48948476,-0.2013573,0.03860709,0.25759447,0.12587933,-0.087792106,0.20014659,0.9960805,0.063320704,0.1378863,-0.18590295,-0.51261103,-0.19021603,0.59858835,-0.019271318,0.34065163,-0.17605291,-0.6420109,-0.20586264,-0.025373364,-0.31604216,0.44414067,-0.38080966,-0.48056155,-0.20647147,-0.23388033,-0.00090635725,0.059488997,0.6304101,-0.65238583,-0.77573115,0.6006943,-0.28096405,-0.48891073,0.3780269,-0.68907577,-0.16136612,0.37070686,0.5180327,-0.075579844,0.49143827,-0.34384558,0.20413949,-0.5267868,-0.3024186,-0.64763814,-0.002321864,0.36148795,0.45642886,0.56065536,0.22104035,0.5710192,0.30267662,-0.11809431,0.38459447,0.51319957,0.40781447
UM-UC-3,0.06450046,0.58045626,0.05355545,-0.13368466,-0.43813166,-0.40570718,-0.27745944,-0.52453375,-0.5554356,-0.0347257,-0.6348928,-0.041571938,0.38530308,-0.2515628,0.14985931,0.0009614019,-0.33075765,-0.21577376,0.07481022,0.40987033,0.57593745,-0.6983229,-0.4013473,0.16982733,0.66255957,-0.06346548,-0.35233188,-0.52302545,-0.12757686,0.23105225,-0.07575738,0.0680573,0.093970984,-0.11887735,-0.5857472,0.13671781,0.26882324,-0.04937748,-0.42462447,-0.5388992,0.07923561,0.9800273,-0.010154443,0.16256882,-0.3693132,-0.1993005,0.09601565,-0.4479998,0.2507095,0.36280546,-0.670949,0.20189984,-0.3750997,-0.51027006,-0.39632162,-0.18132934,-0.11355299,0.033209324,-0.31013647,0.37106484,-0.03463486,0.41315112,1.0259918,-0.26593482,0.14071237,0.4197401,0.13384631,0.20736857,0.7477469,-0.21271083,0.030669875,-0.19612959,-0.41820976,-0.09554042,-0.16239287,0.33995527,0.46745092,0.38441893,0.8589822,0.1351799,-0.6457854,-0.027336536,0.24360187,-0.003299288,0.31226805
EFE-184,0.30325395,0.14063688,0.16441058,-0.12499557,0.34714746,-0.24692087,-0.36065912,-0.100875944,-0.44759193,-0.15563047,0.04882003,-0.14764592,0.1201139,-0.32108217,0.04202142,-0.21635774,-0.24434577,-0.46128002,0.16224024,-0.14962575,0.58227026,-0.0005370031,0.07180092,0.25453445,-0.20219038,-0.28755477,0.15623342,-0.008358771,0.29257697,-0.27995956,-0.05109221,0.0069259848,-0.13292262,0.13093875,-0.13949184,0.3136801,0.02248285,0.10408342,-0.1117671,0.15212865,0.12430582,0.27705258,-0.15981919,0.1714751,0.06610944,0.3143071,0.50491506,0.069570534,-0.4415134,-0.023711557,-0.13096668,-0.1874126,-0.2894309,0.19124028,0.07424296,0.16391592,0.24136898,-0.02247219,-0.06013701,0.08676862,0.041992787,-0.034585577,0.5457338,-0.026432524,0.008377852,0.24929489,0.064958125,-0.05945319,0.01144316,-0.086717315,0.10940882,-0.48704267,0.13528393,0.075997084,0.1633963,-0.20051149,0.11143441,0.16491848,0.02334473,0.4387547,0.12549993,0.43545258,0.27405638,0.018363921,-0.17549285
COLO 829,0.3818356,-0.22189318,-0.04323029,0.461498,-0.69283813,-0.6721138,-0.48309043,-0.2212486,0.06439018,0.00041678766,-0.38281608,-0.045314047,0.39518714,0.08195266,0.3014523,0.09922009,-0.9280733,-0.0782837,-0.050085854,0.26910195,-0.024780678,0.14751416,0.28589404,0.042028643,0.70756197,-0.4509124,-0.7505042,-0.026309183,0.07142395,0.16972783,-0.0720067,-0.45047718,-0.40429005,0.3627714,0.14564255,0.51629686,0.25216243,0.7020063,-0.3716119,-0.34211248,-0.61650205,0.53220236,-0.16107503,0.786729,-0.12407238,-0.22247803,-0.40642688,0.095453836,0.19850545,0.5375721,-0.21952194,-0.67982924,0.13569452,-0.5755483,-0.24914017,-0.15233748,-0.0029363993,-0.26570067,0.0358026,0.24330567,0.18135902,0.17515476,0.870609,-0.04395208,-0.13642418,0.4904435,0.20626402,0.03608583,-0.14357305,0.33021227,0.113157496,-0.48468032,-0.058425426,-0.41008973,-0.2932033,0.68660355,-0.13629243,0.21914311,0.6638475,-0.03643203,-0.64637095,-0.14439844,-0.28484145,-0.25539556,0.04691203
MFE-296,0.95177567,-0.32842207,-0.81966025,0.11665047,-0.45672837,0.6135463,-1.0254217,0.28729144,0.68387514,-0.12989536,0.74691916,-0.16605085,-0.2915465,-0.60484284,0.646806,1.1483718,-0.15772483,-0.96807665,0.41107744,-0.6571352,1.2647924,0.52612066,-0.07553755,-0.34947476,-0.41390225,-0.8466212,0.72235495,-0.8639676,1.4546387,-0.89156914,-0.065846846,0.5688724,1.0171397,-0.11473908,0.66618174,1.13057,0.7058509,0.4198341,-0.06809652,-0.43789908,-0.7417309,0.5599777,0.5916666,-0.70686036,-0.9702501,-0.23341624,-1.0744187,0.7224304,-0.722503,0.56629133,0.10785015,0.14166647,-0.012064243,0.20403634,0.7116795,-0.25089997,1.2305797,-0.80592287,-1.235775,0.6780957,-0.6494763,-1.3438869,-0.7250766,-1.0590256,-0.96547997,0.30845904,-0.24604307,0.21562651,0.12010088,-0.8015608,-0.6721525,-1.2579834,-0.311592,-0.44331962,-0.3734616,0.61748844,0.23546706,0.090976015,-0.90601486,1.2112505,0.9599637,-0.05742333,-0.117749445,0.49769065,-0.1555751
NCI-H1373,-0.54544616,0.26604614,-0.40510446,-0.3837747,-0.7503111,-0.62852156,-0.5303936,0.54331833,0.4692751,0.86096543,-0.5157094,-0.67378217,0.34894773,0.9116264,0.87277657,0.36044616,-0.31235698,0.08956222,0.20777236,1.2021463,0.24892907,0.34273902,0.7620564,-0.634837,0.39788702,1.0029941,0.2732657,-0.6299545,0.49152058,-0.2675777,0.34207392,-0.15546809,0.7228398,-0.1823925,-0.13111418,-0.106573105,0.84163606,0.79644865,-0.5603091,-0.03572079,-1.2690217,1.2674135,0.94328135,-0.73412114,-1.176847,0.61523414,-0.87632203,0.39741972,0.3100109,0.80519664,-0.24661005,0.43780887,0.2289938,0.29555252,0.55260116,-0.68284625,0.07069922,0.19796385,-0.48722252,-0.11534734,-0.10028006,0.30500343,0.44419384,-0.14601226,-0.80506736,0.51462173,-1.0835966,0.057328984,-0.39762962,0.43318248,-0.9839203,-0.6080075,-0.22256722,0.9619353,-0.5801651,0.40573493,-0.64285517,-0.49707377,0.2700721,0.3475363,-0.84149116,-0.1418371,-0.60732734,-0.98442703,-0.8732091
KYSE-30,0.23726322,0.0921086,0.10201931,-0.17029911,0.37217313,-0.23280102,-0.3016991,0.020727616,-0.52855855,-0.21033104,0.023187203,-0.1991494,0.043627698,-0.25545484,0.078255266,-0.18332097,-0.22312549,-0.4416781,0.14397086,-0.18835638,0.54353243,0.015350119,0.12582079,0.29011175,-0.08598457,-0.3074997,0.20657161,-0.033821817,0.3064191,-0.2231964,-0.08971737,0.13033967,-0.13343978,0.11702027,-0.18362969,0.27232933,0.09573177,0.034940723,-0.077277385,0.10013797,0.03644873,0.20986988,-0.18868808,0.13242795,0.0046685687,0.19029208,0.44325727,-0.006470226,-0.44337264,-0.019376783,-0.113664486,-0.18292074,-0.261427,0.15564038,0.044825587,0.027609635,0.24229392,-0.0017186855,0.0019308113,-0.030842088,0.16835709,-0.0079614045,0.3640711,-0.026926542,-0.03171605,0.1673396,0.07029499,0.055826984,-0.07559408,-0.11016741,0.13552564,-0.5043923,0.17192157,0.12312611,0.10996178,-0.229097,0.11544309,0.13301705,-0.07662921,0.45839688,0.13282368,0.38827637,0.20740385,0.09209787,-0.14556424
NCI-H2347,0.1892299,0.16979675,-0.17777951,0.04857314,-0.83554965,-0.72983605,-0.57990533,-0.34726956,-0.19407564,0.13203894,-0.91870433,0.0755025,0.64367104,0.12776609,0.5613141,-0.10614503,-0.7567431,-0.28812146,-0.077495575,0.59197193,0.17459431,-0.28637576,0.010413543,-0.011110234,1.0741004,-0.092229374,-0.81885654,-0.19986457,-0.12741596,0.33246693,-0.316116,-0.40248176,-0.025450144,0.22258833,-0.16045672,0.17492265,0.5990722,0.35022238,-0.48083034,-0.6610654,-0.40329847,0.87018013,0.054931074,0.337065,-0.41405088,-0.0021683923,-0.24081439,-0.09170376,0.630584,0.6392569,-0.525028,-0.10866485,-0.21688944,-0.7335146,-0.35517296,-0.31690696,-0.1768514,0.11318402,-0.1163681,0.5933234,0.08366791,0.67962337,0.9901099,-0.08913139,-0.08845204,0.43236104,-0.23497337,0.3430172,0.45773935,0.017115502,-0.17799163,-0.09615342,-0.38890922,-0.040417153,-0.49387687,0.7339208,0.28139994,0.13548149,0.97546875,0.019122984,-0.9337328,-0.24632084,-0.3147873,-0.3105243,0.111522585
SK-UT-1,0.9150612,-0.30955535,-0.7958127,0.108292915,-0.44746408,0.57649016,-1.0233,0.2844719,0.6156004,-0.12823021,0.7123799,-0.1445002,-0.28402886,-0.65363264,0.6258723,1.1626331,-0.13949604,-0.9711873,0.38480413,-0.6434695,1.2774568,0.5369357,-0.09885581,-0.35268638,-0.40633813,-0.84868073,0.7636828,-0.86179036,1.4567785,-0.88109636,-0.04458939,0.60469145,0.9823136,-0.14160666,0.71479756,1.1469681,0.7241512,0.3754842,-0.050153013,-0.44214982,-0.7686102,0.56963676,0.5993953,-0.7699032,-0.942683,-0.20357548,-1.0676286,0.74075234,-0.7301502,0.5792261,0.119639635,0.17301172,-0.013712997,0.23951577,0.75462544,-0.22769372,1.189202,-0.8188765,-1.266407,0.73766536,-0.67926395,-1.3409624,-0.74264663,-1.0567876,-1.0218219,0.30760232,-0.28261286,0.20160072,0.17318064,-0.79923517,-0.68134767,-1.2306659,-0.30053058,-0.41535237,-0.37721,0.5879488,0.23730831,0.109102026,-0.9066448,1.2242033,0.9633733,-0.092532165,-0.08223696,0.49716532,-0.10866273
NCI-H526,0.30325395,0.14063688,0.16441058,-0.12499557,0.34714746,-0.24692087,-0.36065912,-0.100875944,-0.44759193,-0.15563047,0.04882003,-0.14764592,0.1201139,-0.32108217,0.04202142,-0.21635774,-0.24434577,-0.46128002,0.16224024,-0.14962575,0.58227026,-0.0005370031,0.07180092,0.25453445,-0.20219038,-0.28755477,0.15623342,-0.008358771,0.29257697,-0.27995956,-0.05109221,0.0069259848,-0.13292262,0.13093875,-0.13949184,0.3136801,0.02248285,0.10408342,-0.1117671,0.15212865,0.12430582,0.27705258,-0.15981919,0.1714751,0.06610944,0.3143071,0.50491506,0.069570534,-0.4415134,-0.023711557,-0.13096668,-0.1874126,-0.2894309,0.19124028,0.07424296,0.16391592,0.24136898,-0.02247219,-0.06013701,0.08676862,0.041992787,-0.034585577,0.5457338,-0.026432524,0.008377852,0.24929489,0.064958125,-0.05945319,0.01144316,-0.086717315,0.10940882,-0.48704267,0.13528393,0.075997084,0.1633963,-0.20051149,0.11143441,0.16491848,0.02334473,0.4387547,0.12549993,0.43545258,0.27405638,0.018363921,-0.17549285
SBC-5,0.2912285,0.106938355,0.18242036,-0.1572306,0.35015076,-0.24910544,-0.35284793,-0.02316742,-0.46407264,-0.165214,0.013138336,-0.16308631,0.11229268,-0.3018015,0.022431705,-0.25088018,-0.27238825,-0.43525413,0.17773367,-0.15125015,0.6023343,-0.0066562095,0.12663776,0.28756714,-0.113653734,-0.3335479,0.13341397,-0.026707461,0.32951385,-0.23927687,-0.03956355,0.047608636,-0.13048327,0.15405142,-0.1871522,0.27687165,0.052834254,0.10588519,-0.15482803,0.1174919,0.11747876,0.2572589,-0.15746316,0.18540338,0.03944117,0.2154625,0.4282377,-0.007853978,-0.4817234,-0.043639347,-0.113509715,-0.21508738,-0.28818876,0.17917103,0.0778083,0.09502354,0.21431667,0.0038937028,-0.021939542,0.009448352,0.095394425,0.010490882,0.4488349,-0.03945886,0.026538769,0.25679088,0.09494354,-0.021309672,0.007912292,-0.12574428,0.15540814,-0.5258461,0.17193703,0.06982659,0.12974373,-0.20763713,0.104227975,0.13067628,-0.041070253,0.4016464,0.13274866,0.47244868,0.22089867,0.045547336,-0.12644999
DLD-1,0.54184705,0.36489597,-0.33820367,-0.030040057,-0.7655866,0.0006254059,-0.6294248,-0.46781722,-0.15230286,-0.023437327,-0.4094601,0.20693514,0.30359662,-0.53170824,0.36288747,0.44098297,-0.24602173,-0.57660836,0.13399032,-0.027234659,0.87438464,-0.5729237,-0.5990814,0.030029723,0.569326,-0.443547,-0.33094287,-0.6732513,0.2068126,0.07902028,-0.23531517,0.19584307,0.47995716,-0.089034356,-0.10642538,0.50130886,0.57248354,0.038070437,-0.35012582,-0.8949767,-0.040632363,0.90331846,0.18223238,-0.1025193,-0.56880623,-0.43218255,-0.4245097,-0.18274221,0.25215933,0.5178525,-0.48191345,0.18511969,-0.44954908,-0.67320204,-0.20754361,-0.19808418,0.26872402,-0.24735843,-0.70976585,0.85706055,-0.3832872,-0.04439696,0.5277908,-0.69246966,-0.12096865,0.37631184,0.0480226,0.37279063,1.0264798,-0.63244903,-0.2255921,-0.3221526,-0.70642567,-0.43046576,-0.4354306,0.67850506,0.76296246,0.40476242,0.56095076,0.39671585,-0.2778354,-0.20323326,0.055707414,0.30429783,0.515171
HEC-151,0.8414485,-0.6550546,-1.07021,0.5979599,-1.1668708,0.2610961,-1.1668483,0.51111424,1.0695817,0.009524492,0.3139351,0.06832132,-0.11095192,-0.13936532,1.2752548,1.4798204,-0.59784317,-0.8117153,0.21319212,-0.3400298,0.6153192,0.8152417,0.3615585,-0.84062475,0.3148495,-0.72002167,-0.01951224,-0.87381583,1.2180955,-0.56869864,-0.21109761,0.20292236,0.8800496,-0.0018910812,1.1090778,1.2365354,1.0469087,0.87738365,-0.25031468,-0.64147925,-1.2359619,0.48827043,0.8021222,-0.5098223,-1.1882944,-0.33258623,-1.8904159,0.92599076,-0.07215714,0.9420132,0.14264293,-0.26392794,0.16713148,-0.07718908,0.4937789,-0.5779673,1.042164,-0.9410283,-1.073744,0.9198243,-0.6669274,-0.9126173,-0.8074585,-1.015586,-1.357328,0.35861537,-0.4940409,0.33515182,-0.24407658,-0.2406735,-0.9344593,-0.9473452,-0.47539866,-0.43181667,-0.71156913,1.4587547,0.06276966,0.039345812,-0.37643385,0.8461381,0.31009543,-0.50527936,-0.8337645,0.0030569716,-0.12286282
PaTu 8988s,0.06450046,0.58045626,0.05355545,-0.13368466,-0.43813166,-0.40570718,-0.27745944,-0.52453375,-0.5554356,-0.0347257,-0.6348928,-0.041571938,0.38530308,-0.2515628,0.14985931,0.0009614019,-0.33075765,-0.21577376,0.07481022,0.40987033,0.57593745,-0.6983229,-0.4013473,0.16982733,0.66255957,-0.06346548,-0.35233188,-0.52302545,-0.12757686,0.23105225,-0.07575738,0.0680573,0.093970984,-0.11887735,-0.5857472,0.13671781,0.26882324,-0.04937748,-0.42462447,-0.5388992,0.07923561,0.9800273,-0.010154443,0.16256882,-0.3693132,-0.1993005,0.09601565,-0.4479998,0.2507095,0.36280546,-0.670949,0.20189984,-0.3750997,-0.51027006,-0.39632162,-0.18132934,-0.11355299,0.033209324,-0.31013647,0.37106484,-0.03463486,0.41315112,1.0259918,-0.26593482,0.14071237,0.4197401,0.13384631,0.20736857,0.7477469,-0.21271083,0.030669875,-0.19612959,-0.41820976,-0.09554042,-0.16239287,0.33995527,0.46745092,0.38441893,0.8589822,0.1351799,-0.6457854,-0.027336536,0.24360187,-0.003299288,0.31226805
A-253,0.44504392,0.055517916,-0.21592452,-0.010861709,-0.12713861,0.11641344,-0.6122951,0.33310416,0.2829607,0.061694656,0.45708728,-0.33180127,-0.17990285,-0.30047184,0.2942198,0.58883566,-0.13586865,-0.40024507,0.34939426,-0.19462468,0.9951393,0.45652232,0.20064941,-0.20507416,-0.28755423,-0.35631552,0.60100055,-0.52620465,1.0440117,-0.68604255,0.29535523,0.3766758,0.4758539,-0.16667083,0.1318759,0.6777497,0.29479292,0.41405037,-0.1665935,-0.08409947,-0.63374996,0.646752,0.43490118,-0.50006074,-0.5967739,0.060045276,-0.5436742,0.47462934,-0.6194321,0.38602802,0.0027068593,0.03449997,0.08541208,0.34548888,0.61949164,-0.11213353,0.7762172,-0.4085615,-0.74284226,0.21048553,-0.2979587,-0.7209852,-0.14776212,-0.64241135,-0.6126706,0.41169304,-0.15778342,-0.10674918,-0.1067121,-0.25369093,-0.38400245,-0.9294512,-0.031481937,0.040268704,-0.061211057,0.093907066,-0.12211974,0.013829841,-0.54725945,0.8105594,0.5115989,0.1889284,0.10408124,0.027146136,-0.34082466
KYSE-140,0.2912285,0.106938355,0.18242036,-0.1572306,0.35015076,-0.24910544,-0.35284793,-0.02316742,-0.46407264,-0.165214,0.013138336,-0.16308631,0.11229268,-0.3018015,0.022431705,-0.25088018,-0.27238825,-0.43525413,0.17773367,-0.15125015,0.6023343,-0.0066562095,0.12663776,0.28756714,-0.113653734,-0.3335479,0.13341397,-0.026707461,0.32951385,-0.23927687,-0.03956355,0.047608636,-0.13048327,0.15405142,-0.1871522,0.27687165,0.052834254,0.10588519,-0.15482803,0.1174919,0.11747876,0.2572589,-0.15746316,0.18540338,0.03944117,0.2154625,0.4282377,-0.007853978,-0.4817234,-0.043639347,-0.113509715,-0.21508738,-0.28818876,0.17917103,0.0778083,0.09502354,0.21431667,0.0038937028,-0.021939542,0.009448352,0.095394425,0.010490882,0.4488349,-0.03945886,0.026538769,0.25679088,0.09494354,-0.021309672,0.007912292,-0.12574428,0.15540814,-0.5258461,0.17193703,0.06982659,0.12974373,-0.20763713,0.104227975,0.13067628,-0.041070253,0.4016464,0.13274866,0.47244868,0.22089867,0.045547336,-0.12644999
TYK-nu,0.37374237,0.09549562,0.16870113,-0.13882208,0.31656107,-0.22591628,-0.3463503,-0.07645522,-0.34204572,-0.15649357,0.07004425,-0.18633805,0.09311958,-0.29182112,0.00902823,-0.22540529,-0.2906813,-0.41097438,0.17154513,-0.19987355,0.5919226,-0.019714886,0.09185046,0.26377916,-0.19260454,-0.31169656,0.15252234,-0.010984944,0.31467125,-0.27481946,-0.09558546,-0.01774174,-0.10145718,0.20370816,-0.21761765,0.2673889,0.05136488,0.14216448,-0.15877075,0.15179211,0.11831142,0.28367874,-0.15359697,0.2540603,0.06166552,0.24369386,0.47981346,0.0005219797,-0.4449283,-0.030133171,-0.15662318,-0.19257161,-0.25168872,0.1287026,0.04354633,0.1440318,0.27338493,0.01630339,-0.025108643,-0.014467352,0.09573016,-0.01896539,0.54051507,0.009316614,0.05971178,0.2887707,0.14838216,-0.0339279,-0.01710014,-0.10853433,0.16197284,-0.552238,0.14972484,0.031001769,0.17624274,-0.20879465,0.11054716,0.13136989,-0.011764354,0.44048977,0.15748653,0.4841934,0.25514174,0.023266174,-0.1917797
KNS-60,0.3370279,0.11436234,0.19254865,-0.14717962,0.3258254,-0.2629724,-0.34422868,-0.07927474,-0.41032043,-0.15482841,0.035505038,-0.1647874,0.10063722,-0.34061095,-0.011905422,-0.21114396,-0.2724525,-0.41408506,0.14527181,-0.18620788,0.60458684,-0.008899878,0.068532184,0.26056752,-0.18504046,-0.31375605,0.19385017,-0.008807721,0.3168111,-0.26434666,-0.07432799,0.018077366,-0.13628338,0.17684056,-0.16900188,0.28378692,0.06966519,0.09781459,-0.14082727,0.14754136,0.09143222,0.2933378,-0.14586827,0.19101746,0.08923273,0.27353463,0.4866036,0.018843949,-0.45257553,-0.017198423,-0.14483371,-0.16122638,-0.25333747,0.16418205,0.08649223,0.1672381,0.23200715,0.0033497731,-0.055740748,0.045102317,0.06594256,-0.016040992,0.5229451,0.011554619,0.0033699519,0.28791398,0.111812375,-0.047953684,0.03597962,-0.10620866,0.15277772,-0.5249205,0.16078629,0.058969066,0.17249434,-0.23833434,0.112388425,0.14949591,-0.012394301,0.4534426,0.16089611,0.44908452,0.29065424,0.022740848,-0.14486732
COV504,0.3370279,0.11436234,0.19254865,-0.14717962,0.3258254,-0.2629724,-0.34422868,-0.07927474,-0.41032043,-0.15482841,0.035505038,-0.1647874,0.10063722,-0.34061095,-0.011905422,-0.21114396,-0.2724525,-0.41408506,0.14527181,-0.18620788,0.60458684,-0.008899878,0.068532184,0.26056752,-0.18504046,-0.31375605,0.19385017,-0.008807721,0.3168111,-0.26434666,-0.07432799,0.018077366,-0.13628338,0.17684056,-0.16900188,0.28378692,0.06966519,0.09781459,-0.14082727,0.14754136,0.09143222,0.2933378,-0.14586827,0.19101746,0.08923273,0.27353463,0.4866036,0.018843949,-0.45257553,-0.017198423,-0.14483371,-0.16122638,-0.25333747,0.16418205,0.08649223,0.1672381,0.23200715,0.0033497731,-0.055740748,0.045102317,0.06594256,-0.016040992,0.5229451,0.011554619,0.0033699519,0.28791398,0.111812375,-0.047953684,0.03597962,-0.10620866,0.15277772,-0.5249205,0.16078629,0.058969066,0.17249434,-0.23833434,0.112388425,0.14949591,-0.012394301,0.4534426,0.16089611,0.44908452,0.29065424,0.022740848,-0.14486732
SNU-C4,0.9731121,-0.7402709,-1.0533078,0.34328535,-1.0060354,0.25619128,-1.2124234,0.41962293,1.1820914,0.12023762,0.31625822,0.07837081,-0.14925908,-0.058663733,1.1034304,1.2712653,-0.55633765,-0.9417304,0.23269579,-0.4713857,0.542504,0.82267326,0.33115453,-0.5782804,-0.014735499,-0.6724561,0.27139527,-0.5996273,1.44118,-0.7257054,-0.46075147,0.10995207,0.9333832,0.27179557,1.1881139,1.0860828,1.1220486,0.86305606,-0.11828813,-0.50927013,-1.1837118,0.34530032,0.6192422,-0.57385355,-0.9753889,-0.06819273,-1.5706835,1.1132895,-0.2750281,0.79038423,0.4062684,-0.06361992,0.29244158,-0.14838992,0.69032025,-0.49663126,0.9816167,-0.7285522,-0.92554176,0.88508534,-0.58387756,-1.0023046,-0.8216956,-0.7970663,-1.2381742,0.3215848,-0.59360844,0.39904985,-0.16669396,-0.51577765,-0.93509865,-1.0525447,-0.41544852,-0.47592613,-0.8938117,1.1849732,0.098340996,-0.17246574,-0.7471603,0.90228134,0.5480997,-0.2942644,-0.92741275,0.105799645,-0.29589283
VMRC-LCD,0.3370279,0.11436234,0.19254865,-0.14717962,0.3258254,-0.2629724,-0.34422868,-0.07927474,-0.41032043,-0.15482841,0.035505038,-0.1647874,0.10063722,-0.34061095,-0.011905422,-0.21114396,-0.2724525,-0.41408506,0.14527181,-0.18620788,0.60458684,-0.008899878,0.068532184,0.26056752,-0.18504046,-0.31375605,0.19385017,-0.008807721,0.3168111,-0.26434666,-0.07432799,0.018077366,-0.13628338,0.17684056,-0.16900188,0.28378692,0.06966519,0.09781459,-0.14082727,0.14754136,0.09143222,0.2933378,-0.14586827,0.19101746,0.08923273,0.27353463,0.4866036,0.018843949,-0.45257553,-0.017198423,-0.14483371,-0.16122638,-0.25333747,0.16418205,0.08649223,0.1672381,0.23200715,0.0033497731,-0.055740748,0.045102317,0.06594256,-0.016040992,0.5229451,0.011554619,0.0033699519,0.28791398,0.111812375,-0.047953684,0.03597962,-0.10620866,0.15277772,-0.5249205,0.16078629,0.058969066,0.17249434,-0.23833434,0.112388425,0.14949591,-0.012394301,0.4534426,0.16089611,0.44908452,0.29065424,0.022740848,-0.14486732
SK-MEL-1,0.3113472,-0.17675199,-0.047520846,0.47532448,-0.6622518,-0.6931183,-0.49739924,-0.24566932,-0.041156072,0.0012798778,-0.4040403,-0.0066219373,0.4221815,0.052691653,0.3344455,0.10826763,-0.88173777,-0.12858927,-0.05939071,0.31934968,-0.034432936,0.16669206,0.26584452,0.03278396,0.6979762,-0.42677063,-0.74679315,-0.02368301,0.049329672,0.16458775,-0.027513504,-0.42580953,-0.4357554,0.29000202,0.22376843,0.562588,0.22328037,0.6639253,-0.3246082,-0.34177595,-0.6105076,0.52557623,-0.16729723,0.7041438,-0.11962848,-0.15186477,-0.3813253,0.1645024,0.20192038,0.5439938,-0.19386543,-0.6746702,0.09795237,-0.51301056,-0.21844353,-0.1324534,-0.03495233,-0.30447623,0.000774213,0.34454158,0.1276216,0.15953457,0.87582767,-0.07970124,-0.18775807,0.45096764,0.12283998,0.010560538,-0.11502977,0.3520293,0.060593475,-0.41948497,-0.072866365,-0.3650944,-0.30604976,0.69488674,-0.13540518,0.25269166,0.69895655,-0.038167078,-0.6783575,-0.19313927,-0.26592684,-0.26029783,0.06319881
WM793,0.34940583,-0.21407804,-0.46215877,0.47679627,-1.0400842,-0.28943366,-0.8620789,0.45060426,0.72751474,0.3430032,0.011173837,-0.13612355,0.11196831,0.08995686,0.7641436,1.0824636,-0.5690935,-0.10981765,0.063877806,0.17685413,0.31529757,0.7633437,0.47198844,-0.71219856,0.35622716,-0.18369658,-0.05144518,-0.45765767,0.7516237,-0.32578045,0.23824465,-0.14950477,0.243719,0.08651326,0.53479284,0.7332506,0.73421365,1.070491,-0.3806643,-0.3273837,-1.3180909,0.72465026,0.71274763,-0.27933392,-0.8273861,0.023693731,-1.4871235,0.6937399,0.12653404,0.81748265,0.044653386,-0.2474932,0.33220425,-0.10684169,0.42301607,-0.2974593,0.5349296,-0.559771,-0.5259434,0.4036316,-0.26128247,-0.3734644,-0.13365613,-0.58130777,-1.0200378,0.5641082,-0.40358198,0.06342241,-0.46170238,0.29242358,-0.6053579,-0.937762,-0.13491167,-0.09215991,-0.37404308,0.9492199,-0.4520407,-0.093907855,-0.05082595,0.4471042,-0.241323,-0.31710765,-0.55476665,-0.5457501,-0.29786715
NCI-H2110,0.2968167,0.13755822,0.1954106,-0.13679783,0.30247006,-0.2559012,-0.36295113,-0.081212215,-0.42041242,-0.14954229,0.024647353,-0.13200614,0.08952539,-0.31061986,-0.03299405,-0.18162094,-0.2638633,-0.4215333,0.17226078,-0.20319368,0.61399245,0.0073187067,0.03242794,0.23678337,-0.19495285,-0.3035637,0.21672946,-0.007900739,0.2875901,-0.25222605,-0.06790591,-0.005785164,-0.12043785,0.17827633,-0.14311293,0.27437028,0.025367916,0.07862975,-0.14880057,0.16502142,0.1305319,0.27831638,-0.13121419,0.20824133,0.09277654,0.29859808,0.49473715,0.05486858,-0.45917234,-0.008437158,-0.13398486,-0.124756016,-0.2378265,0.15243788,0.060597997,0.16940261,0.2285017,-0.0133293625,-0.06905817,0.04018764,0.08537593,-0.00047595493,0.50041354,0.011808565,0.021464812,0.281915,0.11252139,-0.04660425,0.05249107,-0.11487781,0.17571127,-0.50449276,0.15615657,0.028099973,0.19516815,-0.22792237,0.104983345,0.13531893,-0.014367438,0.40716562,0.16029605,0.40959936,0.2506805,0.049999777,-0.15420477
NCI-H2227,0.34640577,-0.22999758,-0.13199411,0.04773507,-0.35483116,-0.63293034,-0.59892696,0.008315977,0.074056804,0.18395424,-0.3813161,0.0015621978,0.41238606,0.13237122,0.410319,-0.03128566,-0.6572121,-0.27613837,-0.07760351,0.1204734,-0.19313689,0.26072028,0.45201278,0.041014206,0.20173247,-0.076535605,-0.28977206,0.27655682,0.23527968,-0.034820717,-0.3232421,-0.52638936,-0.3152927,0.6303796,0.30443186,0.18499224,0.58046746,0.7050326,-0.23409411,-0.04228848,-0.48160094,0.15990207,-0.0875564,0.30896392,-0.03071248,0.49002627,-0.2276958,0.4232506,0.05577463,0.24421467,0.2172792,-0.34592903,0.012730348,-0.30493844,0.06998234,-0.038136944,-0.0604401,0.09651351,0.32553145,0.23327897,0.14982566,0.19340087,0.49975616,0.2323815,-0.28971094,0.36336565,-0.32234976,0.21510823,-0.26721907,0.15043664,-0.20366135,-0.5815195,0.12762491,-0.010440576,-0.3951733,0.39579144,-0.18298012,-0.15354685,0.13175151,0.12048022,-0.4167917,0.21177483,-0.5311635,-0.4387825,-0.25595438
Karpas-299,0.3370279,0.11436234,0.19254865,-0.14717962,0.3258254,-0.2629724,-0.34422868,-0.07927474,-0.41032043,-0.15482841,0.035505038,-0.1647874,0.10063722,-0.34061095,-0.011905422,-0.21114396,-0.2724525,-0.41408506,0.14527181,-0.18620788,0.60458684,-0.008899878,0.068532184,0.26056752,-0.18504046,-0.31375605,0.19385017,-0.008807721,0.3168111,-0.26434666,-0.07432799,0.018077366,-0.13628338,0.17684056,-0.16900188,0.28378692,0.06966519,0.09781459,-0.14082727,0.14754136,0.09143222,0.2933378,-0.14586827,0.19101746,0.08923273,0.27353463,0.4866036,0.018843949,-0.45257553,-0.017198423,-0.14483371,-0.16122638,-0.25333747,0.16418205,0.08649223,0.1672381,0.23200715,0.0033497731,-0.055740748,0.045102317,0.06594256,-0.016040992,0.5229451,0.011554619,0.0033699519,0.28791398,0.111812375,-0.047953684,0.03597962,-0.10620866,0.15277772,-0.5249205,0.16078629,0.058969066,0.17249434,-0.23833434,0.112388425,0.14949591,-0.012394301,0.4534426,0.16089611,0.44908452,0.29065424,0.022740848,-0.14486732
EJM,0.33563766,0.12007027,0.18819796,-0.13264732,0.33821574,-0.2515095,-0.35434517,-0.08776401,-0.41781223,-0.14212504,0.03722066,-0.20152447,0.099914424,-0.34105462,-0.024066573,-0.20130597,-0.25888228,-0.39036167,0.1492089,-0.18628825,0.5776404,-0.017923886,0.0631139,0.28751874,-0.20368245,-0.32017988,0.17448227,-0.01103461,0.3092731,-0.26179475,-0.06712843,-0.0016732183,-0.16728562,0.19370207,-0.1609811,0.2860649,0.07025598,0.09081203,-0.1432622,0.13893615,0.09519878,0.3007591,-0.14766304,0.19946629,0.07856752,0.2519224,0.4724775,0.0076354514,-0.4392404,0.0063058543,-0.1305811,-0.16178711,-0.23894492,0.16271006,0.08487902,0.17538518,0.23606113,0.014899343,-0.04568686,0.03351256,0.06822782,-0.03059049,0.49896815,0.011113098,0.031879816,0.29314205,0.10745471,-0.062349387,0.034325182,-0.08601297,0.15759541,-0.49579242,0.1589141,0.0651916,0.18109018,-0.23906828,0.0990574,0.14927302,-0.011364928,0.4327373,0.167478,0.43188155,0.29856357,0.0052502532,-0.15316212
CAL-120,0.2830626,0.09953258,0.11214758,-0.16024812,0.34784776,-0.246668,-0.29307988,-0.035379704,-0.47480637,-0.19994545,0.045553897,-0.2008505,0.031972248,-0.29426432,0.043918125,-0.14358476,-0.22318974,-0.42050904,0.111508995,-0.22331409,0.545785,0.013106451,0.06771521,0.26311213,-0.15737133,-0.28770787,0.2670078,-0.015922071,0.29371637,-0.24826618,-0.12448181,0.10080838,-0.13923989,0.1398094,-0.16547936,0.2792446,0.11256271,0.026870105,-0.063276626,0.13018744,0.010402191,0.2459488,-0.17709318,0.13804203,0.054460146,0.24836418,0.50162315,0.020227708,-0.41422477,0.0070641334,-0.14498849,-0.12905978,-0.22657573,0.1406514,0.053509515,0.09982419,0.2599844,-0.0022626151,-0.031870395,0.0048118713,0.13890521,-0.03449329,0.43818134,0.02408695,-0.05488487,0.19846274,0.08716382,0.02918297,-0.047526747,-0.09063179,0.13289523,-0.5034667,0.16077082,0.11226858,0.15271237,-0.25979418,0.12360353,0.15183666,-0.047953278,0.5101931,0.16097112,0.3649122,0.27715942,0.0692914,-0.16398156
SNU-81,0.6217484,-0.18736476,-1.3270459,-0.12102034,-1.1949929,0.22729747,-1.3195153,0.32569495,0.8146112,0.34205103,-0.21144682,0.048069444,0.30515692,0.08763635,1.3704288,0.98764974,-0.34564853,-0.9678007,0.27799237,0.050250668,0.5445971,0.31696796,0.15652837,-0.59212124,0.3786979,-0.13198315,0.021133807,-0.759715,1.0222716,-0.4197076,-0.4662696,0.015153057,1.178565,0.16069171,0.75200486,0.5719466,1.4004903,0.63673425,-0.32469302,-0.94161344,-0.92560786,0.6633194,0.8165405,-0.93418574,-1.4683983,0.22631696,-1.627694,0.9349047,0.21795952,0.9134637,0.23518856,0.4485851,-0.14191371,-0.41921282,0.4479197,-0.7289147,0.75694424,-0.24878655,-0.89764166,1.0802188,-0.56214035,-0.57957625,-0.63095367,-0.87053293,-1.0326272,0.28112823,-1.1632318,0.777978,0.32834333,-0.78778785,-1.346659,-0.7790399,-0.6487047,-0.042768583,-1.1185379,1.3138292,0.27720058,-0.34363008,-0.38114798,0.73393965,-0.037074085,-0.38016126,-1.1272385,-0.039531153,-0.29403767
KYSE-180,0.33574325,0.1413334,0.30516,0.25822586,-0.0029173526,-0.33921203,-0.22627057,-0.3116588,-0.48826176,-0.33670065,-0.00053417194,-0.19011301,0.09095596,-0.4398193,-0.14170572,-0.066376835,-0.5250851,-0.21934101,0.14651619,-0.02391374,0.78560734,-0.11129103,-0.12090485,0.25837034,0.32835305,-0.69019234,-0.22555427,-0.3094965,0.15509523,-0.049325336,0.19816494,0.12980871,-0.26010686,-0.1176351,-0.2791752,0.6314894,-0.24033953,0.050438363,-0.2604016,-0.15653348,-0.07034806,0.67529726,-0.21165815,0.6057397,0.02344005,-0.40912887,0.3146627,-0.2906309,-0.317492,0.28909364,-0.56984526,-0.46378145,-0.13202213,-0.070948444,-0.18968435,0.07624384,0.24813306,-0.3718181,-0.37610176,0.11469859,0.067688294,-0.0313627,0.8762279,-0.2625409,0.10031492,0.41413513,0.60385644,-0.2410019,0.21270537,0.07589262,0.46040148,-0.4007638,-0.014202628,-0.31271282,0.27071586,0.022938183,0.16091739,0.5403119,0.51907176,0.3094832,-0.06527341,0.057802435,0.572489,0.2056025,0.20491152
CGTH-W-1,0.3370279,0.11436234,0.19254865,-0.14717962,0.3258254,-0.2629724,-0.34422868,-0.07927474,-0.41032043,-0.15482841,0.035505038,-0.1647874,0.10063722,-0.34061095,-0.011905422,-0.21114396,-0.2724525,-0.41408506,0.14527181,-0.18620788,0.60458684,-0.008899878,0.068532184,0.26056752,-0.18504046,-0.31375605,0.19385017,-0.008807721,0.3168111,-0.26434666,-0.07432799,0.018077366,-0.13628338,0.17684056,-0.16900188,0.28378692,0.06966519,0.09781459,-0.14082727,0.14754136,0.09143222,0.2933378,-0.14586827,0.19101746,0.08923273,0.27353463,0.4866036,0.018843949,-0.45257553,-0.017198423,-0.14483371,-0.16122638,-0.25333747,0.16418205,0.08649223,0.1672381,0.23200715,0.0033497731,-0.055740748,0.045102317,0.06594256,-0.016040992,0.5229451,0.011554619,0.0033699519,0.28791398,0.111812375,-0.047953684,0.03597962,-0.10620866,0.15277772,-0.5249205,0.16078629,0.058969066,0.17249434,-0.23833434,0.112388425,0.14949591,-0.012394301,0.4534426,0.16089611,0.44908452,0.29065424,0.022740848,-0.14486732
MDA-MB-361,0.82708913,-0.08640025,-0.25329286,-0.083355114,0.0008213364,0.16130681,-0.6492062,0.0025803833,0.0010577795,-0.18030548,0.285901,0.058281083,0.034871753,-0.6472517,0.21589528,0.19813628,-0.20033857,-0.7364695,0.22514807,-0.64528006,0.8919419,0.0774787,-0.08413496,0.10124607,-0.2698466,-0.6730186,0.21408762,-0.19804662,0.6212833,-0.3874444,-0.22761355,0.17830472,0.25617936,0.20347852,0.31632966,0.6121405,0.38928318,0.11684296,-0.10058387,-0.24434869,0.010801736,0.18560784,0.050063785,-0.070439406,-0.13604018,0.071465254,-0.07631603,0.2940951,-0.47438183,0.16115136,0.066400625,-0.16450638,-0.34736544,0.001869731,0.25373346,0.12679915,0.62849504,-0.23672195,-0.4819214,0.5499406,-0.30462146,-0.514403,0.030476214,-0.38452208,-0.2732604,0.26829597,0.0016247907,0.13266565,0.35823676,-0.548937,-0.17425664,-0.61055666,-0.10738955,-0.2275824,-0.09861404,0.09470172,0.40859017,0.17556594,-0.30102316,0.7095353,0.52901936,0.28168184,0.07981788,0.34779733,0.07989165
NCI-H1436,0.2968167,0.13755822,0.1954106,-0.13679783,0.30247006,-0.2559012,-0.36295113,-0.081212215,-0.42041242,-0.14954229,0.024647353,-0.13200614,0.08952539,-0.31061986,-0.03299405,-0.18162094,-0.2638633,-0.4215333,0.17226078,-0.20319368,0.61399245,0.0073187067,0.03242794,0.23678337,-0.19495285,-0.3035637,0.21672946,-0.007900739,0.2875901,-0.25222605,-0.06790591,-0.005785164,-0.12043785,0.17827633,-0.14311293,0.27437028,0.025367916,0.07862975,-0.14880057,0.16502142,0.1305319,0.27831638,-0.13121419,0.20824133,0.09277654,0.29859808,0.49473715,0.05486858,-0.45917234,-0.008437158,-0.13398486,-0.124756016,-0.2378265,0.15243788,0.060597997,0.16940261,0.2285017,-0.0133293625,-0.06905817,0.04018764,0.08537593,-0.00047595493,0.50041354,0.011808565,0.021464812,0.281915,0.11252139,-0.04660425,0.05249107,-0.11487781,0.17571127,-0.50449276,0.15615657,0.028099973,0.19516815,-0.22792237,0.104983345,0.13531893,-0.014367438,0.40716562,0.16029605,0.40959936,0.2506805,0.049999777,-0.15420477
KOPN-8,0.06578509,0.55348516,-0.05905592,-0.5390901,-0.109388866,-0.32946756,-0.39541754,-0.29214966,-0.4774942,0.14714657,-0.59885365,-0.01624632,0.39498433,-0.15235439,0.2796596,-0.14380568,-0.07812507,-0.41051778,0.073565856,0.24757624,0.394917,-0.5959318,-0.21191019,0.17202452,0.149166,0.31297082,0.067072585,-0.22233675,0.03413901,0.016030878,-0.34825027,-0.043674067,0.21779448,0.17559831,-0.4755738,-0.21098481,0.57882804,-0.0020012755,-0.3050502,-0.23482434,0.24101588,0.5980678,0.055635437,-0.2521535,-0.30352053,0.48336306,0.2679565,-0.13852486,0.11562596,0.056513324,-0.2459375,0.5044548,-0.49641517,-0.2751397,-0.12014506,-0.090335056,-0.1296789,0.4083771,0.010224541,0.30146852,-0.03638059,0.42847282,0.672709,0.0081607755,0.043767426,0.29351896,-0.3581977,0.40041673,0.57102114,-0.39481208,-0.27695385,-0.32028627,-0.24322082,0.27614143,-0.26061437,0.07868275,0.41892195,-0.006396972,0.32751614,0.27913934,-0.41961592,0.36394557,-0.03823279,-0.18616092,-0.037510812
NCI-H1915,0.3370279,0.11436234,0.19254865,-0.14717962,0.3258254,-0.2629724,-0.34422868,-0.07927474,-0.41032043,-0.15482841,0.035505038,-0.1647874,0.10063722,-0.34061095,-0.011905422,-0.21114396,-0.2724525,-0.41408506,0.14527181,-0.18620788,0.60458684,-0.008899878,0.068532184,0.26056752,-0.18504046,-0.31375605,0.19385017,-0.008807721,0.3168111,-0.26434666,-0.07432799,0.018077366,-0.13628338,0.17684056,-0.16900188,0.28378692,0.06966519,0.09781459,-0.14082727,0.14754136,0.09143222,0.2933378,-0.14586827,0.19101746,0.08923273,0.27353463,0.4866036,0.018843949,-0.45257553,-0.017198423,-0.14483371,-0.16122638,-0.25333747,0.16418205,0.08649223,0.1672381,0.23200715,0.0033497731,-0.055740748,0.045102317,0.06594256,-0.016040992,0.5229451,0.011554619,0.0033699519,0.28791398,0.111812375,-0.047953684,0.03597962,-0.10620866,0.15277772,-0.5249205,0.16078629,0.058969066,0.17249434,-0.23833434,0.112388425,0.14949591,-0.012394301,0.4534426,0.16089611,0.44908452,0.29065424,0.022740848,-0.14486732
YD-10B,-0.30361128,-0.22373648,-0.13053636,0.019947022,-0.46495238,-0.61837536,-0.3286077,0.7347993,0.7206687,0.63787484,-0.030657517,-0.7448992,-0.069844484,0.8407002,0.59354293,0.49879855,-0.51600766,0.23933212,0.20944504,0.75241405,0.15056455,0.789795,1.0702658,-0.56434476,0.07836889,0.5428027,0.43034574,-0.47660202,0.8140282,-0.48001388,0.4317921,-0.047084022,0.38522026,-0.09161524,0.21670046,0.28502986,0.50990164,0.9528027,-0.4111589,0.37537283,-1.4500258,0.88915986,0.7035646,-0.33012122,-0.7249153,0.30766112,-0.843555,0.5026004,-0.19505541,0.67687815,-0.01772505,-0.13287814,0.6389492,0.59037846,0.7348741,-0.5342689,0.24086425,-0.16716643,-0.41900936,-0.42373413,-0.04614454,-0.061420873,0.23343563,-0.01972917,-0.91209733,0.5541397,-0.546187,-0.3331168,-0.9214334,0.7669205,-0.5880378,-0.7654844,0.07841489,0.67087406,-0.34949833,0.21400219,-0.8921046,-0.3569308,-0.061236236,0.38989222,-0.34889957,-0.02143787,-0.4731429,-0.88307315,-0.88017493
TE-4,0.45775855,0.07031566,-0.27000687,-0.050681785,-0.12468769,0.1343601,-0.5653072,0.35824275,0.2912062,0.024929184,0.4820505,-0.35723993,-0.16396196,-0.32696715,0.30899233,0.5580943,-0.14849061,-0.36179495,0.37009037,-0.21659182,0.9840472,0.41750178,0.24571642,-0.22459804,-0.2791268,-0.33549657,0.599849,-0.56521773,1.0140945,-0.65710825,0.3016275,0.40911737,0.48233047,-0.16987589,0.13788569,0.6415123,0.3107507,0.3456308,-0.20084874,-0.119911954,-0.5945125,0.6157308,0.43844637,-0.49642944,-0.62255394,0.090858005,-0.58606845,0.48462296,-0.6426882,0.4093308,0.024905596,0.04800008,0.06583346,0.34610847,0.5979548,-0.13581763,0.79042804,-0.36806545,-0.76939356,0.22932814,-0.31987038,-0.7617991,-0.14202991,-0.6119533,-0.62762,0.4355033,-0.18214731,-0.09155196,-0.0631879,-0.2766811,-0.45477486,-0.8890644,-0.011441811,0.08864255,-0.05928167,0.08839334,-0.12142946,0.019556431,-0.5378569,0.80511606,0.51177216,0.19742247,0.081139386,0.04460544,-0.3189686
BDCM,0.33574325,0.1413334,0.30516,0.25822586,-0.0029173526,-0.33921203,-0.22627057,-0.3116588,-0.48826176,-0.33670065,-0.00053417194,-0.19011301,0.09095596,-0.4398193,-0.14170572,-0.066376835,-0.5250851,-0.21934101,0.14651619,-0.02391374,0.78560734,-0.11129103,-0.12090485,0.25837034,0.32835305,-0.69019234,-0.22555427,-0.3094965,0.15509523,-0.049325336,0.19816494,0.12980871,-0.26010686,-0.1176351,-0.2791752,0.6314894,-0.24033953,0.050438363,-0.2604016,-0.15653348,-0.07034806,0.67529726,-0.21165815,0.6057397,0.02344005,-0.40912887,0.3146627,-0.2906309,-0.317492,0.28909364,-0.56984526,-0.46378145,-0.13202213,-0.070948444,-0.18968435,0.07624384,0.24813306,-0.3718181,-0.37610176,0.11469859,0.067688294,-0.0313627,0.8762279,-0.2625409,0.10031492,0.41413513,0.60385644,-0.2410019,0.21270537,0.07589262,0.46040148,-0.4007638,-0.014202628,-0.31271282,0.27071586,0.022938183,0.16091739,0.5403119,0.51907176,0.3094832,-0.06527341,0.057802435,0.572489,0.2056025,0.20491152
JK-1,0.33574325,0.1413334,0.30516,0.25822586,-0.0029173526,-0.33921203,-0.22627057,-0.3116588,-0.48826176,-0.33670065,-0.00053417194,-0.19011301,0.09095596,-0.4398193,-0.14170572,-0.066376835,-0.5250851,-0.21934101,0.14651619,-0.02391374,0.78560734,-0.11129103,-0.12090485,0.25837034,0.32835305,-0.69019234,-0.22555427,-0.3094965,0.15509523,-0.049325336,0.19816494,0.12980871,-0.26010686,-0.1176351,-0.2791752,0.6314894,-0.24033953,0.050438363,-0.2604016,-0.15653348,-0.07034806,0.67529726,-0.21165815,0.6057397,0.02344005,-0.40912887,0.3146627,-0.2906309,-0.317492,0.28909364,-0.56984526,-0.46378145,-0.13202213,-0.070948444,-0.18968435,0.07624384,0.24813306,-0.3718181,-0.37610176,0.11469859,0.067688294,-0.0313627,0.8762279,-0.2625409,0.10031492,0.41413513,0.60385644,-0.2410019,0.21270537,0.07589262,0.46040148,-0.4007638,-0.014202628,-0.31271282,0.27071586,0.022938183,0.16091739,0.5403119,0.51907176,0.3094832,-0.06527341,0.057802435,0.572489,0.2056025,0.20491152
NCI-H1836,0.2830626,0.09953258,0.11214758,-0.16024812,0.34784776,-0.246668,-0.29307988,-0.035379704,-0.47480637,-0.19994545,0.045553897,-0.2008505,0.031972248,-0.29426432,0.043918125,-0.14358476,-0.22318974,-0.42050904,0.111508995,-0.22331409,0.545785,0.013106451,0.06771521,0.26311213,-0.15737133,-0.28770787,0.2670078,-0.015922071,0.29371637,-0.24826618,-0.12448181,0.10080838,-0.13923989,0.1398094,-0.16547936,0.2792446,0.11256271,0.026870105,-0.063276626,0.13018744,0.010402191,0.2459488,-0.17709318,0.13804203,0.054460146,0.24836418,0.50162315,0.020227708,-0.41422477,0.0070641334,-0.14498849,-0.12905978,-0.22657573,0.1406514,0.053509515,0.09982419,0.2599844,-0.0022626151,-0.031870395,0.0048118713,0.13890521,-0.03449329,0.43818134,0.02408695,-0.05488487,0.19846274,0.08716382,0.02918297,-0.047526747,-0.09063179,0.13289523,-0.5034667,0.16077082,0.11226858,0.15271237,-0.25979418,0.12360353,0.15183666,-0.047953278,0.5101931,0.16097112,0.3649122,0.27715942,0.0692914,-0.16398156
OVISE,0.7591246,-0.08905662,-0.16700017,0.348802,-0.30834994,0.08342502,-0.5270871,-0.21104722,-0.14961505,-0.37052932,0.23494746,0.022330957,-0.059415422,-0.6736181,0.12714596,0.4412039,-0.3910864,-0.58659965,0.17193349,-0.49812487,1.0252526,0.036114436,-0.31945598,0.121117346,0.26278865,-1.0442257,-0.13100764,-0.46683663,0.46639004,-0.18527685,-0.0115467,0.34032553,0.12292283,-0.12482328,0.20366909,0.9915382,0.10621824,0.06694181,-0.10835231,-0.5299649,-0.27124608,0.5511993,-0.050496195,0.28767622,-0.21082549,-0.66718143,-0.19084308,-0.023989612,-0.2776914,0.46840322,-0.38096443,-0.4483949,-0.17970975,-0.25741088,-0.033889093,-0.007924921,0.6583873,-0.6579982,-0.7518608,0.5604039,-0.20800136,-0.507363,0.2932632,-0.6765434,-0.2196209,0.28125557,0.49338406,0.001556838,0.40793192,-0.3282687,0.18425702,-0.505333,-0.30243406,-0.59433866,-0.022103736,0.34002808,0.46764398,0.5629961,0.18548135,0.6277696,0.3027516,-0.20226662,0.37109965,0.55975014,0.38870025
SU-DHL-5,0.30625394,0.15655637,-0.16575408,0.30406564,-0.3381058,0.09657576,-0.623811,0.3414122,0.20586592,0.0034185383,0.44130993,-0.28533182,-0.1803039,-0.36349648,0.39584598,0.8973915,-0.15622728,-0.2949593,0.3037216,-0.093245104,1.0907047,0.5020863,0.09177655,-0.49867842,-0.04769578,-0.3947158,0.3945602,-0.7425732,0.808921,-0.57091933,0.5103945,0.38381067,0.4260891,-0.4129276,0.090869315,0.8619385,0.17622899,0.46954197,-0.2583373,-0.13296658,-0.7121844,0.8418008,0.64048487,-0.41682282,-0.7305642,-0.15202536,-0.7545128,0.3400596,-0.37075406,0.5495564,-0.30359238,-0.0889768,0.03004296,0.389337,0.4272767,-0.0954064,0.8367387,-0.67875665,-0.9116119,0.25712118,-0.36911535,-0.6014509,-0.08767856,-0.84012175,-0.721949,0.4500375,-0.016274067,-0.21113893,-0.18304014,0.0552698,-0.2922877,-0.8432852,-0.12725265,-0.0057222694,0.18452656,0.35291705,-0.15762614,0.22455747,-0.15923274,0.76537865,0.30096877,-0.0934299,0.25045326,-0.08860355,-0.21740544
THP-1,0.3370279,0.11436234,0.19254865,-0.14717962,0.3258254,-0.2629724,-0.34422868,-0.07927474,-0.41032043,-0.15482841,0.035505038,-0.1647874,0.10063722,-0.34061095,-0.011905422,-0.21114396,-0.2724525,-0.41408506,0.14527181,-0.18620788,0.60458684,-0.008899878,0.068532184,0.26056752,-0.18504046,-0.31375605,0.19385017,-0.008807721,0.3168111,-0.26434666,-0.07432799,0.018077366,-0.13628338,0.17684056,-0.16900188,0.28378692,0.06966519,0.09781459,-0.14082727,0.14754136,0.09143222,0.2933378,-0.14586827,0.19101746,0.08923273,0.27353463,0.4866036,0.018843949,-0.45257553,-0.017198423,-0.14483371,-0.16122638,-0.25333747,0.16418205,0.08649223,0.1672381,0.23200715,0.0033497731,-0.055740748,0.045102317,0.06594256,-0.016040992,0.5229451,0.011554619,0.0033699519,0.28791398,0.111812375,-0.047953684,0.03597962,-0.10620866,0.15277772,-0.5249205,0.16078629,0.058969066,0.17249434,-0.23833434,0.112388425,0.14949591,-0.012394301,0.4534426,0.16089611,0.44908452,0.29065424,0.022740848,-0.14486732
EoL-1,0.33574325,0.1413334,0.30516,0.25822586,-0.0029173526,-0.33921203,-0.22627057,-0.3116588,-0.48826176,-0.33670065,-0.00053417194,-0.19011301,0.09095596,-0.4398193,-0.14170572,-0.066376835,-0.5250851,-0.21934101,0.14651619,-0.02391374,0.78560734,-0.11129103,-0.12090485,0.25837034,0.32835305,-0.69019234,-0.22555427,-0.3094965,0.15509523,-0.049325336,0.19816494,0.12980871,-0.26010686,-0.1176351,-0.2791752,0.6314894,-0.24033953,0.050438363,-0.2604016,-0.15653348,-0.07034806,0.67529726,-0.21165815,0.6057397,0.02344005,-0.40912887,0.3146627,-0.2906309,-0.317492,0.28909364,-0.56984526,-0.46378145,-0.13202213,-0.070948444,-0.18968435,0.07624384,0.24813306,-0.3718181,-0.37610176,0.11469859,0.067688294,-0.0313627,0.8762279,-0.2625409,0.10031492,0.41413513,0.60385644,-0.2410019,0.21270537,0.07589262,0.46040148,-0.4007638,-0.014202628,-0.31271282,0.27071586,0.022938183,0.16091739,0.5403119,0.51907176,0.3094832,-0.06527341,0.057802435,0.572489,0.2056025,0.20491152
COV434,0.33574325,0.1413334,0.30516,0.25822586,-0.0029173526,-0.33921203,-0.22627057,-0.3116588,-0.48826176,-0.33670065,-0.00053417194,-0.19011301,0.09095596,-0.4398193,-0.14170572,-0.066376835,-0.5250851,-0.21934101,0.14651619,-0.02391374,0.78560734,-0.11129103,-0.12090485,0.25837034,0.32835305,-0.69019234,-0.22555427,-0.3094965,0.15509523,-0.049325336,0.19816494,0.12980871,-0.26010686,-0.1176351,-0.2791752,0.6314894,-0.24033953,0.050438363,-0.2604016,-0.15653348,-0.07034806,0.67529726,-0.21165815,0.6057397,0.02344005,-0.40912887,0.3146627,-0.2906309,-0.317492,0.28909364,-0.56984526,-0.46378145,-0.13202213,-0.070948444,-0.18968435,0.07624384,0.24813306,-0.3718181,-0.37610176,0.11469859,0.067688294,-0.0313627,0.8762279,-0.2625409,0.10031492,0.41413513,0.60385644,-0.2410019,0.21270537,0.07589262,0.46040148,-0.4007638,-0.014202628,-0.31271282,0.27071586,0.022938183,0.16091739,0.5403119,0.51907176,0.3094832,-0.06527341,0.057802435,0.572489,0.2056025,0.20491152
HN,0.3370279,0.11436234,0.19254865,-0.14717962,0.3258254,-0.2629724,-0.34422868,-0.07927474,-0.41032043,-0.15482841,0.035505038,-0.1647874,0.10063722,-0.34061095,-0.011905422,-0.21114396,-0.2724525,-0.41408506,0.14527181,-0.18620788,0.60458684,-0.008899878,0.068532184,0.26056752,-0.18504046,-0.31375605,0.19385017,-0.008807721,0.3168111,-0.26434666,-0.07432799,0.018077366,-0.13628338,0.17684056,-0.16900188,0.28378692,0.06966519,0.09781459,-0.14082727,0.14754136,0.09143222,0.2933378,-0.14586827,0.19101746,0.08923273,0.27353463,0.4866036,0.018843949,-0.45257553,-0.017198423,-0.14483371,-0.16122638,-0.25333747,0.16418205,0.08649223,0.1672381,0.23200715,0.0033497731,-0.055740748,0.045102317,0.06594256,-0.016040992,0.5229451,0.011554619,0.0033699519,0.28791398,0.111812375,-0.047953684,0.03597962,-0.10620866,0.15277772,-0.5249205,0.16078629,0.058969066,0.17249434,-0.23833434,0.112388425,0.14949591,-0.012394301,0.4534426,0.16089611,0.44908452,0.29065424,0.022740848,-0.14486732
WM983B,-0.35578096,-0.13305165,-0.21856964,-0.0013913929,-0.61965734,-0.623907,-0.4150266,0.688121,0.69673777,0.7318105,-0.027675444,-0.79018956,0.08850511,0.79749435,0.5380544,0.5852864,-0.49356514,0.3434843,0.19194038,0.85636,0.08453487,0.77908117,1.0109501,-0.5788766,0.056062773,0.6160504,0.42056254,-0.45467082,0.7167346,-0.40423104,0.5842048,-0.156493,0.30581293,-0.023175139,0.19409087,0.22130582,0.56020886,1.0976138,-0.46220738,0.27439412,-1.5419781,0.95538,0.74895495,-0.32795763,-0.83617806,0.38399264,-1.0534557,0.55217266,-0.14077693,0.7229597,0.056818448,-0.075824,0.6160223,0.46194002,0.7138292,-0.4917483,0.1938746,-0.16805252,-0.36128765,-0.44746166,-0.00842684,-0.1779963,0.28433412,-0.060607817,-0.9143892,0.61046654,-0.6320747,-0.25212875,-0.92132574,0.7291134,-0.65859723,-1.0070946,0.1444803,0.60320187,-0.37414205,0.2910551,-1.0577524,-0.41070884,-0.07791811,0.31962207,-0.51532364,-0.06139168,-0.52527106,-0.9254467,-0.8602818
RT-4,0.33574325,0.1413334,0.30516,0.25822586,-0.0029173526,-0.33921203,-0.22627057,-0.3116588,-0.48826176,-0.33670065,-0.00053417194,-0.19011301,0.09095596,-0.4398193,-0.14170572,-0.066376835,-0.5250851,-0.21934101,0.14651619,-0.02391374,0.78560734,-0.11129103,-0.12090485,0.25837034,0.32835305,-0.69019234,-0.22555427,-0.3094965,0.15509523,-0.049325336,0.19816494,0.12980871,-0.26010686,-0.1176351,-0.2791752,0.6314894,-0.24033953,0.050438363,-0.2604016,-0.15653348,-0.07034806,0.67529726,-0.21165815,0.6057397,0.02344005,-0.40912887,0.3146627,-0.2906309,-0.317492,0.28909364,-0.56984526,-0.46378145,-0.13202213,-0.070948444,-0.18968435,0.07624384,0.24813306,-0.3718181,-0.37610176,0.11469859,0.067688294,-0.0313627,0.8762279,-0.2625409,0.10031492,0.41413513,0.60385644,-0.2410019,0.21270537,0.07589262,0.46040148,-0.4007638,-0.014202628,-0.31271282,0.27071586,0.022938183,0.16091739,0.5403119,0.51907176,0.3094832,-0.06527341,0.057802435,0.572489,0.2056025,0.20491152
BCP-1,0.3370279,0.11436234,0.19254865,-0.14717962,0.3258254,-0.2629724,-0.34422868,-0.07927474,-0.41032043,-0.15482841,0.035505038,-0.1647874,0.10063722,-0.34061095,-0.011905422,-0.21114396,-0.2724525,-0.41408506,0.14527181,-0.18620788,0.60458684,-0.008899878,0.068532184,0.26056752,-0.18504046,-0.31375605,0.19385017,-0.008807721,0.3168111,-0.26434666,-0.07432799,0.018077366,-0.13628338,0.17684056,-0.16900188,0.28378692,0.06966519,0.09781459,-0.14082727,0.14754136,0.09143222,0.2933378,-0.14586827,0.19101746,0.08923273,0.27353463,0.4866036,0.018843949,-0.45257553,-0.017198423,-0.14483371,-0.16122638,-0.25333747,0.16418205,0.08649223,0.1672381,0.23200715,0.0033497731,-0.055740748,0.045102317,0.06594256,-0.016040992,0.5229451,0.011554619,0.0033699519,0.28791398,0.111812375,-0.047953684,0.03597962,-0.10620866,0.15277772,-0.5249205,0.16078629,0.058969066,0.17249434,-0.23833434,0.112388425,0.14949591,-0.012394301,0.4534426,0.16089611,0.44908452,0.29065424,0.022740848,-0.14486732
NCI-H889,0.3370279,0.11436234,0.19254865,-0.14717962,0.3258254,-0.2629724,-0.34422868,-0.07927474,-0.41032043,-0.15482841,0.035505038,-0.1647874,0.10063722,-0.34061095,-0.011905422,-0.21114396,-0.2724525,-0.41408506,0.14527181,-0.18620788,0.60458684,-0.008899878,0.068532184,0.26056752,-0.18504046,-0.31375605,0.19385017,-0.008807721,0.3168111,-0.26434666,-0.07432799,0.018077366,-0.13628338,0.17684056,-0.16900188,0.28378692,0.06966519,0.09781459,-0.14082727,0.14754136,0.09143222,0.2933378,-0.14586827,0.19101746,0.08923273,0.27353463,0.4866036,0.018843949,-0.45257553,-0.017198423,-0.14483371,-0.16122638,-0.25333747,0.16418205,0.08649223,0.1672381,0.23200715,0.0033497731,-0.055740748,0.045102317,0.06594256,-0.016040992,0.5229451,0.011554619,0.0033699519,0.28791398,0.111812375,-0.047953684,0.03597962,-0.10620866,0.15277772,-0.5249205,0.16078629,0.058969066,0.17249434,-0.23833434,0.112388425,0.14949591,-0.012394301,0.4534426,0.16089611,0.44908452,0.29065424,0.022740848,-0.14486732
KCI-MOH1,0.06450046,0.58045626,0.05355545,-0.13368466,-0.43813166,-0.40570718,-0.27745944,-0.52453375,-0.5554356,-0.0347257,-0.6348928,-0.041571938,0.38530308,-0.2515628,0.14985931,0.0009614019,-0.33075765,-0.21577376,0.07481022,0.40987033,0.57593745,-0.6983229,-0.4013473,0.16982733,0.66255957,-0.06346548,-0.35233188,-0.52302545,-0.12757686,0.23105225,-0.07575738,0.0680573,0.093970984,-0.11887735,-0.5857472,0.13671781,0.26882324,-0.04937748,-0.42462447,-0.5388992,0.07923561,0.9800273,-0.010154443,0.16256882,-0.3693132,-0.1993005,0.09601565,-0.4479998,0.2507095,0.36280546,-0.670949,0.20189984,-0.3750997,-0.51027006,-0.39632162,-0.18132934,-0.11355299,0.033209324,-0.31013647,0.37106484,-0.03463486,0.41315112,1.0259918,-0.26593482,0.14071237,0.4197401,0.13384631,0.20736857,0.7477469,-0.21271083,0.030669875,-0.19612959,-0.41820976,-0.09554042,-0.16239287,0.33995527,0.46745092,0.38441893,0.8589822,0.1351799,-0.6457854,-0.027336536,0.24360187,-0.003299288,0.31226805
TUHR14TKB,0.33574325,0.1413334,0.30516,0.25822586,-0.0029173526,-0.33921203,-0.22627057,-0.3116588,-0.48826176,-0.33670065,-0.00053417194,-0.19011301,0.09095596,-0.4398193,-0.14170572,-0.066376835,-0.5250851,-0.21934101,0.14651619,-0.02391374,0.78560734,-0.11129103,-0.12090485,0.25837034,0.32835305,-0.69019234,-0.22555427,-0.3094965,0.15509523,-0.049325336,0.19816494,0.12980871,-0.26010686,-0.1176351,-0.2791752,0.6314894,-0.24033953,0.050438363,-0.2604016,-0.15653348,-0.07034806,0.67529726,-0.21165815,0.6057397,0.02344005,-0.40912887,0.3146627,-0.2906309,-0.317492,0.28909364,-0.56984526,-0.46378145,-0.13202213,-0.070948444,-0.18968435,0.07624384,0.24813306,-0.3718181,-0.37610176,0.11469859,0.067688294,-0.0313627,0.8762279,-0.2625409,0.10031492,0.41413513,0.60385644,-0.2410019,0.21270537,0.07589262,0.46040148,-0.4007638,-0.014202628,-0.31271282,0.27071586,0.022938183,0.16091739,0.5403119,0.51907176,0.3094832,-0.06527341,0.057802435,0.572489,0.2056025,0.20491152
ZR-75-30,0.34845787,0.15613115,0.25107765,0.21840581,-0.0004664022,-0.32126537,-0.17928268,-0.28652027,-0.4800163,-0.37346604,0.024429044,-0.21555161,0.10689691,-0.46631458,-0.12693319,-0.09711822,-0.537707,-0.18089087,0.16721234,-0.04588089,0.77451515,-0.15031159,-0.075837806,0.23884653,0.3367805,-0.6693734,-0.2267058,-0.34850958,0.12517802,-0.020391012,0.20443714,0.16225033,-0.2536303,-0.12084019,-0.2731654,0.595252,-0.22438176,-0.017981194,-0.29465684,-0.19234596,-0.031110559,0.64427596,-0.20811296,0.609371,-0.0023399205,-0.37831613,0.2722684,-0.2806373,-0.34074813,0.3123964,-0.5476465,-0.4502813,-0.15160076,-0.070328854,-0.21122117,0.05255975,0.2623439,-0.33132207,-0.40265304,0.13354115,0.045776602,-0.07217665,0.8819601,-0.23208281,0.08536554,0.4379454,0.5794925,-0.22580464,0.25622955,0.052902475,0.38962913,-0.36037695,0.0058374368,-0.2643389,0.27264524,0.017424438,0.16160767,0.54603845,0.52847433,0.30403993,-0.06510017,0.066296495,0.5495471,0.22306183,0.22676755
Daudi,0.28167236,0.10524053,0.107796885,-0.1457158,0.3602381,-0.23520508,-0.30319634,-0.04386898,-0.4822982,-0.1872421,0.047269505,-0.23758757,0.031249437,-0.29470798,0.031756975,-0.13374679,-0.20961954,-0.39678565,0.11544609,-0.22339444,0.5188386,0.0040824465,0.062296923,0.29006335,-0.17601328,-0.29413173,0.24763991,-0.01814896,0.28617838,-0.24571426,-0.11728223,0.08105779,-0.17024213,0.15667088,-0.15745859,0.28152257,0.113153495,0.019867536,-0.06571156,0.12158223,0.014168758,0.25337017,-0.17888792,0.14649086,0.043794952,0.22675197,0.4874971,0.009019203,-0.4008896,0.030568399,-0.13073586,-0.1296205,-0.21218318,0.13917941,0.051896315,0.10797125,0.26403838,0.009286962,-0.021816514,-0.006777876,0.14119047,-0.04904279,0.4142044,0.023645429,-0.026375005,0.20369083,0.08280615,0.014787271,-0.04918118,-0.07043609,0.13771293,-0.4743386,0.15889864,0.11849111,0.16130823,-0.26052815,0.110272504,0.15161377,-0.0469239,0.48948777,0.16755301,0.34770924,0.28506875,0.051800806,-0.17227635
MV4-11,0.33574325,0.1413334,0.30516,0.25822586,-0.0029173526,-0.33921203,-0.22627057,-0.3116588,-0.48826176,-0.33670065,-0.00053417194,-0.19011301,0.09095596,-0.4398193,-0.14170572,-0.066376835,-0.5250851,-0.21934101,0.14651619,-0.02391374,0.78560734,-0.11129103,-0.12090485,0.25837034,0.32835305,-0.69019234,-0.22555427,-0.3094965,0.15509523,-0.049325336,0.19816494,0.12980871,-0.26010686,-0.1176351,-0.2791752,0.6314894,-0.24033953,0.050438363,-0.2604016,-0.15653348,-0.07034806,0.67529726,-0.21165815,0.6057397,0.02344005,-0.40912887,0.3146627,-0.2906309,-0.317492,0.28909364,-0.56984526,-0.46378145,-0.13202213,-0.070948444,-0.18968435,0.07624384,0.24813306,-0.3718181,-0.37610176,0.11469859,0.067688294,-0.0313627,0.8762279,-0.2625409,0.10031492,0.41413513,0.60385644,-0.2410019,0.21270537,0.07589262,0.46040148,-0.4007638,-0.014202628,-0.31271282,0.27071586,0.022938183,0.16091739,0.5403119,0.51907176,0.3094832,-0.06527341,0.057802435,0.572489,0.2056025,0.20491152
DAN-G,0.06450046,0.58045626,0.05355545,-0.13368466,-0.43813166,-0.40570718,-0.27745944,-0.52453375,-0.5554356,-0.0347257,-0.6348928,-0.041571938,0.38530308,-0.2515628,0.14985931,0.0009614019,-0.33075765,-0.21577376,0.07481022,0.40987033,0.57593745,-0.6983229,-0.4013473,0.16982733,0.66255957,-0.06346548,-0.35233188,-0.52302545,-0.12757686,0.23105225,-0.07575738,0.0680573,0.093970984,-0.11887735,-0.5857472,0.13671781,0.26882324,-0.04937748,-0.42462447,-0.5388992,0.07923561,0.9800273,-0.010154443,0.16256882,-0.3693132,-0.1993005,0.09601565,-0.4479998,0.2507095,0.36280546,-0.670949,0.20189984,-0.3750997,-0.51027006,-0.39632162,-0.18132934,-0.11355299,0.033209324,-0.31013647,0.37106484,-0.03463486,0.41315112,1.0259918,-0.26593482,0.14071237,0.4197401,0.13384631,0.20736857,0.7477469,-0.21271083,0.030669875,-0.19612959,-0.41820976,-0.09554042,-0.16239287,0.33995527,0.46745092,0.38441893,0.8589822,0.1351799,-0.6457854,-0.027336536,0.24360187,-0.003299288,0.31226805
NCI-H2023,0.23726322,0.0921086,0.10201931,-0.17029911,0.37217313,-0.23280102,-0.3016991,0.020727616,-0.52855855,-0.21033104,0.023187203,-0.1991494,0.043627698,-0.25545484,0.078255266,-0.18332097,-0.22312549,-0.4416781,0.14397086,-0.18835638,0.54353243,0.015350119,0.12582079,0.29011175,-0.08598457,-0.3074997,0.20657161,-0.033821817,0.3064191,-0.2231964,-0.08971737,0.13033967,-0.13343978,0.11702027,-0.18362969,0.27232933,0.09573177,0.034940723,-0.077277385,0.10013797,0.03644873,0.20986988,-0.18868808,0.13242795,0.0046685687,0.19029208,0.44325727,-0.006470226,-0.44337264,-0.019376783,-0.113664486,-0.18292074,-0.261427,0.15564038,0.044825587,0.027609635,0.24229392,-0.0017186855,0.0019308113,-0.030842088,0.16835709,-0.0079614045,0.3640711,-0.026926542,-0.03171605,0.1673396,0.07029499,0.055826984,-0.07559408,-0.11016741,0.13552564,-0.5043923,0.17192157,0.12312611,0.10996178,-0.229097,0.11544309,0.13301705,-0.07662921,0.45839688,0.13282368,0.38827637,0.20740385,0.09209787,-0.14556424
SCC-9,0.39729083,-0.29371133,0.06865049,0.474479,-0.5288689,-0.7036382,-0.3945499,-0.1773898,0.020046366,-0.09185372,-0.4203374,0.021527035,0.24435526,0.076368704,0.33600718,0.026993617,-0.93228704,-0.1855465,-0.05885449,0.17882152,0.053913273,0.1690429,0.32189143,0.053348806,0.73743224,-0.52621955,-0.6993931,-0.04606319,0.17085746,0.10441783,-0.20316187,-0.3052491,-0.3597089,0.26746377,0.21686795,0.59641886,0.22015543,0.51284516,-0.3026199,-0.24538456,-0.5514289,0.47564122,-0.19873664,0.72152257,0.014757561,-0.26896882,-0.18973565,0.06420346,0.13657978,0.5044252,-0.282276,-0.70553815,0.15697265,-0.4116305,-0.18514934,-0.17165191,0.0026754749,-0.2777682,-0.052551188,0.32660285,0.11385367,0.29465467,0.8021404,-0.00083548774,-0.19047412,0.43325984,0.255582,-0.058928013,-0.09060089,0.37034497,0.17452185,-0.21575265,-0.113429435,-0.3144503,-0.272308,0.5800109,0.031196443,0.29104707,0.67989945,0.046791,-0.47653738,-0.13955349,-0.1972008,-0.21354729,0.073931314
HCC364,0.3370279,0.11436234,0.19254865,-0.14717962,0.3258254,-0.2629724,-0.34422868,-0.07927474,-0.41032043,-0.15482841,0.035505038,-0.1647874,0.10063722,-0.34061095,-0.011905422,-0.21114396,-0.2724525,-0.41408506,0.14527181,-0.18620788,0.60458684,-0.008899878,0.068532184,0.26056752,-0.18504046,-0.31375605,0.19385017,-0.008807721,0.3168111,-0.26434666,-0.07432799,0.018077366,-0.13628338,0.17684056,-0.16900188,0.28378692,0.06966519,0.09781459,-0.14082727,0.14754136,0.09143222,0.2933378,-0.14586827,0.19101746,0.08923273,0.27353463,0.4866036,0.018843949,-0.45257553,-0.017198423,-0.14483371,-0.16122638,-0.25333747,0.16418205,0.08649223,0.1672381,0.23200715,0.0033497731,-0.055740748,0.045102317,0.06594256,-0.016040992,0.5229451,0.011554619,0.0033699519,0.28791398,0.111812375,-0.047953684,0.03597962,-0.10620866,0.15277772,-0.5249205,0.16078629,0.058969066,0.17249434,-0.23833434,0.112388425,0.14949591,-0.012394301,0.4534426,0.16089611,0.44908452,0.29065424,0.022740848,-0.14486732
SF767,0.3370279,0.11436234,0.19254865,-0.14717962,0.3258254,-0.2629724,-0.34422868,-0.07927474,-0.41032043,-0.15482841,0.035505038,-0.1647874,0.10063722,-0.34061095,-0.011905422,-0.21114396,-0.2724525,-0.41408506,0.14527181,-0.18620788,0.60458684,-0.008899878,0.068532184,0.26056752,-0.18504046,-0.31375605,0.19385017,-0.008807721,0.3168111,-0.26434666,-0.07432799,0.018077366,-0.13628338,0.17684056,-0.16900188,0.28378692,0.06966519,0.09781459,-0.14082727,0.14754136,0.09143222,0.2933378,-0.14586827,0.19101746,0.08923273,0.27353463,0.4866036,0.018843949,-0.45257553,-0.017198423,-0.14483371,-0.16122638,-0.25333747,0.16418205,0.08649223,0.1672381,0.23200715,0.0033497731,-0.055740748,0.045102317,0.06594256,-0.016040992,0.5229451,0.011554619,0.0033699519,0.28791398,0.111812375,-0.047953684,0.03597962,-0.10620866,0.15277772,-0.5249205,0.16078629,0.058969066,0.17249434,-0.23833434,0.112388425,0.14949591,-0.012394301,0.4534426,0.16089611,0.44908452,0.29065424,0.022740848,-0.14486732
NCI-H2342,0.27879092,-0.27863598,-0.07936523,0.091588356,-0.17783418,-0.59040886,-0.55628026,0.087562874,-0.0031279945,0.08411698,-0.40420756,0.098476484,0.2740568,0.2639063,0.532983,-0.13320042,-0.6428943,-0.4561028,0.016320415,0.07108139,-0.14227058,0.29825914,0.5365985,0.052728385,0.2683629,-0.13318154,-0.3551625,0.2380818,0.29182088,-0.089026004,-0.41123244,-0.42246306,-0.21087898,0.49468425,0.36429015,0.26227757,0.4218496,0.555376,-0.17595947,0.050708164,-0.29162875,0.026296336,-0.14383851,0.29886776,0.011179173,0.42145848,-0.049715586,0.43373165,-0.023186378,0.17394029,0.19877556,-0.44656,-0.019776428,-0.14619702,0.04419979,-0.15402985,-0.025284523,0.055442423,0.28389737,0.2581042,0.1370434,0.33352867,0.37500453,0.18451338,-0.2411475,0.23129748,-0.29947615,0.1506141,-0.30341905,0.1795303,-0.15090682,-0.28252944,0.042578164,0.054248087,-0.3997044,0.39767048,-0.033852052,-0.11734294,0.15352334,0.07798934,-0.31451142,0.2219757,-0.60536253,-0.3507204,-0.29739317
TGBC11TKB,0.44756496,0.35199896,-0.53270483,-0.42359987,-0.42578647,0.11170357,-0.72507304,-0.2019648,-0.15643126,0.13130735,-0.37251404,0.19224185,0.23277827,-0.35660583,0.5152616,0.40313601,0.07803298,-0.76150125,0.1299092,-0.24370109,0.61702144,-0.44133177,-0.4519839,0.037938576,0.05504724,-0.03729398,0.16513056,-0.38099676,0.30867478,-0.1052481,-0.54434013,0.12322961,0.58566743,0.18670739,0.04118025,0.14192528,0.88167936,-0.011685213,-0.16340916,-0.59938097,0.08298419,0.46637,0.22965671,-0.54454434,-0.5449075,0.2287617,-0.24354176,0.15293257,0.16216487,0.26808846,-0.031955183,0.5557509,-0.5141992,-0.47481835,0.008142715,-0.16419227,0.2811239,0.11706744,-0.36879805,0.7306694,-0.29035163,-0.04651197,0.043235723,-0.40602925,-0.22956365,0.15986854,-0.47231865,0.62992924,0.7811048,-0.78744686,-0.5253471,-0.37529966,-0.53795415,-0.030130975,-0.5221644,0.40545067,0.7049124,0.0018873553,-0.0070180087,0.5304434,-0.045609057,0.047188472,-0.27168652,0.17775509,0.12864563
SK-ES-1,0.2830626,0.09953258,0.11214758,-0.16024812,0.34784776,-0.246668,-0.29307988,-0.035379704,-0.47480637,-0.19994545,0.045553897,-0.2008505,0.031972248,-0.29426432,0.043918125,-0.14358476,-0.22318974,-0.42050904,0.111508995,-0.22331409,0.545785,0.013106451,0.06771521,0.26311213,-0.15737133,-0.28770787,0.2670078,-0.015922071,0.29371637,-0.24826618,-0.12448181,0.10080838,-0.13923989,0.1398094,-0.16547936,0.2792446,0.11256271,0.026870105,-0.063276626,0.13018744,0.010402191,0.2459488,-0.17709318,0.13804203,0.054460146,0.24836418,0.50162315,0.020227708,-0.41422477,0.0070641334,-0.14498849,-0.12905978,-0.22657573,0.1406514,0.053509515,0.09982419,0.2599844,-0.0022626151,-0.031870395,0.0048118713,0.13890521,-0.03449329,0.43818134,0.02408695,-0.05488487,0.19846274,0.08716382,0.02918297,-0.047526747,-0.09063179,0.13289523,-0.5034667,0.16077082,0.11226858,0.15271237,-0.25979418,0.12360353,0.15183666,-0.047953278,0.5101931,0.16097112,0.3649122,0.27715942,0.0692914,-0.16398156
RT-112,0.39857545,-0.32068247,-0.04396085,0.069073476,-0.20012623,-0.6273986,-0.51250803,0.05499426,0.09798767,0.090018496,-0.38429818,0.046852633,0.25403652,0.17557706,0.46580765,-0.11777347,-0.67965454,-0.3802905,-0.060098857,0.016527379,-0.12710716,0.271434,0.51132846,0.055545997,0.22403854,-0.14978331,-0.27998888,0.25462562,0.3325733,-0.11060354,-0.47565472,-0.41698048,-0.23588537,0.5619395,0.3270415,0.24871638,0.5301602,0.5602214,-0.18304557,0.05869027,-0.3896486,0.09368189,-0.13294677,0.30680034,0.08055024,0.41369468,-0.017794766,0.3736783,0.0014962032,0.1981331,0.14273569,-0.4029831,0.03565724,-0.17650007,0.09102724,-0.080657616,-0.013450447,0.09739962,0.26780984,0.25700656,0.112107925,0.30997643,0.4488576,0.27326012,-0.28741914,0.30703866,-0.23646209,0.13412015,-0.26732668,0.18824373,-0.13310187,-0.33990937,0.061559506,0.057231598,-0.3705296,0.3187385,-0.01733252,-0.0997689,0.14843339,0.19075045,-0.2503678,0.25172865,-0.4790353,-0.3964089,-0.27584746
COV644,0.33574325,0.1413334,0.30516,0.25822586,-0.0029173526,-0.33921203,-0.22627057,-0.3116588,-0.48826176,-0.33670065,-0.00053417194,-0.19011301,0.09095596,-0.4398193,-0.14170572,-0.066376835,-0.5250851,-0.21934101,0.14651619,-0.02391374,0.78560734,-0.11129103,-0.12090485,0.25837034,0.32835305,-0.69019234,-0.22555427,-0.3094965,0.15509523,-0.049325336,0.19816494,0.12980871,-0.26010686,-0.1176351,-0.2791752,0.6314894,-0.24033953,0.050438363,-0.2604016,-0.15653348,-0.07034806,0.67529726,-0.21165815,0.6057397,0.02344005,-0.40912887,0.3146627,-0.2906309,-0.317492,0.28909364,-0.56984526,-0.46378145,-0.13202213,-0.070948444,-0.18968435,0.07624384,0.24813306,-0.3718181,-0.37610176,0.11469859,0.067688294,-0.0313627,0.8762279,-0.2625409,0.10031492,0.41413513,0.60385644,-0.2410019,0.21270537,0.07589262,0.46040148,-0.4007638,-0.014202628,-0.31271282,0.27071586,0.022938183,0.16091739,0.5403119,0.51907176,0.3094832,-0.06527341,0.057802435,0.572489,0.2056025,0.20491152
Panc 04.03,0.048534293,0.51978874,-0.16330448,-0.54380107,-0.096630834,-0.276107,-0.34639034,-0.2454351,-0.47370544,0.10036436,-0.55426556,-0.07386006,0.3188017,-0.05721799,0.3564168,-0.090507835,-0.0470911,-0.4138311,0.06607636,0.19680437,0.3234509,-0.5847405,-0.18940891,0.17778075,0.1692711,0.3410785,0.09890237,-0.23162833,0.008904468,0.021638528,-0.4196615,0.003237858,0.24966414,0.16543467,-0.5206672,-0.23192513,0.60342526,-0.028595842,-0.24544306,-0.2479275,0.18686509,0.5410198,0.016681837,-0.24208605,-0.3658603,0.42835182,0.27618596,-0.15546308,0.16162395,0.06784113,-0.25788176,0.5052761,-0.46800458,-0.33414975,-0.19607377,-0.18095526,-0.060323827,0.41571835,0.064727016,0.20160842,0.06636972,0.40709612,0.60551524,0.018455101,0.041854452,0.20492445,-0.34627643,0.4915792,0.43443513,-0.3815609,-0.28764123,-0.32615003,-0.2542977,0.30147362,-0.2766479,0.08676254,0.4282958,-0.022182249,0.29258713,0.32293695,-0.4229505,0.3148821,-0.08724013,-0.13908505,-0.103537455
TALL-1 [Human adult T-ALL],0.3370279,0.11436234,0.19254865,-0.14717962,0.3258254,-0.2629724,-0.34422868,-0.07927474,-0.41032043,-0.15482841,0.035505038,-0.1647874,0.10063722,-0.34061095,-0.011905422,-0.21114396,-0.2724525,-0.41408506,0.14527181,-0.18620788,0.60458684,-0.008899878,0.068532184,0.26056752,-0.18504046,-0.31375605,0.19385017,-0.008807721,0.3168111,-0.26434666,-0.07432799,0.018077366,-0.13628338,0.17684056,-0.16900188,0.28378692,0.06966519,0.09781459,-0.14082727,0.14754136,0.09143222,0.2933378,-0.14586827,0.19101746,0.08923273,0.27353463,0.4866036,0.018843949,-0.45257553,-0.017198423,-0.14483371,-0.16122638,-0.25333747,0.16418205,0.08649223,0.1672381,0.23200715,0.0033497731,-0.055740748,0.045102317,0.06594256,-0.016040992,0.5229451,0.011554619,0.0033699519,0.28791398,0.111812375,-0.047953684,0.03597962,-0.10620866,0.15277772,-0.5249205,0.16078629,0.058969066,0.17249434,-0.23833434,0.112388425,0.14949591,-0.012394301,0.4534426,0.16089611,0.44908452,0.29065424,0.022740848,-0.14486732
KYSE-520,0.3370279,0.11436234,0.19254865,-0.14717962,0.3258254,-0.2629724,-0.34422868,-0.07927474,-0.41032043,-0.15482841,0.035505038,-0.1647874,0.10063722,-0.34061095,-0.011905422,-0.21114396,-0.2724525,-0.41408506,0.14527181,-0.18620788,0.60458684,-0.008899878,0.068532184,0.26056752,-0.18504046,-0.31375605,0.19385017,-0.008807721,0.3168111,-0.26434666,-0.07432799,0.018077366,-0.13628338,0.17684056,-0.16900188,0.28378692,0.06966519,0.09781459,-0.14082727,0.14754136,0.09143222,0.2933378,-0.14586827,0.19101746,0.08923273,0.27353463,0.4866036,0.018843949,-0.45257553,-0.017198423,-0.14483371,-0.16122638,-0.25333747,0.16418205,0.08649223,0.1672381,0.23200715,0.0033497731,-0.055740748,0.045102317,0.06594256,-0.016040992,0.5229451,0.011554619,0.0033699519,0.28791398,0.111812375,-0.047953684,0.03597962,-0.10620866,0.15277772,-0.5249205,0.16078629,0.058969066,0.17249434,-0.23833434,0.112388425,0.14949591,-0.012394301,0.4534426,0.16089611,0.44908452,0.29065424,0.022740848,-0.14486732
HCC1833,0.3648015,-0.29440787,-0.072098926,0.091257535,-0.17880419,-0.611347,-0.5289385,0.03339305,0.06071618,0.08921644,-0.37098318,0.06399411,0.2735132,0.19510584,0.5197345,-0.12298726,-0.6515478,-0.42748547,-0.043130413,0.053109467,-0.14942369,0.2797969,0.5145972,0.04951293,0.20688863,-0.12358206,-0.3176056,0.25507456,0.30833915,-0.12621643,-0.45241895,-0.42813188,-0.23252459,0.51603764,0.35655156,0.27860954,0.4829778,0.56649023,-0.15398541,0.06327756,-0.356775,0.07739669,-0.14689769,0.28725797,0.05742696,0.45446718,0.0005167193,0.4244049,0.012558326,0.19161995,0.15660274,-0.42916933,-0.0004361507,-0.14944181,0.07877796,-0.08397979,-0.004088594,0.07157764,0.26341358,0.29867285,0.08815817,0.2914318,0.4716463,0.23527294,-0.28241122,0.26841956,-0.2833163,0.12262066,-0.29186314,0.20773508,-0.1764708,-0.30203152,0.036057148,0.074259624,-0.37962765,0.35656133,-0.018286536,-0.08434635,0.18417242,0.17606257,-0.28576395,0.23809667,-0.4956332,-0.40078583,-0.30647302
KPL-1,0.81308985,-0.07422688,-0.086599134,0.36187047,-0.33037233,0.06712059,-0.578236,-0.25494227,-0.085129015,-0.32541233,0.22489859,0.058394063,0.009249534,-0.71996474,0.07132241,0.3736447,-0.44034913,-0.58017564,0.2056963,-0.4610187,1.0840545,0.014108091,-0.318639,0.118572734,0.2351195,-1.0702739,-0.20416531,-0.45972225,0.48948476,-0.2013573,0.03860709,0.25759447,0.12587933,-0.087792106,0.20014659,0.9960805,0.063320704,0.1378863,-0.18590295,-0.51261103,-0.19021603,0.59858835,-0.019271318,0.34065163,-0.17605291,-0.6420109,-0.20586264,-0.025373364,-0.31604216,0.44414067,-0.38080966,-0.48056155,-0.20647147,-0.23388033,-0.00090635725,0.059488997,0.6304101,-0.65238583,-0.77573115,0.6006943,-0.28096405,-0.48891073,0.3780269,-0.68907577,-0.16136612,0.37070686,0.5180327,-0.075579844,0.49143827,-0.34384558,0.20413949,-0.5267868,-0.3024186,-0.64763814,-0.002321864,0.36148795,0.45642886,0.56065536,0.22104035,0.5710192,0.30267662,-0.11809431,0.38459447,0.51319957,0.40781447
KNS-42,0.2912285,0.106938355,0.18242036,-0.1572306,0.35015076,-0.24910544,-0.35284793,-0.02316742,-0.46407264,-0.165214,0.013138336,-0.16308631,0.11229268,-0.3018015,0.022431705,-0.25088018,-0.27238825,-0.43525413,0.17773367,-0.15125015,0.6023343,-0.0066562095,0.12663776,0.28756714,-0.113653734,-0.3335479,0.13341397,-0.026707461,0.32951385,-0.23927687,-0.03956355,0.047608636,-0.13048327,0.15405142,-0.1871522,0.27687165,0.052834254,0.10588519,-0.15482803,0.1174919,0.11747876,0.2572589,-0.15746316,0.18540338,0.03944117,0.2154625,0.4282377,-0.007853978,-0.4817234,-0.043639347,-0.113509715,-0.21508738,-0.28818876,0.17917103,0.0778083,0.09502354,0.21431667,0.0038937028,-0.021939542,0.009448352,0.095394425,0.010490882,0.4488349,-0.03945886,0.026538769,0.25679088,0.09494354,-0.021309672,0.007912292,-0.12574428,0.15540814,-0.5258461,0.17193703,0.06982659,0.12974373,-0.20763713,0.104227975,0.13067628,-0.041070253,0.4016464,0.13274866,0.47244868,0.22089867,0.045547336,-0.12644999
JHUEM-2,0.08387964,-0.17185777,-0.80406326,0.046884306,-0.7633922,0.5641777,-0.7376898,1.0765105,1.4619671,0.56413096,1.1287822,-1.1108872,-0.5814429,0.16886932,0.6830005,1.7153203,0.008389092,-0.09270386,0.7565783,0.31782034,1.6077629,1.0678109,0.67092556,-1.0997947,-0.55217636,0.05462201,1.4609183,-1.7210337,1.8990712,-1.2711742,1.1135173,0.9216977,1.6890726,-0.87853837,0.47350788,1.057244,0.5976303,0.8541622,-0.45441884,-0.045380153,-1.8460003,1.5119224,1.6080613,-1.3580798,-1.8295964,-0.30608717,-2.0272665,0.7987055,-0.9554507,1.0909497,-0.112384774,0.4052839,0.66896737,1.1603152,1.453826,-0.70812654,1.4254326,-1.0356584,-2.010694,-0.15787742,-0.9072232,-1.6870018,-0.78606045,-1.3178492,-1.6270229,0.7022104,-0.58151984,-0.44935024,-0.5871552,-0.03223031,-1.2014437,-1.6443458,-0.26276252,0.35389057,-0.2777312,0.42976528,-0.88061637,-0.21186507,-1.0151689,1.2979256,0.78853846,-0.3008548,-0.06797918,-0.14149366,-0.822388
UM-RC-6,0.3370279,0.11436234,0.19254865,-0.14717962,0.3258254,-0.2629724,-0.34422868,-0.07927474,-0.41032043,-0.15482841,0.035505038,-0.1647874,0.10063722,-0.34061095,-0.011905422,-0.21114396,-0.2724525,-0.41408506,0.14527181,-0.18620788,0.60458684,-0.008899878,0.068532184,0.26056752,-0.18504046,-0.31375605,0.19385017,-0.008807721,0.3168111,-0.26434666,-0.07432799,0.018077366,-0.13628338,0.17684056,-0.16900188,0.28378692,0.06966519,0.09781459,-0.14082727,0.14754136,0.09143222,0.2933378,-0.14586827,0.19101746,0.08923273,0.27353463,0.4866036,0.018843949,-0.45257553,-0.017198423,-0.14483371,-0.16122638,-0.25333747,0.16418205,0.08649223,0.1672381,0.23200715,0.0033497731,-0.055740748,0.045102317,0.06594256,-0.016040992,0.5229451,0.011554619,0.0033699519,0.28791398,0.111812375,-0.047953684,0.03597962,-0.10620866,0.15277772,-0.5249205,0.16078629,0.058969066,0.17249434,-0.23833434,0.112388425,0.14949591,-0.012394301,0.4534426,0.16089611,0.44908452,0.29065424,0.022740848,-0.14486732
NCI-H2172,0.29553208,0.16452931,0.30802193,0.26860768,-0.026272655,-0.3321408,-0.24499299,-0.31359628,-0.4983537,-0.33141452,-0.0113918735,-0.15733175,0.079844125,-0.40982825,-0.16279434,-0.03685382,-0.5164959,-0.22678925,0.17350517,-0.0408995,0.79501295,-0.095072456,-0.15700911,0.2345862,0.31844065,-0.68,-0.202675,-0.3085895,0.12587427,-0.03720471,0.20458698,0.1059462,-0.24426131,-0.116199344,-0.25328627,0.62207276,-0.28463677,0.03125352,-0.2683749,-0.13905337,-0.031248327,0.6602758,-0.19700408,0.6229636,0.026983859,-0.38406542,0.32279626,-0.2546063,-0.32408884,0.2978549,-0.5589964,-0.42731103,-0.11651115,-0.0826926,-0.21557859,0.07840835,0.2446276,-0.38849723,-0.3894192,0.10978393,0.08712167,-0.015797656,0.8536964,-0.26228693,0.118409775,0.40813616,0.6045655,-0.23965248,0.22921684,0.06722348,0.48333502,-0.38033605,-0.01883236,-0.34358186,0.2933897,0.033350162,0.1535123,0.5261349,0.51709867,0.26320624,-0.06587348,0.018317303,0.5325152,0.23286143,0.1955741
Hs 274.T,0.06450046,0.58045626,0.05355545,-0.13368466,-0.43813166,-0.40570718,-0.27745944,-0.52453375,-0.5554356,-0.0347257,-0.6348928,-0.041571938,0.38530308,-0.2515628,0.14985931,0.0009614019,-0.33075765,-0.21577376,0.07481022,0.40987033,0.57593745,-0.6983229,-0.4013473,0.16982733,0.66255957,-0.06346548,-0.35233188,-0.52302545,-0.12757686,0.23105225,-0.07575738,0.0680573,0.093970984,-0.11887735,-0.5857472,0.13671781,0.26882324,-0.04937748,-0.42462447,-0.5388992,0.07923561,0.9800273,-0.010154443,0.16256882,-0.3693132,-0.1993005,0.09601565,-0.4479998,0.2507095,0.36280546,-0.670949,0.20189984,-0.3750997,-0.51027006,-0.39632162,-0.18132934,-0.11355299,0.033209324,-0.31013647,0.37106484,-0.03463486,0.41315112,1.0259918,-0.26593482,0.14071237,0.4197401,0.13384631,0.20736857,0.7477469,-0.21271083,0.030669875,-0.19612959,-0.41820976,-0.09554042,-0.16239287,0.33995527,0.46745092,0.38441893,0.8589822,0.1351799,-0.6457854,-0.027336536,0.24360187,-0.003299288,0.31226805
Ki-JK,0.33574325,0.1413334,0.30516,0.25822586,-0.0029173526,-0.33921203,-0.22627057,-0.3116588,-0.48826176,-0.33670065,-0.00053417194,-0.19011301,0.09095596,-0.4398193,-0.14170572,-0.066376835,-0.5250851,-0.21934101,0.14651619,-0.02391374,0.78560734,-0.11129103,-0.12090485,0.25837034,0.32835305,-0.69019234,-0.22555427,-0.3094965,0.15509523,-0.049325336,0.19816494,0.12980871,-0.26010686,-0.1176351,-0.2791752,0.6314894,-0.24033953,0.050438363,-0.2604016,-0.15653348,-0.07034806,0.67529726,-0.21165815,0.6057397,0.02344005,-0.40912887,0.3146627,-0.2906309,-0.317492,0.28909364,-0.56984526,-0.46378145,-0.13202213,-0.070948444,-0.18968435,0.07624384,0.24813306,-0.3718181,-0.37610176,0.11469859,0.067688294,-0.0313627,0.8762279,-0.2625409,0.10031492,0.41413513,0.60385644,-0.2410019,0.21270537,0.07589262,0.46040148,-0.4007638,-0.014202628,-0.31271282,0.27071586,0.022938183,0.16091739,0.5403119,0.51907176,0.3094832,-0.06527341,0.057802435,0.572489,0.2056025,0.20491152
Hs 675.T,0.28177798,0.12650365,0.22475892,0.24515738,0.019105013,-0.3229076,-0.17512174,-0.26776376,-0.5527478,-0.38181764,0.009514694,-0.22617613,0.022291014,-0.39347264,-0.08588221,0.0011823191,-0.47582233,-0.225765,0.11275339,-0.06101986,0.72680545,-0.0892847,-0.12172182,0.26091495,0.3560222,-0.6641442,-0.15239663,-0.31661084,0.13200058,-0.033244852,0.1480111,0.21253978,-0.26306334,-0.15466629,-0.27565268,0.6269471,-0.197442,-0.020506121,-0.18285096,-0.17388739,-0.15137811,0.6279082,-0.24288303,0.55276436,-0.011332532,-0.43429932,0.32968226,-0.28924716,-0.27914122,0.3133562,-0.57,-0.4316148,-0.10526038,-0.09447903,-0.2226671,0.008829934,0.27611032,-0.37743047,-0.35223138,0.07440816,0.14065094,-0.049815,0.79146415,-0.25000855,0.04206012,0.32468387,0.57920784,-0.16386522,0.12919894,0.0914695,0.44051903,-0.37931,-0.014218096,-0.25941327,0.25093397,0.0014783315,0.1721325,0.5426526,0.4835128,0.36623368,-0.065198414,-0.026369868,0.5589942,0.25215304,0.18579732
KP-2,0.06578509,0.55348516,-0.05905592,-0.5390901,-0.109388866,-0.32946756,-0.39541754,-0.29214966,-0.4774942,0.14714657,-0.59885365,-0.01624632,0.39498433,-0.15235439,0.2796596,-0.14380568,-0.07812507,-0.41051778,0.073565856,0.24757624,0.394917,-0.5959318,-0.21191019,0.17202452,0.149166,0.31297082,0.067072585,-0.22233675,0.03413901,0.016030878,-0.34825027,-0.043674067,0.21779448,0.17559831,-0.4755738,-0.21098481,0.57882804,-0.0020012755,-0.3050502,-0.23482434,0.24101588,0.5980678,0.055635437,-0.2521535,-0.30352053,0.48336306,0.2679565,-0.13852486,0.11562596,0.056513324,-0.2459375,0.5044548,-0.49641517,-0.2751397,-0.12014506,-0.090335056,-0.1296789,0.4083771,0.010224541,0.30146852,-0.03638059,0.42847282,0.672709,0.0081607755,0.043767426,0.29351896,-0.3581977,0.40041673,0.57102114,-0.39481208,-0.27695385,-0.32028627,-0.24322082,0.27614143,-0.26061437,0.07868275,0.41892195,-0.006396972,0.32751614,0.27913934,-0.41961592,0.36394557,-0.03823279,-0.18616092,-0.037510812
SLR21,0.3370279,0.11436234,0.19254865,-0.14717962,0.3258254,-0.2629724,-0.34422868,-0.07927474,-0.41032043,-0.15482841,0.035505038,-0.1647874,0.10063722,-0.34061095,-0.011905422,-0.21114396,-0.2724525,-0.41408506,0.14527181,-0.18620788,0.60458684,-0.008899878,0.068532184,0.26056752,-0.18504046,-0.31375605,0.19385017,-0.008807721,0.3168111,-0.26434666,-0.07432799,0.018077366,-0.13628338,0.17684056,-0.16900188,0.28378692,0.06966519,0.09781459,-0.14082727,0.14754136,0.09143222,0.2933378,-0.14586827,0.19101746,0.08923273,0.27353463,0.4866036,0.018843949,-0.45257553,-0.017198423,-0.14483371,-0.16122638,-0.25333747,0.16418205,0.08649223,0.1672381,0.23200715,0.0033497731,-0.055740748,0.045102317,0.06594256,-0.016040992,0.5229451,0.011554619,0.0033699519,0.28791398,0.111812375,-0.047953684,0.03597962,-0.10620866,0.15277772,-0.5249205,0.16078629,0.058969066,0.17249434,-0.23833434,0.112388425,0.14949591,-0.012394301,0.4534426,0.16089611,0.44908452,0.29065424,0.022740848,-0.14486732
MOLP-8,0.34002793,0.13028184,-0.13761601,0.2818816,-0.35942787,0.08052421,-0.60738057,0.3630134,0.24313742,0.0042205933,0.42799494,-0.30247334,-0.19978057,-0.38302523,0.34191912,0.9026053,-0.18433401,-0.24776438,0.28675318,-0.12982719,1.1130213,0.49372336,0.0885078,-0.49264535,-0.030545853,-0.42091706,0.43217692,-0.74302214,0.8331551,-0.55530643,0.48715872,0.39496207,0.42272833,-0.3670258,0.061359264,0.83204526,0.22341132,0.46327314,-0.28739747,-0.13755387,-0.74505806,0.858086,0.65443575,-0.39728045,-0.70744085,-0.19279785,-0.7728243,0.28933305,-0.38181618,0.55606955,-0.31745943,-0.06279057,0.06613635,0.36227876,0.439526,-0.09208422,0.8273769,-0.65293473,-0.90721565,0.21545486,-0.34516558,-0.58290637,-0.11046726,-0.8021346,-0.7269569,0.48865664,0.030580191,-0.19963947,-0.15850368,0.035778455,-0.24891879,-0.881163,-0.1017503,-0.022750303,0.19362462,0.3150942,-0.1566721,0.20913492,-0.19497177,0.7800665,0.33636492,-0.07979793,0.26705116,-0.0842266,-0.18677989
HCC1187,0.33574325,0.1413334,0.30516,0.25822586,-0.0029173526,-0.33921203,-0.22627057,-0.3116588,-0.48826176,-0.33670065,-0.00053417194,-0.19011301,0.09095596,-0.4398193,-0.14170572,-0.066376835,-0.5250851,-0.21934101,0.14651619,-0.02391374,0.78560734,-0.11129103,-0.12090485,0.25837034,0.32835305,-0.69019234,-0.22555427,-0.3094965,0.15509523,-0.049325336,0.19816494,0.12980871,-0.26010686,-0.1176351,-0.2791752,0.6314894,-0.24033953,0.050438363,-0.2604016,-0.15653348,-0.07034806,0.67529726,-0.21165815,0.6057397,0.02344005,-0.40912887,0.3146627,-0.2906309,-0.317492,0.28909364,-0.56984526,-0.46378145,-0.13202213,-0.070948444,-0.18968435,0.07624384,0.24813306,-0.3718181,-0.37610176,0.11469859,0.067688294,-0.0313627,0.8762279,-0.2625409,0.10031492,0.41413513,0.60385644,-0.2410019,0.21270537,0.07589262,0.46040148,-0.4007638,-0.014202628,-0.31271282,0.27071586,0.022938183,0.16091739,0.5403119,0.51907176,0.3094832,-0.06527341,0.057802435,0.572489,0.2056025,0.20491152
Hs 229.T,0.33574325,0.1413334,0.30516,0.25822586,-0.0029173526,-0.33921203,-0.22627057,-0.3116588,-0.48826176,-0.33670065,-0.00053417194,-0.19011301,0.09095596,-0.4398193,-0.14170572,-0.066376835,-0.5250851,-0.21934101,0.14651619,-0.02391374,0.78560734,-0.11129103,-0.12090485,0.25837034,0.32835305,-0.69019234,-0.22555427,-0.3094965,0.15509523,-0.049325336,0.19816494,0.12980871,-0.26010686,-0.1176351,-0.2791752,0.6314894,-0.24033953,0.050438363,-0.2604016,-0.15653348,-0.07034806,0.67529726,-0.21165815,0.6057397,0.02344005,-0.40912887,0.3146627,-0.2906309,-0.317492,0.28909364,-0.56984526,-0.46378145,-0.13202213,-0.070948444,-0.18968435,0.07624384,0.24813306,-0.3718181,-0.37610176,0.11469859,0.067688294,-0.0313627,0.8762279,-0.2625409,0.10031492,0.41413513,0.60385644,-0.2410019,0.21270537,0.07589262,0.46040148,-0.4007638,-0.014202628,-0.31271282,0.27071586,0.022938183,0.16091739,0.5403119,0.51907176,0.3094832,-0.06527341,0.057802435,0.572489,0.2056025,0.20491152
Hep-G2,0.33574325,0.1413334,0.30516,0.25822586,-0.0029173526,-0.33921203,-0.22627057,-0.3116588,-0.48826176,-0.33670065,-0.00053417194,-0.19011301,0.09095596,-0.4398193,-0.14170572,-0.066376835,-0.5250851,-0.21934101,0.14651619,-0.02391374,0.78560734,-0.11129103,-0.12090485,0.25837034,0.32835305,-0.69019234,-0.22555427,-0.3094965,0.15509523,-0.049325336,0.19816494,0.12980871,-0.26010686,-0.1176351,-0.2791752,0.6314894,-0.24033953,0.050438363,-0.2604016,-0.15653348,-0.07034806,0.67529726,-0.21165815,0.6057397,0.02344005,-0.40912887,0.3146627,-0.2906309,-0.317492,0.28909364,-0.56984526,-0.46378145,-0.13202213,-0.070948444,-0.18968435,0.07624384,0.24813306,-0.3718181,-0.37610176,0.11469859,0.067688294,-0.0313627,0.8762279,-0.2625409,0.10031492,0.41413513,0.60385644,-0.2410019,0.21270537,0.07589262,0.46040148,-0.4007638,-0.014202628,-0.31271282,0.27071586,0.022938183,0.16091739,0.5403119,0.51907176,0.3094832,-0.06527341,0.057802435,0.572489,0.2056025,0.20491152
NCI-H2405,0.3370279,0.11436234,0.19254865,-0.14717962,0.3258254,-0.2629724,-0.34422868,-0.07927474,-0.41032043,-0.15482841,0.035505038,-0.1647874,0.10063722,-0.34061095,-0.011905422,-0.21114396,-0.2724525,-0.41408506,0.14527181,-0.18620788,0.60458684,-0.008899878,0.068532184,0.26056752,-0.18504046,-0.31375605,0.19385017,-0.008807721,0.3168111,-0.26434666,-0.07432799,0.018077366,-0.13628338,0.17684056,-0.16900188,0.28378692,0.06966519,0.09781459,-0.14082727,0.14754136,0.09143222,0.2933378,-0.14586827,0.19101746,0.08923273,0.27353463,0.4866036,0.018843949,-0.45257553,-0.017198423,-0.14483371,-0.16122638,-0.25333747,0.16418205,0.08649223,0.1672381,0.23200715,0.0033497731,-0.055740748,0.045102317,0.06594256,-0.016040992,0.5229451,0.011554619,0.0033699519,0.28791398,0.111812375,-0.047953684,0.03597962,-0.10620866,0.15277772,-0.5249205,0.16078629,0.058969066,0.17249434,-0.23833434,0.112388425,0.14949591,-0.012394301,0.4534426,0.16089611,0.44908452,0.29065424,0.022740848,-0.14486732
P31/FUJ,0.44504392,0.055517916,-0.21592452,-0.010861709,-0.12713861,0.11641344,-0.6122951,0.33310416,0.2829607,0.061694656,0.45708728,-0.33180127,-0.17990285,-0.30047184,0.2942198,0.58883566,-0.13586865,-0.40024507,0.34939426,-0.19462468,0.9951393,0.45652232,0.20064941,-0.20507416,-0.28755423,-0.35631552,0.60100055,-0.52620465,1.0440117,-0.68604255,0.29535523,0.3766758,0.4758539,-0.16667083,0.1318759,0.6777497,0.29479292,0.41405037,-0.1665935,-0.08409947,-0.63374996,0.646752,0.43490118,-0.50006074,-0.5967739,0.060045276,-0.5436742,0.47462934,-0.6194321,0.38602802,0.0027068593,0.03449997,0.08541208,0.34548888,0.61949164,-0.11213353,0.7762172,-0.4085615,-0.74284226,0.21048553,-0.2979587,-0.7209852,-0.14776212,-0.64241135,-0.6126706,0.41169304,-0.15778342,-0.10674918,-0.1067121,-0.25369093,-0.38400245,-0.9294512,-0.031481937,0.040268704,-0.061211057,0.093907066,-0.12211974,0.013829841,-0.54725945,0.8105594,0.5115989,0.1889284,0.10408124,0.027146136,-0.34082466
NCI-H841,0.2912285,0.106938355,0.18242036,-0.1572306,0.35015076,-0.24910544,-0.35284793,-0.02316742,-0.46407264,-0.165214,0.013138336,-0.16308631,0.11229268,-0.3018015,0.022431705,-0.25088018,-0.27238825,-0.43525413,0.17773367,-0.15125015,0.6023343,-0.0066562095,0.12663776,0.28756714,-0.113653734,-0.3335479,0.13341397,-0.026707461,0.32951385,-0.23927687,-0.03956355,0.047608636,-0.13048327,0.15405142,-0.1871522,0.27687165,0.052834254,0.10588519,-0.15482803,0.1174919,0.11747876,0.2572589,-0.15746316,0.18540338,0.03944117,0.2154625,0.4282377,-0.007853978,-0.4817234,-0.043639347,-0.113509715,-0.21508738,-0.28818876,0.17917103,0.0778083,0.09502354,0.21431667,0.0038937028,-0.021939542,0.009448352,0.095394425,0.010490882,0.4488349,-0.03945886,0.026538769,0.25679088,0.09494354,-0.021309672,0.007912292,-0.12574428,0.15540814,-0.5258461,0.17193703,0.06982659,0.12974373,-0.20763713,0.104227975,0.13067628,-0.041070253,0.4016464,0.13274866,0.47244868,0.22089867,0.045547336,-0.12644999
SLR23,0.3370279,0.11436234,0.19254865,-0.14717962,0.3258254,-0.2629724,-0.34422868,-0.07927474,-0.41032043,-0.15482841,0.035505038,-0.1647874,0.10063722,-0.34061095,-0.011905422,-0.21114396,-0.2724525,-0.41408506,0.14527181,-0.18620788,0.60458684,-0.008899878,0.068532184,0.26056752,-0.18504046,-0.31375605,0.19385017,-0.008807721,0.3168111,-0.26434666,-0.07432799,0.018077366,-0.13628338,0.17684056,-0.16900188,0.28378692,0.06966519,0.09781459,-0.14082727,0.14754136,0.09143222,0.2933378,-0.14586827,0.19101746,0.08923273,0.27353463,0.4866036,0.018843949,-0.45257553,-0.017198423,-0.14483371,-0.16122638,-0.25333747,0.16418205,0.08649223,0.1672381,0.23200715,0.0033497731,-0.055740748,0.045102317,0.06594256,-0.016040992,0.5229451,0.011554619,0.0033699519,0.28791398,0.111812375,-0.047953684,0.03597962,-0.10620866,0.15277772,-0.5249205,0.16078629,0.058969066,0.17249434,-0.23833434,0.112388425,0.14949591,-0.012394301,0.4534426,0.16089611,0.44908452,0.29065424,0.022740848,-0.14486732
T3M-4,0.06578509,0.55348516,-0.05905592,-0.5390901,-0.109388866,-0.32946756,-0.39541754,-0.29214966,-0.4774942,0.14714657,-0.59885365,-0.01624632,0.39498433,-0.15235439,0.2796596,-0.14380568,-0.07812507,-0.41051778,0.073565856,0.24757624,0.394917,-0.5959318,-0.21191019,0.17202452,0.149166,0.31297082,0.067072585,-0.22233675,0.03413901,0.016030878,-0.34825027,-0.043674067,0.21779448,0.17559831,-0.4755738,-0.21098481,0.57882804,-0.0020012755,-0.3050502,-0.23482434,0.24101588,0.5980678,0.055635437,-0.2521535,-0.30352053,0.48336306,0.2679565,-0.13852486,0.11562596,0.056513324,-0.2459375,0.5044548,-0.49641517,-0.2751397,-0.12014506,-0.090335056,-0.1296789,0.4083771,0.010224541,0.30146852,-0.03638059,0.42847282,0.672709,0.0081607755,0.043767426,0.29351896,-0.3581977,0.40041673,0.57102114,-0.39481208,-0.27695385,-0.32028627,-0.24322082,0.27614143,-0.26061437,0.07868275,0.41892195,-0.006396972,0.32751614,0.27913934,-0.41961592,0.36394557,-0.03823279,-0.18616092,-0.037510812
CAL-12T,0.30060637,-0.23742156,-0.1421224,0.037684076,-0.3305058,-0.6190634,-0.6075462,0.06442326,0.02030464,0.17356867,-0.4036828,0.0032632921,0.42404154,0.17118067,0.44465622,-0.07102186,-0.6571478,-0.29730743,-0.045141637,0.15543109,-0.19538939,0.26296395,0.51011837,0.06801381,0.27311915,-0.09632743,-0.35020825,0.25865707,0.2479824,-0.009750903,-0.28847766,-0.49685815,-0.3094926,0.60759044,0.2862815,0.17807694,0.5636365,0.7131032,-0.24809486,-0.07233793,-0.45555443,0.12382316,-0.099151306,0.30334985,-0.080504045,0.43195412,-0.28606167,0.3965527,0.02662675,0.21777375,0.24860317,-0.39979002,-0.022120921,-0.28994948,0.06129841,-0.110351495,-0.07813058,0.09705743,0.35933265,0.19762498,0.17927754,0.21993275,0.42564592,0.18136798,-0.26654214,0.3322425,-0.3392186,0.24175224,-0.29528642,0.13090102,-0.20103091,-0.5824451,0.13877566,0.00041695382,-0.4379239,0.4264886,-0.19114056,-0.17236648,0.103075564,0.06868404,-0.44493914,0.23513897,-0.6009191,-0.41597602,-0.23753712
JM-1,0.33574325,0.1413334,0.30516,0.25822586,-0.0029173526,-0.33921203,-0.22627057,-0.3116588,-0.48826176,-0.33670065,-0.00053417194,-0.19011301,0.09095596,-0.4398193,-0.14170572,-0.066376835,-0.5250851,-0.21934101,0.14651619,-0.02391374,0.78560734,-0.11129103,-0.12090485,0.25837034,0.32835305,-0.69019234,-0.22555427,-0.3094965,0.15509523,-0.049325336,0.19816494,0.12980871,-0.26010686,-0.1176351,-0.2791752,0.6314894,-0.24033953,0.050438363,-0.2604016,-0.15653348,-0.07034806,0.67529726,-0.21165815,0.6057397,0.02344005,-0.40912887,0.3146627,-0.2906309,-0.317492,0.28909364,-0.56984526,-0.46378145,-0.13202213,-0.070948444,-0.18968435,0.07624384,0.24813306,-0.3718181,-0.37610176,0.11469859,0.067688294,-0.0313627,0.8762279,-0.2625409,0.10031492,0.41413513,0.60385644,-0.2410019,0.21270537,0.07589262,0.46040148,-0.4007638,-0.014202628,-0.31271282,0.27071586,0.022938183,0.16091739,0.5403119,0.51907176,0.3094832,-0.06527341,0.057802435,0.572489,0.2056025,0.20491152
