,E0,E1,E2,E3,E4,E5,E6,E7,E8,E9,E10,E11,E12,E13,E14,E15,E16,E17,E18,E19,E20,E21,E22,E23,E24,E25,E26,E27,E28,E29,E30,E31,E32,E33,E34,E35,E36,E37,E38,E39,E40,E41,E42,E43,E44,E45,E46,E47,E48,E49,E50,E51,E52,E53,E54,E55,E56,E57,E58,E59,E60,E61,E62,E63,E64,E65,E66,E67,E68,E69,E70,E71,E72,E73,E74,E75,E76,E77,E78,E79,E80,E81,E82,E83
SJSA-1,-2.679758,-2.1664245,-1.6359164,3.4514923,0.63890004,1.4967397,-1.9658186,5.1519175,0.4124771,5.6834106,-3.0381,-0.6139619,2.2493765,-2.3303747,-5.321846,-2.0865848,-4.253221,0.7206368,-1.3825346,6.0521274,-4.6556816,-2.6744494,-1.2931743,-1.0901142,4.031501,0.45259947,-1.3221931,-2.817647,-4.044446,2.3872669,2.7263799,4.1157856,0.19585566,-5.5686116,-3.526716,-1.1721934,4.613667,0.87736505,-1.4858985,-0.49172541,1.6778847,1.0857733,-0.4049137,2.3711581,-3.1536887,-1.085602,0.51175845,3.8192084,-1.3183311,-2.2354271,-0.53067136,0.26518854,-0.44035524,-1.110713,0.40030771,-0.641344,7.968556,-5.5245147,-2.282187,-0.58563197,3.677957,-0.385305,3.3172104,1.3864343,3.9189756,-0.90642387,2.2232578,3.012741,-0.75518006,0.9157572,-1.9217252,5.3010397,2.7997024,-3.8879855,2.1203637,-1.1286796,5.224992,-2.5868165,0.91461533,4.5981483,4.5065193,-0.71230745,4.0368814,-0.9531917
HuCC-T1,-1.1748998,-1.4016017,0.21774584,-1.0921917,0.14902917,-1.7349993,1.4991535,-2.015956,2.626763,-1.9186779,0.11134784,0.054711998,2.0712695,-0.032910693,0.39755875,1.5722673,1.3822001,0.6545531,1.7641194,-0.32001877,1.4007903,1.1120516,1.8258613,1.3007406,-0.87276363,0.42921016,0.27408475,-1.5724148,2.258108,-1.0615681,-1.1359154,-0.5744888,-1.5291271,1.4869877,0.3883355,0.26779827,0.14754252,-0.12035436,-0.3680133,0.83024675,-1.0285997,2.7779949,0.16893795,-3.491119,3.5928135,-0.22592707,-2.317031,2.1960673,-2.3191864,2.396868,-0.21432628,-3.492311,1.256471,-0.00727968,-0.09279099,-2.3469102,-2.1934865,-0.124825545,1.8765978,1.5284268,1.0776675,-0.5447817,-1.4364424,1.4871538,0.8689618,1.2572684,1.572996,0.038632423,-0.799695,-0.2079288,-2.4910407,1.8200747,0.13674258,3.0516055,0.52959967,0.46326786,-0.46182594,4.0185556,3.610519,-0.4166441,-2.9994054,2.1302183,-0.38267702,-0.36350742
OPM-2,4.418005,2.3649075,-0.5063976,2.2655082,-0.5703819,2.7097354,-0.98958266,5.5491357,-5.220045,0.8738372,-1.9692236,-0.96439385,-3.0324137,2.4273582,0.9692313,-6.289565,-6.163569,-1.8417836,-2.9198437,-0.2582848,2.830846,-0.3944287,-3.312347,-1.0944409,0.75524634,0.08893962,0.122352324,5.531755,0.054524135,2.6169991,1.147749,1.6478964,4.818872,-1.2883408,0.94690514,-0.6411754,0.5676058,1.7062641,-0.8908467,-2.3050866,0.83621806,-3.9630184,-3.8024836,5.0814786,-6.0073104,1.2067052,4.702127,-5.61857,3.6114929,-3.3720841,3.0008216,6.107497,-1.5050471,1.2833008,2.6667202,0.20785508,-0.5071866,2.5638063,-2.9437282,-0.7377252,-2.933006,2.303771,6.2683206,-4.4305444,-1.1478297,-1.7456746,-5.0443826,0.21218085,3.8094847,-0.3362764,4.707993,-3.467607,-3.4184446,-2.5436163,-2.8488896,-4.733861,-3.3327923,-5.441526,-3.660775,-0.079297565,6.1990185,-3.8070266,-0.46976563,2.4801898
NCI-H1573,-0.7666698,-1.5489932,-0.1640339,-1.3198329,-0.06693233,-1.4267193,1.7103449,-3.1121068,2.143322,-2.6557515,0.6250322,-0.4443336,1.9115202,0.8226897,0.954873,2.330727,1.797077,0.46249142,2.1085463,-1.3388442,2.0561411,1.3217134,2.0289056,1.2962922,-1.4118533,0.73715687,0.20673832,-1.7484074,2.6889985,-0.11419933,-0.841764,-0.55596226,-1.6809304,2.0823371,0.77295315,0.39390528,-0.6391435,0.24859397,0.12114865,0.792226,-1.0683064,3.0683033,0.21523654,-3.8141603,4.1405516,0.2815761,-1.9222919,1.9393357,-2.4130406,2.237299,0.066750914,-2.7158518,1.2231709,0.41072777,0.42233175,-2.21079,-3.081986,0.5141248,1.6946566,1.5434252,1.1077006,-0.36450154,-1.7306868,0.9484728,0.8287791,1.5914732,1.4104812,-0.29314056,-0.9210542,-0.38869852,-1.8579845,1.578843,-0.21828966,3.122844,0.21201159,1.0644805,-0.74000764,4.0668206,3.2274947,-1.0264177,-3.5273395,2.564813,-1.0619524,-0.14231998
COLO 741,0.40880546,1.1253142,-0.35383567,2.2949817,-0.51921993,0.39951834,0.9693687,2.215761,-1.1723882,2.573474,-1.4893296,-0.82825524,0.12775104,-0.35686234,-2.5916605,-3.277728,-3.1250672,0.27836466,-0.1985446,2.1650438,-1.9406581,-1.0734824,-1.1867955,1.5174067,1.5646394,-0.82961196,0.5405244,0.78235835,-1.1780796,0.002457789,0.29608464,0.10480724,1.1111335,-1.2709718,-3.0776274,-0.15111667,1.492965,-1.398034,-2.020927,-0.201232,0.6043508,-0.7460346,-0.82493156,0.5718141,-1.0243078,1.0321577,-0.27248687,0.5242531,0.17486267,0.11896039,1.0968707,1.5513648,-0.14828746,-0.8590122,0.6737528,-0.12328102,3.3195386,-3.0199475,0.47235763,-0.80736154,-0.056984458,-0.14628164,3.104879,-0.23567347,0.7940088,0.8829113,0.95818824,0.7947936,-0.0008952358,-0.83239096,-0.96728116,1.3589827,1.075383,-2.9495077,0.17154177,-1.5485317,1.2589587,-0.98250186,-0.043157812,0.3808691,1.7307336,1.0268991,0.27682546,0.782319
Panc 02.13,-2.212402,-2.3377619,-0.31529564,-1.9632517,0.50885653,-2.4307914,1.971968,-3.8174188,4.4924474,-3.5375676,0.5431797,0.0895485,3.5037363,0.10307083,0.062826015,2.464867,2.8024273,1.503354,3.056491,-0.70318234,1.9170241,1.899945,3.8955393,1.6021142,-1.5141555,1.0044894,0.5348243,-2.8849137,3.695958,-1.1185617,-1.2593985,-1.4327383,-2.080881,2.4389434,0.38322043,0.99774325,-0.036132146,-0.121675186,0.4339898,1.265005,-1.090298,4.562204,0.9982302,-5.605758,5.805196,-0.440939,-3.6071916,4.3569794,-3.768185,3.1816053,-0.7822735,-5.633026,1.8596885,0.1734071,-0.2763797,-2.8645086,-3.1494377,-0.24937211,3.1034002,1.8751888,1.8709303,-0.81020063,-3.157937,2.4136472,1.2007703,2.349633,2.5272064,0.19326314,-1.6566604,-0.18740651,-3.9501061,3.1750944,0.36414123,5.1137094,1.2070314,1.4980909,-0.08386869,6.378161,5.7787805,-0.96624196,-4.9936776,3.6191325,-0.75423396,-0.5829648
TE-10,-1.4997956,-2.0162952,-0.83465874,-2.4333005,0.93985766,-2.2945752,1.5840666,-3.374685,4.322904,-4.743959,0.88547134,0.24681658,3.7656815,0.53082407,1.2160283,2.9278545,2.749499,0.80360377,2.9270475,-1.1953071,3.3305886,1.7554464,4.315942,1.2018268,-1.7778664,1.743905,0.22383739,-2.177159,3.8606217,-0.31750095,-1.2401195,-1.0817723,-1.525371,2.9728782,1.8360977,0.446775,-0.28994814,0.8199644,1.2806532,0.15334982,-1.1395472,4.284904,0.87523687,-4.411741,5.522447,-0.41395646,-2.799639,2.6756084,-3.110064,2.5430782,-0.46448278,-5.4143777,1.7192268,0.9645335,-0.14256912,-2.6552396,-4.816506,1.6237468,2.1490455,1.7833462,1.8739833,-0.3960306,-3.3897583,1.8783505,0.66308945,1.7718571,1.8123995,-0.28771746,-1.7702382,0.13562754,-3.0913107,2.0810153,-0.403872,5.7489924,0.8587617,1.6494777,-0.7546986,5.719084,5.426163,-1.3581492,-4.829481,2.937072,-1.6341074,-0.07186707
LOX-IMVI,-0.36625597,-0.108031265,-0.5085229,1.5321082,-0.0169372,0.17285708,-0.22053312,2.1412718,0.08743852,1.8544986,-1.3602321,0.2680781,1.2701472,-0.65309095,-2.748289,-1.9363359,-1.8867964,0.6738744,-0.22446321,2.470777,-1.3897979,-0.83931583,-0.31749183,0.6066622,1.2114788,0.20641425,0.111122705,-0.053204764,-1.0329758,0.19585171,0.778245,1.0392143,0.7979281,-1.4834487,-2.1445968,0.10312816,1.8982364,-0.14634724,-0.86223847,-0.21966252,0.09506878,0.33224767,-0.71335983,0.6595109,-0.7292873,-0.052002527,0.13552496,1.1905439,-0.9152224,-0.30637312,0.5126285,0.058125235,-0.26142144,-0.7419985,-0.06644527,-0.7346633,2.8502748,-2.271697,0.2519941,-0.079190046,1.3250623,-0.19047454,1.6428326,0.43836477,1.0661794,0.17951658,0.53195137,1.2220548,-0.16707668,-0.19620723,-1.0659467,2.0845938,0.663189,-1.2619041,0.8199962,-1.0533116,1.4048399,-0.5236626,1.1395155,1.1743952,1.2926435,0.5128921,0.73576427,0.017230287
SUP-B15,12.642494,6.788829,-1.9586161,0.4173077,0.19197334,9.291471,-4.314841,9.442555,-12.488841,-2.7017303,-1.9508492,-3.4685373,-9.618597,8.169199,6.955479,-10.356535,-9.576332,-6.3237114,-6.76517,-5.9324656,10.502209,0.14984815,-5.6131744,-7.642067,-2.315181,1.3349143,-0.0047144303,15.16368,1.4360385,9.376444,3.951024,2.838724,16.020634,0.4137534,6.7817216,-1.1149713,-1.494238,8.538973,3.4417374,-9.821091,3.4854481,-9.976654,-6.712635,14.786332,-16.155792,2.3864105,14.510533,-17.68159,12.515218,-12.865288,6.074391,13.591132,-4.8555427,6.2140036,7.0125017,3.4701507,-6.5750523,13.284274,-12.656701,-2.2670455,-8.507908,7.551452,8.751961,-11.917634,-7.181116,-6.327072,-15.913145,-0.31417575,9.862154,-0.86753285,15.018464,-12.907631,-13.091136,-0.6209982,-7.5185046,-7.022332,-8.845405,-14.722325,-11.606941,-2.6401324,13.440445,-11.598168,-4.0332203,7.890866
EJM,8.046308,3.7809327,-0.74226904,0.9383848,-0.4189687,5.0313087,-1.7388046,5.8199286,-8.209599,-1.1131827,-1.5026374,-2.530065,-6.078499,4.882629,4.863524,-6.320763,-7.017125,-4.1992993,-4.501096,-3.8204505,6.4721556,0.44125497,-3.3209457,-3.5065744,-1.2784234,0.48609775,-0.57594645,9.229151,1.6053339,4.900595,1.9068427,2.3410606,9.132061,0.01948064,4.0768757,-1.0284854,-0.8499575,5.1099715,0.79203707,-4.917851,1.7215648,-6.1981907,-4.6225953,7.927718,-9.638715,1.6178157,8.089538,-11.134848,7.6309867,-6.6036954,4.1979184,8.209255,-2.2304084,3.7529628,4.3526073,1.1051812,-4.752055,7.7292533,-6.872312,-0.787903,-5.8644104,4.46249,6.6190405,-7.902933,-3.644981,-3.41563,-10.290992,-1.2777467,6.7033973,-0.53771824,9.120728,-8.374211,-7.595421,-0.7038144,-4.8388667,-5.241417,-6.1514115,-8.047566,-6.797334,-1.1384733,8.618579,-7.449802,-1.9462342,4.426061
HDLM-2,5.950822,2.789772,-1.341647,0.55557084,0.055551518,3.4700034,-1.7435005,4.871281,-6.50184,-1.5340008,-1.3757915,-1.9610795,-3.955689,4.3016567,3.253618,-5.816319,-5.968835,-3.0573714,-3.2604966,-2.1485367,5.0129876,-0.09833848,-2.3560588,-3.176878,-1.0817031,0.84979373,-0.7869111,6.5931664,1.5315496,4.7895284,2.292639,2.321176,7.261111,0.27933502,2.4449208,-1.0044073,-0.08728493,3.5229614,1.6761101,-3.9128647,0.98497885,-4.05049,-2.4813998,5.3242407,-6.781646,1.0262297,6.183227,-8.0143,5.1868663,-4.8575373,2.4600327,6.5256433,-2.143365,2.685223,3.4465463,0.7225609,-2.4957108,4.9238734,-4.996079,-0.26387414,-4.3637486,3.1752212,5.31964,-5.595301,-2.3100207,-1.8802183,-7.2407985,-0.38892856,4.2445335,-0.23014773,6.875798,-6.1508565,-5.808405,-0.9019033,-3.039269,-4.5458937,-4.2329974,-6.3005476,-4.8583894,-0.9364258,7.2505856,-4.902043,-1.946909,3.500795
DEL,2.9907417,2.2299483,-0.45282564,0.68378526,-0.28764305,1.8959174,-0.32140946,3.0895472,-2.968446,0.31899422,-1.2120156,-0.919761,-1.7356513,1.6319615,-0.055863414,-3.995754,-3.09607,-1.2012563,-1.1739287,0.056513436,1.3031025,0.15196991,-1.5168062,-0.17208602,-0.14259402,0.10788751,0.20437162,3.6584044,0.23350807,1.6944495,1.208024,0.60244894,3.7641208,-0.13168891,-0.26064938,0.15750259,0.75756645,1.0003271,-0.026662823,-1.4583293,0.6016596,-1.8164376,-2.023533,3.0481603,-2.7511249,0.92515427,2.7606485,-2.9444005,1.6403553,-2.4184716,1.8340801,3.1262314,-1.6014462,0.83389515,1.760476,0.17554224,0.29487863,1.0504509,-1.5203925,-0.54425836,-1.5389286,1.5306772,2.6915603,-2.2672153,-1.0002623,-0.010763376,-2.856068,0.8200629,1.9168098,-0.78777045,2.4933498,-1.53813,-2.457394,-1.2328898,-1.2102753,-2.606126,-1.5756111,-2.8540728,-1.8821851,-0.6263956,2.919262,-1.3216325,-0.79115677,2.3563647
MHH-CALL-3,12.768545,7.1947665,-2.0660768,0.6370995,0.288047,9.5227375,-4.866361,9.98793,-12.705362,-2.545005,-2.499319,-3.1809301,-9.772403,8.120089,6.5117598,-11.049792,-9.927155,-6.137532,-6.975418,-5.696525,10.6211405,-0.24749339,-5.8131557,-7.92843,-1.9185181,1.250588,0.043193247,15.549801,1.494507,9.518919,4.4332533,2.7448049,16.38389,0.10288911,6.497083,-1.2963128,-0.66643655,8.169355,3.326233,-10.292911,3.344456,-10.342165,-7.006025,15.237439,-16.506126,2.3035898,14.985397,-17.899242,12.645153,-13.18713,6.022492,13.875687,-5.084765,6.144825,6.82608,3.4940312,-6.1371617,13.214668,-12.8477545,-2.5717359,-8.59563,7.7053204,9.17313,-12.234454,-7.6055903,-6.8778577,-16.245594,0.09444475,9.856491,-0.550073,15.110819,-12.711257,-13.269653,-0.80007815,-7.6643043,-7.337429,-8.978852,-15.0551195,-11.977757,-2.3936844,13.940382,-12.042173,-4.2500405,7.930905
NCI-H1299,-0.16749379,0.171984,-0.22416979,1.0849829,-0.4859407,0.15005873,0.14821957,1.7349714,-0.38269234,1.8022524,-1.2146195,-0.119978316,0.6623714,-0.41017497,-2.0271487,-1.6908164,-1.7420602,0.26422596,0.027290639,1.6717751,-1.0018704,-0.4516082,-1.013698,0.84392285,0.9993893,-0.17325284,-0.16396257,0.08889783,-0.56644255,-0.009454873,0.2413421,0.9897843,0.25552985,-0.91245675,-1.6979599,-0.11402265,1.3193066,-0.43555292,-1.5665745,0.5318037,-0.16348326,0.1280569,-0.9663072,0.16791809,-0.5928597,0.24846594,-0.23409359,0.77544534,-0.8853172,0.32284823,0.5640424,0.6318368,-0.10563502,-0.7333372,0.2662888,-1.070938,2.2413645,-2.0522244,0.61124986,0.1965048,0.9043296,-0.3372671,1.7702833,0.06687767,1.2801206,0.36843336,0.77187157,0.93154615,-0.05539321,-0.386038,-0.7006926,1.704143,0.7603677,-1.4904304,0.23874351,-1.1555386,0.59218514,-0.09437832,0.7100456,0.82287544,0.9307902,0.8120217,0.74896514,0.13571127
NCI-H69,-1.7004395,1.0381627,1.2800468,4.3516545,-2.4811432,-1.4624268,2.3181632,3.9514973,-0.65499437,6.3942113,-3.806476,0.18629625,1.8764644,-2.4338644,-7.109139,-5.617878,-3.522964,2.4719641,1.5925006,4.8895326,-4.3550863,-0.84773374,-3.2940125,6.2579055,2.8477166,-1.140705,0.23143376,-0.76583743,-0.93383646,-2.567496,-0.9196166,-0.6012296,-2.1772594,-1.7154516,-7.491832,-0.13187534,3.5306392,-5.804506,-6.064781,3.365616,-2.5957818,1.2448695,-1.9462484,-2.3282282,2.881129,0.72071683,-3.8819408,5.511931,-4.275777,3.0151215,1.8681129,1.6278006,0.9205587,-3.5506735,-0.3830864,-3.540686,6.858903,-7.8018584,5.8212743,0.8439438,2.3394225,-2.2585726,5.4629,1.5809313,3.9507637,2.573329,4.459616,2.7680578,-1.1747833,-1.2239081,-3.3999863,6.758229,5.1745157,-6.2835836,1.3610327,-4.0932593,1.2151799,2.0852995,3.2737863,0.79953384,-1.0302337,6.092607,0.7208725,-1.1751589
SH-4,0.11373304,0.80265,-0.115373805,1.896629,-0.82701176,0.41350964,1.4011375,1.7829617,-0.7521523,2.883045,-1.378588,-1.0234187,0.55740494,-0.42884877,-2.5027113,-2.728548,-2.9056642,0.04573908,0.5218591,2.1412995,-2.1213634,-0.42593423,-1.2379507,2.0820458,1.1479102,-0.7521736,0.5222521,0.073963314,-0.91951966,-0.3070918,-0.15278564,0.36715814,0.67249393,-1.0885882,-3.0803704,-0.07099144,1.511994,-1.4608542,-2.4756324,0.3315675,0.5910545,0.045143865,-0.8134547,-0.055853415,-0.3658036,1.0563961,-0.5975043,0.9876421,-0.49168184,0.39815253,1.3451364,0.97329056,0.11035881,-0.6818481,0.74393445,-0.6614042,3.4237077,-3.505169,1.1460615,-0.27351695,0.3032264,0.06915295,2.8343046,0.21167202,1.1561675,1.5528433,1.494937,1.0509232,0.075694755,-1.1196827,-1.5961335,1.8590795,1.3636445,-2.6816478,0.28589028,-1.5165453,1.3377613,-0.016928885,0.97282946,0.49809223,1.1315469,1.503022,0.5306502,0.80593234
HSC-4,-1.9327495,-2.7943745,-0.31356013,-2.6480103,1.2169676,-2.8701446,1.7340702,-3.9943063,5.2564945,-5.8705606,0.85801446,0.7152698,4.22273,0.36275187,1.9477886,3.600367,3.111663,0.89842284,2.9310317,-1.998683,4.1490493,1.5608326,4.8016024,1.00398,-1.6550337,1.8842455,0.20936297,-2.4802387,4.4885106,-0.9404272,-1.4200746,-0.95334244,-2.1677325,3.1094127,2.5271397,0.42997962,-0.83483785,0.909796,1.2556424,0.15154098,-1.6472161,4.947735,1.058712,-5.1681447,5.8517632,-0.65982586,-3.7540622,2.8063912,-3.0064344,3.1593266,-0.8502181,-6.450241,2.04169,1.0401565,-0.3390604,-2.7206876,-6.4665713,2.5439594,2.5424683,2.3645153,1.8807491,-0.50769377,-3.9696982,2.1838224,0.37407404,1.406338,1.9957017,-1.013462,-1.4216787,0.51950103,-3.5475674,1.6175567,-0.16647795,7.000397,0.9516445,1.7964051,-1.5319685,6.8117404,5.9367566,-0.9684236,-5.475851,2.881971,-1.6604754,-0.37049237
DLD-1,-1.2251111,-1.2258075,-0.69341254,-0.16070004,0.36586145,-1.3475409,0.9241085,-1.5836099,1.720556,-0.94905406,-0.4310263,-0.002460284,2.0517619,-0.09232323,-0.323116,1.1008497,-0.060697515,0.9260243,1.1067845,0.12871332,0.59590036,0.40627772,1.1073148,1.1379099,-0.22187376,0.78812075,-0.5344378,-1.9470652,1.5435638,0.30449593,0.06160056,0.2208142,-1.5950626,0.8113997,-0.56112033,-0.2682925,0.85336334,-0.101299964,-0.084779,0.3972124,-1.0762919,2.5852833,0.570578,-2.8642771,3.0323172,-0.54070365,-1.5582247,2.2003036,-2.55897,1.8921744,-0.33820763,-1.8888079,1.1579652,-0.28843927,-0.115596965,-2.2778478,-0.48556012,-1.0999098,1.2278478,1.5059278,1.5587643,-0.89325434,-0.5248685,1.6059037,1.4820585,0.91338605,2.189236,0.08190539,-1.3717753,-0.007478841,-2.1694238,2.2331,0.859945,1.0627961,0.99503094,-0.04485364,0.18999472,2.8505456,2.6045873,-0.111015216,-1.8898921,2.2551856,-0.47745872,-0.6141985
Ri-1,14.214826,7.2653923,-2.3109407,0.038715955,0.38063022,9.6873865,-4.320726,8.6272955,-14.357821,-4.3340144,-0.8456096,-3.7228467,-11.058422,10.218813,8.91388,-10.785661,-10.427893,-7.313566,-7.484384,-8.092393,12.391299,0.9535113,-5.328598,-8.813419,-3.4634368,1.6623108,-0.5782704,16.560202,2.5417984,10.833487,4.6269336,2.9556398,17.701056,1.5570266,8.0924225,-1.5215454,-2.0018525,10.565698,4.6015744,-10.929722,3.0666966,-10.881433,-6.7365756,15.190597,-16.899416,2.3214793,16.477127,-20.122477,14.104238,-13.464235,6.2359066,14.986762,-5.0776415,7.5985413,7.8950043,3.6880774,-9.104736,15.689838,-14.249559,-1.8389343,-10.105625,8.304861,9.146624,-13.955975,-8.968117,-7.1972117,-18.415117,-2.1969817,10.478499,-0.48869506,17.086512,-15.534124,-15.671865,0.10474798,-8.029361,-7.211924,-10.701656,-15.547982,-13.558943,-4.0898876,14.9119625,-13.117311,-5.7698193,8.769421
EB1,16.81503,7.891345,-3.5532408,-1.091327,0.926351,11.151003,-5.2644796,9.36418,-16.645815,-6.440275,-0.25005105,-4.989117,-13.104904,13.017515,12.295168,-11.513866,-11.758236,-8.769266,-8.753388,-10.641811,16.048565,1.6505777,-5.330757,-10.896837,-5.0274343,2.1329584,-1.396414,19.160526,4.209359,13.254116,5.182042,3.890614,20.728966,2.6151316,10.763994,-2.176693,-3.269828,13.390201,6.4296074,-13.168648,3.8910172,-12.383692,-7.37962,17.655571,-19.444996,2.305118,19.675663,-24.553371,17.131453,-15.890591,6.9997773,16.815102,-5.5674143,9.59361,9.743001,4.049349,-12.3519945,19.631186,-17.332624,-1.6188005,-12.403809,9.970094,9.911778,-16.379408,-10.445292,-8.36547,-21.926443,-3.197366,12.725363,-0.5237821,20.48465,-19.599056,-18.975199,1.4158151,-9.640035,-8.131879,-12.826172,-17.945286,-15.478519,-4.884387,17.222832,-15.794164,-6.9124494,10.89191
NCI-H650,-0.53784066,-0.22309741,0.18455057,1.5007377,-0.093379594,-0.21906738,0.3223477,1.5357894,0.5536696,2.1060145,-1.5600507,0.5060692,1.4616432,-1.2147046,-2.353109,-1.241795,-1.300457,0.5871644,-0.33914384,2.3387256,-1.696399,-1.108074,-0.2848718,0.73402745,1.6071205,-0.20235871,-0.025036242,-0.5799628,-1.0432925,-0.6353496,-0.023356419,0.76136494,-0.34537268,-1.5768512,-2.055287,-0.027188534,1.6203526,-1.0407449,-1.7216175,0.6068818,-0.2455312,0.6810824,-0.54328537,-0.014980097,-0.24612369,0.13869788,-0.71255815,1.6926193,-1.0471061,0.59970355,0.24144933,-0.43931234,0.33427674,-0.8846443,-0.36649415,-0.5337877,2.5598698,-2.532428,0.9513303,0.12721625,1.3600513,-0.42666677,1.3861265,0.9648991,1.053988,0.18976511,1.1758074,1.2387121,-0.028490553,0.04891481,-1.6234062,2.139882,1.1225884,-1.1503332,0.59708464,-0.8441493,1.409814,0.26905286,1.5060498,1.2773035,0.73450017,0.49022526,1.0601867,-0.24470581
H4,-1.4189237,-1.0562251,-1.028685,2.3574197,0.14654665,1.1600775,-0.95062655,3.1646886,-0.17389323,4.271481,-2.0442045,-0.5474209,0.92794794,-1.5737069,-3.8588114,-1.7099085,-3.2117634,0.31395376,-1.0185677,4.064671,-3.1289363,-1.7513028,-1.442664,-0.49393213,2.9639432,-0.3357643,-0.65204215,-1.7646158,-2.7710054,1.5920154,1.827046,2.8727574,0.21559682,-4.02604,-2.8237333,-0.6644353,2.8815246,0.29289252,-1.5150229,-0.15045217,1.1787156,0.33620015,-0.44789162,1.665151,-2.5931447,-0.39792228,0.4846656,2.5222182,-0.66679066,-1.5145452,-0.14525937,0.6441772,-0.56450844,-0.766559,0.5409203,-0.28385907,5.7159524,-3.8612328,-1.4828624,-0.59289324,2.1921878,-0.23859718,2.541928,0.4772602,2.6356375,-0.26007575,1.1705648,2.1971986,-0.34572554,0.16488744,-1.1431974,3.350268,1.8594184,-3.1630235,0.9778805,-0.7832191,3.3963242,-2.0588102,0.380832,2.816387,3.1027093,-0.40006226,2.8609989,-0.31541446
COLO 320,-0.7451858,0.9292193,-0.73048794,3.0109572,-0.38444677,0.1295345,-0.46677604,3.7429678,-0.64407724,3.085975,-2.8371146,0.48509967,1.2548797,-0.8407752,-3.7436304,-4.177619,-3.8426745,1.128261,-0.43099892,3.339636,-1.6704203,-1.1657046,-2.0537374,1.6584606,2.0532622,0.6961879,-0.19294003,0.3756484,-1.1664746,0.14514653,1.0042005,1.1268046,0.91269475,-1.4774309,-3.3711166,-0.4751532,3.1773746,-1.4931839,-2.0097253,0.04117637,-0.97991806,0.057482317,-1.3861687,1.2738495,-0.4423005,0.3876991,0.08978096,1.8343675,-1.9014541,0.08463784,0.85550314,2.255515,0.35111216,-1.6017828,-0.20185788,-1.9358705,4.056296,-3.6238163,0.9208625,0.15231532,1.4001361,-0.98754823,3.9077802,0.63645464,1.657675,0.37816545,1.8061248,2.007735,-0.44115716,-0.23863013,-1.2608674,2.9736195,1.8274466,-3.804002,0.90724593,-2.780161,1.1636885,-0.96373487,0.921059,0.98887134,1.7021843,1.511325,0.35682926,0.15188818
MM1.S,8.864533,3.9582748,-0.47495988,0.94173914,-0.7360383,5.250485,-1.4829772,6.4887114,-9.352373,-1.1278032,-1.5791614,-2.8434136,-7.1555877,5.478804,5.366143,-6.9877367,-7.4486036,-4.711658,-5.019919,-4.3457527,7.006282,0.6660623,-4.1857386,-4.0009384,-1.4627217,-0.15773514,-0.11505287,9.969669,1.7983464,5.036149,1.6349432,2.4577878,9.244838,-0.13395095,4.8366165,-1.0481629,-1.4339442,5.2137537,0.5700159,-4.7004976,1.8969122,-7.112017,-5.092258,8.337295,-10.823319,1.8645904,8.8258295,-12.286003,8.441737,-6.848118,4.9738574,9.432239,-2.875901,4.090109,5.453693,1.525111,-5.0430393,8.765992,-7.2960787,-0.92980254,-6.711276,4.923052,7.5087447,-8.936834,-3.887322,-3.5525832,-11.069124,-1.5194061,7.4223948,-0.68897426,10.259361,-9.6769705,-8.109188,-1.459343,-5.7703185,-5.492746,-6.8385987,-9.089072,-7.501459,-1.4986628,9.342625,-8.1568,-1.6698551,4.57328
NCI-H2023,-0.30046523,0.018104153,0.625529,0.09389957,-0.7249532,-0.3525959,0.8766475,0.18172938,0.69750583,0.8217553,-0.608923,0.055381723,1.002163,-0.5381186,-1.0734284,-0.0062301285,0.23028621,0.24606524,0.7328613,1.1140466,-0.54413146,0.20786573,-0.27424264,1.3980668,0.36515456,-0.11687354,0.24297048,-0.46811497,-0.030625721,-0.9165961,-0.4563794,-0.049667906,-0.61292166,0.43613425,-0.96922636,0.40237492,0.6328151,-0.7595267,-1.4818872,0.97562367,-0.4359559,0.8484691,-0.6791431,-1.1569325,1.2444408,0.5835898,-1.2571934,1.6641808,-1.3246875,1.2776748,0.6366992,-0.6572649,0.36855328,-0.3013308,-0.010771754,-1.2285454,1.0055813,-1.4568194,1.609231,0.47640416,0.98917717,-0.042807676,0.047894705,0.9723223,0.5914284,0.6888167,1.170934,0.9590296,-0.18907368,-0.44234708,-1.4454819,1.8507543,0.6379384,0.25973275,0.12827691,0.1268907,0.29716286,1.4435221,1.848795,0.38953403,-1.0952315,1.453514,-0.12943164,-0.19389656
NCI-H441,-1.1631297,-1.6954075,-0.34044266,-1.1570758,0.3548404,-1.7676052,1.0776403,-2.6221628,2.1621177,-2.6244593,-0.011559957,-0.10131693,1.8642436,0.19711652,1.190346,2.125568,0.7859991,0.51783425,1.0950146,-1.2114125,2.03309,0.5504346,2.0989966,0.4077642,-0.7745542,0.7733043,-0.1022339,-1.5601425,2.53399,0.003491035,-0.6086162,-0.049498998,-1.63369,1.5096333,1.2301208,-0.24253775,-0.082855016,0.10756752,0.036166634,0.45770174,-1.182184,2.764388,0.55837715,-3.7361271,3.1646037,-0.57633746,-2.0122087,1.5502234,-1.7621229,2.2970514,-0.6251862,-3.035819,1.5203354,0.06671859,-0.13520685,-2.2419043,-2.8015897,0.48761338,1.28838,1.8508885,0.5769397,-0.7381501,-1.22155,1.2442428,1.0564423,1.0140216,1.2907327,-0.60073966,-0.60037094,0.17033423,-1.8442166,1.0101424,0.15694013,2.7841632,0.40590528,0.304535,-0.9159186,3.7300496,3.1192317,-0.4494093,-2.496302,1.3516582,-0.5355629,-0.5335164
CAL-148,-1.0299746,0.055719264,0.39452156,1.3487887,-0.5756198,-0.9127493,1.451049,0.3493373,1.2664895,0.5468238,-1.3810941,0.15829867,1.9279442,-0.1806292,-2.4305222,-1.035468,-0.7253635,1.2532929,1.3331829,1.8860683,-0.45821002,0.45563614,-0.22212747,2.9741998,0.41519246,0.6654602,0.31615162,-0.89546853,0.456089,-0.7870049,-0.40649837,-0.4470632,-1.0467205,0.55550414,-2.3405855,-0.1252993,2.114617,-1.6650298,-1.5122288,0.78743654,-1.8026152,1.7479533,-0.61179274,-1.9388069,3.0850782,0.4102682,-1.6218405,3.2880857,-3.1033614,1.5693741,0.6852792,-0.5135907,0.88282025,-0.8662516,-0.1180571,-2.443994,1.271173,-3.1586711,2.6585088,0.96034855,1.9761112,-1.1300611,0.915393,1.4419519,1.1881007,1.6868932,2.2761943,1.0404524,-1.5145544,-0.7139029,-2.191397,3.5407135,1.5139326,-0.65724885,0.9836452,-1.0408156,0.02751802,2.644813,2.669522,-0.16194777,-1.9289256,3.5772016,-0.56531835,-0.109420225
NCI-H1650,-1.2133318,-1.5666976,-0.053868327,-2.2277148,0.45987588,-1.5578479,1.4886018,-2.5188198,3.725678,-3.2864635,1.0640272,0.24928759,2.8731732,0.7191669,0.12659419,2.181076,2.4490986,0.68977386,3.0418081,-0.47233644,2.2321565,2.0008042,3.211338,1.5548171,-2.0550187,1.4393266,0.48076648,-1.673742,2.7691007,-0.8586901,-0.83506787,-1.167223,-1.0504677,2.8912141,0.8392233,0.8132986,-0.041127123,0.8543098,0.5414345,0.22255997,-0.852788,3.9986734,0.53123665,-3.6608155,5.010027,-0.17294787,-2.1407113,2.946665,-3.097764,2.1886947,-0.050907392,-4.5516653,1.049043,0.8936752,0.16975458,-2.2769895,-3.2939525,0.3782318,2.101497,1.471345,2.1643004,0.10650144,-3.0186722,2.0260081,0.4743614,1.8708236,1.8916868,0.31474093,-1.4128227,-0.31464416,-3.157305,2.6435246,-0.6096483,4.827357,1.299922,1.6810818,-0.35391513,4.853584,4.8345246,-1.0323827,-4.4032826,3.250778,-1.4172531,0.25231597
8-MG-BA,-1.0004301,-1.0894868,-0.6103058,2.3109586,-0.35099748,1.3332324,-0.6813333,3.0376263,-0.47626,4.5713477,-2.4326437,-0.8185668,0.50548273,-1.6878406,-3.6439922,-1.9705182,-3.2229056,-0.0072729597,-1.2954189,3.8261366,-3.1966205,-1.7379847,-1.7202106,-0.3167173,2.9331338,-0.7235439,-0.58519095,-1.7112828,-2.9157984,1.2465647,1.5057421,3.0156846,0.18841718,-3.9145977,-2.619124,-0.6134309,2.8016124,-0.1135432,-2.0053315,-0.08474882,1.266501,-0.20107141,-0.60873497,1.6185272,-2.6387954,-0.19581032,0.22657818,2.0659554,-0.19702922,-1.5764924,0.26852554,0.93464375,-0.7872499,-0.9324239,0.81473464,0.055479705,5.626455,-3.8493574,-1.3308392,-0.7265184,1.5505774,-0.15722755,3.0840693,0.09494028,2.6607494,-0.2519378,0.8125898,2.092372,0.40239996,0.029026438,-0.9274015,3.0043674,1.8717782,-3.5013578,0.41969147,-0.9989232,3.0970693,-2.061593,0.026926052,3.0892751,3.5548224,-0.8673396,3.1495192,-0.34159076
TCCSUP,-1.790002,-0.87373644,-0.27037674,2.461233,-0.27340898,0.30245093,-0.13433634,3.365881,0.3882633,4.2751765,-2.443376,0.0059609134,1.7599653,-1.8969789,-4.120735,-2.1353874,-2.7929993,1.0822259,-0.46810165,4.196717,-3.2009695,-1.7202731,-1.2125397,0.7887307,2.8172107,-0.3795707,-0.51206636,-1.5074581,-2.0958118,0.41900542,1.0205748,2.1180966,-0.51672083,-3.2938046,-3.2161248,-0.7235564,3.2483127,-1.1411574,-2.3622794,0.84672385,0.34890196,0.9513373,-0.5554209,0.3899945,-1.1632341,-0.31034124,-0.7631236,3.4359844,-1.891023,0.08195653,0.23949437,0.095210485,0.26451653,-1.4824365,-0.0131969135,-1.1862271,5.418392,-4.167186,0.42990187,-0.1347692,2.1511176,-0.8236288,2.6048055,1.2973704,3.077355,0.027891174,2.2047489,2.1813774,-0.4665636,-0.038921688,-2.0466263,3.9575968,2.275742,-2.763477,1.1452681,-1.1342214,2.7656145,-0.35921595,1.5401473,2.941267,2.137027,0.8892791,2.458299,-0.7867465
SNU-478,-0.99347985,-1.4831084,-0.19769815,-1.9295775,0.21581668,-1.7007102,1.67952,-3.2046607,3.0309875,-3.3111324,0.6532322,-0.09149921,2.2598026,0.7280509,1.0873476,2.3846154,2.1224277,0.5639627,2.5160117,-1.3057873,2.4956048,1.673338,2.5121582,1.4186021,-1.7426115,1.088749,0.3213596,-1.9052347,3.0409026,-0.37113228,-1.2437665,-1.0488993,-1.5480187,2.4420307,1.0963582,0.4606382,-0.37276995,0.46276048,0.2911748,0.59613204,-0.980807,3.4268491,0.49045295,-3.9900823,4.5954027,-0.055783883,-2.1635032,2.2892978,-2.5387316,2.1867504,-0.21182592,-3.8127904,1.116993,0.66169065,0.16174307,-2.2117305,-3.6862068,0.71051526,1.8778342,1.7535691,1.2966546,-0.26654303,-2.564608,1.3591003,0.46843886,1.738489,1.4686972,-0.107477136,-1.1122044,-0.20575592,-2.2245557,1.7987919,-0.44515035,4.223035,0.49947467,1.2272111,-0.8520462,4.6664996,3.9014752,-0.9880187,-4.2122517,2.8227496,-1.2432929,-0.009297678
BICR 18,-1.1810639,-1.6491872,-0.7625199,-2.40716,0.9676291,-2.0177708,1.5626487,-3.1964693,3.937752,-5.4402733,1.0609784,0.44565827,3.323977,0.76825136,1.5758932,2.5546975,2.592238,0.7329107,2.9473548,-1.9148102,4.0130773,1.7820014,3.996619,1.2354004,-1.8527021,2.0907803,0.105827644,-1.6016666,4.0876746,-0.14266627,-1.0039859,-1.182453,-1.1713388,3.1252534,1.8165601,0.5383767,-0.7602448,0.7695792,1.4101144,0.05167306,-1.458526,4.2022743,0.74150115,-4.0369463,5.2774196,-0.25224409,-2.5827618,2.1158628,-2.8460371,2.3770888,-0.3706038,-4.864162,1.4527892,1.1499674,0.054780293,-2.3648531,-5.4229045,2.1976295,2.1131353,1.7821505,1.6597794,-0.35837626,-3.4042964,1.6420331,0.096955486,1.6753117,1.6499707,-0.61880255,-1.5109575,0.22152145,-2.8530986,1.5778631,-0.48771784,5.7929673,0.86061925,1.4156854,-1.34489,5.5100975,4.753746,-1.6474254,-4.7067885,2.9754088,-2.1855662,0.26795352
Hs 172.T,-3.8800747,-2.5945237,-1.2734718,4.776682,0.5075015,1.3141705,-1.9931506,5.930025,1.0871459,8.05544,-4.0427084,0.0037539753,3.0079126,-4.2048693,-7.3058105,-2.2820706,-4.804822,1.0413127,-1.4196464,8.012789,-7.0379944,-3.945602,-1.4374355,-0.2473567,5.7805047,-0.02640172,-1.4247024,-3.9649804,-5.545724,1.2985419,2.914096,5.000141,-0.65938866,-7.4210596,-5.368856,-1.1822366,5.969195,-0.49353257,-3.148155,0.0565823,1.9273171,1.4976237,-0.29494253,2.1004643,-3.1905127,-1.0310879,-0.4762866,5.6352377,-2.2181044,-1.844141,-1.1013062,-0.5855503,-0.2880502,-2.2278793,-0.22495112,-0.42582145,10.9895315,-8.04367,-1.5020877,-1.0538164,4.741901,-0.9154069,3.7651927,2.4636521,5.279215,-0.8425508,3.6890662,3.5795288,-1.0557148,0.97112507,-3.811159,6.944433,4.3039813,-5.257724,2.8650863,-1.0740606,6.750794,-2.5642347,1.5933449,6.0421677,4.6686807,-0.46447545,5.7694864,-1.6765063
Hs 895.T,-4.8057666,-3.1790936,-1.8558288,5.575936,1.0329269,1.6625122,-2.84196,7.3130593,1.676488,9.349592,-4.6326594,0.43952185,3.7366586,-5.0956826,-8.613575,-2.5853024,-5.3931994,1.3465385,-1.996543,9.758696,-8.312093,-4.8849893,-1.2837472,-0.5342643,6.815656,0.5639044,-1.8074069,-4.6965704,-6.7772126,1.791744,3.4462192,6.1058874,-0.5425112,-8.575128,-6.023615,-1.4488479,7.59974,-0.15817617,-3.106836,-0.5235577,2.5182202,1.7318332,-0.18713707,3.121349,-3.9782262,-1.8320342,-0.007868651,6.56765,-2.5986454,-2.5496664,-1.6317059,-0.8892698,-0.20935662,-2.6078377,-0.5761311,-0.21653941,12.677999,-9.56973,-2.0743363,-1.2059985,6.1382413,-1.1004838,3.6461973,3.3894143,5.954029,-1.3813771,4.4927197,4.2073555,-1.4364562,1.5747865,-4.282411,8.280505,4.9884276,-5.671943,3.8432,-0.8175814,8.168709,-3.5698564,1.9986463,7.701174,5.5512013,-0.94754964,6.612056,-2.1347685
KYSE-180,-0.7023944,-0.69961154,-0.5165196,-1.7600613,0.5572541,-1.0828984,1.111346,-1.3475511,3.0050023,-3.0033824,0.6019168,0.2527735,2.7131815,0.4459292,0.113473564,1.168658,1.5495294,0.3975826,2.4820096,-0.15667488,2.4671764,1.5155512,2.9283247,1.6081358,-1.1228983,1.9843514,0.1538229,-0.9908259,2.2936144,-0.300933,-0.6217972,-0.49400443,-0.28801513,2.349246,0.81166273,0.4778277,0.24300982,0.5455452,0.744239,-0.30396116,-0.81689316,3.1277723,0.20431788,-2.1942334,3.7242115,0.03142904,-1.5803698,2.040823,-2.4285772,1.2926526,0.17093544,-3.4498782,0.649189,1.0741243,0.28241947,-1.7446345,-3.101849,1.0562291,1.8899112,1.0925456,1.8182222,0.10223208,-2.1723962,1.4435968,0.10511525,1.5252103,1.483077,0.2502101,-1.2805164,-0.1263563,-2.4482336,2.03326,-0.13108045,4.085874,0.8836768,1.1095946,-0.6892765,3.630372,4.0385227,-1.0224388,-3.328221,2.5908194,-1.7885796,0.5611148
SNU-1040,-4.2525067,-13.783937,1.5226365,-5.0965705,-2.4898522,-11.269135,11.89139,-22.999401,11.582466,-9.456899,-1.7664582,-3.3832226,1.3454324,0.93914044,8.516827,15.702071,9.902324,2.2668612,-1.6145046,-12.479338,1.7055924,2.0306613,10.026443,-5.955683,-3.5324147,-7.4352193,3.0902276,-15.523447,12.066395,2.4047174,-3.9812226,-2.8137767,-11.092509,1.2925925,6.2321544,3.5329387,-7.4577174,4.5469317,-0.8151447,9.6421795,-3.2326436,5.6384997,3.777457,-21.003845,11.205105,-0.23393796,-7.359561,8.360624,-0.25036496,11.206832,-6.2774944,-16.241955,5.1966867,2.3648782,-1.4441466,-1.3340052,-12.307833,5.6765995,-1.9430617,4.551568,-4.1591306,-5.879025,-8.84592,1.7020706,-1.5840815,1.8927108,2.1445374,-7.293582,2.318317,-0.57849973,-4.00982,-3.5242836,-1.8392631,12.859497,-6.464672,7.144899,1.162187,17.343168,6.5156054,-3.7713537,-11.402142,-2.0053246,4.207766,-5.8508644
UOK101,-1.1134721,0.16096218,0.26477143,1.4754406,-0.62029666,0.5526367,0.28381488,2.1421201,0.99998146,3.3430533,-1.2090757,0.47534406,1.6062815,-1.6249608,-4.3379736,-1.4514673,-1.1448743,0.7304979,0.59372646,3.759187,-3.2454617,-0.53623164,-0.50587994,1.6479658,1.6154523,-0.16563854,0.4611996,-1.1492176,-1.8814174,-0.7984333,0.5565955,0.4831191,0.13209139,-1.3711956,-3.402149,0.5698333,2.612603,-1.3106565,-1.9875703,0.81906796,0.32184798,0.8620176,-0.6052024,0.112659164,0.374116,0.5683574,-0.66675985,3.5068853,-2.0696673,0.15232718,0.44596887,-0.6836542,-0.22058572,-1.1093457,0.019740928,-0.4110815,4.9689255,-4.3840165,1.3040609,-0.50454146,2.6128027,0.02876267,0.78106207,1.6351832,1.4031599,1.0069957,2.2648911,2.3494334,-0.7240188,-0.5872819,-2.3881469,3.979803,1.4487857,-1.7979186,1.3866874,-0.14336002,2.6315687,0.34688604,2.116566,1.3097252,-0.12938778,1.8788251,1.111705,-0.0067449617
MDA-MB-175-VII,-0.69218874,-2.1476967,0.6489645,-1.5768758,-0.92473036,-1.6068237,2.6140647,-2.9525433,1.986391,-2.0316675,0.14254518,-1.2518781,1.6362361,0.6199622,1.5831938,2.7320693,1.5701277,-0.13332582,2.205856,-1.3110859,2.151034,1.1695255,1.0475376,1.8675039,-1.3522509,0.085594155,0.4818058,-1.6622415,2.6744866,-0.5200236,-1.4336749,-0.16629718,-2.4057105,1.705229,1.3598555,0.33521664,-0.6380926,0.21924016,-0.90119004,1.3745753,-1.3240505,2.8929012,-0.26565105,-3.9354315,3.5049763,0.34040236,-2.2317455,1.4060206,-1.9256047,2.0968733,0.6773851,-2.4158993,1.4756997,0.8084808,0.6372019,-2.6734455,-3.1054072,0.5238427,1.8683742,1.9173301,0.5587772,-0.0018610193,-0.59833974,0.76229167,1.6404887,1.9206978,1.1501245,-0.27448323,-0.23350659,-0.67463356,-1.7658185,1.6592215,0.07639779,2.7096107,-0.40121073,0.5647471,-1.6164275,4.136357,3.1264925,-0.48725027,-3.127496,2.7993665,-0.031706378,0.002156162
MDA-PCa-2b,-0.8663449,0.1736208,0.5146853,1.3304726,-0.5091655,-0.53188914,1.152403,1.0403943,0.93713665,0.99727887,-1.4641013,0.19944681,1.8288327,-0.24934764,-2.813704,-1.6048566,-1.0980636,1.0620443,1.1273831,2.186056,-0.8899269,0.113757774,-0.44274354,2.9340181,0.80896246,0.5985648,0.14872505,-0.74401957,0.15399306,-0.48288107,-0.29170856,0.10586084,-0.6452943,0.24360247,-2.3814397,-0.11253206,2.2635314,-1.7236038,-1.9636703,0.9289132,-1.548341,1.4789666,-0.85291004,-1.4307373,2.440873,0.48262894,-1.199236,3.0267024,-2.7832074,1.3636171,0.792372,-0.3519858,0.89925,-0.7338617,-0.031147713,-2.4990516,1.3962504,-3.2400293,2.6830187,0.8236774,1.7565966,-0.9217634,1.3136256,1.4732355,1.3493543,1.4428368,2.0568645,1.2684752,-1.0145282,-0.8199482,-2.3860273,3.6735566,1.4426249,-1.1300201,1.0617526,-1.0306988,0.3222276,2.0142744,2.383572,0.23496121,-1.2470574,2.9704282,-0.3686579,0.20471182
OAW42,-0.5489656,0.6099341,0.41853356,0.7768855,-0.7325447,-0.13761322,0.56251276,1.6170155,1.0889744,2.1060493,-0.9130166,0.73602843,1.4949348,-0.8827623,-3.3851898,-1.6516764,-0.48189473,0.6392201,1.3719218,2.9342542,-1.7275347,0.26373887,-0.4872308,2.4480727,0.8782723,-0.11773195,0.44992474,-0.26959273,-0.9941472,-0.96013296,-0.18726204,-0.5986802,0.31065333,0.096621364,-2.8318994,0.72108597,1.9801192,-1.5799764,-1.803539,0.90219146,-0.32818997,0.9408531,-0.8756067,-0.2581909,1.7814105,0.5407945,-0.9174178,2.8282106,-2.5481145,1.0001664,1.0748107,-0.681593,0.078811556,-0.7027261,-0.015934225,-1.0444798,2.878699,-3.4771438,2.2197523,-0.19775088,2.0185678,-0.071403146,0.18356931,1.3957411,0.6792645,1.5209749,1.9352018,1.8751475,-0.9774053,-0.9993782,-2.2984445,3.6575766,0.9595671,-0.6540442,0.7405576,-0.4010704,1.3724456,1.2888017,2.2575252,0.43774736,-1.3905375,2.8693185,-0.31711763,0.082361884
OVMANA,-0.5310895,-0.038317565,0.38149202,0.86239827,-0.45676166,-0.95669,0.58599335,0.47416785,1.0329992,0.84824926,-1.1813668,0.8054172,1.1697962,-1.0372097,-1.6882106,-0.5090184,-0.4347166,0.789084,0.51871437,1.4585965,-0.44620958,-0.324543,-0.1796936,1.5421227,0.8685889,-0.30028474,0.20225766,-0.48374295,-0.10603255,-0.923896,-0.30251005,-0.18249889,-0.6083573,-0.15649077,-1.2418486,0.19339353,1.5138178,-1.3641164,-1.6998414,0.5856452,-0.6976497,0.9661363,-0.54178625,-1.3779023,1.404848,0.07517455,-1.5746564,1.7799401,-1.8537006,1.8252131,0.27566528,-1.1274897,0.6593828,-1.0253694,-0.5519121,-1.3013561,1.0680133,-1.8114877,1.8880777,0.5554172,0.98572916,-0.7223303,0.62028575,1.0131276,0.90923935,0.509297,1.3315725,0.35994092,-0.40085095,-0.43661314,-1.8658012,2.1172295,0.9869669,-0.26498783,0.2220226,-0.5702606,0.4087376,1.6819495,1.9371406,0.54474396,-1.1281483,1.5745413,0.31876987,-0.5556791
SNU-626,-2.2225382,-0.66876835,-0.9014739,3.1082153,0.17629513,0.015589321,-1.0772041,3.316278,0.06883163,4.9561157,-2.8841136,0.21777663,1.961631,-2.1564505,-5.052253,-2.9713383,-3.3776293,1.1694419,-0.59182316,4.557502,-4.3255563,-2.3812935,-1.165537,0.61759645,3.4285998,0.07303699,-0.56734204,-2.0681012,-2.7455747,0.62799144,1.9947865,2.1711667,-0.20351928,-4.2287054,-4.9457,-0.5099561,3.5535069,-1.4167539,-1.8627859,0.48517612,0.44558078,1.1445531,-0.24372362,0.8814814,-1.457902,-0.50857735,-0.7357579,4.0916677,-2.1048841,-0.08274382,-0.08281987,0.38405317,-0.322429,-1.9969784,-0.28672326,-0.84525704,7.0958347,-5.726514,0.08408366,-0.43720394,3.1538353,-0.9868721,2.606444,1.7503914,3.1880538,0.0001890257,2.7058086,2.1303315,-1.2348127,0.2967764,-2.418191,4.6854906,2.8715448,-3.7802565,2.0424054,-1.4419385,3.862042,-1.0505898,1.4063776,2.6894677,2.2584853,1.2865822,2.3579352,-0.9526306
U-87MG ATCC,-1.9353122,-1.755203,-1.2859707,2.606228,0.19749516,0.5949842,-0.8894493,2.656036,-0.1740432,4.260837,-2.344206,-0.61083555,1.5608561,-1.6229297,-3.476216,-1.3835881,-3.3307297,0.43918753,-1.1192241,3.4751801,-3.3921108,-2.1105947,-0.88165903,-0.46211034,3.1101747,-0.24689329,-0.832651,-2.251451,-2.2356796,1.6087165,1.99751,3.1503315,-0.18352038,-4.045606,-2.936841,-0.6623853,2.8020642,0.014007579,-1.6275854,0.37558484,0.9226074,0.9406523,0.0038301349,0.5879269,-2.1820178,-0.90430266,-0.2611891,2.9044802,-1.0741438,-0.8710638,-0.3679541,-0.15426512,0.047854826,-1.3543322,0.36309266,-0.874017,6.146068,-4.3800983,-1.0866567,-0.039678693,2.138032,-0.91522485,2.7311103,0.8670331,3.5868802,-0.2936345,1.6160445,1.6482126,-0.25813353,0.4581702,-1.4795885,3.3002121,2.7107902,-3.344679,1.3634205,-1.1179078,3.5176158,-1.2463484,1.1512947,3.1166873,3.1638823,-0.35367325,3.1287978,-0.8389709
8505C,-0.970237,-0.13694096,0.30051273,0.7513368,-0.39954358,0.035945147,0.53987247,1.7154703,1.7288588,2.1208732,-0.7489887,0.38684994,1.8301287,-1.0818586,-3.3666706,-0.7250311,0.22949825,0.45603716,1.1784157,3.0004041,-2.11465,0.18949434,0.36920124,1.5807172,0.8399508,-0.09281519,0.6570467,-1.0008883,-0.86694396,-1.1404729,-0.56050104,-0.054459635,0.19853806,-0.6583874,-2.4046354,0.83616793,1.9046476,-0.7533783,-1.4859525,0.9962726,-0.08910285,1.2728646,-0.5194753,-0.3795062,1.5113071,0.46743795,-0.8373721,3.1557882,-1.7904437,0.5795454,0.65695757,-1.4433653,0.040564198,-0.5202493,0.09500699,-0.8830697,2.832123,-3.0036802,1.5644729,-0.125939,2.045664,0.010962382,0.04533656,1.4525645,0.8696627,1.0461859,1.6841308,1.8517565,-0.746421,-0.59335035,-2.2380474,3.465438,0.8532888,0.095595956,0.7110081,0.1509175,1.9045265,1.2706177,2.7345784,0.80449444,-0.779355,2.095376,0.79373807,0.01593921
TE-4,-0.53235245,-0.9707238,0.062678695,-1.2641351,-0.26753154,-1.0778584,1.9067043,-2.3406188,2.0633063,-1.6209196,0.6383512,-0.45941597,1.8313103,0.5750517,0.012319962,1.6969401,1.5606031,0.4243211,2.1586952,-0.3310854,1.0762149,1.4614252,1.3780619,1.9108366,-1.4750862,0.65355325,0.4614809,-1.4477901,1.8612714,-0.5212973,-1.0002779,-0.8147878,-1.3423314,1.911783,0.07037107,0.4306285,0.059118655,-0.17430907,-0.51252115,1.001919,-1.0167264,2.6824405,-0.21488208,-3.1800156,4.107528,0.41136128,-1.6020417,2.4081953,-2.4253762,1.9386129,0.45400795,-2.5887654,0.747438,0.44582966,0.5807773,-1.9569733,-1.6583025,-0.4161698,1.8726822,1.2356056,1.348516,0.029752223,-1.4382542,1.0769469,0.732419,1.9216243,1.4079862,0.50996506,-1.02759,-0.62443674,-2.254778,2.45361,-0.030239733,2.5564644,0.26155776,0.8848293,-0.5150107,3.6251872,3.1452696,-0.9402204,-3.4518294,2.9767108,-0.7485601,0.027275918
Mel JuSo,0.07376631,0.15259267,-0.3832855,1.4483541,-0.6921275,0.20921965,0.9915517,1.2320784,-0.7435625,2.210626,-1.241408,-1.2357694,0.17974122,-0.4777728,-1.7915804,-1.9696685,-2.7470148,-0.22113875,-0.06915535,1.6449934,-1.3750486,-0.5202811,-0.6716464,0.9297186,1.241036,-1.0984412,0.24815159,-0.242744,-0.54825914,0.3750257,0.10380144,0.4825595,0.6541535,-1.2786617,-2.031356,-0.026994962,0.9578452,-0.697397,-1.7794391,0.2166424,0.593464,-0.15003672,-0.50564677,-0.049111493,-0.8714723,0.6300295,-0.23313177,0.3117455,-0.079936974,0.10073233,0.99488914,0.7073695,0.1718493,-0.36217967,0.71950734,-0.44643638,2.8070118,-2.8017964,0.21416827,-0.16848803,-0.058191225,0.041576196,2.54787,-0.21420115,1.1420374,0.8899459,0.6171393,0.65733975,0.099180885,-0.76962894,-0.67882496,1.0903132,0.8572405,-2.4093776,-0.017932499,-1.1476091,1.2937833,-0.39511058,0.6457729,0.6840352,1.6361479,0.4182787,0.5080166,0.80039626
COR-L279,-2.1440575,1.4502912,1.5035912,4.9635177,-3.1015964,-1.5729971,2.5611868,4.056311,-0.6069707,7.378799,-4.5572963,-0.121191666,1.8458626,-3.2050529,-8.27093,-5.508554,-3.6882339,2.8580556,1.7357492,5.6721425,-5.610396,-0.68555546,-3.715695,7.124541,3.2850485,-1.3991708,0.4702835,-1.348194,-1.4815923,-2.8476202,-1.0027196,-0.6504209,-2.8025267,-2.402011,-9.087693,-0.059215836,4.139914,-6.6501136,-6.629507,3.8917677,-2.7489564,1.5547154,-1.9437038,-2.885052,3.1184154,0.7945384,-4.412313,6.464503,-5.314871,3.6688137,1.9121699,1.707564,1.2994387,-4.3402305,-0.4483439,-4.063143,8.538823,-9.059462,6.6756344,1.1368688,2.9428315,-2.8148615,5.921662,2.282808,4.665388,3.021606,5.8315873,2.986672,-1.8858062,-1.5804613,-4.37984,7.8369565,6.0596285,-7.789161,2.019885,-4.410122,2.01831,2.8209436,3.3934429,1.2661304,-1.3708531,6.9692187,1.2170376,-1.4823873
NCI-H727,-1.1023511,-0.5354311,0.7814769,2.1428955,-2.1911213,-1.8376942,2.6401775,0.2600679,-0.26358247,3.2714012,-1.9868113,-1.0197948,0.7309523,-1.4171244,-3.3538942,-1.3223627,-1.2234426,0.9556127,0.6913531,1.5689195,-2.2350986,-0.09248496,-2.089014,3.5841267,1.2385074,-1.2983485,-0.35110718,-2.2168753,0.5750443,-0.5709042,-1.0811182,-0.08543058,-2.7852995,-1.4175521,-4.2840314,0.06390815,0.8768458,-2.844163,-4.0769324,3.1736746,-1.8733075,1.5608162,-0.78661805,-3.3489292,2.6024141,0.59957373,-2.9518359,3.5221374,-2.7081597,2.9184966,0.97954476,0.0051621264,0.9065849,-1.991698,0.3732459,-2.998274,3.270257,-4.196418,3.1542137,1.3105536,1.1094867,-1.7378209,3.2682195,0.88369155,2.9477603,1.8172493,3.373588,0.7238562,-1.0918709,-0.769228,-2.549713,4.1462817,3.588404,-3.6693208,0.30386427,-2.0826104,0.4866573,2.6602244,2.1673572,0.50080246,-1.3990043,4.0190644,0.8871839,-1.3870858
NCI-H596,-1.2327677,-0.60738885,0.722887,-0.8018192,-0.24578966,-0.6498309,1.43197,-0.55617076,3.0324385,-0.43345442,0.23529994,0.25513,2.2794578,-0.33996588,-1.653933,0.59017074,1.6452266,0.62845486,2.412914,1.3124676,0.029686114,1.1325631,1.6250192,2.440279,-0.49467468,0.58690137,0.77178115,-1.3916885,0.8701967,-1.516559,-1.1263497,-0.9756586,-0.6058139,1.4179163,-1.1222262,1.028124,1.0949391,-0.96287686,-1.1541213,0.92866987,-0.55790514,2.4347908,-0.2530427,-2.2554877,3.5153432,0.4941464,-1.7857761,3.4528377,-2.7064352,1.8022344,0.39588687,-3.2545593,0.418723,0.0101567395,-0.127607,-1.4099697,-0.03042092,-1.9763513,2.7535958,0.56852174,2.2726665,0.35405862,-1.7414322,2.1143084,0.29046133,1.8725045,2.2413695,1.4662526,-1.1210451,-0.8570889,-3.1602383,3.3904033,0.3877724,2.371467,0.96488553,1.1016569,0.57610714,3.5426073,4.068881,0.09347653,-3.2467844,3.1175447,-0.4364236,0.2897167
MOLT-16,14.470322,7.6300173,-1.2504972,0.61194545,0.36488047,7.4088473,-4.0129647,10.739809,-15.322362,-3.0491838,-2.4068446,-3.7388227,-10.269502,9.866565,8.800364,-12.765585,-11.119413,-6.2583137,-8.221944,-7.4649906,11.308105,0.27556953,-6.6648884,-8.462501,-1.799929,0.2863035,-0.8986799,17.801933,2.9244368,8.426854,3.818692,3.228994,16.374987,1.2715226,6.2367096,-1.962883,-2.5007396,7.7880306,2.7611773,-8.344403,0.9271316,-10.956802,-7.371239,13.611938,-16.89979,3.5677116,14.083081,-20.67149,13.591626,-12.038229,7.3722296,15.967192,-4.0512996,6.57726,7.286156,3.0299027,-8.253826,14.418865,-12.046286,-1.6012069,-11.054435,7.434272,11.2462015,-13.133239,-7.4761972,-6.253775,-18.036322,-2.24761,10.095138,-0.12015458,16.858458,-16.382929,-12.50419,-0.6972113,-7.340151,-10.178317,-11.000125,-15.277829,-12.0344715,-4.0027223,16.102074,-13.4196615,-4.8621955,6.1215467
BDCM,14.867784,7.5444965,-1.662618,-0.6861924,0.5341158,9.718783,-3.4088364,7.554111,-13.448933,-4.180699,0.09083992,-4.146794,-11.463112,10.257351,8.498277,-9.601265,-9.021444,-7.587603,-7.006239,-7.5934854,11.540223,1.5588753,-4.573431,-7.798522,-4.3077793,0.994855,-0.51720065,15.869831,2.3564456,10.363185,4.0928288,2.1134071,17.340803,2.232218,7.814302,-0.5673175,-2.7573175,10.017601,4.5721893,-9.777252,3.6744478,-10.621431,-6.1538873,14.313072,-15.255449,2.7743104,16.363092,-19.000475,13.632944,-13.159971,6.264615,13.848227,-5.1425996,7.847956,8.383742,4.2508564,-8.940375,14.459957,-13.149644,-2.424611,-10.195199,8.450385,7.7247562,-13.410799,-9.233049,-5.9756727,-18.267172,-1.8253185,9.950677,-1.2262313,17.072924,-15.765216,-15.850357,0.810192,-8.0104885,-6.2538643,-9.94768,-14.50184,-12.501633,-4.3107367,13.548949,-12.717493,-5.88573,9.176573
MDA-MB-134-VI,-1.228802,-0.13580997,0.4131368,2.678943,-0.9033303,-0.8624309,0.885743,2.4378188,-0.14011034,2.410627,-2.744236,0.20016949,1.8744506,-0.92215943,-2.5154312,-2.902792,-2.9446218,1.2490107,0.15359885,2.3275151,-0.81877434,-0.92748904,-1.2861897,2.586176,1.9114453,0.32785213,-0.41705742,-0.0493191,0.22215673,-0.39752826,-0.24409212,1.1119797,-1.2226671,-0.90620434,-2.4580324,-1.0931643,2.3351321,-2.309154,-2.4343853,0.68168885,-2.1176715,1.1550212,-0.98585933,-1.1881555,0.43325427,-0.069275245,-1.9662163,2.038663,-2.5360718,1.311354,0.99883914,0.81928676,1.3457216,-1.8540246,-0.55330074,-3.2987933,2.4695356,-3.1191971,2.1906466,1.5832464,1.6502024,-1.4619343,3.5453055,1.059928,2.557588,0.68547344,1.9042894,0.5831672,-0.56050575,-0.10791609,-1.9220041,3.2567732,2.4977381,-2.510724,0.6654543,-2.861409,-0.382439,1.3570293,2.127504,1.2485114,0.5532472,2.469038,0.2310969,-0.76524806
A-704,-0.0021790834,0.6384319,0.27345073,1.5770361,-0.5862847,0.41164356,0.31436986,2.182096,-0.118167534,2.5242825,-1.6491457,0.36796677,0.76626194,-0.90412533,-3.2550654,-2.1874063,-1.7506087,0.3131975,0.115072094,2.711248,-2.052623,-0.4236026,-1.0218056,1.5761585,1.6765946,-0.3264246,-0.007701137,0.21543136,-1.293817,-0.4869865,0.43312576,0.5713354,0.51239926,-1.1686087,-2.751139,0.37959257,2.2421892,-1.2986842,-2.0161173,0.3807143,-0.08596847,0.17838085,-1.0655174,0.49839902,-0.1735478,0.6992052,-0.2696996,1.8372134,-1.5043923,0.22580716,0.7818333,0.60237145,-0.29714683,-1.038855,0.25943598,-0.7119858,3.2966852,-3.3434145,1.1282296,-0.39835602,1.451623,0.018112065,1.4990953,0.7141441,0.6691373,0.39306545,0.9851719,1.7231272,-0.4614302,-0.68892574,-1.3150301,2.7928548,0.73568213,-1.5529586,0.5151155,-0.9529347,1.2322757,-0.3432927,0.88152725,0.58522856,0.48374668,1.3141276,0.18513751,0.40964952
TE-1,-0.8464331,-0.5649119,0.4535406,-0.68361235,-0.14875223,-0.83749276,1.0689491,-0.37956306,2.3092134,-0.5241626,0.03872229,0.23604651,1.8918201,-0.2823877,-1.2508868,0.38335487,1.0407082,0.40589154,1.6608958,0.96199393,0.33041576,0.8587003,1.3424792,1.810321,-0.7288028,0.6965658,0.4523776,-1.0123771,0.81604654,-1.1111395,-0.7556066,-0.50804865,-0.57033265,1.0606313,-0.5762706,0.55847883,0.7258407,-0.3928169,-0.8418991,0.59740955,-0.729855,2.2166452,-0.2752518,-1.9510808,2.945176,0.10618198,-1.6867009,2.564112,-2.1820586,1.5346975,0.31785312,-2.6984422,0.5206193,0.021560054,0.011358695,-1.6846377,-0.48536372,-1.0072767,1.9144042,0.72636044,1.8256971,0.088901475,-1.1344978,1.6517274,0.48421863,1.2829883,1.6575469,0.8867783,-0.7705912,-0.45167318,-2.5423782,2.7219543,0.34081078,2.0482326,0.7289565,0.6697422,0.088503495,2.8157742,3.325563,-0.14754447,-2.4915295,2.459134,-0.59476805,0.22354443
EW-8,-0.17226101,0.8584257,-0.5867596,2.2072568,-0.33989903,-0.03250502,-0.30469623,2.682534,-1.1275586,2.1051054,-2.117498,0.08012771,0.62432265,-0.17146736,-2.6746662,-3.2860618,-3.11159,0.6295214,-0.3146559,1.7742155,-1.3669679,-0.5178081,-1.547111,1.0836824,1.2885436,0.096014164,-0.024804402,0.6281236,-0.67347056,0.5182499,0.9202631,0.22172955,1.0577095,-1.5673155,-3.0374966,-0.34259823,2.007841,-1.2328782,-1.2424557,0.27681112,-0.43753895,0.084184244,-1.0171466,1.2109885,-0.78532624,0.18208435,0.026489919,1.378267,-1.2180618,-0.15433241,0.78362936,2.027308,-0.36033064,-1.2675155,0.19262263,-1.0190814,3.3610601,-2.4696763,0.73600435,-0.11324551,0.9564156,-0.5582031,3.229941,0.62351674,1.2769418,0.47968522,1.0576235,1.1084424,-0.113805,-0.1911277,-0.80270994,2.2556295,1.3162987,-3.1348617,0.75749725,-2.436559,0.73026,-0.95122635,0.6888386,0.31407884,1.315722,1.3291458,0.25074458,0.4883152
HCC44,-0.6631466,-0.17398597,0.14721829,0.8659345,-0.43193853,-0.14103387,0.4993806,0.8801246,0.6171828,1.5374869,-1.0832851,0.22927436,1.0878341,-0.8323878,-1.9305338,-0.6756986,-0.44431642,0.40778005,0.33542863,1.61648,-1.3696288,-0.54953516,-0.089270376,0.9949582,0.7991472,-0.28005096,-0.041782033,-0.59716785,-0.5288599,-0.3706511,-0.010613986,0.2610275,-0.3747781,-0.73810786,-1.6125813,0.09219881,1.3841832,-0.7185025,-1.3745908,0.76136357,-0.24827628,0.7531808,-0.29830447,-0.6765552,0.73565096,0.07856889,-0.8243786,2.0522773,-1.4364549,0.59567714,0.48246053,-0.8170003,0.28360564,-0.85990995,-0.03510639,-1.0786135,2.2240286,-2.3355005,1.0787601,0.1347966,1.2439837,-0.3376338,0.66992056,1.016101,1.0749623,0.4912736,1.1857103,0.8784255,-0.51398396,-0.37007236,-1.405453,2.1251354,1.0218443,-0.61483806,0.44585955,-0.37996536,1.0634401,0.8138247,1.6505126,0.94776195,-0.23280305,1.0779792,0.66454464,-0.4200673
UACC-812,-1.0170516,-1.622135,0.8923179,0.5074202,-1.2951151,-1.7013823,2.006839,-1.0079141,1.3475822,0.123541884,-1.3602266,-0.5085765,1.4447943,-0.6478375,-0.09380959,0.7939125,-0.33551902,0.62700325,0.85632885,0.22812594,0.59069943,0.08175602,-0.1252043,2.1768253,0.5976295,-0.30188093,-0.12267439,-0.98930275,1.6282849,-1.0700512,-1.2137254,0.2572796,-2.8386714,0.012794114,-0.3426191,-0.16225952,0.7224796,-1.5549049,-2.1141136,1.7078924,-2.0255117,2.012794,-0.65891767,-3.210287,2.142231,0.07729845,-2.7946758,1.840545,-2.0950415,2.663065,0.7018529,-1.2451922,1.6794438,-0.89951885,-0.09368363,-3.006974,-0.68597555,-1.3841181,2.2597296,1.8227178,0.61746097,-1.0311377,1.3432927,0.89200056,2.178203,0.9969541,1.7358133,-0.32387477,-0.39667615,-0.38531962,-1.9150229,1.865364,1.720567,-0.08524392,-0.06716464,-1.2118521,-0.707725,3.305387,2.516501,0.6575286,-1.4995005,2.470424,0.66919535,-0.9546223
KYSE-140,-1.0917393,-1.1248726,-0.3746018,-2.2374234,0.42423487,-1.5962514,1.9496527,-2.0801966,3.8184044,-3.154081,0.9582124,0.19808637,3.4637628,0.35494766,-0.40916958,1.487856,2.2044065,0.6216021,3.187405,-0.45824793,2.2862275,1.9072953,3.2546008,2.3379889,-1.264309,1.6088703,0.4802529,-1.6036711,3.0332255,-0.497122,-1.2633134,-1.1146421,-0.8949905,2.6729474,0.45178476,0.81841666,0.05408403,0.2789968,0.4244235,0.48064813,-0.9284312,3.7280579,0.12599148,-3.4186988,5.2029076,0.1845128,-2.3845103,3.2203658,-3.0963752,1.9791844,0.28682306,-4.28778,0.86857027,0.9489663,0.27884582,-2.102065,-3.1654007,0.61388457,2.5833468,1.2696993,2.280507,-0.04451004,-2.9224033,1.6167109,0.4298372,2.2885044,2.055567,0.48167843,-1.4675742,-0.43198565,-3.155598,3.0073888,-0.15068011,4.6852202,1.090559,1.4184597,-0.36719415,4.8686457,4.9561677,-1.3528446,-4.6839147,3.457589,-1.5373149,0.56909436
Mono-Mac-1,12.00264,5.4084496,-0.13166459,-1.3235492,-2.4968724,6.545906,-0.51614034,5.687284,-11.682351,-1.9525855,0.23030245,-4.265943,-8.1377535,7.602635,4.7680526,-8.555353,-6.1495447,-5.187925,-3.7333565,-6.317496,6.476738,1.7362945,-5.9340944,-4.3413153,-3.4864666,-1.1195335,1.2904934,11.356144,2.6439905,6.1313453,1.8743755,0.6911478,11.503839,0.96643883,4.7558374,0.48910764,-3.7867937,5.3975263,1.533784,-3.4945939,2.7450535,-8.720741,-7.153499,9.502104,-11.201282,2.8998156,9.9550495,-14.249983,9.6173935,-8.172987,5.745177,11.673742,-4.984476,4.669976,6.301746,2.6364698,-5.0888433,10.704595,-8.066867,-2.4397767,-8.782399,5.6528563,7.448121,-10.891174,-4.913105,-2.2415698,-13.785542,-0.42820626,8.291269,-2.9617002,12.849987,-10.344363,-10.233932,-1.9294364,-6.928051,-5.7524285,-8.923027,-10.013261,-9.136294,-4.4768677,9.321671,-7.4768014,-1.5452192,6.7739925
CMK-86,8.910846,4.7761025,-2.3129833,-0.2237454,-2.036854,6.441611,-0.96191573,4.1893625,-12.534399,0.55736643,-0.62290066,-4.5453987,-7.449481,8.420495,4.64,-7.766406,-7.8832083,-4.231332,-3.5584455,-5.1567535,6.488632,2.0301976,-6.7535186,-4.98124,-2.588263,-1.5952511,1.1278896,8.832076,2.345167,7.396298,2.6946557,2.5019429,9.073459,-0.8672059,2.3354046,-0.2054335,-1.6024795,5.099494,2.5368488,-1.871441,1.8961719,-7.0559764,-6.05448,8.582822,-10.44907,2.9591482,8.129497,-11.591731,7.1937127,-7.076152,5.516485,11.636775,-4.4100776,4.10424,6.7513165,1.7862275,-2.2619014,7.5855656,-7.9964714,-2.3755567,-7.371923,5.2143226,9.365267,-8.419657,-2.587702,-0.4141259,-9.759276,-1.0210255,7.3960347,-2.6508024,11.349785,-7.950691,-7.52742,-4.320574,-4.902083,-6.213347,-5.8899107,-9.764475,-8.984139,-5.1958265,10.263493,-5.1196856,-0.14639416,6.5426073
KP-2,-1.0559663,-1.578091,0.004364177,-1.8728722,0.16037112,-1.3319719,1.6526369,-2.1195772,3.1969926,-2.7633998,0.86360294,-0.12236253,2.5753293,0.573471,0.35103878,1.992551,2.099271,0.42288703,2.6407704,-0.46224132,2.3586974,1.9919842,2.6356142,1.7033287,-1.8819394,1.4980774,0.4460858,-1.2864795,2.6268644,-1.044047,-1.1044128,-0.7524266,-0.99691385,2.433699,1.0440341,0.7415155,0.09337319,0.4689076,0.11396326,0.43331423,-1.0657573,3.4816315,0.12099791,-3.4753938,4.442059,-0.08599727,-2.0035925,2.305423,-2.8344042,2.0812318,-0.07456004,-3.941843,1.2152108,0.645138,0.41707826,-2.291863,-3.103383,0.443301,2.215318,1.4967755,1.8565487,0.10724184,-2.0801861,1.8048996,0.4149682,1.7463964,1.6493088,0.5056669,-1.2048038,-0.6095664,-2.8716426,2.4053748,-0.4346388,4.3065286,0.635567,1.0461466,-0.9571989,4.699387,4.5376906,-0.83481574,-3.8970847,2.9289641,-1.2151214,0.3007894
NCI-H524,-1.2737136,1.2458416,0.55584586,4.3785133,-1.8499186,-0.49285528,0.797737,4.697758,-1.3424507,5.416684,-4.054293,0.1347091,1.6648446,-1.528562,-5.87361,-6.155707,-4.777801,2.0987487,0.71636575,4.2227235,-2.956425,-0.8294261,-3.5061269,4.6953607,2.8966205,-0.24248907,0.008220318,0.07252985,-0.78930837,-1.0175384,-0.18337147,0.629851,-0.5816948,-1.5677363,-6.241556,-0.77111644,3.3728812,-3.9817162,-4.611023,1.8718823,-2.4037554,0.7986357,-1.9872901,-0.47770703,0.6130307,0.52015746,-2.093462,3.4021757,-3.4684317,1.9513881,1.9202285,3.0809577,0.8270401,-3.022504,-0.06180107,-3.5054493,6.058106,-6.201162,3.8819473,1.2338521,1.7855803,-2.2691603,6.235726,0.89021015,3.6429193,1.6961327,3.4243765,2.2985654,-0.8962013,-0.85200673,-2.3517005,5.0838666,4.113678,-5.9772997,1.3075576,-4.7314653,0.6421282,0.32759255,1.9393493,1.183165,1.0217352,4.357218,0.31936565,-0.5585933
WM266-4,-0.6876142,-0.30561173,-0.7200709,2.911035,-0.40105093,0.40469638,0.45101207,2.381862,-0.22162442,3.705798,-2.1543012,-1.2919406,1.0934435,-1.1886424,-3.3205686,-2.9866009,-4.015684,0.45396146,0.11644607,3.060163,-2.969812,-1.52644,-0.95389056,1.114162,2.0679214,-1.2432094,0.36928794,-1.1471899,-1.7518435,0.43305844,0.813199,0.9921771,0.28017104,-2.4211116,-3.875481,-0.58809817,2.2329667,-1.4053991,-2.369931,-0.30066144,0.9088116,0.112731755,-0.073620476,-0.030713769,-1.1090837,0.48559782,-0.7867907,1.9447349,-0.42437416,0.062025465,0.82085264,0.42293704,0.28408915,-1.2204348,0.7528797,-0.57639873,5.0580854,-4.650136,0.13988349,-0.5331029,0.90319866,-0.47505674,3.284438,0.47122404,1.9011978,1.0286254,1.6345348,1.1313684,-0.47051665,-0.827576,-1.7245072,2.799838,1.951801,-3.3738437,0.73370713,-1.3664097,2.8179185,-0.3935438,1.0504484,1.6769804,2.1947505,0.7880272,1.3558747,0.4060137
PK-45H,-0.65367407,-0.38329238,0.20345774,0.54186493,-0.6579696,-0.12572633,0.80313295,0.71921796,0.708695,1.6690204,-0.86821973,0.11881617,1.1285619,-0.81262493,-1.8420167,-0.5085197,-0.42980447,0.3669774,0.6535373,1.6213232,-1.1790594,-0.07523181,-0.0143530145,1.1083747,0.75120777,-0.32202426,0.24023238,-0.68648773,-0.23916808,-0.77123445,-0.26366556,0.34752882,-0.3580918,-0.49365163,-1.4787253,0.15965085,1.1121131,-0.7137929,-1.3025353,1.0909377,-0.28820595,0.9091307,-0.48647043,-0.8862716,0.78394777,0.31661913,-1.1197577,2.020261,-1.4729053,1.0289898,0.56072265,-0.9123353,0.4354479,-0.5808792,-0.009824559,-0.9531987,2.028849,-2.2363217,1.1295733,0.2991289,1.2724437,-0.06841206,0.47314247,0.9932762,1.14488,0.6407399,1.2341177,0.9770349,-0.25465834,-0.42840752,-1.6419382,2.233738,0.8474525,-0.38172606,0.30325258,-0.24208225,1.152578,0.87713116,1.8322027,0.66996264,-0.38104346,1.2821422,0.6876269,-0.23732656
HCC1569,-0.9075136,-0.5133923,-0.1827615,0.8062162,-0.00807364,-0.8737741,0.31227118,-0.18042703,0.8008263,0.6061981,-1.1433805,0.2084846,1.1756215,-0.51340157,-1.031121,-0.2227882,-0.8190047,0.49636117,0.41452268,1.0831319,-0.5232514,-0.17928651,0.23898184,0.64112383,0.78099597,-0.049546212,-0.050283957,-1.1644403,0.37044123,-0.2393118,0.104990244,0.42753884,-0.6063307,-0.45159438,-1.3928388,0.08457296,0.8546979,-0.84159803,-0.8635998,0.7410128,-0.80398756,1.1788487,-0.052061033,-1.0281041,1.1381052,-0.17572814,-0.91956514,1.7139026,-1.4865863,1.0025672,0.13309921,-0.7847319,0.763481,-0.42155173,-0.051142413,-1.1485242,0.81423414,-1.7686303,0.8041941,0.6358746,1.0427921,-0.67907137,0.64337367,0.64472383,0.92299676,0.45629993,1.4283409,0.39554107,-0.8804035,-0.036818504,-1.5798063,1.7686707,1.0574528,-0.3734959,0.42019132,-0.4917642,0.7672288,1.399835,1.6923734,0.18499058,-0.27714443,1.5401583,0.1129034,-0.3412961
A-375,0.024702022,0.6100101,0.078178756,1.2676357,-0.22201964,0.44212577,0.07127254,1.6761266,-0.0062763644,2.1326582,-1.292006,0.004026947,0.5063998,-0.7603766,-2.2556713,-2.002319,-2.0259094,0.06106062,-0.16441958,2.319084,-1.3032819,-0.5916464,-0.50701934,0.79852134,1.1342033,-0.4368704,0.08208226,0.027007103,-1.1268684,0.14179896,0.70229965,0.6092607,0.7787865,-1.0182909,-2.1959426,0.019528119,1.7661828,-0.70566845,-1.1476218,-0.13194461,0.11013425,0.12430856,-0.5985583,0.5387528,-0.7775614,0.29679003,0.1299463,1.0084437,-0.72851676,-0.19542107,0.6858225,0.2962646,-0.50343955,-0.56638443,0.30341414,-0.44585308,2.9131675,-2.4742079,0.09623094,-0.07687322,0.7959567,0.09441645,1.7433811,0.1591657,0.7364536,0.36609644,0.42612725,1.3130721,-0.15435131,-0.5424557,-0.870719,1.804855,0.7685747,-1.6522774,0.37503624,-0.9913617,1.2172959,-0.31931108,0.94224524,0.7983187,1.1076648,0.5450223,0.45617458,0.697876
Hs 611.T,17.75393,8.338458,-3.4138768,-2.175426,0.90564185,11.735437,-5.1305647,8.651579,-16.947166,-6.768153,0.37359425,-5.361357,-13.767267,13.780407,13.162145,-11.315773,-11.274021,-9.713896,-8.727617,-11.578187,16.73119,2.2229278,-5.3825054,-11.055168,-6.0338993,1.9401236,-0.9991534,19.9651,4.3545613,13.518166,5.2466297,3.3236327,21.474506,3.39673,11.547985,-1.2890409,-4.1152797,13.619033,6.9108195,-13.417312,4.320678,-12.6285095,-7.451873,17.80037,-19.786106,2.5932148,20.235369,-25.480433,17.915827,-16.478188,7.7720723,16.835598,-6.012782,10.377615,10.193873,4.6371074,-13.124079,20.486181,-17.636003,-1.7824438,-12.943897,10.954167,9.218911,-16.828386,-11.090543,-8.020928,-22.969002,-3.4811902,13.143988,-0.87203777,21.511086,-20.542131,-20.113102,2.2739148,-10.037996,-7.830182,-13.589882,-17.86416,-15.71625,-5.7668924,16.9347,-15.856056,-7.587334,11.682053
CAL-62,0.05090911,0.8901246,0.6395435,1.0675507,-0.5287312,0.43388277,0.57019055,2.1799662,0.49867257,2.3671606,-1.0860249,0.3448989,1.0411814,-0.91935974,-3.345121,-2.1086283,-0.7006206,0.23279403,0.5937903,2.9290457,-1.8117473,-0.22037758,-0.7529948,2.0850427,0.99480176,-0.2425734,0.62084574,0.17166835,-1.2006744,-1.1001374,-0.37911987,0.009054712,0.3540657,-0.6018434,-2.6944568,0.38733083,1.9222994,-1.4975951,-2.009236,0.71314573,-0.33393234,0.21385744,-1.1266723,0.09713443,0.66005325,0.939826,-0.40703285,2.1917934,-1.5241473,0.5015116,1.1353934,-0.038027834,-0.41597384,-0.62053967,0.0010003648,-0.77299374,2.8999147,-3.2451694,1.7925411,-0.2967711,1.7454083,0.203833,0.98308253,1.0587221,0.40796053,0.853709,1.2517399,2.0184906,-0.37587696,-0.8026346,-1.7205003,3.1501658,0.81582904,-1.141195,0.44007355,-0.6174067,0.9634843,0.4886479,1.6219251,0.62020516,-0.18343423,1.9026707,0.50364447,0.5848302
SK-N-AS,-1.0232064,-0.78169054,-0.84768087,2.6325219,-0.009892415,0.5592753,-0.6232439,3.2484825,-1.1179168,4.8220477,-2.6870775,-0.92134035,0.93300354,-1.1312946,-4.5254846,-3.0787015,-3.7730029,0.45857254,-0.977447,3.5918293,-3.1728776,-1.6745547,-2.0095603,0.5103388,2.7639682,-0.3161715,-0.6385789,-1.1124737,-1.8627906,1.8966857,1.935915,2.6842444,-0.029151719,-3.6002233,-3.7626655,-1.1471077,2.574873,-0.37533987,-1.6593504,0.31332618,0.5823017,0.5414978,-0.5982509,0.98532164,-2.288653,-0.33497983,-0.019450331,2.3178408,-1.2779348,-1.1600834,0.1859642,1.9558697,-0.41226843,-1.1638492,0.85923374,-0.7431199,5.9260664,-4.194162,-0.84310097,-0.053925984,1.5490454,-0.62066567,3.9524612,-0.0033768357,3.450839,0.20446582,1.4072344,1.7400109,-0.060356017,-0.03368401,-0.95659626,3.6751423,2.1192346,-4.2267647,1.1591992,-2.1167815,3.202706,-1.7998483,0.1361895,2.1004965,3.4138057,0.37007174,2.402736,-0.3854525
MCF-7,-0.31814134,-0.2602986,0.68454045,0.31831706,-1.2418412,0.09281748,1.5289371,0.2509118,0.4735918,1.0194564,-0.64815474,-0.9318915,0.9515177,0.08481616,-1.287177,-0.48816437,-0.59981376,0.017464759,1.1100721,1.0236847,-0.030837808,0.64080834,-0.8534626,2.322646,-0.0961715,-0.061020736,0.21042584,0.031705905,0.5050229,-0.48361492,-0.7984752,0.5461414,-0.58302045,0.41485122,-0.8080635,0.2585743,0.8924267,-0.5066844,-1.7885151,0.9275486,-0.75907665,1.0499749,-1.087533,-1.3703066,1.1874404,0.58876556,-0.98291975,1.4937807,-1.6276097,0.55582154,1.3993968,0.2308882,0.22127396,0.1076979,0.79065216,-1.7605531,0.8395451,-1.6543156,1.595171,0.5971101,1.0901428,-0.0064953337,1.2009565,0.4178275,1.2260344,1.417099,0.8505839,0.9433002,-0.11009501,-1.1468897,-1.204197,2.3049915,0.6382514,-0.35854945,0.06667898,-0.86733705,-0.49894723,1.6420451,1.963482,0.168729,-1.0293945,2.4581246,-0.09894678,0.31631136
CL-11,-1.4307692,-1.3764613,0.23029742,-0.24709012,0.13766621,-1.7818943,1.4079462,-2.154957,2.5169053,-1.1062142,-0.14154126,0.10680181,2.290609,-0.5878761,-0.5649181,1.7960455,0.99956506,1.1845622,1.5591484,0.101312615,0.37824583,0.64764893,1.587012,1.4757426,-0.25849247,0.105301835,0.072761685,-2.5408108,1.5567402,-0.91108274,-0.7985015,-0.46305844,-1.9907151,0.80789953,-0.4222461,0.11880604,0.5158032,-0.7074904,-0.6719481,1.1719869,-1.1358433,2.572422,0.4839305,-3.4322584,3.5518904,-0.2299679,-2.4755461,2.8941977,-2.5879564,2.649525,-0.5689691,-3.0060484,1.1709675,-0.29090157,-0.46953082,-1.9144013,-0.7403127,-1.2161372,2.272779,1.4606892,1.5737194,-0.9290632,-1.2996846,1.8625394,0.82026005,1.2340176,2.1841822,0.20056577,-1.2964835,0.13320684,-2.803671,2.1429968,0.9853843,1.8320966,0.63793844,0.6641335,0.3856184,3.9471827,3.288912,-0.31610012,-2.9357326,2.2282743,0.0018939215,-0.5011765
NU-DUL-1,15.717254,7.528075,-3.5491152,-0.42419007,0.89663905,10.593823,-5.6009073,9.58641,-15.622369,-5.3080916,-1.476865,-4.5011606,-11.908403,11.445319,10.792669,-11.520328,-11.442331,-7.646065,-8.270727,-9.150293,14.60463,0.7777709,-5.267197,-10.448118,-3.9153357,2.3755102,-1.4360813,18.123474,3.4893436,12.692648,5.5919123,3.5364966,19.618927,1.3208607,9.745366,-1.99348,-2.1259375,12.109449,5.7627296,-12.693293,3.8133388,-11.722261,-7.193636,17.20459,-18.959488,1.6748525,18.711884,-22.657528,15.605339,-15.792234,6.3225174,16.473295,-5.118064,8.406099,8.750603,3.7390559,-10.2024,17.743216,-16.792572,-1.6545826,-10.893105,9.087962,9.816892,-15.22525,-9.401412,-8.7734585,-20.266014,-1.963198,11.545695,-0.25924176,18.755503,-17.471327,-17.254473,0.7126749,-9.038481,-8.148793,-11.415072,-17.378098,-14.796182,-4.1225433,16.37429,-14.941834,-6.014636,9.829302
NCI-H838,0.28239977,0.9817739,-0.18033184,0.6814057,-0.22456041,0.47999012,0.11916119,2.321806,-0.16801871,1.5215068,-0.9656218,-0.024618028,0.7651773,0.05959887,-2.2088077,-2.2108424,-1.54085,0.2311632,0.57931805,2.1273775,-0.66465294,0.13787888,-0.78094596,1.4084634,0.79229933,0.51118076,0.028748432,0.53076994,-0.59134275,-0.018359846,0.29484534,0.59066314,1.3373548,-0.2923449,-1.986318,0.068181396,1.5514845,-0.42011452,-1.2625023,-0.21349366,-0.14991969,0.37044886,-0.99491704,0.92090863,-0.20804343,0.68726593,0.20108563,0.90510356,-0.9835792,-0.11850115,1.2230561,0.7500141,-0.32970956,-0.09811694,0.50791305,-0.81849754,2.1270316,-1.9429212,0.59637105,0.086361356,1.1897818,0.31031644,1.3375635,0.31311923,0.633324,0.8291827,0.59028447,1.5644561,-0.20459291,-0.6792222,-0.73869073,1.9953184,0.20282455,-0.7359772,0.33738065,-1.10297,0.4589909,-0.20516184,0.9213118,0.37188455,0.48583925,1.297335,-0.103568584,0.8055156
CAMA-1,-1.1304511,-0.6830418,0.23670402,1.4413409,-0.55452657,-1.0192444,1.0512217,0.56322825,0.4641842,0.86415756,-2.081539,0.08900657,1.4349185,-0.8930254,-0.8668955,-0.70073473,-1.5652201,0.72526103,-0.014217123,1.0052663,-0.236591,-0.76537603,-0.7229489,1.3422683,1.1592405,0.12244953,-0.44535017,-0.46883947,0.59649205,-0.2740168,-0.41473013,0.88560784,-1.4063753,-0.64696234,-1.0647743,-0.6131862,1.49955,-1.2845616,-1.4968936,0.78429985,-1.4687092,1.1116179,-0.67529064,-1.6185262,0.85107076,-0.21005149,-1.6573772,1.7120472,-1.9134078,1.4050386,0.35432872,0.18424736,1.3299853,-0.9472819,-0.36915174,-2.4957688,0.96724147,-1.8357854,1.5653671,1.516508,0.6521808,-1.2247847,2.0993567,0.87075734,1.915599,0.46090093,1.5522369,-0.11585642,-0.29127747,0.13985614,-1.3037697,1.9206811,1.9139307,-1.2986499,0.05939737,-1.8206743,-0.34970686,1.4973587,1.555873,0.92732996,-0.21013588,1.6439369,0.42330405,-0.836105
IST-Mes1,-1.6646168,-0.8482568,-0.38084316,2.151707,-0.117783815,0.18738206,-0.582801,3.1122947,0.81236875,3.8451347,-2.03035,0.101977296,1.5342557,-1.9749253,-3.829283,-1.4935389,-2.0728436,0.5228606,-0.45715877,3.9249341,-3.3619618,-1.5553689,-0.8053598,0.43227094,2.491134,-0.55154514,-0.35635668,-1.4887643,-2.3467762,0.09516155,1.2112359,2.1196814,0.028485658,-2.9676495,-3.0192056,-0.21018381,2.695372,-0.552793,-1.859032,0.25111365,0.4742921,0.8430398,-0.28307375,0.6663896,-0.8498992,-0.17063588,-0.6691064,3.0995262,-1.2438827,-0.34748954,0.24344508,-0.1840793,-0.02474506,-1.0879552,0.038922373,-0.7882787,4.9594626,-3.9267125,-0.08813489,-0.1473142,2.3462029,-0.36463124,1.854996,1.2500972,2.3907974,-0.17687657,1.735059,1.7846416,-0.507536,0.19095364,-1.7887719,3.7244976,1.8750219,-2.2581637,1.1360593,-0.63976395,2.9130452,-0.54008925,1.4622233,2.5528955,1.6850448,0.5387268,2.1881397,-0.93682855
HCC2935,-0.15605924,-1.2118753,0.4563648,-3.289286,-0.37751564,-0.953061,2.951471,-3.3963208,3.3409185,-3.5681522,2.1180756,-1.0098649,2.05764,1.6871346,0.7173977,3.0103292,3.7829423,-0.10669609,4.0952964,-1.22087,2.942202,3.3588924,2.6115508,2.916268,-3.3301127,1.1669415,1.5518727,-1.3880818,3.227865,-0.99651957,-2.0654056,-2.0421102,-0.79121894,4.0715857,1.1817452,1.6412,-0.9440508,0.80426073,0.12234112,1.1217043,-0.5748236,3.8603213,-0.29266852,-4.004868,6.3105836,1.0631593,-2.001753,2.70639,-3.0283628,2.067542,1.0468756,-4.4619513,0.57631165,1.6708717,1.5018166,-1.9778074,-4.098406,0.7799867,2.828674,1.0945486,1.4388332,0.98906106,-3.8098938,1.3872038,-0.20405202,3.3102407,1.1769079,0.9065332,-0.95972013,-1.6905152,-2.4323146,2.8508167,-1.3620572,5.512349,0.4916608,2.0420728,-1.407687,5.57721,5.0312977,-2.1759274,-5.5936794,4.3511624,-1.8676434,1.1564298
COLO 205,-1.0579072,-1.5650721,-1.2083045,0.095228806,0.71176714,-2.3122554,1.1279173,-2.9139626,1.013477,-2.710118,-0.9597587,-0.15721893,1.7389256,0.75713104,0.88585407,1.3337175,-0.3836175,1.376388,0.89150184,-1.9531176,1.8124216,0.2759059,1.3745183,0.44020054,-0.27231154,0.87749505,-1.1368796,-2.1687405,3.2036767,1.1595994,0.23367244,-0.36523214,-2.0761025,1.216795,-0.34906825,-0.74831295,0.015741576,-0.12702632,0.35690966,0.53433925,-2.0783179,2.8578596,1.0578884,-3.855129,3.3942232,-0.85571826,-1.9225024,1.6248308,-2.3013406,2.710809,-0.71933484,-2.0001037,1.7787399,-0.6018122,-0.37136635,-2.8858278,-2.47185,0.04540843,1.0905334,2.2809649,0.80451536,-1.8582282,-0.04325684,0.835624,1.4896022,0.84293014,1.8230544,-1.0659821,-1.339253,0.2924314,-1.5509491,1.4867538,0.7289182,1.4169538,0.6273057,-0.54199094,-0.70788366,3.546347,2.3340223,-0.7002672,-1.9234351,2.1351404,-1.0082763,-0.9251602
JL-1,-3.2526038,-1.8975117,-1.0518951,3.7824368,0.24508658,0.73223996,-1.2807713,4.931315,1.7247248,6.476309,-3.0473876,0.19291562,2.9520204,-3.280903,-6.9491644,-2.2230866,-3.3717694,1.6109948,-0.78328836,6.92233,-6.2543144,-2.7458317,-0.9546408,0.5348789,4.1861734,-0.15231827,-0.9006588,-3.31103,-4.2166314,0.63142526,2.1361415,3.3246386,-0.60700047,-5.353582,-5.3675923,-0.6853297,5.5558476,-1.130514,-2.6575568,0.49377528,1.222151,1.4664143,-0.082903035,1.0350342,-1.1198423,-0.7227586,-0.81060153,6.0715437,-2.88537,-0.716261,-0.6850099,-0.9524072,-0.17086284,-2.075589,-0.38649914,-1.0914364,9.191872,-7.3274965,0.07149763,-0.74115026,4.5228148,-0.8413374,2.5837128,2.4881923,4.2165546,-0.20486164,3.6947372,3.2297652,-1.5009019,0.4407823,-3.7695782,6.8130465,3.635549,-4.1325607,2.70915,-0.8847092,5.752458,-1.0638326,2.3193042,4.494649,2.5478737,0.7901348,4.057869,-1.4665935
Namalwa,13.055044,6.4085608,-3.3989856,0.29274246,1.1890172,8.840927,-5.1250753,8.826339,-13.577352,-4.3630047,-1.6142285,-3.727524,-9.864209,9.852995,8.824949,-10.347588,-10.5775,-5.9970284,-7.2098145,-7.3701105,12.160184,0.47367126,-4.7748733,-8.74217,-2.9033186,2.5108955,-1.491513,15.240218,3.0773144,10.944561,4.8362417,3.3517623,16.58797,0.8846685,7.511723,-2.1822016,-1.2125901,10.30814,4.7392726,-10.971958,3.1217377,-9.803997,-6.315563,14.89205,-16.050184,1.3139595,15.85209,-19.394417,12.711016,-13.141642,5.438162,14.000691,-4.2211576,6.909685,7.4975123,2.615585,-8.314852,14.56399,-14.022766,-1.324562,-8.958244,7.341888,9.173135,-12.8980465,-7.4713435,-7.336894,-16.690899,-1.7381318,9.800514,-0.2809339,15.941295,-14.318131,-14.190186,-0.07042171,-7.4807143,-7.727646,-9.836481,-14.896617,-12.231532,-3.276552,14.303206,-12.272103,-5.0595818,8.436033
OCI-AML-2,12.103064,5.196315,-1.2856685,-1.7311667,-1.7085146,7.4206443,-1.1020696,6.869426,-11.830693,-2.0743268,0.44532278,-4.6848187,-7.768669,8.528297,5.328624,-8.790965,-6.44981,-5.5160027,-3.414198,-6.5581007,7.8733177,2.2842739,-5.6269274,-4.8609366,-4.291393,0.058578745,0.8831421,11.990665,2.9680417,6.942808,2.4226515,1.4573264,12.493504,1.7074952,5.2680373,0.17383784,-3.2956586,6.9154706,2.591018,-4.9794216,2.6542547,-7.827097,-6.7484355,10.519214,-12.096036,2.851363,11.056398,-14.9397745,9.777702,-9.568323,6.3565784,11.611698,-4.787261,5.4662423,7.1585155,2.575295,-5.801415,11.501687,-9.194056,-2.1896832,-8.025723,6.572569,7.500465,-11.008325,-4.791815,-2.1781116,-13.857872,-0.3184574,8.344567,-2.5980723,13.055511,-10.47587,-11.0579,-0.7789071,-6.2047415,-6.1805453,-8.999845,-10.511944,-8.715464,-4.434686,9.741043,-7.6854157,-2.9495354,7.6810727
PCM6,8.867321,3.9214342,-0.7654834,0.6903147,-0.27639455,5.8211455,-1.7799634,5.9870405,-9.147708,-1.2397345,-0.81690586,-2.7025638,-6.740386,5.8380036,4.2443476,-7.3627725,-7.3407536,-4.7321696,-4.645295,-4.0129514,6.926921,0.1482651,-4.1007886,-4.1532226,-1.6192305,0.11419725,-0.26812166,9.745616,1.2278006,6.0095363,2.2806988,2.629354,10.32511,-0.13180627,4.5267286,-0.66149455,-1.2875452,5.8859878,1.4551816,-5.453845,2.2171636,-6.8418746,-4.6899314,9.568149,-10.793131,1.7466518,9.785234,-11.955465,8.888254,-7.792949,4.4474373,9.167444,-3.135485,4.0031075,5.324987,1.9136006,-4.3963814,8.242804,-7.7595124,-1.4587111,-6.693572,4.8000937,7.0725107,-8.61228,-4.1716404,-3.2709584,-11.474196,-0.70659584,7.3094816,-1.093086,10.094632,-9.374321,-9.073339,-1.0871814,-5.7290053,-4.944312,-6.3810496,-9.911515,-7.9681597,-1.7697041,9.862644,-8.168539,-1.9233208,5.735829
J82,-0.5045987,-0.18844126,0.16232294,0.80505955,-0.5955155,0.4363168,0.024858106,2.059827,0.13973786,2.2069354,-1.0577037,-0.16326106,0.77198225,-0.89877945,-2.0961916,-1.3039138,-1.295349,0.07819843,-0.06545028,2.3024344,-1.3254606,-0.65793204,-0.47303012,0.49193493,1.1011251,-0.25228843,0.065204434,-0.14176758,-1.2084595,-0.16752654,0.32623127,0.9418709,0.54978555,-1.279907,-1.5132437,-0.06390768,1.3844045,-0.15285979,-1.2764298,0.35239667,0.16602004,0.30311564,-0.59219164,0.62181157,-0.49638048,0.26290435,-0.041414797,1.3963997,-0.53826255,-0.090756185,0.67072326,-0.16485624,-0.089782454,-0.30240807,0.29747605,-0.52883315,2.636816,-2.035362,0.14486983,-0.057081845,1.0703293,0.05686281,1.230064,0.43847424,1.0826513,0.16367562,0.62289685,1.3110323,-0.05452907,-0.08157424,-0.8828831,1.8684366,0.7093445,-0.9833059,0.37869382,-0.3227953,1.0652095,-0.50763947,1.0895212,1.254642,0.96309847,0.5027139,0.8183846,0.110592514
Kasumi-2,11.436799,6.46368,-2.06186,0.8404822,0.36783147,8.3606,-4.523738,9.203933,-11.608135,-2.3766546,-2.8450122,-2.94378,-8.574025,7.295863,5.7311726,-10.265269,-9.410502,-5.2645836,-6.5933247,-5.1577897,9.514341,-0.41868883,-5.422449,-7.2009754,-1.6002276,1.0976698,-0.104778476,14.000843,1.5784053,8.547074,4.1964817,2.3544023,14.846657,-0.07254451,5.4934115,-1.3755866,-0.6021433,7.2058706,2.8830028,-9.064639,2.9974859,-9.216325,-6.1493316,13.727845,-15.037888,1.9169633,13.347884,-16.286345,11.049472,-11.677098,5.2552457,12.631713,-4.3010654,5.298793,6.0213747,2.7377594,-5.5434337,11.83518,-11.64835,-2.1269429,-7.7683077,6.6114273,8.666452,-10.964328,-6.69809,-6.2180047,-14.4081745,0.055270083,8.905571,-0.25072035,13.837302,-11.590584,-11.756182,-0.8462907,-6.929437,-7.161333,-8.041636,-13.605359,-10.560611,-2.1836126,12.5733185,-10.856035,-3.5460603,6.7177916
PK-1,-1.4670826,-2.0812309,-0.3875857,-2.5753005,0.57843906,-1.9265444,1.6323528,-3.3378122,4.333921,-4.159467,1.2299664,0.12596768,3.2003267,0.894753,1.3093168,2.8305457,2.7935746,0.7576085,3.2863917,-1.1708668,3.23572,2.0766094,3.8582106,1.6985142,-2.3187697,2.0429125,0.2861661,-1.9338309,3.7398152,-0.8184693,-1.1641278,-1.1633096,-1.4323349,3.3080442,1.604623,0.668859,-0.26567143,0.9831741,0.8436486,0.1960617,-1.2316904,4.4121346,0.47477868,-4.479213,5.576022,-0.23707159,-2.299577,2.5740085,-3.356512,2.52791,-0.34278247,-5.3581934,1.6835004,0.876154,0.034288794,-2.7705376,-4.5102124,1.0593401,2.3132937,1.952523,1.9294527,-0.09021534,-3.3000958,2.2812405,0.42645752,2.0256422,2.0203562,0.1834101,-1.5880507,-0.25087437,-3.4636781,2.382148,-0.6016917,5.909895,0.99294466,1.5786997,-0.9453461,5.620489,5.3737493,-1.1440223,-4.844772,3.2861166,-1.667001,0.09078441
SNG-M,-1.0247623,-0.701563,0.53398514,0.045171037,-0.6355557,-1.004999,1.279161,-0.42353392,1.4534894,0.4743498,-0.5528211,0.3092971,1.4365789,-0.8635783,-1.3144588,0.41987473,0.711725,0.8213255,1.0495576,1.0950682,-0.9446324,0.20140494,0.39033297,1.3498403,0.36925238,-0.358163,0.469723,-1.084076,0.123242624,-1.1235613,-0.61519474,-0.31750253,-1.1200289,0.274886,-0.83397937,0.40031156,0.61667705,-0.84827197,-1.2170125,1.1898919,-0.5083607,1.4809469,-0.50758195,-2.020119,2.079769,0.46141487,-1.851187,2.5097237,-1.7407862,1.7610981,0.10329754,-1.8599616,0.8136418,-0.4139723,-0.2527726,-0.95398057,0.48547006,-1.5887345,1.8687844,0.37899944,1.1061083,-0.2512882,-0.33277965,1.3617306,0.8886889,0.9556213,1.3628594,0.6002839,-0.51857555,-0.3954306,-2.1386647,1.8283384,0.59673464,0.6381047,0.31779963,0.16270937,0.46457335,2.351224,2.4821274,0.4039575,-1.7013948,1.982231,0.3911387,-0.52369803
LOU-NH91,-0.90093046,-0.07113824,-0.03228777,1.1223025,-0.5542055,0.95003915,0.17808309,2.5277746,0.8846114,3.5649498,-0.7690347,0.24164258,1.2762316,-0.9588144,-4.213766,-1.6648176,-0.91912407,0.25731564,0.56636053,3.9952018,-3.2551355,-0.5448325,-0.4065676,1.607893,1.3361593,0.0817247,0.5721541,-0.7624543,-2.2075162,-0.3911368,0.5430066,0.76832354,0.7741327,-1.6202798,-3.0336435,0.59470004,2.475618,-0.5679819,-1.4787561,0.5672044,0.8533669,0.83731854,-0.7267644,0.93471694,0.24485442,0.54949325,0.1709971,3.4385412,-1.6095237,-0.40417236,0.6724238,-0.66315293,-0.53469586,-0.4399461,0.21043943,-0.24202886,4.9779263,-4.1462398,0.7556402,-0.7529995,2.5709083,0.27517548,0.53427285,1.6592892,1.241718,0.90134495,1.6818835,2.5575452,-0.7592775,-0.80456436,-2.0133414,3.9149108,1.1157538,-1.388115,1.319513,0.18862455,2.8141544,-0.3589966,1.8124045,1.4297936,0.3170025,1.6126475,1.1975344,0.17538156
SF767,-2.109807,-2.869728,-0.8177673,-2.5737195,1.5644286,-2.6960595,1.6196634,-3.9185972,5.793034,-6.439295,0.9010569,0.736366,4.73247,0.4014119,1.9176362,3.4842055,3.1282015,1.5064577,3.4823623,-1.6611725,4.411159,1.7320657,5.4252195,1.5822334,-1.7714567,2.8543837,-0.3051308,-2.7415905,4.770646,-0.47668746,-1.3472114,-0.87846,-2.1373222,3.7931747,2.3392987,0.17555124,-0.43109933,0.8418995,1.671633,-0.35384625,-2.0257378,5.392669,1.2118073,-5.350269,6.632646,-0.8310436,-3.62343,3.097492,-4.034777,3.1226182,-1.1567651,-6.6668124,2.3021877,0.8956506,-0.46364373,-3.0586085,-6.6279035,2.183201,2.6579537,2.7318952,2.5475242,-0.7481462,-4.235054,2.7081478,0.42285398,1.5993649,2.6159286,-0.8426395,-1.9867038,0.5359526,-4.007104,2.2343614,0.02660103,7.20644,1.5500844,1.9689372,-1.4189905,7.1050806,6.284521,-1.0354465,-5.8854527,3.4054534,-2.0742993,-0.35393775
WM1799,-0.71159387,0.04641564,-0.10367586,2.2121813,-0.51726353,-0.037113138,1.1442724,1.9675328,0.04461009,3.2475748,-1.6535077,-0.8511406,1.0374349,-1.097811,-3.0720387,-2.6421294,-2.8982086,0.28089097,0.5070008,2.8496187,-2.4916964,-0.85254246,-0.8713688,1.7067262,1.4415928,-1.1140932,0.48446414,-0.8337554,-1.2146366,-0.35499665,-0.07363158,0.36007097,0.09068498,-1.533377,-3.399176,-0.061847355,1.854488,-1.3706948,-2.5199742,0.3464642,0.58444685,0.54335284,-0.34242177,-0.3235641,-0.36734655,0.6210138,-1.1614556,1.8477026,-0.7845637,0.63451546,0.98952293,0.28189313,0.23122771,-1.0384927,0.5859986,-0.70019007,4.167943,-4.0754213,0.9377183,-0.17848219,0.9377286,-0.36464506,2.552219,0.61436784,1.8833772,1.2128237,1.9018595,1.0147656,-0.37897915,-0.76400733,-1.8950244,2.5763285,1.6396383,-2.7260282,0.6359855,-0.9547368,2.0872717,0.23347504,1.4897149,1.1570064,1.0844302,1.4176987,0.9456749,0.44266427
NCI-H1651,-0.30714974,0.0029701563,0.056439627,0.84306467,-0.74157625,-0.21710032,0.6351809,1.0611299,0.3394299,1.573882,-1.1051805,0.08149806,0.79435366,-0.54355955,-1.7259823,-1.1080474,-0.76643956,0.2567357,0.19387627,1.5811667,-0.969157,-0.30981952,-0.5694653,1.0734165,0.8010228,-0.36951125,0.043076675,-0.49448258,-0.46122545,-0.43713596,0.05564645,0.14928022,-0.041406155,-0.5237486,-1.7246339,0.22150974,1.098087,-0.9821812,-1.5973823,0.92400986,-0.27999595,0.66512465,-0.49169716,-0.53564864,0.7211932,0.31542453,-0.6619596,1.8095298,-1.3141522,0.82985336,0.74708515,-0.20578173,0.09761883,-0.43603647,0.05526516,-1.0606296,2.0177083,-2.0942302,1.0724772,0.4452098,1.0970514,-0.16607255,0.85063344,0.8470299,0.84265214,0.5048621,1.1865927,0.9202229,-0.23403464,-0.2863198,-1.2867213,2.1224418,0.91848296,-0.95633566,0.36040533,-0.62968427,0.70328563,0.5753551,1.3638344,0.53219986,-0.29155567,1.271824,0.09510044,-0.05936117
Becker,-1.6455067,-0.9230517,-1.2136452,2.400884,0.23746654,0.7050322,-1.0799847,2.7767534,0.071354754,4.3294735,-2.0592258,-0.21398544,1.4676702,-1.5346591,-4.2003374,-1.8567752,-2.919882,0.6690057,-0.43515703,4.162656,-3.9018667,-1.6637329,-0.82994306,-0.1338516,2.9032104,-0.016181113,-0.64927506,-2.0052588,-2.7381523,1.3350705,1.8721261,2.3397324,0.39682442,-3.4321928,-3.632117,-0.3828112,2.9641783,-0.09066402,-1.2774823,0.23021622,1.0784568,0.78469414,-0.32411253,1.3069994,-1.5652751,-0.2348472,0.233616,3.082597,-1.4655379,-0.9015891,0.22447723,0.2574633,-0.3618182,-1.1258307,0.1993887,-0.3364019,6.1299896,-4.4697394,-0.9381717,-0.49355704,2.7171142,-0.39539963,2.1558192,0.9686452,2.5992436,-0.11202996,1.8152629,2.2157047,-0.6131321,0.30012813,-1.6123495,3.880464,1.913618,-2.9241486,1.4692531,-0.6653266,3.7979264,-1.421267,1.0141344,2.528363,2.3366883,0.7430642,2.4552379,-0.6087982
SaOS-2,-1.2260435,-0.87663525,-1.1157331,2.4624524,0.20542295,0.5624814,-1.092748,3.0685458,-0.37528276,3.5625887,-2.2994761,-0.50176215,1.3424324,-1.0208904,-3.5236783,-2.585917,-3.2980855,0.79978603,-0.6397236,3.4225218,-2.2989163,-1.5581204,-1.0980363,-0.34891504,2.7144334,0.22510897,-0.74894017,-1.226588,-2.1668186,1.4628175,1.8974463,2.7630894,0.17336103,-3.2647855,-2.990162,-1.0330868,2.9562104,0.16818058,-1.336675,-0.42911276,0.2837833,0.5636969,-0.6849926,1.2394689,-2.252689,-0.40810135,0.26362285,1.9686829,-1.1605257,-0.6806087,0.27914372,0.75431293,-0.2905142,-1.2232833,0.4380525,-0.94351137,4.7707396,-3.7199814,-0.94977945,-0.19261919,2.1668355,-0.4478136,2.899399,0.6014836,2.6670241,-0.32591057,1.1571051,1.7497982,-0.34626606,0.30689514,-1.2131753,3.2386363,1.8853377,-3.0026731,1.1503224,-1.4710908,2.6995099,-1.5369375,0.8499004,2.4998457,2.9278176,0.317994,1.8419497,-0.21666172
HCC1143,-1.5817889,-1.5124274,-0.43906528,-1.6158975,0.5909566,-1.488742,1.5106931,-2.5231984,3.5984025,-2.2601283,0.7367863,0.3217318,3.0721736,0.2086489,-0.7880678,1.732214,1.9983013,0.95533144,2.6766112,0.09100648,1.1129621,1.3066179,2.9929688,1.3884128,-1.096532,0.9188189,0.38163748,-2.237196,2.27707,-0.4471988,-0.62667906,-0.9852535,-1.2308265,2.1563098,-0.14497226,0.66966033,0.27269694,0.14085315,0.37168598,0.51479566,-0.7220033,3.8121605,0.6063489,-3.6490836,4.703093,-0.07413915,-2.4328628,3.8080778,-3.0422826,2.161831,-0.19242063,-4.2995243,0.9126331,0.5884441,-0.08460277,-1.9028788,-1.6653445,-0.52966577,2.1296136,1.1237507,2.2986298,-0.3566995,-2.8078334,2.094093,0.5539874,2.1234574,2.1409369,0.39483353,-1.4440029,-0.3742309,-3.3584898,3.2959719,0.15396196,3.8469758,1.4767637,1.6061878,0.482483,4.553296,4.651455,-0.7903862,-4.0182457,3.2615154,-0.90145594,0.06930508
Hs 729.T,-4.030559,-3.2246976,-1.9435253,5.227752,0.7905004,1.5966767,-2.6149828,6.9212327,0.694665,8.134966,-4.373699,-0.6638601,3.0046377,-3.9565814,-7.0942616,-2.646147,-5.9537144,1.3193027,-2.0970137,8.268646,-6.773856,-4.158577,-2.1263697,-1.0316995,6.1664324,0.33567053,-2.012613,-4.2276773,-5.706121,2.5371113,3.4307199,5.9625773,-0.7018933,-7.958803,-4.872572,-2.0700612,6.683576,0.21517944,-2.7301087,-0.50159144,2.073548,1.4233791,-0.15200378,2.8094387,-4.486781,-1.6586921,0.05056723,5.2708187,-2.066135,-2.5741014,-1.1553549,0.19619583,-0.1867867,-2.3849006,0.03700548,-0.8580631,11.096764,-7.5889964,-2.2691176,-0.70738626,4.872236,-1.1370767,4.821968,2.3014314,6.012866,-1.3785233,3.6583607,3.5731428,-0.98836404,1.2847385,-3.2012796,7.1130867,4.618744,-5.6376095,2.9036,-1.7762487,6.744227,-3.125258,1.2907842,6.8414993,6.016634,-1.0763803,6.2567673,-1.7568693
SK-BR-3,-0.74763703,-1.5984447,0.26238084,-0.0707547,-0.41845217,-1.3552897,1.3965085,-1.6750695,1.5176802,-1.5557466,-0.8881017,-0.34520707,1.6465888,0.04358182,0.8858303,1.3144637,0.025793258,0.43217435,0.7180662,-0.6010909,1.7206728,0.37251985,0.68513745,1.1037136,-0.29380646,0.35230514,-0.32816085,-1.1672348,1.9925978,-0.123297155,-0.6903818,0.3760072,-1.7451255,0.6383631,0.99002415,-0.4676979,0.22935285,-0.0908361,-0.83447176,0.6916404,-1.5740576,2.2971292,-0.17962712,-2.8684254,2.4075284,-0.3730339,-2.1458838,1.144507,-1.9060766,1.8019967,0.44088745,-1.6334931,1.5200979,-0.065715104,0.16637416,-2.7036946,-2.357629,0.25616473,1.124121,1.8481429,0.60577506,-0.84050244,0.47940236,0.4478147,1.5864209,0.7184184,0.99417835,-0.44589493,-0.54737276,0.07001337,-1.380493,1.1556729,0.74511874,1.5072246,-0.30911982,-0.35875276,-1.2039826,3.0449018,2.4281504,0.19250506,-1.6105449,1.7559966,0.020596443,-0.60901624
JIMT-1,-1.086778,-0.676498,0.54434353,-1.152124,-0.404243,-0.6831031,1.4741638,-0.7177152,2.9711835,-0.8021497,0.56626457,-0.22988665,2.4300804,0.37581062,-1.2218068,1.0230085,1.5234199,0.50491405,2.6239736,1.214866,0.56855977,1.6708465,1.7596925,2.3517103,-1.3815062,0.9714129,0.6073119,-1.2439431,1.1854599,-1.4648756,-1.0942659,-0.84857434,-0.6847354,1.6654693,-0.6371466,0.84431964,1.0459951,-0.27806315,-0.9560566,0.95651764,-0.7815904,2.992375,-0.23446809,-2.6806304,4.0160866,0.2781801,-1.7234583,3.1065252,-3.018007,1.791735,0.466941,-3.2366982,0.5962346,0.3292869,0.36751345,-1.9069899,-0.5840778,-1.5825672,2.6228197,0.83112514,2.3643878,0.37327832,-1.7158889,2.2201152,0.6815888,2.0174959,2.116933,1.3127608,-1.4065598,-0.7513481,-3.3488288,3.2900448,0.12362774,2.7821882,1.2307832,0.9149456,0.18108863,3.9430645,4.581287,-0.3876522,-3.2748456,3.2696912,-0.62127507,0.53142095
KO52,12.123436,6.134155,-1.4219569,-0.876578,-1.5573058,6.7413507,-1.8878269,6.93867,-12.916776,-2.3106384,-0.5888695,-4.311343,-8.520046,8.805773,6.4779534,-9.6175375,-8.12706,-5.2907166,-4.9857492,-6.9364104,8.256552,1.545678,-6.1553125,-6.1184683,-3.4621677,-0.42078856,0.5645914,12.838016,3.149037,7.3875117,2.6473858,1.8799953,12.783462,0.87428385,5.3621163,-0.6078444,-2.9761832,6.6426325,2.5803835,-5.1364956,2.5023785,-8.668374,-7.1034894,10.63532,-12.710799,2.7355423,10.92049,-16.201948,10.315582,-8.933005,6.136794,12.853005,-4.692718,5.0725164,6.9085035,2.3350015,-5.701622,11.840862,-9.292293,-2.1875253,-8.8334,6.0160856,8.838223,-10.759795,-5.2470336,-2.920096,-14.032378,-0.9474615,8.810257,-2.0967124,13.932234,-11.474364,-10.546294,-1.4697117,-6.6904674,-7.0980997,-9.239266,-11.223688,-9.819236,-4.4006214,11.339523,-8.557346,-2.198988,6.530166
FaDu,-0.71739066,-1.4931687,-0.95859784,-2.044219,1.0616609,-1.3015249,0.99765444,-2.053962,3.2362566,-4.3925533,0.7630149,-0.085894644,2.8609874,1.0704811,1.2749302,1.8377165,1.6112108,0.47361934,2.5560305,-1.0456811,3.7208998,1.6540744,3.3347473,1.0710921,-1.6785641,2.44201,-0.18029843,-1.059416,3.3273797,0.21297863,-0.58446825,-0.3798845,-0.69862366,2.8572187,1.7442628,0.123177215,-0.19333002,1.1810943,1.2478083,-0.43236578,-1.2177049,3.5601292,0.39284343,-2.8277545,4.183396,-0.28472865,-1.7043362,1.3333427,-2.5703232,1.4837861,-0.21995133,-3.7572112,1.1830307,1.2332845,0.28722185,-2.232959,-4.6938734,1.9026972,1.3151815,1.7320402,1.6428204,-0.091282755,-2.445166,1.4098971,0.3390556,1.403486,1.4041125,-0.3482074,-1.0658891,0.17987332,-2.2358968,1.4694672,-0.59914255,4.9862456,1.0219024,1.0578498,-1.4562166,4.0802383,4.1225615,-1.0733856,-3.488598,2.3224044,-1.9869622,0.37164482
COLO 800,-0.7312151,0.023671031,-0.5493319,2.2453935,-0.25226805,0.7966755,0.27368963,2.393718,0.24613902,3.4947565,-1.6441456,-0.7472803,1.0512553,-1.270667,-3.664833,-2.7086759,-3.1536963,0.41988865,0.106322676,3.4083698,-2.9061296,-1.0631287,-0.64854056,1.2804872,1.665839,-0.9832482,0.25161287,-1.018141,-1.7952205,0.26460668,0.7548259,0.8986809,0.5736544,-2.0276258,-3.6237586,-0.13098465,2.5438125,-0.8600297,-1.9426088,-0.1613086,0.97567576,0.53357494,-0.24478936,0.30829167,-0.83874655,0.41169366,-0.3071382,2.308556,-1.1110988,-0.32527792,0.66730577,0.038431752,-0.074860066,-0.86724985,0.6015402,-0.42857024,4.9125934,-4.6140347,0.2779324,-0.63315815,1.4844763,-0.28146425,2.4704847,0.5264359,1.6349515,1.0606691,1.7184205,1.7131903,-0.7013198,-0.75752723,-1.8074374,3.2534537,1.4652005,-2.7483406,1.0753229,-0.83460474,2.7219577,-0.36442056,1.1636653,1.69872,1.6684254,1.2412574,1.1829106,0.67138946
BL-41,14.628769,6.565358,-3.6758044,0.47847384,1.2376412,9.642681,-5.5144205,9.134542,-15.06572,-5.506279,-1.751032,-3.9870274,-11.277428,11.101318,10.631375,-11.23177,-12.103967,-7.1030974,-8.628275,-9.018349,14.512898,0.42598295,-5.400841,-10.413034,-3.4258513,2.4444017,-1.9832469,16.978485,3.4594388,12.562635,5.291008,3.9410977,18.177782,1.0552901,9.061245,-2.6598377,-2.0496273,11.694605,5.388976,-12.278867,3.0842915,-11.052327,-6.7028236,15.906517,-18.282576,1.5809108,17.38705,-22.034609,14.9225,-14.695279,5.641568,15.827521,-4.3632793,8.019247,8.081173,2.8291204,-10.44044,17.244627,-16.173584,-0.8277684,-10.844643,8.0985365,10.219438,-14.966385,-8.46768,-8.564647,-19.332829,-2.8406157,11.213533,0.35299042,18.136326,-17.095798,-16.019077,0.26617768,-8.519882,-8.3963375,-11.517574,-16.69762,-14.246184,-3.7715075,16.336327,-14.29465,-5.8721123,8.888396
NCI-H2009,-0.81243294,-1.039419,-0.26143858,-1.0850034,0.19228718,-1.3102487,1.1352819,-1.6323456,2.2602308,-1.7033186,0.25854924,-0.040915716,1.9928738,0.08367579,-0.042837746,1.3002379,1.1892248,0.5327352,1.6286951,-0.3967406,1.425705,0.9989719,1.8394405,1.0386981,-0.99255544,0.7679741,0.08159599,-1.377939,1.9521317,-0.37046883,-0.72868687,-0.2282152,-1.0864553,1.5070003,0.22871041,0.27753714,0.23403913,0.12829222,-0.11069115,0.55834615,-0.91261536,2.4875557,0.3505135,-3.007791,3.147611,-0.068270795,-1.7565818,2.0995014,-2.068062,1.8898946,-0.14907244,-2.8826237,0.95390004,0.18972869,0.06443143,-2.1141925,-1.6395557,-0.065330744,1.4820867,1.2264563,1.3060263,-0.27327228,-1.5099808,1.3061527,0.81590164,1.0952255,1.3924302,0.089821786,-0.95663476,-0.061437305,-2.149674,1.7248328,-0.021925444,2.5298767,0.6152889,0.60720074,-0.25519127,3.173077,3.323138,-0.64719605,-2.6072757,1.9408928,-0.7133854,-0.27515018
NCI-H508,-1.8589066,-2.1524665,-1.1403201,-0.9042722,0.49088323,-3.304655,2.1778367,-5.2423325,2.7370377,-3.588202,0.06211532,-0.23279418,2.7971964,1.0183736,0.48769423,2.5809722,1.5912156,1.960113,2.5456805,-2.0384877,1.7510774,1.6290534,2.5116594,1.6594881,-1.3347068,1.1491511,-0.57285255,-3.7052333,4.1699934,0.78029346,-0.2381713,-1.4011657,-3.1239312,2.3384383,-0.77826476,-0.03710401,-0.05838271,-0.2521349,0.7683075,1.467134,-2.3010223,4.735498,1.4784522,-5.8546987,6.502338,-0.8330953,-3.1710248,3.882225,-4.2630253,3.647602,-0.6467789,-4.0866995,2.209606,-0.65470743,-0.44011515,-3.292457,-2.796763,-0.65666777,2.1918259,2.237083,1.8547206,-1.9382231,-1.6715982,2.032107,1.8904421,1.8166558,2.9565067,-0.8073121,-2.7569401,-0.23137683,-3.1856294,3.1492167,1.1153861,2.8238497,1.3564358,0.5775266,-0.07204438,6.1117964,3.808873,-1.5221308,-4.6845536,4.483967,-1.3664472,-0.94028574
Calu-6,-0.36001,0.09109432,0.51406133,1.5300516,-1.0646949,0.049647808,0.78473073,1.8607403,-0.74038625,3.5355566,-1.6247925,-0.576279,0.4332136,-0.9601034,-3.007573,-2.0117607,-2.0001822,0.3008105,0.11751856,2.127916,-2.2660038,-0.6123542,-1.8528312,1.6022245,1.44741,-0.91587776,0.1565516,-0.09555741,-0.90755475,-0.16301714,0.12248697,0.88954294,-0.5055138,-1.5425491,-2.8815813,-0.16419081,1.0386829,-1.3464481,-2.7517493,1.2906935,-0.32494253,0.17914572,-0.9336326,-0.34168997,-0.38597584,0.54072267,-0.7398129,1.684597,-0.96326977,0.40440872,1.0912933,1.268832,-0.09624218,-0.9530373,0.46557152,-0.77597743,3.75609,-3.0197096,1.0014126,0.13518284,0.59814364,-0.3200071,2.4602451,-0.08850717,1.9702637,0.8372616,1.148856,1.3285221,0.15492445,-0.60725814,-0.83469635,2.7557242,1.651937,-2.8529217,0.31404677,-1.4267038,1.1445482,-0.11155251,0.7070546,1.0940022,1.0476041,1.4820304,1.1804925,-0.1045654
TYK-nu,0.2993911,0.24674518,-0.5609962,1.1976252,0.06279344,0.55525136,-0.2573597,2.2342157,-0.81765014,1.5138764,-1.2268018,-0.032146085,0.7385179,0.14580953,-1.739397,-2.4210255,-2.682437,0.20193443,-0.45021558,1.5097659,-0.51034856,-0.2762122,-1.1506262,0.15198264,1.2826873,0.3086483,-0.19904737,0.90814364,-0.58338517,0.7196736,0.8622041,1.2328877,1.3046986,-1.0978994,-1.6965563,-0.48015812,1.6716605,0.10556023,-0.6629598,-0.59312063,-0.0446315,-0.044598248,-1.144687,1.1075011,-1.5672133,0.23829348,0.81293416,-0.026847823,-0.22949642,-0.68405044,0.6965889,1.3031904,-0.5596178,-0.40950245,0.49653113,-0.483209,2.1056352,-1.4774339,-0.4422882,-0.04113136,0.46375144,-0.13953884,2.4887595,-0.12391963,0.7895077,0.044660036,-0.0009347206,0.8780643,0.4105573,-0.27837616,-0.23167783,1.2990962,0.2500442,-1.6157619,0.12405266,-1.6650405,0.49263874,-1.3284942,0.12010059,0.6615078,2.0583754,-0.09461247,0.734756,0.5867321
COLO 679,-0.09567511,0.8579013,-0.2724709,1.8124855,-0.7061974,0.07877028,0.95774686,1.8079339,-0.6708851,2.52837,-1.4225115,-0.87233543,0.5992896,-0.66793144,-2.4988532,-2.7126484,-3.0625832,0.19967632,0.42899123,1.8847264,-1.6783204,-0.8574433,-1.0679476,1.8707789,1.1042893,-0.8205353,0.58595425,0.007389061,-0.72181004,-0.38404348,0.001459422,0.01047287,0.842512,-0.8642366,-3.0716486,0.08483485,1.4847975,-1.6260791,-2.0606816,0.24397178,0.29477292,0.24134977,-0.69818413,-0.18963596,-0.17985775,0.8469006,-0.824928,1.134976,-0.7634032,0.7068389,1.2178437,0.7971143,0.18630809,-0.9226861,0.47302175,-0.6506095,3.057505,-3.3931706,1.1721722,-0.2663519,0.42979106,-0.09181543,2.8637052,0.21185353,1.0974152,1.3060259,1.3897803,0.8188307,-0.22905071,-0.91538495,-1.4672086,2.21423,1.328853,-2.6480644,0.52640045,-1.6009278,1.3243549,0.16474642,0.95350444,0.53242236,1.0343211,1.6816279,0.029591545,0.7435144
YD-15,-1.0404687,-1.4126822,-0.096646726,-1.8050814,0.7205258,-1.6714518,1.5401306,-2.3531644,3.553199,-3.6124809,0.7434394,0.15895739,2.875148,0.6168131,0.46356064,1.7642529,2.3388064,0.71350294,2.714423,-0.7815211,2.3701735,1.8903401,3.2423115,1.4393762,-1.3899124,1.415052,0.26255843,-1.7294004,3.1037996,-0.9240715,-1.1577438,-1.21221,-1.0649425,2.4396343,0.916416,0.6187403,-0.09446008,0.4911942,0.65063417,0.34534797,-0.9176389,3.637653,0.5527769,-3.4947698,4.837133,-0.023191022,-2.1260204,2.5949855,-2.8308752,2.1823337,-0.17063333,-4.379823,1.2696475,0.62113684,0.096248046,-2.2350848,-3.640947,0.78258413,2.13985,1.2642957,1.7702922,-0.30492318,-2.7938333,1.7065679,0.20768537,1.6795806,1.7186526,0.05314586,-1.53393,-0.15077347,-2.8930109,2.1865828,-0.5428406,4.7593093,0.7726476,1.2382663,-0.5377394,4.730697,4.629936,-1.201383,-4.1891923,2.7691176,-1.3345591,0.06965894
CL-14,-1.8896106,-2.0843756,-0.4819975,-1.1943101,0.39716488,-3.169974,2.1166275,-4.608349,3.7112732,-3.3099155,0.54152936,-0.08261346,3.189878,0.8073884,0.24671727,2.738206,2.329309,1.7523998,2.6335857,-1.2897664,1.7286347,1.7618345,2.6750355,2.114465,-1.5008495,1.1065044,-0.08877047,-3.4624782,3.5221338,-0.1967567,-0.8096411,-1.7622699,-2.9695218,2.5915163,-0.80435765,0.2696979,0.15730172,-0.58989793,0.26620054,1.4472747,-2.2192435,4.598227,1.2395755,-5.691118,6.3074574,-0.56284016,-3.219668,4.1948876,-4.3650165,3.8847823,-0.65144384,-4.82495,1.9260892,-0.40863228,-0.31872874,-3.129167,-2.8446386,-0.9700405,2.775795,2.1058562,2.1257486,-1.390168,-2.5842907,2.7085297,1.0843024,1.9934839,3.312324,-0.3976659,-2.6297176,-0.23264377,-3.7470903,3.44876,0.7619242,3.6347625,1.5082597,1.1301305,-0.030639624,6.545346,4.779438,-1.5717735,-5.1733227,4.229431,-1.365653,-0.6976583
M059K,-2.843522,-2.2519627,-1.7676545,3.8321164,0.53930634,0.96218383,-2.1136475,4.9144006,0.5832058,6.096643,-3.22101,-0.34095973,2.1854537,-2.9269576,-5.3571916,-2.2253687,-4.277266,0.8611334,-1.7379037,6.1908817,-5.062204,-3.2179222,-1.1467105,-0.8839098,4.7019253,0.3232093,-1.4245082,-3.067502,-4.215582,1.950564,2.5431604,4.5057445,-0.09217869,-5.909486,-3.833643,-1.4064347,4.861543,0.3854758,-1.7626985,-0.4888748,1.6215008,1.0959117,-0.17087819,2.203567,-3.4899838,-1.3366454,0.2764236,3.8317068,-1.3420521,-1.8664787,-0.72780204,0.15703349,-0.064438194,-1.668399,-0.06515381,-0.5370896,8.193848,-5.9171133,-1.8883882,-0.61994696,3.7270164,-0.8396459,3.19631,1.4729592,4.4561715,-1.0300773,2.3480947,2.6124158,-0.67328745,1.0440472,-2.2711596,4.986109,3.1735723,-4.0669255,2.1230426,-1.0812777,5.2940288,-2.6631532,0.99848294,5.1329303,4.4130063,-0.76334363,4.3739476,-1.3433228
KLM-1,-1.996263,-2.2921472,-0.041057006,-2.795,0.73369366,-2.5936613,2.1371086,-4.193466,5.3075314,-4.970637,1.4138991,0.4311991,3.8962793,0.7052182,1.1752013,3.5502226,3.3606277,1.1420538,3.6597047,-1.3922828,3.521058,2.2940745,4.5497894,2.0534363,-2.393305,2.0171278,0.30628973,-2.4519272,4.085948,-1.3032683,-1.5742828,-1.4893689,-2.1056755,3.6806352,1.8984436,0.61249065,-0.38786897,0.4498773,0.6251307,0.51254433,-1.5754485,5.1810803,0.82699645,-5.6469774,6.6925697,-0.29585767,-3.419598,3.3909547,-3.8929846,3.432154,-0.37253982,-6.32198,1.7984642,0.82215726,0.020341035,-3.0640135,-5.338482,1.1526439,3.0760286,2.092784,2.329394,-0.18831941,-4.025301,2.5591812,0.45248917,2.2139397,2.5200884,-0.07755921,-2.0076141,-0.066827394,-4.2042975,2.6921165,-0.33049804,6.5988135,0.92103046,1.9836226,-0.90006274,7.0512705,6.4331646,-1.5998403,-5.934951,3.7648969,-1.7200148,-0.0101082185
SNU-1214,-2.2937057,-2.4854293,-0.31171048,-2.8852847,1.464466,-2.8869898,2.2049286,-4.206739,6.117147,-6.090942,0.8141352,0.9414933,5.0213175,0.1858149,0.9030149,3.1696365,3.6412296,1.1831586,3.956335,-1.539207,3.8937256,2.017763,5.617935,1.9896445,-1.6947556,2.0967855,0.16856745,-2.9954321,4.886011,-1.2210171,-1.8173105,-1.6101009,-2.0066824,3.6569893,1.854446,0.8334906,-0.43805572,0.31404757,1.2181594,0.34643617,-1.9856025,5.6217995,1.1265422,-5.63302,7.08041,-0.3732583,-4.1821775,3.987505,-3.9209833,3.5254273,-0.89226145,-7.1967387,1.8706084,0.96423006,-0.6062971,-2.848885,-6.262202,1.7608174,3.5082695,2.0834622,2.72958,-0.5899339,-4.6452746,2.5910656,0.3988225,2.114778,2.6935165,-0.4253892,-2.0283499,0.1665414,-4.5223703,2.9509296,0.030144107,7.415914,1.3679398,2.0708356,-1.1024886,7.4707193,6.8260884,-1.268814,-6.4542155,4.03142,-1.7247462,-0.20332651
LC-1/sq-SF,-0.5255254,-0.28759602,-0.35165212,-0.33241224,0.10218655,-0.6021407,0.98495466,0.4445895,1.6761216,-0.57150507,-0.5505167,0.27119103,2.174019,-0.18348901,-1.1161551,-0.21952146,0.17574197,0.5565264,1.6897227,0.9743816,0.5017874,0.7162023,1.1798275,1.9980723,0.054134022,1.3179148,0.05220071,-0.4106336,1.1705076,-0.38417098,-0.25837395,-0.022716176,0.11668679,1.1224276,-0.79898536,0.29297417,1.1399803,-0.44679907,-0.4296766,0.26282397,-0.7899048,2.216437,-0.60350746,-1.2701339,2.199087,0.11802499,-1.3172808,2.1166987,-2.2579772,1.1190976,0.7120762,-1.4895688,0.4334668,0.41079694,0.20470552,-1.4528967,-0.42417225,-0.6180162,1.9113688,0.6512634,2.0679245,0.063354865,-0.2475505,1.3628836,0.8370346,1.1451496,1.6443624,0.71539956,-0.68531287,-0.30865782,-2.3954558,2.4644258,0.53558385,1.6392246,0.88249505,-0.18082604,-0.0834126,2.32151,3.2159495,-0.13290383,-1.7258791,2.4407485,-0.9292862,0.22695972
EM-2,8.710171,4.7666955,-0.6350173,-0.6848273,-1.9327097,5.4338555,-0.9631068,6.4002852,-9.086973,-1.0415559,-0.21866372,-3.6926413,-5.437303,6.4729486,2.5970387,-7.6268353,-5.9614644,-3.4979248,-2.3030772,-3.798174,4.9570503,1.39009,-4.830405,-2.6519413,-2.8947554,0.22705428,0.87156916,8.313004,1.6496669,5.0696697,1.8227477,0.89842296,9.793927,0.5742464,2.710389,0.188466,-1.5903636,4.361508,1.1328297,-3.078264,2.1916783,-5.9858756,-6.0054607,7.9947233,-8.078154,2.3176818,7.8441133,-10.494608,6.078095,-6.5793467,4.5913777,9.319405,-3.974938,3.6114125,5.224704,1.1722496,-2.723077,7.3731008,-5.823332,-2.085126,-5.3816934,4.4325085,6.4493103,-7.695637,-3.0732722,-0.88397557,-9.62784,0.9998931,5.72803,-2.4793108,9.316135,-6.0629554,-7.3427644,-2.0115795,-4.296314,-5.0333743,-6.460832,-7.9368606,-6.0141187,-2.985381,7.2274585,-4.539246,-1.3551791,5.2638516
