,E0,E1,E2,E3,E4,E5,E6,E7,E8,E9,E10,E11,E12,E13,E14,E15,E16,E17,E18,E19,E20,E21,E22,E23,E24,E25,E26,E27,E28,E29,E30,E31,E32,E33,E34,E35,E36,E37,E38,E39,E40,E41,E42,E43,E44,E45,E46,E47,E48,E49,E50,E51,E52,E53,E54,E55,E56,E57,E58,E59,E60,E61,E62,E63,E64,E65,E66,E67,E68,E69,E70,E71,E72,E73,E74,E75,E76,E77,E78,E79,E80,E81,E82,E83
HuCC-T1,-0.9859944,-0.48442468,0.65552646,0.6566798,-0.3287444,-0.911219,1.3297497,0.13420615,1.8403735,0.47545168,-1.1678638,0.38548124,2.2900367,-0.7781056,-1.8978263,-0.2195535,0.012992673,0.9760762,1.2151266,1.7612214,-0.5054947,0.4228537,0.7092853,2.2614274,0.48865932,0.48688498,0.38318044,-1.0534127,0.43866402,-1.3502538,-0.63121396,-0.28968477,-1.1467744,0.42478576,-1.6686276,0.26794133,1.6604112,-1.7570356,-1.5343686,0.81117517,-1.186585,1.9839232,-0.28210428,-2.263067,2.4135876,0.11945392,-2.111486,2.8417015,-2.8931687,2.01921,0.07120329,-1.9725273,1.0612733,-1.180553,-0.3247457,-1.7914506,0.6700342,-2.4497871,2.2858143,0.69251,2.198411,-0.45598453,0.091897674,1.6815473,1.1560597,1.3399364,2.1619465,1.0695213,-0.88284194,-0.2380309,-2.6782172,3.2033775,1.1046607,0.6529231,0.98192626,-0.22940299,0.42865598,2.8765097,3.2470658,0.50688076,-2.036001,2.4954314,-0.25080106,-0.4908904
OPM-2,4.59122,2.672396,-0.04432374,2.479938,-0.7562667,3.036469,-1.3261467,5.5166326,-5.925175,0.6339214,-2.4625337,-0.9826605,-3.5904534,2.9144528,1.3531632,-6.1264563,-6.340203,-1.7686177,-3.2512043,-0.77332705,3.3493638,-0.054545164,-3.2657707,-1.6010894,0.45326588,0.17197034,-0.092224464,5.77915,0.05993582,3.1402128,1.4403489,1.4505492,5.764807,-1.1782999,1.2631927,-1.0568562,0.8310713,2.07133,-0.69156456,-2.7648957,1.0299642,-4.535232,-3.9442866,5.778016,-6.5586495,0.95832294,4.951571,-6.1815143,3.815235,-3.9669404,2.986733,6.5723352,-1.2788486,1.5088346,3.1284041,0.3240174,-0.8345604,3.178428,-3.7696211,-0.8936676,-2.9672241,2.6562505,6.6484303,-5.281856,-1.5414535,-2.4514136,-5.9264836,-0.25486165,4.4230647,-0.27199692,5.2616863,-4.2594013,-3.9818273,-2.383793,-2.826384,-4.5240235,-3.646487,-5.921451,-4.0557523,-0.17555997,6.6615853,-4.187341,-0.7707735,2.8614707
ECC4,-1.2177222,0.28303352,1.1258047,4.041149,-2.2359824,-1.2590106,1.8788843,2.4196203,-1.0345442,4.85616,-3.9444163,-0.1677864,0.96062756,-1.8395196,-4.5019436,-4.236061,-3.5937173,2.0891838,0.5143625,3.0254755,-3.0886443,-0.95416534,-2.6508753,4.2183895,2.5303473,-0.9412674,-0.28871778,-0.8554626,-0.25143284,-0.87101686,-0.36740452,-0.17202479,-1.8928441,-2.1313355,-5.654817,-0.95058143,2.582197,-3.7703836,-4.474098,2.7500825,-2.0054414,0.74194616,-1.4922674,-2.3876462,1.710691,0.20244253,-2.6076906,3.7168095,-3.5044713,2.415797,1.2563668,1.6703111,1.3175697,-2.6735625,0.16285165,-3.014095,5.2191014,-5.615715,3.6683521,0.9702094,1.5697848,-2.1999893,5.1566367,0.56208485,3.462313,1.2401521,3.275837,1.239417,-0.76387507,-0.7775263,-1.9514612,4.3797727,3.883994,-5.4673443,0.9000487,-3.6433303,1.0149299,1.6805634,2.0282643,0.9341813,-0.11211113,4.3385205,0.9426605,-1.2478638
COLO 741,0.38444653,1.4370943,0.10644828,2.6985714,-0.95106846,0.24315114,1.0282639,2.70231,-1.0907907,2.8348708,-1.9273567,-0.66956514,0.39119974,-0.11748771,-3.0613225,-4.025296,-3.3796923,0.5816916,-0.06285659,2.4575691,-1.9220886,-0.6173219,-1.4069057,1.9659573,1.5387495,-0.6817417,0.8406745,1.0199977,-1.0158683,-0.30267537,0.07481153,-0.37900025,1.2973576,-1.0276154,-3.6109235,0.030259507,1.9157696,-2.0303743,-2.2136378,-0.14856867,0.32681704,-0.5616633,-1.0627078,0.6652731,-0.5827281,1.0257766,-0.49835917,0.81799734,-0.63763416,0.37970117,1.2508129,1.4954814,0.07326422,-1.2519193,0.59867966,-0.39015192,3.4815528,-3.2640266,1.076919,-0.89296764,0.30194986,-0.30433652,3.312721,0.07732541,0.66096205,1.0551893,1.3813695,0.9902146,0.2528563,-0.84999305,-1.1871384,2.0309546,1.1681181,-3.1830914,0.56087506,-1.8926846,1.1191132,-0.7717933,0.29701608,0.2735666,1.4391618,1.6626325,-0.11973237,1.1053911
BC-3,4.6088815,2.507284,-0.42862633,1.9264541,-0.522003,2.9845607,-1.4454688,5.320074,-5.633475,-0.03451832,-2.605322,-1.2770178,-3.3774986,2.9831562,1.8924462,-5.9255586,-6.505488,-1.7463205,-3.270254,-1.2006882,3.644573,-0.1736025,-2.9878132,-2.1285212,-0.034700237,0.39778814,-0.8953582,5.685605,0.7373264,3.400685,1.7584647,1.5667452,5.8983197,-0.6450117,1.3111464,-1.317775,0.3413747,2.0590317,0.06633822,-2.911428,0.55268806,-3.9045422,-3.1040113,4.8896985,-6.1305823,0.6939472,4.583831,-6.3462358,3.8327565,-4.127493,2.5397859,5.9322705,-1.150386,1.5731279,3.3524444,0.06805678,-1.4700994,3.814899,-3.8282585,-0.67295206,-3.135692,2.318179,5.9104333,-4.5865107,-1.3434095,-2.313208,-6.01136,-0.32879424,3.8375423,0.066171445,5.3087244,-4.5992503,-3.8210435,-1.7279269,-2.6536663,-4.7074003,-3.2191586,-5.5592318,-3.8719337,-0.052531656,6.201349,-4.1674976,-1.1886853,2.7665427
NCI-H1573,-0.9910119,-0.9791742,0.4518907,0.5469259,-0.39308944,-1.1719207,1.4530773,-0.74846715,1.9013413,-0.73619527,-0.81955224,0.28405818,2.5506027,-0.04513916,-1.0324336,0.52193725,0.3208046,0.9806669,1.585151,1.0710418,0.37222752,0.71706855,1.616879,2.326304,-0.02521091,0.841548,0.17796089,-1.8109794,1.1224533,-0.5067318,-0.54677474,-0.64126754,-1.0810931,0.56444,-1.3900526,0.26615232,1.3525813,-1.185229,-0.8570412,0.81351155,-1.2769866,2.6086688,-0.08883574,-2.8136559,3.382794,0.02635232,-1.9061245,3.109003,-3.2673585,2.0879729,0.07332188,-2.243142,1.2312509,-0.5911741,-0.32572305,-1.8731474,-0.11658283,-2.0137658,2.3071597,0.8794985,2.4497266,-0.31870475,-0.27854392,1.7450659,1.2076439,1.3187315,2.4152627,0.7916873,-1.1948335,-0.4171226,-2.6184058,3.1311667,1.1372826,1.2651972,1.1073503,-0.03752361,0.49291092,3.2675922,3.50374,0.02054904,-2.7759764,3.183651,-0.64074403,-0.43632498
TE-10,-1.5718157,-1.5765494,-0.2591827,-0.35263485,0.6508435,-1.586661,1.5245302,-1.3650283,3.361168,-2.6571236,-0.5256186,0.7112903,3.6832662,-0.33197466,-0.42874292,1.0651684,1.1725113,1.2106916,2.0578914,0.48886025,1.7563161,0.9770807,3.0335512,1.9615412,-0.06472688,1.7653836,-0.011187726,-1.8657782,2.2916653,-0.71980804,-0.64311075,-0.43180707,-1.3018849,1.8807406,0.14356369,0.15806052,1.089004,-0.79222447,0.05396292,0.26826426,-1.58632,3.480192,0.4216704,-3.4529948,4.3616877,-0.44572067,-2.9564369,3.078374,-3.5681498,2.425734,-0.44393155,-3.9233215,1.570536,-0.15906854,-0.47570658,-2.2283876,-2.4271266,-0.41214007,2.4909477,1.5026832,2.8900986,-0.6237962,-1.5578763,2.2341971,1.0639873,1.273673,2.6056833,0.18072179,-1.3293984,0.14440398,-3.346062,3.088255,0.93432134,3.4627874,1.4734344,0.63353205,-0.4226356,4.5988674,4.984626,-0.28117883,-3.5972059,3.1469653,-1.1592491,-0.42445698
SF268,-1.0615816,-0.32282782,-0.3257233,2.7123783,-0.24636585,0.25589982,-0.43574417,2.7837381,-0.20241883,3.092917,-2.4936254,2.0648387e-05,1.6544542,-1.1969326,-3.7283804,-2.5780146,-2.8452516,0.95066965,-0.3153586,3.3631487,-2.4377108,-1.0489811,-0.84088504,0.679234,2.443041,0.14338939,-0.26356205,-0.95557225,-1.8866056,0.4583128,1.398583,1.3735973,0.23185927,-2.3084893,-3.1362157,-0.3308973,2.735929,-1.1819011,-1.582471,0.12821831,0.100644924,0.5552017,-0.33421978,0.5679761,-0.97563916,-0.29775771,-0.5888395,2.3287203,-1.6599039,-0.13721381,0.43824548,0.5800097,0.08675076,-1.6118964,-0.07623175,-1.0351648,4.5351396,-3.6566324,0.34071302,-0.18432601,2.1647248,-0.61583126,2.3045375,0.98191327,2.1070297,-0.0052359286,1.881228,1.4004182,-0.37319988,0.13665096,-1.4499902,3.22304,1.8621341,-2.5736997,1.3126129,-1.5775839,2.3147204,-0.45673943,1.2188491,1.8980147,1.5817274,0.8668169,1.1639348,-0.16204436
LOX-IMVI,0.046111736,0.45322192,-0.14846991,1.6325336,-0.4392862,0.32896274,-0.020490214,2.1438212,-0.39147753,2.184204,-1.549684,-0.03633783,1.0767531,-0.05118046,-2.807809,-2.4615488,-2.2230463,0.53913516,0.11397231,2.358469,-1.2650796,-0.37229505,-0.7885856,1.137037,1.0971107,0.24386512,0.5045943,0.22614679,-1.1587933,0.22512656,0.8804975,0.3160876,1.1686689,-1.0503956,-2.5615275,0.10891083,1.8940284,-0.6477184,-1.2070407,-0.048323337,0.1526581,0.02483396,-1.0598416,0.9409328,-0.57310003,0.1737277,0.124785066,1.2450366,-1.4705024,-0.22532053,0.8979464,0.6792445,-0.37691543,-0.74752456,0.56164753,-0.6501113,3.1377223,-2.6297865,0.50092584,-0.4968639,1.3318297,-0.006808222,1.9109237,0.2669745,0.8292402,0.4983877,0.7262042,1.2792912,-0.028903758,-0.5442698,-0.7671301,2.3334546,0.6524666,-1.7660236,0.86705786,-1.2851765,1.2648635,-0.4947715,1.0561291,0.70612276,0.91931534,0.95915306,0.033030678,0.6053022
HDLM-2,5.3518777,2.6744566,-1.4353688,1.4754463,0.05863596,3.1678245,-1.8547192,5.308679,-6.3546214,-1.1112996,-2.351271,-1.6089361,-3.4033093,3.95625,2.949038,-6.1855664,-6.792404,-2.262507,-3.4590755,-1.8345412,4.825962,-0.32902083,-2.4198549,-3.027376,-0.32670695,0.912025,-1.0215833,6.131172,1.3640304,4.2374754,2.265131,2.3460934,6.890843,-0.18725866,1.9396265,-1.4860188,0.44598204,2.7006795,1.2678325,-3.7136486,0.5309255,-3.7581248,-2.5743918,4.9586525,-6.4932985,0.60785013,5.27931,-7.58638,4.435629,-4.54022,2.1715758,6.3385053,-1.6173147,1.799139,3.1857502,0.017905664,-2.1771586,4.3560457,-4.428058,0.19095214,-3.4968624,2.483662,6.1902795,-5.1729345,-1.4476681,-2.1944656,-6.493405,-0.53728116,4.3624067,0.07103854,6.252014,-5.560191,-4.7041445,-1.5245359,-2.5152159,-5.052753,-3.823753,-5.8083024,-4.4841437,-0.52600384,7.148837,-4.3473625,-1.7336441,3.0363312
DEL,3.6709883,2.4922178,-0.4006216,1.317907,-0.34945962,2.5568185,-0.94222504,3.9804935,-4.0785756,0.5193506,-1.9341836,-0.899473,-1.9639262,2.2003467,0.2549152,-5.0812583,-4.566236,-1.2265621,-1.5929879,-0.21519163,1.9431589,0.20120503,-2.1599526,-0.71490735,-0.16264065,0.050278034,0.001368002,4.4020557,0.53756046,2.2452626,1.4497448,0.4494444,4.7901225,-0.15613826,-0.403725,-0.34376442,0.98496306,0.80030745,0.23901375,-2.0423028,0.1115695,-2.4613323,-2.5870624,3.655469,-3.5662956,0.9103591,3.1876326,-3.9704363,2.0417895,-3.1055992,2.146197,4.4049993,-1.3869693,0.71758944,2.3189366,0.17170872,-0.063216805,1.4182658,-1.8136753,-0.31561652,-1.7412645,1.6203386,3.9689221,-2.9391363,-0.9019222,-0.6689575,-3.919507,0.5504423,2.634854,-0.4874911,3.3801591,-2.1586769,-2.790612,-1.5495073,-1.216094,-3.4386985,-1.931883,-3.5884204,-2.356698,-0.81542844,3.9777975,-1.725705,-1.5006988,2.7375193
NCI-H1299,-0.09987391,0.29203114,0.05206511,1.9209604,-0.72918093,0.17297891,0.20974101,2.3563085,-0.80464804,2.2557027,-2.0439496,-0.006392026,0.8070117,-0.29353562,-2.4593704,-2.939872,-2.8380146,0.63005745,-0.031960845,1.9550546,-1.1116414,-0.52856153,-1.4502501,1.2868003,1.3390204,-0.11918314,-0.040511858,0.2658304,-0.7303387,-0.07577497,0.3924308,0.8060526,0.4657006,-0.9890715,-2.3678427,-0.21426144,1.9179304,-1.3979783,-1.9201416,0.55682546,-0.34096804,0.1342901,-1.3867401,0.054150328,-0.606489,0.22488193,-0.5169863,0.87422335,-1.6361824,0.4271658,0.88043004,1.3191115,0.17443998,-1.0703762,0.417389,-1.4830208,2.6195285,-2.4966283,0.9481099,0.109954886,1.1504049,-0.48113024,2.7676103,0.0903555,1.5461435,0.3890526,0.8613711,1.0704446,0.18215196,-0.38105232,-0.70729274,2.1424403,1.012539,-2.2864437,0.47109535,-1.9144698,0.4248941,-0.050092813,0.8797663,0.8046163,1.0300959,1.2814876,0.44202897,0.39206257
EW-12,0.36514437,1.5561485,-0.6295103,3.4309528,-0.5031109,-0.059666988,-1.0279377,4.4349556,-2.3203604,1.9850621,-3.4756486,0.4778552,0.3116605,0.30193514,-2.41904,-5.3143086,-5.121232,1.2885176,-0.98176533,1.7604536,-0.10151984,-0.79195416,-2.177781,0.8785074,1.7085935,0.5935176,-0.5180762,2.1547613,-0.2498376,0.789289,1.0605803,0.35715038,2.1202056,-1.4822294,-2.9864745,-1.1604335,2.6140254,-1.5635377,-1.5775611,-0.6874763,-1.2407959,-0.97291726,-2.006195,1.7346295,-1.4637258,-0.045556724,0.30630797,-0.16653764,-0.99205863,-0.25603846,1.0091442,3.3440504,0.16670632,-1.6404668,-0.0060609896,-1.8423166,2.6046042,-1.7013003,0.4816622,0.29478973,0.26176497,-0.85412675,5.1086636,-0.4527867,1.1436108,-0.38321254,0.1254688,0.8002689,0.5379586,0.2148256,0.26793435,1.3730581,1.1533861,-3.7248054,0.40622818,-4.193579,-0.4205333,-1.7045015,-0.050185177,0.25543424,2.5907412,0.9418423,-0.5801458,0.38067827
HCE-4,-0.5015313,-0.08242371,0.44414398,1.3919864,-0.7449172,0.12647942,0.26082903,2.2982306,-0.18963903,2.315087,-1.859353,-0.0892826,0.84509784,-0.7134366,-1.9280956,-1.9421135,-2.0160892,0.41206774,-0.025038188,2.1135669,-1.2794566,-0.19469956,-0.90403855,0.9150989,1.2215827,-0.2518779,-0.12539274,-0.3352208,-0.9424496,-0.101838395,0.35765657,0.6522506,0.19469628,-1.1321175,-1.9944026,0.038587492,1.9009105,-1.2317345,-1.7205876,0.47822484,-0.030013226,0.42654222,-0.8887873,0.068705074,-0.19727123,0.0122703025,-0.8264558,1.5627381,-1.4676069,0.24207997,0.66632336,0.50315315,0.34007803,-0.6820378,0.3442433,-0.9357338,2.677421,-2.2464871,0.8071064,-0.055209305,1.166097,-0.047964577,1.8701595,0.7481126,1.3987502,0.26300558,1.1346371,0.9809735,0.26285973,-0.32570654,-0.79257596,2.277757,1.2826066,-1.7271538,0.59604865,-1.2726645,0.8458641,-0.10762533,1.3151758,1.2452707,0.73309964,0.754664,0.58951056,0.13831593
HSC-4,-1.3431017,-1.5082858,-0.22957872,-0.5711604,0.7869458,-1.7868884,1.224935,-1.7622858,3.3721662,-3.1160767,-0.6002586,0.7510948,3.712767,-0.0319112,0.043907113,1.2481729,1.030103,1.334165,1.999238,-0.041635685,1.9392797,1.0139496,3.0984092,1.6915365,-0.47034654,1.7598552,-0.13021897,-1.8089997,2.6174085,-0.7219237,-0.67273563,-0.6034875,-1.3788265,1.7849259,0.08543553,0.1702651,0.8232333,-0.73036015,0.09277101,0.3033511,-1.6571308,3.6006866,0.57125926,-3.635584,4.376838,-0.5314496,-2.8418982,2.9082112,-3.4732733,2.6074786,-0.4985224,-4.149574,1.5679929,-0.19692618,-0.5870563,-2.2361696,-2.8202834,-0.19185677,2.4764774,1.5683559,2.54541,-0.6297032,-1.6680427,2.2592907,0.7441374,1.060733,2.327973,-0.23534413,-1.5442134,0.32643956,-3.1069558,2.530829,0.7956328,3.8501768,1.4136482,0.60544443,-0.41518238,4.712974,4.7090955,-0.36268717,-3.8360271,2.8546634,-1.3089845,-0.5587444
NCI-H650,-0.28430954,0.44283178,0.14341056,2.1553016,-0.53239334,0.47080743,0.13679321,2.9121244,0.09124969,2.6606503,-1.9559132,0.401913,1.4517274,-0.99292225,-3.166221,-2.6106768,-2.1756,0.6681826,-0.007919879,2.8573568,-1.9842185,-0.5684193,-0.7655915,1.6311271,1.4500111,0.30850837,0.13573885,-0.03717261,-1.2566627,-0.44171885,0.42183116,0.45040613,0.622843,-1.2633907,-2.5562222,0.13465825,2.5366848,-1.4447829,-1.9792235,0.31696776,-0.29267603,0.5606989,-1.0860035,0.42260432,0.04658961,0.36553103,-0.68890834,1.9676986,-1.8620523,0.21480271,0.73731935,0.30422255,0.1772833,-1.1978279,-0.01863638,-0.93817264,3.4823804,-3.212818,1.2949284,0.002142674,1.9069121,-0.13732423,1.9639696,0.9766769,1.1785573,0.5804317,1.5490388,1.4110355,0.08695537,-0.406175,-1.5241284,3.1086283,1.2294645,-2.01691,1.0484678,-1.4211628,1.2332647,0.03851143,1.5741408,1.1984019,0.5856451,1.2215601,0.31138197,0.19862808
H4,-0.73313093,-0.2616156,-0.4157849,2.6313474,-0.3948832,0.91972667,-0.66247785,3.5764067,-0.21324927,4.290912,-2.4251413,-0.33999008,0.9933427,-1.3143791,-4.3619814,-2.6671212,-3.2560878,0.54657006,-0.34777996,4.2295156,-3.1931741,-0.99980956,-1.5518818,0.36354366,2.4869761,-0.0574941,-0.19814503,-1.5040753,-2.8053632,0.9830827,1.731207,1.5869324,0.54669017,-2.918089,-3.433516,-0.20107311,3.2639914,-1.0480406,-1.6564809,0.0020595214,0.8692173,0.24112897,-0.9333888,1.4129785,-1.5315063,-0.24688162,-0.043935414,2.835212,-1.867144,-1.0843816,0.08963271,0.75018036,-0.5024281,-1.0312092,0.58811724,-0.3350022,5.687647,-4.2269225,-0.31091353,-0.9513595,2.2993171,-0.112783134,2.744671,0.6310436,2.0281162,0.062816866,1.6107229,2.2287462,-0.30594182,-0.16465122,-1.3577628,3.858741,1.6752607,-3.4890616,1.4334377,-1.1873786,2.9737792,-1.4597872,1.0442078,2.3817677,2.0015314,0.83691704,2.036558,0.18812269
NCI-H441,-0.53242576,-0.37175488,0.6492622,0.4272299,-0.47333953,-0.6599605,1.1154302,-0.109369084,1.5265566,-0.17926088,-0.8926461,0.06346479,1.9380752,-0.19011341,-1.7028263,-0.13936573,-0.027918544,0.6355996,1.0979767,1.2355889,-0.076564245,0.7342029,0.54740536,2.0332599,-0.041238714,0.84105164,0.31302914,-1.0633403,0.574457,-0.5226325,-0.34188542,-0.7252256,-0.4445466,0.7280655,-1.2346569,0.3160506,1.4675246,-1.3831761,-0.90761256,0.51506037,-0.8853664,1.9343916,-0.15671904,-2.0521717,2.7909539,-0.011401423,-1.5659406,2.7091625,-2.9802427,1.4198157,0.25935552,-1.5962496,0.7863796,-0.58047634,0.13296093,-1.7506238,0.2866121,-2.1559684,1.8384987,0.6187563,1.9118661,-0.42517295,-0.045757122,1.2919952,0.7145747,1.4461741,1.9228703,0.99787617,-0.9062958,-0.84553534,-2.1843643,3.2604845,0.6944403,0.75871485,1.0269088,-0.0017215656,0.099835955,2.688072,2.9481626,0.070115596,-2.4254153,2.7908156,-0.7210827,-0.016895626
Ca Ski,-0.97835636,-0.95460284,0.14282645,-0.7384799,0.20088398,-0.9190111,1.6042101,-0.8661739,3.7996216,-1.8842096,0.0026324047,0.53415376,3.7210987,-0.18072584,-1.2842354,0.87941325,1.6549901,0.8550408,2.718646,1.0188695,0.9796973,1.495636,2.5935922,2.629895,-0.7582705,1.4486699,0.70455366,-1.6613566,1.5553437,-1.5496818,-1.3857458,-1.1100746,-0.87977636,2.0336843,-0.57392985,0.8851732,1.0404112,-1.0213246,-0.70130175,0.5893108,-1.1737432,3.1177235,0.1827786,-3.1999037,4.724613,0.10822263,-2.4840267,3.5718956,-3.5584383,2.1341662,-0.08908214,-4.187434,0.7376223,-0.12433868,0.035931382,-2.0782921,-1.2765968,-1.1848247,2.882253,0.800669,2.9660807,-0.0026323248,-2.2357962,2.3486192,0.345286,1.7655545,2.66616,0.9022271,-1.5875933,-0.36752534,-3.3857994,3.9180422,0.397835,3.6190932,1.345703,1.2084327,0.017988939,4.648925,5.296325,-0.24617666,-4.438573,3.7462566,-1.126466,0.025834072
CAL-148,-1.1542603,-0.0072880927,0.096416764,2.5608573,-0.5646954,-0.7867072,0.48324388,1.9915638,0.3147938,1.3142644,-2.572897,0.38317636,2.03525,-0.3060584,-2.0914204,-2.5102584,-2.5751233,1.4759312,0.54724324,2.0253544,-0.3418539,-0.2198079,-0.68209213,2.254122,1.297803,0.6972853,-0.5213967,-0.50365293,0.24087907,-0.21051678,0.23768397,0.3521331,-0.7036447,-0.4418885,-2.6934628,-0.7338758,2.6208196,-1.8602498,-1.6502331,0.4300868,-1.7855427,1.3943253,-0.7808114,-1.1843371,1.3936237,-0.10640352,-1.5105617,2.466299,-3.0748599,1.2077613,0.55836743,0.64547867,1.1684957,-1.4948665,-0.22836603,-2.8326285,2.0565405,-2.9790108,2.104526,0.9637079,1.8215916,-1.2207538,2.8313804,1.2108171,1.9717314,0.88417375,2.0908244,0.88286024,-0.97414494,-0.29630604,-1.7873589,3.121038,1.9791757,-1.9769793,1.2134532,-2.3489265,-0.013226318,1.4064038,2.5305147,0.6856671,-0.23516986,2.8729584,-0.3543304,-0.3957251
NCI-H1650,-1.156571,-0.8556127,0.38995522,-0.13304666,-0.10800066,-0.95515984,1.3151782,-0.983355,2.695463,-0.59615827,-0.62944496,0.33940327,2.7697108,-0.43343386,-1.4997065,0.42790207,0.7086976,0.8934896,1.6647878,1.4111049,0.11428196,0.8606286,1.7561406,2.202032,-0.17531566,0.81826043,0.28075087,-1.4736353,0.91158706,-1.0140406,-0.46050638,-0.9827746,-1.0131375,1.0734428,-1.1774937,0.6251953,1.3270655,-1.1657889,-0.5648393,0.585079,-0.96719855,2.4255297,0.083137706,-2.3948915,3.329105,-0.09021061,-2.0247962,3.1389425,-3.128522,1.7469105,-0.046857025,-2.937374,0.97041434,-0.46032614,-0.19848263,-1.7883666,-0.23209198,-1.848643,2.0471878,0.66277826,2.4134223,-0.19785738,-1.0998391,2.1012032,0.6853277,1.310473,2.2950284,0.95967454,-1.3222083,-0.62764907,-2.7987533,3.213802,0.66552556,1.6546867,1.4891843,0.51637894,0.33825845,3.265462,3.8915918,0.10324868,-2.858744,2.9967892,-0.54996836,-0.22208789
8-MG-BA,0.29321972,0.67545176,0.10932498,1.9491807,-0.85596627,0.6605624,-0.075335756,2.8042123,-1.0380791,2.7140567,-2.0809639,-0.065352485,0.28969306,-0.33021516,-2.8201106,-3.1812804,-2.730388,0.29530108,-0.18028678,2.3655703,-1.6332172,-0.44207394,-1.5490215,0.9439831,1.3485044,0.013970434,0.27970356,0.20710844,-1.3205339,0.42797306,0.67704517,0.5210026,1.2105912,-1.6357802,-2.5040476,0.06939211,1.8756568,-1.1082407,-1.6719719,0.14502859,0.23476689,-0.49237642,-1.0995592,1.2044406,-1.3070507,0.19940029,0.011944435,1.11512,-1.1718785,-0.5472224,1.0087639,1.4453008,-0.12880197,-0.89978284,0.58395314,-0.50465554,3.3209453,-2.6201332,0.29057574,-0.49268013,1.0791048,-0.061912242,2.8199904,-0.047843806,1.0258482,0.22328287,0.66572773,1.2178775,0.22292227,-0.3939099,-0.45370325,2.0133958,0.9263699,-2.7172868,0.3189032,-1.946767,1.1182393,-0.99089426,0.4160089,0.80785847,1.4880784,0.7494493,0.36348367,0.63157755
TCCSUP,-0.9665845,-0.54774004,-0.3312123,2.3542757,-0.43912655,0.22980705,-0.259419,3.2029166,-0.46411866,3.7184598,-2.44557,-0.27690902,1.1689076,-1.2710109,-3.3697286,-2.527056,-3.237691,0.852936,-0.5804286,3.4629602,-2.580853,-1.3961556,-1.4148602,0.5223945,2.3315187,-0.30707642,-0.56672275,-1.0007955,-1.9600368,0.79798126,1.1995174,1.7493968,-0.025087968,-2.8572185,-2.7093735,-0.60536104,2.6702595,-0.8490918,-1.9135863,0.5281705,0.41006076,0.38299128,-0.8318959,0.6773468,-1.5358475,-0.29919738,-0.34555364,2.4521961,-1.1568056,-0.26854998,0.29316267,0.7824363,0.23342972,-1.321014,0.36144888,-0.72944933,4.879448,-3.346825,-0.057558306,-0.14447948,1.7141515,-0.4817107,2.8239658,0.6055563,2.6214936,-0.2296096,1.5013428,1.6388774,0.111474544,0.014704642,-0.8940473,3.120258,1.7651058,-2.6853545,0.93192697,-1.4148322,2.2366846,-0.990111,0.7411792,2.1967492,2.4254217,0.2648407,1.9640033,-0.37998137
KYSE-180,-0.7760202,-0.19161975,0.2157401,-0.05741844,-0.18659426,-0.61407554,1.1117135,0.18479581,2.428763,-0.95764744,-0.93234235,0.5174367,2.8118958,-0.101595744,-1.2781241,-0.25450838,0.17959909,1.0412371,1.9580907,1.3769389,0.68412894,1.2102166,1.6850479,2.5561256,0.0005352186,1.6706626,0.20559366,-0.80791926,1.0263197,-0.7793001,-0.4519312,-0.32718107,-0.30779892,1.3389188,-0.9738111,0.33310995,1.4626931,-1.2442744,-0.5244124,0.1584429,-1.108761,2.495385,-0.34049267,-2.0324872,3.183876,0.07866663,-1.9596914,2.94549,-3.2343314,1.3956617,0.50970274,-2.3591616,0.81606054,-0.03190288,-0.017093891,-1.6608952,-0.60989237,-1.177357,2.4966547,0.5762049,2.6537056,-0.2402024,-0.49296772,1.8155035,0.5783534,1.514413,2.0014706,0.9950243,-1.0032653,-0.54961324,-2.9574282,3.3753648,0.9053252,1.8631858,1.4853106,0.21796285,-0.075085044,3.2028666,4.050536,-0.055624247,-2.7961087,3.2670689,-1.0952454,0.24431704
LB2518-MEL,0.2987653,1.3328251,0.2556361,2.3285341,-1.3802042,0.47080985,1.4284968,2.7659998,-0.7355521,3.388282,-1.9072376,-1.1353048,0.6984238,-0.40157872,-3.294813,-4.018533,-3.7585833,0.07134647,0.6440679,2.777462,-2.0976322,-0.4221567,-1.6262383,2.752072,1.4342153,-0.7507831,1.1486874,0.70426524,-1.2498072,-0.8743399,-0.23864447,-0.48433083,0.9676223,-1.1594036,-3.7810652,0.25694337,1.9685258,-2.2566042,-2.9493053,0.20498976,0.5712057,-0.39563,-1.2809175,0.5273935,-0.34820366,1.2540218,-0.8693731,1.4633286,-1.0043746,0.48178282,1.712037,1.301267,0.22147377,-1.0463797,0.69473314,-0.58252764,3.9375038,-4.158933,1.8308648,-0.772106,0.7240096,-0.009528355,3.2638037,0.48630637,1.3707561,1.7358232,1.6441582,1.2432171,0.20481688,-1.3594015,-1.7409425,2.824444,1.310658,-3.29737,0.51705265,-1.819946,1.3893157,-0.24869102,1.0593244,0.4816722,1.0039608,2.189267,0.18255486,1.3257743
OAW42,-0.26747718,1.1810207,0.851125,1.7777417,-1.4038817,0.16564931,0.7690069,2.838065,0.68462324,2.845613,-1.9748731,0.7568836,1.45556,-1.1125642,-4.22948,-3.1994486,-1.3572417,0.8410127,1.3049282,3.455269,-2.2455199,0.39761233,-1.1324775,3.0641081,1.1513546,-0.19824463,0.60349953,-0.046198227,-1.1901989,-1.2524827,-0.38647693,-1.0645514,0.5449549,-0.11635179,-3.6586869,0.6671109,2.6005523,-2.5205536,-2.4616566,1.0691563,-0.6789202,0.5544386,-1.4634757,0.03261572,1.7801459,0.71673036,-1.0731059,3.3923914,-3.1770115,1.0096767,1.3195963,-0.21098353,0.07854035,-1.3818711,-0.07593562,-1.4059781,3.6769538,-4.169223,3.0130193,-0.47834364,2.4333224,-0.35963747,1.286076,1.411975,0.75698113,1.429082,2.16295,2.1054225,-0.7911451,-1.115767,-2.390996,4.349148,1.3228525,-1.7036183,0.89724004,-1.0922264,1.1189752,1.1594958,2.5844772,0.43839028,-1.3451393,3.5233881,-0.37021115,0.5575555
U-87MG ATCC,-1.2258393,-0.5715541,-0.6233115,2.7004554,0.02321211,0.111101076,-0.60244817,2.8012326,-0.501537,3.0612442,-2.8118646,-0.0803559,1.3947793,-1.1949638,-2.625428,-2.3108919,-3.4745958,0.39795345,-1.0917335,2.9213922,-2.0360236,-1.4558666,-0.8907156,0.016180566,2.4755154,-0.029895281,-0.6036059,-1.3353716,-1.517418,0.92108774,1.6110957,1.8178556,0.49945313,-2.8700447,-2.6865094,-0.6630787,2.4522398,-0.62293255,-1.8283678,0.15619163,0.16554107,0.53807855,-0.4066388,0.8030929,-1.8030176,-0.6108391,-0.33641005,1.8324432,-1.2755706,-0.39245287,0.045573745,0.583729,0.18899545,-1.2764136,0.06797454,-1.3266732,4.417355,-3.4015446,-0.29629305,0.21537475,1.7374426,-0.5899974,3.1298292,0.82195204,2.3549974,-0.47838423,1.3901411,1.0467106,0.12173836,0.36092278,-1.0318252,2.5828717,2.0635533,-2.8989878,0.86354905,-1.7980016,2.131825,-0.9310065,1.1669606,2.2265735,2.4366255,-0.056691512,1.4152563,-0.230785
8505C,-1.3984585,-0.38250166,0.6114002,1.4807016,-0.74360514,-0.06090361,0.73313534,1.8643972,1.5975597,2.8508046,-1.5807813,0.50828767,2.2379534,-1.7520958,-3.8722098,-1.1527789,-0.3510475,0.92277867,0.86923414,3.4559686,-2.904658,-0.26853225,-0.019767601,2.200006,1.3331735,-0.011984047,0.6301992,-1.4343389,-1.31325,-1.4648077,-0.2442551,-0.25144115,-0.6425886,-0.99690294,-3.183614,0.64134955,2.371221,-2.0847788,-2.1654642,1.4066106,-0.25249922,1.2443373,-0.50168663,-0.81862867,1.5049295,0.2383559,-1.7837881,3.707818,-2.5768826,1.1501642,0.4043705,-1.4282082,0.2395104,-1.2550713,-0.33232796,-1.0210229,3.913336,-4.1364384,2.2079031,-0.24701951,2.678052,-0.17386642,0.3811458,2.180585,1.4122995,0.9176356,2.765026,1.8556437,-0.78647107,-0.49432698,-2.8127294,4.2791414,1.8456428,-0.9227906,1.3604096,-0.10642528,2.148158,1.4746528,3.157047,1.3742439,-1.2780795,2.4198735,0.903295,-0.47914094
Mel JuSo,0.2994669,0.8018903,0.13050497,1.8220602,-1.1028392,0.5396192,0.9270174,1.9208574,-0.3744259,2.706608,-1.5889127,-0.7125572,0.74457854,-0.43062586,-3.184482,-2.9188256,-2.8656454,0.2090739,0.39399984,2.647614,-1.8947253,-0.1667504,-0.9554888,1.7991213,1.165249,-0.50062156,0.7485787,0.21474652,-1.0075262,-0.38971898,0.121247746,-0.21265833,0.7870707,-0.6608335,-3.232266,0.30775446,1.8331841,-1.7382303,-1.7383904,0.26296738,0.5119081,0.16350394,-0.8494084,0.27772394,-0.23840898,0.7116356,-0.38167864,1.3911351,-1.3538278,0.16423915,1.023222,0.48528114,0.05682412,-0.78814787,0.63954777,-0.31612483,3.6377351,-3.706261,1.242457,-0.53232306,0.92216706,0.048064318,2.178135,0.40767035,0.803376,1.1582075,1.3167326,1.5823773,-0.04396798,-1.1249392,-1.3798767,2.5933352,0.8126198,-2.5269167,0.6825691,-1.1716535,1.5900276,-0.0827242,1.1667655,0.57421243,0.7151539,1.6566542,0.09137801,1.1595778
COR-L279,-0.8656973,1.5331724,1.375183,4.289807,-2.162477,-0.63545763,1.203916,4.426086,-1.2211058,5.1968527,-4.2513275,0.2593451,0.874123,-1.5777817,-5.6757264,-5.2838054,-4.0083027,1.9980739,0.66801494,4.015533,-3.3197443,-0.7263911,-3.1843872,4.664215,2.4213111,-0.39334068,0.5599917,0.069962785,-1.2071085,-1.2377632,-0.4439498,-0.46987832,-0.60499495,-2.0594828,-6.2265077,-0.30758527,3.6319373,-4.6947565,-4.715597,2.1713977,-1.7484193,0.3113171,-1.917477,-0.92737126,1.2650541,0.43231106,-2.595153,3.7770767,-3.9583943,1.4474456,1.4855059,2.217591,0.78587306,-2.9771578,0.3889473,-2.9697182,5.8455825,-6.027608,3.9916482,0.37817588,2.1016257,-1.5857308,5.4127474,0.89005625,3.1396482,1.6378772,3.2758708,2.3965487,-0.51063573,-1.1937791,-2.4188383,5.1266103,3.6852732,-6.1697536,1.4651686,-3.9319685,0.9057669,0.92836994,2.2007067,0.9891619,-0.13143164,4.4493027,0.40045798,-0.39806452
NCI-H727,-1.0177644,-0.16639385,0.992734,3.1056786,-1.7983134,-1.2759699,1.8871377,1.1804574,-0.6192715,3.5421898,-3.2535617,-0.4376259,0.8347921,-1.4409987,-3.2121289,-2.49162,-2.7113485,1.4673561,0.06539216,2.022604,-2.41107,-0.7543385,-2.022523,3.0926325,2.195624,-0.9996982,-0.48249862,-1.3242116,0.048579175,-0.40374643,-0.34824756,0.2029815,-2.03829,-1.9835548,-4.3350067,-0.45890167,1.692756,-2.9194238,-3.6051695,2.4152312,-1.6615978,0.9289778,-0.9003244,-2.648986,1.7118425,0.0689359,-2.404661,2.9246616,-2.806066,2.2895067,0.6480842,0.8355459,1.2197622,-2.4725308,0.013019639,-2.675763,3.9239705,-4.3716407,2.6689568,1.0206206,1.3429573,-1.7488701,4.1294537,0.5185813,3.2275956,1.009783,3.0511415,0.7928535,-0.8221434,-0.6032116,-1.9835562,3.6595714,3.4532716,-4.36776,0.7078601,-2.8953695,0.87277055,1.760323,1.7232584,0.9433406,-0.45320654,3.2435095,0.8698606,-1.4048752
NCI-H596,-0.46163967,0.0042992677,0.6957041,0.22283095,-0.5113294,-0.41778782,1.0675477,0.58534026,1.8970238,0.12350894,-0.63385594,0.31472054,2.1758904,-0.43383047,-2.139687,-0.785083,0.4448177,0.71991915,1.8973361,1.8443441,-0.39738855,1.0371987,0.9089255,2.5622516,0.042773355,0.636743,0.58305764,-0.8541635,0.238544,-1.339815,-0.69214916,-1.0429828,0.03437762,0.9812108,-1.8810999,0.8117004,1.4765675,-1.6532187,-1.3088039,0.70966357,-0.8047424,1.5400653,-0.4624794,-1.4089428,2.7067044,0.5026727,-1.4167761,2.9955497,-2.8045583,1.3484393,0.4284455,-1.9845818,0.32857847,-0.4599435,-0.00021435846,-1.1184148,0.87001806,-2.149769,2.4908102,0.014801867,2.2884426,0.19999929,-0.4730847,1.8731387,0.33111063,1.336206,2.0132964,1.4699378,-0.9477251,-0.8021274,-2.4841309,3.227147,0.619469,1.1102219,1.1184268,0.32459375,0.4671254,2.4706428,3.4781833,0.1645128,-2.53914,3.0679786,-0.56376463,0.22520196
LB1047-RCC,-0.8919603,0.06766084,0.3066978,1.5316386,-0.76650923,0.079267375,0.47496518,2.0103033,0.709846,2.7495768,-1.7396289,0.352487,1.8696828,-1.205982,-3.3284082,-1.8044647,-1.2986135,0.86906016,0.8038957,3.0064306,-2.3046947,-0.17227577,-0.4551359,1.7857605,1.2022271,-0.0038248417,0.3167327,-0.5768574,-1.0800929,-0.869017,0.14936364,0.12566315,0.1591326,-0.60015774,-2.7728157,0.4686766,2.0829434,-1.875707,-1.8366815,1.0195056,-0.25988543,1.093564,-0.62746465,-0.25655842,0.8811635,0.25995386,-1.252246,2.9214385,-2.2789385,0.7404458,0.671182,-0.37853542,0.13442342,-1.1924857,-0.12549694,-1.1305305,3.634974,-3.7214098,1.6795527,0.06944112,2.2682593,-0.08838306,1.1434062,1.4839288,1.4564319,0.9038249,2.2292926,1.7431422,-0.4059614,-0.38190648,-1.9815369,3.3834095,1.4592224,-1.2298595,1.1127623,-0.65871096,1.4879158,1.0379552,2.3866596,0.9847657,-0.49157166,2.033209,0.34139037,0.06969615
D-502MG,-0.805256,0.3837399,0.3190831,2.1013935,-0.56686735,-0.04470581,0.3621434,2.0070589,-0.15946539,3.2469661,-2.1818755,0.4146544,1.5367342,-1.2156314,-3.7246559,-2.7976325,-2.080455,0.94770867,0.4439896,2.9669957,-2.396907,-0.6572593,-1.148181,1.9854656,1.7802287,0.084488325,0.323576,-0.5059569,-1.5844119,-0.6347099,0.45481503,0.15504692,0.37809864,-1.6326582,-3.7506826,0.06963621,2.298114,-2.1202333,-1.8797386,1.0266992,-0.35258797,0.5535483,-0.9421646,0.009288321,0.05637112,0.19156331,-1.1218125,2.5149333,-2.250624,0.59513366,0.7445921,0.24253817,0.046654306,-1.5541282,-0.13803726,-1.2125703,4.25571,-3.9640052,1.5724844,0.027619902,2.070219,-0.70416135,2.1498437,1.2454784,1.6739199,0.7026285,2.0337949,1.5437423,-0.49715373,-0.44525987,-1.6929331,3.32027,1.8308953,-2.599753,1.2718166,-1.5710694,1.5342209,0.3441299,1.9918064,1.0834185,0.38370284,2.1327372,0.55998874,-0.09581668
MOLT-16,11.27888,6.1433253,-0.82205737,1.1843652,-0.21013634,5.9653764,-3.385075,9.266145,-12.313109,-1.9851916,-3.1821084,-2.961075,-7.858767,7.9321423,6.8356004,-10.823989,-9.721256,-4.6193604,-6.3758206,-5.6603246,9.103073,0.28908783,-5.692033,-6.5172553,-1.244125,0.52031714,-0.8581953,14.061368,2.4211767,6.757927,3.0801938,2.5596845,13.050284,0.81509024,4.7318883,-1.7563214,-1.4105079,5.513005,1.922014,-6.916343,0.105613,-8.739557,-6.2739015,10.803584,-13.298103,2.585163,10.6424265,-16.405033,10.15288,-9.690502,5.74828,12.977848,-2.9226916,4.608177,5.9140854,1.688532,-6.4653597,11.25643,-9.164874,-0.9820621,-8.141386,5.6830916,9.804371,-10.667781,-5.301639,-5.272476,-14.176449,-1.7403591,8.319653,-0.048233178,13.140657,-12.446706,-9.402418,-0.9566676,-5.5820193,-8.833576,-8.730068,-11.868856,-9.107253,-2.7279868,12.853844,-10.125162,-3.9010308,4.904754
TUR,10.576884,4.700669,-0.5328196,-0.5112206,-2.0979867,6.0515995,-0.8809213,6.227731,-10.10985,-1.3764186,-0.23287928,-3.5500293,-6.4369955,7.2218733,3.8926806,-7.980985,-6.152061,-4.1102543,-3.3375757,-5.348477,6.021132,1.5492297,-5.33217,-4.0428405,-3.0984223,-0.4461439,0.6872481,9.790069,2.1322446,5.9409018,2.0571282,0.6819316,10.546474,0.5074764,3.70632,0.038033575,-2.735422,5.1140265,1.6138498,-3.3906443,2.168839,-7.4500704,-6.379384,8.95375,-9.774321,2.3944132,9.10153,-12.5493765,8.138048,-7.8246865,5.0936007,9.932658,-4.1521106,4.30593,5.830523,2.260858,-4.185247,9.164829,-7.362867,-2.3589458,-6.5944233,5.350309,6.8426366,-9.519329,-4.0454674,-2.2987065,-11.760773,-0.18556197,7.2501493,-2.3574224,11.451993,-8.408926,-8.968436,-1.707074,-5.2824936,-5.5751023,-7.464567,-8.902664,-7.5098457,-3.440517,8.123004,-6.4945354,-1.8118804,6.134188
MDA-MB-134-VI,-1.4558936,-0.24080162,0.6121577,3.1703665,-0.69371945,-0.9880992,0.6735895,2.2710853,0.27458945,2.1867363,-3.3811579,0.5156179,2.0427122,-1.0751629,-2.5015693,-2.90456,-3.152411,1.6263521,-0.1585804,2.5655243,-1.0004464,-0.9845147,-1.0774518,2.2804315,1.9816521,0.12406082,-0.37741524,-0.3884075,0.107980594,-0.5837162,-0.015111693,0.63864774,-0.9661437,-1.118043,-2.979386,-1.0536069,2.9027674,-2.6764777,-2.261992,0.8084996,-2.135615,1.3503387,-0.69998235,-1.3831174,0.77790904,-0.37258905,-2.2140114,2.5790143,-3.2804945,1.3930738,0.328458,0.5154812,1.7040473,-2.2010014,-0.57779956,-3.0003796,2.6099837,-3.2721586,2.257266,1.2063535,1.8468469,-1.8186536,3.516686,1.1684166,2.295162,0.5356903,2.188347,0.43963343,-0.74546725,0.041792613,-1.928182,3.3460126,2.5390074,-2.7734828,1.2428044,-2.8702729,0.09410505,1.4532899,2.346885,1.3561215,0.3936837,2.5392206,0.29851732,-0.8671097
A-704,-0.6418019,0.79542273,0.8388171,2.4023485,-0.9998136,0.1669092,0.55168134,2.4839878,0.7311396,3.4951668,-2.0166209,0.6879029,1.63077,-1.5793774,-4.761253,-2.5766685,-1.4722553,0.94451404,0.38606638,3.9481027,-3.2356634,-0.28610837,-0.85766286,2.4122148,1.9683204,-0.15905733,0.41131532,-0.7100753,-2.0217807,-1.355547,0.05521807,-0.27352977,0.18969028,-1.439088,-4.053121,0.57326066,2.978597,-2.3777475,-2.7489753,1.1140888,-0.476125,0.41696945,-0.9103081,0.047179583,1.0139419,0.49224618,-1.2338036,3.710513,-2.7662766,0.85651916,0.6455871,-0.43728557,0.22876678,-1.609577,-0.18347713,-0.7996855,4.4793353,-4.7896786,2.323301,-0.7159577,2.5268705,-0.35033318,1.3854755,1.9458818,0.96372104,0.8394457,2.5720518,2.1106079,-0.9398653,-0.66220534,-2.588013,4.3249683,1.8238622,-2.286795,1.2078391,-0.7941255,2.0505588,0.66998875,2.1505387,1.0661416,-0.4161318,2.3752618,0.30685878,-0.029520359
GR-ST,9.31556,4.883485,-1.6708282,1.3269603,0.2878408,6.291734,-3.526489,8.158811,-10.2054615,-1.8694555,-2.6607366,-2.5503309,-6.898067,6.8115716,5.2698817,-9.0004225,-9.254987,-3.557043,-5.575481,-4.019783,8.325717,-0.1672937,-4.5015407,-5.879466,-1.2089475,1.5669161,-1.0901535,10.868956,1.3875546,7.2423143,3.436128,2.5515344,11.993383,-0.16011484,4.3289757,-2.0384235,-0.0838911,6.0939717,1.8905575,-7.2535286,1.9861691,-7.434091,-5.386001,10.701405,-11.886792,1.1901159,10.695154,-13.551941,8.684758,-9.567858,4.36279,11.132543,-2.6310494,4.325457,5.4436607,1.4700214,-4.636239,9.440293,-9.419092,-1.079957,-5.9982123,5.0936246,8.360137,-9.480357,-4.4869943,-5.5920997,-11.938325,-0.928846,7.2561727,-0.10569548,11.011074,-9.748855,-9.055192,-1.2870187,-5.280529,-6.933035,-6.666921,-11.136861,-8.478831,-1.729237,10.846607,-8.369159,-2.9586124,5.5310826
HTC-C3,-0.7048813,-0.43441948,0.37262282,0.6425516,-0.11581537,-0.7898351,1.0742337,0.074960776,2.060015,-0.005048786,-1.0024173,0.31908417,2.36221,-0.7097238,-1.6653931,-0.24156485,-0.1555413,0.9147206,1.2524993,1.6149843,-0.40302667,0.2556667,1.2451591,1.7824786,-0.021424161,0.6923748,0.16513959,-0.9660039,0.59174293,-0.8491722,-0.3459552,-0.90140295,-0.40525806,0.64326876,-1.5013156,0.29617783,1.5784267,-1.2628332,-1.0924883,0.38877988,-1.2368418,2.0770652,-0.04720078,-1.90928,2.6045914,-0.0062755067,-1.6417924,2.6498616,-2.633022,1.3825814,0.0396599,-2.3206158,1.0917935,-0.85898083,-0.4129928,-1.6470821,0.76657486,-2.2481668,1.8704809,0.54385334,1.9637821,-0.29453945,-0.2923421,1.7196444,0.72995085,0.93883127,1.9113965,0.99663395,-0.9030279,-0.24935304,-2.3861985,2.8144891,0.7014218,1.097619,0.85187703,-0.22055517,0.5356744,2.767498,3.3728948,0.36066413,-1.8792232,2.1717637,-0.3322442,-0.25156674
TE-1,-0.8758524,-0.40140527,0.5180032,0.27071813,-0.31054422,-1.0381167,1.1384761,-0.06223009,1.6577973,-0.23994929,-0.9744645,0.44964582,2.2625368,-0.21520664,-1.0935112,-0.46116203,-0.104320034,0.87253886,1.2553169,0.9869066,0.047265843,0.43221858,1.1456615,1.9956621,-0.20157512,0.91382563,0.08959244,-0.8542611,1.0108769,-1.0778342,-0.38091367,-0.72733295,-0.55392647,0.6734847,-1.3928589,0.30713823,1.2871763,-1.379198,-0.73009837,0.50413054,-1.0255272,2.0782344,0.069711685,-1.878608,2.6209273,-0.123119056,-1.8973581,2.6300473,-2.705448,1.6921418,0.21579722,-2.0462651,0.97680926,-0.6125168,-0.29214585,-1.7740186,-0.052421387,-1.5897621,1.9496213,0.8408341,2.0698617,-0.24271744,-0.22047518,1.8513443,0.734433,1.085383,2.1247268,0.5628888,-0.9497248,-0.2856204,-2.3265002,2.658716,0.85544187,1.0667977,1.1398071,-0.22964904,0.070593655,2.6907158,3.2908928,-0.060604576,-2.1628428,2.5412507,-0.99255055,-0.14178802
KYSE-140,-1.2824233,-0.74845374,0.17661016,0.043178152,-0.3651194,-1.2425814,1.6080705,-0.2912676,2.434559,-0.8058183,-1.1469743,0.360461,3.0404358,-0.44216588,-1.5652887,-0.16407177,0.27286834,1.0680085,1.822294,1.0845964,0.34078926,0.9574827,1.7890086,2.486368,0.012679928,0.8989976,0.24052778,-1.2555658,1.4325368,-0.86760306,-0.6670156,-0.8205319,-0.9735598,1.0045229,-1.1947742,0.5600813,1.439799,-1.6786729,-0.84359324,0.82695544,-1.248028,2.5926864,-0.3255047,-2.7164094,3.623657,0.076143615,-2.6882527,3.4283154,-3.264574,2.0647528,0.1003102,-2.5421398,1.2882831,-0.35312217,-0.23587885,-1.9558076,-0.6647399,-1.5117801,2.8649476,0.9554332,2.400299,-0.44417763,-0.31188205,1.8044416,1.131909,1.488018,2.4287543,0.72520494,-1.0579783,-0.42288873,-2.9047983,3.477275,1.1663914,1.632908,1.2884754,-0.12583724,0.1392936,3.4834607,3.9107392,-0.18405214,-2.874527,3.1936276,-0.77548397,-0.14881928
NCI-H524,-0.6023062,1.1562964,0.3417994,4.197862,-1.9518987,-0.49998358,0.22666861,4.7353864,-2.3348897,4.6301455,-4.2223268,0.00021528943,0.9160514,-0.6827965,-4.4393578,-6.16732,-5.2890806,1.8032137,0.24446411,3.2636175,-1.9569365,-0.8321251,-3.387094,3.1846635,2.4730592,-0.11815168,-0.29468822,0.6610687,-0.6358464,-0.00051536574,0.25658545,0.59136486,0.17569995,-1.9698734,-5.0508976,-1.0064839,3.0440123,-3.0867817,-3.5689912,1.161308,-1.5768589,-0.07552146,-2.0614564,0.32644552,-0.27493936,0.18059027,-1.3150227,2.0829163,-2.792366,0.85572463,1.4935195,3.361294,0.7006164,-2.503104,0.50062805,-3.059877,5.2388206,-4.6071095,2.438044,0.85824996,1.3356558,-1.7831477,6.4151177,-0.06730173,3.368489,0.8530038,2.0974646,1.5379499,-0.17564929,-0.5859224,-1.0637184,3.5378466,3.171335,-6.0196385,1.0156301,-4.638364,0.26793683,-0.48441863,1.1464922,1.0045378,1.6199436,3.1025887,0.18504521,-0.13987558
KINGS-1,-1.839965,-0.74539435,-0.8765344,3.3394556,-0.0017927063,1.0616237,-0.94885004,3.8900523,0.35037115,5.403365,-2.4787579,-0.3400366,1.5238782,-1.9153517,-5.827472,-2.8834677,-3.483617,1.2926139,-0.5215083,5.2882133,-4.5451336,-1.3881685,-1.3419015,0.44243506,3.183937,0.22845124,-0.27199158,-2.2159302,-3.5957205,1.0371342,2.1601489,1.9638281,0.4387966,-3.853464,-4.701037,-0.4438122,4.2900043,-0.7973331,-1.7423327,-0.06002394,0.76656526,0.8323565,-0.60008854,1.5548904,-1.7605431,-0.48450765,0.022768078,3.8378255,-2.209629,-1.402917,-0.29066446,0.29162946,-0.56275564,-2.0275507,0.63005626,-0.6150493,7.461246,-5.5815153,-0.46766555,-1.0374613,3.3039484,-0.5453952,2.9990053,1.3248005,2.807438,0.023942659,2.3013804,2.7717607,-0.84837735,-0.024953721,-2.0434568,5.2303267,2.268568,-3.822361,2.0956929,-1.0787578,4.395209,-1.5302029,1.5034819,2.9069602,2.415016,0.82171994,2.691827,-0.2948392
DoTc2 4510,-1.0539474,-1.2592406,-0.08182042,0.57140255,0.52019113,-1.1821975,0.63176864,-0.42114252,1.7861369,-2.0815632,-1.5849603,0.5598575,2.3362143,-0.010567887,0.9986981,0.24264698,-0.91536784,1.011376,0.44740966,0.32815123,1.9089123,0.037143752,1.7842671,0.6378291,0.33546433,1.0099262,-0.8857476,-1.1214637,2.02463,0.14846902,0.06464433,0.43043828,-0.68632853,0.5922588,0.029698836,-0.71334356,1.6159514,-0.5528347,-0.33560744,-0.34648028,-1.7516073,2.2902088,0.3926564,-2.3549526,1.7181032,-0.9318166,-1.7307565,0.9787236,-2.2283106,1.905695,-0.38835597,-2.1284735,1.7989494,-0.3142176,-0.44181547,-2.2254033,-1.7329254,-0.17924264,1.2600014,1.5958363,1.2752864,-0.3662301,0.42993706,1.0555198,1.1559819,0.13062635,1.2136021,-0.26927996,-0.7150815,0.5834986,-1.4198407,1.1639943,0.6767387,1.6612967,0.975363,-0.7842007,-0.671948,2.5257723,2.8564367,0.6256775,-0.85657597,1.19357,-0.51684475,-0.72536075
A-375,0.15229525,0.9945583,0.39672524,1.8241377,-0.6074359,0.37047735,0.40873846,2.5667646,-0.029639468,2.4000769,-1.8571382,0.2208517,1.1863482,-0.5917339,-2.7920525,-2.8781588,-2.2141585,0.41018704,0.19743834,2.588095,-1.4898959,-0.17528367,-0.6999436,1.9307721,1.0225892,0.22954002,0.41266865,0.5325685,-0.9821911,-0.6436164,0.40430835,-0.2930481,0.9231834,-0.7105826,-2.9556987,0.16524021,2.2593992,-1.8787531,-1.4867556,0.13674003,-0.21886681,0.3869428,-1.0874978,0.3369322,0.15318646,0.42437503,-0.45387566,1.4969647,-1.8357544,0.29320115,1.0042784,0.36656842,-0.12667218,-0.8755055,0.046917047,-0.9191717,3.199536,-2.9509833,1.2996008,-0.016257279,1.5356247,0.013132311,2.0716844,0.7765081,0.7939445,0.637766,1.3096609,1.50186,-0.0334838,-0.6289169,-1.3505284,2.8149247,0.9376985,-1.7729802,0.7607549,-1.6371121,0.8459556,0.43104342,1.5702025,0.5334518,0.31426874,1.8550279,-0.22581205,0.70594025
CAL-62,0.2817896,0.76500046,0.6783962,1.284066,-0.98274344,0.7902226,0.5487941,2.0886273,0.0732131,2.6680677,-1.3348857,-0.032953463,0.9592979,-0.6020016,-3.2485578,-2.0431652,-1.3741573,0.19072388,0.32013747,2.7790344,-2.0397413,-0.07597013,-0.8911995,1.8058441,0.87108725,-0.2086225,0.7717712,0.05665808,-1.3353181,-0.7655887,-0.13088267,-0.14935213,0.5461651,-0.8282652,-2.6637752,0.4772491,1.9065148,-1.6242973,-1.9142591,0.75836223,0.09123047,-0.0794465,-1.2830404,0.36126673,0.34383512,0.671378,-0.5699432,1.9443479,-1.6684827,0.013291352,1.0657965,0.13998716,-0.4592526,-0.6140061,0.47841668,-0.5510974,3.2698066,-3.1968718,1.3428402,-0.68579936,1.6875489,0.3757367,1.3318738,0.71223366,0.6916991,0.8006929,1.1843567,1.8892877,-0.08470759,-0.929023,-1.2193655,2.928469,0.8015147,-1.5435898,0.51977235,-0.639709,1.092103,0.19567175,1.4565473,0.65389603,-0.22666357,1.7693658,0.43076327,0.6787963
SK-N-AS,-0.6381098,0.34593737,-0.1986662,3.0771768,-0.9793268,0.34985054,-0.17136192,3.8771908,-1.2681736,5.0250607,-3.3226678,-0.5238983,1.0581706,-0.9939358,-4.9718647,-4.4226375,-3.982108,0.9492012,-0.101375215,3.80021,-3.183988,-0.99349403,-2.5348325,1.9134945,2.2612364,-0.082705714,-0.03201827,-0.615016,-1.7533078,1.0078788,1.2479184,1.2084711,0.48881632,-2.9611173,-4.8882537,-0.64643997,2.7250996,-1.8587748,-2.4261022,0.8033727,-0.121114075,0.21714984,-1.15747,0.7269417,-0.9511604,0.16299105,-0.79460025,2.474948,-2.178988,-0.39354977,0.7929273,2.2469246,-0.13070239,-1.6086164,1.1303343,-1.3928769,5.9069867,-4.7547045,0.75815874,-0.03553488,1.8246436,-0.60900295,4.4268484,0.26592657,2.9793208,0.4856597,2.0945146,1.8233202,-0.21519393,-0.26352966,-1.2283562,3.9856358,2.5027907,-4.666091,1.2603583,-3.0469136,2.326677,-0.8872012,0.8948631,1.2698238,2.0531964,2.084748,1.0914141,0.05141408
CaR-1,-1.0809077,-1.0556592,0.6006859,-0.31636855,0.104685225,-1.3773116,1.5827154,-1.2077643,2.2476456,-1.3751853,-0.45094493,0.1558977,2.4864013,-0.019361638,-0.673554,0.776791,0.93629867,1.0195276,1.7805312,0.5234026,0.8880584,1.0986267,1.6462265,2.1766315,-0.527912,0.76180494,0.49559784,-1.5429626,1.6464772,-0.9565845,-0.6876588,-0.58801043,-1.2025951,1.3751323,-0.8186533,0.43270168,1.088769,-0.8916335,-0.5846058,0.68366367,-1.3817375,2.814083,-0.04417642,-3.3164146,3.5242789,-0.021042233,-2.2906194,3.075258,-3.1967561,2.1068552,-0.1148135,-3.044007,1.1385816,-0.099741824,-0.27290896,-1.9061055,-1.071896,-1.2102938,2.167876,0.8919261,2.1330814,-0.36930776,-1.0450494,1.8281442,0.7337667,1.5505881,1.9904737,0.8116545,-1.1072378,-0.38254756,-2.7167668,2.791412,0.6450025,2.323034,1.085725,0.3441381,-0.033827335,3.5750113,3.8962805,-0.20123291,-2.9993463,2.8901782,-0.86032337,-0.38764247
MCF-7,-0.8620943,-0.48990288,0.31537208,2.3459153,-0.9201267,-0.5465007,0.5548917,1.8411708,-0.24944456,2.0230618,-2.7771578,0.07071382,1.5578923,-0.71878225,-1.5645311,-2.2144213,-2.85626,1.0035528,-0.04115448,1.8064575,-0.51490986,-0.5625196,-1.1712335,1.4546366,1.6931936,0.120020375,-0.5723003,-0.25589192,0.24831705,-0.29125836,-0.14339828,1.1334366,-0.79548365,-1.1718028,-1.6738825,-0.88602203,2.2611277,-1.6714889,-2.0201664,0.7380726,-1.3850527,0.97780037,-0.9978446,-1.0378995,0.21047314,-0.19487958,-1.3822311,1.5163927,-2.0662956,1.1216434,0.6898415,1.176987,1.0843337,-1.2999469,-0.21791798,-2.4381495,2.004493,-2.204403,1.539273,1.2348305,0.9569136,-1.0794282,3.3253887,0.7423311,2.2945805,0.35795194,1.3622025,0.5360644,-0.055573955,-0.18662499,-1.230619,2.3459508,1.9332736,-2.2091427,0.37609056,-2.540547,-0.23801723,0.89184076,1.6495569,1.1141042,0.7619283,1.6668591,0.23926014,-0.71931124
NCI-H838,-0.380044,0.4953746,0.25438204,1.3412484,-0.8221363,0.23757169,0.2727312,2.308571,0.54012483,2.2958295,-1.6010993,0.24372327,1.5085126,-0.63250023,-3.271671,-2.2139757,-1.5872875,0.5467456,0.8754986,2.7912714,-1.8895057,-0.23235251,-0.6911738,1.9022499,1.1726316,0.27725062,0.2562725,-0.006051603,-1.0907756,-0.6482751,0.14485982,0.10047024,0.6156208,-0.6723859,-2.7972136,0.2885655,2.0269952,-1.5741668,-2.0803168,0.5445665,0.17154752,0.7879101,-0.92811954,0.5174491,0.51118004,0.27652192,-0.82714677,2.355332,-1.9860224,0.37965152,1.0300521,0.066374004,-0.004338531,-0.83536965,0.05157562,-0.8268138,3.3095617,-3.3454578,1.417766,-0.10299021,2.1451974,0.10737297,1.2080791,1.2869656,1.2842164,0.86758006,1.7065874,1.789451,-0.2681346,-0.5918513,-1.6431663,3.4302452,1.2747663,-1.4728885,0.9578075,-1.0866878,1.226707,0.55894214,1.9238797,0.83609414,-0.21568789,1.8868737,0.10812606,0.5084164
CAMA-1,-1.5189096,-0.7113176,0.24325445,2.8517337,-0.57750106,-1.1634923,0.46066847,1.758593,0.4074039,1.66917,-3.2180965,0.5908176,2.04533,-1.2846284,-1.7519048,-1.7818505,-2.6763172,1.2493591,-0.30062318,1.9629291,-0.9525603,-1.211249,-0.61318845,1.259586,1.9733254,0.34822363,-0.8761655,-1.0547411,0.12292306,-0.39106947,0.119616166,0.9638772,-1.2870402,-1.5253909,-2.3174214,-1.215479,2.6277554,-2.1479921,-1.8823406,0.75808394,-1.7174802,1.310338,-0.39063442,-1.4082226,0.7619531,-0.56353444,-1.995517,2.497459,-2.6205838,1.5349119,0.09261903,0.16998044,1.6761277,-1.7846488,-0.8635911,-2.7281177,2.2666435,-3.0329323,1.7833405,1.4698348,1.4457186,-1.548833,3.0742188,1.3344706,2.5383027,0.04651309,2.297919,0.0620771,-0.66461784,0.37317204,-1.8179686,2.7137089,2.5831797,-2.3276038,0.87357134,-2.4680135,0.3544346,1.3128377,2.0555372,1.5144569,0.3683602,1.8354703,0.53418607,-1.2558088
IST-Mes1,-1.1467518,-0.047007553,0.027657617,2.2780697,-0.86207634,0.08401923,0.08205016,2.8112528,0.6350581,4.0857224,-2.1692505,0.23322774,1.7375673,-1.6385596,-4.7683463,-2.4083529,-1.8461862,0.84237504,0.2607817,4.0274963,-3.8161764,-0.7170628,-1.1566671,1.9123055,1.9446177,-0.15266983,0.43112257,-1.1396894,-2.3776748,-0.7491226,0.8726711,0.37511688,0.14408347,-2.261752,-4.343349,0.49374765,2.860481,-2.1132238,-2.147513,1.138469,0.21676126,0.71178126,-0.54446113,0.22306573,0.3700964,0.2351749,-1.2114903,3.9873161,-2.3675053,0.21416765,0.49440545,-0.16645916,-0.0010468524,-1.5946542,-0.022631954,-0.8471114,5.404406,-4.903963,1.3809922,-0.57333475,2.632159,-0.42049414,1.6592336,1.5984501,1.903285,0.6088345,2.6112835,1.961991,-0.7445266,-0.3222819,-2.209345,4.45519,1.98214,-2.7989082,1.4736804,-0.9625436,2.6142097,0.18190631,1.9511657,1.6750064,0.37355947,2.0437725,1.1322814,-0.15131898
COLO 205,-0.97031456,-1.3289423,-0.42853743,1.6540366,0.49920204,-1.8784212,0.75604767,-0.92512405,0.35935387,-1.0614482,-2.3218753,0.43251786,1.8275411,-0.070666604,0.12200102,-0.21862097,-1.870937,1.3821172,-0.36090714,-0.4026119,0.7764385,-0.60521984,0.90280426,0.09850046,1.1186829,0.33705088,-1.1453725,-1.6032859,1.9277099,0.6701584,0.5719626,0.37326962,-1.6529803,-0.4058655,-1.0186177,-1.1591839,1.2042191,-1.1157112,-0.34407204,0.36417732,-1.9203069,1.955366,0.65640646,-2.914766,1.8399249,-0.96832746,-1.6198442,1.5961949,-2.074215,2.0587068,-0.80347323,-1.1044326,1.9328414,-1.3155359,-0.82356685,-2.3818922,-0.5110561,-1.0334857,0.87273717,1.7477359,1.0718863,-1.6621244,1.6558542,0.6283968,1.656028,-0.086907245,1.5492873,-0.8546693,-0.8910005,0.65788454,-1.2444322,1.432182,1.4190981,-0.34532666,0.6835233,-1.5266856,0.047377903,2.0973554,1.7527792,0.35075364,-0.37045136,1.3213865,-0.11576262,-1.2505555
CTB-1,13.787159,6.5984926,-2.67312,0.69467545,0.8938323,9.307707,-4.952019,9.441264,-13.3742895,-4.348012,-2.4470503,-3.3915462,-10.1510515,9.621531,9.038021,-10.585624,-10.915628,-5.812437,-7.591865,-7.417214,12.652854,0.623161,-4.8954196,-8.710221,-3.017482,2.6131546,-1.2245357,15.6187105,2.5390973,10.71743,4.8051085,2.8202212,17.278517,1.1630437,7.9039483,-2.4334345,-0.7548437,9.921119,4.2411284,-11.346373,3.0768366,-10.255544,-6.779104,15.169952,-16.424553,1.5057771,16.117094,-19.62712,13.154345,-13.642799,5.660978,14.415255,-3.8147805,6.900339,7.48298,2.6838527,-8.921539,15.034836,-14.022148,-1.4365331,-8.9461,7.8066936,9.424831,-13.5674095,-7.882512,-8.184061,-17.565155,-1.676409,10.423596,-0.21415848,16.098108,-14.85305,-14.8394375,0.4882283,-7.721149,-7.6052494,-10.46025,-14.945013,-12.253799,-2.817533,14.426295,-12.6582775,-5.5190535,8.694757
J82,-0.076570235,0.44664368,0.64857894,1.687686,-0.8419164,0.41692016,0.35394317,2.3659718,-0.023733797,2.4289486,-1.790686,0.31224248,1.1030557,-0.97301227,-2.8740034,-2.3007588,-1.5992124,0.35856575,0.12977032,2.6323786,-1.6812998,-0.4064245,-0.84236914,1.6200954,1.4963195,-0.13472709,0.270039,0.124072425,-1.2354897,-0.9259879,0.115931645,0.057293635,0.6048992,-1.06057,-2.299925,0.19752276,1.9652951,-1.5881665,-1.8941841,0.6425438,-0.13479356,0.15732983,-1.1255771,0.2802359,-0.09968908,0.4360068,-0.50071466,1.8670818,-1.3964924,0.4388139,0.92269516,0.38986,0.02828116,-0.99193424,-0.068231046,-0.73631644,3.0210772,-2.7279243,1.3293239,-0.37053677,1.6797007,-0.19242787,1.6502391,0.8195268,0.9114457,0.53108615,1.2672956,1.4263165,-0.04222439,-0.49527916,-1.3373371,2.5849197,1.0850252,-1.6352824,0.52177995,-1.1313428,1.012636,0.011333021,1.2908128,1.00889,0.28972736,1.1320332,0.3581576,0.30404332
SNG-M,-0.17381307,0.5654622,0.76451916,1.5644202,-1.180591,0.41658252,0.89275056,2.193596,0.42503837,2.763543,-1.6455716,0.33677527,1.3834658,-0.95114565,-3.5123136,-1.973916,-1.2530582,0.71848714,0.6522504,2.9007041,-2.1887693,-0.12540731,-0.93171674,2.3534038,1.2675538,-0.0861915,0.7084302,-0.288671,-1.3539283,-0.99569887,-0.19436684,0.08401051,0.113566294,-0.7435625,-2.7299104,0.3386447,2.3092139,-1.6856586,-2.2427526,1.0206703,-0.10614004,0.3892889,-1.1650845,-0.10126751,0.88419944,0.73038006,-0.9584958,2.8152483,-2.1559536,0.64077157,0.9006226,-0.118148975,-0.10144004,-0.9927898,0.019222775,-0.77076447,3.2713435,-3.5203536,2.0600386,-0.46427378,1.9884005,-0.2072088,1.1011335,1.3498839,1.0101023,1.250708,1.8560898,1.9077858,-0.42658094,-0.8989451,-2.030741,3.3415465,1.2985401,-1.5956783,0.8734583,-0.3904611,0.9615897,0.46833327,1.9741927,0.9144101,-0.47611323,1.9963837,0.57586974,0.27802247
NCI-H1651,-0.4493051,0.33871406,0.36493704,1.6014324,-0.990089,-0.071487255,0.6800146,1.6529725,0.21158889,2.1738405,-1.5851811,0.31303304,1.021224,-0.5305199,-2.6585593,-2.0288622,-1.3410074,0.61997986,0.5650454,2.2825694,-1.5223113,-0.036158226,-0.79299396,1.8685372,1.0433302,-0.12571226,0.147846,-0.301819,-0.8561898,-0.5122453,0.13246259,-0.41695076,0.28599203,-0.6174307,-2.6771584,0.3114673,1.7638283,-1.8137821,-1.7487289,0.9526405,-0.35080162,0.5456938,-0.7936071,-0.34758568,1.045011,0.49333486,-1.0049245,2.4936316,-2.177769,0.67015564,0.8927876,0.0005860821,0.04845325,-1.0208244,0.23493782,-0.989869,2.8654816,-3.182096,1.6603413,0.05706588,1.7663876,-0.1861199,1.3586662,1.1726038,1.0515019,0.7905878,1.8699108,1.2814636,-0.4329291,-0.57452756,-1.6100016,3.0700943,1.3423913,-1.6686326,0.7474211,-0.98419297,1.1355795,0.6865801,1.7475812,0.39434892,-0.4524309,2.128778,-0.24045521,0.30706006
Becker,-1.3597231,-0.3528966,-0.14492567,2.6933815,-0.44238323,0.49191982,-0.35516924,2.8838925,0.35872203,4.4490404,-2.3970368,0.1637598,1.7983818,-1.6705732,-4.649375,-2.536637,-2.4277172,0.8872262,0.13259363,4.3350368,-3.9104066,-1.0326643,-0.9311374,1.1388294,2.4222472,0.19278951,0.017632129,-1.715165,-2.556404,-0.106888406,1.3816524,0.91343117,0.2926177,-2.6687722,-4.2111244,0.114795886,3.0225031,-1.6806383,-2.050927,0.7280763,0.52986664,0.86351633,-0.6480365,0.7492463,-0.43572697,0.026694654,-0.8158698,3.6495986,-2.4847124,-0.057138197,0.44116893,0.011385757,-0.22068845,-1.6164885,-0.10488822,-0.7952131,6.0095987,-5.0945888,0.6475136,-0.5832367,2.9168732,-0.40472323,2.0109568,1.5774732,2.2384443,0.2825105,2.7257133,2.0753996,-0.69449455,-0.14005361,-2.2625616,4.530103,2.1359096,-3.0549207,1.6504152,-1.0320278,3.2564862,-0.26430187,2.040093,1.8694885,0.99659747,1.8125317,1.5208472,-0.3282551
SaOS-2,-2.251199,-0.7537578,-0.710942,3.5097356,0.0037879667,0.5661111,-0.9450928,4.2665715,0.14178582,4.6669035,-3.462915,0.029370628,2.4348934,-1.8472991,-5.216663,-3.6530657,-3.7157187,1.5147121,-0.19977975,4.894483,-3.5422213,-1.7815528,-1.2830215,0.97844756,3.267342,0.42179486,-0.37995,-1.5546881,-2.5819528,0.5818257,1.6927638,2.080891,-0.21148904,-3.3064885,-4.556387,-1.0936913,4.192446,-1.5387403,-2.1922789,0.13677527,-0.037853815,0.95439327,-0.88719434,1.0938494,-1.2232841,-0.66108376,-0.7676522,3.2844448,-2.6067152,-0.32813996,0.0901388,0.72641325,0.11188712,-1.8741827,0.107706964,-1.2978541,6.167443,-5.4166594,0.3925971,-0.25230697,3.3856943,-0.90153813,3.4146786,1.688539,3.2348514,0.08535648,2.8557353,2.3049898,-0.72388625,0.37619954,-2.4485378,4.868493,2.915608,-3.839819,2.0729315,-2.1149828,3.3069932,-0.9435349,2.1554265,3.0660431,2.1977165,1.3729017,1.8796393,-0.31605834
HCC1143,-0.88983107,-0.63528275,0.21816425,-0.18530999,-0.18112636,-0.8434932,1.3723077,-0.5991541,2.0129535,-0.49823973,-0.80497485,0.17380178,2.3708303,-0.27001637,-1.0566381,-0.09542343,0.2944142,0.7532124,1.5280781,1.0131452,0.2113244,0.76188064,1.2808839,1.8692862,-0.011907977,0.7240163,0.11977285,-1.307118,1.070708,-0.64840305,-0.44353592,-0.8910513,-0.66984653,1.2208068,-1.0247322,0.5053237,1.1200509,-1.1406763,-0.4674625,0.65324175,-0.89823073,2.4399838,-0.18611635,-2.1933775,2.8605785,-0.080432326,-2.2051961,2.9024074,-2.8849213,1.6225733,0.21703634,-2.4825015,1.0686141,-0.3654755,-0.023544418,-1.5768908,-0.1778424,-1.3710315,1.9661258,0.64325,1.9957708,-0.2684216,-0.5563229,1.5693268,0.67736244,1.5486469,1.8126628,0.78501385,-0.8388661,-0.5945,-2.2942297,2.8670795,0.71180606,1.4935304,1.0469112,0.12818782,0.2804004,3.1726103,3.615362,-0.043823194,-2.5158067,2.8908298,-0.6934539,-0.09497846
KO52,11.214453,5.61755,-0.8640759,-0.48309892,-1.877662,6.593031,-1.5236202,7.1659894,-11.39879,-1.7587777,-0.8804658,-3.8065727,-7.572143,8.04673,5.175005,-9.076223,-7.568235,-4.6264844,-4.3435893,-5.8370657,7.2326064,1.6299409,-5.6022844,-5.213645,-2.9422894,-0.30783695,0.6615806,11.413179,2.5339355,6.567875,2.3507724,1.320803,11.882674,0.83985627,4.5606294,-0.45004138,-2.3120415,5.231469,1.7734687,-4.5877023,2.3288825,-7.976557,-6.8528366,9.971003,-11.1779585,2.3311045,9.948406,-14.582845,8.891564,-8.339752,5.574619,11.598937,-4.0953536,4.5592914,6.212382,2.0788407,-4.83522,10.354475,-8.1259165,-1.9120547,-7.4043703,5.811765,8.19873,-9.954583,-4.5308,-2.9523063,-12.656938,-0.33325046,7.998574,-1.9889381,12.531468,-9.97004,-9.6446905,-1.5412965,-5.8779535,-6.489537,-8.514993,-10.123187,-8.540872,-3.643358,10.079929,-7.601696,-2.017008,5.9674783
FaDu,-0.3193308,-0.819935,0.041922823,0.14918366,0.0057976553,-0.7917028,0.79897463,-0.15563968,1.4570645,-1.5673316,-0.9666052,-0.07854444,2.0350919,0.22720785,0.09479681,-0.07366128,-0.3253158,0.6415328,0.9489654,0.14666164,1.5870129,0.6821416,1.4188701,1.3089057,-0.118555695,1.2915509,-0.22435743,-0.5921134,1.4345696,0.010818767,-0.3232323,0.00048956636,-0.3718998,0.866393,0.15754183,-0.12273548,1.0280788,-0.5196708,-0.32462803,0.0009209272,-1.176199,1.923612,-0.2585351,-1.982957,2.0436912,-0.42592162,-1.4973727,1.3454843,-2.1706269,1.1186175,0.16207209,-1.663586,1.2424577,-0.0034632205,0.058169384,-1.8113477,-1.615813,0.0017130611,1.0745916,1.1077596,1.4440601,-0.2630259,0.14958416,0.86228985,0.74300706,0.67800415,0.88268775,0.2422789,-0.41010126,-0.17184158,-1.4610817,1.7564788,0.2712854,1.7214291,0.79461354,-0.26540276,-0.72744167,2.2591722,2.7379255,-0.017573085,-1.5499195,1.8293134,-0.79546314,-0.010848855
COLO 800,0.34374684,1.1835924,0.1395735,2.3290858,-1.2178894,0.3611176,1.2908837,2.297754,-0.4120589,2.6623297,-1.8487139,-1.136215,0.7136024,-0.08464793,-2.7279816,-3.757905,-3.4482427,0.19553481,0.80139625,2.5302546,-1.7819388,-0.008350524,-1.3594202,2.500826,0.736138,-0.6722163,0.79186547,0.28066948,-0.7996904,-0.5297516,-0.27878293,-0.8456748,0.9753943,-0.3502241,-3.8587883,-0.050837208,1.8558158,-2.0547607,-2.3114178,0.06862199,0.36756438,0.082449324,-0.96426356,0.14365034,0.0215105,1.0610081,-0.9583699,1.4570453,-1.4103428,0.63552946,1.6177311,1.0336187,0.31332093,-1.1504812,0.89756227,-0.882226,3.2629418,-3.838979,1.6810751,-0.32970208,0.84446615,-0.17322227,2.8979127,0.24720146,0.87911713,1.6475822,1.9078267,1.1109605,-0.32376567,-1.3817677,-1.6166205,2.6281369,1.1436284,-2.8650043,0.5774531,-1.6863856,1.1114498,0.29851788,1.3714745,0.2751912,0.5152299,2.474999,-0.4435394,1.1381669
D-542MG,-2.1898015,-1.1407777,-0.62892306,3.6602407,0.08828465,0.43966788,-0.94299483,3.598066,0.2984539,5.224395,-3.032946,0.07198418,1.9624745,-2.2782104,-5.261509,-2.589949,-3.320227,1.4297951,-0.7467464,5.1544533,-4.5907545,-1.8490484,-1.1826146,0.23717283,3.634659,0.054991286,-0.55245304,-2.745785,-3.4202037,0.7838922,2.1415558,2.1033726,-0.09344482,-4.3457417,-4.7219296,-0.6391213,4.1533036,-1.2179438,-2.1240294,0.2543522,0.47899064,0.8697686,-0.2051511,0.97024953,-1.5416266,-0.6284722,-0.65654373,4.050441,-2.313279,-0.6573303,-0.54557717,0.11951498,-0.27398136,-2.0602078,-0.10017341,-0.739818,7.45853,-5.972427,-0.25265676,-0.7237059,3.3360467,-0.99407846,2.9885519,1.8094691,3.3410046,-0.21696705,2.8540578,2.309132,-0.87685245,0.5765175,-2.5925264,4.8026805,3.0609941,-4.292949,2.083392,-1.3232986,4.478104,-1.2673508,1.5914818,3.1749854,2.50095,0.5665573,3.0047739,-0.8254154
BL-41,15.308241,7.446395,-2.6061928,-0.081767336,0.534206,10.774306,-5.0595393,9.667072,-14.870857,-4.8692045,-1.922196,-4.196925,-11.660203,11.150593,9.650929,-11.117373,-11.1157465,-7.064707,-7.9711223,-8.44428,14.2346,1.3649833,-5.7888474,-9.563607,-4.4365063,2.620106,-1.0753024,17.362654,2.8218284,11.928102,4.8380365,2.791667,19.420084,1.9539756,8.621171,-1.7749922,-1.5222915,11.069259,4.435412,-12.207968,3.7019546,-11.374811,-7.7360864,16.604317,-17.87287,2.1695735,17.782707,-21.62955,14.651158,-15.445628,6.6618767,15.904427,-4.4824214,8.455709,8.834784,3.6062663,-10.018666,16.758928,-15.44765,-1.9368161,-9.914481,9.27765,9.584613,-15.138136,-9.284237,-8.319976,-19.673018,-1.5885943,11.607257,-0.7380489,17.799557,-16.355583,-16.944906,0.80952007,-8.642217,-7.828687,-11.475393,-16.372616,-13.744194,-3.9929826,15.026329,-13.4117155,-6.277003,10.090212
NCI-H2009,-0.807268,-0.3750801,0.2459889,0.6244314,-0.2834062,-0.7857325,1.058344,-0.023856977,1.5492781,-0.26782113,-1.1831487,0.28244135,2.240734,-0.4999352,-1.1791348,-0.11873887,0.046824005,0.76249605,1.132847,1.1486658,0.111391254,0.53669566,1.053219,2.0143561,-0.06264275,0.9154992,0.0462497,-1.0816382,0.719626,-0.7634763,-0.25634417,-0.381408,-0.5173803,0.74625784,-1.1573478,0.06500111,1.7396337,-1.1763113,-0.8849864,0.5817141,-1.2063003,2.2139125,-0.011090891,-2.0618126,2.4375553,-0.17852998,-1.6895614,2.73339,-2.9192727,1.6067396,0.009327639,-1.9553627,1.0420414,-0.6580299,-0.16118595,-2.0713096,0.25305766,-2.0629494,1.8725889,0.83124447,2.1114233,-0.20080325,0.039002962,1.7537527,1.077831,0.9833979,2.0546777,0.7892275,-0.8890002,-0.30866843,-2.3511376,2.9203947,0.75117147,1.0713058,1.1625549,-0.13551927,0.2060043,2.7705886,3.3383176,0.43042323,-1.9291928,2.4938054,-0.5261379,-0.29022336
Calu-6,-0.26832488,0.6755866,0.8446846,2.734978,-1.4260775,-0.10798998,0.6134612,3.11436,-0.7537086,4.6728687,-2.7519956,-0.16969147,0.7644959,-1.3966472,-4.3860087,-3.7520835,-2.8400252,0.7782761,0.0778344,3.0856287,-3.1334562,-0.73704916,-2.3133054,2.5213394,1.9933053,-0.59791696,0.36446115,0.083805375,-1.454688,-0.6463122,0.1901792,0.20353697,-0.10664661,-2.0214596,-4.2106576,-0.27367446,2.036532,-2.5467842,-3.288567,1.4343158,-0.5664403,-0.118247174,-1.438111,-0.1974715,-0.2498463,0.53416085,-1.2928329,2.3847818,-2.157939,0.5639399,1.2391661,1.8610387,0.011428705,-1.5617982,0.44580302,-1.0760708,4.8127823,-4.1542106,1.9052291,-0.20023853,1.2626094,-0.71681464,3.8548014,0.30666193,2.1684952,0.66010606,1.7149681,1.7413832,0.08786176,-0.73968333,-1.2830238,3.6997263,2.290951,-4.1718884,0.8301397,-2.5396247,1.3652784,0.020709725,1.1497649,1.089453,0.90057707,2.4360187,0.86005175,-0.1944952
D-336MG,-3.2617297,-2.363181,-1.2985692,5.28903,0.39983335,1.6460123,-2.5411527,6.511667,0.526823,8.139193,-4.544912,-0.09067561,2.6847396,-3.4479277,-7.3445272,-3.3596733,-5.56612,1.5810875,-2.0518813,8.178213,-6.9733715,-3.5040076,-2.0454755,-0.7504452,5.746667,0.38571686,-1.4961962,-3.943274,-5.839005,1.8583944,3.4137938,4.6905775,-0.1804389,-7.2643065,-5.536934,-1.3260567,6.486825,-0.6862264,-2.9400473,-0.45030063,1.9105096,0.94752735,-0.64858836,3.0218687,-3.9020345,-1.2929479,-0.113254264,5.399614,-2.3372786,-2.2100356,-0.9772199,0.48698616,-0.53177047,-2.5668213,0.023034053,-0.46702868,10.962501,-8.062356,-1.831761,-1.1544346,5.0988708,-0.7953929,4.267079,2.305937,4.8997774,-1.1608659,3.6202264,3.6177294,-0.6742131,1.1286248,-3.2057123,6.7529435,4.075039,-5.7273054,2.8592267,-1.7903541,6.6670833,-3.2857103,1.2893809,5.814031,5.0394273,-0.6447939,5.236195,-1.5211176
TYK-nu,0.28590447,0.50011003,-0.11122621,1.9810511,-0.15647647,0.37443462,0.019944165,2.7131035,-0.66484237,1.939464,-1.799035,0.21560702,1.0847224,-0.15986624,-2.4248626,-2.9579492,-2.7502282,0.7321214,-0.17283735,2.0099247,-0.98436975,-0.056223426,-1.2892641,0.7880637,1.4326164,0.45498407,0.053963296,0.96207386,-0.69115335,0.22101827,0.7034019,0.6771754,1.2311456,-1.081006,-2.3208358,-0.40849528,2.1418512,-0.83058065,-1.1093056,-0.20927574,-0.43764287,0.11503349,-1.3360697,0.7473636,-0.81005484,0.21329173,0.13702972,0.6447086,-1.0514057,0.008812659,0.7188019,1.3972797,-0.2513166,-1.0764289,0.15591162,-0.94302356,2.745511,-2.1368175,0.32569444,-0.24384983,0.9790439,-0.4172208,2.73839,0.15383096,0.90306467,0.34004503,0.6656896,1.1071982,0.2471026,-0.49544096,-0.8158026,2.0424714,0.63717717,-1.9962531,0.6001773,-2.069303,0.5297033,-0.5980533,0.6981109,0.5900159,1.4242125,0.58634174,0.40266654,0.43259996
COLO 679,0.40337873,1.3663586,0.14149949,2.385741,-1.1965426,0.35069808,1.1140723,3.0025308,-0.74182,2.797387,-1.9734938,-0.9171516,0.80438495,-0.32608125,-3.1224265,-3.792848,-3.5920458,0.12948959,0.6250769,2.5068274,-1.7192081,-0.23937093,-1.499369,2.6513817,1.0683224,-0.37498963,0.9152416,0.7167063,-0.9670695,-0.62619764,-0.119316444,-0.662276,1.0227226,-0.86007196,-3.63963,0.060701128,2.148835,-2.110756,-2.5306764,0.108843334,0.29248568,-0.018135967,-1.0149536,0.086810365,0.005576672,1.0818788,-0.91165435,1.4509294,-1.5842309,0.5540127,1.5376872,1.1337193,0.25125244,-1.1822475,0.6718449,-0.86019486,3.5450356,-3.8879004,1.5689056,-0.38035864,0.9686894,-0.139158,3.1829245,0.42746553,1.191166,1.4548936,1.8541436,1.0234996,-0.03857308,-1.0235473,-1.8534268,2.882597,1.3414359,-3.0721254,0.66603494,-2.1645515,1.1097791,0.060174152,1.2697816,0.52747965,0.7673208,2.4362042,-0.443175,1.2438327
EM-2,7.0209947,4.179942,-0.41279536,0.5093079,-1.6271342,4.7247453,-1.2534677,6.1129084,-7.7615414,-0.3202795,-1.4560983,-2.6944187,-4.500213,5.434578,2.1007051,-7.082905,-5.9891844,-2.689684,-2.5185318,-2.7568297,4.093905,0.74840134,-4.3809648,-2.4103906,-1.7781423,0.23230536,0.58957213,7.3877335,1.1650321,4.299903,1.6681912,0.9512922,8.270882,-0.10041092,1.991681,-0.4940879,-0.6602822,3.2122273,0.6647616,-3.1255186,1.5975231,-5.4160333,-5.20641,7.0540304,-7.283818,1.7018815,6.450665,-9.064625,4.9143853,-5.9461317,3.6405358,8.113766,-2.8030086,2.5220225,4.4975147,0.8896491,-2.0198488,5.7554507,-4.9110155,-1.3552445,-4.176627,3.6007147,6.3751345,-6.7057605,-2.2862532,-1.382339,-8.098021,0.6559697,5.1239457,-1.7247792,7.9681773,-5.1712546,-5.9150515,-2.1725156,-3.473022,-4.7369843,-5.0704417,-7.0821114,-5.3790703,-2.1231318,6.7376447,-4.138164,-1.2904283,4.498056
NCI-H1437,-1.1567934,-1.1442418,0.570883,0.98836577,-0.5604643,-1.2017344,1.4997711,-0.7105277,1.3932401,-0.1256122,-1.5140936,0.12517451,2.1402497,-0.3035092,-0.69602615,0.5416965,-0.38294291,0.94597864,0.94783956,0.8982206,0.18643802,0.38587713,0.75410277,2.052832,0.50366986,0.52019024,-0.14605066,-1.4334735,1.0149206,-0.53251487,-0.30913797,-0.23747897,-1.6506152,0.13605037,-1.1719624,-0.12918869,1.3870361,-1.5271409,-1.4054052,1.1383331,-1.3815999,2.2866302,-0.04621507,-2.9111137,2.8276546,-0.36536977,-2.1309388,2.6716094,-2.9996548,2.2286468,-0.002566261,-1.7087749,1.296243,-1.0285354,-0.23773806,-2.381358,0.15923351,-2.1554706,2.0865479,1.1372508,1.9117874,-0.7756994,0.46767253,1.4063398,1.8236364,1.0432355,2.0297287,0.5137985,-1.0655588,-0.43961164,-2.1876657,2.7764738,1.4365721,0.25407615,0.64032453,-0.31323484,0.11287941,3.0723417,2.9492667,0.21892875,-2.2850256,2.7476673,-0.07995093,-0.7368847
SCLC-21H,-1.2859064,1.2137316,1.0973828,4.744431,-2.1319344,-1.0406438,0.8725018,4.5166993,-1.7248023,5.485222,-4.671443,0.2279128,1.2316927,-1.7483555,-5.8314667,-6.04692,-4.9176655,2.462761,0.55520564,4.259795,-3.4007416,-0.88718545,-3.5236657,4.605514,2.9123704,-0.48635677,0.02500868,0.09270643,-1.3639174,-0.7900606,-0.11490706,0.21216023,-0.7664936,-2.4201844,-6.5262623,-0.9353016,3.486276,-4.5422225,-4.873265,2.0952342,-1.9583787,0.40938678,-1.8478941,-0.9627405,0.8231466,0.21568106,-2.6116514,3.572501,-3.9465663,1.7696487,1.3508784,3.0009675,0.9874024,-3.2833092,0.118014224,-3.3965437,6.2077785,-6.1748114,3.9387872,0.83642626,2.0229204,-2.1671891,6.6799,0.7979775,3.7638943,1.3315364,3.3370078,2.220811,-0.78467405,-0.5890636,-2.0714223,4.88304,4.3197474,-6.7416964,1.523633,-4.841357,1.0366857,0.5099357,1.8230066,1.2256815,0.5965628,4.201376,0.5889257,-0.74765193
SJNB-7,-0.8190906,0.48323157,0.12568045,2.7981138,-1.0320312,-0.2834601,-0.035941876,3.5010507,-0.61325884,3.27066,-3.1102655,0.637059,1.2863753,-0.93976754,-3.6712518,-3.8295972,-3.3121848,1.1451567,-0.010721548,2.984043,-1.7158424,-0.6210747,-1.575524,1.8422072,2.0628638,-0.37641305,-0.12712546,0.16916598,-1.0798471,-0.21271162,0.6121707,0.74042386,0.3683902,-1.4816626,-3.4740236,-0.34111303,2.8458238,-2.0895145,-2.1989563,0.56787074,-1.1806934,0.33308128,-1.0570005,0.4044145,-0.27265754,0.2767134,-0.9210146,2.0849853,-2.0996177,0.3865148,0.84450877,1.4243437,0.40186194,-1.6046194,-0.09482295,-1.757115,3.5082226,-3.242529,1.4028468,0.09029963,1.6633193,-0.85452324,3.516744,0.9671946,1.9727395,0.32125735,2.0943747,1.2306365,-0.29954487,-0.05426295,-1.2297142,3.2109406,2.2353342,-3.1715298,0.9985686,-2.593521,0.8254787,-0.39639455,1.5131742,1.1580962,1.4193202,1.8121054,0.008693954,-0.2323229
HCC1954,-1.1614786,-0.9631396,0.4016133,0.46916196,-0.3598726,-1.2476133,1.3634162,-0.6540095,2.217636,-0.68163717,-1.2763543,0.3744151,2.226282,-0.73085165,-0.8217939,0.4414603,0.04503304,0.96982235,0.92038316,1.1679319,0.1608535,0.30925518,1.2970312,2.018056,0.28867593,0.7060201,-0.11705022,-1.4402454,0.88413626,-0.7499561,-0.31278414,-0.40931457,-1.2702872,0.34916294,-0.8975641,0.08214108,1.5217823,-1.4067384,-0.94404334,0.5929579,-1.5420691,2.2732635,-0.0062407954,-2.7316906,2.6847203,-0.4444089,-2.1892726,2.908833,-2.9457183,2.0061805,-0.13989244,-2.4663973,1.257199,-0.6639244,-0.40321225,-1.9265957,-0.36175913,-1.5907918,1.8441125,1.0333467,2.0524025,-0.6576448,-0.10242191,1.4229999,1.0010271,0.9828278,1.8938433,0.52304107,-1.1504887,-0.41931257,-2.3716743,2.8185067,1.2044553,1.3170745,0.87303865,-0.24628478,0.022872532,3.2734737,3.288604,0.51518625,-2.4228354,2.6173308,-0.1857498,-0.7984959
LN-405,-1.339308,-0.12647538,-0.13954264,2.588515,-0.55144566,0.5482993,-0.18940613,3.0545423,0.16992107,4.5580716,-2.4506001,-0.0908475,1.5123124,-1.63204,-4.775712,-2.7309864,-2.8191557,0.8875046,0.14768319,4.4411445,-3.635465,-0.8361638,-1.2174,1.3310733,2.422389,-0.08513659,0.05407211,-1.5673715,-2.6483138,0.06414069,1.2646626,1.0457202,0.3268035,-2.7229276,-4.406235,-0.16350263,3.1337845,-1.550074,-2.1158903,0.5662515,0.43009198,0.5720005,-0.74865294,0.7895044,-0.87617415,0.013851395,-0.7301553,3.3445213,-2.1130686,-0.5031824,0.4313094,0.37432188,-0.34838164,-1.775584,0.26120138,-0.7701477,5.992201,-5.0085387,0.56257695,-0.57203174,2.613647,-0.4632054,2.6356325,1.0688488,2.2964664,0.43056804,2.1491728,2.325251,-0.57432485,-0.33737984,-1.9463958,4.3174505,2.195745,-3.4791038,1.70169,-1.0955788,3.0739386,-0.61737543,1.8041803,2.005486,1.3089716,1.5090095,1.6917794,-0.09925603
IST-SL2,-0.62158674,0.55924666,-0.21011485,2.9525778,-0.5673821,-0.5939953,-0.028448727,3.3194213,-0.758386,1.5498501,-3.3498294,0.65641826,1.4027338,-0.42939943,-2.354722,-3.7295394,-3.8153853,1.5767796,-0.35274574,2.16654,-0.34537512,-0.664259,-1.1034684,1.6871034,1.4667398,0.68432075,-0.4588595,0.39939705,0.16858047,0.29263398,0.1947861,0.6603223,0.19689459,-1.076077,-2.6219022,-0.88204813,3.0778062,-2.0308592,-1.6556523,0.09092969,-1.650939,0.45097247,-1.1439154,-0.2789839,0.21360451,-0.44255993,-0.92529476,1.6100672,-2.5408068,0.91288316,0.63169855,1.5352881,1.0509316,-1.7429686,-0.44322476,-2.7373126,2.292659,-2.608492,1.641823,0.8419216,1.4352019,-1.1025401,4.0099764,0.7257566,1.8867298,0.30874905,1.496746,1.0252854,-0.42170012,0.055947762,-1.0251092,2.5773845,1.8475055,-2.7464776,0.8274286,-3.286292,-0.41992456,0.3488577,1.6256396,0.690684,0.82985824,2.1015701,-0.22930662,-0.37467787
SK-CO-1,-1.4470435,-1.926833,-0.30693954,0.39051497,0.16854385,-2.117994,1.5115542,-2.2278829,1.6120878,-1.4858944,-1.203977,0.081790075,2.440626,-0.18033388,0.2771264,1.2554212,-0.18210745,1.2862254,1.2337134,-0.52032226,1.020556,0.459092,1.3153231,1.177167,0.08441552,0.31572914,-0.6223249,-2.2687483,2.22387,0.16617247,-0.39665613,-0.00048335225,-2.3322728,0.69575375,-0.3864588,-0.41351163,0.57405746,-0.9049712,-0.6443983,1.0796977,-1.6343305,2.736207,0.50951535,-4.029945,3.2025723,-0.80550194,-2.6540687,2.4572792,-2.7492967,2.7665896,-0.86477816,-2.282976,1.9256028,-0.8361615,-0.5193805,-2.6547544,-1.2834258,-0.7413724,1.571545,1.6268226,1.4203186,-1.2277131,0.31000045,1.4441525,1.7448685,0.7103933,1.8190533,-0.47788468,-0.6361489,0.32897645,-1.9004312,1.9169458,1.2677428,0.91408694,0.73481435,-0.39596155,-0.2815584,3.7647798,3.1178925,0.2947298,-2.3270557,2.6065874,-0.062909625,-1.267219
SW900,-0.18319948,0.3622572,0.699233,1.5757661,-0.8250484,0.030452603,0.62120086,1.3925414,0.4392229,2.1972322,-1.6923543,0.27582014,1.0117829,-0.8414526,-2.51189,-1.6576784,-1.1428977,0.5460075,0.24933638,2.2781992,-1.8344104,-0.31170827,-0.5837627,1.5954906,1.0039148,-0.29376686,0.36690265,-0.2913519,-1.054571,-0.8804982,-0.10455007,-0.38064817,0.15071501,-0.78114766,-2.3962176,0.25829634,1.7675339,-1.6023221,-1.5976882,1.016817,-0.36101225,0.24920055,-0.8230758,-0.4155848,0.49216893,0.4136395,-0.82275575,2.160725,-1.7450916,0.65561587,0.58060044,-0.001255315,0.25517187,-0.9168456,0.08520686,-0.62232506,2.7053087,-3.0153503,1.3185558,-0.31974745,1.5908,-0.18081182,1.4074802,0.7499853,0.76253814,0.60732025,1.3474519,1.1137873,-0.21101609,-0.6041684,-1.391875,2.4487898,1.0266538,-1.4591588,0.5728074,-0.79049337,1.1811632,0.6206292,1.5000781,0.771023,-0.27886516,1.5040699,0.23345906,0.056843698
22Rv1,-0.43666786,0.4202842,0.6453462,3.3265069,-1.1689825,-0.02040991,0.03535828,3.7611392,-0.9723907,3.0372434,-3.7245278,0.35723752,1.1480339,-0.8168395,-2.9672642,-4.027587,-3.9508517,0.9520661,-0.48546177,2.9472826,-1.2172462,-0.93386406,-1.8735552,1.9768294,2.2261016,0.13577065,-0.34802127,0.44560352,-0.65955883,-0.27585912,0.18795638,0.8624235,0.24302799,-1.526299,-3.0080998,-0.9070033,2.954253,-2.6252365,-2.5968795,0.44726613,-1.0664486,0.082651086,-1.6897966,0.3466141,-0.34750122,0.061004255,-0.9091993,1.6088794,-2.1356986,0.5386121,1.0390251,2.0243824,0.88539183,-1.650634,0.12432136,-2.422055,3.2995367,-3.1925633,1.8154252,0.65879494,1.3153436,-0.88798636,4.643937,0.48401657,2.2459857,-0.043111496,1.3543224,1.2191132,0.17792794,-0.11347455,-1.3212876,2.7109237,2.0480547,-3.8472257,0.5185948,-3.269685,0.09866092,-0.31570175,1.4144031,1.1727945,1.3881435,1.6587559,0.35914192,-0.31659248
SK-OV-3,-0.3064337,0.47425687,0.71449536,1.8934388,-1.033367,0.12150352,0.76425517,2.3062267,0.28226998,2.5715337,-1.7342789,0.34919077,1.714999,-1.3003808,-3.4713578,-2.4188566,-1.4385828,0.88766414,0.9368867,2.991303,-1.9335537,0.1508363,-0.7411917,2.4843411,1.1431116,0.11777381,0.3767547,-0.23095398,-0.95574826,-1.0002984,-0.012750845,0.0053311144,0.3151533,-0.3644775,-3.043821,0.19967541,2.2654526,-1.9505211,-2.2625036,0.9219616,-0.65534526,0.75809526,-1.1512024,-0.27208567,1.1663465,0.39899105,-1.0958867,2.9174035,-2.3375995,0.7000833,0.9987136,-0.069092266,0.4486024,-1.0564814,-0.17212667,-1.4072737,3.321003,-3.7129948,2.1368964,0.24333869,2.117411,-0.33170396,1.414623,1.2569789,1.4098904,0.9264456,2.0401447,1.7870123,-0.6281027,-0.90168417,-2.0627394,3.6599305,1.4061512,-1.5016377,0.8691725,-0.9717747,1.013213,1.0349051,2.222596,0.80055946,-0.77125776,2.4279401,0.19506668,0.02839771
BT-20,-0.8159229,-0.7646792,0.40034893,1.1356162,-0.48228607,-0.5384216,1.0409794,0.68443614,1.0310111,0.7133734,-1.5409783,0.12637657,1.9398417,-0.23544694,-1.2344238,-0.6724136,-1.0898829,0.76923615,0.9632199,1.5310941,-0.18788938,0.22923677,0.36892423,2.0089016,0.62697476,0.7437801,-0.285208,-1.0340017,0.2479507,-0.5355472,-0.122328654,0.3253554,-0.4658322,-0.09828124,-1.3585162,-0.37936926,1.9663621,-0.93898803,-1.1878479,0.4444184,-1.1575147,1.7690917,-0.37067622,-1.3758106,1.8702661,-0.21924484,-1.0928837,2.2682586,-2.879536,1.1314753,0.20389055,-0.90056324,0.9482199,-0.5657158,-0.118680194,-1.9191844,1.0149978,-2.2666001,1.5491458,0.957846,2.045534,-0.40525207,0.9247135,1.509773,1.5432228,1.1135111,1.9328192,0.87972975,-0.9521238,-0.5286269,-1.98025,2.9383664,1.1731277,-0.23409763,1.1927631,-0.64248276,0.2725722,1.8957984,2.708884,0.7577916,-1.144803,2.3236005,-0.18943897,-0.27280217
ACN,0.39316514,1.1947423,0.24261029,2.192377,-1.1945093,0.34040526,1.4582481,2.059092,-0.71756303,2.755745,-1.4103585,-1.390174,0.43998018,-0.12935787,-2.667578,-3.247906,-3.1650298,-0.028822364,0.48052925,2.1902595,-1.8694625,-0.18639092,-1.4095893,2.163706,0.9249811,-0.8305799,1.0255284,0.4083434,-0.92344266,-0.5090636,-0.30967104,-0.67998403,0.96295446,-0.7267317,-3.3863056,0.15707865,1.6591591,-1.6506711,-2.399342,0.33615363,0.603475,-0.27173078,-1.0857017,0.38762903,-0.2645394,1.3277919,-0.5859371,1.0906752,-0.7336761,0.47878423,1.4284539,0.85323495,0.3949363,-0.7168004,0.92086303,-0.35277998,3.4321766,-3.5600197,1.2841297,-0.66744363,0.4757838,-0.03822826,2.7806215,0.20609471,0.71401596,1.5300405,1.7738906,1.0795705,0.17183632,-1.2047646,-1.3391006,2.1284018,1.0229111,-2.7855568,0.3520709,-1.5515169,1.4302057,-0.21961328,0.8217396,0.28042188,0.96955913,1.7831708,-0.07480716,1.3000898
SK-LMS-1,-0.9320073,-0.48144636,-0.06592538,2.2778525,-0.5156004,0.6105551,-0.18704227,2.4661262,-0.122905925,3.9170594,-2.2153008,-0.21592194,1.2811427,-1.3168868,-3.7513657,-1.9485154,-2.5835166,0.34000078,-0.37808836,3.4996836,-2.9561665,-1.1056067,-1.1351572,0.39661798,2.2155228,-0.17700656,0.21134427,-1.1200502,-2.31358,0.35153046,1.1314315,1.5496994,0.35008654,-2.663783,-2.887877,0.055754278,2.283364,-0.88095045,-1.7790319,0.33939767,0.8309509,0.39796934,-0.95273316,0.88259155,-1.3767525,0.049676433,-0.44925454,2.214006,-1.251154,-0.42285338,0.35432184,0.2532748,-0.18839477,-1.1191372,0.5040837,-0.35836995,4.9684744,-3.8422387,-0.049266573,-0.6023782,1.8682278,-0.1704886,2.1582882,0.7814448,2.0035312,0.113955855,1.3559355,1.7444295,0.3041671,-0.13258606,-1.2140518,3.1948757,1.666544,-2.5547566,1.0547119,-1.0111401,2.5541217,-0.9037053,1.284456,2.005696,1.7854842,0.51169497,1.8804424,0.079793744
NCI-H1395,0.022479191,0.0465662,0.63953197,1.4467567,-0.92893547,-0.21872994,0.656782,1.3914254,0.1693201,1.0090735,-1.6324617,0.030067086,1.142584,-0.10107767,-1.3751231,-1.2244217,-1.4298849,0.37647685,0.34318334,1.4111335,-0.468605,0.23684105,-0.6258152,1.656353,0.6350995,0.39401758,-0.25964624,-0.29705197,0.28072864,-0.43127707,-0.4434899,-0.27669588,-0.12237425,-0.20201622,-1.7473063,0.14830826,1.4701633,-1.268058,-1.7624552,0.92544657,-0.8325427,0.66323125,-0.9093968,-1.0727938,1.4946445,0.10939074,-1.0949947,1.8606633,-1.870432,1.206156,0.89160013,-0.027812174,0.7096284,-0.8827977,0.24179332,-1.8345333,1.3272296,-1.867824,1.7975835,0.47624865,1.4017519,-0.22031654,1.5847596,1.013272,1.4608805,0.55659187,1.2724848,0.7146838,-0.25376272,-0.48502332,-1.3813119,2.5328696,1.2097183,-1.0577414,0.27462086,-1.173523,-0.07508863,1.1823574,2.0687354,0.30272707,-0.9628129,2.0740423,-0.4293252,0.042018436
MDA-MB-468,-0.38256687,-0.27393708,0.53337157,0.49712124,-0.3955635,-0.36391938,1.2889796,0.3395976,1.2683098,-0.03180044,-0.95499176,-3.967645e-05,1.84714,0.09567345,-1.5295737,-0.5798743,-0.14616345,0.53960645,1.4381889,1.4080453,0.081081055,0.8148187,0.5425438,2.07974,0.0952249,0.9031593,0.33680835,-0.92599374,0.3703244,-0.512371,-0.4426064,-0.26267618,-0.18295895,0.60758036,-1.3075176,0.29189092,1.3400383,-0.8838671,-0.97369486,0.41528958,-0.9327985,1.6844128,-0.4517073,-1.5393872,2.72245,0.28091916,-1.2448004,2.591765,-2.8127444,0.9793861,0.40067473,-1.5183531,0.5052138,-0.20706315,0.3691062,-1.659617,0.34854808,-1.991248,1.8029673,0.3179792,1.8782758,-0.20794745,0.009293133,1.271318,0.8488127,1.4645247,1.6402807,1.2145145,-0.8067398,-0.6990332,-2.0936146,2.942419,0.68656194,0.87404674,0.9473481,-0.07688217,0.09180446,2.4025867,2.9672115,0.10560167,-1.8594902,2.7862659,-0.666721,0.0124684535
HH [Human lymphoma],7.4366865,4.156843,-0.6261601,1.2334694,-0.3227003,4.377393,-1.917692,6.746325,-8.317798,-1.1785587,-2.1890118,-2.2845244,-5.1007104,5.6131353,3.7742817,-7.788679,-7.5616026,-3.1132157,-4.1990833,-2.8045566,5.8128295,0.42600358,-3.642532,-3.52663,-0.8292459,0.41601238,-0.51174855,8.992066,1.3855011,5.169003,2.4039335,1.8620106,9.157709,0.49043664,2.5163848,-1.1345274,-0.4130946,3.7186081,1.080654,-4.824979,0.7145834,-5.822092,-4.3631735,7.0304937,-8.6259165,1.4576081,7.4302974,-10.351502,6.1535077,-6.568117,3.7981389,8.774333,-2.2555332,3.4105294,4.569972,1.106448,-3.3183022,6.2638836,-5.844505,-0.5651653,-4.8597894,4.045712,7.008654,-7.010249,-3.0487237,-2.8771584,-9.617654,-0.27576402,5.7440453,-0.43823683,8.213223,-7.4917755,-6.517805,-1.158876,-3.5346518,-6.018764,-5.228213,-7.9015174,-5.9306617,-1.544243,8.621859,-6.0291486,-2.5800037,4.319849
IA-LM,-0.54383516,0.07722249,0.24751551,1.7506969,-0.6519135,0.028525807,0.34816644,1.9397466,0.1566539,2.1872294,-1.8124475,0.2542914,1.2185582,-1.0770683,-2.476713,-1.7059304,-1.6209956,0.6231459,-0.044888236,2.1640174,-1.6574067,-0.3986185,-0.67631674,1.0767771,1.3614349,-0.12636714,0.283019,-0.32035694,-0.85685045,-0.7469998,0.30081376,0.444398,0.05703532,-0.98762673,-2.0898511,-0.15060207,1.8078365,-1.3518248,-1.9751244,0.7055436,-0.38785526,0.5028837,-0.74253136,-0.3846609,0.14707433,0.35540286,-1.0272833,1.861839,-1.4347789,0.7764527,0.56797755,-0.11920725,0.42664313,-0.96388334,-0.03328177,-1.0860921,2.6203532,-2.6024778,1.1359752,0.17173852,1.3755264,-0.37429786,1.7492576,0.7837677,1.3728166,0.2623896,1.3596754,1.061317,0.039025594,-0.2299891,-1.3958746,2.5840228,1.3082258,-1.3851594,0.5395771,-1.311446,0.98598427,0.536125,1.60084,1.0855191,0.4758941,1.3678042,0.66872394,-0.23017566
NCI-H1838,-0.19080128,0.27760547,0.85060054,0.97974855,-0.8236361,-0.052303422,0.8729454,1.2357496,1.1693002,1.6781198,-1.13196,0.12709308,1.5317271,-0.45142043,-2.4843588,-1.4524322,-0.4449452,0.61834866,1.1006371,2.327608,-1.0935032,0.44601548,-0.08351313,2.46833,0.37705562,0.1899282,0.4700927,-0.4758594,-0.586135,-0.7906178,-0.33306667,-0.40214682,0.13339637,0.13431355,-2.1846042,0.42752013,2.0108001,-1.4438994,-1.4251896,0.75884825,-0.5608285,1.1308175,-0.8943524,-0.8895458,1.7411984,0.42676347,-1.1512474,2.4868126,-2.6106355,0.9137162,0.8345955,-0.8078982,0.39138573,-0.7425568,0.23145308,-1.3514125,2.2217433,-3.1377242,1.9256572,-0.015877299,2.0784273,0.05073855,0.5239867,1.2976696,0.7714382,1.2720442,1.8578458,1.6328425,-0.6346161,-0.87437785,-2.0722811,3.2107382,0.97148335,-0.5164619,0.9351136,-0.3382809,0.7827623,1.5388341,2.3894136,0.4825751,-1.4461622,2.588558,-0.29076025,0.343265
SK-MES-1,0.54336226,0.6090641,0.32516798,1.0392689,-0.7506208,0.50885725,0.49078596,1.9692907,-0.31672665,1.9132776,-1.4579278,-0.04801218,0.402475,-0.22628002,-2.2592092,-1.9829935,-1.7672135,0.028715799,0.21407306,1.6568106,-0.8957016,0.008571758,-0.6472893,1.2974446,0.45862904,-0.13102451,0.32668388,0.34309945,-0.738693,-0.096492894,0.28509614,-0.09404648,0.8889116,-0.51071274,-1.8608243,0.4626585,1.3140156,-0.98572284,-1.4653602,0.29181075,0.10783522,0.08238441,-1.1168834,0.443283,-0.020466702,0.5522683,-0.3318229,1.2089691,-0.9533271,-0.04751246,0.84603196,0.37934542,0.040305655,-0.6612538,0.64007694,-0.5193345,2.221424,-2.2743275,0.67822266,-0.17304195,1.150727,0.41747,1.4059008,0.24572071,0.5791107,0.45462048,0.48169103,1.2032428,0.35880607,-0.60967726,-0.5419656,1.7592108,0.3001123,-1.282068,0.39690515,-1.0015277,0.4350593,-0.048883967,1.1169132,0.5129322,0.23828277,1.1326073,-0.26563764,0.80930686
MDA-MB-231,-0.46347904,-0.094897315,0.637963,1.5691007,-0.7518412,0.08472546,0.81933343,1.4352993,0.60487413,2.2922127,-1.6830779,0.3168824,1.2671283,-1.3209231,-2.5790768,-1.3544153,-0.8796044,0.5818707,0.29280028,2.4278917,-1.7938527,-0.33101755,-0.19140534,1.600161,1.1655033,-0.24527943,0.17668879,-0.37399516,-1.0900718,-1.1160792,0.06359413,0.16470027,-0.15396027,-0.82317233,-2.1748796,0.12498686,1.776755,-1.6193538,-1.7719378,0.98871446,-0.21093345,0.63251096,-0.5847955,-0.40915018,0.356783,0.3952685,-1.1483861,2.059637,-1.6655557,0.81156176,0.40749443,-0.42726308,0.38942456,-1.1769232,-0.19564615,-0.76512796,2.921683,-3.0993447,1.430557,-0.047448143,1.67674,-0.27609,1.0201756,1.1120001,1.0830901,0.34109348,1.5263402,1.2325611,-0.07824529,-0.5341625,-1.8380007,2.5821903,1.1466109,-1.2357413,0.5638146,-0.49105737,1.2733107,0.6722603,1.8541505,1.2617756,-0.065371305,1.1810442,0.6294566,-0.20184925
Kuramochi,-0.5304788,0.47820726,0.53320897,1.2402384,-0.90053016,-0.38619187,0.5101617,1.6852871,0.7257539,2.1657367,-1.2577971,0.16420622,1.3437821,-0.5572834,-3.0112915,-2.174555,-0.91716546,0.5932176,0.9073718,2.5540264,-1.4370533,0.18488675,-0.7557892,2.0426476,0.71265787,-0.032173812,0.7334782,-0.24948743,-0.8809776,-0.82971317,-0.19868731,-1.1167454,0.6146262,-0.38407245,-3.072341,0.6601864,1.7399964,-1.576877,-1.7753956,0.8101445,-0.5241765,0.6657961,-0.7776934,-0.29707575,1.4033188,0.48116818,-1.086194,2.6356304,-2.3901446,0.6705273,0.85515326,-0.51021886,0.22640122,-0.8318707,0.24611835,-1.0972601,2.6710856,-2.9110937,1.73674,-0.5002107,1.7153753,-0.20212658,1.018424,1.3664668,0.609939,1.0048091,2.056072,1.4695929,-0.7439726,-0.7277715,-1.6170125,3.1768653,0.9114031,-1.2476418,0.79268116,-1.1472658,0.91189766,0.8952747,2.0500445,0.59722465,-1.0130392,2.683465,-0.13966307,0.54378355
NCI-H1770,-0.5418728,1.9707966,0.8844081,4.2852726,-1.6906672,-0.7022272,0.34997663,4.623047,-1.8647646,4.714709,-4.1139283,0.32957694,0.9008303,-1.1447023,-5.734315,-6.628521,-4.863772,2.127645,0.21197146,3.923735,-2.6329262,-0.63892925,-3.2271729,3.993576,2.492771,-0.030884746,0.21020645,0.75451106,-1.0114802,-0.7050812,0.10482038,-0.33537182,0.200734,-1.9324144,-6.4028716,-0.7154242,3.4303932,-4.099134,-3.784473,1.2884227,-1.7417107,-0.22999887,-2.0838661,0.26320526,0.39206228,0.5181037,-1.5688673,2.842294,-3.3685398,1.0877659,1.5105671,3.3620281,0.3329148,-2.6378727,0.45122877,-2.7430766,5.7434688,-5.5223866,3.2387607,0.5002368,1.5500877,-1.8483529,5.9614563,0.36408475,2.621812,1.1835393,2.5968199,2.226192,-0.48556373,-0.9616093,-1.4375333,4.1198487,3.1776083,-6.23085,1.205478,-4.5544815,0.82686377,-0.33950827,1.4759136,0.44193545,0.843588,3.890888,0.04579258,-0.12357766
NCI-H226,-1.2564968,-0.22539029,0.25039428,2.1564841,-0.556821,-0.03697186,0.3480945,2.4342623,0.96183026,3.4333558,-2.0642626,0.6884792,2.1732957,-1.8414903,-4.184839,-1.9170587,-1.3584878,0.8050709,0.35336614,3.6172576,-3.2803347,-0.9126618,-0.48883632,1.5707933,1.9555429,-0.16177963,0.19339418,-1.0290205,-1.9212731,-0.9246799,0.4458598,0.40576422,-0.27066526,-1.79723,-3.4150605,0.33925676,2.59738,-1.865612,-2.2878642,1.2073396,-0.022122292,0.8303264,-0.38762507,-0.11541555,0.59947425,0.13272107,-1.204831,3.603186,-2.220141,0.96502686,0.4115508,-0.6859487,0.13619696,-1.5257658,-0.40676078,-0.9252171,4.5536895,-4.358539,1.6153666,-0.17407668,2.4918664,-0.35143644,1.159531,1.848573,1.6080612,0.51378053,2.7175663,1.6217884,-0.58753103,-0.2128693,-2.4181037,4.008524,2.0242622,-1.8784401,1.2072158,-0.53070056,2.272407,0.5203898,2.3583474,1.6204118,-0.11401638,1.7592028,0.963856,-0.62718654
U-118MG,-3.5765047,-2.324866,-1.2827561,4.3871617,0.3642261,0.9522597,-1.6904416,5.2187037,1.3381132,6.8372483,-3.7355604,0.01600776,3.4773543,-3.11396,-6.760401,-2.5587838,-4.180446,1.6687052,-0.615822,7.0971665,-6.0828547,-2.8133647,-1.0693531,0.08657938,4.8765025,0.6291015,-1.1438707,-3.9823756,-4.337976,1.2780772,2.7476816,3.5032787,-0.54159796,-5.3717113,-5.504939,-0.7882263,5.7008114,-0.87880844,-2.3577015,-0.014970698,1.230283,1.7824745,-0.1970636,1.7256277,-2.1633632,-1.1337391,-0.7890227,5.4170723,-3.0031235,-1.3274444,-0.9008061,-0.87469876,-0.04699507,-2.4058733,-0.10352426,-0.894496,9.47175,-7.3657513,-0.6160096,-0.8888653,5.0693946,-0.9125369,2.9372847,2.7339604,4.542847,-0.25822127,4.154951,3.1787813,-1.2938851,0.9448389,-3.737295,6.994846,4.088436,-4.285634,3.1813178,-1.107091,5.8036814,-1.6911376,2.7405198,5.2032757,3.1981971,0.66019535,4.157711,-1.0060089
HT-1197,-1.4459145,-1.1210097,0.28386587,-0.11259123,0.28571677,-1.8085742,1.416092,-1.2497396,2.5872295,-1.3025576,-0.9124464,0.7413697,2.8434858,-0.69764704,-0.46769115,0.7379449,0.54238,1.0265912,1.1361717,0.67281204,0.8911707,0.35998172,1.9089935,1.5365752,-0.04398407,0.79297674,0.056278348,-1.3150516,1.5298201,-1.1556739,-0.8798094,-0.5200873,-1.3951547,0.8057481,-0.1999504,-0.014662451,1.3153352,-0.8221132,-0.6318025,0.82011026,-1.5721271,2.9292345,0.11119832,-2.7599568,3.130378,-0.5180634,-2.3169327,2.4879622,-2.6329663,2.2504156,-0.44563505,-3.3528183,1.5170196,-0.3676732,-0.51697254,-2.0746589,-1.4844735,-0.99354404,2.0637867,1.2467636,1.942885,-0.4848325,-0.8130051,1.9379171,0.8426596,0.7999609,1.93049,0.06546098,-0.96933186,0.09021262,-2.6987734,2.397316,0.8266269,2.576142,1.1385293,0.24804913,-0.3352976,3.7823687,3.8146663,0.13364501,-2.666127,2.2589748,-0.6365672,-0.5410275
AGS,-1.3590945,-0.9366074,0.1254327,0.9549143,-0.28522083,-1.2835139,1.0284972,-0.3269512,1.5109873,0.28450957,-1.5647532,0.26756474,2.3146129,-0.69717854,-1.4266155,-0.05941551,-0.7005353,1.1283649,0.8480435,1.1654185,-0.3337823,0.025429506,0.54773116,1.6403439,0.60392976,0.6720338,-0.29487106,-1.6114748,0.98934036,-0.43803498,-0.060861308,-0.07770718,-1.3160203,-0.0129328985,-1.529287,-0.10881099,1.5663805,-1.5256914,-1.0443933,1.1000636,-1.1286263,2.1648126,0.07338372,-2.4535205,2.5491204,-0.60245544,-2.1070347,2.8286026,-3.063224,2.221085,-0.38017863,-1.4641201,1.3007913,-1.2304049,-0.5119613,-2.0626318,0.5901773,-2.3018177,1.8291831,1.0646826,1.9010577,-1.0325897,0.3639562,1.6618369,1.6913513,0.81673497,2.5359108,0.5558079,-0.98797274,-0.016951952,-2.2880898,2.8928938,1.5712966,-0.29954624,1.145834,-0.5989608,0.38279787,2.7819042,2.959407,0.61214125,-1.7502584,2.6073658,0.06727461,-0.9843044
D-423MG,-1.5134795,-0.99543536,-1.0916802,3.6538503,-0.052542306,1.5697958,-1.6257089,5.0760727,-0.674272,5.6148725,-3.428029,-0.6665254,1.355768,-1.789191,-5.192825,-3.3045425,-4.800675,0.7549399,-1.0840161,5.4993124,-4.128453,-1.9794034,-2.1822608,-0.46543112,3.6777227,0.26723185,-0.7435211,-1.8289732,-3.8432753,1.9116107,2.4891362,3.1580215,0.84703195,-4.807576,-3.7547393,-0.87010264,4.3268137,-0.25021186,-2.0288475,-0.5325046,1.3743143,0.1630191,-0.99022686,2.4963415,-3.3353324,-0.5273703,0.4289649,2.9733188,-1.3187423,-1.9006445,-0.009214501,1.3790153,-0.685192,-1.5527372,0.67301893,-0.4756749,7.322197,-5.0579953,-1.5703015,-0.9439322,3.0959032,-0.23386097,3.9389317,0.6531859,3.3849936,-0.6428602,1.7164456,2.564308,0.16174209,0.4583301,-1.3880551,4.609335,2.437105,-4.28755,1.4146863,-2.0289295,4.1531067,-2.7556932,0.47143856,3.4371214,4.1542063,-0.38825864,3.107163,-0.30865735
LB771-HNC,-1.1085919,-0.3281785,0.23009887,1.0528775,-0.6075968,-0.52629507,1.1843463,1.2640376,1.0543306,1.1376783,-1.5652062,0.333425,2.3464735,-0.89085513,-2.171934,-1.1301944,-0.92917615,1.0988362,1.2029259,1.9313558,-0.7040287,0.3125839,0.3505144,2.7283115,1.0238315,0.55460364,0.20372468,-1.0205642,0.24396887,-0.9403937,-0.35479194,-0.026116004,-0.7189003,-0.19751133,-1.7969148,0.1818175,1.8441257,-1.8861748,-1.8992395,1.2128884,-0.9068632,1.9818922,-0.8425883,-1.6202965,2.1913857,0.2788946,-2.223734,3.0567722,-2.7696028,1.4395471,0.68872684,-1.2089636,0.82572746,-0.64002347,-0.07306262,-1.7464122,1.2592614,-2.4029226,2.4711227,0.5825333,2.4858534,-0.465831,1.016371,1.6595778,1.8193651,1.1767023,2.2448776,1.0839735,-0.32802057,-0.49474162,-2.786096,3.3909833,1.7923504,-0.18089418,1.1387113,-0.76628065,0.54430336,2.178724,3.3917778,0.58428544,-1.4576559,2.8421538,0.00492486,-0.17161447
VM-CUB-1,-1.3125935,-1.7288879,-0.54326254,-0.6654528,0.66458505,-1.6666902,1.0638034,-1.7983445,3.0383067,-3.2985685,-0.42895898,0.35372403,3.352001,0.06962957,0.6267474,1.3050957,0.80613947,1.0599155,1.8367867,-0.48806566,2.381735,0.87696683,3.262326,1.2683729,-0.40198132,1.6431104,-0.23035152,-1.9287449,2.5982525,-0.1710582,-0.2736918,-0.2849548,-1.2721885,1.4382955,0.46812144,-0.02288285,0.716584,-0.24724093,0.20216255,-0.050672915,-1.656825,3.448259,0.62727153,-3.713988,3.7532778,-0.67563164,-2.44363,2.3077664,-3.0938087,2.250361,-0.60554606,-3.7665527,1.5744514,-0.2049191,-0.39778483,-2.2539115,-3.0263748,0.29790702,1.7336904,1.4670044,2.073967,-0.42846453,-1.4593143,1.8966423,1.0270227,0.8761662,1.9016463,-0.41014346,-1.3965739,0.32354188,-2.6395257,2.135022,0.42414433,3.5492704,1.1003314,0.18071042,-0.46081004,4.1505094,4.2912054,-0.07066634,-3.105337,2.3591409,-0.9822724,-0.3681224
KYSE-410,-1.1563952,-1.1171223,0.25765163,0.04343274,-0.0031580327,-1.3235098,1.0648851,-0.79507,1.7752558,-1.2461623,-0.83444244,0.4924751,2.2354243,-0.106700934,0.08517374,0.4851405,0.118495844,0.9267839,1.1448807,0.3805248,1.1259938,0.32722417,1.2620882,1.3615727,-0.2929391,0.7830176,-0.32424685,-1.2011763,1.4509869,-0.66948074,-0.5020673,-0.03050303,-1.25579,0.85503036,-0.23830746,-0.20691146,1.0159333,-0.9161344,-0.6613422,0.39504066,-1.6041613,2.32248,0.25307664,-2.644045,2.6794958,-0.4948952,-2.0414317,1.7393545,-2.3568435,2.0779982,-0.16116631,-2.299793,1.5496124,-0.4521658,-0.2944473,-2.1507971,-1.264717,-0.6447562,1.6390454,1.2913264,1.4681036,-0.38633788,-0.15493836,1.5182825,0.94575304,0.60732,1.7494148,-0.08775255,-0.7966755,0.08731909,-2.0100377,2.1205392,0.7737024,1.5266982,0.77559984,-0.365936,-0.62133735,2.9274735,3.0044227,0.17966647,-2.0351183,2.331101,-0.6155041,-0.4427431
EW-24,-0.45123637,0.7339274,-0.450518,3.5749836,-1.1387664,-0.30197772,-0.13437329,4.092549,-1.9325776,3.7961962,-3.7151778,0.0039564935,1.0425069,-0.6034861,-3.7909677,-4.920477,-4.803601,1.6177224,-0.42884725,2.9692652,-1.8440939,-0.8247805,-2.8012753,2.0778325,2.2629468,-0.098328516,-0.270962,0.76646286,-0.9417545,0.28840512,0.7019895,0.36582416,0.750525,-2.421158,-4.377816,-0.6538791,2.5626836,-2.5442417,-2.7395916,0.58485174,-1.2420138,-0.29113746,-1.9928265,0.84452707,-0.9469257,0.059880983,-0.9030327,1.5996435,-1.7433299,0.34267035,1.3819402,2.8589344,0.13809966,-2.1556802,0.22226453,-1.9333026,4.473015,-3.4635756,1.5574442,0.23866282,1.1358835,-1.0044192,5.4094663,0.06901451,2.471452,0.57264096,1.9016911,1.3731853,0.6090751,-0.15884598,-0.80250204,3.013443,2.4780073,-4.855189,0.8438251,-3.9382873,0.65420616,-0.7768298,0.76866746,0.6929774,2.0851908,2.1685488,0.44890013,-0.19042811
MN-60,15.781891,7.705035,-2.8096473,-0.34568974,0.6776074,11.233246,-5.361782,9.937057,-15.282593,-5.2065268,-1.7196993,-4.3568697,-11.971152,11.766198,9.95925,-11.549253,-11.430776,-7.2999587,-8.086407,-8.579239,14.610281,1.545324,-5.807082,-9.80247,-4.5990877,2.609995,-0.84587896,18.084562,2.8882391,12.575616,5.1742787,3.1092064,20.160135,2.0176384,9.206093,-1.9465251,-1.4701062,11.785369,5.1086364,-12.782332,3.98246,-11.757169,-7.7703247,17.547964,-18.45252,2.1575735,18.63271,-22.293362,15.002475,-16.052286,6.9109836,16.219744,-4.884446,8.784814,9.1576805,3.7687712,-10.3512945,17.319658,-16.173271,-2.0446327,-10.082627,9.6765585,9.975106,-15.300993,-9.700792,-8.294621,-20.159279,-1.5660987,11.824444,-0.79667205,18.48604,-16.717052,-17.535118,1.1329604,-8.439515,-7.84597,-11.655712,-16.984737,-14.259344,-4.2937946,15.950312,-13.943874,-6.40413,10.377707
769-P,0.00870945,1.3100263,0.7451479,1.6632745,-1.0520805,0.3472901,0.7836958,2.435098,0.50415194,2.5001316,-1.5643309,0.4286019,1.1282028,-0.9996449,-4.299709,-2.580933,-1.0081618,0.8370949,1.1585292,3.5585275,-2.5500348,0.27859214,-0.89449537,3.0518563,1.1308665,0.0074053826,1.0098253,-0.035571724,-1.2939023,-1.1782526,-0.030273667,-0.8174721,0.45485136,-0.32641298,-3.8288202,0.88370854,2.7730136,-2.251547,-1.9813381,0.83097327,-0.23764399,0.47364452,-1.36482,-0.19310305,1.463824,0.8471892,-0.99782807,3.2764354,-3.0850163,0.7284936,0.86789846,-0.41762173,-0.12797557,-1.2615944,0.20566173,-0.77304304,3.7320855,-4.375015,2.320438,-0.78968924,2.4198053,0.25671887,0.8627589,1.2439759,0.45683825,1.3247994,1.9123515,2.5197363,-0.9669408,-1.1323395,-2.2369378,4.3348556,0.82426816,-1.6930088,1.1125332,-0.7648739,1.4313555,0.85247356,2.1308267,0.30253464,-1.1466637,3.0476534,-0.11975502,0.51038945
LB373-MEL-D,0.07632468,0.88425124,0.44219577,1.982474,-0.6699917,0.20963736,0.4423762,2.4821026,-0.46481103,2.520704,-2.0083687,0.14770387,0.8860192,-0.9430902,-3.0558472,-2.924229,-2.5706666,0.41072088,0.40959817,2.4001794,-1.7089522,-0.14464697,-0.8111343,2.080668,1.3608624,-0.20489067,0.2721812,0.24756005,-0.950998,-0.5768295,0.24284929,-0.2602324,0.8374001,-1.106101,-3.2259543,0.120432496,2.4584787,-2.0705202,-1.9946198,0.5310396,-0.042371776,0.05601281,-0.9453689,0.33282164,-0.02047972,0.5554242,-0.4330967,1.5343093,-1.761166,0.3812337,1.0268703,0.71378016,0.058236673,-0.93277913,0.16778693,-0.7985399,3.4146197,-3.4208746,1.5302305,-0.24737233,1.3061528,0.0021457504,2.1270137,0.78688836,0.8708972,0.74180496,1.4962368,1.5235202,-0.14763689,-0.64073986,-1.358412,2.6479452,1.0842429,-2.5523088,0.8029639,-1.5503311,1.2410171,0.14514878,1.2852478,0.444148,0.5324114,1.7840828,0.06033028,0.7336891
IST-MEL1,-0.455332,0.57579124,-0.05332486,2.3552701,-0.4302608,0.46295878,-0.35883588,3.075924,-0.004744924,3.5592906,-2.2214828,0.19709973,1.2848848,-1.1241943,-4.202855,-3.2147136,-2.7368996,0.78083414,-0.021832425,3.692641,-2.8060718,-0.53160983,-1.0753804,1.2537103,1.8356568,0.01703335,0.3963967,-0.7912232,-2.1153657,0.15155834,1.2711073,0.039997842,1.0276173,-2.0731504,-3.957486,0.03342417,3.107028,-1.5377456,-1.4679049,-7.436269e-05,0.31039447,0.26894125,-0.7424104,1.1882801,-0.5875295,0.26085293,-0.08675355,2.54706,-2.0915854,-0.48613322,0.41148612,0.35542524,-0.38905555,-1.2913548,0.41172987,-0.5627304,5.052403,-4.2375503,0.3729952,-0.90354073,2.160763,-0.34543553,2.3698583,0.7496535,1.1479582,0.40240976,1.7130759,2.1321712,-0.72078305,-0.23690593,-1.5397209,3.742813,1.3175102,-2.809231,1.4164827,-1.4214804,2.5184863,-0.6488524,1.2790227,1.1144577,0.9324997,1.6215519,0.80443645,0.757412
Onda 10,-1.6435868,-0.47737187,-0.26993397,3.0051026,-0.32175842,0.73982966,-0.54692173,3.784087,0.43532556,4.476431,-2.5711977,0.09912178,1.8181735,-1.771243,-4.9075127,-2.8473177,-2.9704099,0.88202703,-0.26018807,4.7293653,-3.7185383,-1.4373387,-1.182977,0.62609905,2.8994787,0.07743453,-0.12858684,-1.671917,-2.8592288,0.3408648,1.4853008,1.7365333,0.33759654,-3.1921437,-4.093335,-0.23368216,3.4827495,-1.4110103,-2.0753229,0.3098421,0.6270852,0.6534823,-0.7286867,1.240442,-1.4041892,-0.19812112,-0.6192055,3.5163884,-1.9245784,-0.4943956,0.15127508,0.33299315,-0.39277357,-1.5921615,0.08924038,-0.5600422,6.2960415,-5.059127,0.29439154,-0.7819212,2.8875532,-0.47746456,2.3763566,1.3412018,2.5339184,0.08249921,2.1510592,2.3434901,-0.49849477,0.05654963,-2.1983895,4.322304,2.3886726,-3.1990466,1.7215008,-1.1543078,3.232926,-1.0661563,1.6929597,2.606338,1.8126398,0.9677696,2.0677571,-0.14674683
NCI-H28,0.6165914,1.3830885,0.7863417,0.98688114,-1.2259057,0.97325486,1.0567536,2.4515047,0.48931214,2.3093889,-0.84707445,0.159627,1.0407664,-0.15210217,-4.2313375,-2.5880165,-0.81805265,0.46214584,1.4592159,3.244942,-2.0717638,0.85937214,-1.0454375,3.2486827,0.4969095,0.02526076,1.2509327,0.663945,-1.1400872,-1.2457778,-0.407836,-1.1459345,1.1367517,0.28042528,-3.3119612,1.094004,2.2641006,-1.8888541,-2.0749393,0.82325596,-0.03735935,0.38226742,-1.7478304,0.36331326,1.5579709,1.1096538,-0.5064789,3.1072345,-2.6202135,0.41934758,1.7231712,-0.11287211,-0.59097475,-0.7045238,0.9770789,-0.40923384,3.4065874,-3.8640716,2.4175813,-0.8517378,2.3359318,0.66375595,0.5423034,1.084516,0.21133697,1.7292908,1.594196,2.3942013,-0.30692425,-1.6385221,-1.8958155,3.925051,0.39965552,-1.0845993,0.6898739,-0.6238518,1.0403454,0.92374235,2.243214,-0.28214926,-1.4792935,3.3017128,-0.7707496,1.2640507
Lu-139,-1.3070493,1.4042236,0.52450496,5.32355,-1.7546601,-1.1721543,0.47866008,5.022085,-1.726954,5.44372,-5.1450777,0.8080877,1.5296447,-2.0297225,-6.287637,-6.4496574,-5.4665847,2.6774848,0.16279134,4.721834,-3.3133562,-1.4131846,-3.2926075,4.38175,3.6111076,-0.20949104,-0.16841201,0.18918672,-1.364422,-0.9227383,0.18508434,0.24573469,-0.89007777,-2.624614,-7.023729,-1.2507923,4.3692803,-4.8248744,-4.595609,1.5386244,-2.2936406,0.26837894,-1.7802658,-0.5445795,0.78966975,0.11307378,-2.540977,3.84885,-4.153365,1.9367914,1.0668851,3.0188513,1.2128884,-3.7707503,-0.41433212,-3.551165,6.5565925,-6.5241494,3.98417,0.899557,2.2562377,-2.7133691,6.8057876,1.0711365,3.8103688,0.9974549,3.504458,2.2068923,-1.1557679,-0.39695388,-2.3629477,5.3043556,4.4700074,-7.306302,1.754306,-5.208493,1.1977628,0.33266658,2.0004883,1.4285327,0.7982511,4.000046,0.4362394,-1.1676564
