,E0,E1,E2,E3,E4,E5,E6,E7,E8,E9,E10,E11,E12,E13,E14,E15,E16,E17,E18,E19,E20,E21,E22,E23,E24,E25,E26,E27,E28,E29,E30,E31,E32,E33,E34,E35,E36
A-172,48.702854,137.15877,52.90366,-30.054747,133.42204,89.94297,-136.91667,-17.50662,7.600474,-136.35355,15.866971,-53.054604,90.77396,106.06263,85.75714,-132.50247,-35.16924,54.70946,-53.799824,-121.68472,120.49715,53.229813,-45.79085,-64.36624,-74.32367,-121.02362,-125.75104,81.7642,53.282883,11.334166,37.009235,24.367327,42.280735,-133.69046,-143.34688,-153.92395,-101.105804
WSU-NHL,51.129814,207.4501,-156.13821,-108.370026,316.64273,82.99672,-218.7342,1.5905654,-44.874916,-368.72076,107.13755,-178.04536,311.27203,282.84604,-21.111343,-288.15613,-435.8382,115.34111,-182.20753,-35.558098,360.18942,343.60162,-157.81136,-258.67642,-96.56175,-229.70633,-226.77995,247.91481,298.01462,57.203484,22.9946,278.69366,300.1203,-169.07803,-104.13876,-270.36703,-305.22708
KALS-1,61.217716,156.27138,67.10702,-37.78954,148.29604,93.13463,-154.12463,-19.444242,0.3425139,-158.63086,27.676714,-63.30558,107.38406,112.240585,105.114815,-141.61128,-23.737524,55.211346,-70.123795,-138.91266,135.4065,56.47287,-62.712994,-73.374435,-85.051605,-140.88818,-144.75568,95.65926,56.18797,1.5558984,48.34892,24.507267,49.67271,-148.43202,-164.4609,-174.99971,-118.38305
Raji,42.39535,190.7765,-162.73882,-102.71998,309.71198,71.56618,-202.82562,16.808134,-53.20887,-356.45407,118.725426,-164.9322,301.89752,269.97607,-33.200863,-281.11246,-439.22696,110.45438,-191.97346,-21.41853,358.64804,330.11902,-145.74348,-249.25366,-84.942665,-219.28917,-215.4452,229.52913,295.98935,57.54322,32.634342,280.5208,294.7679,-159.76059,-91.38775,-262.29932,-303.93344
KYSE-180,-19.370108,70.16488,20.073948,-54.27678,25.868172,-42.378044,-59.839924,-82.60419,50.095356,-91.71613,-123.1886,-45.0901,36.58921,66.562706,48.651115,-47.98775,-60.369423,48.814484,17.455006,-68.44878,20.17228,116.87699,-62.605522,-69.571014,-57.38088,-56.073208,-62.608784,124.14775,84.8442,39.71593,-0.8998936,24.265915,45.978653,-41.084732,-26.680004,-25.446886,-25.045305
TT,19.997969,109.48719,10.929819,-109.039116,95.897316,-17.530228,-88.93754,-49.997654,6.977665,-151.27322,-89.210434,-68.97998,107.46999,61.475365,21.669172,-69.28721,-159.83505,35.98179,-34.374687,-44.179825,94.803665,97.53229,-93.33553,-138.58447,-33.174202,-100.01569,-135.18448,113.48821,98.872856,74.37734,72.651306,107.24136,98.6388,-73.74527,-73.75799,-147.9576,-89.16877
KP-N-RT-BM-1,13.704571,60.529003,-12.223082,-134.48001,85.34882,-54.69038,-36.14311,35.221813,-51.88827,-117.61424,-35.571735,-47.01304,101.50922,10.426587,-29.95812,-28.58334,-214.9905,20.073526,-81.057755,3.7097218,107.83452,35.4638,-86.67581,-147.18419,21.842367,-92.00023,-135.37886,41.194866,58.62448,55.13278,133.4421,134.99443,85.72537,-48.03964,-62.553745,-182.79529,-109.259705
786-O,2.9414108,95.82981,16.601189,-29.470514,83.385635,36.95374,-82.93269,-12.79385,17.296373,-87.20113,-25.383799,-30.04087,72.93259,71.338165,43.280407,-88.54115,-45.06583,62.093365,-38.7632,-73.09454,78.47012,43.34168,-26.821133,-38.958355,-46.573223,-69.054565,-89.46473,71.41432,43.31143,23.364584,35.806396,33.14449,27.743563,-75.25435,-84.19652,-104.560745,-56.389465
HGC-27,37.52016,107.73938,-5.8040113,-66.39849,119.33166,27.635345,-94.41847,-0.54349655,-17.962366,-143.5351,23.708197,-70.65007,107.86567,67.92543,43.900322,-97.24941,-113.19023,59.523464,-63.24349,-60.596638,118.91819,60.763084,-72.73787,-90.84728,-34.544235,-109.21355,-112.59712,73.50466,59.035,14.064763,64.807335,81.37671,78.95839,-93.28433,-100.783516,-148.2409,-123.643196
AN3-CA,23.89066,98.563225,-10.431787,-59.24549,97.26349,21.71135,-72.17428,-6.658687,-16.897013,-127.11391,5.839148,-61.61173,100.87367,65.55376,24.97974,-85.19056,-111.83313,64.18967,-66.13248,-55.13475,99.20042,58.239437,-56.956917,-82.0638,-22.862932,-89.677666,-103.068146,72.36898,54.690125,10.618709,64.67353,80.287834,67.474884,-68.95295,-82.77175,-123.88067,-103.67368
EB2,43.715218,220.7306,-183.23233,-86.913536,334.88995,96.17534,-231.78238,12.309911,-70.649864,-377.44034,138.76163,-179.86745,324.07288,307.80618,-32.205498,-312.17044,-456.92017,115.68385,-218.2129,-32.04137,380.44852,354.45865,-149.71313,-256.11148,-89.67207,-231.73196,-236.194,243.04993,305.36316,41.53273,20.323093,302.3388,309.1189,-182.87825,-96.80053,-290.52606,-337.2758
HT-1376,-10.934938,89.27578,40.238457,-39.35326,45.053528,-1.4279556,-82.63455,-88.13258,62.64501,-97.712456,-126.659256,-43.77846,41.799843,98.194374,61.00836,-82.00192,-45.50818,46.141136,17.072603,-97.27593,36.938984,123.3946,-54.119183,-69.39073,-80.66649,-65.556076,-83.20128,132.8028,99.11259,54.125114,-5.865435,10.697905,37.94784,-64.443596,-51.054604,-38.788242,-27.034828
RD,45.464943,126.07279,13.469587,-47.461468,127.67872,45.989735,-110.46863,2.0545628,-25.351326,-147.20448,31.887766,-65.907036,108.023575,80.39233,61.74918,-100.943184,-86.324234,47.45872,-63.314503,-79.02037,120.17183,51.21903,-67.61109,-83.059166,-39.684372,-124.772354,-126.78171,72.64631,41.209587,2.851998,59.173542,63.236916,67.41251,-114.99033,-126.694214,-154.88509,-127.72261
OVCAR-8,15.091362,86.34851,10.720728,-33.78413,80.62321,32.164585,-74.983086,-10.446237,9.227733,-90.95113,-13.734915,-31.041853,66.73422,61.961033,35.990158,-76.50542,-55.187172,48.408348,-37.36666,-62.743668,73.91748,42.712822,-33.96596,-47.29484,-35.123203,-71.50806,-80.55541,61.737793,45.0918,20.449692,31.742727,37.562145,35.74867,-73.419205,-77.75618,-100.64217,-60.793053
A2058,21.274158,146.64662,35.328194,-63.609066,93.24631,15.878451,-92.68565,-14.547566,-13.595342,-106.02782,-22.610981,-73.528564,107.99841,55.645256,49.98732,-108.026215,-101.38713,90.23478,-74.64235,-94.4362,94.29125,26.501223,-40.52154,-52.394382,-56.411297,-77.16605,-118.20701,67.48545,39.21959,-19.012993,78.24728,59.51537,37.34935,-77.17492,-101.68125,-123.34383,-105.737755
BB30-HNC,-30.603086,100.36205,62.968285,-38.07168,41.0284,-11.265014,-99.40299,-116.738106,92.245674,-91.80094,-176.74965,-42.044243,30.296022,111.2022,86.17983,-96.14723,-10.417569,60.58056,34.63594,-132.09282,22.197617,136.9225,-52.764164,-62.711555,-111.60796,-65.38301,-84.33778,159.84854,111.8766,61.90198,-19.038116,-15.46879,26.271954,-76.07639,-55.268272,-29.579126,-6.981663
NCI-H1437,1.610808,98.59493,53.728077,-60.716194,57.726536,14.872978,-91.97349,-103.953255,65.13421,-120.44702,-121.28396,-57.269417,47.30703,89.62025,69.37603,-80.735016,-63.488644,30.109653,46.882214,-99.708664,42.524418,143.18675,-82.904686,-86.258156,-81.33079,-79.23246,-93.25221,119.739006,99.594894,65.34687,-6.0263224,33.02098,51.894962,-65.577385,-41.438297,-44.154465,-47.275833
B-CPAP,28.136671,122.03208,41.9387,-32.577496,116.73043,70.02179,-120.18223,-17.264643,15.199486,-113.05414,-6.972975,-43.118935,81.94487,97.752396,70.5488,-113.14794,-38.94882,55.366653,-45.423805,-104.62594,104.910614,53.747192,-39.134872,-51.56795,-70.91745,-97.56747,-109.326935,77.21927,56.674244,18.294632,30.774982,26.493145,35.749855,-116.26102,-115.64145,-138.60994,-80.271645
CAMA-1,8.128522,90.003685,23.840979,-80.166595,64.556366,-8.523053,-71.53236,-66.74201,32.13643,-130.81294,-63.54058,-62.113506,66.760765,80.99638,40.20738,-73.79709,-130.76212,25.518133,-5.2236867,-59.85131,66.134964,128.09352,-84.041794,-98.87794,-46.902153,-81.297424,-83.387314,95.14387,88.74753,42.535534,15.888631,76.999954,73.56432,-60.523853,-37.630306,-60.104053,-81.83281
BFTC-905,-21.998507,73.50617,38.193558,-44.512962,25.126253,-25.108063,-68.42256,-101.941185,73.38011,-81.41671,-153.62631,-39.66243,24.939793,79.031906,58.464127,-62.163296,-37.40241,48.98367,44.899395,-88.21392,12.459306,122.747734,-56.00974,-64.27428,-77.05049,-50.162453,-64.39417,129.53622,98.18098,62.614002,-11.402979,6.621524,33.20078,-48.68738,-28.010975,-15.684564,-6.802948
TK-10,-0.75492,96.749245,1.6189574,-29.040327,68.81034,30.457682,-76.54708,-49.757877,38.58487,-94.161385,-69.131256,-35.735027,73.78161,79.30187,44.078537,-73.669525,-33.448875,56.88523,3.2501283,-69.02353,54.219463,72.78428,-40.242725,-45.728344,-53.45106,-64.96903,-89.6089,105.55335,48.44931,42.455105,16.71713,30.254572,40.460274,-55.119354,-71.25601,-74.190056,-33.438793
T-47D,7.5706706,89.64891,20.213163,-74.057945,66.7125,-6.291651,-72.688194,-69.86437,40.725033,-126.96424,-75.01617,-62.563515,67.80614,84.88123,44.026604,-76.73729,-114.00373,34.368977,5.943963,-64.03165,64.19493,129.99832,-82.37721,-93.37688,-52.728706,-80.549706,-87.25672,105.03745,94.959885,48.163406,12.214766,70.57684,70.98729,-60.250435,-39.623085,-57.87632,-72.84097
THP-1,40.536835,218.38882,-167.36353,-16.748335,257.0026,132.11899,-221.88661,-24.07274,-101.85445,-280.72534,136.8973,-158.36905,234.5945,268.14346,-3.6434278,-261.23264,-341.8944,102.382095,-203.22197,-58.31191,263.63965,245.47215,-105.653824,-197.53278,-31.796793,-162.93343,-169.72868,167.52736,180.19844,-23.859568,-0.7434628,256.43356,224.539,-193.4548,-88.270645,-274.85638,-290.6023
DMS 114,23.880262,91.954124,-33.812454,-79.4581,108.885994,4.46453,-71.144455,6.0757923,-23.37205,-140.85858,14.7823715,-64.34393,112.90498,63.894123,5.7669735,-80.33231,-163.99963,60.38367,-73.498634,-30.072117,115.302055,70.77926,-70.928734,-105.60835,-10.705414,-97.126526,-103.10058,70.91695,71.4851,20.757626,69.3291,106.994736,93.67655,-70.821594,-75.031105,-142.18056,-117.45082
CGTH-W-1,63.28511,155.3606,61.271374,-35.30153,153.82121,100.36071,-153.34227,-1.0743418,-11.582936,-160.09666,43.783203,-67.67129,106.55679,104.35233,105.46264,-138.73352,-30.272005,48.6918,-63.253784,-132.32196,137.85379,46.578392,-70.04293,-71.72956,-80.24117,-144.63435,-144.68265,78.665245,45.398136,-4.3777385,53.10669,27.334938,51.63491,-153.3828,-166.43713,-187.41898,-134.92502
HDLM-2,3.9048653,164.16066,-101.418564,-28.53104,212.41466,77.91755,-161.49031,12.854889,-67.28137,-231.74103,101.870026,-98.739876,192.4791,209.29074,-0.08471747,-212.4767,-282.0342,56.145546,-179.11098,-48.604446,227.00677,199.59738,-77.030754,-150.30403,-30.493343,-137.28334,-150.65602,125.617134,157.59708,-8.836919,18.51829,201.80917,168.58443,-148.20763,-62.74026,-215.63422,-238.48502
C-33 A,14.104776,89.11734,-39.917854,-74.86857,97.35928,-0.63995576,-65.77327,-7.267357,-15.067168,-132.14668,-7.068717,-63.77708,110.29103,63.76394,3.0189242,-71.85322,-155.16492,66.30129,-61.905827,-24.566608,103.601425,81.510506,-67.25903,-102.94459,-13.906905,-86.196335,-101.478546,83.89439,73.13547,31.404367,64.48262,106.50626,89.00744,-58.495556,-63.318916,-127.88702,-101.51552
AsPC-1,-13.013663,129.83693,48.59267,-49.832855,112.54932,44.016712,-141.85544,-115.56826,111.29343,-126.582695,-131.10721,-67.52463,69.90804,130.37419,87.75933,-148.49277,-54.63796,86.60731,15.207484,-136.78325,85.83485,143.60693,-61.369293,-89.86868,-119.55247,-89.73524,-112.02825,150.21278,140.67862,94.63476,-3.4739778,30.692514,53.398705,-116.69981,-84.026886,-85.29965,-41.466446
Lu-139,21.149126,87.79916,-39.632504,-120.93845,92.403496,-51.982773,-57.25365,-18.570086,-25.877247,-144.74388,-49.27658,-66.66841,121.01656,45.091076,-18.102942,-45.69542,-214.37436,33.769077,-62.58171,5.0209837,110.047585,88.670586,-98.11915,-141.96498,-5.0908456,-96.4421,-121.9053,93.07353,93.43714,69.32481,94.37115,142.07184,117.55037,-51.66771,-60.0301,-145.76741,-109.11905
KP-4,-0.42786646,59.768597,-14.201812,-58.899017,59.282284,-12.253954,-40.321217,-0.46039596,8.801266,-77.12651,-31.90641,-33.7479,68.71488,34.032227,5.41917,-50.349113,-102.255295,65.53556,-36.24226,-28.123333,64.15146,40.684105,-36.3615,-56.24065,-13.576248,-51.39862,-68.3828,53.158524,49.244926,29.946737,55.08666,64.4723,43.06576,-37.68411,-47.30095,-89.49544,-57.32146
SKM-1,36.362747,208.71024,-185.39131,-9.27383,252.95872,126.64158,-210.53389,-20.269758,-110.39999,-273.82153,141.3391,-155.11555,234.25859,261.15814,-13.559235,-248.60493,-338.11688,102.37125,-197.23766,-43.68839,256.23102,244.18466,-101.23195,-191.42165,-20.45761,-156.72923,-163.64314,164.87369,173.74632,-24.703056,-1.3861227,260.91312,223.68002,-180.64392,-74.79464,-267.56,-286.21198
SBC-1,14.406156,76.43267,-27.533133,-118.52233,75.52033,-60.85854,-50.802456,-25.24915,-9.885492,-124.58221,-70.43083,-61.318726,100.63669,34.577065,-6.799878,-35.753944,-188.27264,36.191628,-41.765835,-0.82110083,93.17018,82.59007,-91.9642,-125.84124,-11.640668,-84.91859,-110.29754,87.996666,84.74655,74.990326,86.31372,122.90101,101.08154,-43.854916,-52.284023,-126.31537,-90.618065
EM-2,30.797958,198.2817,-174.84619,-18.15635,241.97778,99.25835,-196.4686,-15.707563,-97.042,-265.42462,134.2921,-144.3767,223.85992,243.50362,-9.362499,-227.61516,-335.76428,91.090126,-185.25676,-22.421759,245.61658,243.288,-106.04661,-183.16425,-23.363382,-159.78346,-158.2927,159.12999,179.16016,-13.371136,-6.3611326,250.15358,220.49794,-172.79958,-67.45538,-245.49736,-270.3252
SW954,-25.198961,99.71599,65.038155,-37.338085,35.719734,-9.37672,-97.033325,-116.62185,84.86471,-93.73127,-174.24443,-43.68038,26.543861,107.37085,87.847725,-84.66546,-8.86765,49.500637,45.17331,-128.65846,16.91578,137.23932,-58.461468,-64.88318,-105.48247,-69.54926,-87.129684,154.77034,99.1212,62.07054,-20.881145,-14.258302,26.509718,-73.675804,-54.92577,-23.355661,-9.717397
Jiyoye,29.494116,194.36412,-149.62967,-71.79595,292.6128,89.051605,-205.62212,9.566603,-58.269787,-333.6305,112.31015,-152.30531,277.35077,272.2011,-23.038877,-278.9835,-395.40796,93.65305,-192.80785,-38.91009,328.4489,314.19885,-127.39455,-226.82964,-77.527405,-201.28322,-206.43724,212.90596,265.1595,34.80494,15.565214,261.3612,265.33554,-163.7958,-79.25787,-254.88943,-294.15295
D-336MG,85.28231,173.41742,89.171,-35.941406,165.07585,118.79096,-173.71696,-5.321461,-16.623884,-182.06685,54.26096,-77.42142,114.42929,115.62701,134.64441,-148.97919,4.125529,44.471947,-65.27586,-162.58002,143.69788,42.914215,-81.64269,-77.06231,-94.00983,-170.04288,-167.37619,93.92901,29.490566,-14.779395,56.73067,8.364505,47.57333,-173.26202,-198.23978,-202.83401,-143.93185
HOP-92,8.406693,95.116394,29.958677,-29.635054,87.92816,43.620243,-85.45627,-6.723889,13.203757,-86.256424,-12.568526,-32.525795,67.62866,66.63103,48.019257,-91.6094,-44.78676,58.873688,-40.475933,-79.912834,79.901085,37.095276,-28.820791,-41.38108,-49.47706,-71.99161,-88.264824,59.25274,42.3906,14.769077,36.90325,27.741941,24.845284,-82.20091,-85.22577,-107.48043,-64.227005
HCC1806,-11.896385,96.493996,50.56213,-46.40033,49.1896,-4.2149167,-94.895645,-106.49807,74.871445,-107.44934,-146.70486,-52.691044,40.104263,103.71129,72.43433,-89.62347,-43.96048,51.239555,30.084658,-110.900635,32.406902,141.6381,-63.094727,-80.8277,-90.17886,-70.82307,-83.09753,147.574,110.55474,58.01076,-16.566502,11.003833,44.9712,-72.06336,-45.157944,-33.743183,-24.131367
RPMI-8226,16.75981,142.60817,-113.68079,-51.07103,197.6587,47.383503,-143.3132,-4.0473685,-51.10826,-231.75603,61.105087,-109.24356,195.03854,180.62944,-15.0444355,-183.3674,-274.468,74.99318,-128.96257,-15.926741,214.68301,217.9178,-96.14979,-167.07904,-44.757008,-143.34319,-155.10269,156.01912,177.15144,33.544445,20.807371,193.65715,184.56264,-113.33558,-50.969578,-185.22614,-204.36584
TGBC24TKB,-3.0333445,116.96664,27.520056,-71.65098,101.94462,24.275402,-127.19033,-107.771614,70.932625,-156.14627,-109.08702,-79.51805,80.9079,126.67748,65.87859,-130.3594,-115.98004,62.421772,1.1140348,-108.31702,91.429405,176.37321,-83.59527,-125.44921,-90.95572,-93.526634,-107.54028,152.76347,144.67523,81.156746,-0.17478621,70.466736,87.89047,-99.445946,-52.04316,-84.52036,-73.387566
SK-N-DZ,13.080575,69.042046,-13.299133,-130.12817,95.37341,-46.524357,-47.34776,28.917625,-53.527412,-130.8112,-30.231924,-54.9,107.94428,25.406597,-25.242725,-41.820297,-217.17033,20.488806,-86.81574,-4.9893646,111.81041,50.03833,-91.06429,-158.81662,18.376348,-100.09562,-141.72314,51.9285,62.67437,48.887726,125.20925,141.889,95.58585,-57.674046,-66.31091,-183.85422,-116.06723
HT-29,-8.935285,115.44831,23.07016,-72.21777,102.69032,13.392755,-120.688835,-111.37188,88.769875,-143.99797,-115.17113,-81.982475,82.91854,123.979935,73.79983,-124.595436,-94.24597,75.36882,8.059697,-107.453735,88.04839,167.48154,-82.10214,-112.561714,-99.82485,-92.42183,-113.84926,152.48668,140.03723,91.89875,6.766656,60.942715,81.69364,-95.60724,-67.08405,-76.945724,-59.91249
OAW28,-2.43602,75.723564,8.120738,-49.330444,50.383366,-2.1154802,-63.178413,-58.288425,32.669,-100.80198,-79.540276,-43.949455,59.206203,69.53341,30.796148,-58.56674,-70.27159,49.731754,-4.7600007,-60.86688,46.61657,98.55507,-54.473137,-70.25407,-44.64564,-61.004818,-76.20894,104.578255,68.11707,43.008183,15.477957,40.715565,51.90997,-43.389126,-41.716656,-57.92193,-43.570026
Calu-6,10.342765,85.39579,7.3595266,-60.906597,93.644714,10.388595,-73.683044,4.4640594,-2.464978,-103.90731,-6.1232343,-39.314575,80.264305,55.797745,26.488285,-72.06905,-112.45052,46.644623,-52.339348,-50.68085,92.053764,41.601128,-48.428913,-73.32355,-22.122393,-80.930565,-90.74383,49.49819,53.624073,22.591911,57.75945,69.15009,52.4875,-76.524864,-75.98333,-129.75165,-84.92392
NCI-H2107,21.07059,88.08195,-39.53025,-117.66252,92.102295,-56.051888,-57.905647,-11.597949,-28.971392,-141.07439,-45.131966,-64.19795,117.46254,39.879627,-16.943415,-41.567554,-216.3822,31.199347,-61.319458,10.400471,109.22279,80.74771,-98.34134,-136.63234,-2.455134,-97.231224,-120.45831,85.04073,88.16087,65.58136,93.66865,143.20793,116.26503,-54.66973,-61.895264,-149.47324,-112.85485
NCI-H2291,-9.964883,95.46794,54.800064,-29.962746,56.51435,26.016176,-92.12883,-80.05771,68.12508,-92.40749,-127.26814,-34.28506,47.36026,90.79497,69.64789,-82.378204,-9.122495,43.68016,41.080616,-107.37865,40.929302,106.75989,-58.247368,-54.472317,-92.60356,-75.18998,-94.9028,123.95277,76.891945,62.569633,2.4155352,-1.4520249,30.499226,-66.015686,-67.57145,-51.531754,-19.908878
LP-1,15.325135,125.62328,-87.9136,-54.5076,170.95317,42.739265,-119.22471,14.870849,-45.331234,-196.8691,58.97693,-87.54617,171.60693,145.86017,-14.443774,-158.13956,-236.47375,72.5921,-127.77475,-14.272444,190.1504,164.17091,-75.87558,-134.94403,-34.76036,-121.09328,-136.29857,122.1069,143.74583,21.496525,36.314957,164.55675,146.43578,-98.46562,-53.98171,-178.3285,-176.25346
BL-41,68.918655,213.12599,-178.4966,-119.36819,339.3748,76.497345,-229.72453,2.721155,-49.448498,-387.05353,120.39127,-192.86472,330.16748,296.3828,-30.951544,-292.41364,-474.17334,122.93722,-181.78854,-10.20363,387.58633,369.6643,-169.70448,-270.0263,-108.77655,-249.26529,-244.59166,258.05658,328.66876,74.23882,14.379866,295.79376,325.8563,-176.54459,-106.53413,-278.42218,-323.50287
ES5,14.468974,90.411674,-57.425396,-68.515114,108.42318,-2.8971374,-72.32957,6.591976,-34.662174,-137.83432,23.188238,-68.7065,117.58926,69.799225,-1.1380653,-80.0733,-172.413,59.34777,-85.07841,-13.651473,117.35855,84.21135,-71.45169,-104.65875,-5.9846644,-92.56141,-105.01593,77.959206,73.13109,21.402363,62.403435,124.54667,99.62974,-71.32739,-60.75243,-136.15848,-128.1894
HL-60,38.27931,237.5556,-210.49306,-13.856683,297.28867,140.41957,-245.70964,-20.232534,-118.93221,-318.43246,168.86662,-175.29318,272.52792,307.43994,-18.78207,-293.45285,-404.1984,112.63918,-232.26541,-41.28868,303.96204,295.2656,-116.982376,-225.44711,-29.94299,-185.7248,-187.29152,192.1054,214.21732,-26.842215,-10.15298,301.2741,265.8945,-211.92262,-78.62582,-299.91132,-331.0534
DEL,6.5357647,139.49268,-83.95371,-22.07701,170.82185,59.268967,-137.03522,7.535966,-55.779243,-184.18684,71.13467,-83.75726,153.56094,158.96259,-0.1838862,-165.86462,-217.81546,64.37368,-141.54167,-34.93957,174.83923,151.72327,-62.15077,-120.00333,-24.858967,-109.33052,-131.37514,102.121605,124.13289,-4.901438,17.84698,159.03864,130.45891,-119.44035,-54.435673,-181.5568,-185.03972
HCC1599,7.780981,98.879875,32.643803,-70.68084,58.12743,-1.6917433,-88.48026,-99.228775,54.96017,-131.31332,-113.44819,-67.21818,63.52898,98.64295,54.33902,-77.723236,-99.23167,38.493515,19.265484,-86.11215,53.15257,151.09166,-87.42727,-100.0236,-73.10223,-82.69707,-93.533806,132.06133,109.34329,59.100662,2.0377598,51.136772,72.745,-66.179504,-43.896816,-54.14131,-61.189636
NCI-H2029,19.164227,99.22868,-13.69886,-103.93934,87.67789,-33.589466,-76.09585,-53.804676,8.843561,-144.75212,-86.93887,-69.5995,101.92459,63.241627,9.186203,-57.452404,-176.46152,26.844423,-20.651096,-24.243208,91.84586,108.88235,-101.84654,-132.0461,-34.970764,-97.09242,-117.403366,108.84992,106.55576,79.16724,59.996246,115.418106,109.193886,-63.47647,-59.149113,-124.90076,-92.20745
HLE,18.379723,110.31482,17.558187,-30.987604,96.41142,54.486652,-93.578705,-21.34689,8.750416,-110.50042,-9.908308,-43.046726,83.417076,82.05194,54.493553,-92.94459,-42.922,58.02923,-38.17576,-84.86036,83.84031,48.809734,-38.655613,-55.557217,-45.25733,-85.846436,-103.35549,78.79317,36.14905,16.918427,37.60834,34.864433,41.471558,-86.82164,-103.28388,-116.31264,-72.98458
Becker,39.572678,129.31577,55.901657,-31.345499,115.25743,76.3767,-122.22729,-9.974924,-4.777267,-120.21073,10.996705,-46.379997,84.14638,81.59221,88.54825,-105.86247,-8.361252,51.110397,-45.5289,-119.32937,99.01698,30.428139,-49.84686,-50.227734,-63.288677,-114.38885,-125.522125,71.18754,20.833342,4.4530454,53.148396,11.172983,25.392948,-122.45524,-142.64299,-147.4872,-92.46975
KM-H2,27.68077,161.69308,-103.270454,-33.296646,211.44727,65.1939,-156.1228,7.869907,-59.422527,-236.66068,98.22478,-104.77242,189.00035,185.95369,5.2874494,-194.6302,-277.24924,56.729897,-158.6778,-35.713432,224.41232,193.42252,-89.03004,-147.2959,-28.7707,-147.9599,-150.09433,127.13664,165.28983,-0.41112927,19.5723,198.05118,175.9609,-140.71053,-71.804596,-210.0155,-233.90701
NCI-H460,0.44774497,82.33177,9.004076,-29.774763,73.6066,31.8866,-74.39896,-18.214624,7.356137,-85.68093,-24.331188,-33.735996,63.87955,63.093346,32.125847,-78.90916,-57.79957,52.122784,-35.805984,-65.241135,68.39569,52.21421,-31.77534,-51.152145,-35.434002,-62.76983,-81.705635,69.88587,47.053688,24.675482,31.464186,40.498882,30.519447,-64.35155,-62.20017,-97.59287,-57.707413
MHH-PREB-1,62.47328,176.92099,-165.82233,-80.47725,257.85858,58.874004,-175.9447,3.9272606,-68.21401,-292.90347,115.058495,-151.1057,252.45412,223.46834,-24.97513,-206.99554,-373.77206,99.29656,-149.31241,14.148267,287.3254,263.0063,-131.51334,-200.52887,-57.8226,-191.31757,-190.56415,181.18127,234.52657,48.352764,17.379183,249.58481,246.78314,-146.36295,-85.73887,-237.10406,-267.5687
Ca9-22,-19.654148,84.50418,36.12578,-43.267933,36.39089,-24.100857,-78.50207,-92.27243,70.47232,-90.10061,-142.31496,-43.091927,35.13071,87.60904,63.931187,-71.41891,-39.607117,54.193653,24.868141,-92.96981,25.313675,121.34116,-55.69353,-66.07818,-78.5646,-62.185894,-74.58424,135.52945,95.75911,51.638138,-12.047434,8.480649,37.60126,-61.092987,-43.854904,-30.98892,-17.248175
A-427,-5.371928,83.96489,-17.05076,-53.360134,79.6935,7.8404474,-72.77591,-27.795176,13.426734,-109.62091,-47.875416,-51.105015,87.82327,70.38252,17.201574,-81.41792,-109.623726,71.58663,-34.038486,-50.053417,80.0663,88.886665,-48.96262,-82.555824,-33.27429,-66.236115,-88.81998,96.70414,73.61812,37.517414,38.239727,75.79534,63.530376,-54.61901,-48.861584,-99.56601,-68.061195
DU145,-9.127312,71.881836,9.0159445,-31.306755,52.17894,8.349585,-60.593483,-41.602722,36.375465,-75.899254,-78.97764,-27.176355,52.52429,56.8081,30.102655,-60.839863,-42.251534,56.703873,4.9553123,-61.3445,43.655888,67.96225,-37.17769,-45.41328,-47.015465,-51.910034,-71.93033,87.60623,57.05009,48.285255,20.706625,27.768045,30.178053,-42.522655,-47.701145,-59.559597,-27.121487
NCI-H727,7.431101,104.29771,27.569931,-83.12905,92.54143,-1.1865224,-98.899796,-81.33938,60.861458,-129.5285,-105.04495,-61.81496,77.28765,83.6993,43.553852,-93.14126,-114.19335,48.726864,-5.6492662,-71.15744,81.08629,120.58034,-74.99424,-110.789345,-65.43249,-83.94465,-106.59994,120.092636,125.68919,82.220634,26.19994,72.87423,75.97393,-80.58101,-59.560307,-94.53514,-59.5184
COLO 678,7.5814853,95.79543,50.402435,-62.053043,80.16393,22.643291,-105.467964,-108.970695,92.17772,-129.44481,-123.79666,-60.59751,50.378666,126.95053,58.776592,-114.82855,-95.336426,52.598778,22.129152,-106.245186,68.12334,170.29868,-69.50443,-106.13411,-97.35652,-83.37443,-94.03346,141.46219,156.94695,78.59218,-19.871698,30.65844,64.411026,-85.48395,-43.380116,-49.018272,-43.14921
NH-12,5.2247057,59.82931,-24.906149,-137.72798,89.95458,-60.036633,-34.500896,37.641617,-56.74293,-121.58132,-33.215496,-50.416195,107.85046,10.486332,-36.00943,-34.08916,-224.57114,28.753721,-90.49496,7.9246335,112.27826,39.370422,-87.05084,-153.15227,26.332249,-90.499855,-135.22444,45.9811,61.722996,54.762695,140.65866,149.19914,92.84593,-44.937454,-56.42928,-187.90868,-111.64455
RERF-LC-MS,8.697601,87.65568,24.187702,-29.61898,77.172035,42.73954,-81.90382,-16.741678,5.8241673,-84.57644,-26.431261,-34.103687,58.03858,61.81221,43.068214,-80.874115,-46.362568,50.13667,-29.35816,-77.48736,67.23924,41.92012,-29.496862,-50.34667,-38.31022,-68.22897,-85.28677,59.975452,37.886322,17.806988,30.918438,28.917805,23.80291,-75.00661,-73.206055,-102.606346,-58.278416
SF539,74.11259,152.48683,74.66776,-27.438358,149.92223,105.344376,-153.42339,6.5029545,-15.220684,-155.53615,50.66387,-56.653778,100.641884,103.0283,112.86882,-133.42941,0.8894494,45.351967,-67.78088,-138.00943,135.9806,33.12741,-61.63139,-57.113895,-80.332344,-147.90897,-145.45108,75.59218,36.428936,-13.769553,49.836983,6.8216686,33.586845,-152.58409,-175.45786,-185.51437,-125.54271
NCI-H1299,-4.8532186,61.91156,-19.669237,-46.61566,66.99089,0.18459922,-43.823505,11.545906,-1.075346,-78.99959,-12.774157,-29.075447,72.04321,40.82969,4.5938964,-60.151127,-95.77833,63.473404,-49.469597,-29.332928,71.06968,33.403996,-30.938839,-51.445934,-8.244963,-53.934925,-68.588356,48.532825,44.207104,20.520971,55.65879,65.27951,41.21936,-44.102196,-51.922195,-98.32529,-65.2933
IGR-1,10.757854,144.4048,11.859419,-57.49678,88.701324,19.306776,-77.46114,-4.127139,-26.369255,-111.61497,-15.331527,-71.461845,115.73712,58.310932,19.215782,-116.8912,-140.63937,95.99721,-98.621056,-77.797874,91.9222,35.4762,-32.896145,-62.85732,-38.20987,-61.64628,-103.937164,70.63047,47.764263,-35.88683,78.619934,80.17087,46.698185,-58.2938,-71.61251,-120.04856,-112.339584
BT-549,22.448853,96.24234,20.560352,-41.621773,95.204834,44.4205,-85.46471,-1.0147613,-3.87621,-105.316315,3.0127275,-40.679764,77.77771,65.42394,42.691532,-93.46785,-69.712296,52.809486,-59.603813,-74.68691,92.39635,36.30022,-39.47361,-58.140854,-35.20756,-82.414635,-93.304695,58.28942,44.24674,10.558076,51.686234,45.6614,38.51037,-87.095085,-94.779076,-127.21135,-84.30714
ACHN,-3.8825567,106.19995,0.90246964,-23.462828,75.348404,44.786373,-87.425446,-42.207466,17.054659,-103.78077,-57.016117,-38.79295,87.37981,80.943985,50.347042,-77.34203,-10.927278,60.071365,-5.818191,-79.55749,61.16337,67.25627,-41.64253,-41.481117,-54.403427,-73.28312,-110.138145,114.29884,26.507555,39.518673,28.872179,29.024588,37.54992,-60.071995,-88.69114,-95.747734,-42.939922
TE-6,-27.082243,74.19791,15.221259,-64.18653,26.75889,-53.05152,-62.16342,-91.02727,53.488422,-96.80611,-136.98125,-53.028408,43.070408,71.41554,49.03559,-52.715256,-71.78747,49.82262,18.096317,-71.76271,23.98499,128.00237,-68.118225,-79.60062,-61.26939,-57.275208,-70.523315,133.85551,91.34867,48.12045,3.8481934,32.22116,52.8813,-41.710815,-24.763775,-24.757395,-28.998058
HCE-4,15.224685,84.614914,10.525802,-24.736786,76.525536,28.067196,-77.99011,-18.20725,6.958797,-95.62079,-19.7877,-37.67296,59.402946,63.6454,44.6928,-72.88223,-50.864876,46.05792,-27.789028,-63.933136,64.869286,53.181816,-37.126766,-50.526173,-35.777767,-71.63253,-77.92636,68.06076,45.020298,13.584247,22.403183,32.994526,37.66758,-71.52681,-72.03927,-89.626976,-62.7828
EoL-1,32.608242,228.45326,-191.72261,-14.163982,285.2437,137.65195,-238.09097,-15.532251,-116.23276,-313.12457,165.73308,-165.16685,261.98413,297.92203,-13.8138895,-283.56747,-384.71042,103.233315,-227.65984,-48.41709,295.99652,285.1323,-113.253006,-214.91382,-34.54858,-177.36731,-183.20229,184.99902,205.96858,-26.725391,-3.8839695,284.32608,252.48773,-200.4728,-82.06652,-292.22437,-323.312
DMS 79,15.014147,90.7765,-18.170475,-101.77922,81.392654,-33.842655,-70.75108,-43.587696,-4.4324236,-140.15088,-70.37237,-69.98498,102.33741,58.569935,3.4923472,-53.74818,-169.72467,34.739563,-30.524282,-22.825249,90.24982,105.21528,-94.88644,-127.15842,-28.324951,-92.30346,-116.72694,105.96066,89.178925,68.05731,62.8625,107.41698,103.08931,-53.21488,-55.6466,-120.43143,-91.706924
H9,15.75296,196.90701,-169.58403,-29.017735,265.8204,76.23941,-202.69037,7.9121823,-86.55139,-275.93298,131.60475,-139.27489,244.54755,263.58243,-19.53334,-229.73625,-352.6001,88.83679,-206.6448,-11.847643,266.12823,267.1956,-107.92784,-181.23431,-47.23457,-174.66272,-189.47594,163.56158,194.34763,1.2274508,-7.8068905,245.40407,225.65405,-170.63182,-60.6372,-250.37978,-282.55438
SW900,14.371306,104.66608,17.773077,-38.096054,89.84944,35.834797,-93.956566,-37.94142,26.577421,-103.05297,-38.698704,-48.887165,76.394424,78.514626,53.009377,-88.83521,-57.374344,59.338005,-19.493729,-80.489944,79.433525,68.45268,-47.374035,-59.360275,-57.84617,-79.94803,-95.2106,82.95121,58.983692,31.20441,28.212543,41.497826,46.011658,-80.77986,-83.7234,-103.38686,-65.78942
HH [Human lymphoma],9.861333,180.01062,-141.22896,-32.74028,242.47958,69.34338,-181.82426,13.197601,-77.404526,-252.19061,118.03411,-119.460556,220.17535,230.65111,-11.574659,-217.67361,-331.32678,75.00769,-193.01857,-21.241875,251.4149,226.34825,-91.576256,-164.3503,-33.9862,-154.34277,-169.24945,136.53464,176.44891,-2.965488,10.553131,234.6357,198.75572,-161.58737,-61.033413,-240.5317,-265.1384
IPC-298,9.623067,147.45833,21.499557,-59.09255,91.060326,17.815083,-85.80314,-2.6006572,-23.671843,-109.700005,-17.71472,-70.6688,114.34571,54.385586,29.760462,-117.93109,-127.372086,97.13453,-94.79306,-86.333244,95.28171,32.06242,-35.987484,-59.49229,-42.211487,-65.75168,-109.50813,67.143456,47.265587,-33.15587,80.14905,77.045364,42.193165,-67.79498,-81.99449,-127.197266,-115.707146
HD-MY-Z,12.378517,106.71421,26.425964,-44.22936,107.24562,41.498425,-95.18314,10.213369,0.24330951,-101.418144,2.6076777,-41.98175,89.43748,75.81629,45.733665,-105.87225,-69.355316,63.96447,-68.29898,-81.68796,108.37322,36.78216,-39.046383,-50.593285,-49.07796,-87.571045,-107.35497,61.795326,50.17506,13.3321495,59.55514,47.06341,37.671223,-94.80689,-101.32968,-138.77925,-93.00747
TE-9,-15.101435,95.646835,45.42882,-46.743156,44.804626,-15.967689,-93.204475,-110.48853,75.18027,-107.44352,-147.80782,-53.830627,37.495216,101.424934,71.98057,-88.22838,-48.166656,48.586437,28.65402,-107.18803,31.150795,145.79315,-64.16022,-80.4828,-89.68707,-70.4931,-77.867485,147.46165,112.38508,54.31232,-20.204037,13.707933,49.285477,-70.896835,-40.952534,-28.67532,-27.335798
WRO,36.967934,121.57327,56.507008,-37.244446,115.49222,70.39603,-113.21365,-0.22969685,9.275739,-108.964745,10.389798,-41.364075,79.72186,80.4181,75.01923,-113.067955,-24.356297,56.252987,-54.09914,-108.98884,106.356834,30.125233,-36.779766,-44.062763,-67.629974,-101.93731,-109.03013,63.20723,48.305733,6.48358,44.50285,14.638852,25.923851,-115.89039,-127.8916,-141.50197,-80.56513
BL-70,64.2121,208.48518,-168.87587,-117.7858,328.96936,74.98853,-222.26285,3.7753012,-43.151978,-377.96948,111.703735,-186.48157,320.876,286.30603,-29.850761,-289.30148,-460.38855,122.22712,-180.19011,-17.39316,375.30783,357.94586,-164.38367,-263.6022,-105.07111,-240.84288,-236.92053,251.61365,321.01096,70.30761,17.406948,285.33838,314.05136,-169.66528,-102.874245,-270.83655,-312.38693
A2780,24.818375,88.36372,-34.112236,-67.74264,107.690155,5.3717036,-66.24741,13.909347,-24.253868,-133.90443,21.9081,-60.32688,108.122696,59.442387,12.193079,-79.114456,-148.97377,59.90266,-69.356995,-29.376242,112.939865,63.01599,-65.298256,-93.38389,-9.703931,-96.54556,-100.4048,64.89319,68.802536,19.030228,70.19937,102.9758,85.79549,-71.39563,-76.55325,-133.56055,-116.22666
769-P,1.7375716,124.656555,-0.7391513,-29.141905,92.54487,50.595837,-104.81113,-64.854095,40.782825,-128.90489,-58.794193,-51.775707,94.077484,103.66925,54.9355,-102.821266,-46.352856,64.985245,-16.408457,-88.63375,72.17485,95.490135,-49.427753,-67.7177,-59.793026,-82.06026,-104.98501,130.0442,61.657475,41.013245,13.936598,50.115234,59.016953,-78.805084,-86.98737,-94.17911,-54.657326
Kasumi-1,43.27972,213.67595,-188.61485,-24.322224,266.80905,114.58772,-217.64635,-16.737362,-106.542854,-289.78754,146.2992,-161.73257,246.80222,262.39377,-12.414339,-248.42659,-360.1755,105.70957,-196.4095,-31.890854,272.50952,258.5547,-116.57077,-203.85611,-26.438313,-175.20914,-175.40356,173.85002,191.00407,-12.077508,-0.050911717,269.8522,239.95163,-189.63692,-81.10013,-275.49075,-292.5267
697,119.46615,212.9074,-171.41238,-106.41699,277.4889,49.84166,-207.01689,-29.082659,-39.754246,-301.32956,101.96404,-185.39322,259.52252,230.34886,15.941334,-178.35646,-366.48572,102.32843,-95.41149,30.205286,299.14984,270.0954,-162.18346,-180.93379,-100.56377,-227.23041,-227.85593,182.32637,250.9672,85.41144,-9.591801,241.24556,257.2081,-180.30547,-130.32086,-249.28801,-279.50165
Rh1,11.503296,94.853294,-36.53725,-63.02215,114.6823,14.959471,-82.670815,12.607609,-36.25302,-139.13495,29.745993,-64.28953,113.026985,75.6893,13.270488,-100.284065,-158.61552,60.527832,-91.825294,-36.79126,123.09914,73.25717,-67.69856,-102.50466,-13.207023,-96.03084,-106.81986,73.784325,67.040886,11.153378,67.00566,111.55144,88.43851,-83.16474,-75.20466,-146.64041,-133.21825
CAL-62,10.984076,96.19648,21.34225,-28.831068,89.85147,47.433147,-87.407166,-27.272572,23.506706,-99.966515,-24.85173,-36.18922,71.80835,84.51087,40.281876,-96.21259,-58.327156,56.237724,-32.62885,-78.11462,80.58815,67.72443,-33.198406,-53.68028,-52.23185,-72.888664,-85.71038,81.1598,69.317154,26.79703,21.253319,34.571384,39.379715,-79.313,-73.667404,-97.54197,-57.433475
NCI-H28,6.5771136,119.25239,-1.896187,-25.367735,84.472855,53.521614,-92.638,-55.534008,23.631432,-128.09549,-52.00562,-47.96522,97.207726,101.91638,49.851463,-93.01131,-38.670784,55.40486,-14.917263,-84.26798,69.161446,88.357765,-49.12164,-62.473583,-51.43924,-82.06109,-109.02105,130.1685,46.17442,32.046078,17.15897,42.980137,56.306873,-67.89466,-87.407,-91.60089,-54.330242
EKVX,-7.454474,98.87274,35.69094,-32.72886,67.7492,26.090496,-85.4421,-62.87642,51.56249,-97.34864,-88.314575,-40.53584,55.276325,69.6396,69.70047,-77.7508,-12.65641,57.482388,16.959099,-101.37134,41.071404,81.39998,-45.759655,-51.492496,-61.380325,-72.884155,-91.35041,105.48435,57.24214,43.509422,14.623686,18.396341,28.576319,-70.41071,-74.25706,-68.327385,-30.501925
HMV-II,11.779891,144.09311,25.092854,-61.096813,84.51393,16.74006,-82.894066,-14.491932,-14.5352335,-107.53116,-29.972578,-70.52043,107.72889,55.687584,33.742264,-110.31244,-118.6618,93.571686,-81.899574,-86.26401,85.94734,35.46212,-35.818462,-58.12459,-44.74355,-64.328766,-109.07259,72.14697,47.03546,-23.668018,76.38488,68.957085,40.342716,-63.62006,-80.57365,-114.04951,-106.104614
OCUB-M,8.195937,100.61787,21.886835,-73.09499,68.549835,0.28709,-81.69362,-83.69553,36.134754,-141.85268,-78.44678,-68.0321,73.461555,93.95286,49.875843,-80.75927,-117.46345,34.113907,3.0494366,-71.9256,63.775883,143.70215,-87.76038,-105.71123,-53.75565,-87.06673,-89.51052,119.890305,95.444084,43.82485,8.296149,72.11709,79.58636,-63.72419,-45.22197,-59.104176,-76.10622
HuP-T4,4.265565,128.40952,73.56915,-55.95218,99.05799,47.338604,-141.34274,-137.07777,113.259125,-143.87245,-160.22122,-67.18851,54.999928,148.65466,93.79009,-143.99408,-58.367657,62.576054,43.087036,-149.71817,72.40231,183.70631,-82.11494,-109.420105,-130.44896,-102.70255,-118.86333,165.00854,162.20738,102.89147,-19.679085,19.042622,61.44534,-114.71319,-73.356285,-64.3869,-38.300365
LoVo,-10.363098,94.166756,3.6969175,-60.6986,79.382996,4.440896,-100.678795,-98.99715,65.6277,-118.843506,-103.91467,-69.7242,67.032364,91.54155,49.321613,-100.92482,-90.26599,74.68274,3.397608,-78.91653,69.80923,135.39546,-63.718212,-96.528015,-75.80434,-67.27458,-89.97014,130.24852,117.8565,82.98673,8.603535,60.061844,67.33365,-71.822495,-41.764088,-68.477715,-49.442497
PLC/PRF/5,-24.133806,139.4568,-10.186332,-42.34218,118.056854,12.001449,-105.07207,-59.077374,74.54053,-150.63858,-81.91323,-75.330956,119.41468,82.16035,77.67535,-127.48371,-74.51945,117.719955,-15.589991,-108.03703,84.48809,119.80735,-53.299313,-89.38209,-53.21116,-91.4341,-112.36259,154.14737,107.43268,39.608685,29.513315,94.67968,84.654816,-91.03244,-87.94055,-94.297035,-60.170116
RMG-I,4.403292,128.74512,18.55024,-40.330265,85.75505,52.395973,-108.714226,-83.22201,34.250233,-142.89008,-84.14389,-61.12803,94.94862,114.97493,57.470383,-107.90079,-53.47088,54.16128,-2.411457,-106.738434,70.61845,129.2684,-65.668365,-85.651955,-75.57518,-88.70329,-116.691246,150.16277,81.93286,42.964024,9.4300995,43.478077,65.66604,-73.50479,-74.038475,-87.14838,-56.990353
YKG-1,25.061815,105.76694,16.798714,-41.660652,102.43813,40.1413,-91.70156,2.0103197,-14.693433,-116.63191,14.683359,-49.960777,87.72618,63.311897,52.610462,-86.66876,-63.13865,52.721752,-53.27343,-76.64036,96.92346,35.362377,-49.91294,-65.667465,-33.201332,-97.01949,-106.99881,60.333626,27.793055,6.3428483,59.544796,49.71803,46.26038,-93.1629,-108.68531,-134.78734,-96.253654
SF268,41.72319,113.108475,42.1223,-39.34247,112.5461,52.864834,-104.70737,2.9443188,1.5117142,-110.790695,12.299584,-41.704075,80.12665,71.7304,68.55858,-97.148994,-40.37328,48.799576,-48.084553,-89.89275,106.41479,29.03369,-44.445168,-45.78107,-56.572994,-105.40705,-110.02535,54.94425,41.516693,9.979397,49.78826,27.09492,33.38963,-110.13958,-125.44956,-141.16301,-89.90623
UACC-62,14.002807,142.75107,26.021605,-50.81112,89.57757,26.006598,-87.159164,-5.2738743,-31.747396,-107.97525,-11.636128,-69.26331,109.17065,59.319523,38.422806,-114.62749,-106.4766,82.79089,-88.49542,-92.912415,90.69946,27.620459,-37.81354,-57.625164,-41.079918,-70.94955,-115.06992,65.45262,29.785496,-31.509678,78.62648,66.35477,36.910503,-72.40198,-88.287025,-128.84001,-115.23632
NCI-H1703,3.0950286,75.58669,-14.310819,-43.598984,73.88014,15.24172,-57.429146,-0.6495478,-5.0598717,-95.234535,-10.144973,-37.681793,79.81925,54.08903,13.917828,-68.84233,-90.861885,60.455597,-47.633442,-42.822952,73.965744,48.185745,-39.677734,-60.28466,-16.879251,-64.76753,-78.528854,64.48396,39.968937,15.076577,50.2416,65.98701,47.298954,-51.07221,-63.08711,-103.97675,-73.22557
VM-CUB-1,-33.9867,80.845825,56.98077,-46.079056,30.901241,-25.043486,-77.97323,-101.22327,87.53758,-83.43216,-170.43552,-36.586575,24.61895,93.060394,70.26406,-82.40735,-30.228888,53.776505,35.573322,-111.535866,19.560015,127.72537,-53.510056,-65.45451,-91.34653,-58.69396,-73.79274,141.58281,105.27436,65.83885,-8.899865,-3.986918,27.379814,-64.33909,-39.107582,-19.796844,-3.9452848
KNS-81-FD,38.529316,119.725266,41.26634,-34.2126,112.494,65.39416,-110.99024,-2.618614,-7.193047,-118.74302,10.605337,-46.65989,84.50699,76.91001,75.52927,-95.99533,-20.958267,54.69287,-45.61985,-100.33916,101.091805,30.657906,-45.205345,-52.837753,-53.510113,-108.06953,-120.07887,70.45123,23.725273,9.941669,54.572216,22.541357,32.76106,-112.69222,-134.57521,-144.68417,-89.6025
HCC1937,-9.441528,86.27109,48.614582,-49.12137,38.421684,-2.7110763,-81.97377,-105.83385,70.035774,-106.43883,-140.53415,-46.733707,34.726627,95.00587,64.25824,-75.067116,-50.010033,36.645187,38.451782,-102.523926,26.432196,139.9969,-68.35468,-78.52743,-83.437065,-66.58023,-76.91988,133.08226,103.89067,59.22644,-13.952163,11.877374,45.50236,-58.14378,-36.8112,-29.158249,-24.601711
SW962,17.746729,138.0277,74.58224,-30.229649,98.351,48.920303,-139.58261,-76.044205,52.70056,-130.87125,-78.041985,-55.427265,62.659027,121.83625,110.01552,-127.10008,-8.918349,50.27967,-7.21519,-146.02577,74.61796,104.351776,-57.854195,-67.133446,-109.71673,-106.56536,-109.858826,134.79817,85.85766,25.682291,-4.04402,-4.2005954,37.784603,-124.70114,-110.363655,-98.62194,-61.412277
TE-15,-28.079243,104.45432,73.1965,-56.237965,34.282402,-25.907658,-101.638054,-144.765,113.34887,-104.23376,-217.35553,-52.648197,25.762651,113.395615,93.54993,-95.27672,-20.874105,59.953594,66.33449,-139.67589,16.219553,166.5382,-73.95055,-80.970665,-121.57194,-71.975945,-91.489296,182.59555,130.16533,85.784615,-24.87286,-12.188611,37.536922,-75.77707,-48.46188,-12.524416,-0.40455535
HT-1197,8.014603,103.391266,65.35341,-37.861073,63.957462,27.166632,-103.566635,-100.242325,88.5706,-105.63163,-127.23794,-43.514763,36.373367,107.26306,81.74441,-98.76311,-26.976398,52.72963,39.415443,-121.15085,42.84128,122.65563,-59.10634,-67.39197,-102.1958,-82.107185,-90.58368,130.92227,111.74515,66.23817,-15.210165,-4.9344096,35.728275,-87.561966,-72.59781,-43.838577,-21.773003
A-673,23.973469,108.34624,-34.556446,-63.25452,124.433716,21.91733,-96.13261,2.315239,-35.344536,-151.46402,32.63771,-71.95897,119.41638,80.15142,22.08925,-100.14312,-152.02914,57.68519,-86.807045,-42.43963,125.255684,75.23422,-78.28115,-105.02121,-19.132057,-107.79205,-113.89472,80.80259,69.454575,9.270889,63.04525,111.16337,94.97567,-94.82575,-87.609955,-155.44394,-136.06274
SNU-16,-2.0132551,120.03395,21.799759,-76.80934,106.40837,12.054363,-129.17691,-121.273186,80.502014,-159.73705,-120.98138,-87.35983,80.3818,118.451065,67.39683,-128.42242,-119.02604,67.91875,-3.536815,-99.66666,90.43883,180.7492,-88.65828,-129.31938,-92.07658,-94.21143,-107.11688,154.63936,156.3966,91.09475,-0.48546094,82.2544,94.810585,-98.65335,-51.85929,-80.004425,-70.551704
GT3TKB,6.059357,97.399,11.148177,-42.48776,94.903786,36.790775,-86.63085,-11.205282,11.718825,-98.48356,-10.641307,-43.13629,85.176834,74.75503,35.16634,-101.86449,-82.795616,64.62886,-55.004906,-73.01298,94.709694,53.64353,-36.61276,-56.838173,-46.86442,-71.398056,-88.59731,66.40939,59.794407,16.448462,44.63296,54.577076,44.450134,-79.230385,-77.08746,-117.30613,-77.85238
IST-SL1,15.493324,85.70591,-40.64722,-109.46808,89.7612,-51.881767,-59.51655,-17.11826,-18.856632,-138.84824,-51.964428,-64.151886,115.38472,43.26406,-11.7018175,-46.667915,-204.00311,37.858204,-54.17464,4.303648,104.24499,89.86037,-94.00745,-130.88065,-7.6840377,-91.404045,-114.34786,92.82586,96.67442,67.80403,82.5049,137.55602,113.98592,-52.876804,-53.29455,-139.41933,-103.33637
NBsusSR,10.653204,98.3733,-60.461903,-74.83524,122.337395,-1.1329222,-81.30771,10.507954,-44.1266,-152.892,29.012163,-72.43477,128.93825,75.33018,2.8841937,-92.564644,-192.76414,64.46102,-95.660446,-22.149164,133.1443,82.4787,-79.07618,-118.26987,-4.585319,-101.10491,-110.39631,82.465225,73.686165,21.474094,79.94095,141.38052,110.2746,-83.819016,-75.055176,-157.94847,-143.11192
PA-1,20.001736,90.2427,-24.384922,-61.071636,92.51283,4.702222,-67.939095,-4.646107,-15.204273,-125.32893,-1.1556507,-56.390854,96.71889,60.33405,14.134919,-69.04062,-128.93065,58.251896,-54.14298,-34.152935,94.10513,69.04576,-59.575012,-86.33716,-14.004064,-87.78846,-97.207306,74.39248,59.123547,21.80768,54.871758,88.022896,76.11283,-66.819214,-72.16755,-115.85493,-97.1873
NCI-H1522,24.046957,90.28001,-43.026398,-123.21651,97.18554,-56.057983,-61.818394,-12.1591015,-34.258904,-144.58276,-48.91315,-70.241776,121.628914,41.606438,-19.491213,-42.9186,-217.787,39.685223,-64.802895,8.849724,113.48787,86.92026,-100.9551,-142.02501,-7.9884896,-101.02336,-130.39853,89.12907,90.00954,70.01472,96.91738,142.22821,118.102486,-54.61535,-63.24332,-153.8197,-114.63545
NCI-H520,7.7693443,76.89852,-14.512506,-79.1804,76.32398,-19.6914,-59.937733,-28.719456,-2.2157967,-121.35842,-37.325817,-56.41573,82.76297,59.89967,8.118091,-65.40225,-154.12468,45.056553,-45.514458,-30.76855,85.58257,95.30028,-70.366066,-103.71824,-21.75357,-75.592476,-89.949196,83.10236,89.86617,42.933346,49.988235,96.423195,82.29808,-51.775486,-42.200886,-98.60323,-89.94719
CAL-39,-22.199358,106.06586,51.22087,-45.74469,45.910465,-4.42327,-100.378265,-110.48237,83.48278,-102.0293,-167.32764,-49.594563,43.85547,102.95325,79.4714,-93.60271,-23.341908,60.149017,39.609676,-123.04908,29.497663,136.96463,-59.83164,-73.33552,-101.46292,-69.214615,-92.92742,162.6322,102.22274,67.72321,-13.280027,0.17301944,36.09512,-72.6771,-53.40167,-37.037586,-9.743721
SJNB-14,9.026627,64.33625,-4.3278623,-131.83565,86.96637,-51.07851,-40.479008,37.2618,-56.236073,-115.46397,-35.40477,-46.752068,101.20531,12.654204,-29.511734,-37.380554,-214.89912,21.094124,-95.31234,-3.7301393,104.660645,30.926441,-83.061295,-150.73602,24.626137,-91.25941,-137.60898,39.36622,55.560055,44.958237,135.5287,136.98567,83.43344,-52.903618,-60.93585,-186.18477,-109.07015
D-502MG,21.792284,101.796295,34.33836,-43.821503,87.44989,33.917763,-82.95391,-5.321611,-5.06893,-101.26022,-10.917029,-38.94877,73.4461,58.885563,50.842644,-73.67303,-53.19977,48.214485,-42.692326,-78.57567,80.547714,31.898975,-44.481796,-54.37092,-37.032825,-89.02785,-105.34576,60.40653,26.472115,11.040906,56.985283,35.813282,31.68511,-85.68345,-105.66232,-118.860054,-78.1129
DU4475,12.810181,95.565315,-32.42625,-81.35153,106.68343,-9.03232,-87.073135,-44.47384,11.173615,-142.06859,-38.774677,-73.15582,102.711815,92.725685,5.0372157,-93.59851,-183.88953,58.77875,-55.437958,-30.170336,110.057,127.737686,-76.29682,-119.56231,-38.198593,-87.71251,-106.00113,106.72387,120.41154,56.251217,31.70686,113.25435,101.4132,-72.26295,-43.561844,-115.27259,-100.89962
HuO9,43.050106,129.99413,27.29512,-47.712456,126.917885,61.681778,-117.22994,2.3757017,-14.685051,-146.04732,30.693285,-61.50223,100.672646,87.17072,65.32884,-111.260025,-77.638824,56.41244,-73.67755,-90.513504,117.86936,53.245308,-66.27228,-77.72837,-46.57021,-120.66437,-125.104706,76.73369,53.317913,-1.6274585,55.273697,50.011814,56.09168,-115.338196,-126.30736,-162.3098,-118.797745
NCI-H716,13.585671,98.598946,-9.846901,-81.3486,106.92216,-3.6864076,-86.24377,-15.316413,-3.5274603,-134.35161,-25.322214,-61.463524,98.31209,63.888603,20.521147,-79.66238,-149.41577,40.49745,-62.892387,-35.53398,106.207184,78.8557,-73.196655,-109.38643,-21.928804,-94.92891,-110.206764,77.3416,83.1106,43.91883,60.343452,108.14048,87.3859,-80.875175,-70.05812,-143.80927,-103.73647
NCI-H2171,14.940045,75.078835,-40.65422,-104.99229,82.66969,-47.38526,-49.56156,-7.9591904,-23.520002,-131.29672,-38.218323,-57.894646,104.60987,42.00318,-19.138361,-41.545986,-199.29752,34.56449,-56.89351,10.953486,99.54957,87.295845,-87.89256,-124.71325,1.2154559,-85.886765,-103.805824,80.72503,88.32843,55.057877,79.33187,130.9633,104.634926,-43.577137,-44.27315,-130.80658,-100.2921
H-EMC-SS,14.73482,88.61484,-10.656276,-65.21555,101.32052,20.99269,-68.45335,7.701937,-12.360669,-123.36541,10.63633,-50.83916,99.012505,65.229645,12.554709,-87.193054,-129.59244,64.518265,-72.57854,-48.787914,106.54483,58.66755,-52.35194,-84.372345,-16.707165,-87.87989,-98.71968,65.764565,65.95297,20.155947,67.78451,82.158844,67.08772,-71.36085,-78.57057,-130.16797,-100.23824
EW-18,6.2861133,93.551895,-60.528625,-74.27743,112.60324,-7.4808,-74.76007,13.2785425,-47.361004,-144.51712,27.905327,-70.47748,126.37139,69.376335,-3.457322,-84.87386,-187.7082,63.657665,-99.49936,-15.418216,123.66569,81.29957,-78.5608,-113.910095,-1.8861086,-96.123146,-111.354996,80.165,73.33463,16.909075,79.2808,136.80229,104.00441,-73.104126,-66.44801,-151.85817,-138.42595
LAMA-84,25.523804,221.69829,-138.10025,-15.237389,265.83878,109.704445,-227.27487,-2.531249,-101.97745,-272.69614,138.39987,-148.8329,241.26231,257.16586,5.0654116,-257.28397,-308.48383,96.89467,-197.27174,-44.36455,265.53137,247.08395,-104.389565,-188.80608,-40.38062,-175.88148,-186.00371,169.87213,175.63316,-24.490658,6.9075694,243.89017,217.86827,-205.8167,-82.83674,-255.55463,-279.28177
SW1417,-4.0020504,115.90057,69.23003,-81.42361,99.67694,12.3471985,-130.96165,-136.56079,126.07989,-134.17105,-157.22209,-74.59645,60.11047,135.48586,81.33219,-143.80188,-90.92381,79.40319,14.658797,-134.9507,83.83374,171.16162,-73.218925,-117.696915,-124.057205,-87.85103,-108.56377,160.57991,178.48198,105.776024,-3.1809793,33.56202,68.05746,-106.35251,-65.581894,-63.70887,-41.95603
TALL-1 [Human adult T-ALL],15.412377,168.08583,-184.22348,-43.20561,234.85597,43.234085,-170.41742,17.031616,-92.42144,-246.14464,130.57823,-125.88172,222.27742,214.08784,-29.432898,-173.73607,-350.54453,96.221306,-189.11061,22.39441,235.18687,221.1396,-99.86164,-164.51294,-23.131859,-153.38107,-165.19716,131.57632,172.42879,5.1567307,13.690458,239.61023,207.50789,-149.55595,-52.90732,-244.58067,-258.6409
KU-19-19,-23.320196,72.88256,28.441616,-42.737312,45.876072,-15.024861,-70.308914,-56.711178,58.37905,-79.65081,-112.26459,-29.294239,39.68353,69.2179,50.724167,-67.39689,-45.772358,59.983383,10.315552,-80.45718,37.662582,92.62193,-45.41333,-51.80573,-67.971634,-58.83111,-72.884186,106.982666,84.58636,55.01235,8.91977,12.498911,28.43387,-56.01862,-46.050728,-52.06268,-20.060276
MDA-MB-361,18.582472,99.09217,37.515762,-82.38036,63.69197,-2.1292157,-82.88061,-91.5705,45.577446,-142.86772,-87.33648,-68.611786,59.501663,92.440956,56.936977,-74.99896,-120.90386,21.298267,23.097973,-74.923035,55.020885,146.81776,-97.50215,-106.2822,-60.474133,-91.7483,-88.21305,110.57487,102.88748,49.5227,0.40041214,68.21516,75.42561,-68.47873,-43.703564,-51.84329,-77.404526
NCI-H358,-12.0355835,77.89261,30.409473,-47.390923,50.655865,-5.712882,-73.73852,-81.07217,64.07201,-100.46073,-125.55701,-44.569736,50.36254,82.380165,52.487774,-75.42608,-52.476925,45.65951,37.993153,-82.30667,43.275955,123.01551,-62.070858,-73.28127,-76.87386,-66.738365,-84.48142,123.32032,90.292336,74.19308,5.842336,23.607782,47.84168,-50.401665,-41.17823,-38.002316,-27.86822
TGBC11TKB,-9.145275,80.41489,-2.6223667,-67.12361,68.24152,-18.049334,-74.99988,-69.33142,44.74167,-111.46343,-88.36429,-64.88572,71.875626,74.75258,35.89535,-76.37192,-103.43119,63.99931,-1.0771888,-60.32188,68.56569,118.18564,-70.32804,-94.09052,-57.755264,-68.421684,-88.48481,113.1431,97.097855,67.70467,26.296873,67.64047,70.25689,-55.22307,-38.254204,-67.99826,-57.85201
NCI-H1048,20.126375,85.11031,-24.723015,-76.02347,77.95607,-17.05447,-63.019867,-33.0981,0.85549366,-127.724144,-44.286217,-64.85599,91.56007,57.67459,13.691644,-55.519337,-138.17534,47.660973,-27.51737,-27.511414,81.6522,95.80173,-76.273315,-98.75881,-25.667677,-83.93205,-97.88314,94.466385,78.806694,49.65938,46.14965,92.94854,86.708595,-52.35272,-55.391975,-97.190025,-83.93686
CAL-85-1,9.939519,107.83331,56.28894,-33.76702,60.144753,29.026724,-102.853836,-95.90525,61.821415,-112.88204,-120.11748,-50.13737,47.03574,104.43792,80.60556,-86.43608,-16.625624,38.893715,35.102676,-116.344696,39.060738,120.61545,-59.36802,-67.01161,-90.92748,-82.6988,-94.94753,132.21907,82.89533,51.841057,-13.55242,1.0692705,39.36432,-79.32725,-71.612686,-50.255177,-31.2769
TCCSUP,38.815895,116.01125,56.51431,-28.300417,111.91833,65.22313,-114.961365,-11.507436,12.004539,-111.711044,1.5317665,-40.272366,71.29758,81.17966,80.10785,-104.38738,-20.799524,46.63759,-39.51751,-106.783936,98.703186,38.49268,-40.319786,-49.18672,-67.20658,-102.76804,-108.65241,66.588615,45.915512,14.809928,31.477057,12.07476,28.806005,-116.30111,-121.77105,-129.211,-77.37087
HuTu 80,15.873687,80.558784,-24.99654,-57.92006,92.20773,9.936058,-62.13242,-1.733293,-5.0302606,-124.091225,3.1026416,-51.397614,96.45109,63.882614,9.985138,-75.25129,-131.59435,62.816566,-56.49697,-34.991352,93.69536,72.02224,-58.004356,-85.72869,-14.161653,-84.16494,-86.75433,77.108536,67.31699,20.04076,50.59518,86.342926,76.23514,-61.96068,-65.89657,-113.09911,-92.08729
LCLC-97TM1,-12.378251,84.218796,36.241768,-42.43671,60.41492,12.46555,-85.707466,-73.884796,50.953327,-98.79584,-100.96419,-43.10175,52.886703,90.50585,53.67889,-82.53782,-59.46884,38.79031,18.624537,-89.05022,52.98679,119.61505,-62.788742,-71.158,-78.16287,-70.427124,-88.03551,107.996895,91.528946,60.060467,5.869032,26.666702,46.597355,-62.973278,-43.520664,-56.45901,-44.35039
NCI-H1693,3.6477373,70.60813,8.880136,-45.385254,62.26495,6.997646,-63.884903,-32.455463,24.107767,-89.12807,-55.8814,-37.84462,56.111267,56.177994,35.732933,-60.058506,-59.323948,52.464493,-7.879801,-59.574993,55.786438,63.575825,-47.670975,-62.740845,-37.686565,-64.38991,-78.9059,76.70371,49.424366,41.942814,33.816452,38.29373,40.022762,-55.132935,-59.631626,-77.26896,-45.482616
TC-YIK,2.5426142,108.517784,-22.919247,-98.08924,107.93731,-31.412998,-87.428085,-47.660667,22.427256,-155.0762,-78.57466,-77.31187,119.03617,69.99935,15.69709,-85.3564,-176.75314,55.736584,-46.03435,-35.42025,105.23057,119.99085,-89.99308,-138.1688,-29.858738,-94.741425,-121.46667,124.77928,118.50857,73.419044,61.67059,135.3325,116.80878,-71.40649,-59.07636,-130.62708,-94.96247
OVCAR-4,10.855624,102.66695,38.87435,-44.33784,66.78616,36.793217,-94.990036,-78.877846,46.569344,-110.21713,-90.32758,-49.384296,64.23929,92.83904,56.09499,-91.169266,-40.557453,52.33922,-6.081698,-102.424164,60.317066,104.23599,-52.67124,-70.7549,-75.287346,-73.464645,-95.488205,119.59567,80.903984,48.913086,7.487047,19.515814,45.799046,-71.126854,-68.13971,-71.41601,-41.957825
SK-HEP-1,16.664118,109.07139,37.71184,-31.93393,103.131775,50.128197,-98.05568,-7.7227154,21.117586,-91.205086,-12.034244,-32.305584,77.420456,80.55642,53.39611,-110.62813,-53.495712,64.13956,-51.440018,-92.80329,98.958694,36.35822,-25.584671,-40.09455,-59.29194,-80.44293,-94.6066,59.671097,59.202877,17.489908,39.189728,30.694727,28.35134,-97.23588,-102.99135,-120.425766,-73.37962
HSC-4,-24.244598,84.32821,49.297997,-47.291054,30.933187,-29.364384,-78.72987,-102.04386,78.85436,-83.63705,-159.59448,-41.904064,28.718933,85.66123,71.39975,-71.77207,-25.384743,52.109207,35.09123,-105.00075,18.729872,120.75594,-54.18126,-61.652702,-86.57821,-59.980907,-73.172775,137.5649,92.53897,57.97442,-8.738918,0.16321811,31.420404,-61.0591,-45.006226,-23.7219,-9.415948
NCI-H378,24.269596,97.93631,-35.51715,-110.994225,95.493774,-45.447777,-69.683556,-22.628708,-22.355146,-144.97362,-48.65495,-68.815155,119.03955,49.05875,-8.320196,-50.335056,-207.73221,30.504465,-53.817356,1.3749671,109.39472,90.38802,-99.45136,-134.16125,-12.729358,-98.20799,-121.450584,93.04598,97.525444,66.946014,82.694046,140.72427,117.81171,-60.043156,-63.576084,-149.71066,-112.81262
M14,10.974704,144.40881,22.128485,-62.01953,84.14576,5.3843045,-79.996956,-7.6002445,-18.6918,-99.07482,-28.227308,-69.755844,110.86703,50.20867,30.124443,-109.7927,-124.99074,98.90187,-89.13749,-82.93899,86.57399,26.488665,-32.42861,-49.87741,-46.394268,-60.798794,-109.23622,64.33183,46.130257,-27.61758,80.673416,71.80292,35.56361,-62.790714,-80.39143,-117.368675,-107.774506
SW780,3.6533666,90.62662,59.95206,-49.331303,55.555214,20.00835,-93.87193,-109.39433,81.93695,-116.37356,-135.6938,-47.992947,32.87044,113.12939,64.32688,-98.024284,-66.93193,38.27994,37.377266,-110.63591,43.23817,154.84915,-67.312546,-93.55124,-90.38144,-75.883705,-82.84268,133.95345,133.9358,68.08856,-21.99362,13.270776,48.51456,-72.95735,-39.6901,-34.046997,-32.761074
A-498,10.882207,115.99869,38.739605,-18.208307,86.16802,69.31393,-102.74667,-40.86908,36.347397,-94.41337,-43.22523,-31.185347,66.572495,88.29379,67.54528,-100.98286,-8.734955,63.15304,-20.049633,-106.54834,67.8424,53.058105,-28.313799,-36.371307,-66.94732,-77.02639,-97.460495,93.40617,47.054676,26.73752,14.002033,6.0080786,17.886599,-90.161095,-101.157196,-98.06611,-42.400856
DV-90,4.664054,116.69016,25.634668,-54.395744,96.696266,30.257328,-120.21909,-99.21194,57.06467,-148.61374,-92.576675,-73.98752,78.257774,116.31367,63.306786,-119.940735,-88.841866,58.445732,0.7047852,-100.65795,82.390724,153.89389,-76.150764,-107.27975,-85.04117,-92.45947,-107.077896,142.42258,124.5632,69.24631,1.5841041,56.0224,75.23459,-89.8817,-58.536034,-79.002266,-68.60942
GaMG,28.302904,122.660164,51.322426,-21.814137,109.0283,78.28088,-113.17666,-9.728108,0.9924728,-110.36382,4.9956784,-38.60416,78.88171,90.19276,71.62115,-117.742714,-26.246578,48.60712,-55.203926,-111.35319,96.21491,35.389763,-30.620813,-47.361652,-59.666447,-95.47429,-113.9106,69.677216,32.18833,1.7202584,39.000793,17.669062,22.66729,-109.14065,-120.17904,-134.94173,-84.563385
Karpas-299,17.770596,180.16713,-111.85121,-17.91063,223.54982,86.771034,-183.14066,3.8849685,-72.12742,-235.72118,107.11741,-114.39076,197.47343,219.68047,4.2163143,-213.31337,-270.24228,72.6838,-176.27676,-42.49434,227.27386,208.8934,-82.88113,-148.71828,-41.524963,-146.39243,-168.77292,133.64088,161.76617,-8.847527,2.6267931,197.53476,172.97726,-158.54419,-71.75793,-225.12654,-240.9045
NCI-H2052,32.24604,127.412895,67.248245,-28.003578,124.98702,83.33636,-127.602356,-6.1424475,14.125052,-111.36616,7.161414,-36.932304,77.65314,93.08755,83.22756,-127.426476,-13.065562,58.69879,-58.953987,-124.65072,113.55752,36.009853,-33.48157,-45.239807,-78.37457,-106.24564,-117.92611,68.354935,49.097065,14.168134,40.55429,4.9739537,20.907623,-129.99197,-139.2234,-150.64316,-82.179276
SW48,-9.245352,81.54475,-3.7472844,-55.481968,66.25698,-7.817388,-79.43166,-78.77,51.002903,-114.353966,-98.803444,-61.685745,66.67859,80.05059,38.720676,-75.05025,-85.27422,68.53394,7.596803,-65.16192,61.211224,124.7186,-61.91802,-87.554184,-60.812843,-65.64255,-87.71997,124.301254,100.02777,72.19451,11.74845,56.80288,66.35277,-52.896755,-39.120697,-62.91884,-45.614674
DK-MG,103.76656,201.5605,117.40782,-35.441605,192.9335,150.47304,-207.45752,-6.4020896,-15.8241415,-201.26892,69.9338,-78.79924,125.00009,135.38383,164.36281,-175.06505,23.463451,46.969643,-74.925766,-193.93227,169.81705,42.973873,-85.55556,-78.91775,-117.26291,-195.02373,-189.70912,103.94345,40.26264,-16.876307,58.492832,-4.14403,44.1725,-208.92067,-235.61533,-234.7038,-156.82385
MDA-MB-134-VI,21.23669,101.917076,20.182264,-88.77914,79.256546,-3.0996933,-79.738594,-68.50408,23.717392,-151.78958,-65.29341,-69.68021,80.55097,90.37178,39.343327,-78.43472,-155.5732,20.90166,-17.650778,-60.635597,79.59006,134.26985,-95.20137,-122.37661,-42.71257,-97.98041,-101.19872,106.40744,99.62144,47.620205,25.987576,94.323166,91.000336,-72.473946,-52.433056,-82.528656,-98.01698
HEC-1,5.081596,109.3987,-5.1744823,-38.8128,92.413895,35.76964,-92.189316,-51.727745,31.251183,-123.66343,-42.001312,-53.621613,94.25393,97.349464,39.163033,-99.441345,-77.11658,67.309074,-31.469673,-74.97717,83.27083,94.24206,-48.15455,-72.793106,-49.582188,-77.3451,-95.69121,113.74826,71.0531,33.622776,15.900737,59.073433,64.16381,-73.24013,-71.223854,-93.25054,-63.88805
LA-N-6,2.579142,59.7205,-6.722902,-127.32996,80.618904,-52.32222,-36.488926,27.665815,-38.715527,-109.61321,-42.968685,-41.09335,95.123375,13.688081,-26.756874,-33.62465,-207.1305,21.938084,-80.155014,-0.35015705,98.179726,35.33491,-79.991035,-138.75432,19.228212,-81.667915,-123.23021,43.472687,60.906063,50.911915,124.16584,131.38316,81.095215,-45.326202,-51.850624,-171.9502,-96.43931
LOX-IMVI,11.250986,94.99179,5.8179836,-43.975376,104.39695,34.000587,-84.81526,17.036152,-4.3092594,-103.026505,17.69021,-40.619152,87.88814,66.16635,34.432915,-102.076,-92.38667,68.27779,-69.70008,-65.340324,108.20338,34.71648,-37.491592,-53.60016,-34.780834,-81.26771,-90.54305,48.540073,52.216805,6.907665,57.427917,60.462803,44.525234,-86.010666,-86.76638,-135.14403,-94.687584
TYK-nu,2.9609563,95.04713,-18.381868,-48.649376,104.11305,22.188568,-83.109215,6.691003,-5.0620065,-102.59292,1.5311797,-50.363937,94.88994,77.630196,21.322441,-95.16473,-118.87292,76.025505,-67.782104,-48.628876,107.9256,56.305397,-44.145576,-64.49921,-31.42123,-78.255356,-95.74941,60.994102,66.39424,15.508937,53.69463,84.72807,56.936733,-81.75136,-73.14805,-138.90326,-103.44523
WM115,30.288269,154.54137,60.46708,-48.915936,122.09555,48.089527,-124.8481,2.2097895,-24.80592,-126.514435,17.089329,-64.55126,108.216606,78.26242,79.350006,-127.23707,-68.645905,64.74479,-82.20447,-117.20403,115.30807,25.806747,-48.369854,-56.481834,-64.971725,-110.83509,-139.33234,66.36225,31.485786,-23.685457,74.21486,44.996994,35.324276,-118.80995,-136.5283,-154.1586,-126.17303
MDA-MB-453,16.607878,95.8143,29.512405,-76.546005,70.85336,4.5764084,-78.24378,-77.03794,42.505108,-141.12202,-72.38342,-62.100952,68.82699,95.04524,47.63576,-84.1229,-125.23903,27.435987,-0.15445179,-72.28484,69.126045,142.51033,-89.26935,-105.18343,-55.20093,-90.5011,-90.36972,113.34143,110.53556,47.538395,7.3211584,68.97825,77.513885,-67.160164,-42.765724,-59.381668,-77.71906
MG-63,81.99611,182.25471,78.58146,-31.181652,177.87704,126.47844,-183.34563,-11.732621,-1.5894301,-184.59332,58.17578,-74.9542,118.058,127.20761,129.77477,-166.43283,-19.36318,51.674034,-69.94571,-157.18355,159.08212,60.010796,-74.61038,-76.50491,-99.953064,-166.36285,-158.82419,94.87478,60.83682,-8.430677,36.394707,19.610048,59.32979,-184.76921,-191.0109,-196.67543,-149.16745
NCI-H2227,22.766417,93.00549,-25.045055,-113.384865,103.11624,-32.07054,-64.80944,7.9775143,-42.087082,-142.16914,-20.855253,-65.360306,124.05807,41.796658,-10.114414,-54.05855,-193.18324,40.681065,-77.7102,-9.103643,120.251,64.57689,-87.41061,-133.38112,0.59863853,-101.84023,-132.84303,75.640465,70.21248,46.720554,107.04191,129.66418,104.679794,-63.590176,-75.55845,-169.72107,-121.274574
NCI-H250,7.3448515,76.83868,-16.856453,-78.87145,78.76283,-19.953163,-60.8039,-28.514553,-0.3554992,-120.360535,-37.579323,-56.497017,85.0614,60.13712,7.1372147,-69.24684,-153.9933,47.01279,-45.618786,-29.630175,88.77645,94.96629,-69.33461,-103.394485,-23.712997,-74.71829,-88.99191,84.82213,92.54089,46.834984,51.00505,97.06624,82.72872,-52.709446,-42.360603,-99.3349,-87.99906
SNU-449,12.91497,109.48687,33.375927,-27.00466,79.59731,44.17884,-91.033875,-45.57681,30.954502,-104.05682,-49.852627,-39.470837,67.81525,80.46947,65.289696,-84.54852,-20.714735,51.171864,-9.467808,-97.385254,61.56362,59.016846,-40.451973,-48.948845,-54.92189,-80.288765,-93.52498,95.57852,37.62681,25.683949,20.705717,19.899416,33.39631,-78.904976,-97.25744,-88.67277,-48.790546
BE-13,8.940247,184.22534,-200.38846,-33.89172,254.46967,61.59352,-193.6714,8.92075,-102.43957,-259.1319,144.47827,-138.54877,237.27052,244.3674,-29.098162,-198.74362,-368.16946,107.27909,-204.1267,24.71842,251.94922,250.07634,-102.81984,-172.26472,-32.067707,-159.12039,-177.45833,146.08316,179.91971,2.3898196,-5.597253,255.3303,219.56618,-164.36197,-51.488136,-258.16266,-275.92447
MES-SA,22.35198,91.66207,-21.09964,-46.34422,97.8523,23.582382,-75.51314,-3.0930552,-13.716437,-125.974884,13.164454,-54.291782,94.97672,74.16065,22.649176,-80.24912,-115.121544,48.796944,-52.60094,-39.037224,97.8984,73.66794,-57.301594,-79.60588,-20.228495,-88.21319,-89.43026,73.08327,64.44267,13.308797,36.13196,79.95279,75.299126,-71.94986,-68.05549,-114.892235,-99.108696
NCI-H2228,-5.232485,91.100494,28.980196,-25.58248,67.862236,35.81889,-83.68338,-37.393974,23.05602,-83.03473,-59.574173,-32.38891,61.991314,71.27759,48.570328,-83.38109,-30.608826,49.924408,-9.587038,-84.97353,59.879833,64.33725,-36.22177,-41.347134,-58.227135,-63.425198,-89.19788,84.62997,48.304844,34.969635,23.534159,21.563828,24.540722,-63.251663,-68.54142,-81.29928,-45.453205
SW982,73.0006,163.03073,94.1658,-30.71559,157.5785,112.2058,-162.32886,-1.921558,2.686249,-149.2169,41.897163,-57.775593,97.80229,107.73327,120.98531,-146.55386,1.7204591,50.79937,-59.855045,-152.9113,139.94336,31.56144,-56.426468,-52.93624,-100.308174,-148.67653,-148.60313,74.68318,46.410275,-5.420362,46.529934,1.1009247,30.183212,-165.26767,-183.3507,-185.68575,-119.19379
OE33,-7.3384657,99.63536,52.35814,-48.547375,72.24595,20.933289,-102.8499,-98.14278,83.729744,-117.212944,-127.06025,-48.72295,51.115433,115.12015,70.26377,-108.94951,-68.93376,41.38612,35.448624,-109.57785,59.85726,150.15015,-72.65876,-91.04143,-97.301,-82.60655,-92.87053,136.74545,126.8577,73.99152,-9.903803,26.443716,58.04581,-87.04287,-53.612972,-49.898064,-37.862896
BB65-RCC,7.842689,124.56966,31.305458,-20.512924,103.58389,74.9263,-116.15398,-43.305183,29.353975,-113.08504,-37.377098,-40.349174,87.92524,103.23937,70.79244,-114.1211,-4.958743,59.881973,-25.594751,-109.20162,87.60215,67.50624,-39.645164,-46.697903,-74.05914,-90.08318,-119.006226,113.50252,47.093906,34.357304,21.54904,16.718952,33.43719,-97.72037,-107.63283,-114.56755,-53.259014
SK-MG-1,39.004265,121.28133,38.486755,-29.98712,118.49567,59.355137,-113.8984,3.327425,-7.526202,-113.54351,20.068611,-45.431282,82.4533,79.22786,71.866005,-102.01437,-34.781853,55.84327,-57.408283,-92.76122,106.75911,32.591236,-41.06742,-47.154083,-55.60057,-107.79822,-114.67397,59.46031,37.526142,7.7140226,48.422485,28.539032,34.0964,-116.63562,-127.84704,-143.34981,-94.63904
JVM-3,33.185883,213.1577,-159.97884,-78.279724,318.88135,105.96458,-225.95888,0.915673,-52.81726,-355.43396,119.7872,-166.86551,299.81268,300.8805,-18.139257,-308.09598,-422.83478,106.41898,-210.31175,-51.863148,355.5522,334.52597,-133.90514,-241.21867,-85.25768,-212.77542,-222.09859,228.3019,283.70227,36.523075,13.94867,284.2292,282.3253,-180.21165,-89.44953,-282.1896,-317.39557
GCIY,-7.1008124,90.96819,1.4201965,-33.5332,62.957283,23.295475,-72.27569,-53.65245,39.91312,-100.72231,-71.108185,-44.195316,72.491745,70.81713,43.74246,-69.04377,-40.469597,59.444862,2.3271415,-68.53025,49.30636,81.7864,-47.52502,-57.1278,-48.70889,-63.239124,-86.58112,108.16371,56.789814,43.793377,16.861948,37.515312,47.955196,-51.0123,-59.553226,-66.34367,-34.23825
Karpas-45,17.823975,153.02718,-175.77643,-61.446983,210.2008,16.415396,-148.82445,4.9562106,-78.20137,-220.09056,102.71496,-126.03137,208.04964,180.45616,-23.045214,-143.01143,-322.9423,97.00086,-158.90422,29.530807,215.21007,197.49887,-105.53546,-149.83514,-27.368877,-142.87125,-160.48085,119.161255,155.63347,25.598772,28.194618,225.66975,191.13547,-129.14912,-54.647995,-221.69077,-233.61304
Daoy,34.25868,106.234695,22.092815,-31.341183,98.19416,44.296326,-96.15961,-9.856798,-5.7351584,-114.15903,-0.13563673,-45.945374,77.32349,68.078316,61.674644,-81.23566,-36.41087,47.17791,-39.225468,-79.276665,85.76595,40.99343,-47.25004,-52.08272,-45.98688,-96.22682,-103.45835,68.17316,30.323051,10.765976,42.234886,29.917976,40.675022,-90.4017,-110.06813,-123.42423,-84.01555
ChaGo-K-1,6.1198683,93.26034,18.268293,-54.108162,59.974255,7.169727,-84.763214,-84.622696,38.793972,-121.368225,-99.34978,-57.889122,57.319542,91.64186,46.86721,-76.09801,-84.39233,43.903492,14.483781,-76.41154,50.20011,132.58424,-68.503685,-90.30861,-62.95839,-74.13387,-89.695274,121.88107,99.523476,53.68176,0.272539,46.633907,61.1101,-59.96798,-40.67978,-59.192055,-51.859734
Mel Ho,12.611957,144.87494,16.360363,-59.424633,83.45421,15.388385,-77.866104,-10.105172,-21.694447,-107.12656,-25.205376,-73.24318,110.42364,52.287457,27.151648,-107.86399,-123.53331,101.04624,-88.26913,-84.1189,82.11098,31.210283,-33.70135,-54.86562,-40.466125,-61.41591,-108.92299,69.530945,45.63093,-33.29872,77.370544,69.5087,38.17591,-58.194138,-77.31513,-115.61965,-106.53969
NCI-H2030,-3.0717905,95.64739,11.222121,-35.630314,74.05918,31.443079,-76.88395,-33.460537,25.40749,-92.25656,-53.933952,-38.420254,75.06801,69.70996,42.381172,-79.36032,-47.7736,64.048065,-15.15932,-76.815475,63.354736,64.809654,-38.809547,-51.36557,-47.8322,-67.57518,-91.353226,91.80474,54.421265,28.91994,29.867476,38.21525,37.093388,-60.581554,-69.338524,-90.00418,-46.797443
EC-GI-10,-14.404045,90.70031,44.017433,-47.548668,48.913364,-5.0154443,-88.1558,-91.35716,67.51728,-97.3725,-136.46121,-43.072292,43.180595,95.21714,63.032444,-86.59827,-46.518894,47.239365,26.264862,-100.225655,36.614895,126.794426,-58.63518,-71.32046,-86.58577,-68.284935,-79.53156,134.4573,104.10872,56.617977,-7.9304485,12.959181,41.580227,-69.50207,-46.579697,-42.05508,-23.601572
Capan-2,-10.104455,88.97732,46.684147,-41.16813,71.672615,21.770012,-96.36368,-87.62502,84.77091,-101.2798,-113.37999,-40.52136,44.032063,110.50618,59.85916,-106.608376,-64.7875,48.338345,22.44093,-101.171745,58.063354,132.8583,-55.67339,-78.56596,-92.558754,-71.45382,-84.48619,121.43434,121.794395,76.11624,-11.866855,19.729073,45.863235,-81.03924,-47.71283,-47.548126,-31.24191
NCI-H1436,15.527693,84.62316,-36.07455,-120.026436,91.81403,-58.493732,-57.99388,-17.158207,-17.418402,-133.36014,-53.921543,-64.49502,114.75169,41.534424,-14.017331,-46.07079,-209.99513,40.01335,-56.990498,6.252733,108.56107,86.28037,-93.14307,-133.60222,-12.679029,-91.839714,-119.45527,87.70486,94.72782,73.28475,89.63648,138.36656,110.64994,-50.619568,-56.89706,-142.38655,-104.45473
PC-14,4.3222504,106.580345,50.8026,-41.631134,63.794098,25.496656,-105.50655,-103.32839,65.76023,-119.47342,-128.24292,-52.676872,49.488598,109.57873,76.69865,-93.50824,-34.951664,46.079037,37.897682,-113.34635,44.209953,140.40312,-65.15085,-81.31181,-93.945786,-83.43112,-97.66633,141.42448,98.58427,64.04551,-13.77497,13.158918,47.619213,-76.86451,-61.39931,-51.170856,-32.932037
SCC-4,-12.912782,97.890366,64.838745,-32.540195,53.162373,11.78202,-95.78034,-90.1997,80.52456,-88.829185,-137.7673,-31.849373,34.65173,101.79182,79.52328,-93.51977,-12.252761,49.7662,29.55537,-121.21687,34.28821,111.15221,-48.37372,-55.81462,-98.61141,-71.12956,-82.193695,131.07861,95.23002,58.08859,-7.383847,-11.756596,25.49776,-83.37029,-66.59701,-41.72416,-12.292782
NCI-H747,-4.4884486,99.84194,57.70093,-54.03779,75.642494,17.434639,-107.933395,-109.39632,96.97209,-112.71372,-133.02647,-51.141514,49.2848,117.53206,73.16017,-111.44719,-62.603027,52.57389,34.00941,-115.83283,61.291126,147.05258,-68.73717,-90.34412,-107.54525,-80.65276,-93.410614,137.653,133.7099,87.45239,-7.2284994,20.291227,55.288822,-89.12443,-61.424797,-51.08059,-34.35049
KP-N-YS,24.398779,72.509865,-5.4108477,-108.76463,85.62952,-34.60977,-50.375305,20.916918,-38.18412,-115.99767,-24.389824,-51.27706,89.93091,15.819465,1.2420466,-34.494812,-163.33401,32.22352,-59.977474,-16.6432,94.501595,28.833475,-80.929535,-118.17508,7.14464,-96.07346,-119.209724,43.03744,43.491333,39.40716,108.38215,107.40671,74.326416,-60.521667,-77.73276,-159.08168,-102.10247
PC-3,3.5494719,87.117714,54.512783,-40.276886,56.233532,16.48892,-79.02129,-63.783714,62.333996,-82.5046,-96.65763,-33.707737,38.217552,76.20258,63.253574,-79.642944,-29.38375,42.515507,19.667944,-98.16161,42.171238,79.94709,-46.863194,-49.684807,-74.62525,-66.741745,-76.44371,89.96818,74.06682,49.70247,8.255564,4.2984195,23.012383,-71.7922,-64.631485,-54.794933,-28.690609
NCI-H82,15.7533245,82.08077,-46.347034,-91.22444,92.78461,-29.39302,-51.5388,5.737533,-28.630024,-130.78928,-9.884928,-59.81108,108.85115,49.0801,-14.101074,-56.33418,-191.59407,47.320576,-72.32224,-2.5593517,107.3463,75.120415,-78.03542,-110.69765,1.987752,-87.75726,-103.87071,70.3606,80.681244,37.701405,78.20333,127.51582,98.07154,-51.739002,-50.762466,-134.34438,-111.44224
L-363,27.328325,152.27017,-121.18936,-58.882236,217.53052,57.012306,-151.28653,15.974687,-63.659424,-241.1303,88.67593,-116.54692,211.99365,190.2052,-18.26383,-190.2928,-292.85812,80.01683,-150.44243,-6.8652444,237.23447,215.65346,-101.23051,-170.903,-42.66234,-157.08723,-168.5162,147.86122,180.42046,28.106781,28.594248,209.42596,191.83716,-128.05222,-63.35385,-213.85905,-225.11887
HT-3,-13.851562,82.358284,37.312965,-42.937275,38.28607,-11.922376,-79.88104,-93.106865,63.082695,-93.82667,-135.21007,-44.452335,33.37404,90.580605,61.615166,-70.88821,-46.572315,41.81269,27.244795,-94.614975,26.226292,124.04833,-55.72301,-66.87766,-76.52008,-60.337223,-74.43485,126.747925,95.49849,49.98728,-13.867123,11.373823,37.526566,-59.259167,-35.56799,-33.362743,-24.244862
UO-31,21.842798,119.487885,40.16804,-19.918991,97.29261,70.74991,-108.75456,-36.08287,32.36087,-102.90101,-36.436165,-34.267227,75.7669,91.5578,71.2927,-100.42185,3.2138355,61.144234,-20.925213,-109.082,78.66064,50.630688,-29.484167,-35.919437,-72.7626,-85.48801,-109.139824,96.56874,42.58283,29.666088,20.113005,2.1064057,24.316154,-96.10732,-115.51484,-107.71004,-47.59928
LS411N,-12.904163,107.195755,12.0648155,-76.96136,90.16602,-6.3431773,-113.77234,-123.819405,80.8751,-134.6083,-129.00772,-86.57709,75.70349,103.12693,70.63343,-109.76432,-92.42139,81.82274,14.099875,-100.37257,77.71374,153.90538,-81.49389,-111.35738,-93.10638,-81.7257,-102.84362,147.6654,125.80999,97.59989,16.532373,65.80419,79.83393,-82.61927,-58.505276,-71.696976,-57.47523
Huh-7,-17.860695,161.32574,-31.933928,-53.523872,140.6094,-1.9178131,-118.89482,-60.760075,70.41925,-188.03308,-70.21838,-95.447624,145.40622,93.63187,86.29497,-138.6477,-111.578125,126.23674,-29.792921,-105.856804,100.67994,143.29886,-71.352615,-117.76106,-45.1738,-113.67579,-123.63991,174.80283,118.50359,34.93023,35.969368,137.55994,122.10388,-108.907074,-103.1429,-114.133026,-88.38019
MHH-NB-11,16.812605,67.49411,-18.733786,-145.92595,91.80903,-65.31862,-39.131725,32.958565,-53.203117,-126.51834,-44.290306,-56.056114,111.1347,6.0742717,-30.446508,-26.011358,-225.31099,25.550714,-79.63151,5.137515,110.32766,37.210403,-98.79884,-156.74036,21.91988,-101.08041,-148.1972,46.591427,59.186672,58.731644,145.41444,148.47508,96.47615,-50.300163,-68.404144,-192.68092,-116.005104
KNS-62,-22.019861,82.804184,63.51029,-51.879158,30.612001,-22.47291,-80.995316,-115.07902,91.54211,-83.51979,-179.91888,-42.156708,24.081484,89.254486,76.1599,-76.2155,-20.83302,54.956257,54.2939,-114.323326,15.444268,128.71927,-58.141506,-67.68376,-99.19878,-60.40807,-77.69636,142.86223,104.368385,73.635826,-10.276258,-9.227676,27.295376,-61.004074,-43.91945,-15.618647,-0.13849021
VA-ES-BJ,1.2809483,110.74675,18.086452,-37.391438,93.62498,51.11756,-90.56185,-20.466093,16.12587,-106.15638,-32.58171,-40.778908,88.66799,82.86014,41.926044,-98.437515,-47.45222,65.47588,-41.03531,-86.66452,85.03049,54.43203,-36.410965,-57.51565,-49.760372,-77.297775,-107.630196,91.6358,42.94618,23.560211,41.640293,38.386265,37.641506,-79.52333,-91.020294,-118.91827,-64.48566
A-431,-8.48879,89.26668,56.298244,-41.024418,50.618355,6.6262355,-88.71007,-93.38274,79.22349,-96.660355,-133.50117,-39.597828,32.870346,99.83109,66.241745,-91.60706,-44.67742,41.832256,29.15762,-105.67875,36.494953,128.93686,-55.70329,-71.93552,-88.62508,-68.892494,-77.82842,126.95128,110.738716,60.120678,-17.480734,4.81639,37.40719,-75.07757,-44.132656,-31.874754,-19.890392
LB2518-MEL,17.653095,150.13783,31.525087,-53.344738,83.54081,20.948072,-79.7408,-0.5715162,-30.401196,-107.13063,-13.785514,-69.04248,108.52163,49.13824,34.50003,-108.69847,-117.48314,85.69143,-90.87823,-88.066154,82.104416,20.47981,-34.83792,-49.83534,-38.59403,-67.699585,-110.56086,60.33285,31.173897,-43.634796,77.97487,65.49893,34.45844,-64.14802,-86.0676,-117.11284,-113.973755
HSC-2,-29.064991,93.88474,62.239285,-48.70726,34.734097,-20.971191,-89.258934,-105.88613,93.28222,-79.834854,-176.37645,-41.16844,25.671383,94.84515,81.740204,-89.82792,-15.9588375,65.38223,28.798803,-124.77501,19.539415,118.82445,-46.570522,-57.17149,-102.15967,-59.227924,-81.72683,145.99821,104.45563,61.91582,-7.4438405,-12.624516,19.27144,-72.126274,-55.930325,-31.449614,-1.1349128
NCI-H292,-11.365017,90.66175,47.699036,-40.1513,45.45361,4.8137035,-87.66824,-98.841095,64.94036,-100.62885,-138.869,-45.895435,35.191544,97.592926,65.1639,-82.29952,-36.23107,39.935997,31.721771,-106.487335,29.390125,131.65814,-57.263897,-70.516075,-84.82067,-67.16174,-87.14469,132.8336,99.08333,58.488865,-14.663059,6.6800523,34.53119,-65.861404,-41.324203,-35.421734,-23.224112
8-MG-BA,20.161963,106.03678,-4.814783,-34.117092,109.17366,43.209362,-95.607605,0.3035638,-18.933916,-125.64361,22.611324,-52.49367,93.865204,82.41146,37.40565,-96.98339,-94.40786,49.666332,-69.07903,-59.033047,104.67157,65.24863,-46.9156,-74.26786,-29.820023,-92.40383,-101.82951,70.42738,51.94907,4.98068,39.942585,66.87132,62.389046,-90.848526,-86.52785,-132.9619,-103.37185
PSN1,6.51796,98.56021,18.7284,-30.093662,93.67674,42.158184,-93.99797,-33.37966,37.41112,-99.59207,-31.151045,-38.927563,65.262695,89.442955,46.096947,-100.47282,-72.8973,57.482502,-29.658035,-77.23145,79.586426,74.84612,-35.257717,-55.176697,-56.047604,-75.061676,-81.878296,76.86739,80.32523,34.88448,13.093232,41.61916,41.623608,-87.904564,-71.23595,-96.0994,-61.465347
SW948,-1.0821823,122.80038,27.321249,-74.969025,110.752815,21.991575,-140.61981,-135.27953,95.28037,-159.22307,-123.78493,-95.12542,76.483116,128.00276,77.118164,-138.66325,-105.710236,83.465904,-4.4978704,-114.29498,95.377625,184.52113,-82.62495,-129.3792,-103.49121,-92.394165,-108.10476,158.8719,162.71327,99.323044,-2.2495658,72.65285,89.26639,-104.37179,-56.28349,-80.82813,-67.304214
Ramos.2G6.4C10,63.53998,216.5102,-176.54085,-125.75986,354.92657,85.79605,-236.42204,8.680372,-44.023235,-406.4005,128.61536,-196.40947,340.9449,311.03824,-34.713703,-316.10284,-497.8328,128.75208,-198.03604,-18.788637,409.38058,390.74298,-173.4105,-284.81842,-112.92397,-256.59827,-249.78441,267.62955,351.1589,74.84534,14.659127,303.9903,335.7533,-181.68431,-105.21932,-288.2329,-337.49692
MDA-MB-157,46.579884,135.27946,53.24184,-34.51257,121.29874,75.73037,-122.57265,-4.083295,-12.421783,-141.24295,20.790077,-57.26589,97.89393,86.86666,85.77439,-121.15535,-32.843388,51.160778,-57.029606,-119.5003,108.24361,33.13562,-56.791348,-64.168526,-62.38367,-119.2394,-124.330246,78.61873,26.300253,-10.827333,58.04551,26.792814,38.39534,-121.17704,-143.47585,-158.43924,-109.707726
CCF-STTG1,74.63977,166.22226,78.49772,-37.39078,154.46689,105.43738,-160.48436,-6.9151177,-14.644528,-163.8138,41.970585,-74.13562,109.088036,104.03507,121.244385,-136.90897,-12.465122,46.280178,-54.784008,-149.78487,134.27525,40.459152,-73.00427,-69.59381,-85.29562,-154.71129,-160.76437,84.34014,28.624475,-7.0594416,56.878296,17.213634,43.993877,-162.03055,-182.3156,-189.11298,-134.615
AGS,2.6920583,101.221436,28.991835,-49.316822,80.11272,12.468153,-105.51611,-99.88246,71.80961,-121.92296,-107.39428,-62.709633,60.678127,104.389946,63.616486,-100.59454,-69.7744,63.117805,11.83479,-94.599884,67.04823,139.65514,-66.29606,-91.64339,-84.41875,-79.99567,-92.83087,133.68207,120.67638,72.95231,-3.2001946,39.234417,64.02873,-82.47732,-57.852604,-62.13445,-45.822647
CAL-54,-0.8010179,103.764854,9.670945,-21.875202,66.63439,44.084106,-84.57329,-50.4318,30.414364,-92.7487,-72.62071,-35.450813,74.83909,77.88555,53.90724,-72.39202,-3.0657716,57.89711,6.621055,-85.01026,48.714733,60.791225,-36.670288,-36.875816,-59.127792,-65.98868,-97.80027,108.55458,27.319565,41.12706,21.77019,14.477787,27.936344,-58.278435,-82.86296,-83.24157,-29.192753
KP-N-YN,18.689219,68.85852,-9.792182,-139.80783,92.03979,-52.537086,-43.819992,34.14125,-56.531837,-125.595146,-37.011597,-52.205128,110.11956,11.891926,-23.460602,-32.062126,-210.20245,20.578716,-81.69256,-2.4464948,113.4141,36.813084,-93.7021,-151.01367,16.958347,-100.99475,-147.156,47.3148,55.81457,57.01263,141.0334,136.72093,89.051575,-53.77115,-73.533035,-194.9168,-114.453
ONS-76,-5.564962,89.785965,37.70537,-27.43242,65.48228,21.087837,-83.066025,-44.11501,38.612305,-86.09983,-69.065956,-32.970715,47.512306,83.557076,61.29834,-85.51903,-29.178442,50.62745,-14.718273,-96.71885,49.949852,69.017006,-29.353567,-49.91663,-60.02065,-70.677475,-85.131615,93.13282,59.40959,27.73268,14.070008,7.5150523,22.3121,-82.559654,-75.67231,-73.22571,-39.023838
P31/FUJ,39.87345,244.97517,-214.17729,-10.627977,300.24323,142.60246,-251.32045,-19.906487,-121.943855,-320.9398,175.74469,-179.1043,275.45526,312.08908,-13.279442,-296.89944,-401.67703,116.94133,-236.19496,-50.682713,308.86456,289.39734,-118.209366,-221.24509,-28.580816,-185.72888,-187.56534,191.19585,211.1889,-31.687561,-3.4796596,304.45612,267.72073,-218.43323,-89.20923,-310.20813,-338.74487
SUP-T1,13.37049,157.19563,-179.13893,-49.097195,217.60495,30.146536,-157.26678,8.776575,-85.020775,-230.75446,118.45296,-122.93214,209.65923,196.07718,-28.892246,-153.81424,-336.57477,97.11896,-174.04228,29.073673,219.38564,208.3013,-97.88775,-153.41757,-23.984446,-140.34518,-156.22696,123.266754,159.84155,12.2686205,15.970157,227.74397,196.71915,-135.63275,-48.59929,-230.08702,-241.53906
CAS-1,69.02131,159.92969,72.42727,-37.89778,154.90363,98.42928,-157.28218,-12.434893,-8.506478,-162.85709,35.823753,-68.42252,107.745186,110.60548,113.152916,-134.9055,-15.454687,47.485733,-60.131134,-140.07863,137.92801,49.112064,-68.497894,-74.02606,-84.171715,-151.50592,-152.99458,89.114204,37.985916,2.3212073,54.268658,19.788609,50.28984,-158.07573,-179.54282,-183.78241,-125.419334
CCRF-CEM,16.465569,198.27359,-225.13054,-42.52271,276.69464,59.796722,-209.24043,7.114158,-102.10365,-276.1484,158.20645,-157.69893,257.00833,262.96918,-34.383602,-212.132,-402.78223,124.44315,-217.71773,27.602491,276.4671,266.0078,-114.117645,-181.85568,-40.658512,-171.51697,-191.36485,153.28362,200.83586,10.824275,-4.698913,276.44016,239.76962,-177.28918,-60.07952,-281.21292,-297.97913
MFH-ino,53.9069,135.47449,74.61829,-29.335371,129.32317,85.0685,-133.808,-5.5684757,10.775584,-122.57358,20.525787,-42.837936,77.657585,90.800545,100.299904,-121.53743,-9.754225,47.273335,-44.67384,-127.33351,113.827545,33.603928,-47.023613,-46.79799,-78.31185,-123.46504,-120.20919,65.41417,47.43778,5.289903,35.392902,3.504897,27.226158,-139.90538,-150.99649,-150.41422,-93.095474
MKN1,6.5065513,78.95044,25.280603,-30.339352,61.04656,24.95283,-69.92036,-36.000633,32.417454,-81.34138,-62.982273,-32.298042,47.022552,67.31844,43.924698,-75.50349,-36.794006,53.25874,-10.38128,-79.9973,48.127426,57.646755,-33.165966,-50.29156,-49.23481,-62.94571,-76.4222,80.71062,56.320072,32.25514,21.537378,16.098194,25.343113,-63.9536,-64.65752,-74.95842,-35.611084
SCC-25,-12.657096,122.637276,83.71071,-38.131145,62.563423,15.5051155,-123.10135,-121.79488,91.11119,-113.602776,-162.62134,-50.543983,38.25625,128.68709,104.07318,-116.67282,-6.8935165,58.734417,28.796778,-154.09499,37.68966,143.1052,-57.03692,-72.800026,-121.053955,-84.76037,-98.121994,165.30441,117.108826,56.251392,-22.654661,-18.228497,31.529907,-102.566086,-77.178566,-46.927338,-20.340668
MHH-ES-1,14.877171,100.998505,-40.233402,-56.416832,112.25761,14.617227,-85.48346,6.010744,-40.213123,-139.373,33.183453,-64.05721,116.12385,76.36649,14.816461,-92.921074,-153.06921,56.346462,-91.83503,-30.71686,118.15482,74.605515,-67.634,-95.53514,-11.047883,-95.13763,-104.64742,75.60278,62.155544,6.309547,60.154972,111.82991,92.16506,-83.03263,-75.33275,-142.56392,-133.35219
OC 314,7.483292,82.54173,12.261828,-31.285534,64.17084,21.635143,-69.12674,-48.61765,46.99099,-81.81703,-71.99403,-28.36598,57.48749,62.43261,36.49256,-68.005844,-32.3346,61.81105,-1.0042547,-70.91393,50.406876,58.226677,-31.502258,-41.61171,-50.326824,-57.54551,-76.91926,90.457275,56.7004,49.36988,19.226635,21.49395,32.070843,-53.837513,-69.00127,-68.639465,-26.875172
NCI-H1793,-2.8398023,81.484245,6.0837336,-39.06703,61.28374,12.509006,-64.45953,-34.390823,12.232567,-95.75918,-53.821873,-40.375687,68.21464,59.248978,30.797113,-65.874664,-65.24449,47.031277,-14.424454,-58.059433,58.67841,75.12039,-46.300934,-60.60534,-36.291245,-62.951138,-83.31347,86.3312,48.07822,30.040703,27.854694,48.748974,45.693096,-46.581814,-51.108795,-75.22349,-54.03379
COR-L23,-5.6628437,86.76451,51.78314,-37.785244,59.82125,8.793103,-87.38175,-74.46711,74.27384,-86.47354,-116.71498,-33.560772,38.82564,94.11542,63.101387,-88.57106,-40.461628,44.37968,25.107012,-99.04535,46.627785,108.464264,-52.429363,-58.56102,-90.96481,-71.56929,-81.88487,110.60587,103.65039,64.491554,-4.3044186,5.287281,32.50366,-74.63413,-55.63625,-47.081394,-24.387022
HOS,43.88177,120.47773,34.563118,-32.742035,123.47677,67.120415,-118.79493,-6.616061,3.44047,-133.73795,24.667213,-50.587322,80.818825,86.14751,71.71071,-111.40163,-59.169743,49.825165,-52.0938,-96.5359,110.52079,49.906643,-51.006474,-65.04938,-55.204617,-109.746,-101.930435,64.40802,57.1283,3.2941852,35.85752,39.088776,50.21943,-120.541016,-121.007935,-145.53328,-104.13175
MZ-MEL-2,17.321932,144.9392,32.226288,-49.023067,107.28585,43.83097,-104.48998,-9.545838,-20.702341,-127.69323,-3.9886324,-69.76159,107.14626,80.95977,46.032787,-130.21075,-108.267555,74.57846,-84.486984,-100.38722,104.24199,51.174747,-44.289787,-69.230446,-49.745007,-85.298965,-119.21347,78.91333,52.354347,-24.225382,60.019115,65.56558,45.188946,-88.875305,-96.80719,-132.68678,-117.784424
ARH-77,42.31605,209.54095,-163.49509,-85.838745,310.5584,87.59496,-215.85391,7.888692,-57.009224,-346.9897,112.52542,-169.94981,300.35678,287.39743,-29.797466,-293.46762,-429.1631,112.48717,-202.49263,-35.8978,350.34912,329.01157,-138.85378,-238.01546,-86.35481,-214.06395,-224.50198,224.5851,284.8216,42.09679,18.242147,281.25385,281.94778,-169.34528,-88.61524,-270.6601,-311.23053
NCI-H2081,18.91672,87.12381,-29.417341,-117.0298,84.63954,-53.620274,-60.177994,-24.23024,-13.553898,-133.7625,-65.17596,-63.972427,109.92401,40.220608,-8.458608,-40.807,-195.4155,34.057648,-44.67278,2.192564,97.67151,87.86421,-95.96064,-128.97992,-12.340561,-89.925186,-116.809906,93.90031,91.101906,72.83608,82.26582,129.93477,108.42092,-49.597565,-55.181263,-136.88663,-95.564384
FTC-133,22.834284,128.14777,34.743774,-39.972134,114.62887,62.586212,-117.06457,-20.869465,0.20889208,-126.93068,-4.3252077,-60.168476,101.75065,90.716675,73.65611,-114.52564,-40.02128,62.382618,-58.097584,-108.44328,103.74175,54.617825,-53.474503,-64.26743,-60.869286,-101.49157,-123.30349,89.43842,39.387596,4.7043242,51.568916,40.443058,43.22028,-106.72079,-118.378944,-143.17937,-96.15747
MOLT-16,19.854551,203.5481,-217.41705,-29.655653,281.40994,75.082275,-211.94301,11.459495,-97.713005,-285.32532,159.88918,-154.2978,260.65027,274.55838,-31.472126,-226.34604,-395.63458,115.81815,-222.21074,16.860748,281.1288,275.7874,-111.80029,-185.0162,-37.885468,-177.33304,-189.86353,162.253,204.45872,0.26114246,-12.312331,274.17535,244.59795,-179.6572,-58.078705,-272.89792,-304.6208
BEN,9.775069,109.70213,15.116472,-89.827614,94.76488,-10.393509,-101.221664,-80.85009,41.19083,-145.37387,-101.023834,-76.33005,91.173874,81.575195,39.77364,-84.857704,-134.76035,45.679195,-13.277146,-60.034782,86.43873,129.07211,-87.96702,-125.047485,-57.40674,-91.753784,-114.741684,125.343094,114.645134,77.780914,35.13503,94.82778,92.92993,-76.36495,-60.995995,-106.87283,-77.63165
SKG-IIIa,-9.476293,76.30325,35.23359,-32.387646,35.65054,0.1450605,-70.79434,-80.28301,52.140514,-88.58069,-114.05039,-38.248894,32.905205,78.711365,53.4979,-65.35654,-35.223885,36.2563,23.98096,-84.76276,23.743038,109.51246,-50.698395,-58.269135,-63.689392,-57.16372,-71.55302,113.4165,79.45355,46.315956,-11.21879,10.516361,31.716724,-50.936543,-35.0028,-32.647797,-22.708473
HT-144,30.56994,167.97638,45.77967,-53.200027,110.23928,45.130344,-111.01547,-13.75937,-25.609493,-132.6429,-4.621279,-79.76954,118.52123,75.119,60.717667,-130.70634,-103.30185,78.52992,-88.23706,-116.37955,104.69657,36.56494,-45.442142,-66.382256,-57.742516,-90.94077,-129.99365,78.335625,38.92127,-37.061264,70.858315,61.727505,44.767307,-95.85651,-113.300934,-138.30669,-126.42251
LNCaP clone FGC,5.3183746,89.13674,-6.736784,-73.37037,73.63332,-7.3545,-66.98875,-52.608555,14.729332,-138.73999,-55.196106,-63.48108,87.92461,81.5475,25.73294,-72.677124,-131.95184,39.708828,-20.119633,-48.93376,75.88004,126.42775,-83.464966,-105.80104,-38.92334,-84.62342,-93.16261,112.995766,93.89179,46.215214,35.269997,86.05142,87.48522,-54.152542,-44.5971,-81.27867,-83.78617
G-361,11.2245245,136.46225,17.422102,-53.832504,78.76962,17.991018,-77.77053,-13.822362,-16.826828,-105.30499,-31.897438,-66.4408,106.03122,53.219185,34.587296,-100.6139,-101.97861,93.2945,-74.64176,-85.43156,76.91183,30.800325,-34.022243,-56.209164,-40.547073,-63.981483,-108.56051,77.5038,29.512373,-21.39082,73.510216,60.183857,35.38438,-57.83751,-83.00905,-114.31444,-95.4567
VMRC-RCZ,7.9363527,125.32557,17.02986,-16.592356,100.16825,68.3808,-106.93026,-35.399986,16.140957,-120.486626,-22.361773,-42.394276,93.14756,103.26436,59.97179,-106.52055,-27.969238,58.525497,-36.21256,-96.3238,82.571205,68.79402,-38.350292,-53.721996,-55.90593,-87.79082,-109.15739,107.58358,39.657326,18.518398,23.476206,32.559036,43.68972,-90.95391,-105.33751,-114.86171,-64.80945
NCI-H1573,-11.546826,99.66425,39.799923,-64.34782,57.06185,-0.8053756,-90.76417,-106.781235,66.13044,-114.17218,-147.0503,-62.985035,59.649406,89.8126,63.561764,-87.0435,-58.009464,51.03766,44.085735,-101.79976,42.10087,138.66403,-74.54555,-89.89043,-83.707664,-70.73499,-99.29593,143.48256,98.96206,71.99091,5.1828766,37.327953,55.055984,-59.9413,-40.718388,-47.14957,-32.934982
MN-60,73.74772,218.34563,-188.35023,-119.24158,348.63666,82.70067,-234.7047,7.651621,-53.886234,-402.25076,131.51183,-198.69936,339.6738,304.7203,-31.911673,-297.82574,-489.46457,126.18563,-185.72197,-7.5159836,399.74405,380.19104,-174.2526,-275.08527,-107.10649,-257.03506,-251.04906,263.46936,340.6439,73.61963,13.754338,306.37442,335.69116,-180.28847,-111.08886,-288.67474,-338.19177
IGROV-1,4.796026,95.860825,-6.8610544,-43.256336,74.88223,26.081669,-75.08643,-48.239143,26.629654,-111.13404,-59.195988,-50.810787,86.98729,77.93746,29.82887,-75.31127,-64.449196,59.696445,-15.657744,-65.75828,67.29741,86.198296,-50.286755,-68.00856,-43.581017,-70.05981,-97.20708,108.55652,60.96229,40.174103,23.80481,50.5619,56.926163,-52.937614,-62.021736,-84.47188,-50.126057
Lu-134-A,16.07832,85.04137,-23.618093,-116.42617,77.010994,-50.197487,-54.898056,-31.127104,-10.535494,-129.03453,-69.38508,-63.367554,98.28436,38.150425,-5.106806,-39.18679,-187.4413,35.533943,-45.18185,-8.722304,86.533554,80.80696,-93.987144,-128.7624,-9.94476,-86.755424,-112.13995,88.54469,83.296875,63.96358,84.61529,118.35503,97.9704,-47.836124,-55.689835,-131.06375,-91.31004
A101D,20.668758,153.43169,39.49125,-50.609165,109.535225,47.92775,-108.004585,-11.90441,-22.791225,-129.70535,1.791372,-72.51498,111.90497,77.09696,55.184483,-131.48969,-105.721954,76.94444,-91.78201,-109.833374,103.25402,41.10409,-41.11853,-69.81864,-51.222202,-86.60813,-122.11967,76.53964,45.227325,-32.33709,66.188324,63.168743,44.39015,-93.97041,-103.45819,-134.79274,-119.95363
SK-MM-2,14.914621,141.65468,-128.1133,-58.732895,203.9801,49.398758,-141.30824,12.208043,-60.894173,-231.31111,86.57046,-110.09175,201.15991,180.85957,-19.983322,-178.99657,-292.69513,83.99633,-147.59732,-1.5514153,225.16147,210.6382,-95.89554,-165.52121,-33.81704,-142.19397,-152.82892,142.58463,174.65181,29.425655,31.461657,209.12044,185.0154,-117.34006,-53.62082,-207.10529,-216.3602
SJNB-13,9.213462,62.334656,-34.506874,-119.95482,87.905106,-49.5572,-37.85403,26.7411,-48.327232,-123.25612,-25.64548,-53.60805,107.62878,22.112053,-31.364233,-40.604015,-211.68134,31.52933,-82.15595,7.4415054,107.02285,52.91077,-84.63969,-141.04033,20.098188,-88.57541,-124.234024,54.151867,65.283035,48.04685,117.27303,142.7941,94.9727,-44.966583,-52.0087,-165.80037,-109.92432
Calu-3,-7.448114,111.08105,62.656895,-45.076138,62.1075,25.43337,-104.98928,-114.739365,93.2746,-113.44325,-155.27525,-46.352444,49.101357,109.65053,86.60724,-99.04184,-16.894197,52.57312,45.00753,-128.9666,39.782356,129.10616,-62.9682,-71.41765,-103.95311,-81.25744,-99.98313,149.82341,95.52836,80.6174,-5.873061,2.506675,39.3939,-82.61686,-74.00225,-46.654068,-11.380699
MOLT-13,27.369366,214.32541,-237.38593,-42.98453,295.49133,73.23669,-228.52583,2.84213,-106.4125,-296.90033,161.35327,-171.70079,272.2975,284.11923,-28.05864,-220.14453,-413.39044,128.19305,-219.06058,23.104822,292.40872,287.49677,-125.73557,-196.66301,-46.037315,-190.21286,-205.52834,169.03067,210.0068,12.247977,-10.654699,288.87427,257.42975,-195.5609,-70.29725,-296.94647,-318.24835
D-423MG,61.942177,137.21135,50.44288,-32.9309,141.01982,86.050354,-135.7586,6.8316145,-18.26853,-149.09457,47.578106,-59.599903,98.68359,88.66721,97.0111,-118.01075,-19.633574,45.271393,-57.186977,-116.0588,126.55078,34.53115,-63.329197,-63.98021,-66.459404,-137.33525,-134.7719,72.63951,29.24033,-3.831345,52.76432,23.394064,45.778713,-139.23984,-156.58112,-174.60239,-121.480606
IM-9,36.590897,205.50842,-152.8727,-64.740616,298.03513,97.991646,-213.43256,6.137972,-63.496006,-329.22333,117.94459,-156.04987,279.47623,281.10562,-19.68286,-280.97723,-390.58652,92.71097,-199.34116,-43.707607,329.41403,303.5741,-127.21122,-224.30681,-74.69004,-204.05307,-216.4284,207.45442,254.20134,30.4841,14.979644,266.17935,262.69565,-175.49113,-88.54793,-271.74783,-301.6149
NCI-H2452,19.221,102.06362,32.559498,-17.793022,96.47377,59.38914,-101.535545,-17.247334,17.818705,-91.674805,-15.2371645,-30.335186,61.76921,77.86211,63.412193,-95.53692,-16.019442,58.7425,-30.59139,-93.45968,80.37626,38.69792,-25.459167,-35.54931,-58.49872,-82.075874,-93.19627,64.46032,42.12286,23.9014,26.769482,11.528977,20.707771,-96.485245,-105.74832,-112.484695,-59.901474
SW872,42.63847,130.07329,30.003263,-37.40616,123.373665,61.027264,-117.08336,-6.401225,-14.408504,-131.91356,26.3487,-65.13138,99.13912,81.42346,72.19295,-107.36696,-57.868706,51.206078,-56.15565,-96.05219,110.8415,43.98357,-57.830276,-64.08183,-53.906982,-112.88209,-120.50053,67.71869,39.667267,-3.879914,50.203938,48.273964,53.20129,-115.83465,-126.128784,-147.87663,-112.57777
SaOS-2,52.47088,122.24282,29.062613,-46.461388,122.77585,57.748318,-111.70152,9.297595,-22.30881,-143.81172,34.713715,-59.097466,98.70174,76.180405,69.03948,-94.35997,-57.690193,44.580444,-63.355522,-86.8757,114.22674,39.49243,-69.2805,-70.712036,-44.613792,-125.57882,-127.01035,67.18734,35.047688,-3.179703,60.228245,43.388466,52.265087,-111.20917,-134.63144,-160.59386,-119.669075
RVH-421,16.544844,167.03975,44.525993,-62.989655,90.16319,23.159819,-93.344154,-6.875552,-19.322737,-105.32486,-32.34023,-74.17205,115.80205,51.665672,45.9664,-126.60031,-108.57899,107.689674,-90.37718,-110.62966,90.609695,15.618841,-30.805408,-44.193295,-59.52399,-67.40494,-119.67309,68.5842,38.733093,-40.928856,88.40271,60.149933,25.574915,-72.02877,-100.04109,-127.43385,-109.28908
KYSE-140,-17.071173,85.82577,22.795593,-64.09717,38.786713,-34.307217,-75.623634,-99.78253,63.433464,-101.38565,-142.88913,-53.661427,47.93069,75.444695,56.758366,-63.33698,-59.364056,65.45353,18.627224,-81.279915,29.571293,126.88885,-64.62869,-76.0804,-74.15429,-61.925674,-80.80572,142.38501,100.80753,55.480877,2.1246367,21.46904,47.011852,-50.457905,-41.17321,-36.58089,-21.32206
MS-1 [Human lung carcinoma],19.503048,82.65776,-42.185417,-90.971664,96.35325,-25.968752,-58.48551,5.3935676,-29.354328,-129.81471,-10.624769,-58.64222,108.48351,45.600315,-6.0670238,-55.86008,-180.13434,43.476227,-71.27411,-5.222102,109.50262,68.42559,-77.33824,-111.278915,1.948237,-89.55337,-104.69538,67.07459,72.96491,39.582554,82.19625,123.66957,95.84066,-57.693104,-61.189804,-142.51651,-113.52731
SW684,33.580513,126.667435,38.689396,-24.776724,108.99992,59.30557,-106.95268,-0.7124691,-4.4039855,-112.36791,13.551464,-40.348938,86.0368,78.742226,65.65479,-106.514145,-43.830467,52.20855,-55.444317,-92.66385,99.1622,33.740086,-37.468937,-37.876984,-55.606945,-99.93008,-111.352455,60.90835,42.82991,-4.998843,40.679527,30.334337,32.255432,-104.44844,-119.731255,-129.00034,-94.40657
CPC-N,23.119253,91.148766,-51.571404,-109.06414,109.00495,-34.58759,-66.40213,-0.07307229,-40.419525,-149.77208,-16.155495,-69.27037,127.19759,53.01368,-16.527098,-57.932804,-211.97017,42.04374,-73.88565,6.2854867,125.11278,88.158066,-91.06156,-135.11142,1.7021122,-100.872955,-125.03284,83.3941,87.01482,55.40765,90.978035,147.08804,116.78529,-61.430862,-62.294487,-159.95757,-124.894966
HCT 116,-2.5974488,66.90859,10.106858,-43.52345,57.1502,-2.5644484,-62.708984,-49.60423,45.13424,-85.83076,-74.33806,-36.951714,51.317394,68.53541,27.605549,-70.59042,-82.55389,47.961143,1.9907029,-54.96233,52.510494,92.36237,-47.650963,-66.52245,-47.831184,-57.097656,-68.22098,89.90322,88.738304,52.894917,12.040029,41.26064,47.23873,-51.102566,-37.08898,-53.737896,-39.98935
D-392MG,90.61342,169.3171,82.17501,-39.19487,167.20695,113.13031,-171.03291,1.6638033,-21.410524,-186.24107,64.94628,-75.80606,115.02139,109.10061,130.13449,-146.12514,-10.437277,45.30411,-69.38585,-150.97488,147.79721,44.146687,-84.814445,-78.906364,-87.589005,-171.74954,-162.94806,90.03283,38.578262,-14.843624,56.855415,14.36585,53.411205,-172.90001,-195.42503,-205.63913,-148.82053
Lu-135,22.856258,95.17731,-29.085411,-108.937584,100.21855,-32.955013,-69.26751,-3.7031667,-29.290836,-142.70416,-33.51032,-66.138794,119.23901,49.005756,-4.3782997,-51.29686,-193.505,37.89144,-66.38988,-9.055874,112.766754,76.93201,-93.26234,-132.70781,-6.140694,-102.24657,-126.34453,81.76296,74.86849,49.877415,92.76676,129.16861,106.61417,-63.591278,-73.46813,-162.75385,-114.50819
TE-8,11.633554,93.1844,23.682922,-27.232527,67.937096,31.283918,-79.42456,-34.021854,17.624565,-93.97304,-43.759933,-36.669094,60.526855,68.02984,53.517387,-74.43432,-29.380476,51.503098,-18.197105,-83.1127,55.59529,56.508747,-35.76835,-46.809788,-46.731438,-72.20349,-85.36873,86.182274,39.3495,16.608051,20.199587,17.386024,27.771996,-66.95257,-81.18129,-81.1252,-48.493114
SW1088,81.73412,172.98999,89.02334,-31.682152,165.10658,115.836716,-171.30727,-6.3271055,-10.657505,-169.9498,47.50532,-71.710556,109.676735,111.11291,130.30864,-145.23618,6.9308267,48.191788,-58.74927,-159.02313,143.49292,40.482994,-71.21449,-67.305756,-94.94546,-163.62181,-163.35715,87.16592,34.743286,-6.2428927,53.824867,7.106379,43.274475,-172.29262,-195.83342,-195.64854,-133.32904
NCI-H1155,23.158525,90.328674,-16.366688,-105.00119,102.15092,-21.0724,-71.628075,-15.719686,-11.616149,-131.58212,-36.592735,-65.261505,112.178116,56.634457,1.3228682,-71.84464,-176.42462,47.228123,-61.4005,-22.025414,115.377106,77.17687,-78.661255,-119.162384,-23.700228,-92.78867,-115.68137,77.90492,85.25209,56.559097,80.5429,114.09953,95.28836,-65.36329,-66.693016,-145.86772,-103.86833
MRK-nu-1,11.086541,90.70004,32.795025,-68.41712,59.04086,3.9302511,-79.49316,-89.27177,49.272854,-132.91214,-90.0888,-59.225685,55.903515,93.26399,47.749554,-82.86006,-109.173676,28.505718,16.671646,-75.105934,56.12348,147.55742,-83.264725,-101.94022,-60.31914,-80.30931,-82.62126,117.69231,108.285164,53.50184,-3.6378284,54.12536,68.71285,-60.987953,-32.821476,-45.86643,-65.237
SK-CO-1,-6.6460996,104.01951,43.300175,-71.08479,79.79811,-1.913182,-113.36032,-124.78461,98.59749,-124.93615,-148.19693,-69.75636,52.986755,108.913185,76.813354,-110.69676,-74.668045,70.816345,26.17076,-110.430084,65.37398,156.0638,-75.200584,-104.25887,-101.63047,-81.38932,-99.06775,148.06567,137.75758,99.97134,-0.51884234,40.495358,65.51306,-89.00794,-57.131027,-56.446262,-40.937977
J.RT3-T3.5,19.250029,177.96457,-193.67804,-46.68114,244.41087,47.95879,-184.30153,5.955687,-95.49052,-250.19199,136.32133,-139.72316,230.66518,227.01059,-29.557241,-181.79158,-356.17242,112.58055,-194.19308,24.59005,242.88487,233.2115,-104.46527,-167.2841,-32.580276,-157.41125,-176.6688,140.2464,172.53082,13.3180485,7.0810814,242.2352,211.85309,-158.07584,-59.903736,-252.77422,-263.64996
DSH1,-4.1757035,90.445244,66.457756,-58.66655,44.378696,1.5798478,-88.44129,-117.962776,86.82087,-112.17203,-162.53108,-53.24099,32.71392,103.59619,68.52117,-87.09155,-55.735004,42.736286,49.21609,-113.42192,32.791145,154.43448,-71.82377,-90.4116,-95.4554,-72.70594,-90.35916,141.2618,127.56904,77.81996,-12.552774,8.875643,42.45366,-64.51116,-42.228695,-25.114931,-21.404995
NCI-H1650,1.8220009,88.25034,57.67708,-37.37091,42.202763,21.210125,-81.91121,-86.26654,60.013515,-88.61533,-122.68223,-38.241478,33.96093,85.039986,65.299934,-72.89667,-18.456839,42.500546,34.766624,-106.09815,26.521841,103.75498,-48.576202,-57.10744,-80.45511,-63.600567,-82.45194,113.88961,77.18041,50.156303,-6.721338,-4.9747033,23.22329,-60.990475,-55.504044,-39.160236,-18.857073
NCI-H345,16.652708,83.611244,-24.104464,-119.83413,77.29689,-59.219223,-52.72218,-23.728432,-11.992684,-128.90674,-68.75703,-58.551865,105.428314,30.511847,-8.629925,-31.287605,-192.80733,36.435207,-45.19154,-1.3081702,92.546844,70.255356,-94.82638,-124.64646,-8.473462,-89.17378,-115.47383,87.52551,82.71963,71.218834,94.86155,123.67136,101.21536,-47.520046,-62.502346,-139.01907,-91.38833
